svm_type one_class
kernel_type rbf
gamma 0.5
nr_class 2
total_sv 172
rho 167.61310120105742
SV
1.0 1:0.0 2:0.0 3:0.0 4:0.0 5:0.0 6:0.0 7:0.0 8:0.0 9:0.0 10:0.0 11:0.0 12:0.0 13:0.0 14:0.0 15:0.0 16:0.0 17:0.0 18:0.0 19:0.0 20:0.0 21:0.0 22:0.0 23:0.0 24:0.0 25:0.0 26:0.0 27:0.0 28:0.0 29:0.0 30:0.0 31:0.0 32:0.0 33:0.0 34:0.0 35:0.0 36:0.0 37:0.0 38:0.0 39:0.0 40:0.0 41:0.0 42:0.0 43:0.0 44:0.0 45:0.0 46:0.0 47:0.0 48:0.0 49:0.0 50:0.0 51:0.0 52:0.0 53:0.0 54:0.0 55:0.0 56:0.0 57:0.0 58:0.0 59:0.0 60:0.0 61:0.0 62:0.0 63:0.0 64:0.0 65:0.0 66:0.0 67:0.0 68:0.0 69:1.0 70:0.0 71:0.0 72:0.0 73:0.0 74:0.0 75:0.0 76:0.0 77:0.0 78:0.0 79:0.0 80:0.0 81:0.0 82:0.0 83:0.0 84:0.0 85:0.0 86:0.0 87:0.0 88:0.0 89:0.0 90:0.0 91:0.0 92:0.0 93:0.0 94:0.0 95:0.0 96:0.0 97:0.0 98:0.0 99:0.0 100:0.0 101:0.0 102:0.0 103:0.0 104:0.0 105:0.0 106:0.0 107:0.0 108:0.0 109:0.0 110:0.0 111:0.0 112:0.0 113:0.0 114:0.0 115:0.0 116:0.0 117:0.0 118:0.0 119:0.0 120:0.0 121:0.0 122:0.0 123:0.0 124:0.0 125:0.0 126:0.0 127:0.0 128:0.0 129:0.0 130:0.0 131:0.0 132:0.0 133:0.0 134:0.0 135:0.0 136:0.0 137:0.0 138:0.0 139:0.0 140:0.0 141:0.0 142:0.0 143:0.0 144:0.0 145:0.0 146:0.0 147:0.0 148:0.0 149:0.0 150:0.0 151:0.0 152:0.0 153:0.0 154:0.0 155:0.0 156:0.0 157:0.0 158:0.0 159:0.0 160:0.0 
1.0 1:0.0 2:0.0 3:0.0 4:0.0 5:0.0 6:0.0 7:0.0 8:0.0 9:0.0 10:0.0 11:0.0 12:0.0 13:0.0 14:0.0 15:0.0 16:0.0 17:0.0 18:0.0 19:0.0 20:0.0 21:0.0 22:0.0 23:0.0 24:0.0 25:0.0 26:0.0 27:0.0 28:0.0 29:0.0 30:0.0 31:0.0 32:0.0 33:0.0 34:0.0 35:0.0 36:0.0 37:0.0 38:0.0 39:0.0 40:0.0 41:0.0 42:0.0 43:0.0 44:0.0 45:0.0 46:0.0 47:0.0 48:0.0 49:0.0 50:0.0 51:0.0 52:0.0 53:0.0 54:0.0 55:0.0 56:0.0 57:0.0 58:0.0 59:0.0 60:0.0 61:0.0 62:0.0 63:0.0 64:0.0 65:0.0 66:0.0 67:0.0 68:0.0 69:1.0 70:0.0 71:0.0 72:0.0 73:0.0 74:0.0 75:0.0 76:0.0 77:0.0 78:0.0 79:0.0 80:0.0 81:0.0 82:0.0 83:0.0 84:0.0 85:0.0 86:0.0 87:0.0 88:0.0 89:0.0 90:0.0 91:0.0 92:0.0 93:0.0 94:0.0 95:0.0 96:0.0 97:0.0 98:0.0 99:0.0 100:0.0 101:0.0 102:0.0 103:0.0 104:0.0 105:0.0 106:0.0 107:0.0 108:0.0 109:0.0 110:0.0 111:0.0 112:0.0 113:0.0 114:0.0 115:0.0 116:0.0 117:0.0 118:0.0 119:0.0 120:0.0 121:0.0 122:0.0 123:0.0 124:0.0 125:0.0 126:0.0 127:0.0 128:0.0 129:0.0 130:0.0 131:0.0 132:0.0 133:0.0 134:0.0 135:0.0 136:0.0 137:0.0 138:0.0 139:0.0 140:0.0 141:0.0 142:0.0 143:0.0 144:0.0 145:0.0 146:0.0 147:0.0 148:0.0 149:0.0 150:0.0 151:0.0 152:0.0 153:0.0 154:0.0 155:0.0 156:0.0 157:0.0 158:0.0 159:0.0 160:0.0 
1.0 1:0.0 2:0.0 3:0.0 4:0.0 5:0.0 6:0.0 7:0.0 8:0.0 9:0.0 10:0.0 11:0.0 12:0.0 13:0.0 14:0.0 15:0.0 16:0.0 17:0.0 18:0.0 19:0.0 20:0.0 21:0.0 22:0.0 23:0.0 24:0.0 25:0.0 26:0.0 27:0.0 28:0.0 29:0.0 30:0.0 31:0.0 32:0.0 33:0.0 34:0.0 35:0.0 36:0.0 37:0.0 38:0.0 39:0.0 40:0.0 41:0.0 42:0.0 43:0.0 44:0.0 45:0.0 46:0.0 47:0.0 48:0.0 49:0.0 50:0.0 51:0.0 52:0.0 53:0.0 54:0.0 55:0.0 56:0.0 57:0.0 58:0.0 59:0.0 60:0.0 61:0.0 62:0.0 63:0.0 64:0.0 65:0.0 66:0.0 67:0.0 68:0.0 69:1.0 70:0.0 71:0.0 72:0.0 73:0.0 74:0.0 75:0.0 76:0.0 77:0.0 78:0.0 79:0.0 80:0.0 81:0.0 82:0.0 83:0.0 84:0.0 85:0.0 86:0.0 87:0.0 88:0.0 89:0.0 90:0.0 91:0.0 92:0.0 93:0.0 94:0.0 95:0.0 96:0.0 97:0.0 98:0.0 99:0.0 100:0.0 101:0.0 102:0.0 103:0.0 104:0.0 105:0.0 106:0.0 107:0.0 108:0.0 109:0.0 110:0.0 111:0.0 112:0.0 113:0.0 114:0.0 115:0.0 116:0.0 117:0.0 118:0.0 119:0.0 120:0.0 121:0.0 122:0.0 123:0.0 124:0.0 125:0.0 126:0.0 127:0.0 128:0.0 129:0.0 130:0.0 131:0.0 132:0.0 133:0.0 134:0.0 135:0.0 136:0.0 137:0.0 138:0.0 139:0.0 140:0.0 141:0.0 142:0.0 143:0.0 144:0.0 145:0.0 146:0.0 147:0.0 148:0.0 149:0.0 150:0.0 151:0.0 152:0.0 153:0.0 154:0.0 155:0.0 156:0.0 157:0.0 158:0.0 159:0.0 160:0.0 
1.0 1:0.0 2:0.0 3:0.0 4:0.0 5:0.0 6:0.0 7:0.0 8:0.0 9:0.0 10:0.0 11:0.0 12:0.0 13:0.0 14:0.0 15:0.0 16:0.0 17:0.0 18:0.0 19:0.0 20:0.0 21:0.0 22:0.0 23:0.0 24:0.0 25:0.0 26:0.0 27:0.0 28:0.0 29:0.0 30:0.0 31:0.0 32:0.0 33:0.0 34:0.0 35:0.0 36:0.0 37:0.0 38:0.0 39:0.0 40:0.0 41:0.0 42:0.0 43:0.0 44:0.0 45:0.0 46:0.0 47:0.0 48:0.0 49:0.0 50:0.0 51:0.0 52:0.0 53:0.0 54:0.0 55:0.0 56:0.0 57:0.0 58:0.0 59:0.0 60:0.0 61:0.0 62:0.0 63:0.0 64:0.0 65:0.0 66:0.0 67:0.0 68:0.0 69:1.0 70:0.0 71:0.0 72:0.0 73:0.0 74:0.0 75:0.0 76:0.0 77:0.0 78:0.0 79:0.0 80:0.0 81:0.0 82:0.0 83:0.0 84:0.0 85:0.0 86:0.0 87:0.0 88:0.0 89:0.0 90:0.0 91:0.0 92:0.0 93:0.0 94:0.0 95:0.0 96:0.0 97:0.0 98:0.0 99:0.0 100:0.0 101:0.0 102:0.0 103:0.0 104:0.0 105:0.0 106:0.0 107:0.0 108:0.0 109:0.0 110:0.0 111:0.0 112:0.0 113:0.0 114:0.0 115:0.0 116:0.0 117:0.0 118:0.0 119:0.0 120:0.0 121:0.0 122:0.0 123:0.0 124:0.0 125:0.0 126:0.0 127:0.0 128:0.0 129:0.0 130:0.0 131:0.0 132:0.0 133:0.0 134:0.0 135:0.0 136:0.0 137:0.0 138:0.0 139:0.0 140:0.0 141:0.0 142:0.0 143:0.0 144:0.0 145:0.0 146:0.0 147:0.0 148:0.0 149:0.0 150:0.0 151:0.0 152:0.0 153:0.0 154:0.0 155:0.0 156:0.0 157:0.0 158:0.0 159:0.0 160:0.0 
1.0 1:0.0 2:0.0 3:0.0 4:0.0 5:0.0 6:0.0 7:0.0 8:0.0 9:0.0 10:0.0 11:0.0 12:0.0 13:0.0 14:0.0 15:0.0 16:0.0 17:0.0 18:0.0 19:0.0 20:0.0 21:0.0 22:0.0 23:0.0 24:0.0 25:0.0 26:0.0 27:0.0 28:0.0 29:0.0 30:0.0 31:0.0 32:0.0 33:0.0 34:0.0 35:0.0 36:0.0 37:0.0 38:0.0 39:0.0 40:0.0 41:0.0 42:0.0 43:0.0 44:0.0 45:0.0 46:0.0 47:0.0 48:0.0 49:0.0 50:0.0 51:0.0 52:0.0 53:0.0 54:0.0 55:0.0 56:0.0 57:0.0 58:0.0 59:0.0 60:0.0 61:0.0 62:0.0 63:0.0 64:0.0 65:0.0 66:0.0 67:0.0 68:0.0 69:1.0 70:0.0 71:0.0 72:0.0 73:0.0 74:0.0 75:0.0 76:0.0 77:0.0 78:0.0 79:0.0 80:0.0 81:0.0 82:0.0 83:0.0 84:0.0 85:0.0 86:0.0 87:0.0 88:0.0 89:0.0 90:0.0 91:0.0 92:0.0 93:0.0 94:0.0 95:0.0 96:0.0 97:0.0 98:0.0 99:0.0 100:0.0 101:0.0 102:0.0 103:0.0 104:0.0 105:0.0 106:0.0 107:0.0 108:0.0 109:0.0 110:0.0 111:0.0 112:0.0 113:0.0 114:0.0 115:0.0 116:0.0 117:0.0 118:0.0 119:0.0 120:0.0 121:0.0 122:0.0 123:0.0 124:0.0 125:0.0 126:0.0 127:0.0 128:0.0 129:0.0 130:0.0 131:0.0 132:0.0 133:0.0 134:0.0 135:0.0 136:0.0 137:0.0 138:0.0 139:0.0 140:0.0 141:0.0 142:0.0 143:0.0 144:0.0 145:0.0 146:0.0 147:0.0 148:0.0 149:0.0 150:0.0 151:0.0 152:0.0 153:0.0 154:0.0 155:0.0 156:0.0 157:0.0 158:0.0 159:0.0 160:0.0 
1.0 1:0.0 2:0.0 3:0.0 4:0.0 5:0.0 6:0.0 7:0.0 8:0.0 9:0.0 10:0.0 11:0.0 12:0.0 13:0.0 14:0.0 15:0.0 16:0.0 17:0.0 18:0.0 19:0.0 20:0.0 21:0.0 22:0.0 23:0.0 24:0.0 25:0.0 26:0.0 27:0.0 28:0.0 29:0.0 30:0.0 31:0.0 32:0.0 33:0.0 34:0.0 35:0.0 36:0.0 37:0.0 38:0.0 39:0.0 40:0.0 41:0.0 42:0.0 43:0.0 44:0.0 45:0.0 46:0.0 47:0.0 48:0.0 49:0.0 50:0.0 51:0.0 52:0.0 53:0.0 54:0.0 55:0.0 56:0.0 57:0.0 58:0.0 59:0.0 60:0.0 61:0.0 62:0.0 63:0.0 64:0.0 65:0.0 66:0.0 67:0.0 68:0.0 69:1.0 70:0.0 71:0.0 72:0.0 73:0.0 74:0.0 75:0.0 76:0.0 77:0.0 78:0.0 79:0.0 80:0.0 81:0.0 82:0.0 83:0.0 84:0.0 85:0.0 86:0.0 87:0.0 88:0.0 89:0.0 90:0.0 91:0.0 92:0.0 93:0.0 94:0.0 95:0.0 96:0.0 97:0.0 98:0.0 99:0.0 100:0.0 101:0.0 102:0.0 103:0.0 104:0.0 105:0.0 106:0.0 107:0.0 108:0.0 109:0.0 110:0.0 111:0.0 112:0.0 113:0.0 114:0.0 115:0.0 116:0.0 117:0.0 118:0.0 119:0.0 120:0.0 121:0.0 122:0.0 123:0.0 124:0.0 125:0.0 126:0.0 127:0.0 128:0.0 129:0.0 130:0.0 131:0.0 132:0.0 133:0.0 134:0.0 135:0.0 136:0.0 137:0.0 138:0.0 139:0.0 140:0.0 141:0.0 142:0.0 143:0.0 144:0.0 145:0.0 146:0.0 147:0.0 148:0.0 149:0.0 150:0.0 151:0.0 152:0.0 153:0.0 154:0.0 155:0.0 156:0.0 157:0.0 158:0.0 159:0.0 160:0.0 
1.0 1:0.0 2:0.0 3:0.0 4:0.0 5:0.0 6:0.0 7:0.0 8:0.0 9:0.0 10:0.0 11:0.0 12:0.0 13:0.0 14:0.0 15:0.0 16:0.0 17:0.0 18:0.0 19:0.0 20:0.0 21:0.0 22:0.0 23:0.0 24:0.0 25:0.0 26:0.0 27:0.0 28:0.0 29:0.0 30:0.0 31:0.0 32:0.0 33:0.0 34:0.0 35:0.0 36:0.0 37:0.0 38:0.0 39:0.0 40:0.0 41:0.0 42:0.0 43:0.0 44:0.0 45:0.0 46:0.0 47:0.0 48:0.0 49:0.0 50:0.0 51:0.0 52:0.0 53:0.0 54:0.0 55:0.0 56:0.0 57:0.0 58:0.0 59:0.0 60:0.0 61:0.0 62:0.0 63:0.0 64:0.0 65:0.0 66:0.0 67:0.0 68:0.0 69:1.0 70:0.0 71:0.0 72:0.0 73:0.0 74:0.0 75:0.0 76:0.0 77:0.0 78:0.0 79:0.0 80:0.0 81:0.0 82:0.0 83:0.0 84:0.0 85:0.0 86:0.0 87:0.0 88:0.0 89:0.0 90:0.0 91:0.0 92:0.0 93:0.0 94:0.0 95:0.0 96:0.0 97:0.0 98:0.0 99:0.0 100:0.0 101:0.0 102:0.0 103:0.0 104:0.0 105:0.0 106:0.0 107:0.0 108:0.0 109:0.0 110:0.0 111:0.0 112:0.0 113:0.0 114:0.0 115:0.0 116:0.0 117:0.0 118:0.0 119:0.0 120:0.0 121:0.0 122:0.0 123:0.0 124:0.0 125:0.0 126:0.0 127:0.0 128:0.0 129:0.0 130:0.0 131:0.0 132:0.0 133:0.0 134:0.0 135:0.0 136:0.0 137:0.0 138:0.0 139:0.0 140:0.0 141:0.0 142:0.0 143:0.0 144:0.0 145:0.0 146:0.0 147:0.0 148:0.0 149:0.0 150:0.0 151:0.0 152:0.0 153:0.0 154:0.0 155:0.0 156:0.0 157:0.0 158:0.0 159:0.0 160:0.0 
1.0 1:0.0 2:0.0 3:0.0 4:0.0 5:0.0 6:0.0 7:0.0 8:0.0 9:0.0 10:0.0 11:0.0 12:0.0 13:0.0 14:0.0 15:0.0 16:0.0 17:0.0 18:0.0 19:0.0 20:0.0 21:0.0 22:0.0 23:0.0 24:0.0 25:0.0 26:0.0 27:0.0 28:0.0 29:0.0 30:0.0 31:0.0 32:0.0 33:0.0 34:0.0 35:0.0 36:0.0 37:0.0 38:0.0 39:0.0 40:0.0 41:0.0 42:0.0 43:0.0 44:0.0 45:0.0 46:0.0 47:0.0 48:0.0 49:0.0 50:0.0 51:0.0 52:0.0 53:0.0 54:0.0 55:0.0 56:0.0 57:0.0 58:0.0 59:0.0 60:0.0 61:0.0 62:0.0 63:0.0 64:0.0 65:0.0 66:0.0 67:0.0 68:0.0 69:1.0 70:0.0 71:0.0 72:0.0 73:0.0 74:0.0 75:0.0 76:0.0 77:0.0 78:0.0 79:0.0 80:0.0 81:0.0 82:0.0 83:0.0 84:0.0 85:0.0 86:0.0 87:0.0 88:0.0 89:0.0 90:0.0 91:0.0 92:0.0 93:0.0 94:0.0 95:0.0 96:0.0 97:0.0 98:0.0 99:0.0 100:0.0 101:0.0 102:0.0 103:0.0 104:0.0 105:0.0 106:0.0 107:0.0 108:0.0 109:0.0 110:0.0 111:0.0 112:0.0 113:0.0 114:0.0 115:0.0 116:0.0 117:0.0 118:0.0 119:0.0 120:0.0 121:0.0 122:0.0 123:0.0 124:0.0 125:0.0 126:0.0 127:0.0 128:0.0 129:0.0 130:0.0 131:0.0 132:0.0 133:0.0 134:0.0 135:0.0 136:0.0 137:0.0 138:0.0 139:0.0 140:0.0 141:0.0 142:0.0 143:0.0 144:0.0 145:0.0 146:0.0 147:0.0 148:0.0 149:0.0 150:0.0 151:0.0 152:0.0 153:0.0 154:0.0 155:0.0 156:0.0 157:0.0 158:0.0 159:0.0 160:0.0 
1.0 1:0.0 2:0.0 3:0.0 4:0.0 5:0.0 6:0.0 7:0.0 8:0.0 9:0.0 10:0.0 11:0.0 12:0.0 13:0.0 14:0.0 15:0.0 16:0.0 17:0.0 18:0.0 19:0.0 20:0.0 21:0.0 22:0.0 23:0.0 24:0.0 25:0.0 26:0.0 27:0.0 28:0.0 29:0.0 30:0.0 31:0.0 32:0.0 33:0.0 34:0.0 35:0.0 36:0.0 37:0.0 38:0.0 39:0.0 40:0.0 41:0.0 42:0.0 43:0.0 44:0.0 45:0.0 46:0.0 47:0.0 48:0.0 49:0.0 50:0.0 51:0.0 52:0.0 53:0.0 54:0.0 55:0.0 56:0.0 57:0.0 58:0.0 59:0.0 60:0.0 61:0.0 62:0.0 63:0.0 64:0.0 65:0.0 66:0.0 67:0.0 68:0.0 69:1.0 70:0.0 71:0.0 72:0.0 73:0.0 74:0.0 75:0.0 76:0.0 77:0.0 78:0.0 79:0.0 80:0.0 81:0.0 82:0.0 83:0.0 84:0.0 85:0.0 86:0.0 87:0.0 88:0.0 89:0.0 90:0.0 91:0.0 92:0.0 93:0.0 94:0.0 95:0.0 96:0.0 97:0.0 98:0.0 99:0.0 100:0.0 101:0.0 102:0.0 103:0.0 104:0.0 105:0.0 106:0.0 107:0.0 108:0.0 109:0.0 110:0.0 111:0.0 112:0.0 113:0.0 114:0.0 115:0.0 116:0.0 117:0.0 118:0.0 119:0.0 120:0.0 121:0.0 122:0.0 123:0.0 124:0.0 125:0.0 126:0.0 127:0.0 128:0.0 129:0.0 130:0.0 131:0.0 132:0.0 133:0.0 134:0.0 135:0.0 136:0.0 137:0.0 138:0.0 139:0.0 140:0.0 141:0.0 142:0.0 143:0.0 144:0.0 145:0.0 146:0.0 147:0.0 148:0.0 149:0.0 150:0.0 151:0.0 152:0.0 153:0.0 154:0.0 155:0.0 156:0.0 157:0.0 158:0.0 159:0.0 160:0.0 
1.0 1:0.0 2:0.0 3:0.0 4:0.0 5:0.0 6:0.0 7:0.0 8:0.0 9:0.0 10:0.0 11:0.0 12:0.0 13:0.0 14:0.0 15:0.0 16:0.0 17:0.0 18:0.0 19:0.0 20:0.0 21:0.0 22:0.0 23:0.0 24:0.0 25:0.0 26:0.0 27:0.0 28:0.0 29:0.0 30:0.0 31:0.0 32:0.0 33:0.0 34:0.0 35:0.0 36:0.0 37:0.0 38:0.0 39:0.0 40:0.0 41:0.0 42:0.0 43:0.0 44:0.0 45:0.0 46:0.0 47:0.0 48:0.0 49:0.0 50:0.0 51:0.0 52:0.0 53:0.0 54:0.0 55:0.0 56:0.0 57:0.0 58:0.0 59:0.0 60:0.0 61:0.0 62:0.0 63:0.0 64:0.0 65:0.0 66:0.0 67:0.0 68:0.0 69:1.0 70:0.0 71:0.0 72:0.0 73:0.0 74:0.0 75:0.0 76:0.0 77:0.0 78:0.0 79:0.0 80:0.0 81:0.0 82:0.0 83:0.0 84:0.0 85:0.0 86:0.0 87:0.0 88:0.0 89:0.0 90:0.0 91:0.0 92:0.0 93:0.0 94:0.0 95:0.0 96:0.0 97:0.0 98:0.0 99:0.0 100:0.0 101:0.0 102:0.0 103:0.0 104:0.0 105:0.0 106:0.0 107:0.0 108:0.0 109:0.0 110:0.0 111:0.0 112:0.0 113:0.0 114:0.0 115:0.0 116:0.0 117:0.0 118:0.0 119:0.0 120:0.0 121:0.0 122:0.0 123:0.0 124:0.0 125:0.0 126:0.0 127:0.0 128:0.0 129:0.0 130:0.0 131:0.0 132:0.0 133:0.0 134:0.0 135:0.0 136:0.0 137:0.0 138:0.0 139:0.0 140:0.0 141:0.0 142:0.0 143:0.0 144:0.0 145:0.0 146:0.0 147:0.0 148:0.0 149:0.0 150:0.0 151:0.0 152:0.0 153:0.0 154:0.0 155:0.0 156:0.0 157:0.0 158:0.0 159:0.0 160:0.0 
1.0 1:0.0 2:0.0 3:0.0 4:0.0 5:0.0 6:0.0 7:0.0 8:0.0 9:0.0 10:0.0 11:0.0 12:0.0 13:0.0 14:0.0 15:0.0 16:0.0 17:0.0 18:0.0 19:0.0 20:0.0 21:0.0 22:0.0 23:0.0 24:0.0 25:0.0 26:0.0 27:0.0 28:0.0 29:0.0 30:0.0 31:0.0 32:0.0 33:0.0 34:0.0 35:0.0 36:0.0 37:0.0 38:0.0 39:0.0 40:0.0 41:0.0 42:0.0 43:0.0 44:0.0 45:0.0 46:0.0 47:0.0 48:0.0 49:0.0 50:0.0 51:0.0 52:0.0 53:0.0 54:0.0 55:0.0 56:0.0 57:0.0 58:0.0 59:0.0 60:0.0 61:0.0 62:0.0 63:0.0 64:0.0 65:0.0 66:0.0 67:0.0 68:0.0 69:1.0 70:0.0 71:0.0 72:0.0 73:0.0 74:0.0 75:0.0 76:0.0 77:0.0 78:0.0 79:0.0 80:0.0 81:0.0 82:0.0 83:0.0 84:0.0 85:0.0 86:0.0 87:0.0 88:0.0 89:0.0 90:0.0 91:0.0 92:0.0 93:0.0 94:0.0 95:0.0 96:0.0 97:0.0 98:0.0 99:0.0 100:0.0 101:0.0 102:0.0 103:0.0 104:0.0 105:0.0 106:0.0 107:0.0 108:0.0 109:0.0 110:0.0 111:0.0 112:0.0 113:0.0 114:0.0 115:0.0 116:0.0 117:0.0 118:0.0 119:0.0 120:0.0 121:0.0 122:0.0 123:0.0 124:0.0 125:0.0 126:0.0 127:0.0 128:0.0 129:0.0 130:0.0 131:0.0 132:0.0 133:0.0 134:0.0 135:0.0 136:0.0 137:0.0 138:0.0 139:0.0 140:0.0 141:0.0 142:0.0 143:0.0 144:0.0 145:0.0 146:0.0 147:0.0 148:0.0 149:0.0 150:0.0 151:0.0 152:0.0 153:0.0 154:0.0 155:0.0 156:0.0 157:0.0 158:0.0 159:0.0 160:0.0 
1.0 1:0.0 2:0.0 3:0.0 4:0.0 5:0.0 6:0.0 7:0.0 8:0.0 9:0.0 10:0.0 11:0.0 12:0.0 13:0.0 14:0.0 15:0.0 16:0.0 17:0.0 18:0.0 19:0.0 20:0.0 21:0.0 22:0.0 23:0.0 24:0.0 25:0.0 26:0.0 27:0.0 28:0.0 29:0.0 30:0.0 31:0.0 32:0.0 33:0.0 34:0.0 35:0.0 36:0.0 37:0.0 38:0.0 39:0.0 40:0.0 41:0.0 42:0.0 43:0.0 44:0.0 45:0.0 46:0.0 47:0.0 48:0.0 49:0.0 50:0.0 51:0.0 52:0.0 53:0.0 54:0.0 55:0.0 56:0.0 57:0.0 58:0.0 59:0.0 60:0.0 61:0.0 62:0.0 63:0.0 64:0.0 65:0.0 66:0.0 67:0.0 68:0.0 69:1.0 70:0.0 71:0.0 72:0.0 73:0.0 74:0.0 75:0.0 76:0.0 77:0.0 78:0.0 79:0.0 80:0.0 81:0.0 82:0.0 83:0.0 84:0.0 85:0.0 86:0.0 87:0.0 88:0.0 89:0.0 90:0.0 91:0.0 92:0.0 93:0.0 94:0.0 95:0.0 96:0.0 97:0.0 98:0.0 99:0.0 100:0.0 101:0.0 102:0.0 103:0.0 104:0.0 105:0.0 106:0.0 107:0.0 108:0.0 109:0.0 110:0.0 111:0.0 112:0.0 113:0.0 114:0.0 115:0.0 116:0.0 117:0.0 118:0.0 119:0.0 120:0.0 121:0.0 122:0.0 123:0.0 124:0.0 125:0.0 126:0.0 127:0.0 128:0.0 129:0.0 130:0.0 131:0.0 132:0.0 133:0.0 134:0.0 135:0.0 136:0.0 137:0.0 138:0.0 139:0.0 140:0.0 141:0.0 142:0.0 143:0.0 144:0.0 145:0.0 146:0.0 147:0.0 148:0.0 149:0.0 150:0.0 151:0.0 152:0.0 153:0.0 154:0.0 155:0.0 156:0.0 157:0.0 158:0.0 159:0.0 160:0.0 
1.0 1:0.0 2:0.0 3:0.0 4:0.0 5:0.0 6:0.0 7:0.0 8:0.0 9:0.0 10:0.0 11:0.0 12:0.0 13:0.0 14:0.0 15:0.0 16:0.0 17:0.0 18:0.0 19:0.0 20:0.0 21:0.0 22:0.0 23:0.0 24:0.0 25:0.0 26:0.0 27:0.0 28:0.0 29:0.0 30:0.0 31:0.0 32:0.0 33:0.0 34:0.0 35:0.0 36:0.0 37:0.0 38:0.0 39:0.0 40:0.0 41:0.0 42:0.0 43:0.0 44:0.0 45:0.0 46:0.0 47:0.0 48:0.0 49:0.0 50:0.0 51:0.0 52:0.0 53:0.0 54:0.0 55:0.0 56:0.0 57:0.0 58:0.0 59:0.0 60:0.0 61:0.0 62:0.0 63:0.0 64:0.0 65:0.0 66:0.0 67:0.0 68:0.0 69:1.0 70:0.0 71:0.0 72:0.0 73:0.0 74:0.0 75:0.0 76:0.0 77:0.0 78:0.0 79:0.0 80:0.0 81:0.0 82:0.0 83:0.0 84:0.0 85:0.0 86:0.0 87:0.0 88:0.0 89:0.0 90:0.0 91:0.0 92:0.0 93:0.0 94:0.0 95:0.0 96:0.0 97:0.0 98:0.0 99:0.0 100:0.0 101:0.0 102:0.0 103:0.0 104:0.0 105:0.0 106:0.0 107:0.0 108:0.0 109:0.0 110:0.0 111:0.0 112:0.0 113:0.0 114:0.0 115:0.0 116:0.0 117:0.0 118:0.0 119:0.0 120:0.0 121:0.0 122:0.0 123:0.0 124:0.0 125:0.0 126:0.0 127:0.0 128:0.0 129:0.0 130:0.0 131:0.0 132:0.0 133:0.0 134:0.0 135:0.0 136:0.0 137:0.0 138:0.0 139:0.0 140:0.0 141:0.0 142:0.0 143:0.0 144:0.0 145:0.0 146:0.0 147:0.0 148:0.0 149:0.0 150:0.0 151:0.0 152:0.0 153:0.0 154:0.0 155:0.0 156:0.0 157:0.0 158:0.0 159:0.0 160:0.0 
1.0 1:0.0 2:0.0 3:0.0 4:0.0 5:0.0 6:0.0 7:0.0 8:0.0 9:0.0 10:0.0 11:0.0 12:0.0 13:0.0 14:0.0 15:0.0 16:0.0 17:0.0 18:0.0 19:0.0 20:0.0 21:0.0 22:0.0 23:0.0 24:0.0 25:0.0 26:0.0 27:0.0 28:0.0 29:0.0 30:0.0 31:0.0 32:0.0 33:0.0 34:0.0 35:0.0 36:0.0 37:0.0 38:0.0 39:0.0 40:0.0 41:0.0 42:0.0 43:0.0 44:0.0 45:0.0 46:0.0 47:0.0 48:0.0 49:0.0 50:0.0 51:0.0 52:0.0 53:0.0 54:0.0 55:0.0 56:0.0 57:0.0 58:0.0 59:0.0 60:0.0 61:0.0 62:0.0 63:0.0 64:0.0 65:0.0 66:0.0 67:0.0 68:0.0 69:1.0 70:0.0 71:0.0 72:0.0 73:0.0 74:0.0 75:0.0 76:0.0 77:0.0 78:0.0 79:0.0 80:0.0 81:0.0 82:0.0 83:0.0 84:0.0 85:0.0 86:0.0 87:0.0 88:0.0 89:0.0 90:0.0 91:0.0 92:0.0 93:0.0 94:0.0 95:0.0 96:0.0 97:0.0 98:0.0 99:0.0 100:0.0 101:0.0 102:0.0 103:0.0 104:0.0 105:0.0 106:0.0 107:0.0 108:0.0 109:0.0 110:0.0 111:0.0 112:0.0 113:0.0 114:0.0 115:0.0 116:0.0 117:0.0 118:0.0 119:0.0 120:0.0 121:0.0 122:0.0 123:0.0 124:0.0 125:0.0 126:0.0 127:0.0 128:0.0 129:0.0 130:0.0 131:0.0 132:0.0 133:0.0 134:0.0 135:0.0 136:0.0 137:0.0 138:0.0 139:0.0 140:0.0 141:0.0 142:0.0 143:0.0 144:0.0 145:0.0 146:0.0 147:0.0 148:0.0 149:0.0 150:0.0 151:0.0 152:0.0 153:0.0 154:0.0 155:0.0 156:0.0 157:0.0 158:0.0 159:0.0 160:0.0 
1.0 1:0.0 2:0.0 3:0.0 4:0.0 5:0.0 6:0.0 7:0.0 8:0.0 9:0.0 10:0.0 11:0.0 12:0.0 13:0.0 14:0.0 15:0.0 16:0.0 17:0.0 18:0.0 19:0.0 20:0.0 21:0.0 22:0.0 23:0.0 24:0.0 25:0.0 26:0.0 27:0.0 28:0.0 29:0.0 30:0.0 31:0.0 32:0.0 33:0.0 34:0.0 35:0.0 36:0.0 37:0.0 38:0.0 39:0.0 40:0.0 41:0.0 42:0.0 43:0.0 44:0.0 45:0.0 46:0.0 47:0.0 48:0.0 49:0.0 50:0.0 51:0.0 52:0.0 53:0.0 54:0.0 55:0.0 56:0.0 57:0.0 58:0.0 59:0.0 60:0.0 61:0.0 62:0.0 63:0.0 64:0.0 65:0.0 66:0.0 67:0.0 68:0.0 69:1.0 70:0.0 71:0.0 72:0.0 73:0.0 74:0.0 75:0.0 76:0.0 77:0.0 78:0.0 79:0.0 80:0.0 81:0.0 82:0.0 83:0.0 84:0.0 85:0.0 86:0.0 87:0.0 88:0.0 89:0.0 90:0.0 91:0.0 92:0.0 93:0.0 94:0.0 95:0.0 96:0.0 97:0.0 98:0.0 99:0.0 100:0.0 101:0.0 102:0.0 103:0.0 104:0.0 105:0.0 106:0.0 107:0.0 108:0.0 109:0.0 110:0.0 111:0.0 112:0.0 113:0.0 114:0.0 115:0.0 116:0.0 117:0.0 118:0.0 119:0.0 120:0.0 121:0.0 122:0.0 123:0.0 124:0.0 125:0.0 126:0.0 127:0.0 128:0.0 129:0.0 130:0.0 131:0.0 132:0.0 133:0.0 134:0.0 135:0.0 136:0.0 137:0.0 138:0.0 139:0.0 140:0.0 141:0.0 142:0.0 143:0.0 144:0.0 145:0.0 146:0.0 147:0.0 148:0.0 149:0.0 150:0.0 151:0.0 152:0.0 153:0.0 154:0.0 155:0.0 156:0.0 157:0.0 158:0.0 159:0.0 160:0.0 
1.0 1:0.0 2:0.0 3:0.0 4:0.0 5:0.0 6:0.0 7:0.0 8:0.0 9:0.0 10:0.0 11:0.0 12:0.0 13:0.0 14:0.0 15:0.0 16:0.0 17:0.0 18:0.0 19:0.0 20:0.0 21:0.0 22:0.0 23:0.0 24:0.0 25:0.0 26:0.0 27:0.0 28:0.0 29:0.0 30:0.0 31:0.0 32:0.0 33:0.0 34:0.0 35:0.0 36:0.0 37:0.0 38:0.0 39:0.0 40:0.0 41:0.0 42:0.0 43:0.0 44:0.0 45:0.0 46:0.0 47:0.0 48:0.0 49:0.0 50:0.0 51:0.0 52:0.0 53:0.0 54:0.0 55:0.0 56:0.0 57:0.0 58:0.0 59:0.0 60:0.0 61:0.0 62:0.0 63:0.0 64:0.0 65:0.0 66:0.0 67:0.0 68:0.0 69:1.0 70:0.0 71:0.0 72:0.0 73:0.0 74:0.0 75:0.0 76:0.0 77:0.0 78:0.0 79:0.0 80:0.0 81:0.0 82:0.0 83:0.0 84:0.0 85:0.0 86:0.0 87:0.0 88:0.0 89:0.0 90:0.0 91:0.0 92:0.0 93:0.0 94:0.0 95:0.0 96:0.0 97:0.0 98:0.0 99:0.0 100:0.0 101:0.0 102:0.0 103:0.0 104:0.0 105:0.0 106:0.0 107:0.0 108:0.0 109:0.0 110:0.0 111:0.0 112:0.0 113:0.0 114:0.0 115:0.0 116:0.0 117:0.0 118:0.0 119:0.0 120:0.0 121:0.0 122:0.0 123:0.0 124:0.0 125:0.0 126:0.0 127:0.0 128:0.0 129:0.0 130:0.0 131:0.0 132:0.0 133:0.0 134:0.0 135:0.0 136:0.0 137:0.0 138:0.0 139:0.0 140:0.0 141:0.0 142:0.0 143:0.0 144:0.0 145:0.0 146:0.0 147:0.0 148:0.0 149:0.0 150:0.0 151:0.0 152:0.0 153:0.0 154:0.0 155:0.0 156:0.0 157:0.0 158:0.0 159:0.0 160:0.0 
1.0 1:0.0 2:0.0 3:0.0 4:0.0 5:0.0 6:0.0 7:0.0 8:0.0 9:0.0 10:0.0 11:0.0 12:0.0 13:0.0 14:0.0 15:0.0 16:0.0 17:0.0 18:0.0 19:0.0 20:0.0 21:0.0 22:0.0 23:0.0 24:0.0 25:0.0 26:0.0 27:0.0 28:0.0 29:0.0 30:0.0 31:0.0 32:0.0 33:0.0 34:0.0 35:0.0 36:0.0 37:0.0 38:0.0 39:0.0 40:0.0 41:0.0 42:0.0 43:0.0 44:0.0 45:0.0 46:0.0 47:0.0 48:0.0 49:0.0 50:0.0 51:0.0 52:0.0 53:0.0 54:0.0 55:0.0 56:0.0 57:0.0 58:0.0 59:0.0 60:0.0 61:0.0 62:0.0 63:0.0 64:0.0 65:0.0 66:0.0 67:0.0 68:0.0 69:1.0 70:0.0 71:0.0 72:0.0 73:0.0 74:0.0 75:0.0 76:0.0 77:0.0 78:0.0 79:0.0 80:0.0 81:0.0 82:0.0 83:0.0 84:0.0 85:0.0 86:0.0 87:0.0 88:0.0 89:0.0 90:0.0 91:0.0 92:0.0 93:0.0 94:0.0 95:0.0 96:0.0 97:0.0 98:0.0 99:0.0 100:0.0 101:0.0 102:0.0 103:0.0 104:0.0 105:0.0 106:0.0 107:0.0 108:0.0 109:0.0 110:0.0 111:0.0 112:0.0 113:0.0 114:0.0 115:0.0 116:0.0 117:0.0 118:0.0 119:0.0 120:0.0 121:0.0 122:0.0 123:0.0 124:0.0 125:0.0 126:0.0 127:0.0 128:0.0 129:0.0 130:0.0 131:0.0 132:0.0 133:0.0 134:0.0 135:0.0 136:0.0 137:0.0 138:0.0 139:0.0 140:0.0 141:0.0 142:0.0 143:0.0 144:0.0 145:0.0 146:0.0 147:0.0 148:0.0 149:0.0 150:0.0 151:0.0 152:0.0 153:0.0 154:0.0 155:0.0 156:0.0 157:0.0 158:0.0 159:0.0 160:0.0 
1.0 1:0.0 2:0.0 3:0.0 4:0.0 5:0.0 6:0.0 7:0.0 8:0.0 9:0.0 10:0.0 11:0.0 12:0.0 13:0.0 14:0.0 15:0.0 16:0.0 17:0.0 18:0.0 19:0.0 20:0.0 21:0.0 22:0.0 23:0.0 24:0.0 25:0.0 26:0.0 27:0.0 28:0.0 29:0.0 30:0.0 31:0.0 32:0.0 33:0.0 34:0.0 35:0.0 36:0.0 37:0.0 38:0.0 39:0.0 40:0.0 41:0.0 42:0.0 43:0.0 44:0.0 45:0.0 46:0.0 47:0.0 48:0.0 49:0.0 50:0.0 51:0.0 52:0.0 53:0.0 54:0.0 55:0.0 56:0.0 57:0.0 58:0.0 59:0.0 60:0.0 61:0.0 62:0.0 63:0.0 64:0.0 65:0.0 66:0.0 67:0.0 68:0.0 69:1.0 70:0.0 71:0.0 72:0.0 73:0.0 74:0.0 75:0.0 76:0.0 77:0.0 78:0.0 79:0.0 80:0.0 81:0.0 82:0.0 83:0.0 84:0.0 85:0.0 86:0.0 87:0.0 88:0.0 89:0.0 90:0.0 91:0.0 92:0.0 93:0.0 94:0.0 95:0.0 96:0.0 97:0.0 98:0.0 99:0.0 100:0.0 101:0.0 102:0.0 103:0.0 104:0.0 105:0.0 106:0.0 107:0.0 108:0.0 109:0.0 110:0.0 111:0.0 112:0.0 113:0.0 114:0.0 115:0.0 116:0.0 117:0.0 118:0.0 119:0.0 120:0.0 121:0.0 122:0.0 123:0.0 124:0.0 125:0.0 126:0.0 127:0.0 128:0.0 129:0.0 130:0.0 131:0.0 132:0.0 133:0.0 134:0.0 135:0.0 136:0.0 137:0.0 138:0.0 139:0.0 140:0.0 141:0.0 142:0.0 143:0.0 144:0.0 145:0.0 146:0.0 147:0.0 148:0.0 149:0.0 150:0.0 151:0.0 152:0.0 153:0.0 154:0.0 155:0.0 156:0.0 157:0.0 158:0.0 159:0.0 160:0.0 
1.0 1:0.0 2:0.0 3:0.0 4:0.0 5:0.0 6:0.0 7:0.0 8:0.0 9:0.0 10:0.0 11:0.0 12:0.0 13:0.0 14:0.0 15:0.0 16:0.0 17:0.0 18:0.0 19:0.0 20:0.0 21:0.0 22:0.0 23:0.0 24:0.0 25:0.0 26:0.0 27:0.0 28:0.0 29:0.0 30:0.0 31:0.0 32:0.0 33:0.0 34:0.0 35:0.0 36:0.0 37:0.0 38:0.0 39:0.0 40:0.0 41:0.0 42:0.0 43:0.0 44:0.0 45:0.0 46:0.0 47:0.0 48:0.0 49:0.0 50:0.0 51:0.0 52:0.0 53:0.0 54:0.0 55:0.0 56:0.0 57:0.0 58:0.0 59:0.0 60:0.0 61:0.0 62:0.0 63:0.0 64:0.0 65:0.0 66:0.0 67:0.0 68:0.0 69:1.0 70:0.0 71:0.0 72:0.0 73:0.0 74:0.0 75:0.0 76:0.0 77:0.0 78:0.0 79:0.0 80:0.0 81:0.0 82:0.0 83:0.0 84:0.0 85:0.0 86:0.0 87:0.0 88:0.0 89:0.0 90:0.0 91:0.0 92:0.0 93:0.0 94:0.0 95:0.0 96:0.0 97:0.0 98:0.0 99:0.0 100:0.0 101:0.0 102:0.0 103:0.0 104:0.0 105:0.0 106:0.0 107:0.0 108:0.0 109:0.0 110:0.0 111:0.0 112:0.0 113:0.0 114:0.0 115:0.0 116:0.0 117:0.0 118:0.0 119:0.0 120:0.0 121:0.0 122:0.0 123:0.0 124:0.0 125:0.0 126:0.0 127:0.0 128:0.0 129:0.0 130:0.0 131:0.0 132:0.0 133:0.0 134:0.0 135:0.0 136:0.0 137:0.0 138:0.0 139:0.0 140:0.0 141:0.0 142:0.0 143:0.0 144:0.0 145:0.0 146:0.0 147:0.0 148:0.0 149:0.0 150:0.0 151:0.0 152:0.0 153:0.0 154:0.0 155:0.0 156:0.0 157:0.0 158:0.0 159:0.0 160:0.0 
1.0 1:0.0 2:0.0 3:0.0 4:0.0 5:0.0 6:0.0 7:0.0 8:0.0 9:0.0 10:0.0 11:0.0 12:0.0 13:0.0 14:0.0 15:0.0 16:0.0 17:0.0 18:0.0 19:0.0 20:0.0 21:0.0 22:0.0 23:0.0 24:0.0 25:0.0 26:0.0 27:0.0 28:0.0 29:0.0 30:0.0 31:0.0 32:0.0 33:0.0 34:0.0 35:0.0 36:0.0 37:0.0 38:0.0 39:0.0 40:0.0 41:0.0 42:0.0 43:0.0 44:0.0 45:0.0 46:0.0 47:0.0 48:0.0 49:0.0 50:0.0 51:0.0 52:0.0 53:0.0 54:0.0 55:0.0 56:0.0 57:0.0 58:0.0 59:0.0 60:0.0 61:0.0 62:0.0 63:0.0 64:0.0 65:0.0 66:0.0 67:0.0 68:0.0 69:1.0 70:0.0 71:0.0 72:0.0 73:0.0 74:0.0 75:0.0 76:0.0 77:0.0 78:0.0 79:0.0 80:0.0 81:0.0 82:0.0 83:0.0 84:0.0 85:0.0 86:0.0 87:0.0 88:0.0 89:0.0 90:0.0 91:0.0 92:0.0 93:0.0 94:0.0 95:0.0 96:0.0 97:0.0 98:0.0 99:0.0 100:0.0 101:0.0 102:0.0 103:0.0 104:0.0 105:0.0 106:0.0 107:0.0 108:0.0 109:0.0 110:0.0 111:0.0 112:0.0 113:0.0 114:0.0 115:0.0 116:0.0 117:0.0 118:0.0 119:0.0 120:0.0 121:0.0 122:0.0 123:0.0 124:0.0 125:0.0 126:0.0 127:0.0 128:0.0 129:0.0 130:0.0 131:0.0 132:0.0 133:0.0 134:0.0 135:0.0 136:0.0 137:0.0 138:0.0 139:0.0 140:0.0 141:0.0 142:0.0 143:0.0 144:0.0 145:0.0 146:0.0 147:0.0 148:0.0 149:0.0 150:0.0 151:0.0 152:0.0 153:0.0 154:0.0 155:0.0 156:0.0 157:0.0 158:0.0 159:0.0 160:0.0 
1.0 1:0.0 2:0.0 3:0.0 4:0.0 5:0.0 6:0.0 7:0.0 8:0.0 9:0.0 10:0.0 11:0.0 12:0.0 13:0.0 14:0.0 15:0.0 16:0.0 17:0.0 18:0.0 19:0.0 20:0.0 21:0.0 22:0.0 23:0.0 24:0.0 25:0.0 26:0.0 27:0.0 28:0.0 29:0.0 30:0.0 31:0.0 32:0.0 33:0.0 34:0.0 35:0.0 36:0.0 37:0.0 38:0.0 39:0.0 40:0.0 41:0.0 42:0.0 43:0.0 44:0.0 45:0.0 46:0.0 47:0.0 48:0.0 49:0.0 50:0.0 51:0.0 52:0.0 53:0.0 54:0.0 55:0.0 56:0.0 57:0.0 58:0.0 59:0.0 60:0.0 61:0.0 62:0.0 63:0.0 64:0.0 65:0.0 66:0.0 67:0.0 68:0.0 69:1.0 70:0.0 71:0.0 72:0.0 73:0.0 74:0.0 75:0.0 76:0.0 77:0.0 78:0.0 79:0.0 80:0.0 81:0.0 82:0.0 83:0.0 84:0.0 85:0.0 86:0.0 87:0.0 88:0.0 89:0.0 90:0.0 91:0.0 92:0.0 93:0.0 94:0.0 95:0.0 96:0.0 97:0.0 98:0.0 99:0.0 100:0.0 101:0.0 102:0.0 103:0.0 104:0.0 105:0.0 106:0.0 107:0.0 108:0.0 109:0.0 110:0.0 111:0.0 112:0.0 113:0.0 114:0.0 115:0.0 116:0.0 117:0.0 118:0.0 119:0.0 120:0.0 121:0.0 122:0.0 123:0.0 124:0.0 125:0.0 126:0.0 127:0.0 128:0.0 129:0.0 130:0.0 131:0.0 132:0.0 133:0.0 134:0.0 135:0.0 136:0.0 137:0.0 138:0.0 139:0.0 140:0.0 141:0.0 142:0.0 143:0.0 144:0.0 145:0.0 146:0.0 147:0.0 148:0.0 149:0.0 150:0.0 151:0.0 152:0.0 153:0.0 154:0.0 155:0.0 156:0.0 157:0.0 158:0.0 159:0.0 160:0.0 
1.0 1:0.0 2:0.0 3:0.0 4:0.0 5:0.0 6:0.0 7:0.0 8:0.0 9:0.0 10:0.0 11:0.0 12:0.0 13:0.0 14:0.0 15:0.0 16:0.0 17:0.0 18:0.0 19:0.0 20:0.0 21:0.0 22:0.0 23:0.0 24:0.0 25:0.0 26:0.0 27:0.0 28:0.0 29:0.0 30:0.0 31:0.0 32:0.0 33:0.0 34:0.0 35:0.0 36:0.0 37:0.0 38:0.0 39:0.0 40:0.0 41:0.0 42:0.0 43:0.0 44:0.0 45:0.0 46:0.0 47:0.0 48:0.0 49:0.0 50:0.0 51:0.0 52:0.0 53:0.0 54:0.0 55:0.0 56:0.0 57:0.0 58:0.0 59:0.0 60:0.0 61:0.0 62:0.0 63:0.0 64:0.0 65:0.0 66:0.0 67:0.0 68:0.0 69:1.0 70:0.0 71:0.0 72:0.0 73:0.0 74:0.0 75:0.0 76:0.0 77:0.0 78:0.0 79:0.0 80:0.0 81:0.0 82:0.0 83:0.0 84:0.0 85:0.0 86:0.0 87:0.0 88:0.0 89:0.0 90:0.0 91:0.0 92:0.0 93:0.0 94:0.0 95:0.0 96:0.0 97:0.0 98:0.0 99:0.0 100:0.0 101:0.0 102:0.0 103:0.0 104:0.0 105:0.0 106:0.0 107:0.0 108:0.0 109:0.0 110:0.0 111:0.0 112:0.0 113:0.0 114:0.0 115:0.0 116:0.0 117:0.0 118:0.0 119:0.0 120:0.0 121:0.0 122:0.0 123:0.0 124:0.0 125:0.0 126:0.0 127:0.0 128:0.0 129:0.0 130:0.0 131:0.0 132:0.0 133:0.0 134:0.0 135:0.0 136:0.0 137:0.0 138:0.0 139:0.0 140:0.0 141:0.0 142:0.0 143:0.0 144:0.0 145:0.0 146:0.0 147:0.0 148:0.0 149:0.0 150:0.0 151:0.0 152:0.0 153:0.0 154:0.0 155:0.0 156:0.0 157:0.0 158:0.0 159:0.0 160:0.0 
1.0 1:0.0 2:0.0 3:0.0 4:0.0 5:0.0 6:0.0 7:0.0 8:0.0 9:0.0 10:0.0 11:0.0 12:0.0 13:0.0 14:0.0 15:0.0 16:0.0 17:0.0 18:0.0 19:0.0 20:0.0 21:0.0 22:0.0 23:0.0 24:0.0 25:0.0 26:0.0 27:0.0 28:0.0 29:0.0 30:0.0 31:0.0 32:0.0 33:0.0 34:0.0 35:0.0 36:0.0 37:0.0 38:0.0 39:0.0 40:0.0 41:0.0 42:0.0 43:0.0 44:0.0 45:0.0 46:0.0 47:0.0 48:0.0 49:0.0 50:0.0 51:0.0 52:0.0 53:0.0 54:0.0 55:0.0 56:0.0 57:0.0 58:0.0 59:0.0 60:0.0 61:0.0 62:0.0 63:0.0 64:0.0 65:0.0 66:0.0 67:0.0 68:0.0 69:1.0 70:0.0 71:0.0 72:0.0 73:0.0 74:0.0 75:0.0 76:0.0 77:0.0 78:0.0 79:0.0 80:0.0 81:0.0 82:0.0 83:0.0 84:0.0 85:0.0 86:0.0 87:0.0 88:0.0 89:0.0 90:0.0 91:0.0 92:0.0 93:0.0 94:0.0 95:0.0 96:0.0 97:0.0 98:0.0 99:0.0 100:0.0 101:0.0 102:0.0 103:0.0 104:0.0 105:0.0 106:0.0 107:0.0 108:0.0 109:0.0 110:0.0 111:0.0 112:0.0 113:0.0 114:0.0 115:0.0 116:0.0 117:0.0 118:0.0 119:0.0 120:0.0 121:0.0 122:0.0 123:0.0 124:0.0 125:0.0 126:0.0 127:0.0 128:0.0 129:0.0 130:0.0 131:0.0 132:0.0 133:0.0 134:0.0 135:0.0 136:0.0 137:0.0 138:0.0 139:0.0 140:0.0 141:0.0 142:0.0 143:0.0 144:0.0 145:0.0 146:0.0 147:0.0 148:0.0 149:0.0 150:0.0 151:0.0 152:0.0 153:0.0 154:0.0 155:0.0 156:0.0 157:0.0 158:0.0 159:0.0 160:0.0 
1.0 1:0.0 2:0.0 3:0.0 4:0.0 5:0.0 6:0.0 7:0.0 8:0.0 9:0.0 10:0.0 11:0.0 12:0.0 13:0.0 14:0.0 15:0.0 16:0.0 17:0.0 18:0.0 19:0.0 20:0.0 21:0.0 22:0.0 23:0.0 24:0.0 25:0.0 26:0.0 27:0.0 28:0.0 29:0.0 30:0.0 31:0.0 32:0.0 33:0.0 34:0.0 35:0.0 36:0.0 37:0.0 38:0.0 39:0.0 40:0.0 41:0.0 42:0.0 43:0.0 44:0.0 45:0.0 46:0.0 47:0.0 48:0.0 49:0.0 50:0.0 51:0.0 52:0.0 53:0.0 54:0.0 55:0.0 56:0.0 57:0.0 58:0.0 59:0.0 60:0.0 61:0.0 62:0.0 63:0.0 64:0.0 65:0.0 66:0.0 67:0.0 68:0.0 69:1.0 70:0.0 71:0.0 72:0.0 73:0.0 74:0.0 75:0.0 76:0.0 77:0.0 78:0.0 79:0.0 80:0.0 81:0.0 82:0.0 83:0.0 84:0.0 85:0.0 86:0.0 87:0.0 88:0.0 89:0.0 90:0.0 91:0.0 92:0.0 93:0.0 94:0.0 95:0.0 96:0.0 97:0.0 98:0.0 99:0.0 100:0.0 101:0.0 102:0.0 103:0.0 104:0.0 105:0.0 106:0.0 107:0.0 108:0.0 109:0.0 110:0.0 111:0.0 112:0.0 113:0.0 114:0.0 115:0.0 116:0.0 117:0.0 118:0.0 119:0.0 120:0.0 121:0.0 122:0.0 123:0.0 124:0.0 125:0.0 126:0.0 127:0.0 128:0.0 129:0.0 130:0.0 131:0.0 132:0.0 133:0.0 134:0.0 135:0.0 136:0.0 137:0.0 138:0.0 139:0.0 140:0.0 141:0.0 142:0.0 143:0.0 144:0.0 145:0.0 146:0.0 147:0.0 148:0.0 149:0.0 150:0.0 151:0.0 152:0.0 153:0.0 154:0.0 155:0.0 156:0.0 157:0.0 158:0.0 159:0.0 160:0.0 
1.0 1:0.0 2:0.0 3:0.0 4:0.0 5:0.0 6:0.0 7:0.0 8:0.0 9:0.0 10:0.0 11:0.0 12:0.0 13:0.0 14:0.0 15:0.0 16:0.0 17:0.0 18:0.0 19:0.0 20:0.0 21:0.0 22:0.0 23:0.0 24:0.0 25:0.0 26:0.0 27:0.0 28:0.0 29:0.0 30:0.0 31:0.0 32:0.0 33:0.0 34:0.0 35:0.0 36:0.0 37:0.0 38:0.0 39:0.0 40:0.0 41:0.0 42:0.0 43:0.0 44:0.0 45:0.0 46:0.0 47:0.0 48:0.0 49:0.0 50:0.0 51:0.0 52:0.0 53:0.0 54:0.0 55:0.0 56:0.0 57:0.0 58:0.0 59:0.0 60:0.0 61:0.0 62:0.0 63:0.0 64:0.0 65:0.0 66:0.0 67:0.0 68:0.0 69:1.0 70:0.0 71:0.0 72:0.0 73:0.0 74:0.0 75:0.0 76:0.0 77:0.0 78:0.0 79:0.0 80:0.0 81:0.0 82:0.0 83:0.0 84:0.0 85:0.0 86:0.0 87:0.0 88:0.0 89:0.0 90:0.0 91:0.0 92:0.0 93:0.0 94:0.0 95:0.0 96:0.0 97:0.0 98:0.0 99:0.0 100:0.0 101:0.0 102:0.0 103:0.0 104:0.0 105:0.0 106:0.0 107:0.0 108:0.0 109:0.0 110:0.0 111:0.0 112:0.0 113:0.0 114:0.0 115:0.0 116:0.0 117:0.0 118:0.0 119:0.0 120:0.0 121:0.0 122:0.0 123:0.0 124:0.0 125:0.0 126:0.0 127:0.0 128:0.0 129:0.0 130:0.0 131:0.0 132:0.0 133:0.0 134:0.0 135:0.0 136:0.0 137:0.0 138:0.0 139:0.0 140:0.0 141:0.0 142:0.0 143:0.0 144:0.0 145:0.0 146:0.0 147:0.0 148:0.0 149:0.0 150:0.0 151:0.0 152:0.0 153:0.0 154:0.0 155:0.0 156:0.0 157:0.0 158:0.0 159:0.0 160:0.0 
1.0 1:0.0 2:0.0 3:0.0 4:0.0 5:0.0 6:0.0 7:0.0 8:0.0 9:0.0 10:0.0 11:0.0 12:0.0 13:0.0 14:0.0 15:0.0 16:0.0 17:0.0 18:0.0 19:0.0 20:0.0 21:0.0 22:0.0 23:0.0 24:0.0 25:0.0 26:0.0 27:0.0 28:0.0 29:0.0 30:0.0 31:0.0 32:0.0 33:0.0 34:0.0 35:0.0 36:0.0 37:0.0 38:0.0 39:0.0 40:0.0 41:0.0 42:0.0 43:0.0 44:0.0 45:0.0 46:0.0 47:0.0 48:0.0 49:0.0 50:0.0 51:0.0 52:0.0 53:0.0 54:0.0 55:0.0 56:0.0 57:0.0 58:0.0 59:0.0 60:0.0 61:0.0 62:0.0 63:0.0 64:0.0 65:0.0 66:0.0 67:0.0 68:0.0 69:1.0 70:0.0 71:0.0 72:0.0 73:0.0 74:0.0 75:0.0 76:0.0 77:0.0 78:0.0 79:0.0 80:0.0 81:0.0 82:0.0 83:0.0 84:0.0 85:0.0 86:0.0 87:0.0 88:0.0 89:0.0 90:0.0 91:0.0 92:0.0 93:0.0 94:0.0 95:0.0 96:0.0 97:0.0 98:0.0 99:0.0 100:0.0 101:0.0 102:0.0 103:0.0 104:0.0 105:0.0 106:0.0 107:0.0 108:0.0 109:0.0 110:0.0 111:0.0 112:0.0 113:0.0 114:0.0 115:0.0 116:0.0 117:0.0 118:0.0 119:0.0 120:0.0 121:0.0 122:0.0 123:0.0 124:0.0 125:0.0 126:0.0 127:0.0 128:0.0 129:0.0 130:0.0 131:0.0 132:0.0 133:0.0 134:0.0 135:0.0 136:0.0 137:0.0 138:0.0 139:0.0 140:0.0 141:0.0 142:0.0 143:0.0 144:0.0 145:0.0 146:0.0 147:0.0 148:0.0 149:0.0 150:0.0 151:0.0 152:0.0 153:0.0 154:0.0 155:0.0 156:0.0 157:0.0 158:0.0 159:0.0 160:0.0 
1.0 1:0.0 2:0.0 3:0.0 4:0.0 5:0.0 6:0.0 7:0.0 8:0.0 9:0.0 10:0.0 11:0.0 12:0.0 13:0.0 14:0.0 15:0.0 16:0.0 17:0.0 18:0.0 19:0.0 20:0.0 21:0.0 22:0.0 23:0.0 24:0.0 25:0.0 26:0.0 27:0.0 28:0.0 29:0.0 30:0.0 31:0.0 32:0.0 33:0.0 34:0.0 35:0.0 36:0.0 37:0.0 38:0.0 39:0.0 40:0.0 41:0.0 42:0.0 43:0.0 44:0.0 45:0.0 46:0.0 47:0.0 48:0.0 49:0.0 50:0.0 51:0.0 52:0.0 53:0.0 54:0.0 55:0.0 56:0.0 57:0.0 58:0.0 59:0.0 60:0.0 61:0.0 62:0.0 63:0.0 64:0.0 65:0.0 66:0.0 67:0.0 68:0.0 69:1.0 70:0.0 71:0.0 72:0.0 73:0.0 74:0.0 75:0.0 76:0.0 77:0.0 78:0.0 79:0.0 80:0.0 81:0.0 82:0.0 83:0.0 84:0.0 85:0.0 86:0.0 87:0.0 88:0.0 89:0.0 90:0.0 91:0.0 92:0.0 93:0.0 94:0.0 95:0.0 96:0.0 97:0.0 98:0.0 99:0.0 100:0.0 101:0.0 102:0.0 103:0.0 104:0.0 105:0.0 106:0.0 107:0.0 108:0.0 109:0.0 110:0.0 111:0.0 112:0.0 113:0.0 114:0.0 115:0.0 116:0.0 117:0.0 118:0.0 119:0.0 120:0.0 121:0.0 122:0.0 123:0.0 124:0.0 125:0.0 126:0.0 127:0.0 128:0.0 129:0.0 130:0.0 131:0.0 132:0.0 133:0.0 134:0.0 135:0.0 136:0.0 137:0.0 138:0.0 139:0.0 140:0.0 141:0.0 142:0.0 143:0.0 144:0.0 145:0.0 146:0.0 147:0.0 148:0.0 149:0.0 150:0.0 151:0.0 152:0.0 153:0.0 154:0.0 155:0.0 156:0.0 157:0.0 158:0.0 159:0.0 160:0.0 
1.0 1:0.0 2:0.0 3:0.0 4:0.0 5:0.0 6:0.0 7:0.0 8:0.0 9:0.0 10:0.0 11:0.0 12:0.0 13:0.0 14:0.0 15:0.0 16:0.0 17:0.0 18:0.0 19:0.0 20:0.0 21:0.0 22:0.0 23:0.0 24:0.0 25:0.0 26:0.0 27:0.0 28:0.0 29:0.0 30:0.0 31:0.0 32:0.0 33:0.0 34:0.0 35:0.0 36:0.0 37:0.0 38:0.0 39:0.0 40:0.0 41:0.0 42:0.0 43:0.0 44:0.0 45:0.0 46:0.0 47:0.0 48:0.0 49:0.0 50:0.0 51:0.0 52:0.0 53:0.0 54:0.0 55:0.0 56:0.0 57:0.0 58:0.0 59:0.0 60:0.0 61:0.0 62:0.0 63:0.0 64:0.0 65:0.0 66:0.0 67:0.0 68:0.0 69:1.0 70:0.0 71:0.0 72:0.0 73:0.0 74:0.0 75:0.0 76:0.0 77:0.0 78:0.0 79:0.0 80:0.0 81:0.0 82:0.0 83:0.0 84:0.0 85:0.0 86:0.0 87:0.0 88:0.0 89:0.0 90:0.0 91:0.0 92:0.0 93:0.0 94:0.0 95:0.0 96:0.0 97:0.0 98:0.0 99:0.0 100:0.0 101:0.0 102:0.0 103:0.0 104:0.0 105:0.0 106:0.0 107:0.0 108:0.0 109:0.0 110:0.0 111:0.0 112:0.0 113:0.0 114:0.0 115:0.0 116:0.0 117:0.0 118:0.0 119:0.0 120:0.0 121:0.0 122:0.0 123:0.0 124:0.0 125:0.0 126:0.0 127:0.0 128:0.0 129:0.0 130:0.0 131:0.0 132:0.0 133:0.0 134:0.0 135:0.0 136:0.0 137:0.0 138:0.0 139:0.0 140:0.0 141:0.0 142:0.0 143:0.0 144:0.0 145:0.0 146:0.0 147:0.0 148:0.0 149:0.0 150:0.0 151:0.0 152:0.0 153:0.0 154:0.0 155:0.0 156:0.0 157:0.0 158:0.0 159:0.0 160:0.0 
1.0 1:0.0 2:0.0 3:0.0 4:0.0 5:0.0 6:0.0 7:0.0 8:0.0 9:0.0 10:0.0 11:0.0 12:0.0 13:0.0 14:0.0 15:0.0 16:0.0 17:0.0 18:0.0 19:0.0 20:0.0 21:0.0 22:0.0 23:0.0 24:0.0 25:0.0 26:0.0 27:0.0 28:0.0 29:0.0 30:0.0 31:0.0 32:0.0 33:0.0 34:0.0 35:0.0 36:0.0 37:0.0 38:0.0 39:0.0 40:0.0 41:0.0 42:0.0 43:0.0 44:0.0 45:0.0 46:0.0 47:0.0 48:0.0 49:0.0 50:0.0 51:0.0 52:0.0 53:0.0 54:0.0 55:0.0 56:0.0 57:0.0 58:0.0 59:0.0 60:0.0 61:0.0 62:0.0 63:0.0 64:0.0 65:0.0 66:0.0 67:0.0 68:0.0 69:1.0 70:0.0 71:0.0 72:0.0 73:0.0 74:0.0 75:0.0 76:0.0 77:0.0 78:0.0 79:0.0 80:0.0 81:0.0 82:0.0 83:0.0 84:0.0 85:0.0 86:0.0 87:0.0 88:0.0 89:0.0 90:0.0 91:0.0 92:0.0 93:0.0 94:0.0 95:0.0 96:0.0 97:0.0 98:0.0 99:0.0 100:0.0 101:0.0 102:0.0 103:0.0 104:0.0 105:0.0 106:0.0 107:0.0 108:0.0 109:0.0 110:0.0 111:0.0 112:0.0 113:0.0 114:0.0 115:0.0 116:0.0 117:0.0 118:0.0 119:0.0 120:0.0 121:0.0 122:0.0 123:0.0 124:0.0 125:0.0 126:0.0 127:0.0 128:0.0 129:0.0 130:0.0 131:0.0 132:0.0 133:0.0 134:0.0 135:0.0 136:0.0 137:0.0 138:0.0 139:0.0 140:0.0 141:0.0 142:0.0 143:0.0 144:0.0 145:0.0 146:0.0 147:0.0 148:0.0 149:0.0 150:0.0 151:0.0 152:0.0 153:0.0 154:0.0 155:0.0 156:0.0 157:0.0 158:0.0 159:0.0 160:0.0 
1.0 1:0.0 2:0.0 3:0.0 4:0.0 5:0.0 6:0.0 7:0.0 8:0.0 9:0.0 10:0.0 11:0.0 12:0.0 13:0.0 14:0.0 15:0.0 16:0.0 17:0.0 18:0.0 19:0.0 20:0.0 21:0.0 22:0.0 23:0.0 24:0.0 25:0.0 26:0.0 27:0.0 28:0.0 29:0.0 30:0.0 31:0.0 32:0.0 33:0.0 34:0.0 35:0.0 36:0.0 37:0.0 38:0.0 39:0.0 40:0.0 41:0.0 42:0.0 43:0.0 44:0.0 45:0.0 46:0.0 47:0.0 48:0.0 49:0.0 50:0.0 51:0.0 52:0.0 53:0.0 54:0.0 55:0.0 56:0.0 57:0.0 58:0.0 59:0.0 60:0.0 61:0.0 62:0.0 63:0.0 64:0.0 65:0.0 66:0.0 67:0.0 68:0.0 69:1.0 70:0.0 71:0.0 72:0.0 73:0.0 74:0.0 75:0.0 76:0.0 77:0.0 78:0.0 79:0.0 80:0.0 81:0.0 82:0.0 83:0.0 84:0.0 85:0.0 86:0.0 87:0.0 88:0.0 89:0.0 90:0.0 91:0.0 92:0.0 93:0.0 94:0.0 95:0.0 96:0.0 97:0.0 98:0.0 99:0.0 100:0.0 101:0.0 102:0.0 103:0.0 104:0.0 105:0.0 106:0.0 107:0.0 108:0.0 109:0.0 110:0.0 111:0.0 112:0.0 113:0.0 114:0.0 115:0.0 116:0.0 117:0.0 118:0.0 119:0.0 120:0.0 121:0.0 122:0.0 123:0.0 124:0.0 125:0.0 126:0.0 127:0.0 128:0.0 129:0.0 130:0.0 131:0.0 132:0.0 133:0.0 134:0.0 135:0.0 136:0.0 137:0.0 138:0.0 139:0.0 140:0.0 141:0.0 142:0.0 143:0.0 144:0.0 145:0.0 146:0.0 147:0.0 148:0.0 149:0.0 150:0.0 151:0.0 152:0.0 153:0.0 154:0.0 155:0.0 156:0.0 157:0.0 158:0.0 159:0.0 160:0.0 
1.0 1:0.0 2:0.0 3:0.0 4:0.0 5:0.0 6:0.0 7:0.0 8:0.0 9:0.0 10:0.0 11:0.0 12:0.0 13:0.0 14:0.0 15:0.0 16:0.0 17:0.0 18:0.0 19:0.0 20:0.0 21:0.0 22:0.0 23:0.0 24:0.0 25:0.0 26:0.0 27:0.0 28:0.0 29:0.0 30:0.0 31:0.0 32:0.0 33:0.0 34:0.0 35:0.0 36:0.0 37:0.0 38:0.0 39:0.0 40:0.0 41:0.0 42:0.0 43:0.0 44:0.0 45:0.0 46:0.0 47:0.0 48:0.0 49:0.0 50:0.0 51:0.0 52:0.0 53:0.0 54:0.0 55:0.0 56:0.0 57:0.0 58:0.0 59:0.0 60:0.0 61:0.0 62:0.0 63:0.0 64:0.0 65:0.0 66:0.0 67:0.0 68:0.0 69:1.0 70:0.0 71:0.0 72:0.0 73:0.0 74:0.0 75:0.0 76:0.0 77:0.0 78:0.0 79:0.0 80:0.0 81:0.0 82:0.0 83:0.0 84:0.0 85:0.0 86:0.0 87:0.0 88:0.0 89:0.0 90:0.0 91:0.0 92:0.0 93:0.0 94:0.0 95:0.0 96:0.0 97:0.0 98:0.0 99:0.0 100:0.0 101:0.0 102:0.0 103:0.0 104:0.0 105:0.0 106:0.0 107:0.0 108:0.0 109:0.0 110:0.0 111:0.0 112:0.0 113:0.0 114:0.0 115:0.0 116:0.0 117:0.0 118:0.0 119:0.0 120:0.0 121:0.0 122:0.0 123:0.0 124:0.0 125:0.0 126:0.0 127:0.0 128:0.0 129:0.0 130:0.0 131:0.0 132:0.0 133:0.0 134:0.0 135:0.0 136:0.0 137:0.0 138:0.0 139:0.0 140:0.0 141:0.0 142:0.0 143:0.0 144:0.0 145:0.0 146:0.0 147:0.0 148:0.0 149:0.0 150:0.0 151:0.0 152:0.0 153:0.0 154:0.0 155:0.0 156:0.0 157:0.0 158:0.0 159:0.0 160:0.0 
1.0 1:0.0 2:0.0 3:0.0 4:0.0 5:0.0 6:0.0 7:0.0 8:0.0 9:0.0 10:0.0 11:0.0 12:0.0 13:0.0 14:0.0 15:0.0 16:0.0 17:0.0 18:0.0 19:0.0 20:0.0 21:0.0 22:0.0 23:0.0 24:0.0 25:0.0 26:0.0 27:0.0 28:0.0 29:0.0 30:0.0 31:0.0 32:0.0 33:0.0 34:0.0 35:0.0 36:0.0 37:0.0 38:0.0 39:0.0 40:0.0 41:0.0 42:0.0 43:0.0 44:0.0 45:0.0 46:0.0 47:0.0 48:0.0 49:0.0 50:0.0 51:0.0 52:0.0 53:0.0 54:0.0 55:0.0 56:0.0 57:0.0 58:0.0 59:0.0 60:0.0 61:0.0 62:0.0 63:0.0 64:0.0 65:0.0 66:0.0 67:0.0 68:0.0 69:1.0 70:0.0 71:0.0 72:0.0 73:0.0 74:0.0 75:0.0 76:0.0 77:0.0 78:0.0 79:0.0 80:0.0 81:0.0 82:0.0 83:0.0 84:0.0 85:0.0 86:0.0 87:0.0 88:0.0 89:0.0 90:0.0 91:0.0 92:0.0 93:0.0 94:0.0 95:0.0 96:0.0 97:0.0 98:0.0 99:0.0 100:0.0 101:0.0 102:0.0 103:0.0 104:0.0 105:0.0 106:0.0 107:0.0 108:0.0 109:0.0 110:0.0 111:0.0 112:0.0 113:0.0 114:0.0 115:0.0 116:0.0 117:0.0 118:0.0 119:0.0 120:0.0 121:0.0 122:0.0 123:0.0 124:0.0 125:0.0 126:0.0 127:0.0 128:0.0 129:0.0 130:0.0 131:0.0 132:0.0 133:0.0 134:0.0 135:0.0 136:0.0 137:0.0 138:0.0 139:0.0 140:0.0 141:0.0 142:0.0 143:0.0 144:0.0 145:0.0 146:0.0 147:0.0 148:0.0 149:0.0 150:0.0 151:0.0 152:0.0 153:0.0 154:0.0 155:0.0 156:0.0 157:0.0 158:0.0 159:0.0 160:0.0 
1.0 1:0.0 2:0.0 3:0.0 4:0.0 5:0.0 6:0.0 7:0.0 8:0.0 9:0.0 10:0.0 11:0.0 12:0.0 13:0.0 14:0.0 15:0.0 16:0.0 17:0.0 18:0.0 19:0.0 20:0.0 21:0.0 22:0.0 23:0.0 24:0.0 25:0.0 26:0.0 27:0.0 28:0.0 29:0.0 30:0.0 31:0.0 32:0.0 33:0.0 34:0.0 35:0.0 36:0.0 37:0.0 38:0.0 39:0.0 40:0.0 41:0.0 42:0.0 43:0.0 44:0.0 45:0.0 46:0.0 47:0.0 48:0.0 49:0.0 50:0.0 51:0.0 52:0.0 53:0.0 54:0.0 55:0.0 56:0.0 57:0.0 58:0.0 59:0.0 60:0.0 61:0.0 62:0.0 63:0.0 64:0.0 65:0.0 66:0.0 67:0.0 68:0.0 69:1.0 70:0.0 71:0.0 72:0.0 73:0.0 74:0.0 75:0.0 76:0.0 77:0.0 78:0.0 79:0.0 80:0.0 81:0.0 82:0.0 83:0.0 84:0.0 85:0.0 86:0.0 87:0.0 88:0.0 89:0.0 90:0.0 91:0.0 92:0.0 93:0.0 94:0.0 95:0.0 96:0.0 97:0.0 98:0.0 99:0.0 100:0.0 101:0.0 102:0.0 103:0.0 104:0.0 105:0.0 106:0.0 107:0.0 108:0.0 109:0.0 110:0.0 111:0.0 112:0.0 113:0.0 114:0.0 115:0.0 116:0.0 117:0.0 118:0.0 119:0.0 120:0.0 121:0.0 122:0.0 123:0.0 124:0.0 125:0.0 126:0.0 127:0.0 128:0.0 129:0.0 130:0.0 131:0.0 132:0.0 133:0.0 134:0.0 135:0.0 136:0.0 137:0.0 138:0.0 139:0.0 140:0.0 141:0.0 142:0.0 143:0.0 144:0.0 145:0.0 146:0.0 147:0.0 148:0.0 149:0.0 150:0.0 151:0.0 152:0.0 153:0.0 154:0.0 155:0.0 156:0.0 157:0.0 158:0.0 159:0.0 160:0.0 
1.0 1:0.0 2:0.0 3:0.0 4:0.0 5:0.0 6:0.0 7:0.0 8:0.0 9:0.0 10:0.0 11:0.0 12:0.0 13:0.0 14:0.0 15:0.0 16:0.0 17:0.0 18:0.0 19:0.0 20:0.0 21:0.0 22:0.0 23:0.0 24:0.0 25:0.0 26:0.0 27:0.0 28:0.0 29:0.0 30:0.0 31:0.0 32:0.0 33:0.0 34:0.0 35:0.0 36:0.0 37:0.0 38:0.0 39:0.0 40:0.0 41:0.0 42:0.0 43:0.0 44:0.0 45:0.0 46:0.0 47:0.0 48:0.0 49:0.0 50:0.0 51:0.0 52:0.0 53:0.0 54:0.0 55:0.0 56:0.0 57:0.0 58:0.0 59:0.0 60:0.0 61:0.0 62:0.0 63:0.0 64:0.0 65:0.0 66:0.0 67:0.0 68:0.0 69:1.0 70:0.0 71:0.0 72:0.0 73:0.0 74:0.0 75:0.0 76:0.0 77:0.0 78:0.0 79:0.0 80:0.0 81:0.0 82:0.0 83:0.0 84:0.0 85:0.0 86:0.0 87:0.0 88:0.0 89:0.0 90:0.0 91:0.0 92:0.0 93:0.0 94:0.0 95:0.0 96:0.0 97:0.0 98:0.0 99:0.0 100:0.0 101:0.0 102:0.0 103:0.0 104:0.0 105:0.0 106:0.0 107:0.0 108:0.0 109:0.0 110:0.0 111:0.0 112:0.0 113:0.0 114:0.0 115:0.0 116:0.0 117:0.0 118:0.0 119:0.0 120:0.0 121:0.0 122:0.0 123:0.0 124:0.0 125:0.0 126:0.0 127:0.0 128:0.0 129:0.0 130:0.0 131:0.0 132:0.0 133:0.0 134:0.0 135:0.0 136:0.0 137:0.0 138:0.0 139:0.0 140:0.0 141:0.0 142:0.0 143:0.0 144:0.0 145:0.0 146:0.0 147:0.0 148:0.0 149:0.0 150:0.0 151:0.0 152:0.0 153:0.0 154:0.0 155:0.0 156:0.0 157:0.0 158:0.0 159:0.0 160:0.0 
1.0 1:0.0 2:0.0 3:0.0 4:0.0 5:0.0 6:0.0 7:0.0 8:0.0 9:0.0 10:0.0 11:0.0 12:0.0 13:0.0 14:0.0 15:0.0 16:0.0 17:0.0 18:0.0 19:0.0 20:0.0 21:0.0 22:0.0 23:0.0 24:0.0 25:0.0 26:0.0 27:0.0 28:0.0 29:0.0 30:0.0 31:0.0 32:0.0 33:0.0 34:0.0 35:0.0 36:0.0 37:0.0 38:0.0 39:0.0 40:0.0 41:0.0 42:0.0 43:0.0 44:0.0 45:0.0 46:0.0 47:0.0 48:0.0 49:0.0 50:0.0 51:0.0 52:0.0 53:0.0 54:0.0 55:0.0 56:0.0 57:0.0 58:0.0 59:0.0 60:0.0 61:0.0 62:0.0 63:0.0 64:0.0 65:0.0 66:0.0 67:0.0 68:0.0 69:1.0 70:0.0 71:0.0 72:0.0 73:0.0 74:0.0 75:0.0 76:0.0 77:0.0 78:0.0 79:0.0 80:0.0 81:0.0 82:0.0 83:0.0 84:0.0 85:0.0 86:0.0 87:0.0 88:0.0 89:0.0 90:0.0 91:0.0 92:0.0 93:0.0 94:0.0 95:0.0 96:0.0 97:0.0 98:0.0 99:0.0 100:0.0 101:0.0 102:0.0 103:0.0 104:0.0 105:0.0 106:0.0 107:0.0 108:0.0 109:0.0 110:0.0 111:0.0 112:0.0 113:0.0 114:0.0 115:0.0 116:0.0 117:0.0 118:0.0 119:0.0 120:0.0 121:0.0 122:0.0 123:0.0 124:0.0 125:0.0 126:0.0 127:0.0 128:0.0 129:0.0 130:0.0 131:0.0 132:0.0 133:0.0 134:0.0 135:0.0 136:0.0 137:0.0 138:0.0 139:0.0 140:0.0 141:0.0 142:0.0 143:0.0 144:0.0 145:0.0 146:0.0 147:0.0 148:0.0 149:0.0 150:0.0 151:0.0 152:0.0 153:0.0 154:0.0 155:0.0 156:0.0 157:0.0 158:0.0 159:0.0 160:0.0 
1.0 1:0.0 2:0.0 3:0.0 4:0.0 5:0.0 6:0.0 7:0.0 8:0.0 9:0.0 10:0.0 11:0.0 12:0.0 13:0.0 14:0.0 15:0.0 16:0.0 17:0.0 18:0.0 19:0.0 20:0.0 21:0.0 22:0.0 23:0.0 24:0.0 25:0.0 26:0.0 27:0.0 28:0.0 29:0.0 30:0.0 31:0.0 32:0.0 33:0.0 34:0.0 35:0.0 36:0.0 37:0.0 38:0.0 39:0.0 40:0.0 41:0.0 42:0.0 43:0.0 44:0.0 45:0.0 46:0.0 47:0.0 48:0.0 49:0.0 50:0.0 51:0.0 52:0.0 53:0.0 54:0.0 55:0.0 56:0.0 57:0.0 58:0.0 59:0.0 60:0.0 61:0.0 62:0.0 63:0.0 64:0.0 65:0.0 66:0.0 67:0.0 68:0.0 69:1.0 70:0.0 71:0.0 72:0.0 73:0.0 74:0.0 75:0.0 76:0.0 77:0.0 78:0.0 79:0.0 80:0.0 81:0.0 82:0.0 83:0.0 84:0.0 85:0.0 86:0.0 87:0.0 88:0.0 89:0.0 90:0.0 91:0.0 92:0.0 93:0.0 94:0.0 95:0.0 96:0.0 97:0.0 98:0.0 99:0.0 100:0.0 101:0.0 102:0.0 103:0.0 104:0.0 105:0.0 106:0.0 107:0.0 108:0.0 109:0.0 110:0.0 111:0.0 112:0.0 113:0.0 114:0.0 115:0.0 116:0.0 117:0.0 118:0.0 119:0.0 120:0.0 121:0.0 122:0.0 123:0.0 124:0.0 125:0.0 126:0.0 127:0.0 128:0.0 129:0.0 130:0.0 131:0.0 132:0.0 133:0.0 134:0.0 135:0.0 136:0.0 137:0.0 138:0.0 139:0.0 140:0.0 141:0.0 142:0.0 143:0.0 144:0.0 145:0.0 146:0.0 147:0.0 148:0.0 149:0.0 150:0.0 151:0.0 152:0.0 153:0.0 154:0.0 155:0.0 156:0.0 157:0.0 158:0.0 159:0.0 160:0.0 
1.0 1:0.0 2:0.0 3:0.0 4:0.0 5:0.0 6:0.0 7:0.0 8:0.0 9:0.0 10:0.0 11:0.0 12:0.0 13:0.0 14:0.0 15:0.0 16:0.0 17:0.0 18:0.0 19:0.0 20:0.0 21:0.0 22:0.0 23:0.0 24:0.0 25:0.0 26:0.0 27:0.0 28:0.0 29:0.0 30:0.0 31:0.0 32:0.0 33:0.0 34:0.0 35:0.0 36:0.0 37:0.0 38:0.0 39:0.0 40:0.0 41:0.0 42:0.0 43:0.0 44:0.0 45:0.0 46:0.0 47:0.0 48:0.0 49:0.0 50:0.0 51:0.0 52:0.0 53:0.0 54:0.0 55:0.0 56:0.0 57:0.0 58:0.0 59:0.0 60:0.0 61:0.0 62:0.0 63:0.0 64:0.0 65:0.0 66:0.0 67:0.0 68:0.0 69:1.0 70:0.0 71:0.0 72:0.0 73:0.0 74:0.0 75:0.0 76:0.0 77:0.0 78:0.0 79:0.0 80:0.0 81:0.0 82:0.0 83:0.0 84:0.0 85:0.0 86:0.0 87:0.0 88:0.0 89:0.0 90:0.0 91:0.0 92:0.0 93:0.0 94:0.0 95:0.0 96:0.0 97:0.0 98:0.0 99:0.0 100:0.0 101:0.0 102:0.0 103:0.0 104:0.0 105:0.0 106:0.0 107:0.0 108:0.0 109:0.0 110:0.0 111:0.0 112:0.0 113:0.0 114:0.0 115:0.0 116:0.0 117:0.0 118:0.0 119:0.0 120:0.0 121:0.0 122:0.0 123:0.0 124:0.0 125:0.0 126:0.0 127:0.0 128:0.0 129:0.0 130:0.0 131:0.0 132:0.0 133:0.0 134:0.0 135:0.0 136:0.0 137:0.0 138:0.0 139:0.0 140:0.0 141:0.0 142:0.0 143:0.0 144:0.0 145:0.0 146:0.0 147:0.0 148:0.0 149:0.0 150:0.0 151:0.0 152:0.0 153:0.0 154:0.0 155:0.0 156:0.0 157:0.0 158:0.0 159:0.0 160:0.0 
1.0 1:0.0 2:0.0 3:0.0 4:0.0 5:0.0 6:0.0 7:0.0 8:0.0 9:0.0 10:0.0 11:0.0 12:0.0 13:0.0 14:0.0 15:0.0 16:0.0 17:0.0 18:0.0 19:0.0 20:0.0 21:0.0 22:0.0 23:0.0 24:0.0 25:0.0 26:0.0 27:0.0 28:0.0 29:0.0 30:0.0 31:0.0 32:0.0 33:0.0 34:0.0 35:0.0 36:0.0 37:0.0 38:0.0 39:0.0 40:0.0 41:0.0 42:0.0 43:0.0 44:0.0 45:0.0 46:0.0 47:0.0 48:0.0 49:0.0 50:0.0 51:0.0 52:0.0 53:0.0 54:0.0 55:0.0 56:0.0 57:0.0 58:0.0 59:0.0 60:0.0 61:0.0 62:0.0 63:0.0 64:0.0 65:0.0 66:0.0 67:0.0 68:0.0 69:1.0 70:0.0 71:0.0 72:0.0 73:0.0 74:0.0 75:0.0 76:0.0 77:0.0 78:0.0 79:0.0 80:0.0 81:0.0 82:0.0 83:0.0 84:0.0 85:0.0 86:0.0 87:0.0 88:0.0 89:0.0 90:0.0 91:0.0 92:0.0 93:0.0 94:0.0 95:0.0 96:0.0 97:0.0 98:0.0 99:0.0 100:0.0 101:0.0 102:0.0 103:0.0 104:0.0 105:0.0 106:0.0 107:0.0 108:0.0 109:0.0 110:0.0 111:0.0 112:0.0 113:0.0 114:0.0 115:0.0 116:0.0 117:0.0 118:0.0 119:0.0 120:0.0 121:0.0 122:0.0 123:0.0 124:0.0 125:0.0 126:0.0 127:0.0 128:0.0 129:0.0 130:0.0 131:0.0 132:0.0 133:0.0 134:0.0 135:0.0 136:0.0 137:0.0 138:0.0 139:0.0 140:0.0 141:0.0 142:0.0 143:0.0 144:0.0 145:0.0 146:0.0 147:0.0 148:0.0 149:0.0 150:0.0 151:0.0 152:0.0 153:0.0 154:0.0 155:0.0 156:0.0 157:0.0 158:0.0 159:0.0 160:0.0 
1.0 1:0.0 2:0.0 3:0.0 4:0.0 5:0.0 6:0.0 7:0.0 8:0.08653846153846154 9:0.004807692307692308 10:0.0 11:0.0 12:0.02403846153846154 13:0.0 14:0.0 15:0.0 16:0.009615384615384616 17:0.0 18:0.0 19:0.004807692307692308 20:0.0 21:0.004807692307692308 22:0.0 23:0.0 24:0.0 25:0.0 26:0.0 27:0.009615384615384616 28:0.0 29:0.0 30:0.0 31:0.0 32:0.0 33:0.0 34:0.0 35:0.0 36:0.0 37:0.0 38:0.0 39:0.0 40:0.0 41:0.0 42:0.0 43:0.0 44:0.0 45:0.0 46:0.0 47:0.0 48:0.0 49:0.0 50:0.0 51:0.0 52:0.0 53:0.0 54:0.0 55:0.0 56:0.0 57:0.0 58:0.0 59:0.0 60:0.0 61:0.0 62:0.0 63:0.0 64:0.0 65:0.0 66:0.0 67:0.0 68:0.0 69:0.7980769230769231 70:0.0 71:0.009615384615384616 72:0.0 73:0.0 74:0.0 75:0.0 76:0.004807692307692308 77:0.009615384615384616 78:0.0 79:0.0 80:0.0 81:0.0 82:0.0 83:0.0 84:0.0 85:0.0 86:0.0 87:0.0 88:0.0 89:0.0 90:0.0 91:0.0 92:0.0 93:0.0 94:0.0 95:0.0 96:0.009615384615384616 97:0.0 98:0.0 99:0.0 100:0.0 101:0.0 102:0.0 103:0.0 104:0.0 105:0.0 106:0.0 107:0.0 108:0.0 109:0.0 110:0.0 111:0.0 112:0.0 113:0.0 114:0.0 115:0.0 116:0.0 117:0.0 118:0.0 119:0.0 120:0.0 121:0.0 122:0.0 123:0.0 124:0.0 125:0.0 126:0.0 127:0.0 128:0.0 129:0.0 130:0.004807692307692308 131:0.0 132:0.0 133:0.0 134:0.0 135:0.0 136:0.004807692307692308 137:0.0 138:0.0 139:0.0 140:0.0 141:0.0 142:0.004807692307692308 143:0.0 144:0.0 145:0.0 146:0.0 147:0.0 148:0.0 149:0.0 150:0.0 151:0.004807692307692308 152:0.0 153:0.0 154:0.0 155:0.0 156:0.0 157:0.0 158:0.0 159:0.0 160:0.004807692307692308 
1.0 1:0.0 2:0.0 3:0.0 4:0.0 5:0.0 6:0.0076045627376425855 7:0.0038022813688212928 8:0.0 9:0.0076045627376425855 10:0.0038022813688212928 11:0.0 12:0.0 13:0.0 14:0.0 15:0.0 16:0.0 17:0.0 18:0.0 19:0.0 20:0.0 21:0.0 22:0.0 23:0.0038022813688212928 24:0.0 25:0.0 26:0.0076045627376425855 27:0.0 28:0.0 29:0.0 30:0.0 31:0.0 32:0.0 33:0.0 34:0.0 35:0.0 36:0.0 37:0.0 38:0.0 39:0.0 40:0.0 41:0.0 42:0.0 43:0.0 44:0.0 45:0.0 46:0.0 47:0.0 48:0.011406844106463879 49:0.0 50:0.0 51:0.0 52:0.0038022813688212928 53:0.0076045627376425855 54:0.0 55:0.0 56:0.0 57:0.0 58:0.0 59:0.0076045627376425855 60:0.0 61:0.0 62:0.0 63:0.0 64:0.0038022813688212928 65:0.0 66:0.0 67:0.0038022813688212928 68:0.0 69:0.8136882129277566 70:0.0 71:0.0 72:0.0038022813688212928 73:0.0 74:0.0 75:0.0 76:0.0 77:0.0 78:0.0 79:0.0 80:0.0 81:0.0038022813688212928 82:0.0038022813688212928 83:0.0 84:0.026615969581749048 85:0.0 86:0.0038022813688212928 87:0.0 88:0.0 89:0.0 90:0.0 91:0.0076045627376425855 92:0.0 93:0.0038022813688212928 94:0.0038022813688212928 95:0.0 96:0.015209125475285171 97:0.0 98:0.0 99:0.0 100:0.0 101:0.0038022813688212928 102:0.0 103:0.0 104:0.0 105:0.0 106:0.0 107:0.0038022813688212928 108:0.0 109:0.0038022813688212928 110:0.0 111:0.0 112:0.0038022813688212928 113:0.0 114:0.0 115:0.0 116:0.0 117:0.0 118:0.0 119:0.0038022813688212928 120:0.0038022813688212928 121:0.0 122:0.0 123:0.0 124:0.0 125:0.0 126:0.0 127:0.0 128:0.0 129:0.0 130:0.0 131:0.0 132:0.0 133:0.0 134:0.0 135:0.0 136:0.0 137:0.0 138:0.0 139:0.0 140:0.0 141:0.0 142:0.0 143:0.0 144:0.0 145:0.0038022813688212928 146:0.0 147:0.0 148:0.0 149:0.0 150:0.0 151:0.0 152:0.0076045627376425855 153:0.0 154:0.0 155:0.0 156:0.0 157:0.0 158:0.0038022813688212928 159:0.0 160:0.0038022813688212928 
1.0 1:0.0 2:0.0 3:0.0 4:0.0 5:0.0 6:0.0076045627376425855 7:0.0038022813688212928 8:0.0 9:0.0076045627376425855 10:0.0038022813688212928 11:0.0 12:0.0 13:0.0 14:0.0 15:0.0 16:0.0 17:0.0 18:0.0 19:0.0 20:0.0 21:0.0 22:0.0 23:0.0038022813688212928 24:0.0 25:0.0 26:0.0076045627376425855 27:0.0 28:0.0 29:0.0 30:0.0 31:0.0 32:0.0 33:0.0 34:0.0 35:0.0 36:0.0 37:0.0 38:0.0 39:0.0 40:0.0 41:0.0 42:0.0 43:0.0 44:0.0 45:0.0 46:0.0 47:0.0 48:0.011406844106463879 49:0.0 50:0.0 51:0.0 52:0.0038022813688212928 53:0.0076045627376425855 54:0.0 55:0.0 56:0.0 57:0.0 58:0.0 59:0.0076045627376425855 60:0.0 61:0.0 62:0.0 63:0.0 64:0.0038022813688212928 65:0.0 66:0.0 67:0.0038022813688212928 68:0.0 69:0.8136882129277566 70:0.0 71:0.0 72:0.0038022813688212928 73:0.0 74:0.0 75:0.0 76:0.0 77:0.0 78:0.0 79:0.0 80:0.0 81:0.0038022813688212928 82:0.0038022813688212928 83:0.0 84:0.026615969581749048 85:0.0 86:0.0038022813688212928 87:0.0 88:0.0 89:0.0 90:0.0 91:0.0076045627376425855 92:0.0 93:0.0038022813688212928 94:0.0038022813688212928 95:0.0 96:0.015209125475285171 97:0.0 98:0.0 99:0.0 100:0.0 101:0.0038022813688212928 102:0.0 103:0.0 104:0.0 105:0.0 106:0.0 107:0.0038022813688212928 108:0.0 109:0.0038022813688212928 110:0.0 111:0.0 112:0.0038022813688212928 113:0.0 114:0.0 115:0.0 116:0.0 117:0.0 118:0.0 119:0.0038022813688212928 120:0.0038022813688212928 121:0.0 122:0.0 123:0.0 124:0.0 125:0.0 126:0.0 127:0.0 128:0.0 129:0.0 130:0.0 131:0.0 132:0.0 133:0.0 134:0.0 135:0.0 136:0.0 137:0.0 138:0.0 139:0.0 140:0.0 141:0.0 142:0.0 143:0.0 144:0.0 145:0.0038022813688212928 146:0.0 147:0.0 148:0.0 149:0.0 150:0.0 151:0.0 152:0.0076045627376425855 153:0.0 154:0.0 155:0.0 156:0.0 157:0.0 158:0.0038022813688212928 159:0.0 160:0.0038022813688212928 
1.0 1:0.006329113924050633 2:0.0 3:0.0 4:0.0031645569620253164 5:0.0031645569620253164 6:0.0 7:0.0031645569620253164 8:0.012658227848101266 9:0.0031645569620253164 10:0.0 11:0.0 12:0.03164556962025317 13:0.0 14:0.0 15:0.0 16:0.0031645569620253164 17:0.0 18:0.0 19:0.0031645569620253164 20:0.00949367088607595 21:0.0031645569620253164 22:0.0 23:0.0031645569620253164 24:0.0 25:0.0 26:0.0 27:0.022151898734177215 28:0.0 29:0.0 30:0.0 31:0.0031645569620253164 32:0.0 33:0.0 34:0.0 35:0.0031645569620253164 36:0.0 37:0.0 38:0.0031645569620253164 39:0.0 40:0.0 41:0.0 42:0.0 43:0.0031645569620253164 44:0.0 45:0.0 46:0.0 47:0.0 48:0.00949367088607595 49:0.0 50:0.0 51:0.0 52:0.006329113924050633 53:0.0031645569620253164 54:0.0 55:0.0 56:0.0 57:0.0031645569620253164 58:0.0 59:0.0 60:0.0 61:0.0 62:0.006329113924050633 63:0.0 64:0.0 65:0.0 66:0.0 67:0.012658227848101266 68:0.0 69:0.6329113924050633 70:0.0 71:0.006329113924050633 72:0.0 73:0.0 74:0.0 75:0.0 76:0.012658227848101266 77:0.0 78:0.0 79:0.0 80:0.0 81:0.0 82:0.0 83:0.0031645569620253164 84:0.0031645569620253164 85:0.006329113924050633 86:0.0031645569620253164 87:0.0031645569620253164 88:0.0 89:0.0 90:0.0 91:0.0 92:0.0 93:0.0 94:0.0 95:0.0 96:0.006329113924050633 97:0.0 98:0.00949367088607595 99:0.0 100:0.0 101:0.0 102:0.0 103:0.0 104:0.0 105:0.0 106:0.0 107:0.00949367088607595 108:0.0 109:0.0 110:0.006329113924050633 111:0.0031645569620253164 112:0.0031645569620253164 113:0.015822784810126583 114:0.0 115:0.0 116:0.0 117:0.006329113924050633 118:0.0189873417721519 119:0.0031645569620253164 120:0.0 121:0.0 122:0.0 123:0.00949367088607595 124:0.0 125:0.0 126:0.0 127:0.0 128:0.0 129:0.0 130:0.015822784810126583 131:0.0 132:0.0 133:0.0 134:0.0031645569620253164 135:0.0 136:0.0 137:0.0 138:0.0 139:0.0 140:0.0 141:0.015822784810126583 142:0.00949367088607595 143:0.0 144:0.0 145:0.0 146:0.0 147:0.0 148:0.0 149:0.0 150:0.0 151:0.00949367088607595 152:0.0031645569620253164 153:0.0 154:0.0 155:0.0031645569620253164 156:0.0 157:0.0 158:0.006329113924050633 159:0.0 160:0.00949367088607595 
1.0 1:0.0 2:0.0 3:0.0 4:0.0 5:0.0 6:0.007575757575757576 7:0.003787878787878788 8:0.0 9:0.007575757575757576 10:0.003787878787878788 11:0.0 12:0.0 13:0.0 14:0.0 15:0.0 16:0.0 17:0.0 18:0.0 19:0.0 20:0.0 21:0.0 22:0.0 23:0.003787878787878788 24:0.0 25:0.0 26:0.007575757575757576 27:0.0 28:0.0 29:0.0 30:0.0 31:0.0 32:0.0 33:0.0 34:0.0 35:0.0 36:0.0 37:0.0 38:0.0 39:0.0 40:0.0 41:0.0 42:0.0 43:0.0 44:0.0 45:0.0 46:0.0 47:0.0 48:0.011363636363636364 49:0.0 50:0.0 51:0.0 52:0.003787878787878788 53:0.007575757575757576 54:0.0 55:0.0 56:0.0 57:0.0 58:0.0 59:0.007575757575757576 60:0.0 61:0.0 62:0.0 63:0.0 64:0.003787878787878788 65:0.0 66:0.0 67:0.003787878787878788 68:0.0 69:0.8143939393939394 70:0.0 71:0.0 72:0.003787878787878788 73:0.0 74:0.0 75:0.0 76:0.0 77:0.0 78:0.0 79:0.0 80:0.0 81:0.003787878787878788 82:0.003787878787878788 83:0.0 84:0.026515151515151516 85:0.0 86:0.003787878787878788 87:0.0 88:0.0 89:0.0 90:0.0 91:0.007575757575757576 92:0.0 93:0.003787878787878788 94:0.003787878787878788 95:0.0 96:0.015151515151515152 97:0.0 98:0.0 99:0.0 100:0.0 101:0.003787878787878788 102:0.0 103:0.0 104:0.0 105:0.0 106:0.0 107:0.003787878787878788 108:0.0 109:0.003787878787878788 110:0.0 111:0.0 112:0.003787878787878788 113:0.0 114:0.0 115:0.0 116:0.0 117:0.0 118:0.0 119:0.003787878787878788 120:0.003787878787878788 121:0.0 122:0.0 123:0.0 124:0.0 125:0.0 126:0.0 127:0.0 128:0.0 129:0.0 130:0.0 131:0.0 132:0.0 133:0.0 134:0.0 135:0.0 136:0.0 137:0.0 138:0.0 139:0.0 140:0.0 141:0.0 142:0.0 143:0.0 144:0.0 145:0.003787878787878788 146:0.0 147:0.0 148:0.0 149:0.0 150:0.0 151:0.0 152:0.007575757575757576 153:0.0 154:0.0 155:0.0 156:0.0 157:0.0 158:0.003787878787878788 159:0.0 160:0.003787878787878788 
1.0 1:0.00646551724137931 2:0.0 3:0.0 4:0.0021551724137931034 5:0.0021551724137931034 6:0.0021551724137931034 7:0.0021551724137931034 8:0.0 9:0.0 10:0.0 11:0.0 12:0.02586206896551724 13:0.0 14:0.0 15:0.0 16:0.01293103448275862 17:0.0 18:0.0 19:0.004310344827586207 20:0.010775862068965518 21:0.023706896551724137 22:0.036637931034482756 23:0.010775862068965518 24:0.0 25:0.0021551724137931034 26:0.004310344827586207 27:0.00646551724137931 28:0.0 29:0.0 30:0.0 31:0.0 32:0.0 33:0.00646551724137931 34:0.0 35:0.008620689655172414 36:0.0 37:0.0 38:0.0 39:0.0 40:0.0 41:0.0 42:0.0 43:0.01293103448275862 44:0.0 45:0.0021551724137931034 46:0.0 47:0.0 48:0.004310344827586207 49:0.0021551724137931034 50:0.0 51:0.0021551724137931034 52:0.0021551724137931034 53:0.0021551724137931034 54:0.0 55:0.0 56:0.0 57:0.05172413793103448 58:0.0 59:0.0 60:0.0 61:0.0 62:0.0021551724137931034 63:0.00646551724137931 64:0.0021551724137931034 65:0.0 66:0.0 67:0.008620689655172414 68:0.0 69:0.46120689655172414 70:0.0 71:0.015086206896551725 72:0.0 73:0.0 74:0.0 75:0.0 76:0.008620689655172414 77:0.00646551724137931 78:0.0 79:0.0 80:0.0021551724137931034 81:0.0 82:0.0 83:0.0021551724137931034 84:0.0 85:0.028017241379310345 86:0.0 87:0.004310344827586207 88:0.0 89:0.0 90:0.0 91:0.0 92:0.0 93:0.0 94:0.00646551724137931 95:0.0 96:0.0021551724137931034 97:0.01939655172413793 98:0.01939655172413793 99:0.0 100:0.0 101:0.0021551724137931034 102:0.0 103:0.008620689655172414 104:0.0 105:0.0 106:0.0 107:0.00646551724137931 108:0.0 109:0.0021551724137931034 110:0.0 111:0.0 112:0.008620689655172414 113:0.008620689655172414 114:0.0 115:0.0 116:0.0 117:0.0 118:0.004310344827586207 119:0.015086206896551725 120:0.0 121:0.0 122:0.0 123:0.008620689655172414 124:0.0 125:0.0 126:0.0 127:0.0 128:0.0 129:0.0021551724137931034 130:0.028017241379310345 131:0.0021551724137931034 132:0.008620689655172414 133:0.0 134:0.004310344827586207 135:0.0 136:0.0 137:0.0 138:0.0 139:0.0 140:0.0 141:0.008620689655172414 142:0.017241379310344827 143:0.0 144:0.0 145:0.0021551724137931034 146:0.0 147:0.0 148:0.0 149:0.0 150:0.00646551724137931 151:0.0021551724137931034 152:0.0 153:0.0 154:0.0 155:0.0 156:0.0 157:0.0 158:0.0021551724137931034 159:0.0 160:0.008620689655172414 
1.0 1:0.018726591760299626 2:0.0 3:0.0 4:0.0 5:0.003745318352059925 6:0.0 7:0.0 8:0.04119850187265917 9:0.0 10:0.0 11:0.0 12:0.0149812734082397 13:0.0 14:0.0 15:0.0 16:0.003745318352059925 17:0.0 18:0.003745318352059925 19:0.0 20:0.0 21:0.0 22:0.003745318352059925 23:0.0 24:0.0 25:0.0 26:0.00749063670411985 27:0.00749063670411985 28:0.0 29:0.0 30:0.0 31:0.0 32:0.0 33:0.0 34:0.0 35:0.0 36:0.0 37:0.0 38:0.0 39:0.0 40:0.0 41:0.0 42:0.0 43:0.0 44:0.0 45:0.0 46:0.0 47:0.0 48:0.0 49:0.0 50:0.0 51:0.0 52:0.0 53:0.0 54:0.0 55:0.0 56:0.0 57:0.0 58:0.0 59:0.0 60:0.0 61:0.0 62:0.0 63:0.003745318352059925 64:0.003745318352059925 65:0.0 66:0.0 67:0.003745318352059925 68:0.0 69:0.7865168539325843 70:0.0 71:0.011235955056179775 72:0.0 73:0.0 74:0.0 75:0.0 76:0.00749063670411985 77:0.003745318352059925 78:0.0 79:0.0 80:0.0 81:0.0 82:0.0 83:0.0 84:0.0 85:0.0 86:0.003745318352059925 87:0.0 88:0.0 89:0.0 90:0.003745318352059925 91:0.0 92:0.0 93:0.003745318352059925 94:0.0 95:0.0 96:0.0 97:0.0 98:0.011235955056179775 99:0.0 100:0.0 101:0.003745318352059925 102:0.0 103:0.0 104:0.0 105:0.0 106:0.0 107:0.0 108:0.0 109:0.003745318352059925 110:0.0 111:0.0 112:0.0 113:0.003745318352059925 114:0.003745318352059925 115:0.0 116:0.0 117:0.0 118:0.003745318352059925 119:0.0 120:0.0 121:0.0 122:0.0 123:0.003745318352059925 124:0.0 125:0.0 126:0.0 127:0.0 128:0.0 129:0.0 130:0.00749063670411985 131:0.0 132:0.0 133:0.0 134:0.0 135:0.0 136:0.0 137:0.0 138:0.0 139:0.0 140:0.0 141:0.00749063670411985 142:0.0 143:0.0 144:0.0 145:0.003745318352059925 146:0.0 147:0.0 148:0.0 149:0.0 150:0.0 151:0.0 152:0.0 153:0.0 154:0.0 155:0.0 156:0.0 157:0.0 158:0.0 159:0.0 160:0.011235955056179775 
1.0 1:0.01762114537444934 2:0.0 3:0.0 4:0.0 5:0.0 6:0.0 7:0.0 8:0.02643171806167401 9:0.0 10:0.0 11:0.0 12:0.013215859030837005 13:0.0 14:0.0 15:0.0 16:0.00881057268722467 17:0.0 18:0.004405286343612335 19:0.0 20:0.0 21:0.0 22:0.0 23:0.0 24:0.0 25:0.0 26:0.00881057268722467 27:0.00881057268722467 28:0.0 29:0.0 30:0.0 31:0.0 32:0.0 33:0.0 34:0.0 35:0.004405286343612335 36:0.0 37:0.0 38:0.0 39:0.0 40:0.0 41:0.0 42:0.0 43:0.0 44:0.0 45:0.0 46:0.0 47:0.0 48:0.0 49:0.0 50:0.0 51:0.0 52:0.0 53:0.004405286343612335 54:0.0 55:0.0 56:0.0 57:0.0 58:0.0 59:0.0 60:0.0 61:0.0 62:0.0 63:0.004405286343612335 64:0.004405286343612335 65:0.0 66:0.0 67:0.004405286343612335 68:0.0 69:0.7797356828193832 70:0.0 71:0.01762114537444934 72:0.0 73:0.0 74:0.0 75:0.0 76:0.013215859030837005 77:0.004405286343612335 78:0.0 79:0.0 80:0.0 81:0.0 82:0.0 83:0.0 84:0.0 85:0.0 86:0.004405286343612335 87:0.0 88:0.0 89:0.0 90:0.0 91:0.0 92:0.0 93:0.0 94:0.0 95:0.0 96:0.0 97:0.0 98:0.00881057268722467 99:0.0 100:0.0 101:0.004405286343612335 102:0.0 103:0.0 104:0.0 105:0.0 106:0.0 107:0.0 108:0.0 109:0.004405286343612335 110:0.0 111:0.0 112:0.0 113:0.004405286343612335 114:0.004405286343612335 115:0.0 116:0.0 117:0.0 118:0.004405286343612335 119:0.0 120:0.0 121:0.0 122:0.0 123:0.004405286343612335 124:0.0 125:0.0 126:0.0 127:0.0 128:0.0 129:0.0 130:0.004405286343612335 131:0.0 132:0.0 133:0.0 134:0.0 135:0.0 136:0.0 137:0.0 138:0.0 139:0.0 140:0.0 141:0.00881057268722467 142:0.0 143:0.0 144:0.0 145:0.004405286343612335 146:0.0 147:0.0 148:0.0 149:0.0 150:0.004405286343612335 151:0.0 152:0.0 153:0.0 154:0.0 155:0.0 156:0.0 157:0.0 158:0.0 159:0.0 160:0.013215859030837005 
1.0 1:0.015317286652078774 2:0.0 3:0.0 4:0.002188183807439825 5:0.002188183807439825 6:0.0 7:0.002188183807439825 8:0.061269146608315096 9:0.0 10:0.002188183807439825 11:0.0 12:0.024070021881838075 13:0.0 14:0.0 15:0.0 16:0.01312910284463895 17:0.0 18:0.0 19:0.00437636761487965 20:0.015317286652078774 21:0.0350109409190372 22:0.03282275711159737 23:0.006564551422319475 24:0.0 25:0.002188183807439825 26:0.0 27:0.002188183807439825 28:0.0 29:0.0 30:0.0 31:0.0 32:0.0 33:0.002188183807439825 34:0.002188183807439825 35:0.0087527352297593 36:0.0 37:0.0 38:0.0 39:0.0 40:0.0 41:0.0 42:0.0 43:0.00437636761487965 44:0.0 45:0.00437636761487965 46:0.0 47:0.0 48:0.00437636761487965 49:0.0 50:0.0 51:0.006564551422319475 52:0.002188183807439825 53:0.002188183807439825 54:0.0 55:0.0 56:0.0 57:0.0437636761487965 58:0.0 59:0.0 60:0.0 61:0.0 62:0.006564551422319475 63:0.00437636761487965 64:0.002188183807439825 65:0.0 66:0.002188183807439825 67:0.00437636761487965 68:0.0 69:0.42669584245076586 70:0.0 71:0.0175054704595186 72:0.002188183807439825 73:0.0 74:0.0 75:0.0 76:0.00437636761487965 77:0.002188183807439825 78:0.0 79:0.0 80:0.002188183807439825 81:0.0 82:0.0 83:0.0 84:0.0 85:0.0175054704595186 86:0.0 87:0.002188183807439825 88:0.0 89:0.0 90:0.0 91:0.0 92:0.0 93:0.0 94:0.002188183807439825 95:0.0 96:0.002188183807439825 97:0.0175054704595186 98:0.019693654266958426 99:0.0 100:0.0 101:0.002188183807439825 102:0.0 103:0.00437636761487965 104:0.0 105:0.0 106:0.0 107:0.006564551422319475 108:0.0 109:0.0 110:0.002188183807439825 111:0.0 112:0.00437636761487965 113:0.006564551422319475 114:0.0 115:0.0 116:0.0 117:0.0 118:0.002188183807439825 119:0.006564551422319475 120:0.0 121:0.0 122:0.0 123:0.0175054704595186 124:0.0 125:0.0 126:0.0 127:0.0 128:0.0 129:0.00437636761487965 130:0.0262582056892779 131:0.0 132:0.00437636761487965 133:0.0 134:0.0087527352297593 135:0.0 136:0.0 137:0.0 138:0.0 139:0.002188183807439825 140:0.0 141:0.024070021881838075 142:0.02188183807439825 143:0.0 144:0.0 145:0.00437636761487965 146:0.0 147:0.0 148:0.0 149:0.0 150:0.002188183807439825 151:0.002188183807439825 152:0.0 153:0.0 154:0.0 155:0.0 156:0.0 157:0.0 158:0.002188183807439825 159:0.002188183807439825 160:0.00437636761487965 
1.0 1:0.016055045871559634 2:0.0 3:0.0 4:0.0022935779816513763 5:0.0 6:0.0 7:0.0 8:0.0 9:0.013761467889908258 10:0.0 11:0.0 12:0.027522935779816515 13:0.0 14:0.0 15:0.0 16:0.011467889908256881 17:0.0 18:0.0 19:0.006880733944954129 20:0.0 21:0.013761467889908258 22:0.0 23:0.0 24:0.0 25:0.0 26:0.0 27:0.0022935779816513763 28:0.0 29:0.006880733944954129 30:0.0 31:0.0 32:0.0 33:0.0022935779816513763 34:0.0 35:0.0022935779816513763 36:0.0 37:0.0 38:0.0 39:0.0 40:0.0 41:0.0 42:0.0 43:0.0045871559633027525 44:0.0 45:0.0045871559633027525 46:0.0 47:0.0 48:0.0022935779816513763 49:0.0 50:0.0 51:0.0 52:0.0 53:0.0 54:0.0 55:0.0 56:0.0 57:0.009174311926605505 58:0.0 59:0.0 60:0.0 61:0.0 62:0.0 63:0.0045871559633027525 64:0.0022935779816513763 65:0.0 66:0.0 67:0.0 68:0.0 69:0.6926605504587156 70:0.0 71:0.0022935779816513763 72:0.0 73:0.0 74:0.0 75:0.0 76:0.006880733944954129 77:0.009174311926605505 78:0.0 79:0.0 80:0.0 81:0.0022935779816513763 82:0.0 83:0.0 84:0.0 85:0.0022935779816513763 86:0.009174311926605505 87:0.0 88:0.0 89:0.0 90:0.0 91:0.0 92:0.0 93:0.0 94:0.0 95:0.0 96:0.006880733944954129 97:0.0022935779816513763 98:0.011467889908256881 99:0.0 100:0.0 101:0.0 102:0.0 103:0.0022935779816513763 104:0.0 105:0.0 106:0.0 107:0.006880733944954129 108:0.0 109:0.0045871559633027525 110:0.0045871559633027525 111:0.0 112:0.0022935779816513763 113:0.0 114:0.0 115:0.0 116:0.0 117:0.0 118:0.006880733944954129 119:0.0 120:0.0 121:0.0 122:0.0 123:0.009174311926605505 124:0.011467889908256881 125:0.0 126:0.0 127:0.0 128:0.0 129:0.009174311926605505 130:0.022935779816513763 131:0.0 132:0.0 133:0.0 134:0.0045871559633027525 135:0.0 136:0.0 137:0.0 138:0.0 139:0.0 140:0.0 141:0.016055045871559634 142:0.0022935779816513763 143:0.0 144:0.0 145:0.0022935779816513763 146:0.0 147:0.0 148:0.0 149:0.0 150:0.0022935779816513763 151:0.0 152:0.006880733944954129 153:0.0 154:0.0 155:0.0045871559633027525 156:0.0 157:0.0 158:0.0 159:0.0 160:0.0022935779816513763 
1.0 1:0.007194244604316547 2:0.0 3:0.0 4:0.002398081534772182 5:0.0 6:0.014388489208633094 7:0.0 8:0.019184652278177457 9:0.011990407673860911 10:0.002398081534772182 11:0.0 12:0.009592326139088728 13:0.0 14:0.0 15:0.0 16:0.002398081534772182 17:0.0 18:0.004796163069544364 19:0.0 20:0.0 21:0.002398081534772182 22:0.002398081534772182 23:0.002398081534772182 24:0.0 25:0.0 26:0.0 27:0.0 28:0.0 29:0.002398081534772182 30:0.0 31:0.0 32:0.0 33:0.002398081534772182 34:0.0 35:0.0 36:0.0 37:0.0 38:0.0 39:0.0 40:0.0 41:0.0 42:0.0 43:0.0 44:0.0 45:0.004796163069544364 46:0.0 47:0.0 48:0.0 49:0.0 50:0.0 51:0.004796163069544364 52:0.0 53:0.0 54:0.0 55:0.0 56:0.0 57:0.002398081534772182 58:0.0 59:0.0 60:0.0 61:0.0 62:0.0 63:0.0 64:0.002398081534772182 65:0.0 66:0.0 67:0.0 68:0.0 69:0.8009592326139089 70:0.0 71:0.004796163069544364 72:0.0 73:0.0 74:0.0 75:0.0 76:0.002398081534772182 77:0.0 78:0.0 79:0.0 80:0.0 81:0.004796163069544364 82:0.002398081534772182 83:0.0 84:0.0 85:0.0 86:0.009592326139088728 87:0.0 88:0.0 89:0.0 90:0.0 91:0.0 92:0.0 93:0.0 94:0.002398081534772182 95:0.0 96:0.009592326139088728 97:0.002398081534772182 98:0.004796163069544364 99:0.0 100:0.0 101:0.0 102:0.004796163069544364 103:0.0 104:0.0 105:0.0 106:0.0 107:0.007194244604316547 108:0.0 109:0.0 110:0.004796163069544364 111:0.0 112:0.002398081534772182 113:0.002398081534772182 114:0.0 115:0.0 116:0.0 117:0.0 118:0.0 119:0.0 120:0.0 121:0.0 122:0.0 123:0.004796163069544364 124:0.011990407673860911 125:0.0 126:0.0 127:0.0 128:0.0 129:0.0 130:0.009592326139088728 131:0.0 132:0.0 133:0.0 134:0.0 135:0.0 136:0.0 137:0.0 138:0.0 139:0.0 140:0.0 141:0.002398081534772182 142:0.0 143:0.0 144:0.0 145:0.0 146:0.0 147:0.0 148:0.0 149:0.0 150:0.002398081534772182 151:0.0 152:0.0 153:0.0 154:0.0 155:0.0 156:0.0 157:0.0 158:0.0 159:0.0 160:0.002398081534772182 
1.0 1:0.006980802792321117 2:0.0 3:0.0 4:0.0017452006980802793 5:0.0017452006980802793 6:0.0017452006980802793 7:0.0017452006980802793 8:0.04013961605584642 9:0.0 10:0.0 11:0.0 12:0.031413612565445025 13:0.0017452006980802793 14:0.0 15:0.0 16:0.010471204188481676 17:0.0 18:0.0 19:0.0034904013961605585 20:0.008726003490401396 21:0.019197207678883072 22:0.029668411867364748 23:0.006980802792321117 24:0.0 25:0.0017452006980802793 26:0.0 27:0.0034904013961605585 28:0.0 29:0.0 30:0.0 31:0.0 32:0.0 33:0.005235602094240838 34:0.0 35:0.006980802792321117 36:0.0 37:0.0 38:0.0 39:0.0 40:0.0 41:0.0 42:0.0 43:0.010471204188481676 44:0.0 45:0.0017452006980802793 46:0.0 47:0.0 48:0.0017452006980802793 49:0.0 50:0.0 51:0.0017452006980802793 52:0.0034904013961605585 53:0.0017452006980802793 54:0.0 55:0.0 56:0.0 57:0.038394415357766144 58:0.0 59:0.0 60:0.0 61:0.0 62:0.0017452006980802793 63:0.0034904013961605585 64:0.0017452006980802793 65:0.0 66:0.0 67:0.006980802792321117 68:0.0 69:0.5514834205933682 70:0.0 71:0.008726003490401396 72:0.0 73:0.0 74:0.0 75:0.0 76:0.005235602094240838 77:0.005235602094240838 78:0.0 79:0.0 80:0.0017452006980802793 81:0.0 82:0.0 83:0.0 84:0.0 85:0.020942408376963352 86:0.0 87:0.0017452006980802793 88:0.0 89:0.0 90:0.0 91:0.0 92:0.0 93:0.0 94:0.005235602094240838 95:0.0 96:0.0017452006980802793 97:0.015706806282722512 98:0.012216404886561954 99:0.0 100:0.0 101:0.0 102:0.0 103:0.0034904013961605585 104:0.0 105:0.0 106:0.0 107:0.005235602094240838 108:0.0 109:0.0 110:0.0 111:0.0017452006980802793 112:0.006980802792321117 113:0.008726003490401396 114:0.0017452006980802793 115:0.0 116:0.0 117:0.0 118:0.0017452006980802793 119:0.012216404886561954 120:0.0 121:0.0 122:0.0 123:0.005235602094240838 124:0.0 125:0.0 126:0.0 127:0.0 128:0.0 129:0.0017452006980802793 130:0.0034904013961605585 131:0.0017452006980802793 132:0.006980802792321117 133:0.0 134:0.006980802792321117 135:0.0 136:0.0 137:0.0 138:0.0 139:0.0 140:0.0 141:0.010471204188481676 142:0.015706806282722512 143:0.0 144:0.0 145:0.0017452006980802793 146:0.0 147:0.0 148:0.0 149:0.0 150:0.005235602094240838 151:0.0017452006980802793 152:0.0 153:0.0 154:0.0 155:0.0 156:0.0 157:0.0 158:0.0017452006980802793 159:0.0 160:0.008726003490401396 
1.0 1:0.00804289544235925 2:0.0 3:0.0 4:0.002680965147453083 5:0.0 6:0.0 7:0.0 8:0.02680965147453083 9:0.00804289544235925 10:0.0 11:0.0 12:0.010723860589812333 13:0.0 14:0.0 15:0.0 16:0.0 17:0.0 18:0.0 19:0.0 20:0.0 21:0.002680965147453083 22:0.0 23:0.002680965147453083 24:0.0 25:0.0 26:0.0 27:0.0 28:0.0 29:0.002680965147453083 30:0.0 31:0.0 32:0.0 33:0.002680965147453083 34:0.0 35:0.0 36:0.0 37:0.0 38:0.0 39:0.0 40:0.0 41:0.0 42:0.0 43:0.0 44:0.0 45:0.005361930294906166 46:0.0 47:0.0 48:0.0 49:0.0 50:0.0 51:0.0 52:0.0 53:0.0 54:0.0 55:0.0 56:0.0 57:0.0 58:0.0 59:0.0 60:0.0 61:0.0 62:0.0 63:0.002680965147453083 64:0.002680965147453083 65:0.0 66:0.0 67:0.0 68:0.0 69:0.7801608579088471 70:0.0 71:0.010723860589812333 72:0.0 73:0.0 74:0.0 75:0.0 76:0.005361930294906166 77:0.005361930294906166 78:0.0 79:0.0 80:0.0 81:0.002680965147453083 82:0.0 83:0.0 84:0.0 85:0.0 86:0.013404825737265416 87:0.0 88:0.0 89:0.0 90:0.0 91:0.0 92:0.0 93:0.0 94:0.0 95:0.0 96:0.0160857908847185 97:0.0 98:0.005361930294906166 99:0.0 100:0.0 101:0.002680965147453083 102:0.0 103:0.002680965147453083 104:0.0 105:0.0 106:0.0 107:0.00804289544235925 108:0.0 109:0.002680965147453083 110:0.005361930294906166 111:0.0 112:0.0 113:0.0 114:0.0 115:0.0 116:0.0 117:0.0 118:0.005361930294906166 119:0.0 120:0.0 121:0.0 122:0.0 123:0.002680965147453083 124:0.013404825737265416 125:0.0 126:0.0 127:0.0 128:0.0 129:0.005361930294906166 130:0.0 131:0.0 132:0.0 133:0.0 134:0.005361930294906166 135:0.0 136:0.0 137:0.0 138:0.0 139:0.0 140:0.0 141:0.01876675603217158 142:0.005361930294906166 143:0.0 144:0.0 145:0.0 146:0.0 147:0.0 148:0.0 149:0.0 150:0.002680965147453083 151:0.0 152:0.0 153:0.0 154:0.0 155:0.002680965147453083 156:0.0 157:0.0 158:0.0 159:0.0 160:0.0 
1.0 1:0.0 2:0.0 3:0.0 4:0.0020242914979757085 5:0.0 6:0.0 7:0.0020242914979757085 8:0.012145748987854251 9:0.0 10:0.0 11:0.0 12:0.0 13:0.004048582995951417 14:0.0 15:0.0 16:0.0020242914979757085 17:0.0 18:0.010121457489878543 19:0.012145748987854251 20:0.0 21:0.0020242914979757085 22:0.004048582995951417 23:0.0 24:0.0 25:0.0 26:0.0020242914979757085 27:0.0 28:0.0 29:0.0 30:0.0 31:0.0 32:0.0 33:0.0 34:0.0 35:0.0 36:0.0 37:0.0 38:0.0 39:0.0 40:0.0 41:0.0 42:0.0 43:0.0 44:0.0 45:0.008097165991902834 46:0.0 47:0.0 48:0.0 49:0.0 50:0.0 51:0.0 52:0.0020242914979757085 53:0.004048582995951417 54:0.0 55:0.0 56:0.0 57:0.0020242914979757085 58:0.0 59:0.0 60:0.0 61:0.012145748987854251 62:0.0020242914979757085 63:0.0 64:0.0020242914979757085 65:0.0 66:0.0 67:0.006072874493927126 68:0.0 69:0.7813765182186235 70:0.0 71:0.008097165991902834 72:0.0 73:0.0 74:0.0 75:0.0 76:0.0020242914979757085 77:0.0020242914979757085 78:0.0 79:0.0 80:0.0020242914979757085 81:0.0 82:0.0 83:0.0 84:0.0 85:0.0020242914979757085 86:0.0020242914979757085 87:0.0020242914979757085 88:0.0 89:0.0020242914979757085 90:0.0 91:0.0 92:0.0 93:0.0 94:0.0 95:0.0 96:0.010121457489878543 97:0.004048582995951417 98:0.004048582995951417 99:0.0 100:0.0 101:0.0 102:0.0020242914979757085 103:0.0020242914979757085 104:0.0 105:0.0 106:0.0 107:0.004048582995951417 108:0.0 109:0.0 110:0.0 111:0.0020242914979757085 112:0.0020242914979757085 113:0.0 114:0.0 115:0.0 116:0.0 117:0.0 118:0.004048582995951417 119:0.0 120:0.0 121:0.004048582995951417 122:0.0 123:0.0020242914979757085 124:0.0 125:0.0 126:0.0 127:0.0 128:0.0 129:0.0 130:0.006072874493927126 131:0.0020242914979757085 132:0.0 133:0.0 134:0.0020242914979757085 135:0.0 136:0.012145748987854251 137:0.0 138:0.0 139:0.0 140:0.0 141:0.0020242914979757085 142:0.0 143:0.0 144:0.0 145:0.006072874493927126 146:0.0 147:0.0 148:0.0 149:0.0 150:0.0 151:0.016194331983805668 152:0.0 153:0.0 154:0.0 155:0.0 156:0.0 157:0.0 158:0.008097165991902834 159:0.0 160:0.010121457489878543 
1.0 1:0.0 2:0.0 3:0.0 4:0.0 5:0.0 6:0.006153846153846154 7:0.003076923076923077 8:0.0 9:0.012307692307692308 10:0.003076923076923077 11:0.0 12:0.0 13:0.003076923076923077 14:0.0 15:0.0 16:0.006153846153846154 17:0.0 18:0.0 19:0.0 20:0.003076923076923077 21:0.0 22:0.0 23:0.006153846153846154 24:0.0 25:0.0 26:0.006153846153846154 27:0.0 28:0.0 29:0.003076923076923077 30:0.0 31:0.0 32:0.0 33:0.0 34:0.0 35:0.0 36:0.0 37:0.0 38:0.0 39:0.0 40:0.0 41:0.0 42:0.0 43:0.0 44:0.0 45:0.0 46:0.003076923076923077 47:0.0 48:0.009230769230769232 49:0.0 50:0.0 51:0.0 52:0.006153846153846154 53:0.009230769230769232 54:0.0 55:0.0 56:0.0 57:0.0 58:0.0 59:0.006153846153846154 60:0.0 61:0.0 62:0.003076923076923077 63:0.0 64:0.006153846153846154 65:0.0 66:0.0 67:0.006153846153846154 68:0.0 69:0.803076923076923 70:0.0 71:0.0 72:0.003076923076923077 73:0.0 74:0.0 75:0.0 76:0.0 77:0.003076923076923077 78:0.0 79:0.0 80:0.0 81:0.003076923076923077 82:0.003076923076923077 83:0.0 84:0.021538461538461538 85:0.0 86:0.003076923076923077 87:0.0 88:0.0 89:0.0 90:0.0 91:0.006153846153846154 92:0.0 93:0.003076923076923077 94:0.003076923076923077 95:0.0 96:0.015384615384615385 97:0.003076923076923077 98:0.0 99:0.0 100:0.0 101:0.003076923076923077 102:0.0 103:0.0 104:0.0 105:0.0 106:0.0 107:0.0 108:0.0 109:0.003076923076923077 110:0.003076923076923077 111:0.0 112:0.003076923076923077 113:0.0 114:0.0 115:0.0 116:0.0 117:0.0 118:0.0 119:0.0 120:0.003076923076923077 121:0.0 122:0.0 123:0.0 124:0.0 125:0.0 126:0.0 127:0.0 128:0.0 129:0.0 130:0.0 131:0.0 132:0.0 133:0.0 134:0.0 135:0.0 136:0.0 137:0.0 138:0.0 139:0.0 140:0.0 141:0.0 142:0.0 143:0.0 144:0.0 145:0.003076923076923077 146:0.0 147:0.0 148:0.0 149:0.0 150:0.0 151:0.0 152:0.006153846153846154 153:0.0 154:0.0 155:0.0 156:0.0 157:0.0 158:0.003076923076923077 159:0.0 160:0.0 
1.0 1:0.0 2:0.0 3:0.0 4:0.0 5:0.0 6:0.006134969325153374 7:0.003067484662576687 8:0.0 9:0.006134969325153374 10:0.003067484662576687 11:0.0 12:0.0 13:0.003067484662576687 14:0.0 15:0.0 16:0.006134969325153374 17:0.0 18:0.0 19:0.0 20:0.009202453987730062 21:0.0 22:0.0 23:0.003067484662576687 24:0.0 25:0.0 26:0.006134969325153374 27:0.0 28:0.0 29:0.003067484662576687 30:0.0 31:0.0 32:0.0 33:0.0 34:0.0 35:0.0 36:0.0 37:0.0 38:0.0 39:0.0 40:0.0 41:0.0 42:0.0 43:0.0 44:0.0 45:0.003067484662576687 46:0.003067484662576687 47:0.0 48:0.009202453987730062 49:0.0 50:0.0 51:0.0 52:0.006134969325153374 53:0.006134969325153374 54:0.0 55:0.0 56:0.0 57:0.0 58:0.0 59:0.006134969325153374 60:0.0 61:0.0 62:0.003067484662576687 63:0.0 64:0.003067484662576687 65:0.0 66:0.0 67:0.009202453987730062 68:0.0 69:0.8067484662576687 70:0.0 71:0.0 72:0.003067484662576687 73:0.0 74:0.0 75:0.0 76:0.0 77:0.003067484662576687 78:0.0 79:0.0 80:0.0 81:0.003067484662576687 82:0.003067484662576687 83:0.0 84:0.02147239263803681 85:0.0 86:0.003067484662576687 87:0.003067484662576687 88:0.0 89:0.0 90:0.0 91:0.006134969325153374 92:0.0 93:0.003067484662576687 94:0.003067484662576687 95:0.0 96:0.015337423312883436 97:0.0 98:0.0 99:0.0 100:0.0 101:0.003067484662576687 102:0.0 103:0.0 104:0.0 105:0.0 106:0.0 107:0.0 108:0.0 109:0.003067484662576687 110:0.003067484662576687 111:0.0 112:0.003067484662576687 113:0.0 114:0.0 115:0.0 116:0.0 117:0.0 118:0.0 119:0.0 120:0.003067484662576687 121:0.0 122:0.0 123:0.0 124:0.0 125:0.0 126:0.0 127:0.0 128:0.0 129:0.0 130:0.0 131:0.0 132:0.0 133:0.0 134:0.0 135:0.0 136:0.0 137:0.0 138:0.0 139:0.0 140:0.0 141:0.0 142:0.0 143:0.0 144:0.0 145:0.003067484662576687 146:0.0 147:0.0 148:0.0 149:0.0 150:0.0 151:0.0 152:0.006134969325153374 153:0.0 154:0.0 155:0.0 156:0.0 157:0.0 158:0.003067484662576687 159:0.0 160:0.0 
1.0 1:0.0 2:0.0 3:0.0 4:0.0 5:0.0 6:0.0 7:0.0 8:0.0038022813688212928 9:0.0076045627376425855 10:0.0 11:0.0 12:0.0076045627376425855 13:0.0 14:0.0 15:0.0 16:0.0038022813688212928 17:0.0 18:0.0038022813688212928 19:0.0 20:0.0 21:0.0038022813688212928 22:0.0 23:0.0 24:0.0 25:0.0 26:0.0 27:0.0076045627376425855 28:0.0 29:0.0 30:0.0 31:0.0 32:0.0 33:0.0 34:0.0 35:0.0038022813688212928 36:0.0 37:0.0 38:0.0 39:0.0 40:0.0 41:0.0 42:0.0 43:0.0 44:0.0 45:0.0 46:0.0 47:0.0 48:0.0 49:0.0 50:0.0 51:0.0 52:0.0 53:0.0 54:0.0 55:0.0 56:0.0 57:0.0038022813688212928 58:0.0 59:0.0 60:0.0 61:0.0038022813688212928 62:0.0 63:0.0 64:0.0 65:0.0 66:0.0 67:0.0 68:0.0 69:0.8060836501901141 70:0.0 71:0.0038022813688212928 72:0.0 73:0.0 74:0.0 75:0.0 76:0.0038022813688212928 77:0.011406844106463879 78:0.0076045627376425855 79:0.0 80:0.0 81:0.0 82:0.0 83:0.0 84:0.0038022813688212928 85:0.0076045627376425855 86:0.0 87:0.0 88:0.0 89:0.0038022813688212928 90:0.0 91:0.0 92:0.0 93:0.0 94:0.0 95:0.0 96:0.0076045627376425855 97:0.0038022813688212928 98:0.0 99:0.0 100:0.0038022813688212928 101:0.0076045627376425855 102:0.0038022813688212928 103:0.0076045627376425855 104:0.0 105:0.0 106:0.0 107:0.0038022813688212928 108:0.0 109:0.0 110:0.0 111:0.0 112:0.0038022813688212928 113:0.0038022813688212928 114:0.0 115:0.0 116:0.0 117:0.0 118:0.0 119:0.0 120:0.0 121:0.0 122:0.0 123:0.0 124:0.0 125:0.0 126:0.0 127:0.0 128:0.0 129:0.0038022813688212928 130:0.015209125475285171 131:0.0038022813688212928 132:0.0 133:0.0 134:0.0 135:0.0038022813688212928 136:0.0 137:0.0 138:0.0 139:0.0 140:0.0 141:0.0038022813688212928 142:0.0 143:0.0 144:0.0 145:0.0 146:0.0 147:0.0 148:0.0 149:0.0 150:0.0038022813688212928 151:0.0 152:0.0 153:0.0 154:0.0 155:0.0038022813688212928 156:0.0 157:0.0 158:0.0 159:0.019011406844106463 160:0.0 
1.0 1:0.015317286652078774 2:0.0 3:0.0 4:0.002188183807439825 5:0.002188183807439825 6:0.0 7:0.002188183807439825 8:0.05689277899343545 9:0.0 10:0.002188183807439825 11:0.0 12:0.0262582056892779 13:0.0 14:0.0 15:0.0 16:0.01312910284463895 17:0.0 18:0.0 19:0.00437636761487965 20:0.01312910284463895 21:0.030634573304157548 22:0.03282275711159737 23:0.00437636761487965 24:0.0 25:0.002188183807439825 26:0.0 27:0.00437636761487965 28:0.0 29:0.0 30:0.0 31:0.0 32:0.0 33:0.002188183807439825 34:0.002188183807439825 35:0.0087527352297593 36:0.0 37:0.0 38:0.0 39:0.0 40:0.0 41:0.0 42:0.0 43:0.006564551422319475 44:0.0 45:0.00437636761487965 46:0.0 47:0.0 48:0.00437636761487965 49:0.0 50:0.0 51:0.006564551422319475 52:0.002188183807439825 53:0.002188183807439825 54:0.0 55:0.0 56:0.0 57:0.045951859956236324 58:0.0 59:0.0 60:0.0 61:0.0 62:0.006564551422319475 63:0.00437636761487965 64:0.002188183807439825 65:0.0 66:0.002188183807439825 67:0.00437636761487965 68:0.0 69:0.42669584245076586 70:0.0 71:0.0175054704595186 72:0.002188183807439825 73:0.0 74:0.0 75:0.0 76:0.00437636761487965 77:0.002188183807439825 78:0.0 79:0.0 80:0.002188183807439825 81:0.0 82:0.0 83:0.0 84:0.0 85:0.0175054704595186 86:0.0 87:0.00437636761487965 88:0.0 89:0.0 90:0.0 91:0.0 92:0.0 93:0.0 94:0.002188183807439825 95:0.0 96:0.002188183807439825 97:0.019693654266958426 98:0.015317286652078774 99:0.0 100:0.0 101:0.002188183807439825 102:0.0 103:0.006564551422319475 104:0.0 105:0.0 106:0.0 107:0.006564551422319475 108:0.0 109:0.0 110:0.00437636761487965 111:0.0 112:0.00437636761487965 113:0.006564551422319475 114:0.0 115:0.0 116:0.0 117:0.0 118:0.002188183807439825 119:0.006564551422319475 120:0.0 121:0.0 122:0.0 123:0.015317286652078774 124:0.0 125:0.0 126:0.0 127:0.0 128:0.0 129:0.00437636761487965 130:0.0262582056892779 131:0.0 132:0.00437636761487965 133:0.0 134:0.0087527352297593 135:0.0 136:0.0 137:0.0 138:0.0 139:0.002188183807439825 140:0.0 141:0.0262582056892779 142:0.02188183807439825 143:0.0 144:0.0 145:0.00437636761487965 146:0.0 147:0.0 148:0.0 149:0.0 150:0.002188183807439825 151:0.002188183807439825 152:0.0 153:0.0 154:0.0 155:0.0 156:0.0 157:0.0 158:0.002188183807439825 159:0.002188183807439825 160:0.00437636761487965 
1.0 1:0.005309734513274336 2:0.0 3:0.0 4:0.0035398230088495575 5:0.0017699115044247787 6:0.0 7:0.0017699115044247787 8:0.02654867256637168 9:0.0 10:0.0 11:0.0 12:0.023008849557522124 13:0.0 14:0.0 15:0.0 16:0.010619469026548672 17:0.0 18:0.0 19:0.0035398230088495575 20:0.008849557522123894 21:0.019469026548672566 22:0.03008849557522124 23:0.008849557522123894 24:0.0 25:0.0017699115044247787 26:0.0035398230088495575 27:0.0035398230088495575 28:0.0 29:0.0 30:0.0 31:0.0 32:0.0 33:0.005309734513274336 34:0.0 35:0.007079646017699115 36:0.0 37:0.0 38:0.0 39:0.0 40:0.0 41:0.0 42:0.0 43:0.008849557522123894 44:0.0 45:0.0017699115044247787 46:0.0 47:0.0 48:0.0017699115044247787 49:0.0017699115044247787 50:0.0 51:0.0017699115044247787 52:0.0017699115044247787 53:0.0017699115044247787 54:0.0 55:0.0 56:0.0 57:0.04247787610619469 58:0.0 59:0.0 60:0.0 61:0.0 62:0.0017699115044247787 63:0.005309734513274336 64:0.0017699115044247787 65:0.0 66:0.0 67:0.008849557522123894 68:0.0 69:0.5646017699115045 70:0.0 71:0.0017699115044247787 72:0.0 73:0.0 74:0.0 75:0.0 76:0.005309734513274336 77:0.005309734513274336 78:0.0 79:0.0 80:0.0017699115044247787 81:0.0 82:0.0017699115044247787 83:0.0 84:0.0 85:0.021238938053097345 86:0.0 87:0.0017699115044247787 88:0.0 89:0.0 90:0.0 91:0.0 92:0.0 93:0.0 94:0.005309734513274336 95:0.0 96:0.0017699115044247787 97:0.012389380530973451 98:0.01415929203539823 99:0.0 100:0.0 101:0.0017699115044247787 102:0.0 103:0.0017699115044247787 104:0.0 105:0.0 106:0.0 107:0.005309734513274336 108:0.0 109:0.0 110:0.0 111:0.0 112:0.007079646017699115 113:0.007079646017699115 114:0.0 115:0.0 116:0.0 117:0.0 118:0.0017699115044247787 119:0.012389380530973451 120:0.0 121:0.0 122:0.0 123:0.0035398230088495575 124:0.0 125:0.0 126:0.0 127:0.0 128:0.0 129:0.0017699115044247787 130:0.024778761061946902 131:0.0 132:0.008849557522123894 133:0.0 134:0.0035398230088495575 135:0.0 136:0.0 137:0.0 138:0.0 139:0.0 140:0.0 141:0.007079646017699115 142:0.01415929203539823 143:0.0 144:0.0 145:0.0017699115044247787 146:0.0 147:0.0 148:0.0 149:0.0 150:0.005309734513274336 151:0.0017699115044247787 152:0.0 153:0.0 154:0.0 155:0.0 156:0.0 157:0.0 158:0.0017699115044247787 159:0.0 160:0.007079646017699115 
1.0 1:0.002857142857142857 2:0.0 3:0.0 4:0.002857142857142857 5:0.0 6:0.0 7:0.0 8:0.022857142857142857 9:0.008571428571428572 10:0.0 11:0.0 12:0.011428571428571429 13:0.0 14:0.0 15:0.0 16:0.002857142857142857 17:0.0 18:0.0 19:0.011428571428571429 20:0.0 21:0.005714285714285714 22:0.0 23:0.0 24:0.0 25:0.0 26:0.0 27:0.0 28:0.0 29:0.002857142857142857 30:0.0 31:0.0 32:0.0 33:0.002857142857142857 34:0.0 35:0.0 36:0.0 37:0.0 38:0.0 39:0.0 40:0.0 41:0.0 42:0.0 43:0.002857142857142857 44:0.0 45:0.005714285714285714 46:0.005714285714285714 47:0.0 48:0.0 49:0.0 50:0.0 51:0.0 52:0.0 53:0.0 54:0.0 55:0.0 56:0.0 57:0.0 58:0.0 59:0.0 60:0.0 61:0.0 62:0.0 63:0.002857142857142857 64:0.002857142857142857 65:0.0 66:0.0 67:0.0 68:0.0 69:0.7885714285714286 70:0.0 71:0.014285714285714285 72:0.0 73:0.0 74:0.0 75:0.0 76:0.005714285714285714 77:0.005714285714285714 78:0.0 79:0.0 80:0.0 81:0.002857142857142857 82:0.0 83:0.0 84:0.0 85:0.0 86:0.014285714285714285 87:0.0 88:0.0 89:0.0 90:0.0 91:0.0 92:0.0 93:0.0 94:0.0 95:0.0 96:0.008571428571428572 97:0.002857142857142857 98:0.0 99:0.0 100:0.0 101:0.0 102:0.0 103:0.002857142857142857 104:0.0 105:0.0 106:0.0 107:0.008571428571428572 108:0.0 109:0.005714285714285714 110:0.005714285714285714 111:0.0 112:0.0 113:0.0 114:0.0 115:0.0 116:0.0 117:0.0 118:0.002857142857142857 119:0.0 120:0.0 121:0.0 122:0.0 123:0.005714285714285714 124:0.014285714285714285 125:0.0 126:0.0 127:0.0 128:0.0 129:0.005714285714285714 130:0.0 131:0.0 132:0.0 133:0.0 134:0.0 135:0.0 136:0.0 137:0.0 138:0.0 139:0.0 140:0.0 141:0.008571428571428572 142:0.0 143:0.0 144:0.0 145:0.0 146:0.0 147:0.0 148:0.0 149:0.0 150:0.0 151:0.0 152:0.0 153:0.0 154:0.0 155:0.002857142857142857 156:0.0 157:0.0 158:0.0 159:0.0 160:0.0 
1.0 1:0.00558659217877095 2:0.0 3:0.0 4:0.00186219739292365 5:0.00186219739292365 6:0.00186219739292365 7:0.00186219739292365 8:0.0 9:0.0 10:0.0 11:0.0 12:0.0223463687150838 13:0.0 14:0.0 15:0.0 16:0.0111731843575419 17:0.0 18:0.0 19:0.0037243947858473 20:0.00931098696461825 21:0.020484171322160148 22:0.03165735567970205 23:0.00931098696461825 24:0.0 25:0.00186219739292365 26:0.0037243947858473 27:0.00558659217877095 28:0.0 29:0.0 30:0.0 31:0.0 32:0.0 33:0.00558659217877095 34:0.0 35:0.0074487895716946 36:0.0 37:0.0 38:0.0 39:0.0 40:0.0 41:0.0 42:0.0 43:0.0111731843575419 44:0.0 45:0.00186219739292365 46:0.0 47:0.0 48:0.0037243947858473 49:0.00186219739292365 50:0.0 51:0.00186219739292365 52:0.00186219739292365 53:0.00186219739292365 54:0.0 55:0.0 56:0.0 57:0.0446927374301676 58:0.0 59:0.0 60:0.0 61:0.0 62:0.00186219739292365 63:0.00558659217877095 64:0.00186219739292365 65:0.0 66:0.0 67:0.0074487895716946 68:0.0 69:0.5344506517690876 70:0.0 71:0.01303538175046555 72:0.0 73:0.0 74:0.0 75:0.0 76:0.0074487895716946 77:0.00558659217877095 78:0.0 79:0.0 80:0.00186219739292365 81:0.0 82:0.0 83:0.00186219739292365 84:0.0 85:0.024208566108007448 86:0.0 87:0.0037243947858473 88:0.0 89:0.0 90:0.0 91:0.0 92:0.0 93:0.0 94:0.00558659217877095 95:0.0 96:0.00186219739292365 97:0.01675977653631285 98:0.01675977653631285 99:0.0 100:0.0 101:0.00186219739292365 102:0.0 103:0.0074487895716946 104:0.0 105:0.0 106:0.0 107:0.00558659217877095 108:0.0 109:0.00186219739292365 110:0.0 111:0.0 112:0.0074487895716946 113:0.0074487895716946 114:0.0 115:0.0 116:0.0 117:0.0 118:0.0037243947858473 119:0.01303538175046555 120:0.0 121:0.0 122:0.0 123:0.0074487895716946 124:0.0 125:0.0 126:0.0 127:0.0 128:0.0 129:0.00186219739292365 130:0.024208566108007448 131:0.00186219739292365 132:0.0074487895716946 133:0.0 134:0.0037243947858473 135:0.0 136:0.0 137:0.0 138:0.0 139:0.0 140:0.0 141:0.0074487895716946 142:0.0148975791433892 143:0.0 144:0.0 145:0.00186219739292365 146:0.0 147:0.0 148:0.0 149:0.0 150:0.00558659217877095 151:0.00186219739292365 152:0.0 153:0.0 154:0.0 155:0.0 156:0.0 157:0.0 158:0.00186219739292365 159:0.0 160:0.0074487895716946 
1.0 1:0.015945330296127564 2:0.0 3:0.0 4:0.002277904328018223 5:0.0 6:0.0 7:0.0 8:0.0 9:0.01366742596810934 10:0.0 11:0.0 12:0.02733485193621868 13:0.0 14:0.0 15:0.0 16:0.011389521640091117 17:0.002277904328018223 18:0.0 19:0.004555808656036446 20:0.0 21:0.01366742596810934 22:0.0 23:0.0 24:0.0 25:0.0 26:0.0 27:0.002277904328018223 28:0.0 29:0.00683371298405467 30:0.0 31:0.0 32:0.0 33:0.002277904328018223 34:0.0 35:0.0 36:0.0 37:0.0 38:0.0 39:0.0 40:0.0 41:0.0 42:0.0 43:0.004555808656036446 44:0.0 45:0.004555808656036446 46:0.0 47:0.0 48:0.0 49:0.0 50:0.0 51:0.0 52:0.0 53:0.0 54:0.0 55:0.0 56:0.0 57:0.00683371298405467 58:0.0 59:0.0 60:0.0 61:0.0 62:0.0 63:0.004555808656036446 64:0.002277904328018223 65:0.0 66:0.0 67:0.002277904328018223 68:0.0 69:0.7107061503416856 70:0.0 71:0.0 72:0.0 73:0.0 74:0.0 75:0.0 76:0.00683371298405467 77:0.009111617312072893 78:0.0 79:0.0 80:0.0 81:0.002277904328018223 82:0.0 83:0.0 84:0.0 85:0.0 86:0.009111617312072893 87:0.0 88:0.0 89:0.0 90:0.0 91:0.0 92:0.0 93:0.0 94:0.0 95:0.0 96:0.00683371298405467 97:0.002277904328018223 98:0.011389521640091117 99:0.0 100:0.0 101:0.0 102:0.0 103:0.002277904328018223 104:0.0 105:0.0 106:0.0 107:0.00683371298405467 108:0.0 109:0.004555808656036446 110:0.004555808656036446 111:0.0 112:0.0 113:0.0 114:0.0 115:0.0 116:0.0 117:0.0 118:0.00683371298405467 119:0.0 120:0.0 121:0.0 122:0.0 123:0.009111617312072893 124:0.011389521640091117 125:0.0 126:0.0 127:0.0 128:0.0 129:0.009111617312072893 130:0.022779043280182234 131:0.0 132:0.0 133:0.0 134:0.004555808656036446 135:0.0 136:0.0 137:0.0 138:0.0 139:0.0 140:0.002277904328018223 141:0.015945330296127564 142:0.002277904328018223 143:0.0 144:0.0 145:0.0 146:0.0 147:0.0 148:0.0 149:0.0 150:0.004555808656036446 151:0.0 152:0.0 153:0.0 154:0.0 155:0.004555808656036446 156:0.0 157:0.0 158:0.0 159:0.0 160:0.002277904328018223 
1.0 1:0.016129032258064516 2:0.0 3:0.0 4:0.002304147465437788 5:0.0 6:0.0 7:0.0 8:0.0 9:0.013824884792626729 10:0.0 11:0.0 12:0.027649769585253458 13:0.0 14:0.0 15:0.0 16:0.01152073732718894 17:0.0 18:0.0 19:0.004608294930875576 20:0.0 21:0.013824884792626729 22:0.0 23:0.0 24:0.0 25:0.0 26:0.0 27:0.002304147465437788 28:0.0 29:0.0069124423963133645 30:0.0 31:0.0 32:0.0 33:0.002304147465437788 34:0.0 35:0.0 36:0.0 37:0.0 38:0.0 39:0.0 40:0.0 41:0.0 42:0.0 43:0.004608294930875576 44:0.0 45:0.004608294930875576 46:0.0 47:0.0 48:0.002304147465437788 49:0.0 50:0.0 51:0.0 52:0.0 53:0.0 54:0.0 55:0.0 56:0.0 57:0.0069124423963133645 58:0.0 59:0.0 60:0.0 61:0.0 62:0.0 63:0.004608294930875576 64:0.002304147465437788 65:0.0 66:0.0 67:0.004608294930875576 68:0.0 69:0.7073732718894009 70:0.0 71:0.0 72:0.0 73:0.0 74:0.0 75:0.0 76:0.0069124423963133645 77:0.009216589861751152 78:0.0 79:0.0 80:0.0 81:0.002304147465437788 82:0.0 83:0.0 84:0.0 85:0.0 86:0.009216589861751152 87:0.0 88:0.0 89:0.0 90:0.0 91:0.0 92:0.0 93:0.0 94:0.0 95:0.0 96:0.0069124423963133645 97:0.002304147465437788 98:0.01152073732718894 99:0.0 100:0.0 101:0.0 102:0.0 103:0.004608294930875576 104:0.0 105:0.0 106:0.0 107:0.0069124423963133645 108:0.0 109:0.004608294930875576 110:0.004608294930875576 111:0.0 112:0.0 113:0.0 114:0.0 115:0.0 116:0.0 117:0.0 118:0.0069124423963133645 119:0.0 120:0.0 121:0.0 122:0.0 123:0.009216589861751152 124:0.01152073732718894 125:0.0 126:0.0 127:0.0 128:0.0 129:0.009216589861751152 130:0.02304147465437788 131:0.0 132:0.0 133:0.0 134:0.004608294930875576 135:0.0 136:0.0 137:0.0 138:0.0 139:0.0 140:0.0 141:0.016129032258064516 142:0.002304147465437788 143:0.0 144:0.0 145:0.0 146:0.0 147:0.0 148:0.0 149:0.0 150:0.002304147465437788 151:0.0 152:0.0 153:0.0 154:0.0 155:0.004608294930875576 156:0.0 157:0.0 158:0.0 159:0.0 160:0.002304147465437788 
1.0 1:0.003703703703703704 2:0.0 3:0.0 4:0.0 5:0.001851851851851852 6:0.0 7:0.0 8:0.025925925925925925 9:0.001851851851851852 10:0.0 11:0.0 12:0.03333333333333333 13:0.0 14:0.0 15:0.0 16:0.014814814814814815 17:0.0 18:0.001851851851851852 19:0.0 20:0.001851851851851852 21:0.011111111111111112 22:0.001851851851851852 23:0.0 24:0.0 25:0.001851851851851852 26:0.007407407407407408 27:0.001851851851851852 28:0.0 29:0.003703703703703704 30:0.0 31:0.001851851851851852 32:0.0 33:0.001851851851851852 34:0.0 35:0.0 36:0.0 37:0.0 38:0.0 39:0.0 40:0.0 41:0.0 42:0.0 43:0.0 44:0.0 45:0.0 46:0.0 47:0.0 48:0.001851851851851852 49:0.0 50:0.0 51:0.003703703703703704 52:0.009259259259259259 53:0.001851851851851852 54:0.0 55:0.0 56:0.0 57:0.014814814814814815 58:0.0 59:0.001851851851851852 60:0.0 61:0.001851851851851852 62:0.0 63:0.012962962962962963 64:0.001851851851851852 65:0.0 66:0.0 67:0.0 68:0.0 69:0.6425925925925926 70:0.0 71:0.011111111111111112 72:0.0 73:0.0 74:0.0 75:0.0 76:0.003703703703703704 77:0.0 78:0.0 79:0.0 80:0.0 81:0.001851851851851852 82:0.0 83:0.0 84:0.0 85:0.001851851851851852 86:0.0 87:0.0 88:0.0 89:0.007407407407407408 90:0.0 91:0.0 92:0.0 93:0.001851851851851852 94:0.001851851851851852 95:0.0 96:0.005555555555555556 97:0.011111111111111112 98:0.005555555555555556 99:0.0 100:0.0 101:0.0 102:0.0 103:0.005555555555555556 104:0.0 105:0.0 106:0.0 107:0.003703703703703704 108:0.0 109:0.0 110:0.0 111:0.0 112:0.014814814814814815 113:0.001851851851851852 114:0.0 115:0.0 116:0.0 117:0.0 118:0.012962962962962963 119:0.0 120:0.0 121:0.0 122:0.0 123:0.012962962962962963 124:0.0 125:0.0 126:0.0 127:0.0 128:0.0 129:0.0 130:0.001851851851851852 131:0.003703703703703704 132:0.003703703703703704 133:0.0 134:0.0 135:0.0 136:0.014814814814814815 137:0.0 138:0.0 139:0.003703703703703704 140:0.0 141:0.007407407407407408 142:0.014814814814814815 143:0.0 144:0.0 145:0.003703703703703704 146:0.0 147:0.0 148:0.0 149:0.0 150:0.0 151:0.009259259259259259 152:0.0 153:0.0 154:0.0 155:0.0 156:0.0 157:0.0 158:0.001851851851851852 159:0.0 160:0.022222222222222223 
1.0 1:0.014767932489451477 2:0.0 3:0.0 4:0.002109704641350211 5:0.002109704641350211 6:0.0 7:0.002109704641350211 8:0.05907172995780591 9:0.0 10:0.002109704641350211 11:0.0 12:0.023206751054852322 13:0.0 14:0.0 15:0.0 16:0.012658227848101266 17:0.0 18:0.0 19:0.004219409282700422 20:0.014767932489451477 21:0.03375527426160337 22:0.03164556962025317 23:0.006329113924050633 24:0.0 25:0.002109704641350211 26:0.0 27:0.002109704641350211 28:0.0 29:0.0 30:0.0 31:0.0 32:0.0 33:0.002109704641350211 34:0.002109704641350211 35:0.008438818565400843 36:0.0 37:0.0 38:0.0 39:0.0 40:0.0 41:0.0 42:0.0 43:0.004219409282700422 44:0.0 45:0.004219409282700422 46:0.0 47:0.0 48:0.004219409282700422 49:0.0 50:0.0 51:0.006329113924050633 52:0.002109704641350211 53:0.002109704641350211 54:0.0 55:0.0 56:0.0 57:0.04219409282700422 58:0.0 59:0.0 60:0.0 61:0.0 62:0.006329113924050633 63:0.004219409282700422 64:0.002109704641350211 65:0.0 66:0.002109704641350211 67:0.004219409282700422 68:0.0 69:0.4472573839662447 70:0.0 71:0.016877637130801686 72:0.002109704641350211 73:0.0 74:0.0 75:0.0 76:0.004219409282700422 77:0.002109704641350211 78:0.0 79:0.0 80:0.002109704641350211 81:0.0 82:0.0 83:0.0 84:0.0 85:0.016877637130801686 86:0.0 87:0.002109704641350211 88:0.0 89:0.0 90:0.0 91:0.0 92:0.0 93:0.0 94:0.002109704641350211 95:0.0 96:0.002109704641350211 97:0.016877637130801686 98:0.0189873417721519 99:0.0 100:0.0 101:0.002109704641350211 102:0.0 103:0.004219409282700422 104:0.0 105:0.0 106:0.0 107:0.006329113924050633 108:0.0 109:0.0 110:0.002109704641350211 111:0.0 112:0.004219409282700422 113:0.006329113924050633 114:0.0 115:0.0 116:0.0 117:0.0 118:0.002109704641350211 119:0.006329113924050633 120:0.0 121:0.0 122:0.0 123:0.016877637130801686 124:0.0 125:0.0 126:0.0 127:0.0 128:0.0 129:0.004219409282700422 130:0.02531645569620253 131:0.0 132:0.004219409282700422 133:0.0 134:0.008438818565400843 135:0.0 136:0.0 137:0.0 138:0.0 139:0.002109704641350211 140:0.0 141:0.023206751054852322 142:0.02109704641350211 143:0.0 144:0.0 145:0.004219409282700422 146:0.0 147:0.0 148:0.0 149:0.0 150:0.002109704641350211 151:0.002109704641350211 152:0.0 153:0.0 154:0.0 155:0.0 156:0.0 157:0.0 158:0.002109704641350211 159:0.002109704641350211 160:0.004219409282700422 
1.0 1:0.007366482504604052 2:0.0 3:0.0 4:0.001841620626151013 5:0.001841620626151013 6:0.001841620626151013 7:0.001841620626151013 8:0.0423572744014733 9:0.0 10:0.0 11:0.0 12:0.03314917127071823 13:0.001841620626151013 14:0.0 15:0.0 16:0.011049723756906077 17:0.0 18:0.0 19:0.003683241252302026 20:0.009208103130755065 21:0.020257826887661142 22:0.03130755064456722 23:0.007366482504604052 24:0.0 25:0.001841620626151013 26:0.0 27:0.003683241252302026 28:0.0 29:0.0 30:0.0 31:0.0 32:0.0 33:0.0055248618784530384 34:0.0 35:0.007366482504604052 36:0.0 37:0.0 38:0.0 39:0.0 40:0.0 41:0.0 42:0.0 43:0.011049723756906077 44:0.0 45:0.001841620626151013 46:0.0 47:0.0 48:0.001841620626151013 49:0.0 50:0.0 51:0.001841620626151013 52:0.003683241252302026 53:0.001841620626151013 54:0.0 55:0.0 56:0.0 57:0.040515653775322284 58:0.0 59:0.0 60:0.0 61:0.0 62:0.001841620626151013 63:0.003683241252302026 64:0.001841620626151013 65:0.0 66:0.0 67:0.007366482504604052 68:0.0 69:0.5267034990791897 70:0.0 71:0.009208103130755065 72:0.0 73:0.0 74:0.0 75:0.0 76:0.0055248618784530384 77:0.0055248618784530384 78:0.0 79:0.0 80:0.001841620626151013 81:0.0 82:0.0 83:0.0 84:0.0 85:0.022099447513812154 86:0.0 87:0.001841620626151013 88:0.0 89:0.0 90:0.0 91:0.0 92:0.0 93:0.0 94:0.0055248618784530384 95:0.0 96:0.001841620626151013 97:0.016574585635359115 98:0.01289134438305709 99:0.0 100:0.0 101:0.0 102:0.0 103:0.003683241252302026 104:0.0 105:0.0 106:0.0 107:0.0055248618784530384 108:0.0 109:0.0 110:0.0 111:0.001841620626151013 112:0.007366482504604052 113:0.009208103130755065 114:0.001841620626151013 115:0.0 116:0.0 117:0.0 118:0.001841620626151013 119:0.01289134438305709 120:0.0 121:0.0 122:0.0 123:0.0055248618784530384 124:0.0 125:0.0 126:0.0 127:0.0 128:0.0 129:0.001841620626151013 130:0.003683241252302026 131:0.001841620626151013 132:0.007366482504604052 133:0.0 134:0.007366482504604052 135:0.0 136:0.0 137:0.0 138:0.0 139:0.0 140:0.0 141:0.011049723756906077 142:0.016574585635359115 143:0.0 144:0.0 145:0.001841620626151013 146:0.0 147:0.0 148:0.0 149:0.0 150:0.0055248618784530384 151:0.001841620626151013 152:0.0 153:0.0 154:0.0 155:0.0 156:0.0 157:0.0 158:0.001841620626151013 159:0.0 160:0.009208103130755065 
1.0 1:0.0 2:0.0 3:0.0 4:0.002857142857142857 5:0.0 6:0.0 7:0.002857142857142857 8:0.008571428571428572 9:0.02 10:0.0 11:0.0 12:0.002857142857142857 13:0.0 14:0.0 15:0.0 16:0.0 17:0.0 18:0.005714285714285714 19:0.002857142857142857 20:0.005714285714285714 21:0.0 22:0.0 23:0.0 24:0.0 25:0.002857142857142857 26:0.0 27:0.0 28:0.0 29:0.002857142857142857 30:0.0 31:0.0 32:0.0 33:0.002857142857142857 34:0.0 35:0.0 36:0.0 37:0.0 38:0.0 39:0.0 40:0.0 41:0.0 42:0.0 43:0.002857142857142857 44:0.0 45:0.008571428571428572 46:0.0 47:0.0 48:0.0 49:0.0 50:0.0 51:0.0 52:0.0 53:0.008571428571428572 54:0.0 55:0.0 56:0.0 57:0.002857142857142857 58:0.0 59:0.0 60:0.0 61:0.0 62:0.0 63:0.0 64:0.005714285714285714 65:0.0 66:0.0 67:0.0 68:0.0 69:0.8142857142857143 70:0.0 71:0.002857142857142857 72:0.0 73:0.0 74:0.0 75:0.0 76:0.0 77:0.002857142857142857 78:0.0 79:0.0 80:0.0 81:0.002857142857142857 82:0.002857142857142857 83:0.0 84:0.0 85:0.0 86:0.011428571428571429 87:0.0 88:0.0 89:0.002857142857142857 90:0.0 91:0.0 92:0.0 93:0.0 94:0.0 95:0.0 96:0.017142857142857144 97:0.0 98:0.0 99:0.0 100:0.0 101:0.0 102:0.0 103:0.0 104:0.0 105:0.0 106:0.0 107:0.011428571428571429 108:0.0 109:0.0 110:0.005714285714285714 111:0.0 112:0.002857142857142857 113:0.002857142857142857 114:0.0 115:0.0 116:0.0 117:0.0 118:0.0 119:0.002857142857142857 120:0.0 121:0.0 122:0.0 123:0.002857142857142857 124:0.014285714285714285 125:0.0 126:0.0 127:0.0 128:0.0 129:0.0 130:0.0 131:0.0 132:0.0 133:0.0 134:0.0 135:0.0 136:0.0 137:0.0 138:0.0 139:0.0 140:0.0 141:0.0 142:0.0 143:0.0 144:0.0 145:0.005714285714285714 146:0.0 147:0.0 148:0.0 149:0.0 150:0.0 151:0.005714285714285714 152:0.0 153:0.0 154:0.0 155:0.0 156:0.0 157:0.0 158:0.0 159:0.0 160:0.0 
1.0 1:0.005235602094240838 2:0.0 3:0.0 4:0.0 5:0.0 6:0.0 7:0.0 8:0.10471204188481675 9:0.005235602094240838 10:0.0 11:0.0 12:0.015706806282722512 13:0.0 14:0.0 15:0.0 16:0.010471204188481676 17:0.0 18:0.0 19:0.005235602094240838 20:0.0 21:0.010471204188481676 22:0.0 23:0.0 24:0.0 25:0.0 26:0.0 27:0.0 28:0.0 29:0.0 30:0.0 31:0.0 32:0.0 33:0.0 34:0.0 35:0.0 36:0.0 37:0.0 38:0.0 39:0.0 40:0.0 41:0.0 42:0.0 43:0.0 44:0.0 45:0.0 46:0.0 47:0.0 48:0.0 49:0.0 50:0.0 51:0.0 52:0.0 53:0.0 54:0.0 55:0.0 56:0.0 57:0.0 58:0.0 59:0.0 60:0.0 61:0.0 62:0.0 63:0.005235602094240838 64:0.0 65:0.0 66:0.0 67:0.005235602094240838 68:0.0 69:0.7905759162303665 70:0.0 71:0.010471204188481676 72:0.0 73:0.0 74:0.0 75:0.0 76:0.0 77:0.0 78:0.0 79:0.0 80:0.0 81:0.0 82:0.0 83:0.0 84:0.0 85:0.0 86:0.0 87:0.0 88:0.0 89:0.0 90:0.0 91:0.0 92:0.0 93:0.0 94:0.0 95:0.0 96:0.0 97:0.005235602094240838 98:0.0 99:0.0 100:0.0 101:0.0 102:0.0 103:0.0 104:0.0 105:0.0 106:0.0 107:0.0 108:0.0 109:0.0 110:0.0 111:0.0 112:0.0 113:0.0 114:0.0 115:0.0 116:0.0 117:0.0 118:0.0 119:0.0 120:0.0 121:0.0 122:0.0 123:0.005235602094240838 124:0.0 125:0.0 126:0.0 127:0.0 128:0.0 129:0.0 130:0.010471204188481676 131:0.0 132:0.0 133:0.0 134:0.0 135:0.0 136:0.0 137:0.0 138:0.0 139:0.0 140:0.0 141:0.005235602094240838 142:0.005235602094240838 143:0.0 144:0.0 145:0.0 146:0.0 147:0.0 148:0.0 149:0.0 150:0.0 151:0.0 152:0.0 153:0.0 154:0.0 155:0.0 156:0.0 157:0.0 158:0.0 159:0.0 160:0.0 
