svm_type one_class
kernel_type rbf
gamma 0.5
nr_class 2
total_sv 173
rho 168.60791091680528
SV
1.0 1:0.0 2:0.0 3:0.0 4:0.0 5:0.0 6:0.0 7:0.0 8:0.0 9:0.0 10:0.0 11:0.0 12:0.0 13:0.0 14:0.0 15:0.0 16:0.0 17:0.0 18:0.0 19:0.0 20:0.0 21:0.0 22:0.0 23:0.0 24:0.0 25:0.0 26:0.0 27:0.0 28:0.0 29:0.0 30:1.0 31:0.0 32:0.0 33:0.0 34:0.0 35:0.0 36:0.0 37:0.0 38:0.0 39:0.0 40:0.0 41:0.0 42:0.0 43:0.0 44:0.0 45:0.0 46:0.0 47:0.0 48:0.0 49:0.0 50:0.0 51:0.0 52:0.0 53:0.0 54:0.0 55:0.0 56:0.0 57:0.0 58:0.0 59:0.0 60:0.0 61:0.0 62:0.0 63:0.0 64:0.0 65:0.0 66:0.0 67:0.0 68:0.0 69:0.0 70:0.0 71:0.0 72:0.0 73:0.0 74:0.0 75:0.0 76:0.0 77:0.0 78:0.0 79:0.0 80:0.0 81:0.0 82:0.0 83:0.0 84:0.0 85:0.0 86:0.0 87:0.0 88:0.0 89:0.0 90:0.0 91:0.0 92:0.0 93:0.0 94:0.0 95:0.0 96:0.0 97:0.0 98:0.0 99:0.0 100:0.0 101:0.0 102:0.0 103:0.0 104:0.0 105:0.0 106:0.0 107:0.0 108:0.0 109:0.0 110:0.0 111:0.0 112:0.0 113:0.0 114:0.0 115:0.0 116:0.0 117:0.0 118:0.0 119:0.0 120:0.0 121:0.0 122:0.0 123:0.0 124:0.0 125:0.0 126:0.0 127:0.0 128:0.0 129:0.0 130:0.0 131:0.0 132:0.0 133:0.0 134:0.0 135:0.0 136:0.0 137:0.0 138:0.0 139:0.0 140:0.0 141:0.0 142:0.0 143:0.0 144:0.0 145:0.0 146:0.0 147:0.0 148:0.0 149:0.0 150:0.0 151:0.0 152:0.0 153:0.0 154:0.0 155:0.0 156:0.0 157:0.0 158:0.0 159:0.0 160:0.0 
1.0 1:0.0 2:0.0 3:0.0 4:0.0 5:0.0 6:0.0 7:0.0 8:0.0 9:0.0 10:0.0 11:0.0 12:0.0 13:0.0 14:0.0 15:0.0 16:0.0 17:0.0 18:0.0 19:0.0 20:0.0 21:0.0 22:0.0 23:0.0 24:0.0 25:0.0 26:0.0 27:0.0 28:0.0 29:0.0 30:1.0 31:0.0 32:0.0 33:0.0 34:0.0 35:0.0 36:0.0 37:0.0 38:0.0 39:0.0 40:0.0 41:0.0 42:0.0 43:0.0 44:0.0 45:0.0 46:0.0 47:0.0 48:0.0 49:0.0 50:0.0 51:0.0 52:0.0 53:0.0 54:0.0 55:0.0 56:0.0 57:0.0 58:0.0 59:0.0 60:0.0 61:0.0 62:0.0 63:0.0 64:0.0 65:0.0 66:0.0 67:0.0 68:0.0 69:0.0 70:0.0 71:0.0 72:0.0 73:0.0 74:0.0 75:0.0 76:0.0 77:0.0 78:0.0 79:0.0 80:0.0 81:0.0 82:0.0 83:0.0 84:0.0 85:0.0 86:0.0 87:0.0 88:0.0 89:0.0 90:0.0 91:0.0 92:0.0 93:0.0 94:0.0 95:0.0 96:0.0 97:0.0 98:0.0 99:0.0 100:0.0 101:0.0 102:0.0 103:0.0 104:0.0 105:0.0 106:0.0 107:0.0 108:0.0 109:0.0 110:0.0 111:0.0 112:0.0 113:0.0 114:0.0 115:0.0 116:0.0 117:0.0 118:0.0 119:0.0 120:0.0 121:0.0 122:0.0 123:0.0 124:0.0 125:0.0 126:0.0 127:0.0 128:0.0 129:0.0 130:0.0 131:0.0 132:0.0 133:0.0 134:0.0 135:0.0 136:0.0 137:0.0 138:0.0 139:0.0 140:0.0 141:0.0 142:0.0 143:0.0 144:0.0 145:0.0 146:0.0 147:0.0 148:0.0 149:0.0 150:0.0 151:0.0 152:0.0 153:0.0 154:0.0 155:0.0 156:0.0 157:0.0 158:0.0 159:0.0 160:0.0 
1.0 1:0.0 2:0.0 3:0.0 4:0.0 5:0.0 6:0.0 7:0.0 8:0.0 9:0.0 10:0.0 11:0.0 12:0.0 13:0.0 14:0.0 15:0.0 16:0.0 17:0.0 18:0.0 19:0.0 20:0.0 21:0.0 22:0.0 23:0.0 24:0.0 25:0.0 26:0.0 27:0.0 28:0.0 29:0.0 30:1.0 31:0.0 32:0.0 33:0.0 34:0.0 35:0.0 36:0.0 37:0.0 38:0.0 39:0.0 40:0.0 41:0.0 42:0.0 43:0.0 44:0.0 45:0.0 46:0.0 47:0.0 48:0.0 49:0.0 50:0.0 51:0.0 52:0.0 53:0.0 54:0.0 55:0.0 56:0.0 57:0.0 58:0.0 59:0.0 60:0.0 61:0.0 62:0.0 63:0.0 64:0.0 65:0.0 66:0.0 67:0.0 68:0.0 69:0.0 70:0.0 71:0.0 72:0.0 73:0.0 74:0.0 75:0.0 76:0.0 77:0.0 78:0.0 79:0.0 80:0.0 81:0.0 82:0.0 83:0.0 84:0.0 85:0.0 86:0.0 87:0.0 88:0.0 89:0.0 90:0.0 91:0.0 92:0.0 93:0.0 94:0.0 95:0.0 96:0.0 97:0.0 98:0.0 99:0.0 100:0.0 101:0.0 102:0.0 103:0.0 104:0.0 105:0.0 106:0.0 107:0.0 108:0.0 109:0.0 110:0.0 111:0.0 112:0.0 113:0.0 114:0.0 115:0.0 116:0.0 117:0.0 118:0.0 119:0.0 120:0.0 121:0.0 122:0.0 123:0.0 124:0.0 125:0.0 126:0.0 127:0.0 128:0.0 129:0.0 130:0.0 131:0.0 132:0.0 133:0.0 134:0.0 135:0.0 136:0.0 137:0.0 138:0.0 139:0.0 140:0.0 141:0.0 142:0.0 143:0.0 144:0.0 145:0.0 146:0.0 147:0.0 148:0.0 149:0.0 150:0.0 151:0.0 152:0.0 153:0.0 154:0.0 155:0.0 156:0.0 157:0.0 158:0.0 159:0.0 160:0.0 
1.0 1:0.0 2:0.0 3:0.0 4:0.0 5:0.0 6:0.0 7:0.0 8:0.0 9:0.0 10:0.0 11:0.0 12:0.0 13:0.0 14:0.0 15:0.0 16:0.0 17:0.0 18:0.0 19:0.0 20:0.0 21:0.0 22:0.0 23:0.0 24:0.0 25:0.0 26:0.0 27:0.0 28:0.0 29:0.0 30:1.0 31:0.0 32:0.0 33:0.0 34:0.0 35:0.0 36:0.0 37:0.0 38:0.0 39:0.0 40:0.0 41:0.0 42:0.0 43:0.0 44:0.0 45:0.0 46:0.0 47:0.0 48:0.0 49:0.0 50:0.0 51:0.0 52:0.0 53:0.0 54:0.0 55:0.0 56:0.0 57:0.0 58:0.0 59:0.0 60:0.0 61:0.0 62:0.0 63:0.0 64:0.0 65:0.0 66:0.0 67:0.0 68:0.0 69:0.0 70:0.0 71:0.0 72:0.0 73:0.0 74:0.0 75:0.0 76:0.0 77:0.0 78:0.0 79:0.0 80:0.0 81:0.0 82:0.0 83:0.0 84:0.0 85:0.0 86:0.0 87:0.0 88:0.0 89:0.0 90:0.0 91:0.0 92:0.0 93:0.0 94:0.0 95:0.0 96:0.0 97:0.0 98:0.0 99:0.0 100:0.0 101:0.0 102:0.0 103:0.0 104:0.0 105:0.0 106:0.0 107:0.0 108:0.0 109:0.0 110:0.0 111:0.0 112:0.0 113:0.0 114:0.0 115:0.0 116:0.0 117:0.0 118:0.0 119:0.0 120:0.0 121:0.0 122:0.0 123:0.0 124:0.0 125:0.0 126:0.0 127:0.0 128:0.0 129:0.0 130:0.0 131:0.0 132:0.0 133:0.0 134:0.0 135:0.0 136:0.0 137:0.0 138:0.0 139:0.0 140:0.0 141:0.0 142:0.0 143:0.0 144:0.0 145:0.0 146:0.0 147:0.0 148:0.0 149:0.0 150:0.0 151:0.0 152:0.0 153:0.0 154:0.0 155:0.0 156:0.0 157:0.0 158:0.0 159:0.0 160:0.0 
1.0 1:0.0 2:0.0 3:0.0 4:0.0 5:0.0 6:0.0 7:0.0 8:0.0 9:0.0 10:0.0 11:0.0 12:0.0 13:0.0 14:0.0 15:0.0 16:0.0 17:0.0 18:0.0 19:0.0 20:0.0 21:0.0 22:0.0 23:0.0 24:0.0 25:0.0 26:0.0 27:0.0 28:0.0 29:0.0 30:1.0 31:0.0 32:0.0 33:0.0 34:0.0 35:0.0 36:0.0 37:0.0 38:0.0 39:0.0 40:0.0 41:0.0 42:0.0 43:0.0 44:0.0 45:0.0 46:0.0 47:0.0 48:0.0 49:0.0 50:0.0 51:0.0 52:0.0 53:0.0 54:0.0 55:0.0 56:0.0 57:0.0 58:0.0 59:0.0 60:0.0 61:0.0 62:0.0 63:0.0 64:0.0 65:0.0 66:0.0 67:0.0 68:0.0 69:0.0 70:0.0 71:0.0 72:0.0 73:0.0 74:0.0 75:0.0 76:0.0 77:0.0 78:0.0 79:0.0 80:0.0 81:0.0 82:0.0 83:0.0 84:0.0 85:0.0 86:0.0 87:0.0 88:0.0 89:0.0 90:0.0 91:0.0 92:0.0 93:0.0 94:0.0 95:0.0 96:0.0 97:0.0 98:0.0 99:0.0 100:0.0 101:0.0 102:0.0 103:0.0 104:0.0 105:0.0 106:0.0 107:0.0 108:0.0 109:0.0 110:0.0 111:0.0 112:0.0 113:0.0 114:0.0 115:0.0 116:0.0 117:0.0 118:0.0 119:0.0 120:0.0 121:0.0 122:0.0 123:0.0 124:0.0 125:0.0 126:0.0 127:0.0 128:0.0 129:0.0 130:0.0 131:0.0 132:0.0 133:0.0 134:0.0 135:0.0 136:0.0 137:0.0 138:0.0 139:0.0 140:0.0 141:0.0 142:0.0 143:0.0 144:0.0 145:0.0 146:0.0 147:0.0 148:0.0 149:0.0 150:0.0 151:0.0 152:0.0 153:0.0 154:0.0 155:0.0 156:0.0 157:0.0 158:0.0 159:0.0 160:0.0 
1.0 1:0.0 2:0.0 3:0.0 4:0.0 5:0.0 6:0.0 7:0.0 8:0.0 9:0.0 10:0.0 11:0.0 12:0.0 13:0.0 14:0.0 15:0.0 16:0.0 17:0.0 18:0.0 19:0.0 20:0.0 21:0.0 22:0.0 23:0.0 24:0.0 25:0.0 26:0.0 27:0.0 28:0.0 29:0.0 30:1.0 31:0.0 32:0.0 33:0.0 34:0.0 35:0.0 36:0.0 37:0.0 38:0.0 39:0.0 40:0.0 41:0.0 42:0.0 43:0.0 44:0.0 45:0.0 46:0.0 47:0.0 48:0.0 49:0.0 50:0.0 51:0.0 52:0.0 53:0.0 54:0.0 55:0.0 56:0.0 57:0.0 58:0.0 59:0.0 60:0.0 61:0.0 62:0.0 63:0.0 64:0.0 65:0.0 66:0.0 67:0.0 68:0.0 69:0.0 70:0.0 71:0.0 72:0.0 73:0.0 74:0.0 75:0.0 76:0.0 77:0.0 78:0.0 79:0.0 80:0.0 81:0.0 82:0.0 83:0.0 84:0.0 85:0.0 86:0.0 87:0.0 88:0.0 89:0.0 90:0.0 91:0.0 92:0.0 93:0.0 94:0.0 95:0.0 96:0.0 97:0.0 98:0.0 99:0.0 100:0.0 101:0.0 102:0.0 103:0.0 104:0.0 105:0.0 106:0.0 107:0.0 108:0.0 109:0.0 110:0.0 111:0.0 112:0.0 113:0.0 114:0.0 115:0.0 116:0.0 117:0.0 118:0.0 119:0.0 120:0.0 121:0.0 122:0.0 123:0.0 124:0.0 125:0.0 126:0.0 127:0.0 128:0.0 129:0.0 130:0.0 131:0.0 132:0.0 133:0.0 134:0.0 135:0.0 136:0.0 137:0.0 138:0.0 139:0.0 140:0.0 141:0.0 142:0.0 143:0.0 144:0.0 145:0.0 146:0.0 147:0.0 148:0.0 149:0.0 150:0.0 151:0.0 152:0.0 153:0.0 154:0.0 155:0.0 156:0.0 157:0.0 158:0.0 159:0.0 160:0.0 
1.0 1:0.0 2:0.0 3:0.0 4:0.0 5:0.0 6:0.0 7:0.0 8:0.0 9:0.0 10:0.0 11:0.0 12:0.0 13:0.0 14:0.0 15:0.0 16:0.0 17:0.0 18:0.0 19:0.0 20:0.0 21:0.0 22:0.0 23:0.0 24:0.0 25:0.0 26:0.0 27:0.0 28:0.0 29:0.0 30:1.0 31:0.0 32:0.0 33:0.0 34:0.0 35:0.0 36:0.0 37:0.0 38:0.0 39:0.0 40:0.0 41:0.0 42:0.0 43:0.0 44:0.0 45:0.0 46:0.0 47:0.0 48:0.0 49:0.0 50:0.0 51:0.0 52:0.0 53:0.0 54:0.0 55:0.0 56:0.0 57:0.0 58:0.0 59:0.0 60:0.0 61:0.0 62:0.0 63:0.0 64:0.0 65:0.0 66:0.0 67:0.0 68:0.0 69:0.0 70:0.0 71:0.0 72:0.0 73:0.0 74:0.0 75:0.0 76:0.0 77:0.0 78:0.0 79:0.0 80:0.0 81:0.0 82:0.0 83:0.0 84:0.0 85:0.0 86:0.0 87:0.0 88:0.0 89:0.0 90:0.0 91:0.0 92:0.0 93:0.0 94:0.0 95:0.0 96:0.0 97:0.0 98:0.0 99:0.0 100:0.0 101:0.0 102:0.0 103:0.0 104:0.0 105:0.0 106:0.0 107:0.0 108:0.0 109:0.0 110:0.0 111:0.0 112:0.0 113:0.0 114:0.0 115:0.0 116:0.0 117:0.0 118:0.0 119:0.0 120:0.0 121:0.0 122:0.0 123:0.0 124:0.0 125:0.0 126:0.0 127:0.0 128:0.0 129:0.0 130:0.0 131:0.0 132:0.0 133:0.0 134:0.0 135:0.0 136:0.0 137:0.0 138:0.0 139:0.0 140:0.0 141:0.0 142:0.0 143:0.0 144:0.0 145:0.0 146:0.0 147:0.0 148:0.0 149:0.0 150:0.0 151:0.0 152:0.0 153:0.0 154:0.0 155:0.0 156:0.0 157:0.0 158:0.0 159:0.0 160:0.0 
1.0 1:0.0 2:0.0 3:0.0 4:0.0 5:0.0 6:0.0 7:0.0 8:0.0 9:0.0 10:0.0 11:0.0 12:0.0 13:0.0 14:0.0 15:0.0 16:0.0 17:0.0 18:0.0 19:0.0 20:0.0 21:0.0 22:0.0 23:0.0 24:0.0 25:0.0 26:0.0 27:0.0 28:0.0 29:0.0 30:1.0 31:0.0 32:0.0 33:0.0 34:0.0 35:0.0 36:0.0 37:0.0 38:0.0 39:0.0 40:0.0 41:0.0 42:0.0 43:0.0 44:0.0 45:0.0 46:0.0 47:0.0 48:0.0 49:0.0 50:0.0 51:0.0 52:0.0 53:0.0 54:0.0 55:0.0 56:0.0 57:0.0 58:0.0 59:0.0 60:0.0 61:0.0 62:0.0 63:0.0 64:0.0 65:0.0 66:0.0 67:0.0 68:0.0 69:0.0 70:0.0 71:0.0 72:0.0 73:0.0 74:0.0 75:0.0 76:0.0 77:0.0 78:0.0 79:0.0 80:0.0 81:0.0 82:0.0 83:0.0 84:0.0 85:0.0 86:0.0 87:0.0 88:0.0 89:0.0 90:0.0 91:0.0 92:0.0 93:0.0 94:0.0 95:0.0 96:0.0 97:0.0 98:0.0 99:0.0 100:0.0 101:0.0 102:0.0 103:0.0 104:0.0 105:0.0 106:0.0 107:0.0 108:0.0 109:0.0 110:0.0 111:0.0 112:0.0 113:0.0 114:0.0 115:0.0 116:0.0 117:0.0 118:0.0 119:0.0 120:0.0 121:0.0 122:0.0 123:0.0 124:0.0 125:0.0 126:0.0 127:0.0 128:0.0 129:0.0 130:0.0 131:0.0 132:0.0 133:0.0 134:0.0 135:0.0 136:0.0 137:0.0 138:0.0 139:0.0 140:0.0 141:0.0 142:0.0 143:0.0 144:0.0 145:0.0 146:0.0 147:0.0 148:0.0 149:0.0 150:0.0 151:0.0 152:0.0 153:0.0 154:0.0 155:0.0 156:0.0 157:0.0 158:0.0 159:0.0 160:0.0 
1.0 1:0.0 2:0.0 3:0.0 4:0.0 5:0.0 6:0.0 7:0.0 8:0.0 9:0.0 10:0.0 11:0.0 12:0.0 13:0.0 14:0.0 15:0.0 16:0.0 17:0.0 18:0.0 19:0.0 20:0.0 21:0.0 22:0.0 23:0.0 24:0.0 25:0.0 26:0.0 27:0.0 28:0.0 29:0.0 30:1.0 31:0.0 32:0.0 33:0.0 34:0.0 35:0.0 36:0.0 37:0.0 38:0.0 39:0.0 40:0.0 41:0.0 42:0.0 43:0.0 44:0.0 45:0.0 46:0.0 47:0.0 48:0.0 49:0.0 50:0.0 51:0.0 52:0.0 53:0.0 54:0.0 55:0.0 56:0.0 57:0.0 58:0.0 59:0.0 60:0.0 61:0.0 62:0.0 63:0.0 64:0.0 65:0.0 66:0.0 67:0.0 68:0.0 69:0.0 70:0.0 71:0.0 72:0.0 73:0.0 74:0.0 75:0.0 76:0.0 77:0.0 78:0.0 79:0.0 80:0.0 81:0.0 82:0.0 83:0.0 84:0.0 85:0.0 86:0.0 87:0.0 88:0.0 89:0.0 90:0.0 91:0.0 92:0.0 93:0.0 94:0.0 95:0.0 96:0.0 97:0.0 98:0.0 99:0.0 100:0.0 101:0.0 102:0.0 103:0.0 104:0.0 105:0.0 106:0.0 107:0.0 108:0.0 109:0.0 110:0.0 111:0.0 112:0.0 113:0.0 114:0.0 115:0.0 116:0.0 117:0.0 118:0.0 119:0.0 120:0.0 121:0.0 122:0.0 123:0.0 124:0.0 125:0.0 126:0.0 127:0.0 128:0.0 129:0.0 130:0.0 131:0.0 132:0.0 133:0.0 134:0.0 135:0.0 136:0.0 137:0.0 138:0.0 139:0.0 140:0.0 141:0.0 142:0.0 143:0.0 144:0.0 145:0.0 146:0.0 147:0.0 148:0.0 149:0.0 150:0.0 151:0.0 152:0.0 153:0.0 154:0.0 155:0.0 156:0.0 157:0.0 158:0.0 159:0.0 160:0.0 
1.0 1:0.0 2:0.0 3:0.0 4:0.0 5:0.0 6:0.0 7:0.0 8:0.0 9:0.0 10:0.0 11:0.0 12:0.0 13:0.0 14:0.0 15:0.0 16:0.0 17:0.0 18:0.0 19:0.0 20:0.0 21:0.0 22:0.0 23:0.0 24:0.0 25:0.0 26:0.0 27:0.0 28:0.0 29:0.0 30:1.0 31:0.0 32:0.0 33:0.0 34:0.0 35:0.0 36:0.0 37:0.0 38:0.0 39:0.0 40:0.0 41:0.0 42:0.0 43:0.0 44:0.0 45:0.0 46:0.0 47:0.0 48:0.0 49:0.0 50:0.0 51:0.0 52:0.0 53:0.0 54:0.0 55:0.0 56:0.0 57:0.0 58:0.0 59:0.0 60:0.0 61:0.0 62:0.0 63:0.0 64:0.0 65:0.0 66:0.0 67:0.0 68:0.0 69:0.0 70:0.0 71:0.0 72:0.0 73:0.0 74:0.0 75:0.0 76:0.0 77:0.0 78:0.0 79:0.0 80:0.0 81:0.0 82:0.0 83:0.0 84:0.0 85:0.0 86:0.0 87:0.0 88:0.0 89:0.0 90:0.0 91:0.0 92:0.0 93:0.0 94:0.0 95:0.0 96:0.0 97:0.0 98:0.0 99:0.0 100:0.0 101:0.0 102:0.0 103:0.0 104:0.0 105:0.0 106:0.0 107:0.0 108:0.0 109:0.0 110:0.0 111:0.0 112:0.0 113:0.0 114:0.0 115:0.0 116:0.0 117:0.0 118:0.0 119:0.0 120:0.0 121:0.0 122:0.0 123:0.0 124:0.0 125:0.0 126:0.0 127:0.0 128:0.0 129:0.0 130:0.0 131:0.0 132:0.0 133:0.0 134:0.0 135:0.0 136:0.0 137:0.0 138:0.0 139:0.0 140:0.0 141:0.0 142:0.0 143:0.0 144:0.0 145:0.0 146:0.0 147:0.0 148:0.0 149:0.0 150:0.0 151:0.0 152:0.0 153:0.0 154:0.0 155:0.0 156:0.0 157:0.0 158:0.0 159:0.0 160:0.0 
1.0 1:0.0 2:0.0 3:0.0 4:0.0 5:0.0 6:0.0 7:0.0 8:0.0 9:0.0 10:0.0 11:0.0 12:0.0 13:0.0 14:0.0 15:0.0 16:0.0 17:0.0 18:0.0 19:0.0 20:0.0 21:0.0 22:0.0 23:0.0 24:0.0 25:0.0 26:0.0 27:0.0 28:0.0 29:0.0 30:1.0 31:0.0 32:0.0 33:0.0 34:0.0 35:0.0 36:0.0 37:0.0 38:0.0 39:0.0 40:0.0 41:0.0 42:0.0 43:0.0 44:0.0 45:0.0 46:0.0 47:0.0 48:0.0 49:0.0 50:0.0 51:0.0 52:0.0 53:0.0 54:0.0 55:0.0 56:0.0 57:0.0 58:0.0 59:0.0 60:0.0 61:0.0 62:0.0 63:0.0 64:0.0 65:0.0 66:0.0 67:0.0 68:0.0 69:0.0 70:0.0 71:0.0 72:0.0 73:0.0 74:0.0 75:0.0 76:0.0 77:0.0 78:0.0 79:0.0 80:0.0 81:0.0 82:0.0 83:0.0 84:0.0 85:0.0 86:0.0 87:0.0 88:0.0 89:0.0 90:0.0 91:0.0 92:0.0 93:0.0 94:0.0 95:0.0 96:0.0 97:0.0 98:0.0 99:0.0 100:0.0 101:0.0 102:0.0 103:0.0 104:0.0 105:0.0 106:0.0 107:0.0 108:0.0 109:0.0 110:0.0 111:0.0 112:0.0 113:0.0 114:0.0 115:0.0 116:0.0 117:0.0 118:0.0 119:0.0 120:0.0 121:0.0 122:0.0 123:0.0 124:0.0 125:0.0 126:0.0 127:0.0 128:0.0 129:0.0 130:0.0 131:0.0 132:0.0 133:0.0 134:0.0 135:0.0 136:0.0 137:0.0 138:0.0 139:0.0 140:0.0 141:0.0 142:0.0 143:0.0 144:0.0 145:0.0 146:0.0 147:0.0 148:0.0 149:0.0 150:0.0 151:0.0 152:0.0 153:0.0 154:0.0 155:0.0 156:0.0 157:0.0 158:0.0 159:0.0 160:0.0 
1.0 1:0.0 2:0.0 3:0.0 4:0.0 5:0.0 6:0.0 7:0.0 8:0.0 9:0.0 10:0.0 11:0.0 12:0.0 13:0.0 14:0.0 15:0.0 16:0.0 17:0.0 18:0.0 19:0.0 20:0.0 21:0.0 22:0.0 23:0.0 24:0.0 25:0.0 26:0.0 27:0.0 28:0.0 29:0.0 30:1.0 31:0.0 32:0.0 33:0.0 34:0.0 35:0.0 36:0.0 37:0.0 38:0.0 39:0.0 40:0.0 41:0.0 42:0.0 43:0.0 44:0.0 45:0.0 46:0.0 47:0.0 48:0.0 49:0.0 50:0.0 51:0.0 52:0.0 53:0.0 54:0.0 55:0.0 56:0.0 57:0.0 58:0.0 59:0.0 60:0.0 61:0.0 62:0.0 63:0.0 64:0.0 65:0.0 66:0.0 67:0.0 68:0.0 69:0.0 70:0.0 71:0.0 72:0.0 73:0.0 74:0.0 75:0.0 76:0.0 77:0.0 78:0.0 79:0.0 80:0.0 81:0.0 82:0.0 83:0.0 84:0.0 85:0.0 86:0.0 87:0.0 88:0.0 89:0.0 90:0.0 91:0.0 92:0.0 93:0.0 94:0.0 95:0.0 96:0.0 97:0.0 98:0.0 99:0.0 100:0.0 101:0.0 102:0.0 103:0.0 104:0.0 105:0.0 106:0.0 107:0.0 108:0.0 109:0.0 110:0.0 111:0.0 112:0.0 113:0.0 114:0.0 115:0.0 116:0.0 117:0.0 118:0.0 119:0.0 120:0.0 121:0.0 122:0.0 123:0.0 124:0.0 125:0.0 126:0.0 127:0.0 128:0.0 129:0.0 130:0.0 131:0.0 132:0.0 133:0.0 134:0.0 135:0.0 136:0.0 137:0.0 138:0.0 139:0.0 140:0.0 141:0.0 142:0.0 143:0.0 144:0.0 145:0.0 146:0.0 147:0.0 148:0.0 149:0.0 150:0.0 151:0.0 152:0.0 153:0.0 154:0.0 155:0.0 156:0.0 157:0.0 158:0.0 159:0.0 160:0.0 
1.0 1:0.0 2:0.0 3:0.0 4:0.0 5:0.0 6:0.0 7:0.0 8:0.0 9:0.0 10:0.0 11:0.0 12:0.0 13:0.0 14:0.0 15:0.0 16:0.0 17:0.0 18:0.0 19:0.0 20:0.0 21:0.0 22:0.0 23:0.0 24:0.0 25:0.0 26:0.0 27:0.0 28:0.0 29:0.0 30:1.0 31:0.0 32:0.0 33:0.0 34:0.0 35:0.0 36:0.0 37:0.0 38:0.0 39:0.0 40:0.0 41:0.0 42:0.0 43:0.0 44:0.0 45:0.0 46:0.0 47:0.0 48:0.0 49:0.0 50:0.0 51:0.0 52:0.0 53:0.0 54:0.0 55:0.0 56:0.0 57:0.0 58:0.0 59:0.0 60:0.0 61:0.0 62:0.0 63:0.0 64:0.0 65:0.0 66:0.0 67:0.0 68:0.0 69:0.0 70:0.0 71:0.0 72:0.0 73:0.0 74:0.0 75:0.0 76:0.0 77:0.0 78:0.0 79:0.0 80:0.0 81:0.0 82:0.0 83:0.0 84:0.0 85:0.0 86:0.0 87:0.0 88:0.0 89:0.0 90:0.0 91:0.0 92:0.0 93:0.0 94:0.0 95:0.0 96:0.0 97:0.0 98:0.0 99:0.0 100:0.0 101:0.0 102:0.0 103:0.0 104:0.0 105:0.0 106:0.0 107:0.0 108:0.0 109:0.0 110:0.0 111:0.0 112:0.0 113:0.0 114:0.0 115:0.0 116:0.0 117:0.0 118:0.0 119:0.0 120:0.0 121:0.0 122:0.0 123:0.0 124:0.0 125:0.0 126:0.0 127:0.0 128:0.0 129:0.0 130:0.0 131:0.0 132:0.0 133:0.0 134:0.0 135:0.0 136:0.0 137:0.0 138:0.0 139:0.0 140:0.0 141:0.0 142:0.0 143:0.0 144:0.0 145:0.0 146:0.0 147:0.0 148:0.0 149:0.0 150:0.0 151:0.0 152:0.0 153:0.0 154:0.0 155:0.0 156:0.0 157:0.0 158:0.0 159:0.0 160:0.0 
1.0 1:0.0 2:0.0 3:0.0 4:0.0 5:0.0 6:0.0 7:0.0 8:0.0 9:0.0 10:0.0 11:0.0 12:0.0 13:0.0 14:0.0 15:0.0 16:0.0 17:0.0 18:0.0 19:0.0 20:0.0 21:0.0 22:0.0 23:0.0 24:0.0 25:0.0 26:0.0 27:0.0 28:0.0 29:0.0 30:1.0 31:0.0 32:0.0 33:0.0 34:0.0 35:0.0 36:0.0 37:0.0 38:0.0 39:0.0 40:0.0 41:0.0 42:0.0 43:0.0 44:0.0 45:0.0 46:0.0 47:0.0 48:0.0 49:0.0 50:0.0 51:0.0 52:0.0 53:0.0 54:0.0 55:0.0 56:0.0 57:0.0 58:0.0 59:0.0 60:0.0 61:0.0 62:0.0 63:0.0 64:0.0 65:0.0 66:0.0 67:0.0 68:0.0 69:0.0 70:0.0 71:0.0 72:0.0 73:0.0 74:0.0 75:0.0 76:0.0 77:0.0 78:0.0 79:0.0 80:0.0 81:0.0 82:0.0 83:0.0 84:0.0 85:0.0 86:0.0 87:0.0 88:0.0 89:0.0 90:0.0 91:0.0 92:0.0 93:0.0 94:0.0 95:0.0 96:0.0 97:0.0 98:0.0 99:0.0 100:0.0 101:0.0 102:0.0 103:0.0 104:0.0 105:0.0 106:0.0 107:0.0 108:0.0 109:0.0 110:0.0 111:0.0 112:0.0 113:0.0 114:0.0 115:0.0 116:0.0 117:0.0 118:0.0 119:0.0 120:0.0 121:0.0 122:0.0 123:0.0 124:0.0 125:0.0 126:0.0 127:0.0 128:0.0 129:0.0 130:0.0 131:0.0 132:0.0 133:0.0 134:0.0 135:0.0 136:0.0 137:0.0 138:0.0 139:0.0 140:0.0 141:0.0 142:0.0 143:0.0 144:0.0 145:0.0 146:0.0 147:0.0 148:0.0 149:0.0 150:0.0 151:0.0 152:0.0 153:0.0 154:0.0 155:0.0 156:0.0 157:0.0 158:0.0 159:0.0 160:0.0 
1.0 1:0.0 2:0.0 3:0.0 4:0.0 5:0.0 6:0.0 7:0.0 8:0.0 9:0.0 10:0.0 11:0.0 12:0.0 13:0.0 14:0.0 15:0.0 16:0.0 17:0.0 18:0.0 19:0.0 20:0.0 21:0.0 22:0.0 23:0.0 24:0.0 25:0.0 26:0.0 27:0.0 28:0.0 29:0.0 30:1.0 31:0.0 32:0.0 33:0.0 34:0.0 35:0.0 36:0.0 37:0.0 38:0.0 39:0.0 40:0.0 41:0.0 42:0.0 43:0.0 44:0.0 45:0.0 46:0.0 47:0.0 48:0.0 49:0.0 50:0.0 51:0.0 52:0.0 53:0.0 54:0.0 55:0.0 56:0.0 57:0.0 58:0.0 59:0.0 60:0.0 61:0.0 62:0.0 63:0.0 64:0.0 65:0.0 66:0.0 67:0.0 68:0.0 69:0.0 70:0.0 71:0.0 72:0.0 73:0.0 74:0.0 75:0.0 76:0.0 77:0.0 78:0.0 79:0.0 80:0.0 81:0.0 82:0.0 83:0.0 84:0.0 85:0.0 86:0.0 87:0.0 88:0.0 89:0.0 90:0.0 91:0.0 92:0.0 93:0.0 94:0.0 95:0.0 96:0.0 97:0.0 98:0.0 99:0.0 100:0.0 101:0.0 102:0.0 103:0.0 104:0.0 105:0.0 106:0.0 107:0.0 108:0.0 109:0.0 110:0.0 111:0.0 112:0.0 113:0.0 114:0.0 115:0.0 116:0.0 117:0.0 118:0.0 119:0.0 120:0.0 121:0.0 122:0.0 123:0.0 124:0.0 125:0.0 126:0.0 127:0.0 128:0.0 129:0.0 130:0.0 131:0.0 132:0.0 133:0.0 134:0.0 135:0.0 136:0.0 137:0.0 138:0.0 139:0.0 140:0.0 141:0.0 142:0.0 143:0.0 144:0.0 145:0.0 146:0.0 147:0.0 148:0.0 149:0.0 150:0.0 151:0.0 152:0.0 153:0.0 154:0.0 155:0.0 156:0.0 157:0.0 158:0.0 159:0.0 160:0.0 
1.0 1:0.0 2:0.0 3:0.0 4:0.0 5:0.0 6:0.0 7:0.0 8:0.0 9:0.0 10:0.0 11:0.0 12:0.0 13:0.0 14:0.0 15:0.0 16:0.0 17:0.0 18:0.0 19:0.0 20:0.0 21:0.0 22:0.0 23:0.0 24:0.0 25:0.0 26:0.0 27:0.0 28:0.0 29:0.0 30:1.0 31:0.0 32:0.0 33:0.0 34:0.0 35:0.0 36:0.0 37:0.0 38:0.0 39:0.0 40:0.0 41:0.0 42:0.0 43:0.0 44:0.0 45:0.0 46:0.0 47:0.0 48:0.0 49:0.0 50:0.0 51:0.0 52:0.0 53:0.0 54:0.0 55:0.0 56:0.0 57:0.0 58:0.0 59:0.0 60:0.0 61:0.0 62:0.0 63:0.0 64:0.0 65:0.0 66:0.0 67:0.0 68:0.0 69:0.0 70:0.0 71:0.0 72:0.0 73:0.0 74:0.0 75:0.0 76:0.0 77:0.0 78:0.0 79:0.0 80:0.0 81:0.0 82:0.0 83:0.0 84:0.0 85:0.0 86:0.0 87:0.0 88:0.0 89:0.0 90:0.0 91:0.0 92:0.0 93:0.0 94:0.0 95:0.0 96:0.0 97:0.0 98:0.0 99:0.0 100:0.0 101:0.0 102:0.0 103:0.0 104:0.0 105:0.0 106:0.0 107:0.0 108:0.0 109:0.0 110:0.0 111:0.0 112:0.0 113:0.0 114:0.0 115:0.0 116:0.0 117:0.0 118:0.0 119:0.0 120:0.0 121:0.0 122:0.0 123:0.0 124:0.0 125:0.0 126:0.0 127:0.0 128:0.0 129:0.0 130:0.0 131:0.0 132:0.0 133:0.0 134:0.0 135:0.0 136:0.0 137:0.0 138:0.0 139:0.0 140:0.0 141:0.0 142:0.0 143:0.0 144:0.0 145:0.0 146:0.0 147:0.0 148:0.0 149:0.0 150:0.0 151:0.0 152:0.0 153:0.0 154:0.0 155:0.0 156:0.0 157:0.0 158:0.0 159:0.0 160:0.0 
1.0 1:0.0 2:0.0 3:0.0 4:0.0 5:0.0 6:0.0 7:0.0 8:0.0 9:0.0 10:0.0 11:0.0 12:0.0 13:0.0 14:0.0 15:0.0 16:0.0 17:0.0 18:0.0 19:0.0 20:0.0 21:0.0 22:0.0 23:0.0 24:0.0 25:0.0 26:0.0 27:0.0 28:0.0 29:0.0 30:1.0 31:0.0 32:0.0 33:0.0 34:0.0 35:0.0 36:0.0 37:0.0 38:0.0 39:0.0 40:0.0 41:0.0 42:0.0 43:0.0 44:0.0 45:0.0 46:0.0 47:0.0 48:0.0 49:0.0 50:0.0 51:0.0 52:0.0 53:0.0 54:0.0 55:0.0 56:0.0 57:0.0 58:0.0 59:0.0 60:0.0 61:0.0 62:0.0 63:0.0 64:0.0 65:0.0 66:0.0 67:0.0 68:0.0 69:0.0 70:0.0 71:0.0 72:0.0 73:0.0 74:0.0 75:0.0 76:0.0 77:0.0 78:0.0 79:0.0 80:0.0 81:0.0 82:0.0 83:0.0 84:0.0 85:0.0 86:0.0 87:0.0 88:0.0 89:0.0 90:0.0 91:0.0 92:0.0 93:0.0 94:0.0 95:0.0 96:0.0 97:0.0 98:0.0 99:0.0 100:0.0 101:0.0 102:0.0 103:0.0 104:0.0 105:0.0 106:0.0 107:0.0 108:0.0 109:0.0 110:0.0 111:0.0 112:0.0 113:0.0 114:0.0 115:0.0 116:0.0 117:0.0 118:0.0 119:0.0 120:0.0 121:0.0 122:0.0 123:0.0 124:0.0 125:0.0 126:0.0 127:0.0 128:0.0 129:0.0 130:0.0 131:0.0 132:0.0 133:0.0 134:0.0 135:0.0 136:0.0 137:0.0 138:0.0 139:0.0 140:0.0 141:0.0 142:0.0 143:0.0 144:0.0 145:0.0 146:0.0 147:0.0 148:0.0 149:0.0 150:0.0 151:0.0 152:0.0 153:0.0 154:0.0 155:0.0 156:0.0 157:0.0 158:0.0 159:0.0 160:0.0 
1.0 1:0.0 2:0.0 3:0.0 4:0.0 5:0.0 6:0.0 7:0.0 8:0.0 9:0.0 10:0.0 11:0.0 12:0.0 13:0.0 14:0.0 15:0.0 16:0.0 17:0.0 18:0.0 19:0.0 20:0.0 21:0.0 22:0.0 23:0.0 24:0.0 25:0.0 26:0.0 27:0.0 28:0.0 29:0.0 30:1.0 31:0.0 32:0.0 33:0.0 34:0.0 35:0.0 36:0.0 37:0.0 38:0.0 39:0.0 40:0.0 41:0.0 42:0.0 43:0.0 44:0.0 45:0.0 46:0.0 47:0.0 48:0.0 49:0.0 50:0.0 51:0.0 52:0.0 53:0.0 54:0.0 55:0.0 56:0.0 57:0.0 58:0.0 59:0.0 60:0.0 61:0.0 62:0.0 63:0.0 64:0.0 65:0.0 66:0.0 67:0.0 68:0.0 69:0.0 70:0.0 71:0.0 72:0.0 73:0.0 74:0.0 75:0.0 76:0.0 77:0.0 78:0.0 79:0.0 80:0.0 81:0.0 82:0.0 83:0.0 84:0.0 85:0.0 86:0.0 87:0.0 88:0.0 89:0.0 90:0.0 91:0.0 92:0.0 93:0.0 94:0.0 95:0.0 96:0.0 97:0.0 98:0.0 99:0.0 100:0.0 101:0.0 102:0.0 103:0.0 104:0.0 105:0.0 106:0.0 107:0.0 108:0.0 109:0.0 110:0.0 111:0.0 112:0.0 113:0.0 114:0.0 115:0.0 116:0.0 117:0.0 118:0.0 119:0.0 120:0.0 121:0.0 122:0.0 123:0.0 124:0.0 125:0.0 126:0.0 127:0.0 128:0.0 129:0.0 130:0.0 131:0.0 132:0.0 133:0.0 134:0.0 135:0.0 136:0.0 137:0.0 138:0.0 139:0.0 140:0.0 141:0.0 142:0.0 143:0.0 144:0.0 145:0.0 146:0.0 147:0.0 148:0.0 149:0.0 150:0.0 151:0.0 152:0.0 153:0.0 154:0.0 155:0.0 156:0.0 157:0.0 158:0.0 159:0.0 160:0.0 
1.0 1:0.0 2:0.0 3:0.0 4:0.0 5:0.0 6:0.0 7:0.0 8:0.0 9:0.0 10:0.0 11:0.0 12:0.0 13:0.0 14:0.0 15:0.0 16:0.0 17:0.0 18:0.0 19:0.0 20:0.0 21:0.0 22:0.0 23:0.0 24:0.0 25:0.0 26:0.0 27:0.0 28:0.0 29:0.0 30:1.0 31:0.0 32:0.0 33:0.0 34:0.0 35:0.0 36:0.0 37:0.0 38:0.0 39:0.0 40:0.0 41:0.0 42:0.0 43:0.0 44:0.0 45:0.0 46:0.0 47:0.0 48:0.0 49:0.0 50:0.0 51:0.0 52:0.0 53:0.0 54:0.0 55:0.0 56:0.0 57:0.0 58:0.0 59:0.0 60:0.0 61:0.0 62:0.0 63:0.0 64:0.0 65:0.0 66:0.0 67:0.0 68:0.0 69:0.0 70:0.0 71:0.0 72:0.0 73:0.0 74:0.0 75:0.0 76:0.0 77:0.0 78:0.0 79:0.0 80:0.0 81:0.0 82:0.0 83:0.0 84:0.0 85:0.0 86:0.0 87:0.0 88:0.0 89:0.0 90:0.0 91:0.0 92:0.0 93:0.0 94:0.0 95:0.0 96:0.0 97:0.0 98:0.0 99:0.0 100:0.0 101:0.0 102:0.0 103:0.0 104:0.0 105:0.0 106:0.0 107:0.0 108:0.0 109:0.0 110:0.0 111:0.0 112:0.0 113:0.0 114:0.0 115:0.0 116:0.0 117:0.0 118:0.0 119:0.0 120:0.0 121:0.0 122:0.0 123:0.0 124:0.0 125:0.0 126:0.0 127:0.0 128:0.0 129:0.0 130:0.0 131:0.0 132:0.0 133:0.0 134:0.0 135:0.0 136:0.0 137:0.0 138:0.0 139:0.0 140:0.0 141:0.0 142:0.0 143:0.0 144:0.0 145:0.0 146:0.0 147:0.0 148:0.0 149:0.0 150:0.0 151:0.0 152:0.0 153:0.0 154:0.0 155:0.0 156:0.0 157:0.0 158:0.0 159:0.0 160:0.0 
1.0 1:0.0 2:0.0 3:0.0 4:0.0 5:0.0 6:0.0 7:0.0 8:0.0 9:0.0 10:0.0 11:0.0 12:0.0 13:0.0 14:0.0 15:0.0 16:0.0 17:0.0 18:0.0 19:0.0 20:0.0 21:0.0 22:0.0 23:0.0 24:0.0 25:0.0 26:0.0 27:0.0 28:0.0 29:0.0 30:1.0 31:0.0 32:0.0 33:0.0 34:0.0 35:0.0 36:0.0 37:0.0 38:0.0 39:0.0 40:0.0 41:0.0 42:0.0 43:0.0 44:0.0 45:0.0 46:0.0 47:0.0 48:0.0 49:0.0 50:0.0 51:0.0 52:0.0 53:0.0 54:0.0 55:0.0 56:0.0 57:0.0 58:0.0 59:0.0 60:0.0 61:0.0 62:0.0 63:0.0 64:0.0 65:0.0 66:0.0 67:0.0 68:0.0 69:0.0 70:0.0 71:0.0 72:0.0 73:0.0 74:0.0 75:0.0 76:0.0 77:0.0 78:0.0 79:0.0 80:0.0 81:0.0 82:0.0 83:0.0 84:0.0 85:0.0 86:0.0 87:0.0 88:0.0 89:0.0 90:0.0 91:0.0 92:0.0 93:0.0 94:0.0 95:0.0 96:0.0 97:0.0 98:0.0 99:0.0 100:0.0 101:0.0 102:0.0 103:0.0 104:0.0 105:0.0 106:0.0 107:0.0 108:0.0 109:0.0 110:0.0 111:0.0 112:0.0 113:0.0 114:0.0 115:0.0 116:0.0 117:0.0 118:0.0 119:0.0 120:0.0 121:0.0 122:0.0 123:0.0 124:0.0 125:0.0 126:0.0 127:0.0 128:0.0 129:0.0 130:0.0 131:0.0 132:0.0 133:0.0 134:0.0 135:0.0 136:0.0 137:0.0 138:0.0 139:0.0 140:0.0 141:0.0 142:0.0 143:0.0 144:0.0 145:0.0 146:0.0 147:0.0 148:0.0 149:0.0 150:0.0 151:0.0 152:0.0 153:0.0 154:0.0 155:0.0 156:0.0 157:0.0 158:0.0 159:0.0 160:0.0 
1.0 1:0.0 2:0.0 3:0.0 4:0.0 5:0.0 6:0.0 7:0.0 8:0.0 9:0.0 10:0.0 11:0.0 12:0.0 13:0.0 14:0.0 15:0.0 16:0.0 17:0.0 18:0.0 19:0.0 20:0.0 21:0.0 22:0.0 23:0.0 24:0.0 25:0.0 26:0.0 27:0.0 28:0.0 29:0.0 30:1.0 31:0.0 32:0.0 33:0.0 34:0.0 35:0.0 36:0.0 37:0.0 38:0.0 39:0.0 40:0.0 41:0.0 42:0.0 43:0.0 44:0.0 45:0.0 46:0.0 47:0.0 48:0.0 49:0.0 50:0.0 51:0.0 52:0.0 53:0.0 54:0.0 55:0.0 56:0.0 57:0.0 58:0.0 59:0.0 60:0.0 61:0.0 62:0.0 63:0.0 64:0.0 65:0.0 66:0.0 67:0.0 68:0.0 69:0.0 70:0.0 71:0.0 72:0.0 73:0.0 74:0.0 75:0.0 76:0.0 77:0.0 78:0.0 79:0.0 80:0.0 81:0.0 82:0.0 83:0.0 84:0.0 85:0.0 86:0.0 87:0.0 88:0.0 89:0.0 90:0.0 91:0.0 92:0.0 93:0.0 94:0.0 95:0.0 96:0.0 97:0.0 98:0.0 99:0.0 100:0.0 101:0.0 102:0.0 103:0.0 104:0.0 105:0.0 106:0.0 107:0.0 108:0.0 109:0.0 110:0.0 111:0.0 112:0.0 113:0.0 114:0.0 115:0.0 116:0.0 117:0.0 118:0.0 119:0.0 120:0.0 121:0.0 122:0.0 123:0.0 124:0.0 125:0.0 126:0.0 127:0.0 128:0.0 129:0.0 130:0.0 131:0.0 132:0.0 133:0.0 134:0.0 135:0.0 136:0.0 137:0.0 138:0.0 139:0.0 140:0.0 141:0.0 142:0.0 143:0.0 144:0.0 145:0.0 146:0.0 147:0.0 148:0.0 149:0.0 150:0.0 151:0.0 152:0.0 153:0.0 154:0.0 155:0.0 156:0.0 157:0.0 158:0.0 159:0.0 160:0.0 
1.0 1:0.0 2:0.0 3:0.0 4:0.0 5:0.0 6:0.0 7:0.0 8:0.0 9:0.0 10:0.0 11:0.0 12:0.0 13:0.0 14:0.0 15:0.0 16:0.0 17:0.0 18:0.0 19:0.0 20:0.0 21:0.0 22:0.0 23:0.0 24:0.0 25:0.0 26:0.0 27:0.0 28:0.0 29:0.0 30:1.0 31:0.0 32:0.0 33:0.0 34:0.0 35:0.0 36:0.0 37:0.0 38:0.0 39:0.0 40:0.0 41:0.0 42:0.0 43:0.0 44:0.0 45:0.0 46:0.0 47:0.0 48:0.0 49:0.0 50:0.0 51:0.0 52:0.0 53:0.0 54:0.0 55:0.0 56:0.0 57:0.0 58:0.0 59:0.0 60:0.0 61:0.0 62:0.0 63:0.0 64:0.0 65:0.0 66:0.0 67:0.0 68:0.0 69:0.0 70:0.0 71:0.0 72:0.0 73:0.0 74:0.0 75:0.0 76:0.0 77:0.0 78:0.0 79:0.0 80:0.0 81:0.0 82:0.0 83:0.0 84:0.0 85:0.0 86:0.0 87:0.0 88:0.0 89:0.0 90:0.0 91:0.0 92:0.0 93:0.0 94:0.0 95:0.0 96:0.0 97:0.0 98:0.0 99:0.0 100:0.0 101:0.0 102:0.0 103:0.0 104:0.0 105:0.0 106:0.0 107:0.0 108:0.0 109:0.0 110:0.0 111:0.0 112:0.0 113:0.0 114:0.0 115:0.0 116:0.0 117:0.0 118:0.0 119:0.0 120:0.0 121:0.0 122:0.0 123:0.0 124:0.0 125:0.0 126:0.0 127:0.0 128:0.0 129:0.0 130:0.0 131:0.0 132:0.0 133:0.0 134:0.0 135:0.0 136:0.0 137:0.0 138:0.0 139:0.0 140:0.0 141:0.0 142:0.0 143:0.0 144:0.0 145:0.0 146:0.0 147:0.0 148:0.0 149:0.0 150:0.0 151:0.0 152:0.0 153:0.0 154:0.0 155:0.0 156:0.0 157:0.0 158:0.0 159:0.0 160:0.0 
1.0 1:0.0 2:0.0 3:0.0 4:0.0 5:0.0 6:0.0 7:0.0 8:0.0 9:0.0 10:0.0 11:0.0 12:0.0 13:0.0 14:0.0 15:0.0 16:0.0 17:0.0 18:0.0 19:0.0 20:0.0 21:0.0 22:0.0 23:0.0 24:0.0 25:0.0 26:0.0 27:0.0 28:0.0 29:0.0 30:1.0 31:0.0 32:0.0 33:0.0 34:0.0 35:0.0 36:0.0 37:0.0 38:0.0 39:0.0 40:0.0 41:0.0 42:0.0 43:0.0 44:0.0 45:0.0 46:0.0 47:0.0 48:0.0 49:0.0 50:0.0 51:0.0 52:0.0 53:0.0 54:0.0 55:0.0 56:0.0 57:0.0 58:0.0 59:0.0 60:0.0 61:0.0 62:0.0 63:0.0 64:0.0 65:0.0 66:0.0 67:0.0 68:0.0 69:0.0 70:0.0 71:0.0 72:0.0 73:0.0 74:0.0 75:0.0 76:0.0 77:0.0 78:0.0 79:0.0 80:0.0 81:0.0 82:0.0 83:0.0 84:0.0 85:0.0 86:0.0 87:0.0 88:0.0 89:0.0 90:0.0 91:0.0 92:0.0 93:0.0 94:0.0 95:0.0 96:0.0 97:0.0 98:0.0 99:0.0 100:0.0 101:0.0 102:0.0 103:0.0 104:0.0 105:0.0 106:0.0 107:0.0 108:0.0 109:0.0 110:0.0 111:0.0 112:0.0 113:0.0 114:0.0 115:0.0 116:0.0 117:0.0 118:0.0 119:0.0 120:0.0 121:0.0 122:0.0 123:0.0 124:0.0 125:0.0 126:0.0 127:0.0 128:0.0 129:0.0 130:0.0 131:0.0 132:0.0 133:0.0 134:0.0 135:0.0 136:0.0 137:0.0 138:0.0 139:0.0 140:0.0 141:0.0 142:0.0 143:0.0 144:0.0 145:0.0 146:0.0 147:0.0 148:0.0 149:0.0 150:0.0 151:0.0 152:0.0 153:0.0 154:0.0 155:0.0 156:0.0 157:0.0 158:0.0 159:0.0 160:0.0 
1.0 1:0.0 2:0.0 3:0.0 4:0.0 5:0.0 6:0.0 7:0.0 8:0.0 9:0.0 10:0.0 11:0.0 12:0.0 13:0.0 14:0.0 15:0.0 16:0.0 17:0.0 18:0.0 19:0.0 20:0.0 21:0.0 22:0.0 23:0.0 24:0.0 25:0.0 26:0.0 27:0.0 28:0.0 29:0.0 30:1.0 31:0.0 32:0.0 33:0.0 34:0.0 35:0.0 36:0.0 37:0.0 38:0.0 39:0.0 40:0.0 41:0.0 42:0.0 43:0.0 44:0.0 45:0.0 46:0.0 47:0.0 48:0.0 49:0.0 50:0.0 51:0.0 52:0.0 53:0.0 54:0.0 55:0.0 56:0.0 57:0.0 58:0.0 59:0.0 60:0.0 61:0.0 62:0.0 63:0.0 64:0.0 65:0.0 66:0.0 67:0.0 68:0.0 69:0.0 70:0.0 71:0.0 72:0.0 73:0.0 74:0.0 75:0.0 76:0.0 77:0.0 78:0.0 79:0.0 80:0.0 81:0.0 82:0.0 83:0.0 84:0.0 85:0.0 86:0.0 87:0.0 88:0.0 89:0.0 90:0.0 91:0.0 92:0.0 93:0.0 94:0.0 95:0.0 96:0.0 97:0.0 98:0.0 99:0.0 100:0.0 101:0.0 102:0.0 103:0.0 104:0.0 105:0.0 106:0.0 107:0.0 108:0.0 109:0.0 110:0.0 111:0.0 112:0.0 113:0.0 114:0.0 115:0.0 116:0.0 117:0.0 118:0.0 119:0.0 120:0.0 121:0.0 122:0.0 123:0.0 124:0.0 125:0.0 126:0.0 127:0.0 128:0.0 129:0.0 130:0.0 131:0.0 132:0.0 133:0.0 134:0.0 135:0.0 136:0.0 137:0.0 138:0.0 139:0.0 140:0.0 141:0.0 142:0.0 143:0.0 144:0.0 145:0.0 146:0.0 147:0.0 148:0.0 149:0.0 150:0.0 151:0.0 152:0.0 153:0.0 154:0.0 155:0.0 156:0.0 157:0.0 158:0.0 159:0.0 160:0.0 
1.0 1:0.0 2:0.0 3:0.0 4:0.0 5:0.0 6:0.0 7:0.0 8:0.0 9:0.0 10:0.0 11:0.0 12:0.0 13:0.0 14:0.0 15:0.0 16:0.0 17:0.0 18:0.0 19:0.0 20:0.0 21:0.0 22:0.0 23:0.0 24:0.0 25:0.0 26:0.0 27:0.0 28:0.0 29:0.0 30:1.0 31:0.0 32:0.0 33:0.0 34:0.0 35:0.0 36:0.0 37:0.0 38:0.0 39:0.0 40:0.0 41:0.0 42:0.0 43:0.0 44:0.0 45:0.0 46:0.0 47:0.0 48:0.0 49:0.0 50:0.0 51:0.0 52:0.0 53:0.0 54:0.0 55:0.0 56:0.0 57:0.0 58:0.0 59:0.0 60:0.0 61:0.0 62:0.0 63:0.0 64:0.0 65:0.0 66:0.0 67:0.0 68:0.0 69:0.0 70:0.0 71:0.0 72:0.0 73:0.0 74:0.0 75:0.0 76:0.0 77:0.0 78:0.0 79:0.0 80:0.0 81:0.0 82:0.0 83:0.0 84:0.0 85:0.0 86:0.0 87:0.0 88:0.0 89:0.0 90:0.0 91:0.0 92:0.0 93:0.0 94:0.0 95:0.0 96:0.0 97:0.0 98:0.0 99:0.0 100:0.0 101:0.0 102:0.0 103:0.0 104:0.0 105:0.0 106:0.0 107:0.0 108:0.0 109:0.0 110:0.0 111:0.0 112:0.0 113:0.0 114:0.0 115:0.0 116:0.0 117:0.0 118:0.0 119:0.0 120:0.0 121:0.0 122:0.0 123:0.0 124:0.0 125:0.0 126:0.0 127:0.0 128:0.0 129:0.0 130:0.0 131:0.0 132:0.0 133:0.0 134:0.0 135:0.0 136:0.0 137:0.0 138:0.0 139:0.0 140:0.0 141:0.0 142:0.0 143:0.0 144:0.0 145:0.0 146:0.0 147:0.0 148:0.0 149:0.0 150:0.0 151:0.0 152:0.0 153:0.0 154:0.0 155:0.0 156:0.0 157:0.0 158:0.0 159:0.0 160:0.0 
1.0 1:0.0 2:0.0 3:0.0 4:0.0 5:0.0 6:0.0 7:0.0 8:0.0 9:0.0 10:0.0 11:0.0 12:0.0 13:0.0 14:0.0 15:0.0 16:0.0 17:0.0 18:0.0 19:0.0 20:0.0 21:0.0 22:0.0 23:0.0 24:0.0 25:0.0 26:0.0 27:0.0 28:0.0 29:0.0 30:1.0 31:0.0 32:0.0 33:0.0 34:0.0 35:0.0 36:0.0 37:0.0 38:0.0 39:0.0 40:0.0 41:0.0 42:0.0 43:0.0 44:0.0 45:0.0 46:0.0 47:0.0 48:0.0 49:0.0 50:0.0 51:0.0 52:0.0 53:0.0 54:0.0 55:0.0 56:0.0 57:0.0 58:0.0 59:0.0 60:0.0 61:0.0 62:0.0 63:0.0 64:0.0 65:0.0 66:0.0 67:0.0 68:0.0 69:0.0 70:0.0 71:0.0 72:0.0 73:0.0 74:0.0 75:0.0 76:0.0 77:0.0 78:0.0 79:0.0 80:0.0 81:0.0 82:0.0 83:0.0 84:0.0 85:0.0 86:0.0 87:0.0 88:0.0 89:0.0 90:0.0 91:0.0 92:0.0 93:0.0 94:0.0 95:0.0 96:0.0 97:0.0 98:0.0 99:0.0 100:0.0 101:0.0 102:0.0 103:0.0 104:0.0 105:0.0 106:0.0 107:0.0 108:0.0 109:0.0 110:0.0 111:0.0 112:0.0 113:0.0 114:0.0 115:0.0 116:0.0 117:0.0 118:0.0 119:0.0 120:0.0 121:0.0 122:0.0 123:0.0 124:0.0 125:0.0 126:0.0 127:0.0 128:0.0 129:0.0 130:0.0 131:0.0 132:0.0 133:0.0 134:0.0 135:0.0 136:0.0 137:0.0 138:0.0 139:0.0 140:0.0 141:0.0 142:0.0 143:0.0 144:0.0 145:0.0 146:0.0 147:0.0 148:0.0 149:0.0 150:0.0 151:0.0 152:0.0 153:0.0 154:0.0 155:0.0 156:0.0 157:0.0 158:0.0 159:0.0 160:0.0 
1.0 1:0.0 2:0.0 3:0.0 4:0.0 5:0.0 6:0.0 7:0.0 8:0.0 9:0.0 10:0.0 11:0.0 12:0.0 13:0.0 14:0.0 15:0.0 16:0.0 17:0.0 18:0.0 19:0.0 20:0.0 21:0.0 22:0.0 23:0.0 24:0.0 25:0.0 26:0.0 27:0.0 28:0.0 29:0.0 30:1.0 31:0.0 32:0.0 33:0.0 34:0.0 35:0.0 36:0.0 37:0.0 38:0.0 39:0.0 40:0.0 41:0.0 42:0.0 43:0.0 44:0.0 45:0.0 46:0.0 47:0.0 48:0.0 49:0.0 50:0.0 51:0.0 52:0.0 53:0.0 54:0.0 55:0.0 56:0.0 57:0.0 58:0.0 59:0.0 60:0.0 61:0.0 62:0.0 63:0.0 64:0.0 65:0.0 66:0.0 67:0.0 68:0.0 69:0.0 70:0.0 71:0.0 72:0.0 73:0.0 74:0.0 75:0.0 76:0.0 77:0.0 78:0.0 79:0.0 80:0.0 81:0.0 82:0.0 83:0.0 84:0.0 85:0.0 86:0.0 87:0.0 88:0.0 89:0.0 90:0.0 91:0.0 92:0.0 93:0.0 94:0.0 95:0.0 96:0.0 97:0.0 98:0.0 99:0.0 100:0.0 101:0.0 102:0.0 103:0.0 104:0.0 105:0.0 106:0.0 107:0.0 108:0.0 109:0.0 110:0.0 111:0.0 112:0.0 113:0.0 114:0.0 115:0.0 116:0.0 117:0.0 118:0.0 119:0.0 120:0.0 121:0.0 122:0.0 123:0.0 124:0.0 125:0.0 126:0.0 127:0.0 128:0.0 129:0.0 130:0.0 131:0.0 132:0.0 133:0.0 134:0.0 135:0.0 136:0.0 137:0.0 138:0.0 139:0.0 140:0.0 141:0.0 142:0.0 143:0.0 144:0.0 145:0.0 146:0.0 147:0.0 148:0.0 149:0.0 150:0.0 151:0.0 152:0.0 153:0.0 154:0.0 155:0.0 156:0.0 157:0.0 158:0.0 159:0.0 160:0.0 
1.0 1:0.0 2:0.0 3:0.0 4:0.0 5:0.0 6:0.0 7:0.0 8:0.0 9:0.0 10:0.0 11:0.0 12:0.0 13:0.0 14:0.0 15:0.0 16:0.0 17:0.0 18:0.0 19:0.0 20:0.0 21:0.0 22:0.0 23:0.0 24:0.0 25:0.0 26:0.0 27:0.0 28:0.0 29:0.0 30:1.0 31:0.0 32:0.0 33:0.0 34:0.0 35:0.0 36:0.0 37:0.0 38:0.0 39:0.0 40:0.0 41:0.0 42:0.0 43:0.0 44:0.0 45:0.0 46:0.0 47:0.0 48:0.0 49:0.0 50:0.0 51:0.0 52:0.0 53:0.0 54:0.0 55:0.0 56:0.0 57:0.0 58:0.0 59:0.0 60:0.0 61:0.0 62:0.0 63:0.0 64:0.0 65:0.0 66:0.0 67:0.0 68:0.0 69:0.0 70:0.0 71:0.0 72:0.0 73:0.0 74:0.0 75:0.0 76:0.0 77:0.0 78:0.0 79:0.0 80:0.0 81:0.0 82:0.0 83:0.0 84:0.0 85:0.0 86:0.0 87:0.0 88:0.0 89:0.0 90:0.0 91:0.0 92:0.0 93:0.0 94:0.0 95:0.0 96:0.0 97:0.0 98:0.0 99:0.0 100:0.0 101:0.0 102:0.0 103:0.0 104:0.0 105:0.0 106:0.0 107:0.0 108:0.0 109:0.0 110:0.0 111:0.0 112:0.0 113:0.0 114:0.0 115:0.0 116:0.0 117:0.0 118:0.0 119:0.0 120:0.0 121:0.0 122:0.0 123:0.0 124:0.0 125:0.0 126:0.0 127:0.0 128:0.0 129:0.0 130:0.0 131:0.0 132:0.0 133:0.0 134:0.0 135:0.0 136:0.0 137:0.0 138:0.0 139:0.0 140:0.0 141:0.0 142:0.0 143:0.0 144:0.0 145:0.0 146:0.0 147:0.0 148:0.0 149:0.0 150:0.0 151:0.0 152:0.0 153:0.0 154:0.0 155:0.0 156:0.0 157:0.0 158:0.0 159:0.0 160:0.0 
1.0 1:0.0 2:0.0 3:0.0 4:0.0 5:0.0 6:0.0 7:0.0 8:0.0 9:0.0 10:0.0 11:0.0 12:0.0 13:0.0 14:0.0 15:0.0 16:0.0 17:0.0 18:0.0 19:0.0 20:0.0 21:0.0 22:0.0 23:0.0 24:0.0 25:0.0 26:0.0 27:0.0 28:0.0 29:0.0 30:1.0 31:0.0 32:0.0 33:0.0 34:0.0 35:0.0 36:0.0 37:0.0 38:0.0 39:0.0 40:0.0 41:0.0 42:0.0 43:0.0 44:0.0 45:0.0 46:0.0 47:0.0 48:0.0 49:0.0 50:0.0 51:0.0 52:0.0 53:0.0 54:0.0 55:0.0 56:0.0 57:0.0 58:0.0 59:0.0 60:0.0 61:0.0 62:0.0 63:0.0 64:0.0 65:0.0 66:0.0 67:0.0 68:0.0 69:0.0 70:0.0 71:0.0 72:0.0 73:0.0 74:0.0 75:0.0 76:0.0 77:0.0 78:0.0 79:0.0 80:0.0 81:0.0 82:0.0 83:0.0 84:0.0 85:0.0 86:0.0 87:0.0 88:0.0 89:0.0 90:0.0 91:0.0 92:0.0 93:0.0 94:0.0 95:0.0 96:0.0 97:0.0 98:0.0 99:0.0 100:0.0 101:0.0 102:0.0 103:0.0 104:0.0 105:0.0 106:0.0 107:0.0 108:0.0 109:0.0 110:0.0 111:0.0 112:0.0 113:0.0 114:0.0 115:0.0 116:0.0 117:0.0 118:0.0 119:0.0 120:0.0 121:0.0 122:0.0 123:0.0 124:0.0 125:0.0 126:0.0 127:0.0 128:0.0 129:0.0 130:0.0 131:0.0 132:0.0 133:0.0 134:0.0 135:0.0 136:0.0 137:0.0 138:0.0 139:0.0 140:0.0 141:0.0 142:0.0 143:0.0 144:0.0 145:0.0 146:0.0 147:0.0 148:0.0 149:0.0 150:0.0 151:0.0 152:0.0 153:0.0 154:0.0 155:0.0 156:0.0 157:0.0 158:0.0 159:0.0 160:0.0 
1.0 1:0.0 2:0.0 3:0.0 4:0.0 5:0.0 6:0.0 7:0.0 8:0.0 9:0.0 10:0.0 11:0.0 12:0.0 13:0.0 14:0.0 15:0.0 16:0.0 17:0.0 18:0.0 19:0.0 20:0.0 21:0.0 22:0.0 23:0.0 24:0.0 25:0.0 26:0.0 27:0.0 28:0.0 29:0.0 30:1.0 31:0.0 32:0.0 33:0.0 34:0.0 35:0.0 36:0.0 37:0.0 38:0.0 39:0.0 40:0.0 41:0.0 42:0.0 43:0.0 44:0.0 45:0.0 46:0.0 47:0.0 48:0.0 49:0.0 50:0.0 51:0.0 52:0.0 53:0.0 54:0.0 55:0.0 56:0.0 57:0.0 58:0.0 59:0.0 60:0.0 61:0.0 62:0.0 63:0.0 64:0.0 65:0.0 66:0.0 67:0.0 68:0.0 69:0.0 70:0.0 71:0.0 72:0.0 73:0.0 74:0.0 75:0.0 76:0.0 77:0.0 78:0.0 79:0.0 80:0.0 81:0.0 82:0.0 83:0.0 84:0.0 85:0.0 86:0.0 87:0.0 88:0.0 89:0.0 90:0.0 91:0.0 92:0.0 93:0.0 94:0.0 95:0.0 96:0.0 97:0.0 98:0.0 99:0.0 100:0.0 101:0.0 102:0.0 103:0.0 104:0.0 105:0.0 106:0.0 107:0.0 108:0.0 109:0.0 110:0.0 111:0.0 112:0.0 113:0.0 114:0.0 115:0.0 116:0.0 117:0.0 118:0.0 119:0.0 120:0.0 121:0.0 122:0.0 123:0.0 124:0.0 125:0.0 126:0.0 127:0.0 128:0.0 129:0.0 130:0.0 131:0.0 132:0.0 133:0.0 134:0.0 135:0.0 136:0.0 137:0.0 138:0.0 139:0.0 140:0.0 141:0.0 142:0.0 143:0.0 144:0.0 145:0.0 146:0.0 147:0.0 148:0.0 149:0.0 150:0.0 151:0.0 152:0.0 153:0.0 154:0.0 155:0.0 156:0.0 157:0.0 158:0.0 159:0.0 160:0.0 
1.0 1:0.0 2:0.0 3:0.0 4:0.0 5:0.0 6:0.0 7:0.0 8:0.0 9:0.0 10:0.0 11:0.0 12:0.0 13:0.0 14:0.0 15:0.0 16:0.0 17:0.0 18:0.0 19:0.0 20:0.0 21:0.0 22:0.0 23:0.0 24:0.0 25:0.0 26:0.0 27:0.0 28:0.0 29:0.0 30:1.0 31:0.0 32:0.0 33:0.0 34:0.0 35:0.0 36:0.0 37:0.0 38:0.0 39:0.0 40:0.0 41:0.0 42:0.0 43:0.0 44:0.0 45:0.0 46:0.0 47:0.0 48:0.0 49:0.0 50:0.0 51:0.0 52:0.0 53:0.0 54:0.0 55:0.0 56:0.0 57:0.0 58:0.0 59:0.0 60:0.0 61:0.0 62:0.0 63:0.0 64:0.0 65:0.0 66:0.0 67:0.0 68:0.0 69:0.0 70:0.0 71:0.0 72:0.0 73:0.0 74:0.0 75:0.0 76:0.0 77:0.0 78:0.0 79:0.0 80:0.0 81:0.0 82:0.0 83:0.0 84:0.0 85:0.0 86:0.0 87:0.0 88:0.0 89:0.0 90:0.0 91:0.0 92:0.0 93:0.0 94:0.0 95:0.0 96:0.0 97:0.0 98:0.0 99:0.0 100:0.0 101:0.0 102:0.0 103:0.0 104:0.0 105:0.0 106:0.0 107:0.0 108:0.0 109:0.0 110:0.0 111:0.0 112:0.0 113:0.0 114:0.0 115:0.0 116:0.0 117:0.0 118:0.0 119:0.0 120:0.0 121:0.0 122:0.0 123:0.0 124:0.0 125:0.0 126:0.0 127:0.0 128:0.0 129:0.0 130:0.0 131:0.0 132:0.0 133:0.0 134:0.0 135:0.0 136:0.0 137:0.0 138:0.0 139:0.0 140:0.0 141:0.0 142:0.0 143:0.0 144:0.0 145:0.0 146:0.0 147:0.0 148:0.0 149:0.0 150:0.0 151:0.0 152:0.0 153:0.0 154:0.0 155:0.0 156:0.0 157:0.0 158:0.0 159:0.0 160:0.0 
1.0 1:0.0 2:0.0 3:0.0 4:0.0 5:0.0 6:0.0 7:0.0 8:0.0 9:0.0 10:0.0 11:0.0 12:0.0 13:0.0 14:0.0 15:0.0 16:0.0 17:0.0 18:0.0 19:0.0 20:0.0 21:0.0 22:0.0 23:0.0 24:0.0 25:0.0 26:0.0 27:0.0 28:0.0 29:0.0 30:1.0 31:0.0 32:0.0 33:0.0 34:0.0 35:0.0 36:0.0 37:0.0 38:0.0 39:0.0 40:0.0 41:0.0 42:0.0 43:0.0 44:0.0 45:0.0 46:0.0 47:0.0 48:0.0 49:0.0 50:0.0 51:0.0 52:0.0 53:0.0 54:0.0 55:0.0 56:0.0 57:0.0 58:0.0 59:0.0 60:0.0 61:0.0 62:0.0 63:0.0 64:0.0 65:0.0 66:0.0 67:0.0 68:0.0 69:0.0 70:0.0 71:0.0 72:0.0 73:0.0 74:0.0 75:0.0 76:0.0 77:0.0 78:0.0 79:0.0 80:0.0 81:0.0 82:0.0 83:0.0 84:0.0 85:0.0 86:0.0 87:0.0 88:0.0 89:0.0 90:0.0 91:0.0 92:0.0 93:0.0 94:0.0 95:0.0 96:0.0 97:0.0 98:0.0 99:0.0 100:0.0 101:0.0 102:0.0 103:0.0 104:0.0 105:0.0 106:0.0 107:0.0 108:0.0 109:0.0 110:0.0 111:0.0 112:0.0 113:0.0 114:0.0 115:0.0 116:0.0 117:0.0 118:0.0 119:0.0 120:0.0 121:0.0 122:0.0 123:0.0 124:0.0 125:0.0 126:0.0 127:0.0 128:0.0 129:0.0 130:0.0 131:0.0 132:0.0 133:0.0 134:0.0 135:0.0 136:0.0 137:0.0 138:0.0 139:0.0 140:0.0 141:0.0 142:0.0 143:0.0 144:0.0 145:0.0 146:0.0 147:0.0 148:0.0 149:0.0 150:0.0 151:0.0 152:0.0 153:0.0 154:0.0 155:0.0 156:0.0 157:0.0 158:0.0 159:0.0 160:0.0 
0.11000000000001364 1:0.0 2:0.0 3:0.0 4:0.0 5:0.0 6:0.0 7:0.0 8:0.0 9:0.0 10:0.0 11:0.0 12:0.0 13:0.0 14:0.0 15:0.0 16:0.0 17:0.0 18:0.0 19:0.0 20:0.0 21:0.0 22:0.0 23:0.0 24:0.0 25:0.0 26:0.0 27:0.0 28:0.0 29:0.0 30:1.0 31:0.0 32:0.0 33:0.0 34:0.0 35:0.0 36:0.0 37:0.0 38:0.0 39:0.0 40:0.0 41:0.0 42:0.0 43:0.0 44:0.0 45:0.0 46:0.0 47:0.0 48:0.0 49:0.0 50:0.0 51:0.0 52:0.0 53:0.0 54:0.0 55:0.0 56:0.0 57:0.0 58:0.0 59:0.0 60:0.0 61:0.0 62:0.0 63:0.0 64:0.0 65:0.0 66:0.0 67:0.0 68:0.0 69:0.0 70:0.0 71:0.0 72:0.0 73:0.0 74:0.0 75:0.0 76:0.0 77:0.0 78:0.0 79:0.0 80:0.0 81:0.0 82:0.0 83:0.0 84:0.0 85:0.0 86:0.0 87:0.0 88:0.0 89:0.0 90:0.0 91:0.0 92:0.0 93:0.0 94:0.0 95:0.0 96:0.0 97:0.0 98:0.0 99:0.0 100:0.0 101:0.0 102:0.0 103:0.0 104:0.0 105:0.0 106:0.0 107:0.0 108:0.0 109:0.0 110:0.0 111:0.0 112:0.0 113:0.0 114:0.0 115:0.0 116:0.0 117:0.0 118:0.0 119:0.0 120:0.0 121:0.0 122:0.0 123:0.0 124:0.0 125:0.0 126:0.0 127:0.0 128:0.0 129:0.0 130:0.0 131:0.0 132:0.0 133:0.0 134:0.0 135:0.0 136:0.0 137:0.0 138:0.0 139:0.0 140:0.0 141:0.0 142:0.0 143:0.0 144:0.0 145:0.0 146:0.0 147:0.0 148:0.0 149:0.0 150:0.0 151:0.0 152:0.0 153:0.0 154:0.0 155:0.0 156:0.0 157:0.0 158:0.0 159:0.0 160:0.0 
1.0 1:0.04240282685512368 2:0.0 3:0.0 4:0.0 5:0.0 6:0.0 7:0.0035335689045936395 8:0.0 9:0.0 10:0.0035335689045936395 11:0.0 12:0.0 13:0.0 14:0.0 15:0.0 16:0.0 17:0.007067137809187279 18:0.0035335689045936395 19:0.007067137809187279 20:0.0 21:0.0 22:0.0035335689045936395 23:0.0 24:0.0035335689045936395 25:0.0 26:0.0035335689045936395 27:0.0 28:0.01060070671378092 29:0.0 30:0.7879858657243817 31:0.0 32:0.0 33:0.0 34:0.0 35:0.0 36:0.0 37:0.0 38:0.0035335689045936395 39:0.0 40:0.0 41:0.0035335689045936395 42:0.0 43:0.0 44:0.0 45:0.0 46:0.0 47:0.0 48:0.0 49:0.007067137809187279 50:0.0 51:0.007067137809187279 52:0.0 53:0.0035335689045936395 54:0.0 55:0.0 56:0.007067137809187279 57:0.0 58:0.0035335689045936395 59:0.0035335689045936395 60:0.0 61:0.0 62:0.0 63:0.0 64:0.0 65:0.0 66:0.007067137809187279 67:0.0 68:0.0 69:0.0 70:0.0 71:0.0 72:0.0 73:0.0 74:0.0035335689045936395 75:0.0 76:0.0035335689045936395 77:0.0 78:0.0 79:0.0 80:0.0 81:0.0 82:0.0 83:0.0 84:0.0 85:0.014134275618374558 86:0.0 87:0.0035335689045936395 88:0.007067137809187279 89:0.0 90:0.0 91:0.0 92:0.0 93:0.0 94:0.0 95:0.0 96:0.0 97:0.0 98:0.0 99:0.0035335689045936395 100:0.0035335689045936395 101:0.0 102:0.0 103:0.0035335689045936395 104:0.0 105:0.0035335689045936395 106:0.0 107:0.0 108:0.0 109:0.0 110:0.0 111:0.007067137809187279 112:0.0 113:0.0035335689045936395 114:0.0 115:0.0 116:0.0 117:0.0 118:0.0 119:0.0 120:0.0 121:0.0 122:0.0 123:0.0 124:0.0 125:0.0 126:0.0035335689045936395 127:0.0 128:0.0 129:0.0 130:0.0035335689045936395 131:0.0 132:0.0 133:0.0 134:0.0 135:0.0 136:0.0 137:0.0 138:0.0 139:0.0 140:0.0 141:0.0 142:0.0 143:0.0 144:0.0 145:0.0 146:0.0 147:0.0 148:0.0 149:0.0 150:0.0035335689045936395 151:0.0 152:0.0 153:0.0035335689045936395 154:0.0 155:0.0 156:0.0 157:0.0 158:0.0 159:0.0 160:0.007067137809187279 
1.0 1:0.1315345699831366 2:0.003372681281618887 3:0.0 4:0.006745362563237774 5:0.0 6:0.0 7:0.006745362563237774 8:0.003372681281618887 9:0.0 10:0.0 11:0.01011804384485666 12:0.013490725126475547 13:0.0016863406408094434 14:0.0 15:0.0 16:0.0 17:0.00505902192242833 18:0.0016863406408094434 19:0.0 20:0.0016863406408094434 21:0.0 22:0.0 23:0.011804384485666104 24:0.01011804384485666 25:0.00505902192242833 26:0.003372681281618887 27:0.0 28:0.003372681281618887 29:0.0016863406408094434 30:0.5902192242833052 31:0.0 32:0.0 33:0.0 34:0.0 35:0.0 36:0.006745362563237774 37:0.0016863406408094434 38:0.0016863406408094434 39:0.0 40:0.0 41:0.0 42:0.0 43:0.0 44:0.008431703204047217 45:0.0 46:0.0 47:0.003372681281618887 48:0.0 49:0.0 50:0.0 51:0.003372681281618887 52:0.0 53:0.0016863406408094434 54:0.0 55:0.0016863406408094434 56:0.0016863406408094434 57:0.0016863406408094434 58:0.0016863406408094434 59:0.0 60:0.0 61:0.013490725126475547 62:0.0 63:0.0 64:0.0016863406408094434 65:0.0 66:0.003372681281618887 67:0.0016863406408094434 68:0.0 69:0.0 70:0.00505902192242833 71:0.0016863406408094434 72:0.00505902192242833 73:0.0 74:0.0016863406408094434 75:0.0 76:0.0016863406408094434 77:0.0 78:0.0016863406408094434 79:0.0 80:0.0 81:0.0 82:0.0 83:0.0 84:0.0 85:0.0387858347386172 86:0.0 87:0.00505902192242833 88:0.0 89:0.0 90:0.0 91:0.0 92:0.0 93:0.0 94:0.0 95:0.0016863406408094434 96:0.0 97:0.0 98:0.0016863406408094434 99:0.0016863406408094434 100:0.008431703204047217 101:0.0 102:0.0016863406408094434 103:0.0 104:0.0 105:0.0 106:0.0 107:0.0 108:0.003372681281618887 109:0.0 110:0.0 111:0.0016863406408094434 112:0.0 113:0.01517706576728499 114:0.0 115:0.0 116:0.0016863406408094434 117:0.0 118:0.0016863406408094434 119:0.0 120:0.0016863406408094434 121:0.00505902192242833 122:0.006745362563237774 123:0.0 124:0.0 125:0.0 126:0.003372681281618887 127:0.0 128:0.0 129:0.0 130:0.0 131:0.0 132:0.0 133:0.0 134:0.0 135:0.0 136:0.006745362563237774 137:0.0 138:0.0 139:0.0 140:0.0 141:0.0 142:0.0016863406408094434 143:0.0 144:0.0 145:0.0016863406408094434 146:0.0 147:0.0 148:0.0 149:0.0 150:0.0016863406408094434 151:0.0 152:0.0 153:0.0016863406408094434 154:0.0016863406408094434 155:0.003372681281618887 156:0.0 157:0.0 158:0.0 159:0.0 160:0.0 
1.0 1:0.042505592841163314 2:0.006711409395973154 3:0.0 4:0.0044742729306487695 5:0.0 6:0.0 7:0.008948545861297539 8:0.0 9:0.0 10:0.0022371364653243847 11:0.017897091722595078 12:0.006711409395973154 13:0.0022371364653243847 14:0.0 15:0.0022371364653243847 16:0.0 17:0.015659955257270694 18:0.0 19:0.013422818791946308 20:0.006711409395973154 21:0.0 22:0.0022371364653243847 23:0.013422818791946308 24:0.0 25:0.0 26:0.02237136465324385 27:0.0 28:0.0044742729306487695 29:0.006711409395973154 30:0.45861297539149887 31:0.0 32:0.0 33:0.0 34:0.0 35:0.0 36:0.006711409395973154 37:0.0 38:0.013422818791946308 39:0.0 40:0.0 41:0.013422818791946308 42:0.0 43:0.0 44:0.0022371364653243847 45:0.0 46:0.0022371364653243847 47:0.0022371364653243847 48:0.0 49:0.0 50:0.0 51:0.0022371364653243847 52:0.0 53:0.0044742729306487695 54:0.0022371364653243847 55:0.0 56:0.013422818791946308 57:0.0 58:0.0044742729306487695 59:0.008948545861297539 60:0.0 61:0.0044742729306487695 62:0.0 63:0.0 64:0.0 65:0.0022371364653243847 66:0.0022371364653243847 67:0.0 68:0.0 69:0.0 70:0.013422818791946308 71:0.0 72:0.011185682326621925 73:0.0 74:0.0 75:0.0 76:0.0 77:0.0 78:0.0044742729306487695 79:0.0 80:0.0 81:0.0044742729306487695 82:0.0 83:0.0 84:0.0 85:0.053691275167785234 86:0.008948545861297539 87:0.011185682326621925 88:0.0 89:0.0 90:0.0022371364653243847 91:0.0 92:0.0 93:0.0 94:0.0 95:0.0 96:0.0 97:0.0 98:0.0044742729306487695 99:0.006711409395973154 100:0.020134228187919462 101:0.0 102:0.0022371364653243847 103:0.0 104:0.0022371364653243847 105:0.0 106:0.0 107:0.0 108:0.008948545861297539 109:0.0 110:0.0 111:0.0 112:0.0022371364653243847 113:0.013422818791946308 114:0.0 115:0.0 116:0.0 117:0.0 118:0.0 119:0.013422818791946308 120:0.0 121:0.008948545861297539 122:0.008948545861297539 123:0.0 124:0.0 125:0.0 126:0.015659955257270694 127:0.0 128:0.0 129:0.0022371364653243847 130:0.0 131:0.0 132:0.0 133:0.0 134:0.0 135:0.0 136:0.040268456375838924 137:0.0022371364653243847 138:0.0 139:0.0 140:0.0 141:0.006711409395973154 142:0.0 143:0.0 144:0.0 145:0.0 146:0.0 147:0.0 148:0.0 149:0.0 150:0.0 151:0.0 152:0.0 153:0.0022371364653243847 154:0.0022371364653243847 155:0.0 156:0.0 157:0.0 158:0.0 159:0.0022371364653243847 160:0.0022371364653243847 
1.0 1:0.031746031746031744 2:0.0 3:0.0 4:0.0 5:0.0 6:0.0 7:0.010582010582010581 8:0.005291005291005291 9:0.005291005291005291 10:0.0 11:0.010582010582010581 12:0.005291005291005291 13:0.0 14:0.0 15:0.0 16:0.0 17:0.005291005291005291 18:0.005291005291005291 19:0.0 20:0.0 21:0.0 22:0.0 23:0.0 24:0.0 25:0.0 26:0.005291005291005291 27:0.0 28:0.0 29:0.0 30:0.798941798941799 31:0.0 32:0.0 33:0.0 34:0.0 35:0.0 36:0.005291005291005291 37:0.0 38:0.0 39:0.0 40:0.0 41:0.0 42:0.0 43:0.0 44:0.005291005291005291 45:0.0 46:0.005291005291005291 47:0.0 48:0.0 49:0.0 50:0.0 51:0.0 52:0.0 53:0.0 54:0.005291005291005291 55:0.0 56:0.005291005291005291 57:0.005291005291005291 58:0.0 59:0.0 60:0.0 61:0.010582010582010581 62:0.0 63:0.0 64:0.0 65:0.0 66:0.005291005291005291 67:0.0 68:0.0 69:0.0 70:0.0 71:0.0 72:0.0 73:0.005291005291005291 74:0.0 75:0.0 76:0.0 77:0.0 78:0.005291005291005291 79:0.0 80:0.0 81:0.0 82:0.0 83:0.0 84:0.0 85:0.010582010582010581 86:0.0 87:0.0 88:0.0 89:0.0 90:0.0 91:0.0 92:0.0 93:0.0 94:0.0 95:0.005291005291005291 96:0.0 97:0.0 98:0.0 99:0.0 100:0.0 101:0.0 102:0.0 103:0.0 104:0.0 105:0.010582010582010581 106:0.0 107:0.0 108:0.0 109:0.0 110:0.0 111:0.005291005291005291 112:0.0 113:0.010582010582010581 114:0.0 115:0.0 116:0.0 117:0.0 118:0.0 119:0.0 120:0.0 121:0.0 122:0.0 123:0.0 124:0.0 125:0.0 126:0.005291005291005291 127:0.0 128:0.0 129:0.0 130:0.0 131:0.0 132:0.0 133:0.0 134:0.0 135:0.005291005291005291 136:0.0 137:0.0 138:0.0 139:0.0 140:0.0 141:0.0 142:0.0 143:0.0 144:0.0 145:0.0 146:0.0 147:0.0 148:0.0 149:0.0 150:0.0 151:0.0 152:0.0 153:0.005291005291005291 154:0.0 155:0.0 156:0.0 157:0.0 158:0.0 159:0.0 160:0.0 
1.0 1:0.0535279805352798 2:0.0024330900243309003 3:0.0 4:0.0072992700729927005 5:0.0 6:0.0 7:0.0 8:0.004866180048661801 9:0.0 10:0.0024330900243309003 11:0.0024330900243309003 12:0.0 13:0.0072992700729927005 14:0.0 15:0.0024330900243309003 16:0.0 17:0.009732360097323601 18:0.0024330900243309003 19:0.0 20:0.0 21:0.0 22:0.0 23:0.021897810218978103 24:0.0072992700729927005 25:0.0 26:0.004866180048661801 27:0.0 28:0.0 29:0.009732360097323601 30:0.6788321167883211 31:0.0 32:0.0 33:0.0 34:0.0 35:0.0 36:0.0 37:0.0024330900243309003 38:0.004866180048661801 39:0.0 40:0.0 41:0.0024330900243309003 42:0.0 43:0.0 44:0.004866180048661801 45:0.0 46:0.0 47:0.0024330900243309003 48:0.0 49:0.0024330900243309003 50:0.0 51:0.0 52:0.0 53:0.0072992700729927005 54:0.0 55:0.0 56:0.0 57:0.0 58:0.004866180048661801 59:0.0024330900243309003 60:0.0 61:0.0 62:0.0 63:0.0 64:0.0024330900243309003 65:0.0 66:0.0024330900243309003 67:0.0 68:0.004866180048661801 69:0.0 70:0.0024330900243309003 71:0.0 72:0.004866180048661801 73:0.0 74:0.0024330900243309003 75:0.0 76:0.0 77:0.0 78:0.0024330900243309003 79:0.0 80:0.0 81:0.004866180048661801 82:0.0 83:0.0 84:0.0 85:0.0364963503649635 86:0.004866180048661801 87:0.0072992700729927005 88:0.012165450121654502 89:0.0024330900243309003 90:0.0 91:0.0 92:0.0 93:0.0 94:0.0 95:0.0 96:0.0 97:0.0 98:0.0 99:0.0 100:0.004866180048661801 101:0.0 102:0.0 103:0.0 104:0.0 105:0.0 106:0.0 107:0.0 108:0.004866180048661801 109:0.0 110:0.0 111:0.0072992700729927005 112:0.0024330900243309003 113:0.0072992700729927005 114:0.0 115:0.0 116:0.0024330900243309003 117:0.0 118:0.0 119:0.0 120:0.0024330900243309003 121:0.004866180048661801 122:0.0024330900243309003 123:0.0 124:0.0 125:0.0 126:0.004866180048661801 127:0.0 128:0.0 129:0.004866180048661801 130:0.0 131:0.0 132:0.0 133:0.0 134:0.0 135:0.0 136:0.004866180048661801 137:0.0 138:0.0 139:0.0 140:0.0 141:0.0 142:0.0 143:0.0 144:0.0 145:0.0 146:0.0 147:0.0 148:0.0 149:0.0 150:0.0 151:0.0 152:0.0 153:0.0024330900243309003 154:0.0 155:0.0024330900243309003 156:0.0 157:0.0 158:0.0 159:0.0 160:0.0 
1.0 1:0.016877637130801686 2:0.004219409282700422 3:0.0 4:0.008438818565400843 5:0.0 6:0.0 7:0.008438818565400843 8:0.0 9:0.0 10:0.0 11:0.004219409282700422 12:0.004219409282700422 13:0.004219409282700422 14:0.0 15:0.0 16:0.0 17:0.0 18:0.004219409282700422 19:0.0 20:0.0 21:0.0 22:0.0 23:0.004219409282700422 24:0.0 25:0.008438818565400843 26:0.008438818565400843 27:0.0 28:0.004219409282700422 29:0.0 30:0.7974683544303798 31:0.0 32:0.0 33:0.0 34:0.0 35:0.0 36:0.0 37:0.0 38:0.004219409282700422 39:0.0 40:0.0 41:0.0 42:0.0 43:0.0 44:0.004219409282700422 45:0.0 46:0.0 47:0.004219409282700422 48:0.0 49:0.0 50:0.0 51:0.004219409282700422 52:0.0 53:0.0 54:0.0 55:0.0 56:0.004219409282700422 57:0.004219409282700422 58:0.004219409282700422 59:0.0 60:0.0 61:0.0 62:0.0 63:0.0 64:0.0 65:0.0 66:0.0 67:0.0 68:0.0 69:0.0 70:0.0 71:0.004219409282700422 72:0.004219409282700422 73:0.004219409282700422 74:0.0 75:0.0 76:0.004219409282700422 77:0.0 78:0.0 79:0.0 80:0.0 81:0.008438818565400843 82:0.0 83:0.0 84:0.0 85:0.02109704641350211 86:0.0 87:0.0 88:0.0 89:0.004219409282700422 90:0.0 91:0.0 92:0.0 93:0.0 94:0.0 95:0.0 96:0.0 97:0.0 98:0.0 99:0.0 100:0.008438818565400843 101:0.0 102:0.0 103:0.0 104:0.004219409282700422 105:0.0 106:0.0 107:0.0 108:0.004219409282700422 109:0.0 110:0.0 111:0.004219409282700422 112:0.0 113:0.0 114:0.0 115:0.0 116:0.0 117:0.0 118:0.004219409282700422 119:0.0 120:0.0 121:0.0 122:0.0 123:0.0 124:0.0 125:0.0 126:0.0 127:0.0 128:0.0 129:0.0 130:0.0 131:0.0 132:0.0 133:0.0 134:0.0 135:0.004219409282700422 136:0.004219409282700422 137:0.0 138:0.0 139:0.0 140:0.0 141:0.0 142:0.0 143:0.0 144:0.0 145:0.0 146:0.0 147:0.0 148:0.0 149:0.0 150:0.0 151:0.0 152:0.0 153:0.004219409282700422 154:0.0 155:0.0 156:0.0 157:0.0 158:0.0 159:0.0 160:0.004219409282700422 
1.0 1:0.05274725274725275 2:0.002197802197802198 3:0.0 4:0.0 5:0.0 6:0.0 7:0.008791208791208791 8:0.002197802197802198 9:0.002197802197802198 10:0.0 11:0.017582417582417582 12:0.002197802197802198 13:0.0 14:0.0 15:0.002197802197802198 16:0.0 17:0.015384615384615385 18:0.0 19:0.015384615384615385 20:0.004395604395604396 21:0.0 22:0.002197802197802198 23:0.01098901098901099 24:0.002197802197802198 25:0.0 26:0.017582417582417582 27:0.0 28:0.0 29:0.004395604395604396 30:0.4945054945054945 31:0.0 32:0.0 33:0.0 34:0.0 35:0.0 36:0.004395604395604396 37:0.0 38:0.004395604395604396 39:0.0 40:0.0 41:0.01098901098901099 42:0.0 43:0.0 44:0.002197802197802198 45:0.0 46:0.002197802197802198 47:0.002197802197802198 48:0.0 49:0.0 50:0.0 51:0.002197802197802198 52:0.0 53:0.004395604395604396 54:0.002197802197802198 55:0.002197802197802198 56:0.017582417582417582 57:0.0 58:0.004395604395604396 59:0.008791208791208791 60:0.004395604395604396 61:0.002197802197802198 62:0.0 63:0.0 64:0.0 65:0.002197802197802198 66:0.004395604395604396 67:0.0 68:0.0 69:0.0 70:0.013186813186813187 71:0.0 72:0.008791208791208791 73:0.0 74:0.0 75:0.0 76:0.0 77:0.0 78:0.0 79:0.002197802197802198 80:0.0 81:0.004395604395604396 82:0.002197802197802198 83:0.0 84:0.0 85:0.04395604395604396 86:0.006593406593406593 87:0.006593406593406593 88:0.0 89:0.002197802197802198 90:0.002197802197802198 91:0.0 92:0.0 93:0.0 94:0.0 95:0.0 96:0.0 97:0.0 98:0.004395604395604396 99:0.006593406593406593 100:0.02197802197802198 101:0.0 102:0.002197802197802198 103:0.0 104:0.002197802197802198 105:0.0 106:0.0 107:0.0 108:0.008791208791208791 109:0.0 110:0.0 111:0.0 112:0.002197802197802198 113:0.008791208791208791 114:0.0 115:0.0 116:0.0 117:0.0 118:0.0 119:0.01098901098901099 120:0.0 121:0.013186813186813187 122:0.008791208791208791 123:0.0 124:0.0 125:0.0 126:0.01098901098901099 127:0.0 128:0.0 129:0.004395604395604396 130:0.0 131:0.0 132:0.0 133:0.0 134:0.0 135:0.002197802197802198 136:0.04835164835164835 137:0.0 138:0.0 139:0.0 140:0.0 141:0.008791208791208791 142:0.0 143:0.0 144:0.0 145:0.0 146:0.0 147:0.0 148:0.0 149:0.0 150:0.0 151:0.0 152:0.0 153:0.002197802197802198 154:0.0 155:0.0 156:0.0 157:0.0 158:0.0 159:0.0 160:0.002197802197802198 
1.0 1:0.0736196319018405 2:0.0 3:0.0 4:0.0 5:0.0 6:0.0 7:0.0 8:0.0 9:0.0 10:0.0 11:0.0 12:0.0 13:0.002044989775051125 14:0.0 15:0.00408997955010225 16:0.0 17:0.0 18:0.0 19:0.002044989775051125 20:0.0 21:0.0 22:0.002044989775051125 23:0.016359918200409 24:0.0 25:0.00408997955010225 26:0.0081799591002045 27:0.0 28:0.0 29:0.00408997955010225 30:0.7995910020449898 31:0.0 32:0.0 33:0.0 34:0.0 35:0.0 36:0.00408997955010225 37:0.002044989775051125 38:0.0 39:0.0 40:0.0 41:0.0 42:0.0 43:0.0 44:0.0 45:0.0 46:0.0 47:0.0 48:0.0 49:0.0 50:0.0 51:0.0 52:0.0 53:0.0 54:0.00408997955010225 55:0.0 56:0.0 57:0.0 58:0.0 59:0.00408997955010225 60:0.0 61:0.002044989775051125 62:0.0 63:0.0 64:0.0 65:0.0 66:0.0 67:0.0 68:0.00408997955010225 69:0.0 70:0.0 71:0.0 72:0.0 73:0.0 74:0.0 75:0.0 76:0.0 77:0.0 78:0.002044989775051125 79:0.0 80:0.0 81:0.0 82:0.0 83:0.0 84:0.0 85:0.016359918200409 86:0.0 87:0.00408997955010225 88:0.0 89:0.0 90:0.002044989775051125 91:0.0 92:0.0 93:0.0 94:0.0 95:0.0 96:0.0 97:0.0 98:0.0 99:0.00408997955010225 100:0.0 101:0.0 102:0.0 103:0.0 104:0.0 105:0.0 106:0.0 107:0.0 108:0.0 109:0.0 110:0.00408997955010225 111:0.0 112:0.0 113:0.006134969325153374 114:0.0 115:0.0 116:0.0 117:0.0 118:0.0 119:0.00408997955010225 120:0.0 121:0.0 122:0.0 123:0.0 124:0.0 125:0.0 126:0.0 127:0.0 128:0.0 129:0.0081799591002045 130:0.0 131:0.0 132:0.0 133:0.0 134:0.0 135:0.0 136:0.0 137:0.0 138:0.0 139:0.0 140:0.0 141:0.00408997955010225 142:0.0 143:0.0 144:0.0 145:0.0 146:0.0 147:0.0 148:0.0 149:0.0 150:0.0 151:0.0 152:0.0 153:0.00408997955010225 154:0.0 155:0.0 156:0.0 157:0.0 158:0.0 159:0.00408997955010225 160:0.0 
1.0 1:0.07331975560081466 2:0.0 3:0.0 4:0.0 5:0.0 6:0.0 7:0.0 8:0.0 9:0.0 10:0.0 11:0.0 12:0.0 13:0.002036659877800407 14:0.0 15:0.004073319755600814 16:0.0 17:0.0 18:0.0 19:0.002036659877800407 20:0.0 21:0.0 22:0.002036659877800407 23:0.016293279022403257 24:0.0 25:0.004073319755600814 26:0.008146639511201629 27:0.0 28:0.0 29:0.004073319755600814 30:0.8004073319755601 31:0.0 32:0.0 33:0.0 34:0.0 35:0.0 36:0.004073319755600814 37:0.002036659877800407 38:0.0 39:0.0 40:0.0 41:0.0 42:0.0 43:0.0 44:0.0 45:0.0 46:0.0 47:0.0 48:0.0 49:0.0 50:0.0 51:0.0 52:0.0 53:0.0 54:0.004073319755600814 55:0.0 56:0.0 57:0.0 58:0.0 59:0.004073319755600814 60:0.0 61:0.002036659877800407 62:0.0 63:0.0 64:0.0 65:0.0 66:0.0 67:0.0 68:0.004073319755600814 69:0.0 70:0.0 71:0.0 72:0.0 73:0.0 74:0.0 75:0.0 76:0.0 77:0.0 78:0.002036659877800407 79:0.0 80:0.0 81:0.0 82:0.0 83:0.0 84:0.0 85:0.016293279022403257 86:0.0 87:0.004073319755600814 88:0.0 89:0.0 90:0.002036659877800407 91:0.0 92:0.0 93:0.0 94:0.0 95:0.0 96:0.0 97:0.0 98:0.0 99:0.004073319755600814 100:0.0 101:0.0 102:0.0 103:0.0 104:0.0 105:0.0 106:0.0 107:0.0 108:0.0 109:0.0 110:0.004073319755600814 111:0.0 112:0.0 113:0.006109979633401222 114:0.0 115:0.0 116:0.0 117:0.0 118:0.0 119:0.004073319755600814 120:0.0 121:0.0 122:0.0 123:0.0 124:0.0 125:0.0 126:0.0 127:0.0 128:0.0 129:0.008146639511201629 130:0.0 131:0.0 132:0.0 133:0.0 134:0.0 135:0.0 136:0.0 137:0.0 138:0.0 139:0.0 140:0.0 141:0.004073319755600814 142:0.0 143:0.0 144:0.0 145:0.0 146:0.0 147:0.0 148:0.0 149:0.0 150:0.0 151:0.0 152:0.0 153:0.004073319755600814 154:0.0 155:0.0 156:0.0 157:0.0 158:0.0 159:0.004073319755600814 160:0.0 
1.0 1:0.016877637130801686 2:0.004219409282700422 3:0.0 4:0.008438818565400843 5:0.0 6:0.0 7:0.008438818565400843 8:0.0 9:0.0 10:0.0 11:0.004219409282700422 12:0.004219409282700422 13:0.004219409282700422 14:0.0 15:0.0 16:0.0 17:0.0 18:0.004219409282700422 19:0.0 20:0.0 21:0.0 22:0.0 23:0.004219409282700422 24:0.0 25:0.008438818565400843 26:0.008438818565400843 27:0.0 28:0.004219409282700422 29:0.0 30:0.7974683544303798 31:0.0 32:0.0 33:0.0 34:0.0 35:0.0 36:0.0 37:0.0 38:0.004219409282700422 39:0.0 40:0.0 41:0.0 42:0.0 43:0.0 44:0.004219409282700422 45:0.0 46:0.0 47:0.004219409282700422 48:0.0 49:0.0 50:0.0 51:0.004219409282700422 52:0.0 53:0.0 54:0.0 55:0.0 56:0.004219409282700422 57:0.004219409282700422 58:0.004219409282700422 59:0.0 60:0.0 61:0.0 62:0.0 63:0.0 64:0.0 65:0.0 66:0.0 67:0.0 68:0.0 69:0.0 70:0.0 71:0.004219409282700422 72:0.004219409282700422 73:0.004219409282700422 74:0.0 75:0.0 76:0.004219409282700422 77:0.0 78:0.0 79:0.0 80:0.0 81:0.008438818565400843 82:0.0 83:0.0 84:0.0 85:0.02109704641350211 86:0.0 87:0.0 88:0.0 89:0.004219409282700422 90:0.0 91:0.0 92:0.0 93:0.0 94:0.0 95:0.0 96:0.0 97:0.0 98:0.0 99:0.0 100:0.008438818565400843 101:0.0 102:0.0 103:0.0 104:0.004219409282700422 105:0.0 106:0.0 107:0.0 108:0.004219409282700422 109:0.0 110:0.0 111:0.004219409282700422 112:0.0 113:0.0 114:0.0 115:0.0 116:0.0 117:0.0 118:0.004219409282700422 119:0.0 120:0.0 121:0.0 122:0.0 123:0.0 124:0.0 125:0.0 126:0.0 127:0.0 128:0.0 129:0.0 130:0.0 131:0.0 132:0.0 133:0.0 134:0.0 135:0.004219409282700422 136:0.004219409282700422 137:0.0 138:0.0 139:0.0 140:0.0 141:0.0 142:0.0 143:0.0 144:0.0 145:0.0 146:0.0 147:0.0 148:0.0 149:0.0 150:0.0 151:0.0 152:0.0 153:0.004219409282700422 154:0.0 155:0.0 156:0.0 157:0.0 158:0.0 159:0.0 160:0.004219409282700422 
1.0 1:0.06614785992217899 2:0.0038910505836575876 3:0.0 4:0.0 5:0.0 6:0.0 7:0.0019455252918287938 8:0.0 9:0.0 10:0.0019455252918287938 11:0.005836575875486381 12:0.005836575875486381 13:0.0038910505836575876 14:0.0 15:0.0038910505836575876 16:0.0 17:0.0038910505836575876 18:0.0 19:0.0 20:0.0 21:0.0 22:0.0 23:0.0019455252918287938 24:0.0 25:0.0038910505836575876 26:0.007782101167315175 27:0.0 28:0.0038910505836575876 29:0.007782101167315175 30:0.7120622568093385 31:0.0 32:0.0 33:0.0 34:0.0 35:0.0 36:0.0038910505836575876 37:0.0038910505836575876 38:0.0 39:0.0 40:0.0 41:0.0 42:0.0 43:0.0 44:0.005836575875486381 45:0.0 46:0.0 47:0.005836575875486381 48:0.0 49:0.0 50:0.0 51:0.0 52:0.0 53:0.0 54:0.0019455252918287938 55:0.0 56:0.007782101167315175 57:0.0 58:0.0 59:0.0038910505836575876 60:0.0 61:0.0 62:0.0 63:0.0 64:0.0019455252918287938 65:0.0019455252918287938 66:0.0 67:0.0 68:0.0 69:0.0 70:0.0 71:0.0019455252918287938 72:0.005836575875486381 73:0.0019455252918287938 74:0.0 75:0.0 76:0.0 77:0.0 78:0.0019455252918287938 79:0.0019455252918287938 80:0.0 81:0.0 82:0.0 83:0.0 84:0.0 85:0.023346303501945526 86:0.005836575875486381 87:0.009727626459143969 88:0.0019455252918287938 89:0.0 90:0.0038910505836575876 91:0.0 92:0.0 93:0.0 94:0.0 95:0.005836575875486381 96:0.0 97:0.0 98:0.0 99:0.0 100:0.0 101:0.0038910505836575876 102:0.0 103:0.0 104:0.0038910505836575876 105:0.0038910505836575876 106:0.0 107:0.0 108:0.0019455252918287938 109:0.0 110:0.0 111:0.0019455252918287938 112:0.0019455252918287938 113:0.0038910505836575876 114:0.0 115:0.0 116:0.0 117:0.0 118:0.0 119:0.0 120:0.0019455252918287938 121:0.009727626459143969 122:0.013618677042801557 123:0.0 124:0.0 125:0.0 126:0.0019455252918287938 127:0.0 128:0.0 129:0.0 130:0.0038910505836575876 131:0.0 132:0.0 133:0.0 134:0.0 135:0.0 136:0.0019455252918287938 137:0.0019455252918287938 138:0.0 139:0.0 140:0.0 141:0.0 142:0.0019455252918287938 143:0.0 144:0.0 145:0.0 146:0.0 147:0.0 148:0.0 149:0.0 150:0.0 151:0.0 152:0.0 153:0.0 154:0.0 155:0.0038910505836575876 156:0.0 157:0.0 158:0.0 159:0.0019455252918287938 160:0.0 
1.0 1:0.033126293995859216 2:0.004140786749482402 3:0.0 4:0.0 5:0.0 6:0.0 7:0.002070393374741201 8:0.0 9:0.0 10:0.002070393374741201 11:0.008281573498964804 12:0.006211180124223602 13:0.002070393374741201 14:0.0 15:0.004140786749482402 16:0.0 17:0.004140786749482402 18:0.0 19:0.0 20:0.0 21:0.0 22:0.0 23:0.002070393374741201 24:0.0 25:0.004140786749482402 26:0.002070393374741201 27:0.0 28:0.004140786749482402 29:0.008281573498964804 30:0.7784679089026915 31:0.0 32:0.0 33:0.0 34:0.0 35:0.0 36:0.004140786749482402 37:0.004140786749482402 38:0.0 39:0.0 40:0.0 41:0.0 42:0.0 43:0.0 44:0.002070393374741201 45:0.0 46:0.0 47:0.004140786749482402 48:0.0 49:0.0 50:0.0 51:0.0 52:0.0 53:0.0 54:0.002070393374741201 55:0.0 56:0.008281573498964804 57:0.0 58:0.0 59:0.004140786749482402 60:0.0 61:0.0 62:0.0 63:0.0 64:0.0 65:0.0 66:0.0 67:0.0 68:0.0 69:0.0 70:0.0 71:0.002070393374741201 72:0.006211180124223602 73:0.002070393374741201 74:0.0 75:0.0 76:0.0 77:0.0 78:0.002070393374741201 79:0.002070393374741201 80:0.0 81:0.0 82:0.0 83:0.0 84:0.0 85:0.014492753623188406 86:0.006211180124223602 87:0.008281573498964804 88:0.002070393374741201 89:0.0 90:0.004140786749482402 91:0.0 92:0.0 93:0.0 94:0.0 95:0.006211180124223602 96:0.0 97:0.0 98:0.0 99:0.0 100:0.0 101:0.006211180124223602 102:0.0 103:0.0 104:0.004140786749482402 105:0.004140786749482402 106:0.0 107:0.0 108:0.002070393374741201 109:0.0 110:0.0 111:0.002070393374741201 112:0.0 113:0.004140786749482402 114:0.0 115:0.0 116:0.0 117:0.0 118:0.0 119:0.0 120:0.002070393374741201 121:0.004140786749482402 122:0.010351966873706004 123:0.0 124:0.0 125:0.0 126:0.002070393374741201 127:0.0 128:0.0 129:0.0 130:0.004140786749482402 131:0.0 132:0.0 133:0.0 134:0.0 135:0.0 136:0.0 137:0.002070393374741201 138:0.0 139:0.0 140:0.0 141:0.0 142:0.0 143:0.0 144:0.0 145:0.0 146:0.0 147:0.0 148:0.0 149:0.0 150:0.0 151:0.0 152:0.0 153:0.0 154:0.0 155:0.002070393374741201 156:0.0 157:0.0 158:0.0 159:0.0 160:0.0 
1.0 1:0.030927835051546393 2:0.004123711340206186 3:0.0 4:0.0 5:0.0 6:0.0 7:0.002061855670103093 8:0.0 9:0.0 10:0.002061855670103093 11:0.006185567010309278 12:0.006185567010309278 13:0.002061855670103093 14:0.0 15:0.004123711340206186 16:0.0 17:0.004123711340206186 18:0.0 19:0.0 20:0.0 21:0.0 22:0.0 23:0.002061855670103093 24:0.0 25:0.004123711340206186 26:0.002061855670103093 27:0.0 28:0.004123711340206186 29:0.008247422680412371 30:0.7793814432989691 31:0.0 32:0.0 33:0.0 34:0.0 35:0.0 36:0.004123711340206186 37:0.004123711340206186 38:0.0 39:0.0 40:0.0 41:0.0 42:0.0 43:0.0 44:0.002061855670103093 45:0.0 46:0.0 47:0.004123711340206186 48:0.0 49:0.0 50:0.0 51:0.0 52:0.0 53:0.0 54:0.002061855670103093 55:0.0 56:0.008247422680412371 57:0.0 58:0.0 59:0.004123711340206186 60:0.0 61:0.0 62:0.0 63:0.0 64:0.0 65:0.0 66:0.0 67:0.0 68:0.0 69:0.0 70:0.0 71:0.002061855670103093 72:0.006185567010309278 73:0.002061855670103093 74:0.0 75:0.0 76:0.0 77:0.0 78:0.002061855670103093 79:0.002061855670103093 80:0.0 81:0.0 82:0.0 83:0.0 84:0.0 85:0.01443298969072165 86:0.006185567010309278 87:0.008247422680412371 88:0.002061855670103093 89:0.0 90:0.004123711340206186 91:0.0 92:0.0 93:0.0 94:0.0 95:0.006185567010309278 96:0.0 97:0.0 98:0.0 99:0.0 100:0.0 101:0.006185567010309278 102:0.0 103:0.0 104:0.006185567010309278 105:0.004123711340206186 106:0.0 107:0.0 108:0.002061855670103093 109:0.0 110:0.0 111:0.002061855670103093 112:0.0 113:0.004123711340206186 114:0.0 115:0.0 116:0.0 117:0.0 118:0.0 119:0.0 120:0.002061855670103093 121:0.004123711340206186 122:0.012371134020618556 123:0.0 124:0.0 125:0.0 126:0.002061855670103093 127:0.0 128:0.0 129:0.0 130:0.004123711340206186 131:0.0 132:0.0 133:0.0 134:0.0 135:0.0 136:0.0 137:0.002061855670103093 138:0.0 139:0.0 140:0.0 141:0.0 142:0.0 143:0.0 144:0.0 145:0.0 146:0.0 147:0.0 148:0.0 149:0.0 150:0.0 151:0.0 152:0.0 153:0.0 154:0.0 155:0.002061855670103093 156:0.0 157:0.0 158:0.0 159:0.0 160:0.0 
1.0 1:0.05454545454545454 2:0.004545454545454545 3:0.0 4:0.0 5:0.0 6:0.0 7:0.00909090909090909 8:0.0022727272727272726 9:0.0 10:0.0 11:0.01818181818181818 12:0.0022727272727272726 13:0.0 14:0.0 15:0.0022727272727272726 16:0.0 17:0.015909090909090907 18:0.0 19:0.015909090909090907 20:0.004545454545454545 21:0.0 22:0.0022727272727272726 23:0.011363636363636364 24:0.0022727272727272726 25:0.0 26:0.01818181818181818 27:0.0 28:0.0 29:0.004545454545454545 30:0.4772727272727273 31:0.0 32:0.0 33:0.0 34:0.0 35:0.0 36:0.004545454545454545 37:0.0 38:0.004545454545454545 39:0.0 40:0.0 41:0.011363636363636364 42:0.0 43:0.0 44:0.0022727272727272726 45:0.0 46:0.0022727272727272726 47:0.0022727272727272726 48:0.0 49:0.0 50:0.0 51:0.0022727272727272726 52:0.0 53:0.004545454545454545 54:0.0022727272727272726 55:0.0022727272727272726 56:0.01818181818181818 57:0.0 58:0.004545454545454545 59:0.00909090909090909 60:0.004545454545454545 61:0.0022727272727272726 62:0.0 63:0.0 64:0.0 65:0.0022727272727272726 66:0.004545454545454545 67:0.0 68:0.0 69:0.0 70:0.013636363636363636 71:0.0 72:0.00909090909090909 73:0.0 74:0.0 75:0.0 76:0.0 77:0.0 78:0.0 79:0.0022727272727272726 80:0.0 81:0.004545454545454545 82:0.0 83:0.0 84:0.0 85:0.045454545454545456 86:0.006818181818181818 87:0.006818181818181818 88:0.0 89:0.0022727272727272726 90:0.004545454545454545 91:0.0 92:0.0 93:0.0 94:0.0 95:0.0 96:0.0 97:0.0 98:0.004545454545454545 99:0.006818181818181818 100:0.022727272727272728 101:0.0 102:0.0022727272727272726 103:0.0 104:0.0022727272727272726 105:0.0 106:0.0 107:0.0 108:0.00909090909090909 109:0.0 110:0.0 111:0.0 112:0.0022727272727272726 113:0.00909090909090909 114:0.0 115:0.0 116:0.0 117:0.0 118:0.0 119:0.011363636363636364 120:0.0 121:0.013636363636363636 122:0.00909090909090909 123:0.0 124:0.0 125:0.0 126:0.011363636363636364 127:0.0 128:0.0 129:0.004545454545454545 130:0.0 131:0.0 132:0.0 133:0.0 134:0.0 135:0.0022727272727272726 136:0.05 137:0.0 138:0.0 139:0.0 140:0.0 141:0.00909090909090909 142:0.0 143:0.0 144:0.0 145:0.0 146:0.0 147:0.0 148:0.0 149:0.0 150:0.0 151:0.0 152:0.0 153:0.0022727272727272726 154:0.0 155:0.0 156:0.0 157:0.0 158:0.0 159:0.0 160:0.0022727272727272726 
1.0 1:0.08469945355191257 2:0.00546448087431694 3:0.0 4:0.0 5:0.0 6:0.0 7:0.0 8:0.0 9:0.0 10:0.0 11:0.0 12:0.00819672131147541 13:0.0 14:0.0 15:0.0 16:0.0 17:0.0 18:0.0 19:0.0 20:0.0 21:0.0 22:0.0 23:0.0 24:0.0 25:0.00273224043715847 26:0.00273224043715847 27:0.0 28:0.01092896174863388 29:0.0 30:0.8142076502732241 31:0.0 32:0.0 33:0.0 34:0.0 35:0.0 36:0.0 37:0.00273224043715847 38:0.0 39:0.0 40:0.0 41:0.0 42:0.0 43:0.0 44:0.0 45:0.0 46:0.00273224043715847 47:0.0 48:0.0 49:0.0 50:0.0 51:0.0 52:0.0 53:0.0 54:0.0 55:0.0 56:0.0 57:0.0 58:0.0 59:0.0 60:0.0 61:0.0 62:0.0 63:0.0 64:0.0 65:0.0 66:0.00819672131147541 67:0.0 68:0.0 69:0.0 70:0.0 71:0.0 72:0.0 73:0.0 74:0.0 75:0.0 76:0.0 77:0.0 78:0.0 79:0.00819672131147541 80:0.0 81:0.0 82:0.00273224043715847 83:0.0 84:0.0 85:0.01366120218579235 86:0.0 87:0.0 88:0.00273224043715847 89:0.0 90:0.0 91:0.0 92:0.0 93:0.0 94:0.0 95:0.0 96:0.0 97:0.0 98:0.00273224043715847 99:0.0 100:0.0 101:0.00273224043715847 102:0.0 103:0.0 104:0.0 105:0.0 106:0.0 107:0.0 108:0.00273224043715847 109:0.0 110:0.0 111:0.00273224043715847 112:0.0 113:0.00273224043715847 114:0.0 115:0.0 116:0.0 117:0.0 118:0.0 119:0.00273224043715847 120:0.0 121:0.00546448087431694 122:0.0 123:0.0 124:0.0 125:0.0 126:0.00273224043715847 127:0.0 128:0.0 129:0.0 130:0.0 131:0.0 132:0.0 133:0.0 134:0.0 135:0.00273224043715847 136:0.0 137:0.0 138:0.0 139:0.0 140:0.0 141:0.0 142:0.0 143:0.0 144:0.0 145:0.0 146:0.0 147:0.0 148:0.0 149:0.0 150:0.0 151:0.0 152:0.0 153:0.00273224043715847 154:0.0 155:0.0 156:0.0 157:0.0 158:0.0 159:0.0 160:0.0 
1.0 1:0.05454545454545454 2:0.004545454545454545 3:0.0 4:0.0 5:0.0 6:0.0 7:0.00909090909090909 8:0.0022727272727272726 9:0.0 10:0.0 11:0.01818181818181818 12:0.0022727272727272726 13:0.0 14:0.0 15:0.0022727272727272726 16:0.0 17:0.015909090909090907 18:0.0 19:0.015909090909090907 20:0.004545454545454545 21:0.0 22:0.0022727272727272726 23:0.011363636363636364 24:0.0022727272727272726 25:0.0 26:0.01818181818181818 27:0.0 28:0.0 29:0.004545454545454545 30:0.4772727272727273 31:0.0 32:0.0 33:0.0 34:0.0 35:0.0 36:0.004545454545454545 37:0.0 38:0.004545454545454545 39:0.0 40:0.0 41:0.011363636363636364 42:0.0 43:0.0 44:0.0022727272727272726 45:0.0 46:0.0022727272727272726 47:0.0022727272727272726 48:0.0 49:0.0 50:0.0 51:0.0022727272727272726 52:0.0 53:0.004545454545454545 54:0.0022727272727272726 55:0.0022727272727272726 56:0.01818181818181818 57:0.0 58:0.004545454545454545 59:0.00909090909090909 60:0.004545454545454545 61:0.0022727272727272726 62:0.0 63:0.0 64:0.0 65:0.0022727272727272726 66:0.004545454545454545 67:0.0 68:0.0 69:0.0 70:0.013636363636363636 71:0.0 72:0.00909090909090909 73:0.0 74:0.0 75:0.0 76:0.0 77:0.0 78:0.0 79:0.0022727272727272726 80:0.0 81:0.004545454545454545 82:0.0 83:0.0 84:0.0 85:0.045454545454545456 86:0.006818181818181818 87:0.006818181818181818 88:0.0 89:0.0022727272727272726 90:0.004545454545454545 91:0.0 92:0.0 93:0.0 94:0.0 95:0.0 96:0.0 97:0.0 98:0.004545454545454545 99:0.006818181818181818 100:0.022727272727272728 101:0.0 102:0.0022727272727272726 103:0.0 104:0.0022727272727272726 105:0.0 106:0.0 107:0.0 108:0.00909090909090909 109:0.0 110:0.0 111:0.0 112:0.0022727272727272726 113:0.00909090909090909 114:0.0 115:0.0 116:0.0 117:0.0 118:0.0 119:0.011363636363636364 120:0.0 121:0.013636363636363636 122:0.00909090909090909 123:0.0 124:0.0 125:0.0 126:0.011363636363636364 127:0.0 128:0.0 129:0.004545454545454545 130:0.0 131:0.0 132:0.0 133:0.0 134:0.0 135:0.0022727272727272726 136:0.05 137:0.0 138:0.0 139:0.0 140:0.0 141:0.00909090909090909 142:0.0 143:0.0 144:0.0 145:0.0 146:0.0 147:0.0 148:0.0 149:0.0 150:0.0 151:0.0 152:0.0 153:0.0022727272727272726 154:0.0 155:0.0 156:0.0 157:0.0 158:0.0 159:0.0 160:0.0022727272727272726 
1.0 1:0.06227106227106227 2:0.014652014652014652 3:0.0 4:0.0 5:0.0 6:0.0 7:0.0 8:0.0 9:0.0 10:0.0 11:0.02197802197802198 12:0.0 13:0.003663003663003663 14:0.0 15:0.0 16:0.0 17:0.0 18:0.0 19:0.0 20:0.0 21:0.0 22:0.0 23:0.01098901098901099 24:0.0 25:0.0 26:0.0 27:0.0 28:0.003663003663003663 29:0.003663003663003663 30:0.7545787545787546 31:0.0 32:0.0 33:0.0 34:0.0 35:0.0 36:0.007326007326007326 37:0.003663003663003663 38:0.014652014652014652 39:0.0 40:0.0 41:0.0 42:0.0 43:0.0 44:0.0 45:0.0 46:0.0 47:0.003663003663003663 48:0.0 49:0.0 50:0.0 51:0.0 52:0.0 53:0.0 54:0.0 55:0.0 56:0.003663003663003663 57:0.0 58:0.0 59:0.007326007326007326 60:0.003663003663003663 61:0.01098901098901099 62:0.0 63:0.0 64:0.0 65:0.0 66:0.003663003663003663 67:0.0 68:0.0 69:0.0 70:0.007326007326007326 71:0.0 72:0.0 73:0.0 74:0.0 75:0.0 76:0.003663003663003663 77:0.0 78:0.003663003663003663 79:0.0 80:0.0 81:0.0 82:0.003663003663003663 83:0.0 84:0.0 85:0.01098901098901099 86:0.0 87:0.0 88:0.0 89:0.0 90:0.003663003663003663 91:0.0 92:0.0 93:0.0 94:0.0 95:0.0 96:0.0 97:0.0 98:0.0 99:0.003663003663003663 100:0.0 101:0.0 102:0.0 103:0.0 104:0.003663003663003663 105:0.0 106:0.0 107:0.0 108:0.0 109:0.0 110:0.0 111:0.0 112:0.0 113:0.01098901098901099 114:0.0 115:0.0 116:0.0 117:0.0 118:0.0 119:0.0 120:0.0 121:0.0 122:0.0 123:0.0 124:0.0 125:0.0 126:0.0 127:0.0 128:0.0 129:0.0 130:0.0 131:0.0 132:0.0 133:0.0 134:0.0 135:0.0 136:0.007326007326007326 137:0.0 138:0.0 139:0.0 140:0.0 141:0.0 142:0.003663003663003663 143:0.0 144:0.0 145:0.0 146:0.0 147:0.0 148:0.0 149:0.0 150:0.0 151:0.0 152:0.0 153:0.003663003663003663 154:0.0 155:0.0 156:0.0 157:0.0 158:0.0 159:0.0 160:0.0 
1.0 1:0.05459057071960298 2:0.01240694789081886 3:0.0 4:0.0024813895781637717 5:0.0 6:0.0 7:0.0024813895781637717 8:0.0 9:0.0 10:0.0 11:0.019851116625310174 12:0.0 13:0.0 14:0.0 15:0.0024813895781637717 16:0.0 17:0.0 18:0.0 19:0.0 20:0.0 21:0.0 22:0.0024813895781637717 23:0.007444168734491315 24:0.0 25:0.0 26:0.0024813895781637717 27:0.0 28:0.0 29:0.0 30:0.7245657568238213 31:0.0 32:0.0 33:0.0 34:0.0 35:0.0 36:0.007444168734491315 37:0.004962779156327543 38:0.01488833746898263 39:0.0 40:0.0 41:0.0 42:0.0 43:0.0 44:0.0 45:0.0 46:0.0024813895781637717 47:0.0024813895781637717 48:0.0 49:0.0 50:0.0 51:0.0 52:0.0 53:0.0 54:0.0 55:0.0 56:0.004962779156327543 57:0.0 58:0.0 59:0.007444168734491315 60:0.0 61:0.009925558312655087 62:0.0 63:0.0 64:0.0 65:0.0 66:0.0 67:0.0 68:0.0 69:0.0 70:0.004962779156327543 71:0.0024813895781637717 72:0.0024813895781637717 73:0.0 74:0.0 75:0.0 76:0.004962779156327543 77:0.0 78:0.0024813895781637717 79:0.004962779156327543 80:0.0 81:0.004962779156327543 82:0.0 83:0.0 84:0.0 85:0.017369727047146403 86:0.0 87:0.0 88:0.009925558312655087 89:0.0 90:0.0 91:0.0 92:0.0 93:0.0 94:0.0 95:0.0 96:0.0 97:0.0 98:0.0 99:0.004962779156327543 100:0.0 101:0.0 102:0.0 103:0.0 104:0.004962779156327543 105:0.0 106:0.0 107:0.0 108:0.0 109:0.0 110:0.0 111:0.007444168734491315 112:0.0 113:0.004962779156327543 114:0.0 115:0.0 116:0.0024813895781637717 117:0.0 118:0.0 119:0.0 120:0.0 121:0.0 122:0.0 123:0.0 124:0.0 125:0.0 126:0.0 127:0.0 128:0.0 129:0.0024813895781637717 130:0.0 131:0.0 132:0.0 133:0.0 134:0.0 135:0.007444168734491315 136:0.007444168734491315 137:0.0 138:0.0 139:0.0 140:0.0 141:0.0 142:0.007444168734491315 143:0.0 144:0.0 145:0.0 146:0.0 147:0.0 148:0.0 149:0.0 150:0.0 151:0.0 152:0.0 153:0.004962779156327543 154:0.0024813895781637717 155:0.0 156:0.0 157:0.0 158:0.0 159:0.0 160:0.0024813895781637717 
1.0 1:0.05454545454545454 2:0.004545454545454545 3:0.0 4:0.0 5:0.0 6:0.0 7:0.00909090909090909 8:0.0022727272727272726 9:0.0 10:0.0 11:0.01818181818181818 12:0.0022727272727272726 13:0.0 14:0.0 15:0.0022727272727272726 16:0.0 17:0.015909090909090907 18:0.0 19:0.015909090909090907 20:0.004545454545454545 21:0.0 22:0.0022727272727272726 23:0.011363636363636364 24:0.0022727272727272726 25:0.0 26:0.01818181818181818 27:0.0 28:0.0 29:0.004545454545454545 30:0.4772727272727273 31:0.0 32:0.0 33:0.0 34:0.0 35:0.0 36:0.004545454545454545 37:0.0 38:0.004545454545454545 39:0.0 40:0.0 41:0.011363636363636364 42:0.0 43:0.0 44:0.0022727272727272726 45:0.0 46:0.0022727272727272726 47:0.0022727272727272726 48:0.0 49:0.0 50:0.0 51:0.0022727272727272726 52:0.0 53:0.004545454545454545 54:0.0022727272727272726 55:0.0022727272727272726 56:0.01818181818181818 57:0.0 58:0.004545454545454545 59:0.00909090909090909 60:0.004545454545454545 61:0.0022727272727272726 62:0.0 63:0.0 64:0.0 65:0.0022727272727272726 66:0.004545454545454545 67:0.0 68:0.0 69:0.0 70:0.013636363636363636 71:0.0 72:0.00909090909090909 73:0.0 74:0.0 75:0.0 76:0.0 77:0.0 78:0.0 79:0.0022727272727272726 80:0.0 81:0.004545454545454545 82:0.0 83:0.0 84:0.0 85:0.045454545454545456 86:0.006818181818181818 87:0.006818181818181818 88:0.0 89:0.0022727272727272726 90:0.004545454545454545 91:0.0 92:0.0 93:0.0 94:0.0 95:0.0 96:0.0 97:0.0 98:0.004545454545454545 99:0.006818181818181818 100:0.022727272727272728 101:0.0 102:0.0022727272727272726 103:0.0 104:0.0022727272727272726 105:0.0 106:0.0 107:0.0 108:0.00909090909090909 109:0.0 110:0.0 111:0.0 112:0.0022727272727272726 113:0.00909090909090909 114:0.0 115:0.0 116:0.0 117:0.0 118:0.0 119:0.011363636363636364 120:0.0 121:0.013636363636363636 122:0.00909090909090909 123:0.0 124:0.0 125:0.0 126:0.011363636363636364 127:0.0 128:0.0 129:0.004545454545454545 130:0.0 131:0.0 132:0.0 133:0.0 134:0.0 135:0.0022727272727272726 136:0.05 137:0.0 138:0.0 139:0.0 140:0.0 141:0.00909090909090909 142:0.0 143:0.0 144:0.0 145:0.0 146:0.0 147:0.0 148:0.0 149:0.0 150:0.0 151:0.0 152:0.0 153:0.0022727272727272726 154:0.0 155:0.0 156:0.0 157:0.0 158:0.0 159:0.0 160:0.0022727272727272726 
1.0 1:0.03723404255319149 2:0.0035460992907801418 3:0.0 4:0.0035460992907801418 5:0.0 6:0.0 7:0.0070921985815602835 8:0.0 9:0.0 10:0.0017730496453900709 11:0.014184397163120567 12:0.005319148936170213 13:0.0 14:0.0 15:0.0017730496453900709 16:0.0 17:0.012411347517730497 18:0.0 19:0.012411347517730497 20:0.005319148936170213 21:0.0 22:0.0 23:0.008865248226950355 24:0.0017730496453900709 25:0.0 26:0.01950354609929078 27:0.0 28:0.0017730496453900709 29:0.005319148936170213 30:0.574468085106383 31:0.0 32:0.0 33:0.0 34:0.0 35:0.0 36:0.005319148936170213 37:0.0 38:0.012411347517730497 39:0.0 40:0.0 41:0.008865248226950355 42:0.0 43:0.0 44:0.0017730496453900709 45:0.0 46:0.0017730496453900709 47:0.0017730496453900709 48:0.0 49:0.0 50:0.0 51:0.0017730496453900709 52:0.0 53:0.0035460992907801418 54:0.0017730496453900709 55:0.0 56:0.010638297872340425 57:0.0 58:0.0035460992907801418 59:0.0070921985815602835 60:0.0 61:0.0035460992907801418 62:0.0 63:0.0 64:0.0 65:0.0017730496453900709 66:0.0017730496453900709 67:0.0 68:0.0 69:0.0 70:0.010638297872340425 71:0.0 72:0.0070921985815602835 73:0.0 74:0.0 75:0.0 76:0.0 77:0.0 78:0.0035460992907801418 79:0.0 80:0.0 81:0.0017730496453900709 82:0.0 83:0.0 84:0.0 85:0.0425531914893617 86:0.0070921985815602835 87:0.0070921985815602835 88:0.0 89:0.0 90:0.0 91:0.0 92:0.0 93:0.0 94:0.0 95:0.0 96:0.0 97:0.0 98:0.0035460992907801418 99:0.005319148936170213 100:0.015957446808510637 101:0.0 102:0.0017730496453900709 103:0.0 104:0.0017730496453900709 105:0.0 106:0.0 107:0.0 108:0.0070921985815602835 109:0.0 110:0.0 111:0.0035460992907801418 112:0.0017730496453900709 113:0.010638297872340425 114:0.0 115:0.0 116:0.0 117:0.0 118:0.0 119:0.008865248226950355 120:0.0 121:0.0070921985815602835 122:0.0070921985815602835 123:0.0 124:0.0 125:0.0 126:0.012411347517730497 127:0.0 128:0.0 129:0.0017730496453900709 130:0.0 131:0.0 132:0.0 133:0.0 134:0.0 135:0.0 136:0.03546099290780142 137:0.0 138:0.0 139:0.0 140:0.0 141:0.005319148936170213 142:0.0 143:0.0 144:0.0 145:0.0 146:0.0 147:0.0 148:0.0 149:0.0 150:0.0 151:0.0 152:0.0 153:0.0035460992907801418 154:0.0017730496453900709 155:0.0 156:0.0 157:0.0 158:0.0 159:0.0 160:0.0017730496453900709 
1.0 1:0.12705882352941175 2:0.0 3:0.0 4:0.0 5:0.0 6:0.0 7:0.0 8:0.0 9:0.0 10:0.0 11:0.002352941176470588 12:0.0 13:0.01647058823529412 14:0.0 15:0.002352941176470588 16:0.0 17:0.0 18:0.0 19:0.0 20:0.0 21:0.0 22:0.0 23:0.002352941176470588 24:0.0 25:0.004705882352941176 26:0.002352941176470588 27:0.0 28:0.0 29:0.002352941176470588 30:0.7176470588235294 31:0.0 32:0.0 33:0.0 34:0.0 35:0.0 36:0.0 37:0.0 38:0.021176470588235293 39:0.0 40:0.0 41:0.0 42:0.0 43:0.0 44:0.0 45:0.0 46:0.004705882352941176 47:0.0 48:0.0 49:0.0 50:0.0 51:0.0 52:0.0 53:0.0 54:0.0 55:0.0 56:0.002352941176470588 57:0.0 58:0.004705882352941176 59:0.0 60:0.0 61:0.009411764705882352 62:0.0 63:0.0 64:0.0 65:0.0 66:0.002352941176470588 67:0.0 68:0.0 69:0.0 70:0.0 71:0.0 72:0.009411764705882352 73:0.0 74:0.0 75:0.0 76:0.0 77:0.0 78:0.0 79:0.0 80:0.0 81:0.0 82:0.0 83:0.0 84:0.0 85:0.021176470588235293 86:0.007058823529411765 87:0.002352941176470588 88:0.002352941176470588 89:0.0 90:0.0 91:0.0 92:0.0 93:0.0 94:0.0 95:0.0 96:0.0 97:0.0 98:0.0 99:0.0 100:0.0 101:0.0 102:0.0 103:0.0 104:0.004705882352941176 105:0.0 106:0.0 107:0.0 108:0.0 109:0.0 110:0.0 111:0.004705882352941176 112:0.002352941176470588 113:0.007058823529411765 114:0.0 115:0.0 116:0.0 117:0.0 118:0.002352941176470588 119:0.0 120:0.002352941176470588 121:0.0 122:0.0 123:0.0 124:0.0 125:0.0 126:0.0 127:0.0 128:0.0 129:0.002352941176470588 130:0.0 131:0.0 132:0.0 133:0.0 134:0.0 135:0.0 136:0.007058823529411765 137:0.0 138:0.0 139:0.0 140:0.0 141:0.002352941176470588 142:0.0 143:0.0 144:0.0 145:0.0 146:0.0 147:0.0 148:0.0 149:0.0 150:0.0 151:0.0 152:0.0 153:0.0 154:0.0 155:0.0 156:0.0 157:0.0 158:0.0 159:0.0 160:0.0 
1.0 1:0.1258741258741259 2:0.0 3:0.0 4:0.0 5:0.0 6:0.0 7:0.0 8:0.0 9:0.0 10:0.0 11:0.002331002331002331 12:0.0 13:0.016317016317016316 14:0.0 15:0.002331002331002331 16:0.0 17:0.0 18:0.0 19:0.0 20:0.0 21:0.0 22:0.002331002331002331 23:0.002331002331002331 24:0.0 25:0.004662004662004662 26:0.002331002331002331 27:0.0 28:0.0 29:0.002331002331002331 30:0.717948717948718 31:0.0 32:0.0 33:0.0 34:0.0 35:0.0 36:0.0 37:0.0 38:0.02097902097902098 39:0.0 40:0.0 41:0.0 42:0.0 43:0.0 44:0.0 45:0.0 46:0.004662004662004662 47:0.0 48:0.0 49:0.0 50:0.0 51:0.0 52:0.0 53:0.0 54:0.0 55:0.0 56:0.002331002331002331 57:0.0 58:0.004662004662004662 59:0.0 60:0.0 61:0.009324009324009324 62:0.0 63:0.0 64:0.0 65:0.0 66:0.002331002331002331 67:0.0 68:0.0 69:0.0 70:0.0 71:0.0 72:0.009324009324009324 73:0.0 74:0.0 75:0.0 76:0.0 77:0.0 78:0.0 79:0.0 80:0.0 81:0.0 82:0.0 83:0.0 84:0.0 85:0.02097902097902098 86:0.006993006993006993 87:0.002331002331002331 88:0.002331002331002331 89:0.0 90:0.0 91:0.0 92:0.0 93:0.0 94:0.0 95:0.0 96:0.0 97:0.0 98:0.0 99:0.0 100:0.0 101:0.0 102:0.0 103:0.0 104:0.004662004662004662 105:0.0 106:0.0 107:0.0 108:0.0 109:0.0 110:0.0 111:0.004662004662004662 112:0.002331002331002331 113:0.006993006993006993 114:0.0 115:0.0 116:0.0 117:0.0 118:0.002331002331002331 119:0.0 120:0.002331002331002331 121:0.0 122:0.0 123:0.0 124:0.0 125:0.0 126:0.0 127:0.0 128:0.0 129:0.002331002331002331 130:0.0 131:0.0 132:0.0 133:0.0 134:0.0 135:0.0 136:0.006993006993006993 137:0.0 138:0.0 139:0.0 140:0.0 141:0.002331002331002331 142:0.0 143:0.0 144:0.0 145:0.0 146:0.0 147:0.0 148:0.0 149:0.0 150:0.0 151:0.0 152:0.0 153:0.0 154:0.0 155:0.0 156:0.0 157:0.0 158:0.0 159:0.0 160:0.0 
1.0 1:0.023195876288659795 2:0.0 3:0.0 4:0.010309278350515464 5:0.0 6:0.0 7:0.005154639175257732 8:0.002577319587628866 9:0.0 10:0.002577319587628866 11:0.0 12:0.0 13:0.023195876288659795 14:0.0 15:0.005154639175257732 16:0.0 17:0.0 18:0.005154639175257732 19:0.0 20:0.0 21:0.002577319587628866 22:0.0 23:0.002577319587628866 24:0.005154639175257732 25:0.0 26:0.002577319587628866 27:0.0 28:0.002577319587628866 29:0.0 30:0.7190721649484536 31:0.0 32:0.0 33:0.0 34:0.0 35:0.0 36:0.002577319587628866 37:0.002577319587628866 38:0.005154639175257732 39:0.0 40:0.0 41:0.0 42:0.0 43:0.0 44:0.005154639175257732 45:0.0 46:0.002577319587628866 47:0.0 48:0.0 49:0.0 50:0.0 51:0.002577319587628866 52:0.0 53:0.0 54:0.002577319587628866 55:0.0 56:0.0 57:0.005154639175257732 58:0.005154639175257732 59:0.007731958762886598 60:0.002577319587628866 61:0.0 62:0.002577319587628866 63:0.0 64:0.0 65:0.002577319587628866 66:0.0 67:0.0 68:0.0 69:0.0 70:0.002577319587628866 71:0.0 72:0.0 73:0.002577319587628866 74:0.0 75:0.0 76:0.0 77:0.0 78:0.0 79:0.010309278350515464 80:0.0 81:0.002577319587628866 82:0.0 83:0.0 84:0.0 85:0.028350515463917526 86:0.010309278350515464 87:0.0 88:0.002577319587628866 89:0.0 90:0.0 91:0.0 92:0.0 93:0.0 94:0.0 95:0.0 96:0.0 97:0.0 98:0.002577319587628866 99:0.0 100:0.0 101:0.0 102:0.0 103:0.0 104:0.010309278350515464 105:0.007731958762886598 106:0.0 107:0.0 108:0.0 109:0.0 110:0.002577319587628866 111:0.010309278350515464 112:0.0 113:0.007731958762886598 114:0.0 115:0.0 116:0.0 117:0.0 118:0.005154639175257732 119:0.002577319587628866 120:0.0 121:0.0 122:0.0 123:0.0 124:0.0 125:0.0 126:0.007731958762886598 127:0.0 128:0.0 129:0.005154639175257732 130:0.0 131:0.0 132:0.0 133:0.005154639175257732 134:0.0 135:0.005154639175257732 136:0.002577319587628866 137:0.0 138:0.0 139:0.0 140:0.0 141:0.0 142:0.002577319587628866 143:0.0 144:0.0 145:0.0 146:0.0 147:0.0 148:0.0 149:0.0 150:0.002577319587628866 151:0.0 152:0.0 153:0.0 154:0.0 155:0.0 156:0.0 157:0.0 158:0.0 159:0.0 160:0.0 
1.0 1:0.0653061224489796 2:0.004081632653061225 3:0.0 4:0.004081632653061225 5:0.0 6:0.0 7:0.0 8:0.0 9:0.0 10:0.0 11:0.004081632653061225 12:0.004081632653061225 13:0.0 14:0.0 15:0.0 16:0.0 17:0.0 18:0.0 19:0.0 20:0.0 21:0.0 22:0.0 23:0.00816326530612245 24:0.0 25:0.0 26:0.0 27:0.0 28:0.0 29:0.0 30:0.7795918367346939 31:0.0 32:0.0 33:0.0 34:0.0 35:0.0 36:0.004081632653061225 37:0.0 38:0.0 39:0.0 40:0.0 41:0.0 42:0.0 43:0.0 44:0.004081632653061225 45:0.0 46:0.0 47:0.0 48:0.0 49:0.004081632653061225 50:0.0 51:0.00816326530612245 52:0.0 53:0.0 54:0.0 55:0.0 56:0.004081632653061225 57:0.0 58:0.004081632653061225 59:0.0 60:0.0 61:0.0 62:0.0 63:0.0 64:0.004081632653061225 65:0.0 66:0.004081632653061225 67:0.004081632653061225 68:0.0 69:0.0 70:0.0 71:0.0 72:0.00816326530612245 73:0.0 74:0.0 75:0.0 76:0.0 77:0.0 78:0.0 79:0.0 80:0.0 81:0.0 82:0.0 83:0.0 84:0.0 85:0.024489795918367346 86:0.0 87:0.004081632653061225 88:0.0 89:0.0 90:0.004081632653061225 91:0.0 92:0.0 93:0.0 94:0.0 95:0.0 96:0.004081632653061225 97:0.0 98:0.0 99:0.0 100:0.012244897959183673 101:0.0 102:0.0 103:0.0 104:0.004081632653061225 105:0.004081632653061225 106:0.0 107:0.0 108:0.0 109:0.0 110:0.004081632653061225 111:0.0 112:0.0 113:0.0 114:0.0 115:0.0 116:0.0 117:0.0 118:0.0 119:0.004081632653061225 120:0.0 121:0.004081632653061225 122:0.0 123:0.0 124:0.0 125:0.0 126:0.0 127:0.0 128:0.0 129:0.004081632653061225 130:0.0 131:0.0 132:0.0 133:0.0 134:0.0 135:0.0 136:0.004081632653061225 137:0.0 138:0.0 139:0.0 140:0.0 141:0.0 142:0.0 143:0.0 144:0.0 145:0.0 146:0.0 147:0.0 148:0.0 149:0.0 150:0.0 151:0.0 152:0.0 153:0.0 154:0.0 155:0.0 156:0.0 157:0.0 158:0.0 159:0.004081632653061225 160:0.0 
1.0 1:0.09925093632958802 2:0.0 3:0.0 4:0.0 5:0.0 6:0.0 7:0.013108614232209739 8:0.0 9:0.003745318352059925 10:0.0018726591760299626 11:0.0149812734082397 12:0.0 13:0.0 14:0.0 15:0.003745318352059925 16:0.0 17:0.0056179775280898875 18:0.0 19:0.00749063670411985 20:0.00749063670411985 21:0.0 22:0.0 23:0.016853932584269662 24:0.003745318352059925 25:0.0018726591760299626 26:0.016853932584269662 27:0.0 28:0.0 29:0.0018726591760299626 30:0.5468164794007491 31:0.0 32:0.0 33:0.0 34:0.0 35:0.0 36:0.0018726591760299626 37:0.0 38:0.009363295880149813 39:0.0 40:0.0 41:0.0056179775280898875 42:0.0 43:0.0 44:0.00749063670411985 45:0.0 46:0.0018726591760299626 47:0.003745318352059925 48:0.0 49:0.0 50:0.0 51:0.0018726591760299626 52:0.0 53:0.003745318352059925 54:0.0056179775280898875 55:0.0 56:0.011235955056179775 57:0.0 58:0.003745318352059925 59:0.00749063670411985 60:0.0 61:0.0018726591760299626 62:0.0018726591760299626 63:0.0 64:0.0 65:0.0018726591760299626 66:0.0056179775280898875 67:0.0 68:0.0 69:0.0 70:0.009363295880149813 71:0.0 72:0.003745318352059925 73:0.0 74:0.0 75:0.0 76:0.0 77:0.0 78:0.0018726591760299626 79:0.0 80:0.0 81:0.003745318352059925 82:0.0018726591760299626 83:0.0 84:0.0 85:0.033707865168539325 86:0.0018726591760299626 87:0.011235955056179775 88:0.0 89:0.0 90:0.0 91:0.0 92:0.0 93:0.0 94:0.0 95:0.0 96:0.0 97:0.0 98:0.0 99:0.003745318352059925 100:0.013108614232209739 101:0.0018726591760299626 102:0.0018726591760299626 103:0.0 104:0.0018726591760299626 105:0.0 106:0.0 107:0.0 108:0.011235955056179775 109:0.0 110:0.0 111:0.0 112:0.0018726591760299626 113:0.00749063670411985 114:0.0 115:0.0 116:0.0 117:0.0 118:0.0 119:0.003745318352059925 120:0.0 121:0.0149812734082397 122:0.003745318352059925 123:0.0 124:0.0 125:0.0 126:0.00749063670411985 127:0.0 128:0.0 129:0.0018726591760299626 130:0.0 131:0.0 132:0.0 133:0.0 134:0.0 135:0.003745318352059925 136:0.024344569288389514 137:0.0 138:0.0 139:0.0 140:0.0 141:0.0018726591760299626 142:0.0 143:0.0 144:0.0 145:0.0 146:0.0 147:0.0 148:0.0 149:0.0 150:0.0 151:0.0 152:0.0 153:0.003745318352059925 154:0.0018726591760299626 155:0.0 156:0.0 157:0.0 158:0.0 159:0.0 160:0.0018726591760299626 
1.0 1:0.07450980392156863 2:0.00392156862745098 3:0.0 4:0.0 5:0.0 6:0.0 7:0.0 8:0.0 9:0.0 10:0.0 11:0.0 12:0.0 13:0.00392156862745098 14:0.0 15:0.0 16:0.0 17:0.00784313725490196 18:0.00392156862745098 19:0.00784313725490196 20:0.0 21:0.0 22:0.0 23:0.00392156862745098 24:0.0 25:0.0 26:0.0 27:0.0 28:0.0 29:0.00392156862745098 30:0.803921568627451 31:0.0 32:0.0 33:0.0 34:0.0 35:0.0 36:0.00392156862745098 37:0.00392156862745098 38:0.00392156862745098 39:0.0 40:0.0 41:0.0 42:0.0 43:0.0 44:0.0 45:0.0 46:0.0 47:0.0 48:0.0 49:0.0 50:0.0 51:0.0 52:0.0 53:0.0 54:0.00392156862745098 55:0.0 56:0.00392156862745098 57:0.0 58:0.0 59:0.0 60:0.0 61:0.0 62:0.0 63:0.0 64:0.0 65:0.0 66:0.00392156862745098 67:0.0 68:0.00392156862745098 69:0.0 70:0.00392156862745098 71:0.0 72:0.0 73:0.00784313725490196 74:0.00784313725490196 75:0.0 76:0.0 77:0.0 78:0.0 79:0.0 80:0.0 81:0.00392156862745098 82:0.0 83:0.0 84:0.0 85:0.00784313725490196 86:0.0 87:0.00392156862745098 88:0.0 89:0.0 90:0.0 91:0.0 92:0.0 93:0.0 94:0.0 95:0.0 96:0.0 97:0.0 98:0.0 99:0.0 100:0.0 101:0.0 102:0.0 103:0.00392156862745098 104:0.00392156862745098 105:0.0 106:0.0 107:0.0 108:0.00392156862745098 109:0.0 110:0.0 111:0.00392156862745098 112:0.0 113:0.0 114:0.0 115:0.0 116:0.0 117:0.0 118:0.0 119:0.0 120:0.0 121:0.0 122:0.00392156862745098 123:0.0 124:0.0 125:0.0 126:0.0 127:0.0 128:0.0 129:0.0 130:0.0 131:0.0 132:0.0 133:0.0 134:0.0 135:0.0 136:0.0 137:0.0 138:0.0 139:0.0 140:0.0 141:0.0 142:0.0 143:0.0 144:0.0 145:0.0 146:0.0 147:0.0 148:0.0 149:0.0 150:0.0 151:0.0 152:0.0 153:0.00392156862745098 154:0.0 155:0.0 156:0.0 157:0.0 158:0.0 159:0.0 160:0.0 
1.0 1:0.15384615384615385 2:0.005494505494505495 3:0.0 4:0.0 5:0.0 6:0.0 7:0.0 8:0.0 9:0.0 10:0.0 11:0.01098901098901099 12:0.0 13:0.0 14:0.0 15:0.0 16:0.0 17:0.0 18:0.0 19:0.005494505494505495 20:0.0 21:0.0 22:0.0 23:0.0 24:0.0 25:0.0 26:0.0 27:0.0 28:0.0 29:0.0 30:0.7912087912087912 31:0.0 32:0.0 33:0.0 34:0.0 35:0.0 36:0.0 37:0.0 38:0.0 39:0.0 40:0.0 41:0.0 42:0.0 43:0.0 44:0.0 45:0.0 46:0.0 47:0.0 48:0.0 49:0.0 50:0.0 51:0.0 52:0.0 53:0.0 54:0.0 55:0.0 56:0.005494505494505495 57:0.0 58:0.0 59:0.0 60:0.0 61:0.005494505494505495 62:0.0 63:0.0 64:0.0 65:0.0 66:0.0 67:0.0 68:0.0 69:0.0 70:0.0 71:0.0 72:0.0 73:0.0 74:0.0 75:0.0 76:0.0 77:0.0 78:0.0 79:0.0 80:0.0 81:0.0 82:0.0 83:0.0 84:0.0 85:0.005494505494505495 86:0.0 87:0.0 88:0.005494505494505495 89:0.0 90:0.0 91:0.0 92:0.0 93:0.0 94:0.0 95:0.0 96:0.0 97:0.0 98:0.0 99:0.0 100:0.005494505494505495 101:0.0 102:0.0 103:0.0 104:0.0 105:0.0 106:0.0 107:0.0 108:0.0 109:0.0 110:0.0 111:0.0 112:0.0 113:0.0 114:0.0 115:0.0 116:0.0 117:0.0 118:0.0 119:0.0 120:0.0 121:0.0 122:0.0 123:0.0 124:0.0 125:0.0 126:0.0 127:0.0 128:0.0 129:0.0 130:0.0 131:0.0 132:0.0 133:0.0 134:0.0 135:0.0 136:0.005494505494505495 137:0.0 138:0.0 139:0.0 140:0.0 141:0.0 142:0.0 143:0.0 144:0.0 145:0.0 146:0.0 147:0.0 148:0.0 149:0.0 150:0.0 151:0.0 152:0.0 153:0.0 154:0.0 155:0.0 156:0.0 157:0.0 158:0.0 159:0.0 160:0.0 
1.0 1:0.09330143540669857 2:0.0 3:0.0 4:0.004784688995215311 5:0.0 6:0.0 7:0.0023923444976076554 8:0.0 9:0.0 10:0.0023923444976076554 11:0.0023923444976076554 12:0.007177033492822967 13:0.0215311004784689 14:0.0 15:0.0023923444976076554 16:0.0 17:0.0023923444976076554 18:0.0 19:0.007177033492822967 20:0.0 21:0.0 22:0.0023923444976076554 23:0.0023923444976076554 24:0.0 25:0.0 26:0.0 27:0.0 28:0.0 29:0.0023923444976076554 30:0.6674641148325359 31:0.0 32:0.0 33:0.0 34:0.0 35:0.0 36:0.0 37:0.0 38:0.004784688995215311 39:0.0 40:0.0 41:0.0023923444976076554 42:0.0 43:0.0 44:0.0023923444976076554 45:0.0 46:0.0 47:0.0 48:0.0 49:0.0 50:0.0 51:0.0023923444976076554 52:0.0 53:0.0 54:0.0023923444976076554 55:0.0 56:0.0 57:0.0 58:0.004784688995215311 59:0.0023923444976076554 60:0.0 61:0.004784688995215311 62:0.0023923444976076554 63:0.0 64:0.0 65:0.0023923444976076554 66:0.0 67:0.0023923444976076554 68:0.0 69:0.0 70:0.0023923444976076554 71:0.004784688995215311 72:0.004784688995215311 73:0.0023923444976076554 74:0.0023923444976076554 75:0.0 76:0.0023923444976076554 77:0.0 78:0.0023923444976076554 79:0.0 80:0.0 81:0.0 82:0.0 83:0.0 84:0.0 85:0.03588516746411483 86:0.007177033492822967 87:0.004784688995215311 88:0.0023923444976076554 89:0.0 90:0.0023923444976076554 91:0.0 92:0.0 93:0.0 94:0.0 95:0.0 96:0.0 97:0.0 98:0.0023923444976076554 99:0.0023923444976076554 100:0.011961722488038277 101:0.0 102:0.0 103:0.0023923444976076554 104:0.007177033492822967 105:0.0 106:0.0 107:0.0 108:0.0023923444976076554 109:0.0 110:0.0 111:0.004784688995215311 112:0.0 113:0.009569377990430622 114:0.0 115:0.0 116:0.0 117:0.0 118:0.0023923444976076554 119:0.0 120:0.0 121:0.009569377990430622 122:0.0023923444976076554 123:0.0 124:0.0 125:0.0 126:0.004784688995215311 127:0.0 128:0.0 129:0.0023923444976076554 130:0.0 131:0.0 132:0.0 133:0.0 134:0.0 135:0.0023923444976076554 136:0.004784688995215311 137:0.0 138:0.0 139:0.0 140:0.0 141:0.0 142:0.0 143:0.0 144:0.0 145:0.0 146:0.0 147:0.0 148:0.0 149:0.0 150:0.0 151:0.0 152:0.0 153:0.0 154:0.0 155:0.0 156:0.0 157:0.0 158:0.0 159:0.0 160:0.0 
1.0 1:0.07768924302788845 2:0.0 3:0.0 4:0.0 5:0.0 6:0.0 7:0.00199203187250996 8:0.0 9:0.0 10:0.0 11:0.00199203187250996 12:0.0099601593625498 13:0.017928286852589643 14:0.0 15:0.00199203187250996 16:0.0 17:0.00199203187250996 18:0.00199203187250996 19:0.00597609561752988 20:0.0 21:0.0 22:0.00199203187250996 23:0.00199203187250996 24:0.0 25:0.0 26:0.0 27:0.0 28:0.0 29:0.00597609561752988 30:0.7131474103585658 31:0.0 32:0.0 33:0.0 34:0.0 35:0.0 36:0.0 37:0.00199203187250996 38:0.00398406374501992 39:0.0 40:0.0 41:0.00199203187250996 42:0.0 43:0.0 44:0.0 45:0.0 46:0.0 47:0.0 48:0.0 49:0.0 50:0.0 51:0.00199203187250996 52:0.0 53:0.0 54:0.0 55:0.0 56:0.0 57:0.0 58:0.00398406374501992 59:0.00199203187250996 60:0.0 61:0.00398406374501992 62:0.0 63:0.0 64:0.0 65:0.0 66:0.0 67:0.00199203187250996 68:0.0 69:0.0 70:0.00398406374501992 71:0.00398406374501992 72:0.00398406374501992 73:0.00199203187250996 74:0.00199203187250996 75:0.0 76:0.00199203187250996 77:0.0 78:0.00199203187250996 79:0.0 80:0.0 81:0.0 82:0.0 83:0.0 84:0.0 85:0.03187250996015936 86:0.00597609561752988 87:0.00398406374501992 88:0.00199203187250996 89:0.0 90:0.00199203187250996 91:0.0 92:0.0 93:0.0 94:0.0 95:0.0 96:0.0 97:0.0 98:0.00199203187250996 99:0.00398406374501992 100:0.0099601593625498 101:0.0 102:0.0 103:0.00199203187250996 104:0.00398406374501992 105:0.0 106:0.0 107:0.0 108:0.00199203187250996 109:0.0 110:0.0 111:0.00398406374501992 112:0.0 113:0.00597609561752988 114:0.0 115:0.0 116:0.0 117:0.0 118:0.00199203187250996 119:0.0 120:0.00199203187250996 121:0.00796812749003984 122:0.00398406374501992 123:0.0 124:0.0 125:0.0 126:0.00398406374501992 127:0.0 128:0.0 129:0.00199203187250996 130:0.0 131:0.0 132:0.0 133:0.0 134:0.0 135:0.00398406374501992 136:0.00597609561752988 137:0.0 138:0.0 139:0.0 140:0.0 141:0.0 142:0.0 143:0.0 144:0.0 145:0.0 146:0.0 147:0.0 148:0.0 149:0.00199203187250996 150:0.0 151:0.0 152:0.0 153:0.0 154:0.0 155:0.0 156:0.0 157:0.0 158:0.0 159:0.0 160:0.0 
1.0 1:0.1185682326621924 2:0.0022371364653243847 3:0.0 4:0.0 5:0.0 6:0.0 7:0.015659955257270694 8:0.0 9:0.0022371364653243847 10:0.0022371364653243847 11:0.017897091722595078 12:0.0 13:0.0 14:0.0 15:0.0044742729306487695 16:0.0 17:0.006711409395973154 18:0.0 19:0.008948545861297539 20:0.008948545861297539 21:0.0 22:0.0 23:0.020134228187919462 24:0.0044742729306487695 25:0.0022371364653243847 26:0.020134228187919462 27:0.0 28:0.0 29:0.0022371364653243847 30:0.45861297539149887 31:0.0 32:0.0 33:0.0 34:0.0 35:0.0 36:0.0022371364653243847 37:0.0 38:0.011185682326621925 39:0.0 40:0.0 41:0.006711409395973154 42:0.0 43:0.0 44:0.008948545861297539 45:0.0 46:0.0022371364653243847 47:0.0044742729306487695 48:0.0 49:0.0 50:0.0 51:0.0022371364653243847 52:0.0 53:0.0044742729306487695 54:0.006711409395973154 55:0.0 56:0.013422818791946308 57:0.0 58:0.0044742729306487695 59:0.008948545861297539 60:0.0 61:0.0022371364653243847 62:0.0022371364653243847 63:0.0 64:0.0 65:0.0022371364653243847 66:0.006711409395973154 67:0.0 68:0.0 69:0.0 70:0.011185682326621925 71:0.0 72:0.0044742729306487695 73:0.0 74:0.0 75:0.0 76:0.0 77:0.0 78:0.0022371364653243847 79:0.0 80:0.0 81:0.0044742729306487695 82:0.0 83:0.0 84:0.0 85:0.040268456375838924 86:0.0022371364653243847 87:0.013422818791946308 88:0.0 89:0.0 90:0.0022371364653243847 91:0.0 92:0.0 93:0.0 94:0.0 95:0.0 96:0.0 97:0.0 98:0.0 99:0.0044742729306487695 100:0.015659955257270694 101:0.0022371364653243847 102:0.0022371364653243847 103:0.0 104:0.0022371364653243847 105:0.0 106:0.0 107:0.0 108:0.013422818791946308 109:0.0 110:0.0 111:0.0 112:0.0022371364653243847 113:0.008948545861297539 114:0.0 115:0.0 116:0.0 117:0.0 118:0.0 119:0.0044742729306487695 120:0.0 121:0.017897091722595078 122:0.0044742729306487695 123:0.0 124:0.0 125:0.0 126:0.008948545861297539 127:0.0 128:0.0 129:0.0022371364653243847 130:0.0 131:0.0 132:0.0 133:0.0 134:0.0 135:0.0044742729306487695 136:0.029082774049217 137:0.0 138:0.0 139:0.0 140:0.0 141:0.0022371364653243847 142:0.0 143:0.0 144:0.0 145:0.0 146:0.0 147:0.0 148:0.0 149:0.0 150:0.0 151:0.0 152:0.0 153:0.0044742729306487695 154:0.0022371364653243847 155:0.0 156:0.0 157:0.0 158:0.0 159:0.0 160:0.0022371364653243847 
1.0 1:0.125 2:0.004032258064516129 3:0.0 4:0.0020161290322580645 5:0.0 6:0.0 7:0.012096774193548387 8:0.0 9:0.0 10:0.004032258064516129 11:0.012096774193548387 12:0.0020161290322580645 13:0.0 14:0.0 15:0.0 16:0.0 17:0.008064516129032258 18:0.0 19:0.012096774193548387 20:0.008064516129032258 21:0.0 22:0.0020161290322580645 23:0.014112903225806451 24:0.0020161290322580645 25:0.0 26:0.020161290322580645 27:0.0 28:0.0 29:0.004032258064516129 30:0.5141129032258065 31:0.0 32:0.0 33:0.0 34:0.0 35:0.0 36:0.004032258064516129 37:0.0 38:0.008064516129032258 39:0.0 40:0.0 41:0.004032258064516129 42:0.0 43:0.0 44:0.0020161290322580645 45:0.0 46:0.0020161290322580645 47:0.0020161290322580645 48:0.0 49:0.0 50:0.0 51:0.004032258064516129 52:0.0 53:0.004032258064516129 54:0.008064516129032258 55:0.0 56:0.006048387096774193 57:0.0 58:0.004032258064516129 59:0.010080645161290322 60:0.004032258064516129 61:0.0 62:0.0020161290322580645 63:0.0 64:0.0 65:0.0020161290322580645 66:0.004032258064516129 67:0.0 68:0.0 69:0.0 70:0.010080645161290322 71:0.0 72:0.012096774193548387 73:0.0 74:0.0 75:0.0 76:0.0 77:0.0 78:0.0 79:0.0020161290322580645 80:0.0 81:0.0 82:0.0 83:0.0 84:0.0 85:0.028225806451612902 86:0.006048387096774193 87:0.008064516129032258 88:0.0020161290322580645 89:0.0 90:0.0020161290322580645 91:0.0 92:0.0 93:0.0 94:0.0 95:0.0 96:0.0 97:0.0 98:0.0 99:0.004032258064516129 100:0.012096774193548387 101:0.0 102:0.0020161290322580645 103:0.0 104:0.004032258064516129 105:0.0 106:0.0 107:0.0 108:0.006048387096774193 109:0.0 110:0.0 111:0.0020161290322580645 112:0.0020161290322580645 113:0.010080645161290322 114:0.0 115:0.0 116:0.0020161290322580645 117:0.0 118:0.0 119:0.004032258064516129 120:0.0 121:0.010080645161290322 122:0.004032258064516129 123:0.0 124:0.0 125:0.0 126:0.006048387096774193 127:0.0 128:0.0 129:0.0020161290322580645 130:0.0 131:0.0 132:0.0 133:0.0 134:0.0 135:0.0 136:0.03225806451612903 137:0.0 138:0.0 139:0.0 140:0.0 141:0.0020161290322580645 142:0.0 143:0.0 144:0.0 145:0.0 146:0.0 147:0.0 148:0.0 149:0.0 150:0.0020161290322580645 151:0.0 152:0.0 153:0.004032258064516129 154:0.0 155:0.0 156:0.0 157:0.0 158:0.0 159:0.0 160:0.0020161290322580645 
