svm_type one_class
kernel_type rbf
gamma 0.5
nr_class 2
total_sv 172
rho 168.2011077931524
SV
1.0 1:0.0 2:0.0 3:0.0 4:0.0 5:0.0 6:0.01079136690647482 7:0.0 8:0.0 9:0.0 10:0.0 11:0.0035971223021582736 12:0.0 13:0.0 14:0.0035971223021582736 15:0.0 16:0.0 17:0.0 18:0.0 19:0.0 20:0.014388489208633094 21:0.0 22:0.0 23:0.0 24:0.0035971223021582736 25:0.0035971223021582736 26:0.0 27:0.0 28:0.0 29:0.0 30:0.802158273381295 31:0.0 32:0.0 33:0.0 34:0.0035971223021582736 35:0.007194244604316547 36:0.0 37:0.0 38:0.0 39:0.0 40:0.0 41:0.0 42:0.0 43:0.0 44:0.0 45:0.0 46:0.0 47:0.0 48:0.0 49:0.0 50:0.0035971223021582736 51:0.014388489208633094 52:0.0 53:0.0035971223021582736 54:0.0 55:0.0 56:0.01079136690647482 57:0.0 58:0.007194244604316547 59:0.0 60:0.0 61:0.0 62:0.0 63:0.0 64:0.0 65:0.0 66:0.0035971223021582736 67:0.0035971223021582736 68:0.0 69:0.007194244604316547 70:0.0 71:0.0 72:0.0 73:0.0 74:0.01079136690647482 75:0.0 76:0.0 77:0.0035971223021582736 78:0.0 79:0.0 80:0.0 81:0.0 82:0.0 83:0.0 84:0.0 85:0.0035971223021582736 86:0.0 87:0.0 88:0.0 89:0.0 90:0.0 91:0.0 92:0.0035971223021582736 93:0.0 94:0.0 95:0.0 96:0.0 97:0.0 98:0.0 99:0.0 100:0.0 101:0.0 102:0.0035971223021582736 103:0.0 104:0.0 105:0.007194244604316547 106:0.01079136690647482 107:0.0 108:0.0035971223021582736 109:0.0 110:0.0 111:0.0 112:0.0035971223021582736 113:0.0 114:0.0 115:0.0 116:0.0 117:0.0 118:0.0035971223021582736 119:0.0 120:0.0 121:0.007194244604316547 122:0.0 123:0.0 124:0.0 125:0.0 126:0.0035971223021582736 127:0.0 128:0.0 129:0.0 130:0.0 131:0.0 132:0.0 133:0.0 134:0.0 135:0.007194244604316547 136:0.0 137:0.0 138:0.0 139:0.0 140:0.0 141:0.0 142:0.0 143:0.0 144:0.0 145:0.01079136690647482 146:0.0035971223021582736 147:0.0035971223021582736 148:0.0 149:0.0 150:0.0 151:0.0 152:0.0 153:0.0 154:0.0035971223021582736 155:0.0 156:0.0 157:0.0 158:0.0 159:0.0 160:0.0 
1.0 1:0.0 2:0.0 3:0.0 4:0.0 5:0.0 6:0.0 7:0.0 8:0.0 9:0.0 10:0.0 11:0.0 12:0.0 13:0.0 14:0.0 15:0.0 16:0.0 17:0.0 18:0.0 19:0.0 20:0.0 21:0.0 22:0.0 23:0.0 24:0.0 25:0.0 26:0.0 27:0.0 28:0.0 29:0.0 30:1.0 31:0.0 32:0.0 33:0.0 34:0.0 35:0.0 36:0.0 37:0.0 38:0.0 39:0.0 40:0.0 41:0.0 42:0.0 43:0.0 44:0.0 45:0.0 46:0.0 47:0.0 48:0.0 49:0.0 50:0.0 51:0.0 52:0.0 53:0.0 54:0.0 55:0.0 56:0.0 57:0.0 58:0.0 59:0.0 60:0.0 61:0.0 62:0.0 63:0.0 64:0.0 65:0.0 66:0.0 67:0.0 68:0.0 69:0.0 70:0.0 71:0.0 72:0.0 73:0.0 74:0.0 75:0.0 76:0.0 77:0.0 78:0.0 79:0.0 80:0.0 81:0.0 82:0.0 83:0.0 84:0.0 85:0.0 86:0.0 87:0.0 88:0.0 89:0.0 90:0.0 91:0.0 92:0.0 93:0.0 94:0.0 95:0.0 96:0.0 97:0.0 98:0.0 99:0.0 100:0.0 101:0.0 102:0.0 103:0.0 104:0.0 105:0.0 106:0.0 107:0.0 108:0.0 109:0.0 110:0.0 111:0.0 112:0.0 113:0.0 114:0.0 115:0.0 116:0.0 117:0.0 118:0.0 119:0.0 120:0.0 121:0.0 122:0.0 123:0.0 124:0.0 125:0.0 126:0.0 127:0.0 128:0.0 129:0.0 130:0.0 131:0.0 132:0.0 133:0.0 134:0.0 135:0.0 136:0.0 137:0.0 138:0.0 139:0.0 140:0.0 141:0.0 142:0.0 143:0.0 144:0.0 145:0.0 146:0.0 147:0.0 148:0.0 149:0.0 150:0.0 151:0.0 152:0.0 153:0.0 154:0.0 155:0.0 156:0.0 157:0.0 158:0.0 159:0.0 160:0.0 
1.0 1:0.0 2:0.0 3:0.0 4:0.0 5:0.0 6:0.0 7:0.0 8:0.0 9:0.0 10:0.0 11:0.0 12:0.0 13:0.0 14:0.0 15:0.0 16:0.0 17:0.0 18:0.0 19:0.0 20:0.0 21:0.0 22:0.0 23:0.0 24:0.0 25:0.0 26:0.0 27:0.0 28:0.0 29:0.0 30:1.0 31:0.0 32:0.0 33:0.0 34:0.0 35:0.0 36:0.0 37:0.0 38:0.0 39:0.0 40:0.0 41:0.0 42:0.0 43:0.0 44:0.0 45:0.0 46:0.0 47:0.0 48:0.0 49:0.0 50:0.0 51:0.0 52:0.0 53:0.0 54:0.0 55:0.0 56:0.0 57:0.0 58:0.0 59:0.0 60:0.0 61:0.0 62:0.0 63:0.0 64:0.0 65:0.0 66:0.0 67:0.0 68:0.0 69:0.0 70:0.0 71:0.0 72:0.0 73:0.0 74:0.0 75:0.0 76:0.0 77:0.0 78:0.0 79:0.0 80:0.0 81:0.0 82:0.0 83:0.0 84:0.0 85:0.0 86:0.0 87:0.0 88:0.0 89:0.0 90:0.0 91:0.0 92:0.0 93:0.0 94:0.0 95:0.0 96:0.0 97:0.0 98:0.0 99:0.0 100:0.0 101:0.0 102:0.0 103:0.0 104:0.0 105:0.0 106:0.0 107:0.0 108:0.0 109:0.0 110:0.0 111:0.0 112:0.0 113:0.0 114:0.0 115:0.0 116:0.0 117:0.0 118:0.0 119:0.0 120:0.0 121:0.0 122:0.0 123:0.0 124:0.0 125:0.0 126:0.0 127:0.0 128:0.0 129:0.0 130:0.0 131:0.0 132:0.0 133:0.0 134:0.0 135:0.0 136:0.0 137:0.0 138:0.0 139:0.0 140:0.0 141:0.0 142:0.0 143:0.0 144:0.0 145:0.0 146:0.0 147:0.0 148:0.0 149:0.0 150:0.0 151:0.0 152:0.0 153:0.0 154:0.0 155:0.0 156:0.0 157:0.0 158:0.0 159:0.0 160:0.0 
1.0 1:0.0 2:0.0 3:0.0 4:0.0 5:0.0 6:0.0 7:0.0 8:0.0 9:0.0 10:0.0 11:0.0 12:0.0 13:0.0 14:0.0 15:0.0 16:0.0 17:0.0 18:0.0 19:0.0 20:0.0 21:0.0 22:0.0 23:0.0 24:0.0 25:0.0 26:0.0 27:0.0 28:0.0 29:0.0 30:1.0 31:0.0 32:0.0 33:0.0 34:0.0 35:0.0 36:0.0 37:0.0 38:0.0 39:0.0 40:0.0 41:0.0 42:0.0 43:0.0 44:0.0 45:0.0 46:0.0 47:0.0 48:0.0 49:0.0 50:0.0 51:0.0 52:0.0 53:0.0 54:0.0 55:0.0 56:0.0 57:0.0 58:0.0 59:0.0 60:0.0 61:0.0 62:0.0 63:0.0 64:0.0 65:0.0 66:0.0 67:0.0 68:0.0 69:0.0 70:0.0 71:0.0 72:0.0 73:0.0 74:0.0 75:0.0 76:0.0 77:0.0 78:0.0 79:0.0 80:0.0 81:0.0 82:0.0 83:0.0 84:0.0 85:0.0 86:0.0 87:0.0 88:0.0 89:0.0 90:0.0 91:0.0 92:0.0 93:0.0 94:0.0 95:0.0 96:0.0 97:0.0 98:0.0 99:0.0 100:0.0 101:0.0 102:0.0 103:0.0 104:0.0 105:0.0 106:0.0 107:0.0 108:0.0 109:0.0 110:0.0 111:0.0 112:0.0 113:0.0 114:0.0 115:0.0 116:0.0 117:0.0 118:0.0 119:0.0 120:0.0 121:0.0 122:0.0 123:0.0 124:0.0 125:0.0 126:0.0 127:0.0 128:0.0 129:0.0 130:0.0 131:0.0 132:0.0 133:0.0 134:0.0 135:0.0 136:0.0 137:0.0 138:0.0 139:0.0 140:0.0 141:0.0 142:0.0 143:0.0 144:0.0 145:0.0 146:0.0 147:0.0 148:0.0 149:0.0 150:0.0 151:0.0 152:0.0 153:0.0 154:0.0 155:0.0 156:0.0 157:0.0 158:0.0 159:0.0 160:0.0 
1.0 1:0.0 2:0.0 3:0.0 4:0.0 5:0.0 6:0.0 7:0.0 8:0.0 9:0.0 10:0.0 11:0.0 12:0.0 13:0.0 14:0.0 15:0.0 16:0.0 17:0.0 18:0.0 19:0.0 20:0.0 21:0.0 22:0.0 23:0.0 24:0.0 25:0.0 26:0.0 27:0.0 28:0.0 29:0.0 30:1.0 31:0.0 32:0.0 33:0.0 34:0.0 35:0.0 36:0.0 37:0.0 38:0.0 39:0.0 40:0.0 41:0.0 42:0.0 43:0.0 44:0.0 45:0.0 46:0.0 47:0.0 48:0.0 49:0.0 50:0.0 51:0.0 52:0.0 53:0.0 54:0.0 55:0.0 56:0.0 57:0.0 58:0.0 59:0.0 60:0.0 61:0.0 62:0.0 63:0.0 64:0.0 65:0.0 66:0.0 67:0.0 68:0.0 69:0.0 70:0.0 71:0.0 72:0.0 73:0.0 74:0.0 75:0.0 76:0.0 77:0.0 78:0.0 79:0.0 80:0.0 81:0.0 82:0.0 83:0.0 84:0.0 85:0.0 86:0.0 87:0.0 88:0.0 89:0.0 90:0.0 91:0.0 92:0.0 93:0.0 94:0.0 95:0.0 96:0.0 97:0.0 98:0.0 99:0.0 100:0.0 101:0.0 102:0.0 103:0.0 104:0.0 105:0.0 106:0.0 107:0.0 108:0.0 109:0.0 110:0.0 111:0.0 112:0.0 113:0.0 114:0.0 115:0.0 116:0.0 117:0.0 118:0.0 119:0.0 120:0.0 121:0.0 122:0.0 123:0.0 124:0.0 125:0.0 126:0.0 127:0.0 128:0.0 129:0.0 130:0.0 131:0.0 132:0.0 133:0.0 134:0.0 135:0.0 136:0.0 137:0.0 138:0.0 139:0.0 140:0.0 141:0.0 142:0.0 143:0.0 144:0.0 145:0.0 146:0.0 147:0.0 148:0.0 149:0.0 150:0.0 151:0.0 152:0.0 153:0.0 154:0.0 155:0.0 156:0.0 157:0.0 158:0.0 159:0.0 160:0.0 
1.0 1:0.0 2:0.0 3:0.0 4:0.0 5:0.0 6:0.0 7:0.0 8:0.0 9:0.0 10:0.0 11:0.0 12:0.0 13:0.0 14:0.0 15:0.0 16:0.0 17:0.0 18:0.0 19:0.0 20:0.0 21:0.0 22:0.0 23:0.0 24:0.0 25:0.0 26:0.0 27:0.0 28:0.0 29:0.0 30:1.0 31:0.0 32:0.0 33:0.0 34:0.0 35:0.0 36:0.0 37:0.0 38:0.0 39:0.0 40:0.0 41:0.0 42:0.0 43:0.0 44:0.0 45:0.0 46:0.0 47:0.0 48:0.0 49:0.0 50:0.0 51:0.0 52:0.0 53:0.0 54:0.0 55:0.0 56:0.0 57:0.0 58:0.0 59:0.0 60:0.0 61:0.0 62:0.0 63:0.0 64:0.0 65:0.0 66:0.0 67:0.0 68:0.0 69:0.0 70:0.0 71:0.0 72:0.0 73:0.0 74:0.0 75:0.0 76:0.0 77:0.0 78:0.0 79:0.0 80:0.0 81:0.0 82:0.0 83:0.0 84:0.0 85:0.0 86:0.0 87:0.0 88:0.0 89:0.0 90:0.0 91:0.0 92:0.0 93:0.0 94:0.0 95:0.0 96:0.0 97:0.0 98:0.0 99:0.0 100:0.0 101:0.0 102:0.0 103:0.0 104:0.0 105:0.0 106:0.0 107:0.0 108:0.0 109:0.0 110:0.0 111:0.0 112:0.0 113:0.0 114:0.0 115:0.0 116:0.0 117:0.0 118:0.0 119:0.0 120:0.0 121:0.0 122:0.0 123:0.0 124:0.0 125:0.0 126:0.0 127:0.0 128:0.0 129:0.0 130:0.0 131:0.0 132:0.0 133:0.0 134:0.0 135:0.0 136:0.0 137:0.0 138:0.0 139:0.0 140:0.0 141:0.0 142:0.0 143:0.0 144:0.0 145:0.0 146:0.0 147:0.0 148:0.0 149:0.0 150:0.0 151:0.0 152:0.0 153:0.0 154:0.0 155:0.0 156:0.0 157:0.0 158:0.0 159:0.0 160:0.0 
1.0 1:0.0 2:0.0 3:0.0 4:0.0 5:0.0 6:0.0 7:0.0 8:0.0 9:0.0 10:0.0 11:0.0 12:0.0 13:0.0 14:0.0 15:0.0 16:0.0 17:0.0 18:0.0 19:0.0 20:0.0 21:0.0 22:0.0 23:0.0 24:0.0 25:0.0 26:0.0 27:0.0 28:0.0 29:0.0 30:1.0 31:0.0 32:0.0 33:0.0 34:0.0 35:0.0 36:0.0 37:0.0 38:0.0 39:0.0 40:0.0 41:0.0 42:0.0 43:0.0 44:0.0 45:0.0 46:0.0 47:0.0 48:0.0 49:0.0 50:0.0 51:0.0 52:0.0 53:0.0 54:0.0 55:0.0 56:0.0 57:0.0 58:0.0 59:0.0 60:0.0 61:0.0 62:0.0 63:0.0 64:0.0 65:0.0 66:0.0 67:0.0 68:0.0 69:0.0 70:0.0 71:0.0 72:0.0 73:0.0 74:0.0 75:0.0 76:0.0 77:0.0 78:0.0 79:0.0 80:0.0 81:0.0 82:0.0 83:0.0 84:0.0 85:0.0 86:0.0 87:0.0 88:0.0 89:0.0 90:0.0 91:0.0 92:0.0 93:0.0 94:0.0 95:0.0 96:0.0 97:0.0 98:0.0 99:0.0 100:0.0 101:0.0 102:0.0 103:0.0 104:0.0 105:0.0 106:0.0 107:0.0 108:0.0 109:0.0 110:0.0 111:0.0 112:0.0 113:0.0 114:0.0 115:0.0 116:0.0 117:0.0 118:0.0 119:0.0 120:0.0 121:0.0 122:0.0 123:0.0 124:0.0 125:0.0 126:0.0 127:0.0 128:0.0 129:0.0 130:0.0 131:0.0 132:0.0 133:0.0 134:0.0 135:0.0 136:0.0 137:0.0 138:0.0 139:0.0 140:0.0 141:0.0 142:0.0 143:0.0 144:0.0 145:0.0 146:0.0 147:0.0 148:0.0 149:0.0 150:0.0 151:0.0 152:0.0 153:0.0 154:0.0 155:0.0 156:0.0 157:0.0 158:0.0 159:0.0 160:0.0 
1.0 1:0.0 2:0.0 3:0.0 4:0.0 5:0.0 6:0.0 7:0.0 8:0.0 9:0.0 10:0.0 11:0.0 12:0.0 13:0.0 14:0.0 15:0.0 16:0.0 17:0.0 18:0.0 19:0.0 20:0.0 21:0.0 22:0.0 23:0.0 24:0.0 25:0.0 26:0.0 27:0.0 28:0.0 29:0.0 30:1.0 31:0.0 32:0.0 33:0.0 34:0.0 35:0.0 36:0.0 37:0.0 38:0.0 39:0.0 40:0.0 41:0.0 42:0.0 43:0.0 44:0.0 45:0.0 46:0.0 47:0.0 48:0.0 49:0.0 50:0.0 51:0.0 52:0.0 53:0.0 54:0.0 55:0.0 56:0.0 57:0.0 58:0.0 59:0.0 60:0.0 61:0.0 62:0.0 63:0.0 64:0.0 65:0.0 66:0.0 67:0.0 68:0.0 69:0.0 70:0.0 71:0.0 72:0.0 73:0.0 74:0.0 75:0.0 76:0.0 77:0.0 78:0.0 79:0.0 80:0.0 81:0.0 82:0.0 83:0.0 84:0.0 85:0.0 86:0.0 87:0.0 88:0.0 89:0.0 90:0.0 91:0.0 92:0.0 93:0.0 94:0.0 95:0.0 96:0.0 97:0.0 98:0.0 99:0.0 100:0.0 101:0.0 102:0.0 103:0.0 104:0.0 105:0.0 106:0.0 107:0.0 108:0.0 109:0.0 110:0.0 111:0.0 112:0.0 113:0.0 114:0.0 115:0.0 116:0.0 117:0.0 118:0.0 119:0.0 120:0.0 121:0.0 122:0.0 123:0.0 124:0.0 125:0.0 126:0.0 127:0.0 128:0.0 129:0.0 130:0.0 131:0.0 132:0.0 133:0.0 134:0.0 135:0.0 136:0.0 137:0.0 138:0.0 139:0.0 140:0.0 141:0.0 142:0.0 143:0.0 144:0.0 145:0.0 146:0.0 147:0.0 148:0.0 149:0.0 150:0.0 151:0.0 152:0.0 153:0.0 154:0.0 155:0.0 156:0.0 157:0.0 158:0.0 159:0.0 160:0.0 
1.0 1:0.0 2:0.0 3:0.0 4:0.0 5:0.0 6:0.0 7:0.0 8:0.0 9:0.0 10:0.0 11:0.0 12:0.0 13:0.0 14:0.0 15:0.0 16:0.0 17:0.0 18:0.0 19:0.0 20:0.0 21:0.0 22:0.0 23:0.0 24:0.0 25:0.0 26:0.0 27:0.0 28:0.0 29:0.0 30:1.0 31:0.0 32:0.0 33:0.0 34:0.0 35:0.0 36:0.0 37:0.0 38:0.0 39:0.0 40:0.0 41:0.0 42:0.0 43:0.0 44:0.0 45:0.0 46:0.0 47:0.0 48:0.0 49:0.0 50:0.0 51:0.0 52:0.0 53:0.0 54:0.0 55:0.0 56:0.0 57:0.0 58:0.0 59:0.0 60:0.0 61:0.0 62:0.0 63:0.0 64:0.0 65:0.0 66:0.0 67:0.0 68:0.0 69:0.0 70:0.0 71:0.0 72:0.0 73:0.0 74:0.0 75:0.0 76:0.0 77:0.0 78:0.0 79:0.0 80:0.0 81:0.0 82:0.0 83:0.0 84:0.0 85:0.0 86:0.0 87:0.0 88:0.0 89:0.0 90:0.0 91:0.0 92:0.0 93:0.0 94:0.0 95:0.0 96:0.0 97:0.0 98:0.0 99:0.0 100:0.0 101:0.0 102:0.0 103:0.0 104:0.0 105:0.0 106:0.0 107:0.0 108:0.0 109:0.0 110:0.0 111:0.0 112:0.0 113:0.0 114:0.0 115:0.0 116:0.0 117:0.0 118:0.0 119:0.0 120:0.0 121:0.0 122:0.0 123:0.0 124:0.0 125:0.0 126:0.0 127:0.0 128:0.0 129:0.0 130:0.0 131:0.0 132:0.0 133:0.0 134:0.0 135:0.0 136:0.0 137:0.0 138:0.0 139:0.0 140:0.0 141:0.0 142:0.0 143:0.0 144:0.0 145:0.0 146:0.0 147:0.0 148:0.0 149:0.0 150:0.0 151:0.0 152:0.0 153:0.0 154:0.0 155:0.0 156:0.0 157:0.0 158:0.0 159:0.0 160:0.0 
1.0 1:0.0 2:0.0 3:0.0 4:0.0 5:0.0 6:0.0 7:0.0 8:0.0 9:0.0 10:0.0 11:0.0 12:0.0 13:0.0 14:0.0 15:0.0 16:0.0 17:0.0 18:0.0 19:0.0 20:0.0 21:0.0 22:0.0 23:0.0 24:0.0 25:0.0 26:0.0 27:0.0 28:0.0 29:0.0 30:1.0 31:0.0 32:0.0 33:0.0 34:0.0 35:0.0 36:0.0 37:0.0 38:0.0 39:0.0 40:0.0 41:0.0 42:0.0 43:0.0 44:0.0 45:0.0 46:0.0 47:0.0 48:0.0 49:0.0 50:0.0 51:0.0 52:0.0 53:0.0 54:0.0 55:0.0 56:0.0 57:0.0 58:0.0 59:0.0 60:0.0 61:0.0 62:0.0 63:0.0 64:0.0 65:0.0 66:0.0 67:0.0 68:0.0 69:0.0 70:0.0 71:0.0 72:0.0 73:0.0 74:0.0 75:0.0 76:0.0 77:0.0 78:0.0 79:0.0 80:0.0 81:0.0 82:0.0 83:0.0 84:0.0 85:0.0 86:0.0 87:0.0 88:0.0 89:0.0 90:0.0 91:0.0 92:0.0 93:0.0 94:0.0 95:0.0 96:0.0 97:0.0 98:0.0 99:0.0 100:0.0 101:0.0 102:0.0 103:0.0 104:0.0 105:0.0 106:0.0 107:0.0 108:0.0 109:0.0 110:0.0 111:0.0 112:0.0 113:0.0 114:0.0 115:0.0 116:0.0 117:0.0 118:0.0 119:0.0 120:0.0 121:0.0 122:0.0 123:0.0 124:0.0 125:0.0 126:0.0 127:0.0 128:0.0 129:0.0 130:0.0 131:0.0 132:0.0 133:0.0 134:0.0 135:0.0 136:0.0 137:0.0 138:0.0 139:0.0 140:0.0 141:0.0 142:0.0 143:0.0 144:0.0 145:0.0 146:0.0 147:0.0 148:0.0 149:0.0 150:0.0 151:0.0 152:0.0 153:0.0 154:0.0 155:0.0 156:0.0 157:0.0 158:0.0 159:0.0 160:0.0 
1.0 1:0.0 2:0.0 3:0.0 4:0.0 5:0.0 6:0.0 7:0.0 8:0.0 9:0.0 10:0.0 11:0.0 12:0.0 13:0.0 14:0.0 15:0.0 16:0.0 17:0.0 18:0.0 19:0.0 20:0.0 21:0.0 22:0.0 23:0.0 24:0.0 25:0.0 26:0.0 27:0.0 28:0.0 29:0.0 30:1.0 31:0.0 32:0.0 33:0.0 34:0.0 35:0.0 36:0.0 37:0.0 38:0.0 39:0.0 40:0.0 41:0.0 42:0.0 43:0.0 44:0.0 45:0.0 46:0.0 47:0.0 48:0.0 49:0.0 50:0.0 51:0.0 52:0.0 53:0.0 54:0.0 55:0.0 56:0.0 57:0.0 58:0.0 59:0.0 60:0.0 61:0.0 62:0.0 63:0.0 64:0.0 65:0.0 66:0.0 67:0.0 68:0.0 69:0.0 70:0.0 71:0.0 72:0.0 73:0.0 74:0.0 75:0.0 76:0.0 77:0.0 78:0.0 79:0.0 80:0.0 81:0.0 82:0.0 83:0.0 84:0.0 85:0.0 86:0.0 87:0.0 88:0.0 89:0.0 90:0.0 91:0.0 92:0.0 93:0.0 94:0.0 95:0.0 96:0.0 97:0.0 98:0.0 99:0.0 100:0.0 101:0.0 102:0.0 103:0.0 104:0.0 105:0.0 106:0.0 107:0.0 108:0.0 109:0.0 110:0.0 111:0.0 112:0.0 113:0.0 114:0.0 115:0.0 116:0.0 117:0.0 118:0.0 119:0.0 120:0.0 121:0.0 122:0.0 123:0.0 124:0.0 125:0.0 126:0.0 127:0.0 128:0.0 129:0.0 130:0.0 131:0.0 132:0.0 133:0.0 134:0.0 135:0.0 136:0.0 137:0.0 138:0.0 139:0.0 140:0.0 141:0.0 142:0.0 143:0.0 144:0.0 145:0.0 146:0.0 147:0.0 148:0.0 149:0.0 150:0.0 151:0.0 152:0.0 153:0.0 154:0.0 155:0.0 156:0.0 157:0.0 158:0.0 159:0.0 160:0.0 
1.0 1:0.0 2:0.0 3:0.0 4:0.0 5:0.0 6:0.0 7:0.0 8:0.0 9:0.0 10:0.0 11:0.0 12:0.0 13:0.0 14:0.0 15:0.0 16:0.0 17:0.0 18:0.0 19:0.0 20:0.0 21:0.0 22:0.0 23:0.0 24:0.0 25:0.0 26:0.0 27:0.0 28:0.0 29:0.0 30:1.0 31:0.0 32:0.0 33:0.0 34:0.0 35:0.0 36:0.0 37:0.0 38:0.0 39:0.0 40:0.0 41:0.0 42:0.0 43:0.0 44:0.0 45:0.0 46:0.0 47:0.0 48:0.0 49:0.0 50:0.0 51:0.0 52:0.0 53:0.0 54:0.0 55:0.0 56:0.0 57:0.0 58:0.0 59:0.0 60:0.0 61:0.0 62:0.0 63:0.0 64:0.0 65:0.0 66:0.0 67:0.0 68:0.0 69:0.0 70:0.0 71:0.0 72:0.0 73:0.0 74:0.0 75:0.0 76:0.0 77:0.0 78:0.0 79:0.0 80:0.0 81:0.0 82:0.0 83:0.0 84:0.0 85:0.0 86:0.0 87:0.0 88:0.0 89:0.0 90:0.0 91:0.0 92:0.0 93:0.0 94:0.0 95:0.0 96:0.0 97:0.0 98:0.0 99:0.0 100:0.0 101:0.0 102:0.0 103:0.0 104:0.0 105:0.0 106:0.0 107:0.0 108:0.0 109:0.0 110:0.0 111:0.0 112:0.0 113:0.0 114:0.0 115:0.0 116:0.0 117:0.0 118:0.0 119:0.0 120:0.0 121:0.0 122:0.0 123:0.0 124:0.0 125:0.0 126:0.0 127:0.0 128:0.0 129:0.0 130:0.0 131:0.0 132:0.0 133:0.0 134:0.0 135:0.0 136:0.0 137:0.0 138:0.0 139:0.0 140:0.0 141:0.0 142:0.0 143:0.0 144:0.0 145:0.0 146:0.0 147:0.0 148:0.0 149:0.0 150:0.0 151:0.0 152:0.0 153:0.0 154:0.0 155:0.0 156:0.0 157:0.0 158:0.0 159:0.0 160:0.0 
1.0 1:0.0 2:0.0 3:0.0 4:0.0 5:0.0 6:0.0 7:0.0 8:0.0 9:0.0 10:0.0 11:0.0 12:0.0 13:0.0 14:0.0 15:0.0 16:0.0 17:0.0 18:0.0 19:0.0 20:0.0 21:0.0 22:0.0 23:0.0 24:0.0 25:0.0 26:0.0 27:0.0 28:0.0 29:0.0 30:1.0 31:0.0 32:0.0 33:0.0 34:0.0 35:0.0 36:0.0 37:0.0 38:0.0 39:0.0 40:0.0 41:0.0 42:0.0 43:0.0 44:0.0 45:0.0 46:0.0 47:0.0 48:0.0 49:0.0 50:0.0 51:0.0 52:0.0 53:0.0 54:0.0 55:0.0 56:0.0 57:0.0 58:0.0 59:0.0 60:0.0 61:0.0 62:0.0 63:0.0 64:0.0 65:0.0 66:0.0 67:0.0 68:0.0 69:0.0 70:0.0 71:0.0 72:0.0 73:0.0 74:0.0 75:0.0 76:0.0 77:0.0 78:0.0 79:0.0 80:0.0 81:0.0 82:0.0 83:0.0 84:0.0 85:0.0 86:0.0 87:0.0 88:0.0 89:0.0 90:0.0 91:0.0 92:0.0 93:0.0 94:0.0 95:0.0 96:0.0 97:0.0 98:0.0 99:0.0 100:0.0 101:0.0 102:0.0 103:0.0 104:0.0 105:0.0 106:0.0 107:0.0 108:0.0 109:0.0 110:0.0 111:0.0 112:0.0 113:0.0 114:0.0 115:0.0 116:0.0 117:0.0 118:0.0 119:0.0 120:0.0 121:0.0 122:0.0 123:0.0 124:0.0 125:0.0 126:0.0 127:0.0 128:0.0 129:0.0 130:0.0 131:0.0 132:0.0 133:0.0 134:0.0 135:0.0 136:0.0 137:0.0 138:0.0 139:0.0 140:0.0 141:0.0 142:0.0 143:0.0 144:0.0 145:0.0 146:0.0 147:0.0 148:0.0 149:0.0 150:0.0 151:0.0 152:0.0 153:0.0 154:0.0 155:0.0 156:0.0 157:0.0 158:0.0 159:0.0 160:0.0 
1.0 1:0.0 2:0.0 3:0.0 4:0.0 5:0.0 6:0.0 7:0.0 8:0.0 9:0.0 10:0.0 11:0.0 12:0.0 13:0.0 14:0.0 15:0.0 16:0.0 17:0.0 18:0.0 19:0.0 20:0.0 21:0.0 22:0.0 23:0.0 24:0.0 25:0.0 26:0.0 27:0.0 28:0.0 29:0.0 30:1.0 31:0.0 32:0.0 33:0.0 34:0.0 35:0.0 36:0.0 37:0.0 38:0.0 39:0.0 40:0.0 41:0.0 42:0.0 43:0.0 44:0.0 45:0.0 46:0.0 47:0.0 48:0.0 49:0.0 50:0.0 51:0.0 52:0.0 53:0.0 54:0.0 55:0.0 56:0.0 57:0.0 58:0.0 59:0.0 60:0.0 61:0.0 62:0.0 63:0.0 64:0.0 65:0.0 66:0.0 67:0.0 68:0.0 69:0.0 70:0.0 71:0.0 72:0.0 73:0.0 74:0.0 75:0.0 76:0.0 77:0.0 78:0.0 79:0.0 80:0.0 81:0.0 82:0.0 83:0.0 84:0.0 85:0.0 86:0.0 87:0.0 88:0.0 89:0.0 90:0.0 91:0.0 92:0.0 93:0.0 94:0.0 95:0.0 96:0.0 97:0.0 98:0.0 99:0.0 100:0.0 101:0.0 102:0.0 103:0.0 104:0.0 105:0.0 106:0.0 107:0.0 108:0.0 109:0.0 110:0.0 111:0.0 112:0.0 113:0.0 114:0.0 115:0.0 116:0.0 117:0.0 118:0.0 119:0.0 120:0.0 121:0.0 122:0.0 123:0.0 124:0.0 125:0.0 126:0.0 127:0.0 128:0.0 129:0.0 130:0.0 131:0.0 132:0.0 133:0.0 134:0.0 135:0.0 136:0.0 137:0.0 138:0.0 139:0.0 140:0.0 141:0.0 142:0.0 143:0.0 144:0.0 145:0.0 146:0.0 147:0.0 148:0.0 149:0.0 150:0.0 151:0.0 152:0.0 153:0.0 154:0.0 155:0.0 156:0.0 157:0.0 158:0.0 159:0.0 160:0.0 
1.0 1:0.0 2:0.0 3:0.0 4:0.0 5:0.0 6:0.0 7:0.0 8:0.0 9:0.0 10:0.0 11:0.0 12:0.0 13:0.0 14:0.0 15:0.0 16:0.0 17:0.0 18:0.0 19:0.0 20:0.0 21:0.0 22:0.0 23:0.0 24:0.0 25:0.0 26:0.0 27:0.0 28:0.0 29:0.0 30:1.0 31:0.0 32:0.0 33:0.0 34:0.0 35:0.0 36:0.0 37:0.0 38:0.0 39:0.0 40:0.0 41:0.0 42:0.0 43:0.0 44:0.0 45:0.0 46:0.0 47:0.0 48:0.0 49:0.0 50:0.0 51:0.0 52:0.0 53:0.0 54:0.0 55:0.0 56:0.0 57:0.0 58:0.0 59:0.0 60:0.0 61:0.0 62:0.0 63:0.0 64:0.0 65:0.0 66:0.0 67:0.0 68:0.0 69:0.0 70:0.0 71:0.0 72:0.0 73:0.0 74:0.0 75:0.0 76:0.0 77:0.0 78:0.0 79:0.0 80:0.0 81:0.0 82:0.0 83:0.0 84:0.0 85:0.0 86:0.0 87:0.0 88:0.0 89:0.0 90:0.0 91:0.0 92:0.0 93:0.0 94:0.0 95:0.0 96:0.0 97:0.0 98:0.0 99:0.0 100:0.0 101:0.0 102:0.0 103:0.0 104:0.0 105:0.0 106:0.0 107:0.0 108:0.0 109:0.0 110:0.0 111:0.0 112:0.0 113:0.0 114:0.0 115:0.0 116:0.0 117:0.0 118:0.0 119:0.0 120:0.0 121:0.0 122:0.0 123:0.0 124:0.0 125:0.0 126:0.0 127:0.0 128:0.0 129:0.0 130:0.0 131:0.0 132:0.0 133:0.0 134:0.0 135:0.0 136:0.0 137:0.0 138:0.0 139:0.0 140:0.0 141:0.0 142:0.0 143:0.0 144:0.0 145:0.0 146:0.0 147:0.0 148:0.0 149:0.0 150:0.0 151:0.0 152:0.0 153:0.0 154:0.0 155:0.0 156:0.0 157:0.0 158:0.0 159:0.0 160:0.0 
1.0 1:0.0 2:0.0 3:0.0 4:0.0 5:0.0 6:0.0 7:0.0 8:0.0 9:0.0 10:0.0 11:0.0 12:0.0 13:0.0 14:0.0 15:0.0 16:0.0 17:0.0 18:0.0 19:0.0 20:0.0 21:0.0 22:0.0 23:0.0 24:0.0 25:0.0 26:0.0 27:0.0 28:0.0 29:0.0 30:1.0 31:0.0 32:0.0 33:0.0 34:0.0 35:0.0 36:0.0 37:0.0 38:0.0 39:0.0 40:0.0 41:0.0 42:0.0 43:0.0 44:0.0 45:0.0 46:0.0 47:0.0 48:0.0 49:0.0 50:0.0 51:0.0 52:0.0 53:0.0 54:0.0 55:0.0 56:0.0 57:0.0 58:0.0 59:0.0 60:0.0 61:0.0 62:0.0 63:0.0 64:0.0 65:0.0 66:0.0 67:0.0 68:0.0 69:0.0 70:0.0 71:0.0 72:0.0 73:0.0 74:0.0 75:0.0 76:0.0 77:0.0 78:0.0 79:0.0 80:0.0 81:0.0 82:0.0 83:0.0 84:0.0 85:0.0 86:0.0 87:0.0 88:0.0 89:0.0 90:0.0 91:0.0 92:0.0 93:0.0 94:0.0 95:0.0 96:0.0 97:0.0 98:0.0 99:0.0 100:0.0 101:0.0 102:0.0 103:0.0 104:0.0 105:0.0 106:0.0 107:0.0 108:0.0 109:0.0 110:0.0 111:0.0 112:0.0 113:0.0 114:0.0 115:0.0 116:0.0 117:0.0 118:0.0 119:0.0 120:0.0 121:0.0 122:0.0 123:0.0 124:0.0 125:0.0 126:0.0 127:0.0 128:0.0 129:0.0 130:0.0 131:0.0 132:0.0 133:0.0 134:0.0 135:0.0 136:0.0 137:0.0 138:0.0 139:0.0 140:0.0 141:0.0 142:0.0 143:0.0 144:0.0 145:0.0 146:0.0 147:0.0 148:0.0 149:0.0 150:0.0 151:0.0 152:0.0 153:0.0 154:0.0 155:0.0 156:0.0 157:0.0 158:0.0 159:0.0 160:0.0 
1.0 1:0.0 2:0.0 3:0.0 4:0.0 5:0.0 6:0.0 7:0.0 8:0.0 9:0.0 10:0.0 11:0.0 12:0.0 13:0.0 14:0.0 15:0.0 16:0.0 17:0.0 18:0.0 19:0.0 20:0.0 21:0.0 22:0.0 23:0.0 24:0.0 25:0.0 26:0.0 27:0.0 28:0.0 29:0.0 30:1.0 31:0.0 32:0.0 33:0.0 34:0.0 35:0.0 36:0.0 37:0.0 38:0.0 39:0.0 40:0.0 41:0.0 42:0.0 43:0.0 44:0.0 45:0.0 46:0.0 47:0.0 48:0.0 49:0.0 50:0.0 51:0.0 52:0.0 53:0.0 54:0.0 55:0.0 56:0.0 57:0.0 58:0.0 59:0.0 60:0.0 61:0.0 62:0.0 63:0.0 64:0.0 65:0.0 66:0.0 67:0.0 68:0.0 69:0.0 70:0.0 71:0.0 72:0.0 73:0.0 74:0.0 75:0.0 76:0.0 77:0.0 78:0.0 79:0.0 80:0.0 81:0.0 82:0.0 83:0.0 84:0.0 85:0.0 86:0.0 87:0.0 88:0.0 89:0.0 90:0.0 91:0.0 92:0.0 93:0.0 94:0.0 95:0.0 96:0.0 97:0.0 98:0.0 99:0.0 100:0.0 101:0.0 102:0.0 103:0.0 104:0.0 105:0.0 106:0.0 107:0.0 108:0.0 109:0.0 110:0.0 111:0.0 112:0.0 113:0.0 114:0.0 115:0.0 116:0.0 117:0.0 118:0.0 119:0.0 120:0.0 121:0.0 122:0.0 123:0.0 124:0.0 125:0.0 126:0.0 127:0.0 128:0.0 129:0.0 130:0.0 131:0.0 132:0.0 133:0.0 134:0.0 135:0.0 136:0.0 137:0.0 138:0.0 139:0.0 140:0.0 141:0.0 142:0.0 143:0.0 144:0.0 145:0.0 146:0.0 147:0.0 148:0.0 149:0.0 150:0.0 151:0.0 152:0.0 153:0.0 154:0.0 155:0.0 156:0.0 157:0.0 158:0.0 159:0.0 160:0.0 
1.0 1:0.0 2:0.0 3:0.0 4:0.0 5:0.0 6:0.0 7:0.0 8:0.0 9:0.0 10:0.0 11:0.0 12:0.0 13:0.0 14:0.0 15:0.0 16:0.0 17:0.0 18:0.0 19:0.0 20:0.0 21:0.0 22:0.0 23:0.0 24:0.0 25:0.0 26:0.0 27:0.0 28:0.0 29:0.0 30:1.0 31:0.0 32:0.0 33:0.0 34:0.0 35:0.0 36:0.0 37:0.0 38:0.0 39:0.0 40:0.0 41:0.0 42:0.0 43:0.0 44:0.0 45:0.0 46:0.0 47:0.0 48:0.0 49:0.0 50:0.0 51:0.0 52:0.0 53:0.0 54:0.0 55:0.0 56:0.0 57:0.0 58:0.0 59:0.0 60:0.0 61:0.0 62:0.0 63:0.0 64:0.0 65:0.0 66:0.0 67:0.0 68:0.0 69:0.0 70:0.0 71:0.0 72:0.0 73:0.0 74:0.0 75:0.0 76:0.0 77:0.0 78:0.0 79:0.0 80:0.0 81:0.0 82:0.0 83:0.0 84:0.0 85:0.0 86:0.0 87:0.0 88:0.0 89:0.0 90:0.0 91:0.0 92:0.0 93:0.0 94:0.0 95:0.0 96:0.0 97:0.0 98:0.0 99:0.0 100:0.0 101:0.0 102:0.0 103:0.0 104:0.0 105:0.0 106:0.0 107:0.0 108:0.0 109:0.0 110:0.0 111:0.0 112:0.0 113:0.0 114:0.0 115:0.0 116:0.0 117:0.0 118:0.0 119:0.0 120:0.0 121:0.0 122:0.0 123:0.0 124:0.0 125:0.0 126:0.0 127:0.0 128:0.0 129:0.0 130:0.0 131:0.0 132:0.0 133:0.0 134:0.0 135:0.0 136:0.0 137:0.0 138:0.0 139:0.0 140:0.0 141:0.0 142:0.0 143:0.0 144:0.0 145:0.0 146:0.0 147:0.0 148:0.0 149:0.0 150:0.0 151:0.0 152:0.0 153:0.0 154:0.0 155:0.0 156:0.0 157:0.0 158:0.0 159:0.0 160:0.0 
1.0 1:0.0 2:0.0 3:0.0 4:0.0 5:0.0 6:0.0 7:0.0 8:0.0 9:0.0 10:0.0 11:0.0 12:0.0 13:0.0 14:0.0 15:0.0 16:0.0 17:0.0 18:0.0 19:0.0 20:0.0 21:0.0 22:0.0 23:0.0 24:0.0 25:0.0 26:0.0 27:0.0 28:0.0 29:0.0 30:1.0 31:0.0 32:0.0 33:0.0 34:0.0 35:0.0 36:0.0 37:0.0 38:0.0 39:0.0 40:0.0 41:0.0 42:0.0 43:0.0 44:0.0 45:0.0 46:0.0 47:0.0 48:0.0 49:0.0 50:0.0 51:0.0 52:0.0 53:0.0 54:0.0 55:0.0 56:0.0 57:0.0 58:0.0 59:0.0 60:0.0 61:0.0 62:0.0 63:0.0 64:0.0 65:0.0 66:0.0 67:0.0 68:0.0 69:0.0 70:0.0 71:0.0 72:0.0 73:0.0 74:0.0 75:0.0 76:0.0 77:0.0 78:0.0 79:0.0 80:0.0 81:0.0 82:0.0 83:0.0 84:0.0 85:0.0 86:0.0 87:0.0 88:0.0 89:0.0 90:0.0 91:0.0 92:0.0 93:0.0 94:0.0 95:0.0 96:0.0 97:0.0 98:0.0 99:0.0 100:0.0 101:0.0 102:0.0 103:0.0 104:0.0 105:0.0 106:0.0 107:0.0 108:0.0 109:0.0 110:0.0 111:0.0 112:0.0 113:0.0 114:0.0 115:0.0 116:0.0 117:0.0 118:0.0 119:0.0 120:0.0 121:0.0 122:0.0 123:0.0 124:0.0 125:0.0 126:0.0 127:0.0 128:0.0 129:0.0 130:0.0 131:0.0 132:0.0 133:0.0 134:0.0 135:0.0 136:0.0 137:0.0 138:0.0 139:0.0 140:0.0 141:0.0 142:0.0 143:0.0 144:0.0 145:0.0 146:0.0 147:0.0 148:0.0 149:0.0 150:0.0 151:0.0 152:0.0 153:0.0 154:0.0 155:0.0 156:0.0 157:0.0 158:0.0 159:0.0 160:0.0 
1.0 1:0.0 2:0.0 3:0.0 4:0.0 5:0.0 6:0.0 7:0.0 8:0.0 9:0.0 10:0.0 11:0.0 12:0.0 13:0.0 14:0.0 15:0.0 16:0.0 17:0.0 18:0.0 19:0.0 20:0.0 21:0.0 22:0.0 23:0.0 24:0.0 25:0.0 26:0.0 27:0.0 28:0.0 29:0.0 30:1.0 31:0.0 32:0.0 33:0.0 34:0.0 35:0.0 36:0.0 37:0.0 38:0.0 39:0.0 40:0.0 41:0.0 42:0.0 43:0.0 44:0.0 45:0.0 46:0.0 47:0.0 48:0.0 49:0.0 50:0.0 51:0.0 52:0.0 53:0.0 54:0.0 55:0.0 56:0.0 57:0.0 58:0.0 59:0.0 60:0.0 61:0.0 62:0.0 63:0.0 64:0.0 65:0.0 66:0.0 67:0.0 68:0.0 69:0.0 70:0.0 71:0.0 72:0.0 73:0.0 74:0.0 75:0.0 76:0.0 77:0.0 78:0.0 79:0.0 80:0.0 81:0.0 82:0.0 83:0.0 84:0.0 85:0.0 86:0.0 87:0.0 88:0.0 89:0.0 90:0.0 91:0.0 92:0.0 93:0.0 94:0.0 95:0.0 96:0.0 97:0.0 98:0.0 99:0.0 100:0.0 101:0.0 102:0.0 103:0.0 104:0.0 105:0.0 106:0.0 107:0.0 108:0.0 109:0.0 110:0.0 111:0.0 112:0.0 113:0.0 114:0.0 115:0.0 116:0.0 117:0.0 118:0.0 119:0.0 120:0.0 121:0.0 122:0.0 123:0.0 124:0.0 125:0.0 126:0.0 127:0.0 128:0.0 129:0.0 130:0.0 131:0.0 132:0.0 133:0.0 134:0.0 135:0.0 136:0.0 137:0.0 138:0.0 139:0.0 140:0.0 141:0.0 142:0.0 143:0.0 144:0.0 145:0.0 146:0.0 147:0.0 148:0.0 149:0.0 150:0.0 151:0.0 152:0.0 153:0.0 154:0.0 155:0.0 156:0.0 157:0.0 158:0.0 159:0.0 160:0.0 
1.0 1:0.0 2:0.0 3:0.0 4:0.0 5:0.0 6:0.0 7:0.0 8:0.0 9:0.0 10:0.0 11:0.0 12:0.0 13:0.0 14:0.0 15:0.0 16:0.0 17:0.0 18:0.0 19:0.0 20:0.0 21:0.0 22:0.0 23:0.0 24:0.0 25:0.0 26:0.0 27:0.0 28:0.0 29:0.0 30:1.0 31:0.0 32:0.0 33:0.0 34:0.0 35:0.0 36:0.0 37:0.0 38:0.0 39:0.0 40:0.0 41:0.0 42:0.0 43:0.0 44:0.0 45:0.0 46:0.0 47:0.0 48:0.0 49:0.0 50:0.0 51:0.0 52:0.0 53:0.0 54:0.0 55:0.0 56:0.0 57:0.0 58:0.0 59:0.0 60:0.0 61:0.0 62:0.0 63:0.0 64:0.0 65:0.0 66:0.0 67:0.0 68:0.0 69:0.0 70:0.0 71:0.0 72:0.0 73:0.0 74:0.0 75:0.0 76:0.0 77:0.0 78:0.0 79:0.0 80:0.0 81:0.0 82:0.0 83:0.0 84:0.0 85:0.0 86:0.0 87:0.0 88:0.0 89:0.0 90:0.0 91:0.0 92:0.0 93:0.0 94:0.0 95:0.0 96:0.0 97:0.0 98:0.0 99:0.0 100:0.0 101:0.0 102:0.0 103:0.0 104:0.0 105:0.0 106:0.0 107:0.0 108:0.0 109:0.0 110:0.0 111:0.0 112:0.0 113:0.0 114:0.0 115:0.0 116:0.0 117:0.0 118:0.0 119:0.0 120:0.0 121:0.0 122:0.0 123:0.0 124:0.0 125:0.0 126:0.0 127:0.0 128:0.0 129:0.0 130:0.0 131:0.0 132:0.0 133:0.0 134:0.0 135:0.0 136:0.0 137:0.0 138:0.0 139:0.0 140:0.0 141:0.0 142:0.0 143:0.0 144:0.0 145:0.0 146:0.0 147:0.0 148:0.0 149:0.0 150:0.0 151:0.0 152:0.0 153:0.0 154:0.0 155:0.0 156:0.0 157:0.0 158:0.0 159:0.0 160:0.0 
1.0 1:0.0 2:0.0 3:0.007380073800738007 4:0.01107011070110701 5:0.0 6:0.01107011070110701 7:0.0 8:0.0 9:0.0 10:0.0 11:0.0 12:0.033210332103321034 13:0.0 14:0.0 15:0.0 16:0.0 17:0.0 18:0.0 19:0.0 20:0.0 21:0.0 22:0.007380073800738007 23:0.0036900369003690036 24:0.01107011070110701 25:0.0036900369003690036 26:0.0 27:0.0 28:0.0 29:0.0 30:0.6900369003690037 31:0.0 32:0.0 33:0.0 34:0.0 35:0.007380073800738007 36:0.0 37:0.0 38:0.0 39:0.0 40:0.0 41:0.0 42:0.0 43:0.0 44:0.0036900369003690036 45:0.0 46:0.0 47:0.0 48:0.0036900369003690036 49:0.0 50:0.0036900369003690036 51:0.007380073800738007 52:0.0 53:0.0 54:0.0 55:0.0 56:0.0 57:0.0036900369003690036 58:0.0 59:0.0 60:0.0 61:0.0 62:0.0 63:0.0 64:0.007380073800738007 65:0.01107011070110701 66:0.0 67:0.0 68:0.0 69:0.0 70:0.0 71:0.0 72:0.0 73:0.0 74:0.0 75:0.0036900369003690036 76:0.0036900369003690036 77:0.0 78:0.0 79:0.0 80:0.0 81:0.0 82:0.0036900369003690036 83:0.0 84:0.0 85:0.0 86:0.0 87:0.0036900369003690036 88:0.0 89:0.0 90:0.0 91:0.0 92:0.0 93:0.0 94:0.0 95:0.0 96:0.0 97:0.0 98:0.0 99:0.0 100:0.0 101:0.0 102:0.0 103:0.0 104:0.0 105:0.0 106:0.0 107:0.0 108:0.007380073800738007 109:0.0 110:0.007380073800738007 111:0.0 112:0.0036900369003690036 113:0.0 114:0.0 115:0.0 116:0.0036900369003690036 117:0.0 118:0.01107011070110701 119:0.007380073800738007 120:0.0 121:0.0 122:0.0 123:0.0 124:0.0 125:0.0 126:0.0 127:0.0 128:0.0 129:0.0 130:0.0 131:0.0 132:0.0 133:0.0 134:0.0 135:0.0 136:0.0 137:0.0 138:0.0 139:0.0036900369003690036 140:0.0 141:0.0 142:0.0 143:0.007380073800738007 144:0.0 145:0.01845018450184502 146:0.0 147:0.0 148:0.0 149:0.0 150:0.0 151:0.0 152:0.014760147601476014 153:0.0036900369003690036 154:0.0036900369003690036 155:0.0 156:0.0 157:0.0 158:0.0036900369003690036 159:0.0 160:0.06273062730627306 
1.0 1:0.0 2:0.0 3:0.0 4:0.0 5:0.0 6:0.011406844106463879 7:0.0 8:0.0 9:0.0 10:0.0 11:0.0038022813688212928 12:0.0 13:0.0 14:0.0038022813688212928 15:0.0 16:0.0 17:0.0 18:0.0 19:0.0 20:0.015209125475285171 21:0.0 22:0.0 23:0.0 24:0.0038022813688212928 25:0.0038022813688212928 26:0.0 27:0.0 28:0.0 29:0.0 30:0.7908745247148289 31:0.0 32:0.0 33:0.0 34:0.0038022813688212928 35:0.0076045627376425855 36:0.0 37:0.0 38:0.0 39:0.0 40:0.0 41:0.0 42:0.0 43:0.0 44:0.0 45:0.0 46:0.0 47:0.0 48:0.0 49:0.0 50:0.0038022813688212928 51:0.015209125475285171 52:0.0 53:0.0038022813688212928 54:0.0 55:0.0 56:0.011406844106463879 57:0.0 58:0.0076045627376425855 59:0.0 60:0.0 61:0.0 62:0.0 63:0.0 64:0.0 65:0.0 66:0.0038022813688212928 67:0.0038022813688212928 68:0.0 69:0.0076045627376425855 70:0.0 71:0.0 72:0.0 73:0.0 74:0.011406844106463879 75:0.0 76:0.0 77:0.0038022813688212928 78:0.0 79:0.0 80:0.0 81:0.0 82:0.0 83:0.0 84:0.0 85:0.0038022813688212928 86:0.0 87:0.0 88:0.0 89:0.0 90:0.0 91:0.0 92:0.0038022813688212928 93:0.0 94:0.0 95:0.0 96:0.0 97:0.0 98:0.0 99:0.0 100:0.0 101:0.0 102:0.0038022813688212928 103:0.0 104:0.0 105:0.0076045627376425855 106:0.011406844106463879 107:0.0 108:0.0038022813688212928 109:0.0 110:0.0 111:0.0 112:0.0038022813688212928 113:0.0 114:0.0 115:0.0 116:0.0 117:0.0 118:0.0038022813688212928 119:0.0 120:0.0 121:0.0076045627376425855 122:0.0 123:0.0 124:0.0 125:0.0 126:0.0038022813688212928 127:0.0 128:0.0 129:0.0 130:0.0 131:0.0 132:0.0 133:0.0 134:0.0 135:0.0076045627376425855 136:0.0 137:0.0 138:0.0 139:0.0 140:0.0 141:0.0 142:0.0 143:0.0 144:0.0 145:0.011406844106463879 146:0.0038022813688212928 147:0.0038022813688212928 148:0.0 149:0.0 150:0.0 151:0.0 152:0.0 153:0.0 154:0.0038022813688212928 155:0.0 156:0.0 157:0.0 158:0.0 159:0.0 160:0.0 
1.0 1:0.0 2:0.0 3:0.0 4:0.0 5:0.0 6:0.010452961672473868 7:0.0 8:0.003484320557491289 9:0.0 10:0.0 11:0.003484320557491289 12:0.0 13:0.0 14:0.003484320557491289 15:0.0 16:0.0 17:0.0 18:0.0 19:0.0 20:0.013937282229965157 21:0.0 22:0.0 23:0.0 24:0.003484320557491289 25:0.003484320557491289 26:0.0 27:0.0 28:0.0 29:0.0 30:0.7909407665505227 31:0.0 32:0.0 33:0.0 34:0.003484320557491289 35:0.006968641114982578 36:0.0 37:0.0 38:0.0 39:0.0 40:0.0 41:0.0 42:0.0 43:0.0 44:0.0 45:0.0 46:0.0 47:0.0 48:0.0 49:0.0 50:0.003484320557491289 51:0.020905923344947737 52:0.0 53:0.003484320557491289 54:0.0 55:0.0 56:0.010452961672473868 57:0.0 58:0.006968641114982578 59:0.0 60:0.0 61:0.0 62:0.0 63:0.0 64:0.0 65:0.0 66:0.003484320557491289 67:0.003484320557491289 68:0.0 69:0.006968641114982578 70:0.0 71:0.0 72:0.0 73:0.0 74:0.010452961672473868 75:0.0 76:0.0 77:0.003484320557491289 78:0.0 79:0.0 80:0.0 81:0.0 82:0.0 83:0.0 84:0.0 85:0.003484320557491289 86:0.0 87:0.0 88:0.0 89:0.003484320557491289 90:0.0 91:0.0 92:0.003484320557491289 93:0.0 94:0.0 95:0.0 96:0.0 97:0.0 98:0.0 99:0.0 100:0.0 101:0.0 102:0.003484320557491289 103:0.0 104:0.0 105:0.006968641114982578 106:0.010452961672473868 107:0.0 108:0.003484320557491289 109:0.0 110:0.0 111:0.0 112:0.003484320557491289 113:0.0 114:0.0 115:0.0 116:0.0 117:0.0 118:0.003484320557491289 119:0.0 120:0.0 121:0.006968641114982578 122:0.0 123:0.0 124:0.0 125:0.0 126:0.003484320557491289 127:0.0 128:0.0 129:0.0 130:0.0 131:0.0 132:0.0 133:0.003484320557491289 134:0.0 135:0.006968641114982578 136:0.0 137:0.0 138:0.0 139:0.0 140:0.0 141:0.0 142:0.0 143:0.0 144:0.0 145:0.010452961672473868 146:0.003484320557491289 147:0.003484320557491289 148:0.0 149:0.0 150:0.0 151:0.0 152:0.0 153:0.0 154:0.003484320557491289 155:0.0 156:0.0 157:0.0 158:0.0 159:0.0 160:0.0 
1.0 1:0.0 2:0.0 3:0.004672897196261682 4:0.014018691588785047 5:0.0 6:0.002336448598130841 7:0.0 8:0.0 9:0.002336448598130841 10:0.0 11:0.0 12:0.02570093457943925 13:0.0 14:0.0 15:0.0 16:0.0 17:0.0 18:0.0 19:0.0 20:0.0 21:0.0 22:0.002336448598130841 23:0.0 24:0.007009345794392523 25:0.004672897196261682 26:0.0 27:0.0 28:0.0 29:0.0 30:0.719626168224299 31:0.004672897196261682 32:0.0 33:0.0 34:0.0 35:0.0 36:0.0 37:0.0 38:0.0 39:0.0 40:0.0 41:0.0 42:0.0 43:0.0 44:0.0 45:0.0 46:0.0 47:0.0 48:0.0 49:0.0 50:0.0 51:0.004672897196261682 52:0.0 53:0.0 54:0.0 55:0.0 56:0.002336448598130841 57:0.0 58:0.0 59:0.0 60:0.0 61:0.0 62:0.0 63:0.0 64:0.0 65:0.009345794392523364 66:0.0 67:0.0 68:0.0 69:0.0 70:0.0 71:0.0 72:0.0 73:0.0 74:0.002336448598130841 75:0.002336448598130841 76:0.0 77:0.0 78:0.0 79:0.002336448598130841 80:0.0 81:0.0 82:0.002336448598130841 83:0.0 84:0.0 85:0.0 86:0.0 87:0.004672897196261682 88:0.0 89:0.0 90:0.0 91:0.0 92:0.004672897196261682 93:0.0 94:0.0 95:0.0 96:0.0 97:0.0 98:0.0 99:0.0 100:0.0 101:0.002336448598130841 102:0.0 103:0.0 104:0.0 105:0.0 106:0.002336448598130841 107:0.0 108:0.0 109:0.0 110:0.002336448598130841 111:0.0 112:0.007009345794392523 113:0.002336448598130841 114:0.0 115:0.0 116:0.002336448598130841 117:0.0 118:0.0 119:0.002336448598130841 120:0.002336448598130841 121:0.002336448598130841 122:0.0 123:0.0 124:0.0 125:0.0 126:0.0 127:0.0 128:0.002336448598130841 129:0.0 130:0.0 131:0.0 132:0.0 133:0.0 134:0.0 135:0.0 136:0.0 137:0.0 138:0.004672897196261682 139:0.0 140:0.0 141:0.0 142:0.002336448598130841 143:0.007009345794392523 144:0.0 145:0.011682242990654205 146:0.0 147:0.0 148:0.002336448598130841 149:0.0 150:0.0 151:0.0 152:0.002336448598130841 153:0.002336448598130841 154:0.002336448598130841 155:0.0 156:0.0 157:0.0 158:0.0 159:0.0 160:0.11448598130841121 
1.0 1:0.0 2:0.0 3:0.006349206349206349 4:0.015873015873015872 5:0.0 6:0.009523809523809525 7:0.0 8:0.006349206349206349 9:0.0031746031746031746 10:0.0 11:0.0031746031746031746 12:0.04126984126984127 13:0.0 14:0.006349206349206349 15:0.0 16:0.0 17:0.0 18:0.0031746031746031746 19:0.0 20:0.0 21:0.0 22:0.0031746031746031746 23:0.0031746031746031746 24:0.01904761904761905 25:0.0031746031746031746 26:0.0 27:0.0 28:0.0 29:0.0 30:0.6063492063492063 31:0.0 32:0.0 33:0.0031746031746031746 34:0.0 35:0.006349206349206349 36:0.0 37:0.0 38:0.0 39:0.0 40:0.0 41:0.0031746031746031746 42:0.0 43:0.0 44:0.006349206349206349 45:0.0 46:0.0 47:0.0 48:0.006349206349206349 49:0.0 50:0.006349206349206349 51:0.009523809523809525 52:0.0 53:0.0 54:0.0 55:0.0 56:0.009523809523809525 57:0.0 58:0.0 59:0.0 60:0.0 61:0.0 62:0.0 63:0.0 64:0.0031746031746031746 65:0.006349206349206349 66:0.0 67:0.0 68:0.0 69:0.0 70:0.0 71:0.0 72:0.0 73:0.0 74:0.0 75:0.012698412698412698 76:0.0031746031746031746 77:0.0031746031746031746 78:0.0 79:0.0 80:0.0 81:0.0 82:0.0031746031746031746 83:0.0 84:0.0 85:0.0 86:0.0 87:0.0031746031746031746 88:0.0 89:0.0 90:0.0 91:0.0 92:0.0 93:0.0 94:0.0 95:0.0 96:0.0 97:0.0 98:0.0 99:0.0031746031746031746 100:0.0 101:0.006349206349206349 102:0.0 103:0.0 104:0.0 105:0.0 106:0.0 107:0.0 108:0.006349206349206349 109:0.0 110:0.006349206349206349 111:0.0 112:0.0031746031746031746 113:0.0 114:0.0 115:0.0 116:0.0 117:0.006349206349206349 118:0.0 119:0.006349206349206349 120:0.0 121:0.0031746031746031746 122:0.0 123:0.0 124:0.0 125:0.0 126:0.009523809523809525 127:0.0 128:0.0 129:0.0 130:0.0 131:0.0 132:0.0 133:0.0031746031746031746 134:0.0 135:0.0 136:0.0031746031746031746 137:0.0031746031746031746 138:0.0 139:0.0 140:0.0 141:0.0 142:0.0031746031746031746 143:0.006349206349206349 144:0.0 145:0.01904761904761905 146:0.0 147:0.0 148:0.0 149:0.0 150:0.0031746031746031746 151:0.0 152:0.015873015873015872 153:0.0031746031746031746 154:0.0031746031746031746 155:0.0 156:0.0 157:0.0 158:0.006349206349206349 159:0.0 160:0.06349206349206349 
1.0 1:0.0 2:0.0 3:0.00425531914893617 4:0.006382978723404255 5:0.0 6:0.00851063829787234 7:0.0 8:0.0 9:0.0 10:0.0 11:0.0 12:0.023404255319148935 13:0.0 14:0.00425531914893617 15:0.0 16:0.0 17:0.0 18:0.0 19:0.0 20:0.0 21:0.0 22:0.00425531914893617 23:0.002127659574468085 24:0.00851063829787234 25:0.002127659574468085 26:0.0 27:0.0 28:0.0 29:0.0 30:0.6957446808510638 31:0.0 32:0.0 33:0.0 34:0.0 35:0.002127659574468085 36:0.0 37:0.0 38:0.0 39:0.0 40:0.0 41:0.0 42:0.0 43:0.0 44:0.006382978723404255 45:0.0 46:0.0 47:0.0 48:0.00425531914893617 49:0.0 50:0.0 51:0.002127659574468085 52:0.0 53:0.002127659574468085 54:0.0 55:0.0 56:0.0 57:0.0 58:0.00425531914893617 59:0.0 60:0.0 61:0.0 62:0.0 63:0.0 64:0.002127659574468085 65:0.00425531914893617 66:0.0 67:0.002127659574468085 68:0.002127659574468085 69:0.0 70:0.0 71:0.0 72:0.0 73:0.0 74:0.0 75:0.006382978723404255 76:0.002127659574468085 77:0.0 78:0.0 79:0.0 80:0.002127659574468085 81:0.0 82:0.00425531914893617 83:0.0 84:0.0 85:0.0 86:0.0 87:0.002127659574468085 88:0.0 89:0.0 90:0.0 91:0.0 92:0.002127659574468085 93:0.0 94:0.00425531914893617 95:0.0 96:0.002127659574468085 97:0.0 98:0.0 99:0.0 100:0.0 101:0.0 102:0.0 103:0.0 104:0.0 105:0.0 106:0.002127659574468085 107:0.0 108:0.006382978723404255 109:0.0 110:0.006382978723404255 111:0.0 112:0.00425531914893617 113:0.0 114:0.0 115:0.0 116:0.002127659574468085 117:0.002127659574468085 118:0.006382978723404255 119:0.006382978723404255 120:0.0 121:0.0 122:0.0 123:0.0 124:0.0 125:0.0 126:0.0 127:0.0 128:0.0 129:0.0 130:0.0 131:0.0 132:0.0 133:0.0 134:0.002127659574468085 135:0.0 136:0.0 137:0.0 138:0.0 139:0.002127659574468085 140:0.0 141:0.002127659574468085 142:0.0 143:0.00425531914893617 144:0.0 145:0.014893617021276596 146:0.0 147:0.0 148:0.0 149:0.0 150:0.0 151:0.0 152:0.00851063829787234 153:0.002127659574468085 154:0.002127659574468085 155:0.0 156:0.0 157:0.0 158:0.002127659574468085 159:0.0 160:0.10638297872340426 
1.0 1:0.0 2:0.0037313432835820895 3:0.0 4:0.0037313432835820895 5:0.0 6:0.0037313432835820895 7:0.0 8:0.0 9:0.0 10:0.0 11:0.0 12:0.0 13:0.0 14:0.0 15:0.0 16:0.0 17:0.0 18:0.0 19:0.0 20:0.007462686567164179 21:0.0 22:0.0037313432835820895 23:0.0037313432835820895 24:0.0 25:0.011194029850746268 26:0.0 27:0.0 28:0.0 29:0.0 30:0.7798507462686567 31:0.0 32:0.0 33:0.0 34:0.0 35:0.007462686567164179 36:0.0 37:0.0 38:0.0 39:0.0 40:0.0 41:0.0 42:0.0 43:0.0 44:0.0 45:0.0037313432835820895 46:0.0 47:0.0 48:0.0 49:0.0 50:0.007462686567164179 51:0.022388059701492536 52:0.0 53:0.0 54:0.0 55:0.0 56:0.007462686567164179 57:0.0 58:0.007462686567164179 59:0.0 60:0.0 61:0.0 62:0.0 63:0.0 64:0.0 65:0.0037313432835820895 66:0.0 67:0.0 68:0.0037313432835820895 69:0.0 70:0.0 71:0.0 72:0.0 73:0.0 74:0.0037313432835820895 75:0.0 76:0.0 77:0.0037313432835820895 78:0.0 79:0.0 80:0.0037313432835820895 81:0.0 82:0.0 83:0.0 84:0.0 85:0.0 86:0.0 87:0.0 88:0.0 89:0.011194029850746268 90:0.0 91:0.0 92:0.0 93:0.0 94:0.0037313432835820895 95:0.0 96:0.0 97:0.0 98:0.0 99:0.0037313432835820895 100:0.0 101:0.014925373134328358 102:0.0037313432835820895 103:0.0037313432835820895 104:0.0 105:0.0037313432835820895 106:0.0037313432835820895 107:0.0 108:0.0 109:0.0 110:0.0 111:0.0 112:0.0037313432835820895 113:0.0 114:0.0 115:0.0 116:0.0 117:0.0 118:0.0 119:0.0 120:0.0 121:0.0 122:0.0 123:0.0 124:0.0 125:0.0 126:0.0 127:0.0 128:0.0 129:0.0 130:0.0 131:0.0 132:0.0 133:0.0037313432835820895 134:0.0 135:0.0037313432835820895 136:0.0037313432835820895 137:0.0 138:0.0037313432835820895 139:0.0 140:0.0 141:0.0037313432835820895 142:0.0 143:0.0 144:0.0 145:0.018656716417910446 146:0.0 147:0.0 148:0.0 149:0.0037313432835820895 150:0.0 151:0.0 152:0.0037313432835820895 153:0.0 154:0.0 155:0.0 156:0.0 157:0.0 158:0.0 159:0.0 160:0.011194029850746268 
1.0 1:0.0 2:0.002531645569620253 3:0.002531645569620253 4:0.007594936708860759 5:0.0 6:0.005063291139240506 7:0.0 8:0.0 9:0.0 10:0.0 11:0.0 12:0.02531645569620253 13:0.0 14:0.002531645569620253 15:0.0 16:0.002531645569620253 17:0.0 18:0.0 19:0.0 20:0.0 21:0.0 22:0.005063291139240506 23:0.0 24:0.012658227848101266 25:0.010126582278481013 26:0.0 27:0.0 28:0.0 29:0.0 30:0.6936708860759494 31:0.002531645569620253 32:0.0 33:0.002531645569620253 34:0.0 35:0.002531645569620253 36:0.0 37:0.0 38:0.0 39:0.0 40:0.0 41:0.002531645569620253 42:0.0 43:0.002531645569620253 44:0.0 45:0.0 46:0.0 47:0.0 48:0.002531645569620253 49:0.0 50:0.002531645569620253 51:0.007594936708860759 52:0.0 53:0.0 54:0.0 55:0.0 56:0.005063291139240506 57:0.002531645569620253 58:0.0 59:0.0 60:0.0 61:0.0 62:0.0 63:0.0 64:0.002531645569620253 65:0.002531645569620253 66:0.0 67:0.0 68:0.0 69:0.002531645569620253 70:0.0 71:0.0 72:0.002531645569620253 73:0.0 74:0.002531645569620253 75:0.005063291139240506 76:0.002531645569620253 77:0.0 78:0.0 79:0.0 80:0.0 81:0.002531645569620253 82:0.002531645569620253 83:0.0 84:0.0 85:0.0 86:0.0 87:0.002531645569620253 88:0.0 89:0.0 90:0.0 91:0.0 92:0.002531645569620253 93:0.0 94:0.002531645569620253 95:0.0 96:0.0 97:0.0 98:0.0 99:0.0 100:0.0 101:0.0 102:0.0 103:0.0 104:0.0 105:0.002531645569620253 106:0.0 107:0.0 108:0.007594936708860759 109:0.0 110:0.007594936708860759 111:0.0 112:0.005063291139240506 113:0.002531645569620253 114:0.0 115:0.0 116:0.0 117:0.002531645569620253 118:0.002531645569620253 119:0.005063291139240506 120:0.0 121:0.0 122:0.0 123:0.0 124:0.0 125:0.0 126:0.005063291139240506 127:0.0 128:0.0 129:0.0 130:0.0 131:0.0 132:0.0 133:0.0 134:0.0 135:0.0 136:0.0 137:0.002531645569620253 138:0.0 139:0.0 140:0.0 141:0.0 142:0.0 143:0.005063291139240506 144:0.0 145:0.017721518987341773 146:0.0 147:0.0 148:0.0 149:0.002531645569620253 150:0.0 151:0.0 152:0.012658227848101266 153:0.002531645569620253 154:0.002531645569620253 155:0.0 156:0.0 157:0.0 158:0.002531645569620253 159:0.0 160:0.0759493670886076 
1.0 1:0.0 2:0.003992015968063872 3:0.0 4:0.0 5:0.0 6:0.0 7:0.0 8:0.0 9:0.0 10:0.0 11:0.0 12:0.003992015968063872 13:0.0 14:0.0 15:0.0 16:0.0 17:0.0 18:0.0 19:0.0 20:0.0 21:0.0 22:0.0 23:0.0 24:0.003992015968063872 25:0.005988023952095809 26:0.0 27:0.0 28:0.0 29:0.0 30:0.8003992015968064 31:0.0 32:0.0 33:0.0 34:0.0 35:0.001996007984031936 36:0.0 37:0.0 38:0.0 39:0.0 40:0.0 41:0.0 42:0.0 43:0.001996007984031936 44:0.023952095808383235 45:0.0 46:0.0 47:0.0 48:0.003992015968063872 49:0.0 50:0.0 51:0.003992015968063872 52:0.0 53:0.0 54:0.0 55:0.0 56:0.0 57:0.0 58:0.0 59:0.0 60:0.0 61:0.0 62:0.0 63:0.0 64:0.0 65:0.007984031936127744 66:0.0 67:0.0 68:0.0 69:0.003992015968063872 70:0.0 71:0.0 72:0.0 73:0.0 74:0.001996007984031936 75:0.0 76:0.003992015968063872 77:0.0 78:0.0 79:0.001996007984031936 80:0.0 81:0.0 82:0.003992015968063872 83:0.0 84:0.0 85:0.0 86:0.0 87:0.0 88:0.0 89:0.0 90:0.0 91:0.0 92:0.0 93:0.0 94:0.0 95:0.0 96:0.0 97:0.0 98:0.0 99:0.0 100:0.0 101:0.0 102:0.0 103:0.0 104:0.0 105:0.0 106:0.0 107:0.0 108:0.003992015968063872 109:0.0 110:0.0 111:0.0 112:0.0 113:0.001996007984031936 114:0.0 115:0.0 116:0.0 117:0.0 118:0.0 119:0.0 120:0.0 121:0.0 122:0.0 123:0.0 124:0.0 125:0.0 126:0.0 127:0.0 128:0.0 129:0.0 130:0.0 131:0.0 132:0.0 133:0.0 134:0.0 135:0.0 136:0.0 137:0.0 138:0.003992015968063872 139:0.001996007984031936 140:0.0 141:0.003992015968063872 142:0.0 143:0.0 144:0.0 145:0.007984031936127744 146:0.0 147:0.0 148:0.0 149:0.0 150:0.0 151:0.0 152:0.0 153:0.0 154:0.0 155:0.0 156:0.0 157:0.0 158:0.0 159:0.0 160:0.09780439121756487 
1.0 1:0.0 2:0.0 3:0.004424778761061947 4:0.0 5:0.0 6:0.004424778761061947 7:0.0 8:0.0 9:0.0 10:0.0 11:0.0 12:0.008849557522123894 13:0.0 14:0.008849557522123894 15:0.0 16:0.0 17:0.0 18:0.0 19:0.0 20:0.0 21:0.0 22:0.0 23:0.0 24:0.004424778761061947 25:0.0 26:0.0 27:0.0 28:0.0 29:0.0 30:0.7876106194690266 31:0.0 32:0.0 33:0.004424778761061947 34:0.0 35:0.0 36:0.0 37:0.0 38:0.0 39:0.0 40:0.0 41:0.0 42:0.0 43:0.004424778761061947 44:0.017699115044247787 45:0.0 46:0.0 47:0.0 48:0.004424778761061947 49:0.0 50:0.004424778761061947 51:0.008849557522123894 52:0.0 53:0.0 54:0.0 55:0.0 56:0.0 57:0.004424778761061947 58:0.0 59:0.004424778761061947 60:0.0 61:0.0 62:0.004424778761061947 63:0.0 64:0.004424778761061947 65:0.0 66:0.0 67:0.0 68:0.0 69:0.0 70:0.0 71:0.0 72:0.0 73:0.0 74:0.0 75:0.0 76:0.004424778761061947 77:0.0 78:0.0 79:0.0 80:0.0 81:0.0 82:0.004424778761061947 83:0.0 84:0.0 85:0.0 86:0.0 87:0.008849557522123894 88:0.0 89:0.0 90:0.0 91:0.0 92:0.0 93:0.0 94:0.008849557522123894 95:0.0 96:0.0 97:0.0 98:0.0 99:0.0 100:0.0 101:0.0 102:0.0 103:0.0 104:0.0 105:0.0 106:0.0 107:0.0 108:0.0 109:0.0 110:0.0 111:0.0 112:0.0 113:0.0 114:0.0 115:0.0 116:0.0 117:0.0 118:0.0 119:0.0 120:0.004424778761061947 121:0.0 122:0.0 123:0.0 124:0.0 125:0.0 126:0.0 127:0.0 128:0.0 129:0.0 130:0.0 131:0.0 132:0.0 133:0.0 134:0.0 135:0.0 136:0.0 137:0.0 138:0.008849557522123894 139:0.004424778761061947 140:0.0 141:0.0 142:0.0 143:0.008849557522123894 144:0.0 145:0.0 146:0.0 147:0.0 148:0.0 149:0.0 150:0.0 151:0.0 152:0.004424778761061947 153:0.0 154:0.004424778761061947 155:0.0 156:0.0 157:0.0 158:0.004424778761061947 159:0.0 160:0.05309734513274336 
1.0 1:0.0 2:0.0 3:0.0 4:0.006896551724137931 5:0.0 6:0.0 7:0.0 8:0.0 9:0.0 10:0.0 11:0.004597701149425287 12:0.009195402298850575 13:0.0 14:0.0022988505747126436 15:0.0 16:0.0 17:0.0 18:0.0022988505747126436 19:0.0 20:0.0 21:0.0 22:0.0 23:0.0 24:0.006896551724137931 25:0.0022988505747126436 26:0.0 27:0.0 28:0.0 29:0.0 30:0.7057471264367816 31:0.0 32:0.0 33:0.0 34:0.0 35:0.0 36:0.0 37:0.0 38:0.0 39:0.0 40:0.0 41:0.0022988505747126436 42:0.0 43:0.0 44:0.004597701149425287 45:0.0 46:0.0 47:0.0 48:0.0 49:0.0 50:0.0 51:0.016091954022988506 52:0.0 53:0.0 54:0.0 55:0.0 56:0.0 57:0.0 58:0.0 59:0.0 60:0.0 61:0.0 62:0.0 63:0.0 64:0.0022988505747126436 65:0.004597701149425287 66:0.0 67:0.0 68:0.0 69:0.004597701149425287 70:0.0 71:0.0022988505747126436 72:0.0 73:0.0 74:0.0 75:0.011494252873563218 76:0.0 77:0.0 78:0.0 79:0.0 80:0.0 81:0.0 82:0.0022988505747126436 83:0.0 84:0.0 85:0.0 86:0.0 87:0.0 88:0.0 89:0.0 90:0.0 91:0.0 92:0.0 93:0.0 94:0.0 95:0.0 96:0.0 97:0.0 98:0.0 99:0.0 100:0.0 101:0.0022988505747126436 102:0.0 103:0.0 104:0.0 105:0.004597701149425287 106:0.016091954022988506 107:0.0 108:0.0 109:0.0 110:0.0022988505747126436 111:0.0 112:0.0 113:0.0022988505747126436 114:0.0 115:0.0 116:0.0 117:0.0 118:0.006896551724137931 119:0.0022988505747126436 120:0.0 121:0.011494252873563218 122:0.0 123:0.0 124:0.0 125:0.0 126:0.0 127:0.0 128:0.0 129:0.0 130:0.0 131:0.0 132:0.0 133:0.0 134:0.0 135:0.0 136:0.0 137:0.0 138:0.0 139:0.0 140:0.0 141:0.0 142:0.0022988505747126436 143:0.0 144:0.0 145:0.004597701149425287 146:0.0 147:0.0 148:0.0 149:0.0 150:0.0 151:0.0 152:0.004597701149425287 153:0.0022988505747126436 154:0.0022988505747126436 155:0.0 156:0.0 157:0.0 158:0.0022988505747126436 159:0.0 160:0.1425287356321839 
1.0 1:0.0 2:0.0 3:0.0 4:0.0 5:0.0 6:0.0 7:0.0 8:0.0 9:0.0 10:0.0 11:0.002688172043010753 12:0.002688172043010753 13:0.0 14:0.002688172043010753 15:0.0 16:0.0 17:0.0 18:0.010752688172043012 19:0.0 20:0.0 21:0.0 22:0.002688172043010753 23:0.0 24:0.005376344086021506 25:0.005376344086021506 26:0.0 27:0.0 28:0.0 29:0.0 30:0.7849462365591398 31:0.0 32:0.0 33:0.0 34:0.0 35:0.0 36:0.0 37:0.002688172043010753 38:0.0 39:0.0 40:0.0 41:0.0 42:0.0 43:0.0 44:0.002688172043010753 45:0.0 46:0.0 47:0.0 48:0.0 49:0.0 50:0.0 51:0.01881720430107527 52:0.0 53:0.0 54:0.0 55:0.0 56:0.0 57:0.0 58:0.0 59:0.0 60:0.0 61:0.0 62:0.0 63:0.0 64:0.002688172043010753 65:0.0 66:0.0 67:0.0 68:0.0 69:0.002688172043010753 70:0.0 71:0.0 72:0.0 73:0.0 74:0.0 75:0.008064516129032258 76:0.0 77:0.0 78:0.0 79:0.0 80:0.0 81:0.0 82:0.002688172043010753 83:0.0 84:0.0 85:0.002688172043010753 86:0.0 87:0.0 88:0.0 89:0.0 90:0.0 91:0.0 92:0.0 93:0.0 94:0.0 95:0.0 96:0.0 97:0.0 98:0.0 99:0.0 100:0.0 101:0.002688172043010753 102:0.0 103:0.0 104:0.0 105:0.005376344086021506 106:0.01881720430107527 107:0.0 108:0.0 109:0.0 110:0.002688172043010753 111:0.0 112:0.0 113:0.002688172043010753 114:0.0 115:0.0 116:0.0 117:0.0 118:0.008064516129032258 119:0.0 120:0.0 121:0.010752688172043012 122:0.0 123:0.0 124:0.0 125:0.0 126:0.0 127:0.0 128:0.0 129:0.0 130:0.0 131:0.0 132:0.0 133:0.0 134:0.002688172043010753 135:0.0 136:0.0 137:0.0 138:0.0 139:0.0 140:0.0 141:0.0 142:0.0 143:0.0 144:0.0 145:0.002688172043010753 146:0.0 147:0.0 148:0.0 149:0.0 150:0.0 151:0.0 152:0.002688172043010753 153:0.0 154:0.0 155:0.0 156:0.0 157:0.0 158:0.0 159:0.0 160:0.08064516129032258 
1.0 1:0.0 2:0.0 3:0.018214936247723135 4:0.0036429872495446266 5:0.0 6:0.0 7:0.0 8:0.0 9:0.0018214936247723133 10:0.0 11:0.0036429872495446266 12:0.014571948998178506 13:0.0 14:0.0036429872495446266 15:0.0 16:0.0018214936247723133 17:0.0 18:0.007285974499089253 19:0.0 20:0.0 21:0.0 22:0.01092896174863388 23:0.0 24:0.007285974499089253 25:0.030965391621129327 26:0.0 27:0.0 28:0.0 29:0.0 30:0.604735883424408 31:0.0018214936247723133 32:0.0 33:0.0 34:0.0018214936247723133 35:0.0 36:0.0 37:0.01092896174863388 38:0.0 39:0.0 40:0.0 41:0.0036429872495446266 42:0.0 43:0.0018214936247723133 44:0.014571948998178506 45:0.0 46:0.0 47:0.0 48:0.0 49:0.0 50:0.0018214936247723133 51:0.023679417122040074 52:0.0 53:0.0018214936247723133 54:0.0 55:0.0 56:0.0 57:0.0 58:0.0 59:0.0 60:0.0 61:0.0 62:0.0 63:0.0 64:0.00546448087431694 65:0.0018214936247723133 66:0.0018214936247723133 67:0.0 68:0.0018214936247723133 69:0.0 70:0.0 71:0.0 72:0.0 73:0.0018214936247723133 74:0.0 75:0.0036429872495446266 76:0.00546448087431694 77:0.0 78:0.0 79:0.0 80:0.0 81:0.0 82:0.00546448087431694 83:0.0 84:0.0 85:0.0 86:0.0 87:0.0 88:0.0 89:0.0018214936247723133 90:0.0 91:0.0 92:0.0018214936247723133 93:0.0 94:0.0 95:0.0 96:0.0 97:0.0 98:0.0 99:0.0 100:0.0 101:0.0036429872495446266 102:0.0018214936247723133 103:0.0 104:0.0 105:0.0018214936247723133 106:0.014571948998178506 107:0.0 108:0.0 109:0.0 110:0.009107468123861567 111:0.0 112:0.0018214936247723133 113:0.0 114:0.0 115:0.0 116:0.0 117:0.0018214936247723133 118:0.007285974499089253 119:0.0018214936247723133 120:0.0 121:0.007285974499089253 122:0.0 123:0.0 124:0.0 125:0.0 126:0.0 127:0.0 128:0.0 129:0.0 130:0.0 131:0.0 132:0.0 133:0.0018214936247723133 134:0.0018214936247723133 135:0.0 136:0.0 137:0.0 138:0.0018214936247723133 139:0.0018214936247723133 140:0.0 141:0.0 142:0.0 143:0.0018214936247723133 144:0.0 145:0.00546448087431694 146:0.0018214936247723133 147:0.0 148:0.0 149:0.0018214936247723133 150:0.0 151:0.0 152:0.0018214936247723133 153:0.0 154:0.0036429872495446266 155:0.0 156:0.0 157:0.0 158:0.00546448087431694 159:0.0 160:0.11839708561020036 
1.0 1:0.0 2:0.0 3:0.0 4:0.0031847133757961785 5:0.0 6:0.006369426751592357 7:0.0 8:0.0 9:0.009554140127388535 10:0.0 11:0.0 12:0.0031847133757961785 13:0.0 14:0.009554140127388535 15:0.0 16:0.0 17:0.0 18:0.012738853503184714 19:0.0 20:0.0031847133757961785 21:0.0 22:0.0 23:0.0 24:0.006369426751592357 25:0.006369426751592357 26:0.0 27:0.0 28:0.0 29:0.0 30:0.7165605095541401 31:0.006369426751592357 32:0.0 33:0.0 34:0.0 35:0.0 36:0.0 37:0.0031847133757961785 38:0.0 39:0.0 40:0.0 41:0.0031847133757961785 42:0.0 43:0.006369426751592357 44:0.0031847133757961785 45:0.0 46:0.0 47:0.0 48:0.0 49:0.0 50:0.0 51:0.01592356687898089 52:0.0 53:0.0031847133757961785 54:0.0 55:0.0 56:0.0 57:0.0 58:0.006369426751592357 59:0.0031847133757961785 60:0.0 61:0.0 62:0.0 63:0.0 64:0.009554140127388535 65:0.0031847133757961785 66:0.006369426751592357 67:0.0031847133757961785 68:0.0 69:0.0031847133757961785 70:0.0 71:0.0 72:0.0031847133757961785 73:0.0 74:0.006369426751592357 75:0.012738853503184714 76:0.0 77:0.0 78:0.0 79:0.0 80:0.0 81:0.0031847133757961785 82:0.0031847133757961785 83:0.0 84:0.0 85:0.0 86:0.0 87:0.0031847133757961785 88:0.0 89:0.006369426751592357 90:0.0 91:0.0 92:0.0 93:0.0 94:0.006369426751592357 95:0.0 96:0.0 97:0.0 98:0.0 99:0.0 100:0.0 101:0.0031847133757961785 102:0.0 103:0.0031847133757961785 104:0.0 105:0.0 106:0.0 107:0.0 108:0.0 109:0.0 110:0.0 111:0.0 112:0.0031847133757961785 113:0.0 114:0.0 115:0.0 116:0.0 117:0.0 118:0.0 119:0.012738853503184714 120:0.0 121:0.0 122:0.0 123:0.0 124:0.0 125:0.0 126:0.0031847133757961785 127:0.0 128:0.0 129:0.0 130:0.0 131:0.0 132:0.0 133:0.0 134:0.0031847133757961785 135:0.0 136:0.0031847133757961785 137:0.0 138:0.0031847133757961785 139:0.0 140:0.0 141:0.0 142:0.0031847133757961785 143:0.009554140127388535 144:0.0 145:0.0031847133757961785 146:0.0 147:0.0 148:0.0 149:0.0 150:0.0 151:0.0 152:0.009554140127388535 153:0.0 154:0.0031847133757961785 155:0.0 156:0.0 157:0.0 158:0.0 159:0.0 160:0.03821656050955414 
1.0 1:0.0 2:0.0 3:0.0 4:0.008113590263691683 5:0.0 6:0.002028397565922921 7:0.0 8:0.0 9:0.0 10:0.0 11:0.002028397565922921 12:0.012170385395537525 13:0.0 14:0.02028397565922921 15:0.0 16:0.0 17:0.0 18:0.002028397565922921 19:0.0 20:0.0 21:0.0 22:0.0 23:0.0 24:0.0 25:0.014198782961460446 26:0.0 27:0.0 28:0.0 29:0.0 30:0.7626774847870182 31:0.0 32:0.0 33:0.0 34:0.0 35:0.002028397565922921 36:0.0 37:0.002028397565922921 38:0.0 39:0.0 40:0.0 41:0.0 42:0.0 43:0.006085192697768763 44:0.006085192697768763 45:0.0 46:0.0 47:0.0 48:0.0 49:0.0 50:0.0 51:0.016227180527383367 52:0.0 53:0.008113590263691683 54:0.0 55:0.0 56:0.0 57:0.002028397565922921 58:0.004056795131845842 59:0.0 60:0.0 61:0.0 62:0.0 63:0.0 64:0.0 65:0.006085192697768763 66:0.0 67:0.0 68:0.008113590263691683 69:0.0 70:0.0 71:0.0 72:0.0 73:0.0 74:0.002028397565922921 75:0.002028397565922921 76:0.0 77:0.0 78:0.0 79:0.0 80:0.004056795131845842 81:0.002028397565922921 82:0.0 83:0.0 84:0.0 85:0.0 86:0.0 87:0.002028397565922921 88:0.0 89:0.0 90:0.0 91:0.0 92:0.0 93:0.0 94:0.008113590263691683 95:0.0 96:0.006085192697768763 97:0.002028397565922921 98:0.0 99:0.002028397565922921 100:0.002028397565922921 101:0.006085192697768763 102:0.0 103:0.002028397565922921 104:0.0 105:0.002028397565922921 106:0.0 107:0.0 108:0.0 109:0.0 110:0.002028397565922921 111:0.0 112:0.0 113:0.0 114:0.0 115:0.0 116:0.0 117:0.0 118:0.010141987829614604 119:0.006085192697768763 120:0.0 121:0.004056795131845842 122:0.0 123:0.0 124:0.0 125:0.0 126:0.0 127:0.0 128:0.002028397565922921 129:0.0 130:0.0 131:0.0 132:0.0 133:0.0 134:0.004056795131845842 135:0.0 136:0.0 137:0.002028397565922921 138:0.002028397565922921 139:0.002028397565922921 140:0.0 141:0.006085192697768763 142:0.0 143:0.006085192697768763 144:0.0 145:0.002028397565922921 146:0.0 147:0.0 148:0.0 149:0.0 150:0.0 151:0.0 152:0.006085192697768763 153:0.0 154:0.004056795131845842 155:0.0 156:0.0 157:0.0 158:0.004056795131845842 159:0.0 160:0.010141987829614604 
1.0 1:0.0 2:0.0 3:0.002061855670103093 4:0.008247422680412371 5:0.0 6:0.002061855670103093 7:0.0 8:0.0 9:0.0 10:0.0 11:0.002061855670103093 12:0.012371134020618556 13:0.0 14:0.020618556701030927 15:0.0 16:0.0 17:0.0 18:0.002061855670103093 19:0.0 20:0.0 21:0.0 22:0.0 23:0.0 24:0.0 25:0.020618556701030927 26:0.0 27:0.0 28:0.0 29:0.0 30:0.7525773195876289 31:0.0 32:0.0 33:0.0 34:0.0 35:0.002061855670103093 36:0.0 37:0.002061855670103093 38:0.0 39:0.0 40:0.0 41:0.0 42:0.0 43:0.006185567010309278 44:0.006185567010309278 45:0.0 46:0.0 47:0.0 48:0.0 49:0.0 50:0.0 51:0.01443298969072165 52:0.0 53:0.008247422680412371 54:0.0 55:0.0 56:0.0 57:0.002061855670103093 58:0.004123711340206186 59:0.0 60:0.0 61:0.0 62:0.0 63:0.0 64:0.0 65:0.006185567010309278 66:0.0 67:0.0 68:0.008247422680412371 69:0.0 70:0.0 71:0.0 72:0.0 73:0.0 74:0.002061855670103093 75:0.002061855670103093 76:0.0 77:0.0 78:0.0 79:0.0 80:0.004123711340206186 81:0.002061855670103093 82:0.0 83:0.0 84:0.0 85:0.0 86:0.0 87:0.002061855670103093 88:0.0 89:0.0 90:0.0 91:0.0 92:0.0 93:0.0 94:0.008247422680412371 95:0.0 96:0.006185567010309278 97:0.002061855670103093 98:0.0 99:0.002061855670103093 100:0.002061855670103093 101:0.006185567010309278 102:0.0 103:0.002061855670103093 104:0.0 105:0.002061855670103093 106:0.0 107:0.0 108:0.0 109:0.0 110:0.002061855670103093 111:0.0 112:0.0 113:0.0 114:0.0 115:0.0 116:0.0 117:0.0 118:0.010309278350515464 119:0.006185567010309278 120:0.0 121:0.004123711340206186 122:0.0 123:0.0 124:0.0 125:0.0 126:0.0 127:0.0 128:0.002061855670103093 129:0.0 130:0.0 131:0.0 132:0.0 133:0.0 134:0.004123711340206186 135:0.0 136:0.0 137:0.002061855670103093 138:0.002061855670103093 139:0.002061855670103093 140:0.0 141:0.006185567010309278 142:0.0 143:0.006185567010309278 144:0.0 145:0.002061855670103093 146:0.0 147:0.0 148:0.0 149:0.0 150:0.0 151:0.0 152:0.006185567010309278 153:0.0 154:0.004123711340206186 155:0.0 156:0.0 157:0.0 158:0.004123711340206186 159:0.0 160:0.010309278350515464 
1.0 1:0.0 2:0.0 3:0.039473684210526314 4:0.013157894736842105 5:0.0 6:0.008771929824561403 7:0.0 8:0.0 9:0.0 10:0.0 11:0.0043859649122807015 12:0.03070175438596491 13:0.0 14:0.0043859649122807015 15:0.0 16:0.0021929824561403508 17:0.0 18:0.021929824561403508 19:0.0 20:0.0 21:0.0 22:0.008771929824561403 23:0.0 24:0.006578947368421052 25:0.0043859649122807015 26:0.0 27:0.0 28:0.0 29:0.0021929824561403508 30:0.4692982456140351 31:0.0 32:0.0 33:0.0 34:0.0 35:0.0021929824561403508 36:0.0 37:0.0 38:0.0 39:0.0021929824561403508 40:0.0 41:0.010964912280701754 42:0.0 43:0.0021929824561403508 44:0.013157894736842105 45:0.0021929824561403508 46:0.0 47:0.0 48:0.0 49:0.0 50:0.0 51:0.015350877192982455 52:0.0 53:0.0 54:0.0 55:0.0 56:0.0 57:0.006578947368421052 58:0.0 59:0.0 60:0.0 61:0.0 62:0.0021929824561403508 63:0.0 64:0.017543859649122806 65:0.015350877192982455 66:0.0043859649122807015 67:0.0 68:0.0 69:0.010964912280701754 70:0.0 71:0.0 72:0.0 73:0.0 74:0.0 75:0.013157894736842105 76:0.006578947368421052 77:0.0021929824561403508 78:0.0 79:0.0 80:0.006578947368421052 81:0.017543859649122806 82:0.013157894736842105 83:0.0 84:0.0 85:0.0 86:0.0 87:0.008771929824561403 88:0.0 89:0.0 90:0.0 91:0.0 92:0.008771929824561403 93:0.0 94:0.0043859649122807015 95:0.0 96:0.008771929824561403 97:0.0 98:0.0 99:0.0021929824561403508 100:0.0 101:0.0 102:0.0 103:0.0 104:0.0 105:0.0 106:0.0 107:0.0 108:0.0 109:0.0 110:0.006578947368421052 111:0.0 112:0.006578947368421052 113:0.0 114:0.0 115:0.0 116:0.0 117:0.0 118:0.0043859649122807015 119:0.0 120:0.0021929824561403508 121:0.0021929824561403508 122:0.0 123:0.0021929824561403508 124:0.0 125:0.0 126:0.0 127:0.0 128:0.006578947368421052 129:0.0 130:0.0 131:0.0 132:0.0 133:0.013157894736842105 134:0.0 135:0.0021929824561403508 136:0.0 137:0.013157894736842105 138:0.02631578947368421 139:0.0021929824561403508 140:0.0 141:0.0 142:0.008771929824561403 143:0.013157894736842105 144:0.0 145:0.0 146:0.0 147:0.0 148:0.0 149:0.0 150:0.0 151:0.0 152:0.008771929824561403 153:0.0021929824561403508 154:0.0021929824561403508 155:0.0 156:0.0 157:0.0 158:0.0043859649122807015 159:0.0 160:0.05921052631578947 
1.0 1:0.0 2:0.0 3:0.039473684210526314 4:0.013157894736842105 5:0.0 6:0.008771929824561403 7:0.0 8:0.0 9:0.0 10:0.0 11:0.0043859649122807015 12:0.03070175438596491 13:0.0 14:0.0043859649122807015 15:0.0 16:0.0021929824561403508 17:0.0 18:0.021929824561403508 19:0.0 20:0.0 21:0.0 22:0.008771929824561403 23:0.0 24:0.006578947368421052 25:0.0043859649122807015 26:0.0 27:0.0 28:0.0 29:0.0021929824561403508 30:0.4692982456140351 31:0.0 32:0.0 33:0.0 34:0.0 35:0.0021929824561403508 36:0.0 37:0.0 38:0.0 39:0.0021929824561403508 40:0.0 41:0.010964912280701754 42:0.0 43:0.0021929824561403508 44:0.013157894736842105 45:0.0021929824561403508 46:0.0 47:0.0 48:0.0 49:0.0 50:0.0 51:0.015350877192982455 52:0.0 53:0.0 54:0.0 55:0.0 56:0.0 57:0.006578947368421052 58:0.0 59:0.0 60:0.0 61:0.0 62:0.0021929824561403508 63:0.0 64:0.017543859649122806 65:0.015350877192982455 66:0.0043859649122807015 67:0.0 68:0.0 69:0.010964912280701754 70:0.0 71:0.0 72:0.0 73:0.0 74:0.0 75:0.013157894736842105 76:0.006578947368421052 77:0.0021929824561403508 78:0.0 79:0.0 80:0.006578947368421052 81:0.017543859649122806 82:0.013157894736842105 83:0.0 84:0.0 85:0.0 86:0.0 87:0.008771929824561403 88:0.0 89:0.0 90:0.0 91:0.0 92:0.008771929824561403 93:0.0 94:0.0043859649122807015 95:0.0 96:0.008771929824561403 97:0.0 98:0.0 99:0.0021929824561403508 100:0.0 101:0.0 102:0.0 103:0.0 104:0.0 105:0.0 106:0.0 107:0.0 108:0.0 109:0.0 110:0.006578947368421052 111:0.0 112:0.006578947368421052 113:0.0 114:0.0 115:0.0 116:0.0 117:0.0 118:0.0043859649122807015 119:0.0 120:0.0021929824561403508 121:0.0021929824561403508 122:0.0 123:0.0021929824561403508 124:0.0 125:0.0 126:0.0 127:0.0 128:0.006578947368421052 129:0.0 130:0.0 131:0.0 132:0.0 133:0.013157894736842105 134:0.0 135:0.0021929824561403508 136:0.0 137:0.013157894736842105 138:0.02631578947368421 139:0.0021929824561403508 140:0.0 141:0.0 142:0.008771929824561403 143:0.013157894736842105 144:0.0 145:0.0 146:0.0 147:0.0 148:0.0 149:0.0 150:0.0 151:0.0 152:0.008771929824561403 153:0.0021929824561403508 154:0.0021929824561403508 155:0.0 156:0.0 157:0.0 158:0.0043859649122807015 159:0.0 160:0.05921052631578947 
0.7959239312146874 1:0.0 2:0.0 3:0.0 4:0.0 5:0.0 6:0.01079136690647482 7:0.0 8:0.0 9:0.0 10:0.0 11:0.0035971223021582736 12:0.0 13:0.0 14:0.0035971223021582736 15:0.0 16:0.0 17:0.0 18:0.0 19:0.0 20:0.014388489208633094 21:0.0 22:0.0 23:0.0 24:0.0035971223021582736 25:0.0035971223021582736 26:0.0 27:0.0 28:0.0 29:0.0 30:0.802158273381295 31:0.0 32:0.0 33:0.0 34:0.0035971223021582736 35:0.007194244604316547 36:0.0 37:0.0 38:0.0 39:0.0 40:0.0 41:0.0 42:0.0 43:0.0 44:0.0 45:0.0 46:0.0 47:0.0 48:0.0 49:0.0 50:0.0035971223021582736 51:0.014388489208633094 52:0.0 53:0.0035971223021582736 54:0.0 55:0.0 56:0.01079136690647482 57:0.0 58:0.007194244604316547 59:0.0 60:0.0 61:0.0 62:0.0 63:0.0 64:0.0 65:0.0 66:0.0035971223021582736 67:0.0035971223021582736 68:0.0 69:0.007194244604316547 70:0.0 71:0.0 72:0.0 73:0.0 74:0.01079136690647482 75:0.0 76:0.0 77:0.0035971223021582736 78:0.0 79:0.0 80:0.0 81:0.0 82:0.0 83:0.0 84:0.0 85:0.0035971223021582736 86:0.0 87:0.0 88:0.0 89:0.0 90:0.0 91:0.0 92:0.0035971223021582736 93:0.0 94:0.0 95:0.0 96:0.0 97:0.0 98:0.0 99:0.0 100:0.0 101:0.0 102:0.0035971223021582736 103:0.0 104:0.0 105:0.007194244604316547 106:0.01079136690647482 107:0.0 108:0.0035971223021582736 109:0.0 110:0.0 111:0.0 112:0.0035971223021582736 113:0.0 114:0.0 115:0.0 116:0.0 117:0.0 118:0.0035971223021582736 119:0.0 120:0.0 121:0.007194244604316547 122:0.0 123:0.0 124:0.0 125:0.0 126:0.0035971223021582736 127:0.0 128:0.0 129:0.0 130:0.0 131:0.0 132:0.0 133:0.0 134:0.0 135:0.007194244604316547 136:0.0 137:0.0 138:0.0 139:0.0 140:0.0 141:0.0 142:0.0 143:0.0 144:0.0 145:0.01079136690647482 146:0.0035971223021582736 147:0.0035971223021582736 148:0.0 149:0.0 150:0.0 151:0.0 152:0.0 153:0.0 154:0.0035971223021582736 155:0.0 156:0.0 157:0.0 158:0.0 159:0.0 160:0.0 
1.0 1:0.0 2:0.0 3:0.0 4:0.0 5:0.0 6:0.012307692307692308 7:0.0 8:0.0 9:0.0 10:0.0 11:0.003076923076923077 12:0.0 13:0.0 14:0.003076923076923077 15:0.0 16:0.0 17:0.0 18:0.0 19:0.0 20:0.012307692307692308 21:0.0 22:0.0 23:0.0 24:0.0 25:0.006153846153846154 26:0.0 27:0.0 28:0.0 29:0.0 30:0.7907692307692308 31:0.003076923076923077 32:0.0 33:0.0 34:0.003076923076923077 35:0.006153846153846154 36:0.0 37:0.0 38:0.0 39:0.0 40:0.0 41:0.0 42:0.0 43:0.0 44:0.0 45:0.0 46:0.0 47:0.0 48:0.0 49:0.0 50:0.0 51:0.015384615384615385 52:0.0 53:0.006153846153846154 54:0.0 55:0.0 56:0.012307692307692308 57:0.0 58:0.006153846153846154 59:0.0 60:0.0 61:0.0 62:0.0 63:0.0 64:0.0 65:0.003076923076923077 66:0.003076923076923077 67:0.003076923076923077 68:0.0 69:0.006153846153846154 70:0.0 71:0.0 72:0.0 73:0.003076923076923077 74:0.006153846153846154 75:0.0 76:0.0 77:0.003076923076923077 78:0.0 79:0.0 80:0.0 81:0.0 82:0.0 83:0.0 84:0.0 85:0.003076923076923077 86:0.0 87:0.003076923076923077 88:0.0 89:0.0 90:0.0 91:0.0 92:0.003076923076923077 93:0.0 94:0.0 95:0.0 96:0.0 97:0.0 98:0.0 99:0.0 100:0.0 101:0.0 102:0.003076923076923077 103:0.0 104:0.0 105:0.006153846153846154 106:0.009230769230769232 107:0.0 108:0.003076923076923077 109:0.0 110:0.0 111:0.0 112:0.0 113:0.003076923076923077 114:0.0 115:0.0 116:0.0 117:0.0 118:0.006153846153846154 119:0.0 120:0.0 121:0.006153846153846154 122:0.0 123:0.0 124:0.0 125:0.0 126:0.003076923076923077 127:0.0 128:0.003076923076923077 129:0.0 130:0.0 131:0.0 132:0.0 133:0.003076923076923077 134:0.0 135:0.006153846153846154 136:0.0 137:0.0 138:0.003076923076923077 139:0.0 140:0.0 141:0.0 142:0.003076923076923077 143:0.0 144:0.0 145:0.012307692307692308 146:0.003076923076923077 147:0.003076923076923077 148:0.0 149:0.0 150:0.0 151:0.0 152:0.0 153:0.0 154:0.003076923076923077 155:0.0 156:0.0 157:0.0 158:0.0 159:0.0 160:0.003076923076923077 
1.0 1:0.0 2:0.0 3:0.0 4:0.0 5:0.0 6:0.012307692307692308 7:0.0 8:0.0 9:0.0 10:0.0 11:0.003076923076923077 12:0.0 13:0.0 14:0.003076923076923077 15:0.0 16:0.0 17:0.0 18:0.0 19:0.0 20:0.012307692307692308 21:0.0 22:0.0 23:0.0 24:0.0 25:0.006153846153846154 26:0.0 27:0.0 28:0.0 29:0.0 30:0.7907692307692308 31:0.003076923076923077 32:0.0 33:0.0 34:0.003076923076923077 35:0.006153846153846154 36:0.0 37:0.0 38:0.0 39:0.0 40:0.0 41:0.0 42:0.0 43:0.0 44:0.0 45:0.0 46:0.0 47:0.0 48:0.0 49:0.0 50:0.0 51:0.015384615384615385 52:0.0 53:0.006153846153846154 54:0.0 55:0.0 56:0.012307692307692308 57:0.0 58:0.006153846153846154 59:0.0 60:0.0 61:0.0 62:0.0 63:0.0 64:0.0 65:0.003076923076923077 66:0.003076923076923077 67:0.003076923076923077 68:0.0 69:0.006153846153846154 70:0.0 71:0.0 72:0.0 73:0.003076923076923077 74:0.006153846153846154 75:0.0 76:0.0 77:0.003076923076923077 78:0.0 79:0.0 80:0.0 81:0.0 82:0.0 83:0.0 84:0.0 85:0.003076923076923077 86:0.0 87:0.003076923076923077 88:0.0 89:0.0 90:0.0 91:0.0 92:0.003076923076923077 93:0.0 94:0.0 95:0.0 96:0.0 97:0.0 98:0.0 99:0.0 100:0.0 101:0.0 102:0.003076923076923077 103:0.0 104:0.0 105:0.006153846153846154 106:0.009230769230769232 107:0.0 108:0.003076923076923077 109:0.0 110:0.0 111:0.0 112:0.0 113:0.003076923076923077 114:0.0 115:0.0 116:0.0 117:0.0 118:0.006153846153846154 119:0.0 120:0.0 121:0.006153846153846154 122:0.0 123:0.0 124:0.0 125:0.0 126:0.003076923076923077 127:0.0 128:0.003076923076923077 129:0.0 130:0.0 131:0.0 132:0.0 133:0.003076923076923077 134:0.0 135:0.006153846153846154 136:0.0 137:0.0 138:0.003076923076923077 139:0.0 140:0.0 141:0.0 142:0.003076923076923077 143:0.0 144:0.0 145:0.012307692307692308 146:0.003076923076923077 147:0.003076923076923077 148:0.0 149:0.0 150:0.0 151:0.0 152:0.0 153:0.0 154:0.003076923076923077 155:0.0 156:0.0 157:0.0 158:0.0 159:0.0 160:0.003076923076923077 
1.0 1:0.0 2:0.0 3:0.0 4:0.0 5:0.0 6:0.003355704697986577 7:0.0 8:0.0 9:0.006711409395973154 10:0.0 11:0.0 12:0.010067114093959731 13:0.0 14:0.0 15:0.0 16:0.003355704697986577 17:0.0 18:0.003355704697986577 19:0.0 20:0.0 21:0.0 22:0.003355704697986577 23:0.0 24:0.003355704697986577 25:0.006711409395973154 26:0.0 27:0.0 28:0.0 29:0.0 30:0.761744966442953 31:0.0 32:0.0 33:0.0 34:0.0 35:0.003355704697986577 36:0.0 37:0.003355704697986577 38:0.0 39:0.0 40:0.0 41:0.003355704697986577 42:0.0 43:0.0 44:0.006711409395973154 45:0.003355704697986577 46:0.003355704697986577 47:0.0 48:0.0 49:0.0 50:0.003355704697986577 51:0.016778523489932886 52:0.0 53:0.0 54:0.0 55:0.0 56:0.0 57:0.0 58:0.0 59:0.0 60:0.0 61:0.0 62:0.0 63:0.0 64:0.006711409395973154 65:0.0 66:0.0 67:0.0 68:0.003355704697986577 69:0.003355704697986577 70:0.0 71:0.0 72:0.003355704697986577 73:0.0 74:0.003355704697986577 75:0.0 76:0.010067114093959731 77:0.0 78:0.0 79:0.0 80:0.0 81:0.0 82:0.006711409395973154 83:0.0 84:0.0 85:0.003355704697986577 86:0.0 87:0.003355704697986577 88:0.0 89:0.0 90:0.0 91:0.0 92:0.003355704697986577 93:0.0 94:0.0 95:0.0 96:0.0 97:0.0 98:0.0 99:0.0 100:0.0 101:0.003355704697986577 102:0.0 103:0.003355704697986577 104:0.0 105:0.0 106:0.0 107:0.0 108:0.0 109:0.0 110:0.003355704697986577 111:0.0 112:0.0 113:0.0 114:0.0 115:0.0 116:0.0 117:0.0 118:0.006711409395973154 119:0.006711409395973154 120:0.0 121:0.0 122:0.0 123:0.0 124:0.0 125:0.0 126:0.0 127:0.0 128:0.0 129:0.0 130:0.0 131:0.0 132:0.0 133:0.0 134:0.003355704697986577 135:0.0 136:0.003355704697986577 137:0.0 138:0.0 139:0.0 140:0.0 141:0.003355704697986577 142:0.003355704697986577 143:0.003355704697986577 144:0.0 145:0.0 146:0.006711409395973154 147:0.0 148:0.0 149:0.003355704697986577 150:0.0 151:0.0 152:0.006711409395973154 153:0.0 154:0.003355704697986577 155:0.0 156:0.0 157:0.0 158:0.003355704697986577 159:0.0 160:0.0436241610738255 
1.0 1:0.0 2:0.0 3:0.03571428571428571 4:0.013392857142857142 5:0.0 6:0.004464285714285714 7:0.0 8:0.0 9:0.0 10:0.0 11:0.002232142857142857 12:0.029017857142857144 13:0.0 14:0.004464285714285714 15:0.0 16:0.004464285714285714 17:0.0 18:0.026785714285714284 19:0.0 20:0.002232142857142857 21:0.0 22:0.008928571428571428 23:0.0 24:0.008928571428571428 25:0.004464285714285714 26:0.0 27:0.0 28:0.0 29:0.002232142857142857 30:0.47544642857142855 31:0.0 32:0.0 33:0.0 34:0.002232142857142857 35:0.002232142857142857 36:0.0 37:0.002232142857142857 38:0.0 39:0.0 40:0.0 41:0.015625 42:0.0 43:0.002232142857142857 44:0.017857142857142856 45:0.0 46:0.0 47:0.0 48:0.002232142857142857 49:0.0 50:0.0 51:0.011160714285714286 52:0.0 53:0.0 54:0.0 55:0.0 56:0.0 57:0.006696428571428571 58:0.0 59:0.0 60:0.0 61:0.0 62:0.002232142857142857 63:0.0 64:0.015625 65:0.013392857142857142 66:0.002232142857142857 67:0.0 68:0.0 69:0.008928571428571428 70:0.0 71:0.0 72:0.0 73:0.0 74:0.002232142857142857 75:0.011160714285714286 76:0.004464285714285714 77:0.002232142857142857 78:0.0 79:0.0 80:0.006696428571428571 81:0.017857142857142856 82:0.017857142857142856 83:0.0 84:0.0 85:0.0 86:0.0 87:0.008928571428571428 88:0.0 89:0.0 90:0.0 91:0.0 92:0.008928571428571428 93:0.0 94:0.004464285714285714 95:0.0 96:0.008928571428571428 97:0.0 98:0.0 99:0.002232142857142857 100:0.002232142857142857 101:0.0 102:0.0 103:0.0 104:0.0 105:0.0 106:0.0 107:0.0 108:0.0 109:0.0 110:0.006696428571428571 111:0.0 112:0.002232142857142857 113:0.002232142857142857 114:0.0 115:0.0 116:0.0 117:0.0 118:0.0 119:0.0 120:0.002232142857142857 121:0.002232142857142857 122:0.0 123:0.0 124:0.0 125:0.0 126:0.0 127:0.0 128:0.006696428571428571 129:0.0 130:0.0 131:0.0 132:0.0 133:0.011160714285714286 134:0.0 135:0.002232142857142857 136:0.0 137:0.015625 138:0.026785714285714284 139:0.004464285714285714 140:0.0 141:0.0 142:0.006696428571428571 143:0.013392857142857142 144:0.0 145:0.002232142857142857 146:0.0 147:0.0 148:0.0 149:0.0 150:0.0 151:0.0 152:0.006696428571428571 153:0.002232142857142857 154:0.006696428571428571 155:0.0 156:0.0 157:0.0 158:0.004464285714285714 159:0.0 160:0.049107142857142856 
1.0 1:0.0 2:0.0 3:0.0 4:0.0 5:0.0 6:0.0028653295128939827 7:0.0 8:0.0 9:0.0 10:0.0 11:0.0057306590257879654 12:0.008595988538681949 13:0.0 14:0.0 15:0.0 16:0.0 17:0.0 18:0.0 19:0.0 20:0.0 21:0.0 22:0.0028653295128939827 23:0.0 24:0.0057306590257879654 25:0.0028653295128939827 26:0.0 27:0.0 28:0.0 29:0.0 30:0.7965616045845272 31:0.0 32:0.0 33:0.0 34:0.0 35:0.0 36:0.0 37:0.0 38:0.0 39:0.0 40:0.0 41:0.0 42:0.0 43:0.0 44:0.0028653295128939827 45:0.0 46:0.0 47:0.0 48:0.0 49:0.0 50:0.0 51:0.025787965616045846 52:0.0 53:0.0 54:0.0 55:0.0 56:0.0 57:0.0 58:0.0 59:0.0 60:0.0 61:0.0 62:0.0 63:0.0 64:0.0028653295128939827 65:0.0 66:0.0 67:0.0 68:0.0 69:0.0028653295128939827 70:0.0 71:0.0 72:0.0 73:0.0 74:0.0 75:0.0057306590257879654 76:0.0 77:0.0 78:0.0 79:0.0 80:0.0 81:0.0 82:0.0028653295128939827 83:0.0 84:0.0 85:0.0 86:0.0 87:0.0 88:0.0 89:0.0 90:0.0 91:0.0 92:0.0 93:0.0 94:0.0 95:0.0 96:0.0 97:0.0 98:0.0 99:0.0 100:0.0 101:0.0028653295128939827 102:0.0 103:0.0 104:0.0 105:0.0028653295128939827 106:0.02005730659025788 107:0.0 108:0.0 109:0.0 110:0.0028653295128939827 111:0.0 112:0.0 113:0.0 114:0.0 115:0.0 116:0.0 117:0.0 118:0.008595988538681949 119:0.0 120:0.0 121:0.011461318051575931 122:0.0 123:0.0 124:0.0 125:0.0 126:0.0 127:0.0 128:0.0 129:0.0 130:0.0 131:0.0 132:0.0 133:0.0 134:0.0 135:0.0 136:0.0 137:0.0 138:0.0 139:0.0 140:0.0 141:0.0 142:0.0 143:0.0 144:0.0 145:0.0028653295128939827 146:0.0 147:0.0 148:0.0 149:0.0 150:0.0 151:0.0 152:0.0028653295128939827 153:0.0 154:0.0 155:0.0 156:0.0 157:0.0 158:0.0 159:0.0 160:0.07736389684813753 
1.0 1:0.0 2:0.0 3:0.0 4:0.0 5:0.0 6:0.006993006993006993 7:0.0 8:0.0 9:0.0 10:0.0 11:0.0034965034965034965 12:0.0 13:0.0 14:0.0034965034965034965 15:0.0 16:0.0 17:0.0 18:0.0 19:0.0 20:0.01048951048951049 21:0.0 22:0.0 23:0.0034965034965034965 24:0.0 25:0.0034965034965034965 26:0.0 27:0.0 28:0.0 29:0.0 30:0.8006993006993007 31:0.0 32:0.0 33:0.0 34:0.0034965034965034965 35:0.01048951048951049 36:0.0 37:0.0 38:0.0 39:0.0 40:0.0 41:0.0 42:0.0 43:0.0 44:0.0 45:0.0 46:0.0 47:0.0 48:0.0 49:0.0 50:0.0034965034965034965 51:0.013986013986013986 52:0.0 53:0.006993006993006993 54:0.0 55:0.0 56:0.013986013986013986 57:0.0 58:0.006993006993006993 59:0.0 60:0.0 61:0.0 62:0.0 63:0.0 64:0.0 65:0.0 66:0.0034965034965034965 67:0.006993006993006993 68:0.0034965034965034965 69:0.0034965034965034965 70:0.0 71:0.0 72:0.0 73:0.0 74:0.01048951048951049 75:0.0 76:0.0 77:0.0034965034965034965 78:0.0 79:0.0 80:0.0 81:0.0 82:0.0 83:0.0 84:0.0 85:0.0034965034965034965 86:0.0 87:0.0 88:0.0 89:0.0 90:0.0 91:0.0 92:0.0034965034965034965 93:0.0 94:0.0 95:0.0 96:0.0 97:0.0 98:0.0 99:0.0 100:0.0 101:0.0 102:0.0034965034965034965 103:0.0 104:0.0 105:0.006993006993006993 106:0.006993006993006993 107:0.0 108:0.0 109:0.0 110:0.0 111:0.0 112:0.0034965034965034965 113:0.0 114:0.0 115:0.0 116:0.0 117:0.0 118:0.006993006993006993 119:0.0 120:0.0 121:0.006993006993006993 122:0.0 123:0.0 124:0.0 125:0.0 126:0.0034965034965034965 127:0.0 128:0.0 129:0.0 130:0.0 131:0.0 132:0.0 133:0.0 134:0.0 135:0.0034965034965034965 136:0.0 137:0.0 138:0.0 139:0.0 140:0.0 141:0.0 142:0.0 143:0.0 144:0.0 145:0.006993006993006993 146:0.006993006993006993 147:0.0034965034965034965 148:0.0 149:0.0 150:0.0 151:0.0 152:0.0 153:0.0 154:0.0034965034965034965 155:0.0 156:0.0 157:0.0 158:0.0034965034965034965 159:0.0 160:0.0034965034965034965 
1.0 1:0.0 2:0.0 3:0.0 4:0.0 5:0.0 6:0.0 7:0.0 8:0.006944444444444444 9:0.0 10:0.0 11:0.0 12:0.0 13:0.0 14:0.0 15:0.0 16:0.003472222222222222 17:0.0 18:0.0 19:0.0 20:0.0 21:0.0 22:0.0 23:0.003472222222222222 24:0.0 25:0.006944444444444444 26:0.0 27:0.0 28:0.0 29:0.0 30:0.8020833333333334 31:0.0 32:0.0 33:0.0 34:0.0 35:0.006944444444444444 36:0.0 37:0.0 38:0.0 39:0.0 40:0.0 41:0.003472222222222222 42:0.0 43:0.0 44:0.0 45:0.0 46:0.0 47:0.0 48:0.0 49:0.0 50:0.006944444444444444 51:0.027777777777777776 52:0.0 53:0.003472222222222222 54:0.0 55:0.0 56:0.0 57:0.0 58:0.006944444444444444 59:0.0 60:0.0 61:0.0 62:0.0 63:0.0 64:0.0 65:0.006944444444444444 66:0.0 67:0.0 68:0.003472222222222222 69:0.0 70:0.0 71:0.0 72:0.0 73:0.0 74:0.006944444444444444 75:0.003472222222222222 76:0.006944444444444444 77:0.003472222222222222 78:0.0 79:0.003472222222222222 80:0.003472222222222222 81:0.003472222222222222 82:0.003472222222222222 83:0.0 84:0.0 85:0.003472222222222222 86:0.0 87:0.0 88:0.0 89:0.003472222222222222 90:0.0 91:0.0 92:0.003472222222222222 93:0.0 94:0.0 95:0.0 96:0.0 97:0.0 98:0.0 99:0.0 100:0.0 101:0.006944444444444444 102:0.0 103:0.0 104:0.0 105:0.006944444444444444 106:0.003472222222222222 107:0.0 108:0.0 109:0.0 110:0.0 111:0.0 112:0.003472222222222222 113:0.0 114:0.0 115:0.0 116:0.0 117:0.0 118:0.0 119:0.0 120:0.0 121:0.0 122:0.0 123:0.0 124:0.0 125:0.0 126:0.003472222222222222 127:0.0 128:0.0 129:0.0 130:0.0 131:0.0 132:0.0 133:0.003472222222222222 134:0.0 135:0.006944444444444444 136:0.003472222222222222 137:0.0 138:0.003472222222222222 139:0.0 140:0.0 141:0.006944444444444444 142:0.0 143:0.0 144:0.0 145:0.013888888888888888 146:0.0 147:0.0 148:0.0 149:0.003472222222222222 150:0.0 151:0.0 152:0.0 153:0.0 154:0.0 155:0.0 156:0.0 157:0.0 158:0.0 159:0.0 160:0.0 
1.0 1:0.0 2:0.0 3:0.0 4:0.004618937644341801 5:0.0 6:0.0 7:0.0 8:0.0 9:0.0 10:0.0 11:0.004618937644341801 12:0.006928406466512702 13:0.0 14:0.0023094688221709007 15:0.0 16:0.0 17:0.0 18:0.0023094688221709007 19:0.0 20:0.0 21:0.0 22:0.0 23:0.0 24:0.006928406466512702 25:0.0023094688221709007 26:0.0 27:0.0 28:0.0 29:0.0 30:0.7297921478060047 31:0.0 32:0.0 33:0.0 34:0.0 35:0.0 36:0.0 37:0.0 38:0.0 39:0.0 40:0.0 41:0.0023094688221709007 42:0.0 43:0.0 44:0.0023094688221709007 45:0.0 46:0.0 47:0.0 48:0.0 49:0.0 50:0.0 51:0.016166281755196306 52:0.0 53:0.0 54:0.0 55:0.0 56:0.0 57:0.0 58:0.0 59:0.0 60:0.0 61:0.0 62:0.0 63:0.0 64:0.0023094688221709007 65:0.004618937644341801 66:0.0 67:0.0 68:0.0 69:0.004618937644341801 70:0.0 71:0.0 72:0.0 73:0.0 74:0.0 75:0.011547344110854504 76:0.0 77:0.0 78:0.0 79:0.0 80:0.0 81:0.0 82:0.0023094688221709007 83:0.0 84:0.0 85:0.0 86:0.0 87:0.0 88:0.0 89:0.0 90:0.0 91:0.0 92:0.0 93:0.0 94:0.0 95:0.0 96:0.0 97:0.0 98:0.0 99:0.0 100:0.0 101:0.0023094688221709007 102:0.0 103:0.0023094688221709007 104:0.0 105:0.0023094688221709007 106:0.016166281755196306 107:0.0 108:0.0 109:0.0 110:0.0023094688221709007 111:0.0 112:0.0 113:0.0023094688221709007 114:0.0 115:0.0 116:0.0 117:0.0 118:0.006928406466512702 119:0.0 120:0.0 121:0.009237875288683603 122:0.0 123:0.0 124:0.0 125:0.0 126:0.0 127:0.0 128:0.0 129:0.0 130:0.0 131:0.0 132:0.0 133:0.0 134:0.0 135:0.0 136:0.0023094688221709007 137:0.0 138:0.0 139:0.0 140:0.0 141:0.0 142:0.0 143:0.0 144:0.0 145:0.004618937644341801 146:0.0 147:0.0 148:0.0 149:0.0 150:0.0023094688221709007 151:0.0 152:0.004618937644341801 153:0.0023094688221709007 154:0.0 155:0.0 156:0.0 157:0.0 158:0.0 159:0.0 160:0.13394919168591224 
1.0 1:0.0 2:0.0 3:0.002785515320334262 4:0.002785515320334262 5:0.0 6:0.008356545961002786 7:0.0 8:0.0 9:0.002785515320334262 10:0.0 11:0.0 12:0.005571030640668524 13:0.0 14:0.005571030640668524 15:0.0 16:0.0 17:0.0 18:0.002785515320334262 19:0.0 20:0.002785515320334262 21:0.0 22:0.0 23:0.0 24:0.005571030640668524 25:0.013927576601671309 26:0.0 27:0.0 28:0.0 29:0.0 30:0.7465181058495822 31:0.0 32:0.0 33:0.0 34:0.0 35:0.0 36:0.0 37:0.0 38:0.0 39:0.0 40:0.0 41:0.0 42:0.0 43:0.0 44:0.002785515320334262 45:0.0 46:0.0 47:0.0 48:0.008356545961002786 49:0.0 50:0.0 51:0.019498607242339833 52:0.0 53:0.002785515320334262 54:0.0 55:0.0 56:0.008356545961002786 57:0.002785515320334262 58:0.008356545961002786 59:0.002785515320334262 60:0.0 61:0.0 62:0.002785515320334262 63:0.0 64:0.002785515320334262 65:0.0 66:0.002785515320334262 67:0.0 68:0.0 69:0.0 70:0.0 71:0.0 72:0.0 73:0.0 74:0.005571030640668524 75:0.002785515320334262 76:0.002785515320334262 77:0.002785515320334262 78:0.0 79:0.0 80:0.0 81:0.0 82:0.0 83:0.0 84:0.0 85:0.0 86:0.0 87:0.0 88:0.0 89:0.005571030640668524 90:0.0 91:0.0 92:0.002785515320334262 93:0.0 94:0.0 95:0.0 96:0.0 97:0.0 98:0.0 99:0.0 100:0.0 101:0.002785515320334262 102:0.0 103:0.002785515320334262 104:0.0 105:0.002785515320334262 106:0.019498607242339833 107:0.0 108:0.0 109:0.0 110:0.002785515320334262 111:0.0 112:0.008356545961002786 113:0.0 114:0.0 115:0.0 116:0.0 117:0.0 118:0.008356545961002786 119:0.0 120:0.0 121:0.011142061281337047 122:0.0 123:0.0 124:0.0 125:0.0 126:0.0 127:0.0 128:0.0 129:0.0 130:0.0 131:0.0 132:0.0 133:0.0 134:0.0 135:0.002785515320334262 136:0.002785515320334262 137:0.0 138:0.0 139:0.002785515320334262 140:0.0 141:0.002785515320334262 142:0.002785515320334262 143:0.0 144:0.0 145:0.008356545961002786 146:0.0 147:0.0 148:0.0 149:0.005571030640668524 150:0.0 151:0.0 152:0.0 153:0.002785515320334262 154:0.002785515320334262 155:0.0 156:0.0 157:0.0 158:0.0 159:0.0 160:0.022284122562674095 
1.0 1:0.0 2:0.0 3:0.03382663847780127 4:0.010570824524312896 5:0.0 6:0.0021141649048625794 7:0.0 8:0.0021141649048625794 9:0.0021141649048625794 10:0.0 11:0.0021141649048625794 12:0.035940803382663845 13:0.0 14:0.0021141649048625794 15:0.0 16:0.006342494714587738 17:0.0 18:0.02536997885835095 19:0.0 20:0.0 21:0.0 22:0.004228329809725159 23:0.0 24:0.004228329809725159 25:0.006342494714587738 26:0.0 27:0.0 28:0.0 29:0.0021141649048625794 30:0.45665961945031713 31:0.0 32:0.0 33:0.0 34:0.0021141649048625794 35:0.0021141649048625794 36:0.0 37:0.0021141649048625794 38:0.0 39:0.0 40:0.0 41:0.014799154334038054 42:0.0 43:0.0021141649048625794 44:0.006342494714587738 45:0.0 46:0.0 47:0.0 48:0.0 49:0.0 50:0.0 51:0.010570824524312896 52:0.0 53:0.0 54:0.0 55:0.0 56:0.0 57:0.004228329809725159 58:0.0 59:0.0 60:0.0 61:0.0 62:0.0021141649048625794 63:0.0 64:0.012684989429175475 65:0.014799154334038054 66:0.0 67:0.0 68:0.0 69:0.004228329809725159 70:0.0 71:0.0 72:0.0 73:0.0 74:0.0 75:0.006342494714587738 76:0.004228329809725159 77:0.0021141649048625794 78:0.0 79:0.0 80:0.0021141649048625794 81:0.016913319238900635 82:0.021141649048625793 83:0.0 84:0.0 85:0.0 86:0.0 87:0.014799154334038054 88:0.0 89:0.0 90:0.0 91:0.0 92:0.004228329809725159 93:0.0 94:0.0021141649048625794 95:0.0 96:0.004228329809725159 97:0.0 98:0.0 99:0.0021141649048625794 100:0.0021141649048625794 101:0.0 102:0.0 103:0.0021141649048625794 104:0.0 105:0.0 106:0.0 107:0.0 108:0.0 109:0.0 110:0.006342494714587738 111:0.0 112:0.008456659619450317 113:0.0021141649048625794 114:0.0 115:0.0 116:0.0 117:0.0 118:0.0021141649048625794 119:0.0 120:0.0021141649048625794 121:0.0021141649048625794 122:0.0 123:0.0 124:0.0 125:0.0 126:0.0 127:0.0 128:0.0021141649048625794 129:0.0 130:0.0 131:0.0 132:0.0 133:0.012684989429175475 134:0.0 135:0.0 136:0.004228329809725159 137:0.012684989429175475 138:0.014799154334038054 139:0.006342494714587738 140:0.0 141:0.0 142:0.0021141649048625794 143:0.023255813953488372 144:0.0 145:0.0021141649048625794 146:0.0 147:0.0 148:0.0021141649048625794 149:0.0021141649048625794 150:0.0 151:0.0 152:0.010570824524312896 153:0.0021141649048625794 154:0.0021141649048625794 155:0.0 156:0.0 157:0.0 158:0.006342494714587738 159:0.0 160:0.11205073995771671 
1.0 1:0.0 2:0.004048582995951417 3:0.0 4:0.008097165991902834 5:0.0 6:0.008097165991902834 7:0.0 8:0.0 9:0.004048582995951417 10:0.0 11:0.0 12:0.0 13:0.0 14:0.004048582995951417 15:0.0 16:0.0 17:0.0 18:0.0 19:0.0 20:0.0 21:0.0 22:0.0 23:0.008097165991902834 24:0.004048582995951417 25:0.012145748987854251 26:0.0 27:0.0 28:0.0 29:0.0 30:0.7935222672064778 31:0.0 32:0.0 33:0.0 34:0.0 35:0.008097165991902834 36:0.0 37:0.0 38:0.0 39:0.0 40:0.0 41:0.0 42:0.0 43:0.0 44:0.0 45:0.0 46:0.0 47:0.0 48:0.0 49:0.0 50:0.004048582995951417 51:0.024291497975708502 52:0.0 53:0.0 54:0.0 55:0.0 56:0.0 57:0.0 58:0.012145748987854251 59:0.0 60:0.0 61:0.0 62:0.0 63:0.0 64:0.0 65:0.004048582995951417 66:0.004048582995951417 67:0.0 68:0.004048582995951417 69:0.0 70:0.0 71:0.0 72:0.0 73:0.0 74:0.004048582995951417 75:0.0 76:0.0 77:0.004048582995951417 78:0.0 79:0.004048582995951417 80:0.004048582995951417 81:0.0 82:0.004048582995951417 83:0.0 84:0.0 85:0.0 86:0.0 87:0.0 88:0.0 89:0.0 90:0.0 91:0.0 92:0.004048582995951417 93:0.0 94:0.004048582995951417 95:0.0 96:0.0 97:0.0 98:0.0 99:0.0 100:0.0 101:0.008097165991902834 102:0.004048582995951417 103:0.0 104:0.0 105:0.004048582995951417 106:0.004048582995951417 107:0.0 108:0.0 109:0.0 110:0.0 111:0.0 112:0.004048582995951417 113:0.0 114:0.0 115:0.0 116:0.0 117:0.0 118:0.004048582995951417 119:0.0 120:0.0 121:0.0 122:0.0 123:0.0 124:0.0 125:0.0 126:0.0 127:0.0 128:0.0 129:0.0 130:0.0 131:0.0 132:0.0 133:0.0 134:0.0 135:0.008097165991902834 136:0.0 137:0.0 138:0.0 139:0.0 140:0.0 141:0.008097165991902834 142:0.0 143:0.0 144:0.0 145:0.004048582995951417 146:0.004048582995951417 147:0.0 148:0.0 149:0.004048582995951417 150:0.0 151:0.0 152:0.0 153:0.0 154:0.0 155:0.0 156:0.0 157:0.0 158:0.0 159:0.0 160:0.008097165991902834 
1.0 1:0.0 2:0.0 3:0.026217228464419477 4:0.009363295880149813 5:0.0 6:0.003745318352059925 7:0.0 8:0.0 9:0.0 10:0.0 11:0.0018726591760299626 12:0.02247191011235955 13:0.0 14:0.0018726591760299626 15:0.0 16:0.0018726591760299626 17:0.0 18:0.018726591760299626 19:0.0 20:0.0018726591760299626 21:0.0 22:0.0056179775280898875 23:0.0 24:0.00749063670411985 25:0.0056179775280898875 26:0.0 27:0.0 28:0.0 29:0.0018726591760299626 30:0.5655430711610487 31:0.0 32:0.0 33:0.0 34:0.0 35:0.0018726591760299626 36:0.0 37:0.003745318352059925 38:0.0 39:0.0 40:0.0 41:0.009363295880149813 42:0.0 43:0.0018726591760299626 44:0.011235955056179775 45:0.0 46:0.0 47:0.0 48:0.0018726591760299626 49:0.0 50:0.0 51:0.011235955056179775 52:0.0 53:0.0 54:0.0 55:0.0 56:0.0 57:0.0056179775280898875 58:0.0 59:0.0 60:0.0 61:0.0 62:0.0018726591760299626 63:0.0 64:0.013108614232209739 65:0.011235955056179775 66:0.0018726591760299626 67:0.0 68:0.0 69:0.00749063670411985 70:0.0 71:0.0 72:0.0018726591760299626 73:0.0 74:0.0018726591760299626 75:0.0056179775280898875 76:0.003745318352059925 77:0.0018726591760299626 78:0.0 79:0.0018726591760299626 80:0.0056179775280898875 81:0.0149812734082397 82:0.013108614232209739 83:0.0 84:0.0 85:0.0 86:0.0 87:0.00749063670411985 88:0.0 89:0.0 90:0.0 91:0.0 92:0.00749063670411985 93:0.0 94:0.0056179775280898875 95:0.0 96:0.00749063670411985 97:0.0 98:0.0 99:0.0018726591760299626 100:0.0018726591760299626 101:0.0018726591760299626 102:0.0 103:0.0 104:0.0 105:0.0 106:0.0 107:0.0 108:0.0 109:0.0 110:0.00749063670411985 111:0.0 112:0.0 113:0.003745318352059925 114:0.0 115:0.0 116:0.0 117:0.0 118:0.0018726591760299626 119:0.0 120:0.0018726591760299626 121:0.003745318352059925 122:0.0 123:0.0 124:0.0 125:0.0 126:0.0 127:0.0 128:0.0056179775280898875 129:0.0 130:0.0 131:0.0 132:0.0 133:0.009363295880149813 134:0.0018726591760299626 135:0.0018726591760299626 136:0.0 137:0.011235955056179775 138:0.02247191011235955 139:0.003745318352059925 140:0.0 141:0.0 142:0.0056179775280898875 143:0.011235955056179775 144:0.0 145:0.0 146:0.0 147:0.0 148:0.0 149:0.0 150:0.0 151:0.0 152:0.0056179775280898875 153:0.0018726591760299626 154:0.003745318352059925 155:0.0 156:0.0 157:0.0 158:0.003745318352059925 159:0.0 160:0.052434456928838954 
1.0 1:0.0 2:0.0 3:0.006711409395973154 4:0.003355704697986577 5:0.0 6:0.003355704697986577 7:0.0 8:0.0 9:0.003355704697986577 10:0.0 11:0.0 12:0.006711409395973154 13:0.0 14:0.0 15:0.0 16:0.0 17:0.0 18:0.0 19:0.0 20:0.0 21:0.0 22:0.006711409395973154 23:0.0 24:0.0 25:0.006711409395973154 26:0.0 27:0.0 28:0.0 29:0.0 30:0.7986577181208053 31:0.0 32:0.0 33:0.0 34:0.0 35:0.0 36:0.0 37:0.0 38:0.0 39:0.0 40:0.0 41:0.003355704697986577 42:0.0 43:0.0 44:0.006711409395973154 45:0.0 46:0.0 47:0.0 48:0.0 49:0.0 50:0.0 51:0.013422818791946308 52:0.0 53:0.0 54:0.0 55:0.0 56:0.0 57:0.0 58:0.0 59:0.0 60:0.0 61:0.0 62:0.0 63:0.0 64:0.003355704697986577 65:0.0 66:0.0 67:0.0 68:0.0 69:0.0 70:0.0 71:0.0 72:0.0 73:0.0 74:0.003355704697986577 75:0.006711409395973154 76:0.003355704697986577 77:0.0 78:0.0 79:0.003355704697986577 80:0.0 81:0.0 82:0.0 83:0.0 84:0.0 85:0.0 86:0.0 87:0.003355704697986577 88:0.0 89:0.0 90:0.0 91:0.0 92:0.0 93:0.0 94:0.003355704697986577 95:0.0 96:0.0 97:0.0 98:0.0 99:0.0 100:0.0 101:0.0 102:0.003355704697986577 103:0.0 104:0.0 105:0.0 106:0.0 107:0.0 108:0.0 109:0.0 110:0.0 111:0.0 112:0.0 113:0.0 114:0.0 115:0.0 116:0.0 117:0.0 118:0.003355704697986577 119:0.003355704697986577 120:0.0 121:0.0 122:0.0 123:0.0 124:0.0 125:0.0 126:0.0 127:0.0 128:0.003355704697986577 129:0.0 130:0.0 131:0.0 132:0.0 133:0.003355704697986577 134:0.003355704697986577 135:0.0 136:0.0 137:0.0 138:0.0 139:0.0 140:0.0 141:0.003355704697986577 142:0.0 143:0.006711409395973154 144:0.0 145:0.010067114093959731 146:0.0 147:0.0 148:0.0 149:0.0 150:0.003355704697986577 151:0.0 152:0.003355704697986577 153:0.0 154:0.0 155:0.0 156:0.0 157:0.0 158:0.0 159:0.0 160:0.06711409395973154 
1.0 1:0.0 2:0.0 3:0.0 4:0.0 5:0.0 6:0.0 7:0.0 8:0.0 9:0.0 10:0.0 11:0.004608294930875576 12:0.004608294930875576 13:0.0 14:0.004608294930875576 15:0.0 16:0.0 17:0.0 18:0.0 19:0.0 20:0.0 21:0.0 22:0.0 23:0.0 24:0.004608294930875576 25:0.004608294930875576 26:0.0 27:0.0 28:0.0 29:0.0 30:0.7004608294930875 31:0.0 32:0.0 33:0.0 34:0.0 35:0.0 36:0.0 37:0.0 38:0.0 39:0.0 40:0.0 41:0.0 42:0.0 43:0.0 44:0.018433179723502304 45:0.0 46:0.0 47:0.0 48:0.0 49:0.0 50:0.0 51:0.004608294930875576 52:0.0 53:0.0 54:0.0 55:0.0 56:0.0 57:0.0 58:0.0 59:0.0 60:0.0 61:0.0 62:0.0 63:0.0 64:0.013824884792626729 65:0.009216589861751152 66:0.0 67:0.0 68:0.0 69:0.009216589861751152 70:0.0 71:0.0 72:0.0 73:0.0 74:0.0 75:0.0 76:0.004608294930875576 77:0.0 78:0.0 79:0.0 80:0.0 81:0.0 82:0.004608294930875576 83:0.0 84:0.0 85:0.0 86:0.0 87:0.004608294930875576 88:0.0 89:0.0 90:0.0 91:0.0 92:0.004608294930875576 93:0.0 94:0.0 95:0.0 96:0.004608294930875576 97:0.0 98:0.0 99:0.0 100:0.0 101:0.0 102:0.0 103:0.0 104:0.0 105:0.0 106:0.0 107:0.0 108:0.0 109:0.0 110:0.004608294930875576 111:0.0 112:0.0 113:0.0 114:0.0 115:0.0 116:0.0 117:0.004608294930875576 118:0.0 119:0.0 120:0.0 121:0.0 122:0.0 123:0.0 124:0.0 125:0.0 126:0.0 127:0.0 128:0.0 129:0.0 130:0.0 131:0.0 132:0.0 133:0.0 134:0.0 135:0.0 136:0.0 137:0.0 138:0.0 139:0.004608294930875576 140:0.0 141:0.0 142:0.0 143:0.009216589861751152 144:0.0 145:0.0 146:0.0 147:0.0 148:0.0 149:0.004608294930875576 150:0.0 151:0.0 152:0.0 153:0.0 154:0.0 155:0.0 156:0.0 157:0.0 158:0.0 159:0.0 160:0.17050691244239632 
1.0 1:0.0 2:0.0 3:0.006147540983606557 4:0.0020491803278688526 5:0.0 6:0.0 7:0.0 8:0.0 9:0.006147540983606557 10:0.0 11:0.0 12:0.018442622950819672 13:0.0 14:0.0020491803278688526 15:0.0 16:0.0 17:0.0 18:0.00819672131147541 19:0.0 20:0.0 21:0.0 22:0.0020491803278688526 23:0.0020491803278688526 24:0.0020491803278688526 25:0.004098360655737705 26:0.0 27:0.0 28:0.0 29:0.0020491803278688526 30:0.6864754098360656 31:0.004098360655737705 32:0.0 33:0.0 34:0.0 35:0.0020491803278688526 36:0.0 37:0.0020491803278688526 38:0.0 39:0.0 40:0.0 41:0.0020491803278688526 42:0.0 43:0.004098360655737705 44:0.014344262295081968 45:0.0 46:0.0 47:0.0 48:0.0020491803278688526 49:0.0 50:0.0020491803278688526 51:0.018442622950819672 52:0.0 53:0.0 54:0.0 55:0.0 56:0.0 57:0.006147540983606557 58:0.0020491803278688526 59:0.0 60:0.0 61:0.0 62:0.0020491803278688526 63:0.0 64:0.004098360655737705 65:0.004098360655737705 66:0.0 67:0.0 68:0.0020491803278688526 69:0.0 70:0.0 71:0.0 72:0.0020491803278688526 73:0.0 74:0.0020491803278688526 75:0.004098360655737705 76:0.006147540983606557 77:0.0 78:0.0 79:0.0 80:0.0 81:0.004098360655737705 82:0.0020491803278688526 83:0.0 84:0.0 85:0.0 86:0.0 87:0.0020491803278688526 88:0.0 89:0.0 90:0.0 91:0.0 92:0.0 93:0.0 94:0.0020491803278688526 95:0.0 96:0.0020491803278688526 97:0.0 98:0.0 99:0.0 100:0.0 101:0.0020491803278688526 102:0.0 103:0.0 104:0.0 105:0.0020491803278688526 106:0.014344262295081968 107:0.0 108:0.0 109:0.0 110:0.0020491803278688526 111:0.0 112:0.006147540983606557 113:0.004098360655737705 114:0.0 115:0.0 116:0.0020491803278688526 117:0.0020491803278688526 118:0.006147540983606557 119:0.0 120:0.0 121:0.00819672131147541 122:0.0 123:0.0 124:0.0 125:0.0 126:0.0 127:0.0 128:0.0 129:0.0 130:0.0 131:0.0 132:0.0 133:0.0 134:0.0020491803278688526 135:0.0 136:0.006147540983606557 137:0.0 138:0.0 139:0.0020491803278688526 140:0.0 141:0.0020491803278688526 142:0.0 143:0.0020491803278688526 144:0.0 145:0.004098360655737705 146:0.0 147:0.0 148:0.0 149:0.0020491803278688526 150:0.0 151:0.0 152:0.010245901639344262 153:0.0 154:0.0 155:0.0 156:0.0 157:0.0 158:0.0020491803278688526 159:0.0 160:0.0778688524590164 
1.0 1:0.0 2:0.0 3:0.0 4:0.0 5:0.0 6:0.011406844106463879 7:0.0 8:0.0 9:0.0 10:0.0 11:0.0038022813688212928 12:0.0 13:0.0 14:0.0038022813688212928 15:0.0 16:0.0 17:0.0 18:0.0 19:0.0 20:0.015209125475285171 21:0.0 22:0.0 23:0.0 24:0.0038022813688212928 25:0.0038022813688212928 26:0.0 27:0.0 28:0.0 29:0.0 30:0.7908745247148289 31:0.0 32:0.0 33:0.0 34:0.0038022813688212928 35:0.0076045627376425855 36:0.0 37:0.0 38:0.0 39:0.0 40:0.0 41:0.0 42:0.0 43:0.0 44:0.0 45:0.0 46:0.0 47:0.0 48:0.0 49:0.0 50:0.0038022813688212928 51:0.015209125475285171 52:0.0 53:0.0038022813688212928 54:0.0 55:0.0 56:0.011406844106463879 57:0.0 58:0.0076045627376425855 59:0.0 60:0.0 61:0.0 62:0.0 63:0.0 64:0.0 65:0.0 66:0.0038022813688212928 67:0.0038022813688212928 68:0.0 69:0.0076045627376425855 70:0.0 71:0.0 72:0.0 73:0.0 74:0.011406844106463879 75:0.0 76:0.0 77:0.0038022813688212928 78:0.0 79:0.0 80:0.0 81:0.0 82:0.0 83:0.0 84:0.0 85:0.0038022813688212928 86:0.0 87:0.0 88:0.0 89:0.0 90:0.0 91:0.0 92:0.0038022813688212928 93:0.0 94:0.0 95:0.0 96:0.0 97:0.0 98:0.0 99:0.0 100:0.0 101:0.0 102:0.0038022813688212928 103:0.0 104:0.0 105:0.0076045627376425855 106:0.011406844106463879 107:0.0 108:0.0038022813688212928 109:0.0 110:0.0 111:0.0 112:0.0038022813688212928 113:0.0 114:0.0 115:0.0 116:0.0 117:0.0 118:0.0038022813688212928 119:0.0 120:0.0 121:0.0076045627376425855 122:0.0 123:0.0 124:0.0 125:0.0 126:0.0038022813688212928 127:0.0 128:0.0 129:0.0 130:0.0 131:0.0 132:0.0 133:0.0 134:0.0 135:0.0076045627376425855 136:0.0 137:0.0 138:0.0 139:0.0 140:0.0 141:0.0 142:0.0 143:0.0 144:0.0 145:0.011406844106463879 146:0.0038022813688212928 147:0.0038022813688212928 148:0.0 149:0.0 150:0.0 151:0.0 152:0.0 153:0.0 154:0.0038022813688212928 155:0.0 156:0.0 157:0.0 158:0.0 159:0.0 160:0.0 
1.0 1:0.0 2:0.0 3:0.03571428571428571 4:0.013392857142857142 5:0.0 6:0.004464285714285714 7:0.0 8:0.0 9:0.0 10:0.0 11:0.002232142857142857 12:0.029017857142857144 13:0.0 14:0.004464285714285714 15:0.0 16:0.004464285714285714 17:0.0 18:0.026785714285714284 19:0.0 20:0.002232142857142857 21:0.0 22:0.008928571428571428 23:0.0 24:0.008928571428571428 25:0.004464285714285714 26:0.0 27:0.0 28:0.0 29:0.002232142857142857 30:0.47544642857142855 31:0.0 32:0.0 33:0.0 34:0.002232142857142857 35:0.002232142857142857 36:0.0 37:0.002232142857142857 38:0.0 39:0.0 40:0.0 41:0.015625 42:0.0 43:0.002232142857142857 44:0.017857142857142856 45:0.0 46:0.0 47:0.0 48:0.002232142857142857 49:0.0 50:0.0 51:0.011160714285714286 52:0.0 53:0.0 54:0.0 55:0.0 56:0.0 57:0.006696428571428571 58:0.0 59:0.0 60:0.0 61:0.0 62:0.002232142857142857 63:0.0 64:0.015625 65:0.013392857142857142 66:0.002232142857142857 67:0.0 68:0.0 69:0.008928571428571428 70:0.0 71:0.0 72:0.0 73:0.0 74:0.002232142857142857 75:0.011160714285714286 76:0.004464285714285714 77:0.002232142857142857 78:0.0 79:0.0 80:0.006696428571428571 81:0.017857142857142856 82:0.017857142857142856 83:0.0 84:0.0 85:0.0 86:0.0 87:0.008928571428571428 88:0.0 89:0.0 90:0.0 91:0.0 92:0.008928571428571428 93:0.0 94:0.004464285714285714 95:0.0 96:0.008928571428571428 97:0.0 98:0.0 99:0.002232142857142857 100:0.002232142857142857 101:0.0 102:0.0 103:0.0 104:0.0 105:0.0 106:0.0 107:0.0 108:0.0 109:0.0 110:0.006696428571428571 111:0.0 112:0.002232142857142857 113:0.002232142857142857 114:0.0 115:0.0 116:0.0 117:0.0 118:0.0 119:0.0 120:0.002232142857142857 121:0.002232142857142857 122:0.0 123:0.0 124:0.0 125:0.0 126:0.0 127:0.0 128:0.006696428571428571 129:0.0 130:0.0 131:0.0 132:0.0 133:0.011160714285714286 134:0.0 135:0.002232142857142857 136:0.0 137:0.015625 138:0.026785714285714284 139:0.004464285714285714 140:0.0 141:0.0 142:0.006696428571428571 143:0.013392857142857142 144:0.0 145:0.002232142857142857 146:0.0 147:0.0 148:0.0 149:0.0 150:0.0 151:0.0 152:0.006696428571428571 153:0.002232142857142857 154:0.006696428571428571 155:0.0 156:0.0 157:0.0 158:0.004464285714285714 159:0.0 160:0.049107142857142856 
1.0 1:0.0 2:0.0 3:0.03728070175438596 4:0.010964912280701754 5:0.0 6:0.0021929824561403508 7:0.0 8:0.0021929824561403508 9:0.0021929824561403508 10:0.0 11:0.0021929824561403508 12:0.03728070175438596 13:0.0 14:0.0021929824561403508 15:0.0 16:0.008771929824561403 17:0.0 18:0.02631578947368421 19:0.0 20:0.0 21:0.0 22:0.0021929824561403508 23:0.0 24:0.0043859649122807015 25:0.006578947368421052 26:0.0 27:0.0 28:0.0 29:0.0021929824561403508 30:0.4298245614035088 31:0.0 32:0.0 33:0.0 34:0.0 35:0.0021929824561403508 36:0.0 37:0.0 38:0.0 39:0.0021929824561403508 40:0.0 41:0.017543859649122806 42:0.0 43:0.0021929824561403508 44:0.008771929824561403 45:0.0 46:0.0 47:0.0 48:0.0 49:0.0 50:0.0 51:0.008771929824561403 52:0.0 53:0.0 54:0.0 55:0.0 56:0.0 57:0.0043859649122807015 58:0.0 59:0.0 60:0.0 61:0.0 62:0.0021929824561403508 63:0.0 64:0.010964912280701754 65:0.013157894736842105 66:0.0 67:0.0 68:0.0 69:0.0043859649122807015 70:0.0 71:0.0 72:0.0 73:0.0 74:0.0 75:0.006578947368421052 76:0.0043859649122807015 77:0.0021929824561403508 78:0.0 79:0.0 80:0.0021929824561403508 81:0.017543859649122806 82:0.021929824561403508 83:0.0 84:0.0 85:0.0 86:0.0 87:0.017543859649122806 88:0.0 89:0.0 90:0.0 91:0.0 92:0.0043859649122807015 93:0.0 94:0.0021929824561403508 95:0.0 96:0.0043859649122807015 97:0.0 98:0.0 99:0.0021929824561403508 100:0.0021929824561403508 101:0.0 102:0.0 103:0.0021929824561403508 104:0.0 105:0.0 106:0.0 107:0.0 108:0.0 109:0.0 110:0.0043859649122807015 111:0.0 112:0.010964912280701754 113:0.0021929824561403508 114:0.0 115:0.0 116:0.0 117:0.0 118:0.0021929824561403508 119:0.0 120:0.0043859649122807015 121:0.0021929824561403508 122:0.0 123:0.0 124:0.0 125:0.0 126:0.0 127:0.0 128:0.0021929824561403508 129:0.0 130:0.0 131:0.0 132:0.0 133:0.015350877192982455 134:0.0 135:0.0 136:0.0043859649122807015 137:0.013157894736842105 138:0.015350877192982455 139:0.006578947368421052 140:0.0 141:0.0 142:0.0021929824561403508 143:0.02412280701754386 144:0.0 145:0.0021929824561403508 146:0.0 147:0.0 148:0.0043859649122807015 149:0.0 150:0.0 151:0.0 152:0.010964912280701754 153:0.0043859649122807015 154:0.0021929824561403508 155:0.0 156:0.0 157:0.0 158:0.006578947368421052 159:0.0 160:0.1162280701754386 
1.0 1:0.0 2:0.0 3:0.008547008547008548 4:0.0 5:0.0 6:0.0 7:0.0 8:0.002849002849002849 9:0.0 10:0.0 11:0.002849002849002849 12:0.008547008547008548 13:0.0 14:0.0 15:0.0 16:0.002849002849002849 17:0.0 18:0.002849002849002849 19:0.0 20:0.0 21:0.0 22:0.0 23:0.0 24:0.0 25:0.002849002849002849 26:0.0 27:0.0 28:0.0 29:0.0 30:0.8005698005698005 31:0.002849002849002849 32:0.0 33:0.0 34:0.0 35:0.0 36:0.0 37:0.002849002849002849 38:0.002849002849002849 39:0.0 40:0.0 41:0.002849002849002849 42:0.0 43:0.0 44:0.0 45:0.0 46:0.0 47:0.0 48:0.0 49:0.0 50:0.0 51:0.002849002849002849 52:0.0 53:0.002849002849002849 54:0.0 55:0.0 56:0.0 57:0.0 58:0.005698005698005698 59:0.0 60:0.0 61:0.0 62:0.0 63:0.0 64:0.0 65:0.002849002849002849 66:0.0 67:0.0 68:0.0 69:0.0 70:0.0 71:0.0 72:0.0 73:0.0 74:0.0 75:0.0 76:0.002849002849002849 77:0.0 78:0.0 79:0.002849002849002849 80:0.0 81:0.0 82:0.0 83:0.0 84:0.0 85:0.0 86:0.0 87:0.0 88:0.0 89:0.0 90:0.0 91:0.0 92:0.002849002849002849 93:0.0 94:0.002849002849002849 95:0.0 96:0.0 97:0.0 98:0.0 99:0.0 100:0.0 101:0.0 102:0.0 103:0.0 104:0.0 105:0.005698005698005698 106:0.0 107:0.0 108:0.0 109:0.0 110:0.0 111:0.0 112:0.0 113:0.0 114:0.0 115:0.0 116:0.0 117:0.0 118:0.0 119:0.002849002849002849 120:0.0 121:0.0 122:0.0 123:0.0 124:0.0 125:0.0 126:0.0 127:0.0 128:0.0 129:0.0 130:0.0 131:0.0 132:0.0 133:0.0 134:0.0 135:0.0 136:0.002849002849002849 137:0.0 138:0.0 139:0.0 140:0.0 141:0.0 142:0.005698005698005698 143:0.0 144:0.0 145:0.005698005698005698 146:0.0 147:0.002849002849002849 148:0.0 149:0.0 150:0.0 151:0.0 152:0.0 153:0.0 154:0.0 155:0.0 156:0.0 157:0.0 158:0.002849002849002849 159:0.0 160:0.10256410256410256 
1.0 1:0.0 2:0.0 3:0.011933174224343675 4:0.011933174224343675 5:0.0 6:0.002386634844868735 7:0.0 8:0.00477326968973747 9:0.00477326968973747 10:0.0 11:0.0 12:0.014319809069212411 13:0.0 14:0.002386634844868735 15:0.0 16:0.011933174224343675 17:0.0 18:0.016706443914081145 19:0.0 20:0.0 21:0.0 22:0.0 23:0.002386634844868735 24:0.002386634844868735 25:0.011933174224343675 26:0.0 27:0.0 28:0.0 29:0.002386634844868735 30:0.38663484486873506 31:0.0 32:0.0 33:0.00477326968973747 34:0.0 35:0.00477326968973747 36:0.0 37:0.002386634844868735 38:0.0 39:0.0 40:0.0 41:0.014319809069212411 42:0.0 43:0.0 44:0.00954653937947494 45:0.0 46:0.0 47:0.0 48:0.0 49:0.0 50:0.0 51:0.014319809069212411 52:0.0 53:0.0 54:0.0 55:0.0 56:0.0 57:0.00477326968973747 58:0.002386634844868735 59:0.0 60:0.0 61:0.0 62:0.0 63:0.0 64:0.01909307875894988 65:0.007159904534606206 66:0.0 67:0.0 68:0.0 69:0.002386634844868735 70:0.0 71:0.0 72:0.0 73:0.0 74:0.002386634844868735 75:0.002386634844868735 76:0.002386634844868735 77:0.0 78:0.0 79:0.00477326968973747 80:0.0 81:0.01909307875894988 82:0.03341288782816229 83:0.0 84:0.0 85:0.0 86:0.0 87:0.01909307875894988 88:0.0 89:0.0 90:0.0 91:0.0 92:0.002386634844868735 93:0.002386634844868735 94:0.002386634844868735 95:0.0 96:0.002386634844868735 97:0.0 98:0.0 99:0.0 100:0.002386634844868735 101:0.0 102:0.0 103:0.002386634844868735 104:0.0 105:0.0 106:0.0 107:0.0 108:0.0 109:0.0 110:0.007159904534606206 111:0.0 112:0.002386634844868735 113:0.002386634844868735 114:0.0 115:0.0 116:0.0 117:0.0 118:0.002386634844868735 119:0.0 120:0.00477326968973747 121:0.0 122:0.0 123:0.0 124:0.0 125:0.0 126:0.0 127:0.0 128:0.00477326968973747 129:0.0 130:0.0 131:0.0 132:0.0 133:0.014319809069212411 134:0.0 135:0.0 136:0.007159904534606206 137:0.007159904534606206 138:0.002386634844868735 139:0.011933174224343675 140:0.0 141:0.0 142:0.00477326968973747 143:0.026252983293556086 144:0.0 145:0.002386634844868735 146:0.0 147:0.002386634844868735 148:0.002386634844868735 149:0.0 150:0.0 151:0.0 152:0.00477326968973747 153:0.002386634844868735 154:0.002386634844868735 155:0.0 156:0.002386634844868735 157:0.0 158:0.00954653937947494 159:0.0 160:0.20286396181384247 
