svm_type one_class
kernel_type rbf
gamma 0.5
nr_class 2
total_sv 172
rho 167.37268997609618
SV
1.0 1:0.0 2:0.0 3:0.0 4:0.0 5:0.0 6:0.0 7:0.0 8:0.0 9:0.0 10:0.0 11:0.0 12:0.0 13:0.0 14:0.0 15:0.0 16:0.0 17:0.0 18:0.0 19:0.0 20:0.0 21:0.0 22:0.0 23:0.0 24:0.0 25:0.0 26:0.0 27:0.0 28:0.0 29:0.0 30:0.0 31:0.0 32:0.0 33:0.0 34:1.0 35:0.0 36:0.0 37:0.0 38:0.0 39:0.0 40:0.0 41:0.0 42:0.0 43:0.0 44:0.0 45:0.0 46:0.0 47:0.0 48:0.0 49:0.0 50:0.0 51:0.0 52:0.0 53:0.0 54:0.0 55:0.0 56:0.0 57:0.0 58:0.0 59:0.0 60:0.0 61:0.0 62:0.0 63:0.0 64:0.0 65:0.0 66:0.0 67:0.0 68:0.0 69:0.0 70:0.0 71:0.0 72:0.0 73:0.0 74:0.0 75:0.0 76:0.0 77:0.0 78:0.0 79:0.0 80:0.0 81:0.0 82:0.0 83:0.0 84:0.0 85:0.0 86:0.0 87:0.0 88:0.0 89:0.0 90:0.0 91:0.0 92:0.0 93:0.0 94:0.0 95:0.0 96:0.0 97:0.0 98:0.0 99:0.0 100:0.0 101:0.0 102:0.0 103:0.0 104:0.0 105:0.0 106:0.0 107:0.0 108:0.0 109:0.0 110:0.0 111:0.0 112:0.0 113:0.0 114:0.0 115:0.0 116:0.0 117:0.0 118:0.0 119:0.0 120:0.0 121:0.0 122:0.0 123:0.0 124:0.0 125:0.0 126:0.0 127:0.0 128:0.0 129:0.0 130:0.0 131:0.0 132:0.0 133:0.0 134:0.0 135:0.0 136:0.0 137:0.0 138:0.0 139:0.0 140:0.0 141:0.0 142:0.0 143:0.0 144:0.0 145:0.0 146:0.0 147:0.0 148:0.0 149:0.0 150:0.0 151:0.0 152:0.0 153:0.0 154:0.0 155:0.0 156:0.0 157:0.0 158:0.0 159:0.0 160:0.0 
1.0 1:0.0 2:0.0 3:0.0 4:0.0 5:0.0 6:0.0 7:0.0 8:0.0 9:0.0 10:0.0 11:0.0 12:0.0 13:0.0 14:0.0 15:0.0 16:0.0 17:0.0 18:0.0 19:0.0 20:0.0 21:0.0 22:0.0 23:0.0 24:0.0 25:0.0 26:0.0 27:0.0 28:0.0 29:0.0 30:0.0 31:0.0 32:0.0 33:0.0 34:1.0 35:0.0 36:0.0 37:0.0 38:0.0 39:0.0 40:0.0 41:0.0 42:0.0 43:0.0 44:0.0 45:0.0 46:0.0 47:0.0 48:0.0 49:0.0 50:0.0 51:0.0 52:0.0 53:0.0 54:0.0 55:0.0 56:0.0 57:0.0 58:0.0 59:0.0 60:0.0 61:0.0 62:0.0 63:0.0 64:0.0 65:0.0 66:0.0 67:0.0 68:0.0 69:0.0 70:0.0 71:0.0 72:0.0 73:0.0 74:0.0 75:0.0 76:0.0 77:0.0 78:0.0 79:0.0 80:0.0 81:0.0 82:0.0 83:0.0 84:0.0 85:0.0 86:0.0 87:0.0 88:0.0 89:0.0 90:0.0 91:0.0 92:0.0 93:0.0 94:0.0 95:0.0 96:0.0 97:0.0 98:0.0 99:0.0 100:0.0 101:0.0 102:0.0 103:0.0 104:0.0 105:0.0 106:0.0 107:0.0 108:0.0 109:0.0 110:0.0 111:0.0 112:0.0 113:0.0 114:0.0 115:0.0 116:0.0 117:0.0 118:0.0 119:0.0 120:0.0 121:0.0 122:0.0 123:0.0 124:0.0 125:0.0 126:0.0 127:0.0 128:0.0 129:0.0 130:0.0 131:0.0 132:0.0 133:0.0 134:0.0 135:0.0 136:0.0 137:0.0 138:0.0 139:0.0 140:0.0 141:0.0 142:0.0 143:0.0 144:0.0 145:0.0 146:0.0 147:0.0 148:0.0 149:0.0 150:0.0 151:0.0 152:0.0 153:0.0 154:0.0 155:0.0 156:0.0 157:0.0 158:0.0 159:0.0 160:0.0 
1.0 1:0.0 2:0.0 3:0.0 4:0.0 5:0.0 6:0.0 7:0.0 8:0.0 9:0.0 10:0.0 11:0.0 12:0.0 13:0.0 14:0.0 15:0.0 16:0.0 17:0.0 18:0.0 19:0.0 20:0.0 21:0.0 22:0.0 23:0.0 24:0.0 25:0.0 26:0.0 27:0.0 28:0.0 29:0.0 30:0.0 31:0.0 32:0.0 33:0.0 34:1.0 35:0.0 36:0.0 37:0.0 38:0.0 39:0.0 40:0.0 41:0.0 42:0.0 43:0.0 44:0.0 45:0.0 46:0.0 47:0.0 48:0.0 49:0.0 50:0.0 51:0.0 52:0.0 53:0.0 54:0.0 55:0.0 56:0.0 57:0.0 58:0.0 59:0.0 60:0.0 61:0.0 62:0.0 63:0.0 64:0.0 65:0.0 66:0.0 67:0.0 68:0.0 69:0.0 70:0.0 71:0.0 72:0.0 73:0.0 74:0.0 75:0.0 76:0.0 77:0.0 78:0.0 79:0.0 80:0.0 81:0.0 82:0.0 83:0.0 84:0.0 85:0.0 86:0.0 87:0.0 88:0.0 89:0.0 90:0.0 91:0.0 92:0.0 93:0.0 94:0.0 95:0.0 96:0.0 97:0.0 98:0.0 99:0.0 100:0.0 101:0.0 102:0.0 103:0.0 104:0.0 105:0.0 106:0.0 107:0.0 108:0.0 109:0.0 110:0.0 111:0.0 112:0.0 113:0.0 114:0.0 115:0.0 116:0.0 117:0.0 118:0.0 119:0.0 120:0.0 121:0.0 122:0.0 123:0.0 124:0.0 125:0.0 126:0.0 127:0.0 128:0.0 129:0.0 130:0.0 131:0.0 132:0.0 133:0.0 134:0.0 135:0.0 136:0.0 137:0.0 138:0.0 139:0.0 140:0.0 141:0.0 142:0.0 143:0.0 144:0.0 145:0.0 146:0.0 147:0.0 148:0.0 149:0.0 150:0.0 151:0.0 152:0.0 153:0.0 154:0.0 155:0.0 156:0.0 157:0.0 158:0.0 159:0.0 160:0.0 
1.0 1:0.0 2:0.0 3:0.0 4:0.0 5:0.0 6:0.0 7:0.0 8:0.0 9:0.0 10:0.0 11:0.0 12:0.0 13:0.0 14:0.0 15:0.0 16:0.0 17:0.0 18:0.0 19:0.0 20:0.0 21:0.0 22:0.0 23:0.0 24:0.0 25:0.0 26:0.0 27:0.0 28:0.0 29:0.0 30:0.0 31:0.0 32:0.0 33:0.0 34:1.0 35:0.0 36:0.0 37:0.0 38:0.0 39:0.0 40:0.0 41:0.0 42:0.0 43:0.0 44:0.0 45:0.0 46:0.0 47:0.0 48:0.0 49:0.0 50:0.0 51:0.0 52:0.0 53:0.0 54:0.0 55:0.0 56:0.0 57:0.0 58:0.0 59:0.0 60:0.0 61:0.0 62:0.0 63:0.0 64:0.0 65:0.0 66:0.0 67:0.0 68:0.0 69:0.0 70:0.0 71:0.0 72:0.0 73:0.0 74:0.0 75:0.0 76:0.0 77:0.0 78:0.0 79:0.0 80:0.0 81:0.0 82:0.0 83:0.0 84:0.0 85:0.0 86:0.0 87:0.0 88:0.0 89:0.0 90:0.0 91:0.0 92:0.0 93:0.0 94:0.0 95:0.0 96:0.0 97:0.0 98:0.0 99:0.0 100:0.0 101:0.0 102:0.0 103:0.0 104:0.0 105:0.0 106:0.0 107:0.0 108:0.0 109:0.0 110:0.0 111:0.0 112:0.0 113:0.0 114:0.0 115:0.0 116:0.0 117:0.0 118:0.0 119:0.0 120:0.0 121:0.0 122:0.0 123:0.0 124:0.0 125:0.0 126:0.0 127:0.0 128:0.0 129:0.0 130:0.0 131:0.0 132:0.0 133:0.0 134:0.0 135:0.0 136:0.0 137:0.0 138:0.0 139:0.0 140:0.0 141:0.0 142:0.0 143:0.0 144:0.0 145:0.0 146:0.0 147:0.0 148:0.0 149:0.0 150:0.0 151:0.0 152:0.0 153:0.0 154:0.0 155:0.0 156:0.0 157:0.0 158:0.0 159:0.0 160:0.0 
1.0 1:0.0 2:0.0 3:0.0 4:0.0 5:0.0 6:0.0 7:0.0 8:0.0 9:0.0 10:0.0 11:0.0 12:0.0 13:0.0 14:0.0 15:0.0 16:0.0 17:0.0 18:0.0 19:0.0 20:0.0 21:0.0 22:0.0 23:0.0 24:0.0 25:0.0 26:0.0 27:0.0 28:0.0 29:0.0 30:0.0 31:0.0 32:0.0 33:0.0 34:1.0 35:0.0 36:0.0 37:0.0 38:0.0 39:0.0 40:0.0 41:0.0 42:0.0 43:0.0 44:0.0 45:0.0 46:0.0 47:0.0 48:0.0 49:0.0 50:0.0 51:0.0 52:0.0 53:0.0 54:0.0 55:0.0 56:0.0 57:0.0 58:0.0 59:0.0 60:0.0 61:0.0 62:0.0 63:0.0 64:0.0 65:0.0 66:0.0 67:0.0 68:0.0 69:0.0 70:0.0 71:0.0 72:0.0 73:0.0 74:0.0 75:0.0 76:0.0 77:0.0 78:0.0 79:0.0 80:0.0 81:0.0 82:0.0 83:0.0 84:0.0 85:0.0 86:0.0 87:0.0 88:0.0 89:0.0 90:0.0 91:0.0 92:0.0 93:0.0 94:0.0 95:0.0 96:0.0 97:0.0 98:0.0 99:0.0 100:0.0 101:0.0 102:0.0 103:0.0 104:0.0 105:0.0 106:0.0 107:0.0 108:0.0 109:0.0 110:0.0 111:0.0 112:0.0 113:0.0 114:0.0 115:0.0 116:0.0 117:0.0 118:0.0 119:0.0 120:0.0 121:0.0 122:0.0 123:0.0 124:0.0 125:0.0 126:0.0 127:0.0 128:0.0 129:0.0 130:0.0 131:0.0 132:0.0 133:0.0 134:0.0 135:0.0 136:0.0 137:0.0 138:0.0 139:0.0 140:0.0 141:0.0 142:0.0 143:0.0 144:0.0 145:0.0 146:0.0 147:0.0 148:0.0 149:0.0 150:0.0 151:0.0 152:0.0 153:0.0 154:0.0 155:0.0 156:0.0 157:0.0 158:0.0 159:0.0 160:0.0 
1.0 1:0.0 2:0.0 3:0.0 4:0.0 5:0.0 6:0.0 7:0.0 8:0.0 9:0.0 10:0.0 11:0.0 12:0.0 13:0.0 14:0.0 15:0.0 16:0.0 17:0.0 18:0.0 19:0.0 20:0.0 21:0.0 22:0.0 23:0.0 24:0.0 25:0.0 26:0.0 27:0.0 28:0.0 29:0.0 30:0.0 31:0.0 32:0.0 33:0.0 34:1.0 35:0.0 36:0.0 37:0.0 38:0.0 39:0.0 40:0.0 41:0.0 42:0.0 43:0.0 44:0.0 45:0.0 46:0.0 47:0.0 48:0.0 49:0.0 50:0.0 51:0.0 52:0.0 53:0.0 54:0.0 55:0.0 56:0.0 57:0.0 58:0.0 59:0.0 60:0.0 61:0.0 62:0.0 63:0.0 64:0.0 65:0.0 66:0.0 67:0.0 68:0.0 69:0.0 70:0.0 71:0.0 72:0.0 73:0.0 74:0.0 75:0.0 76:0.0 77:0.0 78:0.0 79:0.0 80:0.0 81:0.0 82:0.0 83:0.0 84:0.0 85:0.0 86:0.0 87:0.0 88:0.0 89:0.0 90:0.0 91:0.0 92:0.0 93:0.0 94:0.0 95:0.0 96:0.0 97:0.0 98:0.0 99:0.0 100:0.0 101:0.0 102:0.0 103:0.0 104:0.0 105:0.0 106:0.0 107:0.0 108:0.0 109:0.0 110:0.0 111:0.0 112:0.0 113:0.0 114:0.0 115:0.0 116:0.0 117:0.0 118:0.0 119:0.0 120:0.0 121:0.0 122:0.0 123:0.0 124:0.0 125:0.0 126:0.0 127:0.0 128:0.0 129:0.0 130:0.0 131:0.0 132:0.0 133:0.0 134:0.0 135:0.0 136:0.0 137:0.0 138:0.0 139:0.0 140:0.0 141:0.0 142:0.0 143:0.0 144:0.0 145:0.0 146:0.0 147:0.0 148:0.0 149:0.0 150:0.0 151:0.0 152:0.0 153:0.0 154:0.0 155:0.0 156:0.0 157:0.0 158:0.0 159:0.0 160:0.0 
1.0 1:0.0 2:0.0 3:0.0 4:0.0 5:0.0 6:0.0 7:0.0 8:0.0 9:0.0 10:0.0 11:0.0 12:0.0 13:0.0 14:0.0 15:0.0 16:0.0 17:0.0 18:0.0 19:0.0 20:0.0 21:0.0 22:0.0 23:0.0 24:0.0 25:0.0 26:0.0 27:0.0 28:0.0 29:0.0 30:0.0 31:0.0 32:0.0 33:0.0 34:1.0 35:0.0 36:0.0 37:0.0 38:0.0 39:0.0 40:0.0 41:0.0 42:0.0 43:0.0 44:0.0 45:0.0 46:0.0 47:0.0 48:0.0 49:0.0 50:0.0 51:0.0 52:0.0 53:0.0 54:0.0 55:0.0 56:0.0 57:0.0 58:0.0 59:0.0 60:0.0 61:0.0 62:0.0 63:0.0 64:0.0 65:0.0 66:0.0 67:0.0 68:0.0 69:0.0 70:0.0 71:0.0 72:0.0 73:0.0 74:0.0 75:0.0 76:0.0 77:0.0 78:0.0 79:0.0 80:0.0 81:0.0 82:0.0 83:0.0 84:0.0 85:0.0 86:0.0 87:0.0 88:0.0 89:0.0 90:0.0 91:0.0 92:0.0 93:0.0 94:0.0 95:0.0 96:0.0 97:0.0 98:0.0 99:0.0 100:0.0 101:0.0 102:0.0 103:0.0 104:0.0 105:0.0 106:0.0 107:0.0 108:0.0 109:0.0 110:0.0 111:0.0 112:0.0 113:0.0 114:0.0 115:0.0 116:0.0 117:0.0 118:0.0 119:0.0 120:0.0 121:0.0 122:0.0 123:0.0 124:0.0 125:0.0 126:0.0 127:0.0 128:0.0 129:0.0 130:0.0 131:0.0 132:0.0 133:0.0 134:0.0 135:0.0 136:0.0 137:0.0 138:0.0 139:0.0 140:0.0 141:0.0 142:0.0 143:0.0 144:0.0 145:0.0 146:0.0 147:0.0 148:0.0 149:0.0 150:0.0 151:0.0 152:0.0 153:0.0 154:0.0 155:0.0 156:0.0 157:0.0 158:0.0 159:0.0 160:0.0 
1.0 1:0.0 2:0.0 3:0.0 4:0.0 5:0.0 6:0.0 7:0.0 8:0.0 9:0.0 10:0.0 11:0.0 12:0.0 13:0.0 14:0.0 15:0.0 16:0.0 17:0.0 18:0.0 19:0.0 20:0.0 21:0.0 22:0.0 23:0.0 24:0.0 25:0.0 26:0.0 27:0.0 28:0.0 29:0.0 30:0.0 31:0.0 32:0.0 33:0.0 34:1.0 35:0.0 36:0.0 37:0.0 38:0.0 39:0.0 40:0.0 41:0.0 42:0.0 43:0.0 44:0.0 45:0.0 46:0.0 47:0.0 48:0.0 49:0.0 50:0.0 51:0.0 52:0.0 53:0.0 54:0.0 55:0.0 56:0.0 57:0.0 58:0.0 59:0.0 60:0.0 61:0.0 62:0.0 63:0.0 64:0.0 65:0.0 66:0.0 67:0.0 68:0.0 69:0.0 70:0.0 71:0.0 72:0.0 73:0.0 74:0.0 75:0.0 76:0.0 77:0.0 78:0.0 79:0.0 80:0.0 81:0.0 82:0.0 83:0.0 84:0.0 85:0.0 86:0.0 87:0.0 88:0.0 89:0.0 90:0.0 91:0.0 92:0.0 93:0.0 94:0.0 95:0.0 96:0.0 97:0.0 98:0.0 99:0.0 100:0.0 101:0.0 102:0.0 103:0.0 104:0.0 105:0.0 106:0.0 107:0.0 108:0.0 109:0.0 110:0.0 111:0.0 112:0.0 113:0.0 114:0.0 115:0.0 116:0.0 117:0.0 118:0.0 119:0.0 120:0.0 121:0.0 122:0.0 123:0.0 124:0.0 125:0.0 126:0.0 127:0.0 128:0.0 129:0.0 130:0.0 131:0.0 132:0.0 133:0.0 134:0.0 135:0.0 136:0.0 137:0.0 138:0.0 139:0.0 140:0.0 141:0.0 142:0.0 143:0.0 144:0.0 145:0.0 146:0.0 147:0.0 148:0.0 149:0.0 150:0.0 151:0.0 152:0.0 153:0.0 154:0.0 155:0.0 156:0.0 157:0.0 158:0.0 159:0.0 160:0.0 
1.0 1:0.0 2:0.0 3:0.0 4:0.0 5:0.0 6:0.0 7:0.0 8:0.0 9:0.0 10:0.0 11:0.0 12:0.0 13:0.0 14:0.0 15:0.0 16:0.0 17:0.0 18:0.0 19:0.0 20:0.0 21:0.0 22:0.0 23:0.0 24:0.0 25:0.0 26:0.0 27:0.0 28:0.0 29:0.0 30:0.0 31:0.0 32:0.0 33:0.0 34:1.0 35:0.0 36:0.0 37:0.0 38:0.0 39:0.0 40:0.0 41:0.0 42:0.0 43:0.0 44:0.0 45:0.0 46:0.0 47:0.0 48:0.0 49:0.0 50:0.0 51:0.0 52:0.0 53:0.0 54:0.0 55:0.0 56:0.0 57:0.0 58:0.0 59:0.0 60:0.0 61:0.0 62:0.0 63:0.0 64:0.0 65:0.0 66:0.0 67:0.0 68:0.0 69:0.0 70:0.0 71:0.0 72:0.0 73:0.0 74:0.0 75:0.0 76:0.0 77:0.0 78:0.0 79:0.0 80:0.0 81:0.0 82:0.0 83:0.0 84:0.0 85:0.0 86:0.0 87:0.0 88:0.0 89:0.0 90:0.0 91:0.0 92:0.0 93:0.0 94:0.0 95:0.0 96:0.0 97:0.0 98:0.0 99:0.0 100:0.0 101:0.0 102:0.0 103:0.0 104:0.0 105:0.0 106:0.0 107:0.0 108:0.0 109:0.0 110:0.0 111:0.0 112:0.0 113:0.0 114:0.0 115:0.0 116:0.0 117:0.0 118:0.0 119:0.0 120:0.0 121:0.0 122:0.0 123:0.0 124:0.0 125:0.0 126:0.0 127:0.0 128:0.0 129:0.0 130:0.0 131:0.0 132:0.0 133:0.0 134:0.0 135:0.0 136:0.0 137:0.0 138:0.0 139:0.0 140:0.0 141:0.0 142:0.0 143:0.0 144:0.0 145:0.0 146:0.0 147:0.0 148:0.0 149:0.0 150:0.0 151:0.0 152:0.0 153:0.0 154:0.0 155:0.0 156:0.0 157:0.0 158:0.0 159:0.0 160:0.0 
1.0 1:0.0 2:0.0 3:0.0 4:0.0 5:0.0 6:0.0 7:0.0 8:0.0 9:0.0 10:0.0 11:0.0 12:0.0 13:0.0 14:0.0 15:0.0 16:0.0 17:0.0 18:0.0 19:0.0 20:0.0 21:0.0 22:0.0 23:0.0 24:0.0 25:0.0 26:0.0 27:0.0 28:0.0 29:0.0 30:0.0 31:0.0 32:0.0 33:0.0 34:1.0 35:0.0 36:0.0 37:0.0 38:0.0 39:0.0 40:0.0 41:0.0 42:0.0 43:0.0 44:0.0 45:0.0 46:0.0 47:0.0 48:0.0 49:0.0 50:0.0 51:0.0 52:0.0 53:0.0 54:0.0 55:0.0 56:0.0 57:0.0 58:0.0 59:0.0 60:0.0 61:0.0 62:0.0 63:0.0 64:0.0 65:0.0 66:0.0 67:0.0 68:0.0 69:0.0 70:0.0 71:0.0 72:0.0 73:0.0 74:0.0 75:0.0 76:0.0 77:0.0 78:0.0 79:0.0 80:0.0 81:0.0 82:0.0 83:0.0 84:0.0 85:0.0 86:0.0 87:0.0 88:0.0 89:0.0 90:0.0 91:0.0 92:0.0 93:0.0 94:0.0 95:0.0 96:0.0 97:0.0 98:0.0 99:0.0 100:0.0 101:0.0 102:0.0 103:0.0 104:0.0 105:0.0 106:0.0 107:0.0 108:0.0 109:0.0 110:0.0 111:0.0 112:0.0 113:0.0 114:0.0 115:0.0 116:0.0 117:0.0 118:0.0 119:0.0 120:0.0 121:0.0 122:0.0 123:0.0 124:0.0 125:0.0 126:0.0 127:0.0 128:0.0 129:0.0 130:0.0 131:0.0 132:0.0 133:0.0 134:0.0 135:0.0 136:0.0 137:0.0 138:0.0 139:0.0 140:0.0 141:0.0 142:0.0 143:0.0 144:0.0 145:0.0 146:0.0 147:0.0 148:0.0 149:0.0 150:0.0 151:0.0 152:0.0 153:0.0 154:0.0 155:0.0 156:0.0 157:0.0 158:0.0 159:0.0 160:0.0 
1.0 1:0.0 2:0.0 3:0.0 4:0.0 5:0.0 6:0.0 7:0.0 8:0.0 9:0.0 10:0.0 11:0.0 12:0.0 13:0.0 14:0.0 15:0.0 16:0.0 17:0.0 18:0.0 19:0.0 20:0.0 21:0.0 22:0.0 23:0.0 24:0.0 25:0.0 26:0.0 27:0.0 28:0.0 29:0.0 30:0.0 31:0.0 32:0.0 33:0.0 34:1.0 35:0.0 36:0.0 37:0.0 38:0.0 39:0.0 40:0.0 41:0.0 42:0.0 43:0.0 44:0.0 45:0.0 46:0.0 47:0.0 48:0.0 49:0.0 50:0.0 51:0.0 52:0.0 53:0.0 54:0.0 55:0.0 56:0.0 57:0.0 58:0.0 59:0.0 60:0.0 61:0.0 62:0.0 63:0.0 64:0.0 65:0.0 66:0.0 67:0.0 68:0.0 69:0.0 70:0.0 71:0.0 72:0.0 73:0.0 74:0.0 75:0.0 76:0.0 77:0.0 78:0.0 79:0.0 80:0.0 81:0.0 82:0.0 83:0.0 84:0.0 85:0.0 86:0.0 87:0.0 88:0.0 89:0.0 90:0.0 91:0.0 92:0.0 93:0.0 94:0.0 95:0.0 96:0.0 97:0.0 98:0.0 99:0.0 100:0.0 101:0.0 102:0.0 103:0.0 104:0.0 105:0.0 106:0.0 107:0.0 108:0.0 109:0.0 110:0.0 111:0.0 112:0.0 113:0.0 114:0.0 115:0.0 116:0.0 117:0.0 118:0.0 119:0.0 120:0.0 121:0.0 122:0.0 123:0.0 124:0.0 125:0.0 126:0.0 127:0.0 128:0.0 129:0.0 130:0.0 131:0.0 132:0.0 133:0.0 134:0.0 135:0.0 136:0.0 137:0.0 138:0.0 139:0.0 140:0.0 141:0.0 142:0.0 143:0.0 144:0.0 145:0.0 146:0.0 147:0.0 148:0.0 149:0.0 150:0.0 151:0.0 152:0.0 153:0.0 154:0.0 155:0.0 156:0.0 157:0.0 158:0.0 159:0.0 160:0.0 
1.0 1:0.0 2:0.0 3:0.0 4:0.0 5:0.0 6:0.0 7:0.0 8:0.0 9:0.0 10:0.0 11:0.0 12:0.0 13:0.0 14:0.0 15:0.0 16:0.0 17:0.0 18:0.0 19:0.0 20:0.0 21:0.0 22:0.0 23:0.0 24:0.0 25:0.0 26:0.0 27:0.0 28:0.0 29:0.0 30:0.0 31:0.0 32:0.0 33:0.0 34:1.0 35:0.0 36:0.0 37:0.0 38:0.0 39:0.0 40:0.0 41:0.0 42:0.0 43:0.0 44:0.0 45:0.0 46:0.0 47:0.0 48:0.0 49:0.0 50:0.0 51:0.0 52:0.0 53:0.0 54:0.0 55:0.0 56:0.0 57:0.0 58:0.0 59:0.0 60:0.0 61:0.0 62:0.0 63:0.0 64:0.0 65:0.0 66:0.0 67:0.0 68:0.0 69:0.0 70:0.0 71:0.0 72:0.0 73:0.0 74:0.0 75:0.0 76:0.0 77:0.0 78:0.0 79:0.0 80:0.0 81:0.0 82:0.0 83:0.0 84:0.0 85:0.0 86:0.0 87:0.0 88:0.0 89:0.0 90:0.0 91:0.0 92:0.0 93:0.0 94:0.0 95:0.0 96:0.0 97:0.0 98:0.0 99:0.0 100:0.0 101:0.0 102:0.0 103:0.0 104:0.0 105:0.0 106:0.0 107:0.0 108:0.0 109:0.0 110:0.0 111:0.0 112:0.0 113:0.0 114:0.0 115:0.0 116:0.0 117:0.0 118:0.0 119:0.0 120:0.0 121:0.0 122:0.0 123:0.0 124:0.0 125:0.0 126:0.0 127:0.0 128:0.0 129:0.0 130:0.0 131:0.0 132:0.0 133:0.0 134:0.0 135:0.0 136:0.0 137:0.0 138:0.0 139:0.0 140:0.0 141:0.0 142:0.0 143:0.0 144:0.0 145:0.0 146:0.0 147:0.0 148:0.0 149:0.0 150:0.0 151:0.0 152:0.0 153:0.0 154:0.0 155:0.0 156:0.0 157:0.0 158:0.0 159:0.0 160:0.0 
1.0 1:0.0 2:0.0 3:0.0 4:0.0 5:0.0 6:0.0 7:0.0 8:0.0 9:0.0 10:0.0 11:0.0 12:0.0 13:0.0 14:0.0 15:0.0 16:0.0 17:0.0 18:0.0 19:0.0 20:0.0 21:0.0 22:0.0 23:0.0 24:0.0 25:0.0 26:0.0 27:0.0 28:0.0 29:0.0 30:0.0 31:0.0 32:0.0 33:0.0 34:1.0 35:0.0 36:0.0 37:0.0 38:0.0 39:0.0 40:0.0 41:0.0 42:0.0 43:0.0 44:0.0 45:0.0 46:0.0 47:0.0 48:0.0 49:0.0 50:0.0 51:0.0 52:0.0 53:0.0 54:0.0 55:0.0 56:0.0 57:0.0 58:0.0 59:0.0 60:0.0 61:0.0 62:0.0 63:0.0 64:0.0 65:0.0 66:0.0 67:0.0 68:0.0 69:0.0 70:0.0 71:0.0 72:0.0 73:0.0 74:0.0 75:0.0 76:0.0 77:0.0 78:0.0 79:0.0 80:0.0 81:0.0 82:0.0 83:0.0 84:0.0 85:0.0 86:0.0 87:0.0 88:0.0 89:0.0 90:0.0 91:0.0 92:0.0 93:0.0 94:0.0 95:0.0 96:0.0 97:0.0 98:0.0 99:0.0 100:0.0 101:0.0 102:0.0 103:0.0 104:0.0 105:0.0 106:0.0 107:0.0 108:0.0 109:0.0 110:0.0 111:0.0 112:0.0 113:0.0 114:0.0 115:0.0 116:0.0 117:0.0 118:0.0 119:0.0 120:0.0 121:0.0 122:0.0 123:0.0 124:0.0 125:0.0 126:0.0 127:0.0 128:0.0 129:0.0 130:0.0 131:0.0 132:0.0 133:0.0 134:0.0 135:0.0 136:0.0 137:0.0 138:0.0 139:0.0 140:0.0 141:0.0 142:0.0 143:0.0 144:0.0 145:0.0 146:0.0 147:0.0 148:0.0 149:0.0 150:0.0 151:0.0 152:0.0 153:0.0 154:0.0 155:0.0 156:0.0 157:0.0 158:0.0 159:0.0 160:0.0 
1.0 1:0.0 2:0.0 3:0.0 4:0.0 5:0.0 6:0.0 7:0.0 8:0.0 9:0.0 10:0.0 11:0.0 12:0.0 13:0.0 14:0.0 15:0.0 16:0.0 17:0.0 18:0.0 19:0.0 20:0.0 21:0.0 22:0.0 23:0.0 24:0.0 25:0.0 26:0.0 27:0.0 28:0.0 29:0.0 30:0.0 31:0.0 32:0.0 33:0.0 34:1.0 35:0.0 36:0.0 37:0.0 38:0.0 39:0.0 40:0.0 41:0.0 42:0.0 43:0.0 44:0.0 45:0.0 46:0.0 47:0.0 48:0.0 49:0.0 50:0.0 51:0.0 52:0.0 53:0.0 54:0.0 55:0.0 56:0.0 57:0.0 58:0.0 59:0.0 60:0.0 61:0.0 62:0.0 63:0.0 64:0.0 65:0.0 66:0.0 67:0.0 68:0.0 69:0.0 70:0.0 71:0.0 72:0.0 73:0.0 74:0.0 75:0.0 76:0.0 77:0.0 78:0.0 79:0.0 80:0.0 81:0.0 82:0.0 83:0.0 84:0.0 85:0.0 86:0.0 87:0.0 88:0.0 89:0.0 90:0.0 91:0.0 92:0.0 93:0.0 94:0.0 95:0.0 96:0.0 97:0.0 98:0.0 99:0.0 100:0.0 101:0.0 102:0.0 103:0.0 104:0.0 105:0.0 106:0.0 107:0.0 108:0.0 109:0.0 110:0.0 111:0.0 112:0.0 113:0.0 114:0.0 115:0.0 116:0.0 117:0.0 118:0.0 119:0.0 120:0.0 121:0.0 122:0.0 123:0.0 124:0.0 125:0.0 126:0.0 127:0.0 128:0.0 129:0.0 130:0.0 131:0.0 132:0.0 133:0.0 134:0.0 135:0.0 136:0.0 137:0.0 138:0.0 139:0.0 140:0.0 141:0.0 142:0.0 143:0.0 144:0.0 145:0.0 146:0.0 147:0.0 148:0.0 149:0.0 150:0.0 151:0.0 152:0.0 153:0.0 154:0.0 155:0.0 156:0.0 157:0.0 158:0.0 159:0.0 160:0.0 
1.0 1:0.0 2:0.0 3:0.0 4:0.0 5:0.0 6:0.0 7:0.0 8:0.0 9:0.0 10:0.0 11:0.0 12:0.0 13:0.0 14:0.0 15:0.0 16:0.0 17:0.0 18:0.0 19:0.0 20:0.0 21:0.0 22:0.0 23:0.0 24:0.0 25:0.0 26:0.0 27:0.0 28:0.0 29:0.0 30:0.0 31:0.0 32:0.0 33:0.0 34:1.0 35:0.0 36:0.0 37:0.0 38:0.0 39:0.0 40:0.0 41:0.0 42:0.0 43:0.0 44:0.0 45:0.0 46:0.0 47:0.0 48:0.0 49:0.0 50:0.0 51:0.0 52:0.0 53:0.0 54:0.0 55:0.0 56:0.0 57:0.0 58:0.0 59:0.0 60:0.0 61:0.0 62:0.0 63:0.0 64:0.0 65:0.0 66:0.0 67:0.0 68:0.0 69:0.0 70:0.0 71:0.0 72:0.0 73:0.0 74:0.0 75:0.0 76:0.0 77:0.0 78:0.0 79:0.0 80:0.0 81:0.0 82:0.0 83:0.0 84:0.0 85:0.0 86:0.0 87:0.0 88:0.0 89:0.0 90:0.0 91:0.0 92:0.0 93:0.0 94:0.0 95:0.0 96:0.0 97:0.0 98:0.0 99:0.0 100:0.0 101:0.0 102:0.0 103:0.0 104:0.0 105:0.0 106:0.0 107:0.0 108:0.0 109:0.0 110:0.0 111:0.0 112:0.0 113:0.0 114:0.0 115:0.0 116:0.0 117:0.0 118:0.0 119:0.0 120:0.0 121:0.0 122:0.0 123:0.0 124:0.0 125:0.0 126:0.0 127:0.0 128:0.0 129:0.0 130:0.0 131:0.0 132:0.0 133:0.0 134:0.0 135:0.0 136:0.0 137:0.0 138:0.0 139:0.0 140:0.0 141:0.0 142:0.0 143:0.0 144:0.0 145:0.0 146:0.0 147:0.0 148:0.0 149:0.0 150:0.0 151:0.0 152:0.0 153:0.0 154:0.0 155:0.0 156:0.0 157:0.0 158:0.0 159:0.0 160:0.0 
1.0 1:0.0 2:0.0 3:0.0 4:0.0 5:0.0 6:0.0 7:0.0 8:0.0 9:0.0 10:0.0 11:0.0 12:0.0 13:0.0 14:0.0 15:0.0 16:0.0 17:0.0 18:0.0 19:0.0 20:0.0 21:0.0 22:0.0 23:0.0 24:0.0 25:0.0 26:0.0 27:0.0 28:0.0 29:0.0 30:0.0 31:0.0 32:0.0 33:0.0 34:1.0 35:0.0 36:0.0 37:0.0 38:0.0 39:0.0 40:0.0 41:0.0 42:0.0 43:0.0 44:0.0 45:0.0 46:0.0 47:0.0 48:0.0 49:0.0 50:0.0 51:0.0 52:0.0 53:0.0 54:0.0 55:0.0 56:0.0 57:0.0 58:0.0 59:0.0 60:0.0 61:0.0 62:0.0 63:0.0 64:0.0 65:0.0 66:0.0 67:0.0 68:0.0 69:0.0 70:0.0 71:0.0 72:0.0 73:0.0 74:0.0 75:0.0 76:0.0 77:0.0 78:0.0 79:0.0 80:0.0 81:0.0 82:0.0 83:0.0 84:0.0 85:0.0 86:0.0 87:0.0 88:0.0 89:0.0 90:0.0 91:0.0 92:0.0 93:0.0 94:0.0 95:0.0 96:0.0 97:0.0 98:0.0 99:0.0 100:0.0 101:0.0 102:0.0 103:0.0 104:0.0 105:0.0 106:0.0 107:0.0 108:0.0 109:0.0 110:0.0 111:0.0 112:0.0 113:0.0 114:0.0 115:0.0 116:0.0 117:0.0 118:0.0 119:0.0 120:0.0 121:0.0 122:0.0 123:0.0 124:0.0 125:0.0 126:0.0 127:0.0 128:0.0 129:0.0 130:0.0 131:0.0 132:0.0 133:0.0 134:0.0 135:0.0 136:0.0 137:0.0 138:0.0 139:0.0 140:0.0 141:0.0 142:0.0 143:0.0 144:0.0 145:0.0 146:0.0 147:0.0 148:0.0 149:0.0 150:0.0 151:0.0 152:0.0 153:0.0 154:0.0 155:0.0 156:0.0 157:0.0 158:0.0 159:0.0 160:0.0 
1.0 1:0.0 2:0.0 3:0.0 4:0.0 5:0.0 6:0.0 7:0.0 8:0.0 9:0.0 10:0.0 11:0.0 12:0.0 13:0.0 14:0.0 15:0.0 16:0.0 17:0.0 18:0.0 19:0.0 20:0.0 21:0.0 22:0.0 23:0.0 24:0.0 25:0.0 26:0.0 27:0.0 28:0.0 29:0.0 30:0.0 31:0.0 32:0.0 33:0.0 34:1.0 35:0.0 36:0.0 37:0.0 38:0.0 39:0.0 40:0.0 41:0.0 42:0.0 43:0.0 44:0.0 45:0.0 46:0.0 47:0.0 48:0.0 49:0.0 50:0.0 51:0.0 52:0.0 53:0.0 54:0.0 55:0.0 56:0.0 57:0.0 58:0.0 59:0.0 60:0.0 61:0.0 62:0.0 63:0.0 64:0.0 65:0.0 66:0.0 67:0.0 68:0.0 69:0.0 70:0.0 71:0.0 72:0.0 73:0.0 74:0.0 75:0.0 76:0.0 77:0.0 78:0.0 79:0.0 80:0.0 81:0.0 82:0.0 83:0.0 84:0.0 85:0.0 86:0.0 87:0.0 88:0.0 89:0.0 90:0.0 91:0.0 92:0.0 93:0.0 94:0.0 95:0.0 96:0.0 97:0.0 98:0.0 99:0.0 100:0.0 101:0.0 102:0.0 103:0.0 104:0.0 105:0.0 106:0.0 107:0.0 108:0.0 109:0.0 110:0.0 111:0.0 112:0.0 113:0.0 114:0.0 115:0.0 116:0.0 117:0.0 118:0.0 119:0.0 120:0.0 121:0.0 122:0.0 123:0.0 124:0.0 125:0.0 126:0.0 127:0.0 128:0.0 129:0.0 130:0.0 131:0.0 132:0.0 133:0.0 134:0.0 135:0.0 136:0.0 137:0.0 138:0.0 139:0.0 140:0.0 141:0.0 142:0.0 143:0.0 144:0.0 145:0.0 146:0.0 147:0.0 148:0.0 149:0.0 150:0.0 151:0.0 152:0.0 153:0.0 154:0.0 155:0.0 156:0.0 157:0.0 158:0.0 159:0.0 160:0.0 
1.0 1:0.0 2:0.0 3:0.0 4:0.0 5:0.0 6:0.0 7:0.0 8:0.0 9:0.0 10:0.0 11:0.0 12:0.0 13:0.0 14:0.0 15:0.0 16:0.0 17:0.0 18:0.0 19:0.0 20:0.0 21:0.0 22:0.0 23:0.0 24:0.0 25:0.0 26:0.0 27:0.0 28:0.0 29:0.0 30:0.0 31:0.0 32:0.0 33:0.0 34:1.0 35:0.0 36:0.0 37:0.0 38:0.0 39:0.0 40:0.0 41:0.0 42:0.0 43:0.0 44:0.0 45:0.0 46:0.0 47:0.0 48:0.0 49:0.0 50:0.0 51:0.0 52:0.0 53:0.0 54:0.0 55:0.0 56:0.0 57:0.0 58:0.0 59:0.0 60:0.0 61:0.0 62:0.0 63:0.0 64:0.0 65:0.0 66:0.0 67:0.0 68:0.0 69:0.0 70:0.0 71:0.0 72:0.0 73:0.0 74:0.0 75:0.0 76:0.0 77:0.0 78:0.0 79:0.0 80:0.0 81:0.0 82:0.0 83:0.0 84:0.0 85:0.0 86:0.0 87:0.0 88:0.0 89:0.0 90:0.0 91:0.0 92:0.0 93:0.0 94:0.0 95:0.0 96:0.0 97:0.0 98:0.0 99:0.0 100:0.0 101:0.0 102:0.0 103:0.0 104:0.0 105:0.0 106:0.0 107:0.0 108:0.0 109:0.0 110:0.0 111:0.0 112:0.0 113:0.0 114:0.0 115:0.0 116:0.0 117:0.0 118:0.0 119:0.0 120:0.0 121:0.0 122:0.0 123:0.0 124:0.0 125:0.0 126:0.0 127:0.0 128:0.0 129:0.0 130:0.0 131:0.0 132:0.0 133:0.0 134:0.0 135:0.0 136:0.0 137:0.0 138:0.0 139:0.0 140:0.0 141:0.0 142:0.0 143:0.0 144:0.0 145:0.0 146:0.0 147:0.0 148:0.0 149:0.0 150:0.0 151:0.0 152:0.0 153:0.0 154:0.0 155:0.0 156:0.0 157:0.0 158:0.0 159:0.0 160:0.0 
1.0 1:0.0 2:0.0 3:0.0 4:0.0 5:0.0 6:0.0 7:0.0 8:0.0 9:0.0 10:0.0 11:0.0 12:0.0 13:0.0 14:0.0 15:0.0 16:0.0 17:0.0 18:0.0 19:0.0 20:0.0 21:0.0 22:0.0 23:0.0 24:0.0 25:0.0 26:0.0 27:0.0 28:0.0 29:0.0 30:0.0 31:0.0 32:0.0 33:0.0 34:1.0 35:0.0 36:0.0 37:0.0 38:0.0 39:0.0 40:0.0 41:0.0 42:0.0 43:0.0 44:0.0 45:0.0 46:0.0 47:0.0 48:0.0 49:0.0 50:0.0 51:0.0 52:0.0 53:0.0 54:0.0 55:0.0 56:0.0 57:0.0 58:0.0 59:0.0 60:0.0 61:0.0 62:0.0 63:0.0 64:0.0 65:0.0 66:0.0 67:0.0 68:0.0 69:0.0 70:0.0 71:0.0 72:0.0 73:0.0 74:0.0 75:0.0 76:0.0 77:0.0 78:0.0 79:0.0 80:0.0 81:0.0 82:0.0 83:0.0 84:0.0 85:0.0 86:0.0 87:0.0 88:0.0 89:0.0 90:0.0 91:0.0 92:0.0 93:0.0 94:0.0 95:0.0 96:0.0 97:0.0 98:0.0 99:0.0 100:0.0 101:0.0 102:0.0 103:0.0 104:0.0 105:0.0 106:0.0 107:0.0 108:0.0 109:0.0 110:0.0 111:0.0 112:0.0 113:0.0 114:0.0 115:0.0 116:0.0 117:0.0 118:0.0 119:0.0 120:0.0 121:0.0 122:0.0 123:0.0 124:0.0 125:0.0 126:0.0 127:0.0 128:0.0 129:0.0 130:0.0 131:0.0 132:0.0 133:0.0 134:0.0 135:0.0 136:0.0 137:0.0 138:0.0 139:0.0 140:0.0 141:0.0 142:0.0 143:0.0 144:0.0 145:0.0 146:0.0 147:0.0 148:0.0 149:0.0 150:0.0 151:0.0 152:0.0 153:0.0 154:0.0 155:0.0 156:0.0 157:0.0 158:0.0 159:0.0 160:0.0 
1.0 1:0.0 2:0.0 3:0.0 4:0.0 5:0.0 6:0.0 7:0.0 8:0.0 9:0.0 10:0.0 11:0.0 12:0.0 13:0.0 14:0.0 15:0.0 16:0.0 17:0.0 18:0.0 19:0.0 20:0.0 21:0.0 22:0.0 23:0.0 24:0.0 25:0.0 26:0.0 27:0.0 28:0.0 29:0.0 30:0.0 31:0.0 32:0.0 33:0.0 34:1.0 35:0.0 36:0.0 37:0.0 38:0.0 39:0.0 40:0.0 41:0.0 42:0.0 43:0.0 44:0.0 45:0.0 46:0.0 47:0.0 48:0.0 49:0.0 50:0.0 51:0.0 52:0.0 53:0.0 54:0.0 55:0.0 56:0.0 57:0.0 58:0.0 59:0.0 60:0.0 61:0.0 62:0.0 63:0.0 64:0.0 65:0.0 66:0.0 67:0.0 68:0.0 69:0.0 70:0.0 71:0.0 72:0.0 73:0.0 74:0.0 75:0.0 76:0.0 77:0.0 78:0.0 79:0.0 80:0.0 81:0.0 82:0.0 83:0.0 84:0.0 85:0.0 86:0.0 87:0.0 88:0.0 89:0.0 90:0.0 91:0.0 92:0.0 93:0.0 94:0.0 95:0.0 96:0.0 97:0.0 98:0.0 99:0.0 100:0.0 101:0.0 102:0.0 103:0.0 104:0.0 105:0.0 106:0.0 107:0.0 108:0.0 109:0.0 110:0.0 111:0.0 112:0.0 113:0.0 114:0.0 115:0.0 116:0.0 117:0.0 118:0.0 119:0.0 120:0.0 121:0.0 122:0.0 123:0.0 124:0.0 125:0.0 126:0.0 127:0.0 128:0.0 129:0.0 130:0.0 131:0.0 132:0.0 133:0.0 134:0.0 135:0.0 136:0.0 137:0.0 138:0.0 139:0.0 140:0.0 141:0.0 142:0.0 143:0.0 144:0.0 145:0.0 146:0.0 147:0.0 148:0.0 149:0.0 150:0.0 151:0.0 152:0.0 153:0.0 154:0.0 155:0.0 156:0.0 157:0.0 158:0.0 159:0.0 160:0.0 
1.0 1:0.0 2:0.0 3:0.0 4:0.0 5:0.0 6:0.0 7:0.0 8:0.0 9:0.0 10:0.0 11:0.0 12:0.0 13:0.0 14:0.0 15:0.0 16:0.0 17:0.0 18:0.0 19:0.0 20:0.0 21:0.0 22:0.0 23:0.0 24:0.0 25:0.0 26:0.0 27:0.0 28:0.0 29:0.0 30:0.0 31:0.0 32:0.0 33:0.0 34:1.0 35:0.0 36:0.0 37:0.0 38:0.0 39:0.0 40:0.0 41:0.0 42:0.0 43:0.0 44:0.0 45:0.0 46:0.0 47:0.0 48:0.0 49:0.0 50:0.0 51:0.0 52:0.0 53:0.0 54:0.0 55:0.0 56:0.0 57:0.0 58:0.0 59:0.0 60:0.0 61:0.0 62:0.0 63:0.0 64:0.0 65:0.0 66:0.0 67:0.0 68:0.0 69:0.0 70:0.0 71:0.0 72:0.0 73:0.0 74:0.0 75:0.0 76:0.0 77:0.0 78:0.0 79:0.0 80:0.0 81:0.0 82:0.0 83:0.0 84:0.0 85:0.0 86:0.0 87:0.0 88:0.0 89:0.0 90:0.0 91:0.0 92:0.0 93:0.0 94:0.0 95:0.0 96:0.0 97:0.0 98:0.0 99:0.0 100:0.0 101:0.0 102:0.0 103:0.0 104:0.0 105:0.0 106:0.0 107:0.0 108:0.0 109:0.0 110:0.0 111:0.0 112:0.0 113:0.0 114:0.0 115:0.0 116:0.0 117:0.0 118:0.0 119:0.0 120:0.0 121:0.0 122:0.0 123:0.0 124:0.0 125:0.0 126:0.0 127:0.0 128:0.0 129:0.0 130:0.0 131:0.0 132:0.0 133:0.0 134:0.0 135:0.0 136:0.0 137:0.0 138:0.0 139:0.0 140:0.0 141:0.0 142:0.0 143:0.0 144:0.0 145:0.0 146:0.0 147:0.0 148:0.0 149:0.0 150:0.0 151:0.0 152:0.0 153:0.0 154:0.0 155:0.0 156:0.0 157:0.0 158:0.0 159:0.0 160:0.0 
1.0 1:0.0 2:0.0 3:0.0 4:0.0 5:0.0 6:0.0 7:0.0 8:0.0 9:0.0 10:0.0 11:0.0 12:0.0 13:0.0 14:0.0 15:0.0 16:0.0 17:0.0 18:0.0 19:0.0 20:0.0 21:0.0 22:0.0 23:0.0 24:0.0 25:0.0 26:0.0 27:0.0 28:0.0 29:0.0 30:0.0 31:0.0 32:0.0 33:0.0 34:1.0 35:0.0 36:0.0 37:0.0 38:0.0 39:0.0 40:0.0 41:0.0 42:0.0 43:0.0 44:0.0 45:0.0 46:0.0 47:0.0 48:0.0 49:0.0 50:0.0 51:0.0 52:0.0 53:0.0 54:0.0 55:0.0 56:0.0 57:0.0 58:0.0 59:0.0 60:0.0 61:0.0 62:0.0 63:0.0 64:0.0 65:0.0 66:0.0 67:0.0 68:0.0 69:0.0 70:0.0 71:0.0 72:0.0 73:0.0 74:0.0 75:0.0 76:0.0 77:0.0 78:0.0 79:0.0 80:0.0 81:0.0 82:0.0 83:0.0 84:0.0 85:0.0 86:0.0 87:0.0 88:0.0 89:0.0 90:0.0 91:0.0 92:0.0 93:0.0 94:0.0 95:0.0 96:0.0 97:0.0 98:0.0 99:0.0 100:0.0 101:0.0 102:0.0 103:0.0 104:0.0 105:0.0 106:0.0 107:0.0 108:0.0 109:0.0 110:0.0 111:0.0 112:0.0 113:0.0 114:0.0 115:0.0 116:0.0 117:0.0 118:0.0 119:0.0 120:0.0 121:0.0 122:0.0 123:0.0 124:0.0 125:0.0 126:0.0 127:0.0 128:0.0 129:0.0 130:0.0 131:0.0 132:0.0 133:0.0 134:0.0 135:0.0 136:0.0 137:0.0 138:0.0 139:0.0 140:0.0 141:0.0 142:0.0 143:0.0 144:0.0 145:0.0 146:0.0 147:0.0 148:0.0 149:0.0 150:0.0 151:0.0 152:0.0 153:0.0 154:0.0 155:0.0 156:0.0 157:0.0 158:0.0 159:0.0 160:0.0 
1.0 1:0.0 2:0.0 3:0.0 4:0.0 5:0.0 6:0.0 7:0.0 8:0.0 9:0.0 10:0.0 11:0.0 12:0.0 13:0.0 14:0.0 15:0.0 16:0.0 17:0.0 18:0.0 19:0.0 20:0.0 21:0.0 22:0.0 23:0.0 24:0.0 25:0.0 26:0.0 27:0.0 28:0.0 29:0.0 30:0.0 31:0.0 32:0.0 33:0.0 34:1.0 35:0.0 36:0.0 37:0.0 38:0.0 39:0.0 40:0.0 41:0.0 42:0.0 43:0.0 44:0.0 45:0.0 46:0.0 47:0.0 48:0.0 49:0.0 50:0.0 51:0.0 52:0.0 53:0.0 54:0.0 55:0.0 56:0.0 57:0.0 58:0.0 59:0.0 60:0.0 61:0.0 62:0.0 63:0.0 64:0.0 65:0.0 66:0.0 67:0.0 68:0.0 69:0.0 70:0.0 71:0.0 72:0.0 73:0.0 74:0.0 75:0.0 76:0.0 77:0.0 78:0.0 79:0.0 80:0.0 81:0.0 82:0.0 83:0.0 84:0.0 85:0.0 86:0.0 87:0.0 88:0.0 89:0.0 90:0.0 91:0.0 92:0.0 93:0.0 94:0.0 95:0.0 96:0.0 97:0.0 98:0.0 99:0.0 100:0.0 101:0.0 102:0.0 103:0.0 104:0.0 105:0.0 106:0.0 107:0.0 108:0.0 109:0.0 110:0.0 111:0.0 112:0.0 113:0.0 114:0.0 115:0.0 116:0.0 117:0.0 118:0.0 119:0.0 120:0.0 121:0.0 122:0.0 123:0.0 124:0.0 125:0.0 126:0.0 127:0.0 128:0.0 129:0.0 130:0.0 131:0.0 132:0.0 133:0.0 134:0.0 135:0.0 136:0.0 137:0.0 138:0.0 139:0.0 140:0.0 141:0.0 142:0.0 143:0.0 144:0.0 145:0.0 146:0.0 147:0.0 148:0.0 149:0.0 150:0.0 151:0.0 152:0.0 153:0.0 154:0.0 155:0.0 156:0.0 157:0.0 158:0.0 159:0.0 160:0.0 
1.0 1:0.0 2:0.0 3:0.0 4:0.0 5:0.0 6:0.0 7:0.0 8:0.0 9:0.0 10:0.0 11:0.0 12:0.0 13:0.0 14:0.0 15:0.0 16:0.0 17:0.0 18:0.0 19:0.0 20:0.0 21:0.0 22:0.0 23:0.0 24:0.0 25:0.0 26:0.0 27:0.0 28:0.0 29:0.0 30:0.0 31:0.0 32:0.0 33:0.0 34:1.0 35:0.0 36:0.0 37:0.0 38:0.0 39:0.0 40:0.0 41:0.0 42:0.0 43:0.0 44:0.0 45:0.0 46:0.0 47:0.0 48:0.0 49:0.0 50:0.0 51:0.0 52:0.0 53:0.0 54:0.0 55:0.0 56:0.0 57:0.0 58:0.0 59:0.0 60:0.0 61:0.0 62:0.0 63:0.0 64:0.0 65:0.0 66:0.0 67:0.0 68:0.0 69:0.0 70:0.0 71:0.0 72:0.0 73:0.0 74:0.0 75:0.0 76:0.0 77:0.0 78:0.0 79:0.0 80:0.0 81:0.0 82:0.0 83:0.0 84:0.0 85:0.0 86:0.0 87:0.0 88:0.0 89:0.0 90:0.0 91:0.0 92:0.0 93:0.0 94:0.0 95:0.0 96:0.0 97:0.0 98:0.0 99:0.0 100:0.0 101:0.0 102:0.0 103:0.0 104:0.0 105:0.0 106:0.0 107:0.0 108:0.0 109:0.0 110:0.0 111:0.0 112:0.0 113:0.0 114:0.0 115:0.0 116:0.0 117:0.0 118:0.0 119:0.0 120:0.0 121:0.0 122:0.0 123:0.0 124:0.0 125:0.0 126:0.0 127:0.0 128:0.0 129:0.0 130:0.0 131:0.0 132:0.0 133:0.0 134:0.0 135:0.0 136:0.0 137:0.0 138:0.0 139:0.0 140:0.0 141:0.0 142:0.0 143:0.0 144:0.0 145:0.0 146:0.0 147:0.0 148:0.0 149:0.0 150:0.0 151:0.0 152:0.0 153:0.0 154:0.0 155:0.0 156:0.0 157:0.0 158:0.0 159:0.0 160:0.0 
1.0 1:0.0 2:0.0 3:0.0 4:0.0 5:0.0 6:0.0 7:0.0 8:0.0 9:0.0 10:0.0 11:0.0 12:0.0 13:0.0 14:0.0 15:0.0 16:0.0 17:0.0 18:0.0 19:0.0 20:0.0 21:0.0 22:0.0 23:0.0 24:0.0 25:0.0 26:0.0 27:0.0 28:0.0 29:0.0 30:0.0 31:0.0 32:0.0 33:0.0 34:1.0 35:0.0 36:0.0 37:0.0 38:0.0 39:0.0 40:0.0 41:0.0 42:0.0 43:0.0 44:0.0 45:0.0 46:0.0 47:0.0 48:0.0 49:0.0 50:0.0 51:0.0 52:0.0 53:0.0 54:0.0 55:0.0 56:0.0 57:0.0 58:0.0 59:0.0 60:0.0 61:0.0 62:0.0 63:0.0 64:0.0 65:0.0 66:0.0 67:0.0 68:0.0 69:0.0 70:0.0 71:0.0 72:0.0 73:0.0 74:0.0 75:0.0 76:0.0 77:0.0 78:0.0 79:0.0 80:0.0 81:0.0 82:0.0 83:0.0 84:0.0 85:0.0 86:0.0 87:0.0 88:0.0 89:0.0 90:0.0 91:0.0 92:0.0 93:0.0 94:0.0 95:0.0 96:0.0 97:0.0 98:0.0 99:0.0 100:0.0 101:0.0 102:0.0 103:0.0 104:0.0 105:0.0 106:0.0 107:0.0 108:0.0 109:0.0 110:0.0 111:0.0 112:0.0 113:0.0 114:0.0 115:0.0 116:0.0 117:0.0 118:0.0 119:0.0 120:0.0 121:0.0 122:0.0 123:0.0 124:0.0 125:0.0 126:0.0 127:0.0 128:0.0 129:0.0 130:0.0 131:0.0 132:0.0 133:0.0 134:0.0 135:0.0 136:0.0 137:0.0 138:0.0 139:0.0 140:0.0 141:0.0 142:0.0 143:0.0 144:0.0 145:0.0 146:0.0 147:0.0 148:0.0 149:0.0 150:0.0 151:0.0 152:0.0 153:0.0 154:0.0 155:0.0 156:0.0 157:0.0 158:0.0 159:0.0 160:0.0 
1.0 1:0.0 2:0.0 3:0.0 4:0.0 5:0.0 6:0.0 7:0.0 8:0.0 9:0.0 10:0.0 11:0.0 12:0.0 13:0.0 14:0.0 15:0.0 16:0.0 17:0.0 18:0.0 19:0.0 20:0.0 21:0.0 22:0.0 23:0.0 24:0.0 25:0.0 26:0.0 27:0.0 28:0.0 29:0.0 30:0.0 31:0.0 32:0.0 33:0.0 34:1.0 35:0.0 36:0.0 37:0.0 38:0.0 39:0.0 40:0.0 41:0.0 42:0.0 43:0.0 44:0.0 45:0.0 46:0.0 47:0.0 48:0.0 49:0.0 50:0.0 51:0.0 52:0.0 53:0.0 54:0.0 55:0.0 56:0.0 57:0.0 58:0.0 59:0.0 60:0.0 61:0.0 62:0.0 63:0.0 64:0.0 65:0.0 66:0.0 67:0.0 68:0.0 69:0.0 70:0.0 71:0.0 72:0.0 73:0.0 74:0.0 75:0.0 76:0.0 77:0.0 78:0.0 79:0.0 80:0.0 81:0.0 82:0.0 83:0.0 84:0.0 85:0.0 86:0.0 87:0.0 88:0.0 89:0.0 90:0.0 91:0.0 92:0.0 93:0.0 94:0.0 95:0.0 96:0.0 97:0.0 98:0.0 99:0.0 100:0.0 101:0.0 102:0.0 103:0.0 104:0.0 105:0.0 106:0.0 107:0.0 108:0.0 109:0.0 110:0.0 111:0.0 112:0.0 113:0.0 114:0.0 115:0.0 116:0.0 117:0.0 118:0.0 119:0.0 120:0.0 121:0.0 122:0.0 123:0.0 124:0.0 125:0.0 126:0.0 127:0.0 128:0.0 129:0.0 130:0.0 131:0.0 132:0.0 133:0.0 134:0.0 135:0.0 136:0.0 137:0.0 138:0.0 139:0.0 140:0.0 141:0.0 142:0.0 143:0.0 144:0.0 145:0.0 146:0.0 147:0.0 148:0.0 149:0.0 150:0.0 151:0.0 152:0.0 153:0.0 154:0.0 155:0.0 156:0.0 157:0.0 158:0.0 159:0.0 160:0.0 
1.0 1:0.0 2:0.0 3:0.0 4:0.0 5:0.0 6:0.003194888178913738 7:0.003194888178913738 8:0.0 9:0.006389776357827476 10:0.0 11:0.003194888178913738 12:0.0 13:0.0 14:0.0 15:0.0 16:0.0 17:0.003194888178913738 18:0.0 19:0.0 20:0.0 21:0.0 22:0.0 23:0.0 24:0.0 25:0.003194888178913738 26:0.0 27:0.0 28:0.0 29:0.0 30:0.006389776357827476 31:0.01597444089456869 32:0.0 33:0.0 34:0.7380191693290735 35:0.012779552715654952 36:0.0 37:0.006389776357827476 38:0.012779552715654952 39:0.0 40:0.01597444089456869 41:0.006389776357827476 42:0.0 43:0.0 44:0.003194888178913738 45:0.0 46:0.0 47:0.0 48:0.0 49:0.003194888178913738 50:0.0 51:0.006389776357827476 52:0.0 53:0.0 54:0.0 55:0.0 56:0.0 57:0.003194888178913738 58:0.0 59:0.0 60:0.0 61:0.0 62:0.003194888178913738 63:0.0 64:0.0 65:0.0 66:0.0 67:0.0 68:0.006389776357827476 69:0.0 70:0.003194888178913738 71:0.0 72:0.003194888178913738 73:0.0 74:0.0 75:0.009584664536741214 76:0.003194888178913738 77:0.0 78:0.003194888178913738 79:0.006389776357827476 80:0.006389776357827476 81:0.0 82:0.0 83:0.003194888178913738 84:0.0 85:0.0 86:0.0 87:0.0 88:0.0 89:0.003194888178913738 90:0.0 91:0.003194888178913738 92:0.0 93:0.0 94:0.003194888178913738 95:0.0 96:0.0 97:0.0 98:0.0 99:0.0 100:0.0 101:0.0 102:0.009584664536741214 103:0.012779552715654952 104:0.0 105:0.0 106:0.0 107:0.0 108:0.01597444089456869 109:0.003194888178913738 110:0.0 111:0.0 112:0.0 113:0.0 114:0.0 115:0.0 116:0.0 117:0.0 118:0.0 119:0.0 120:0.0 121:0.0 122:0.0 123:0.006389776357827476 124:0.0 125:0.0 126:0.0 127:0.0 128:0.0 129:0.0 130:0.0 131:0.003194888178913738 132:0.0 133:0.0 134:0.0 135:0.003194888178913738 136:0.003194888178913738 137:0.003194888178913738 138:0.003194888178913738 139:0.0 140:0.0 141:0.0 142:0.0 143:0.0 144:0.0 145:0.0 146:0.003194888178913738 147:0.0 148:0.0 149:0.0 150:0.0 151:0.003194888178913738 152:0.003194888178913738 153:0.0 154:0.006389776357827476 155:0.003194888178913738 156:0.0 157:0.006389776357827476 158:0.0 159:0.0 160:0.0 
1.0 1:0.0 2:0.0 3:0.0 4:0.0 5:0.0 6:0.003663003663003663 7:0.003663003663003663 8:0.0 9:0.007326007326007326 10:0.0 11:0.003663003663003663 12:0.0 13:0.0 14:0.0 15:0.0 16:0.0 17:0.003663003663003663 18:0.0 19:0.0 20:0.0 21:0.0 22:0.0 23:0.0 24:0.0 25:0.003663003663003663 26:0.0 27:0.0 28:0.0 29:0.0 30:0.007326007326007326 31:0.018315018315018316 32:0.0 33:0.0 34:0.6996336996336996 35:0.014652014652014652 36:0.0 37:0.007326007326007326 38:0.014652014652014652 39:0.0 40:0.018315018315018316 41:0.007326007326007326 42:0.0 43:0.0 44:0.003663003663003663 45:0.0 46:0.0 47:0.0 48:0.0 49:0.003663003663003663 50:0.0 51:0.007326007326007326 52:0.0 53:0.0 54:0.0 55:0.0 56:0.0 57:0.003663003663003663 58:0.0 59:0.0 60:0.0 61:0.0 62:0.003663003663003663 63:0.0 64:0.0 65:0.0 66:0.0 67:0.0 68:0.007326007326007326 69:0.0 70:0.003663003663003663 71:0.0 72:0.003663003663003663 73:0.0 74:0.0 75:0.01098901098901099 76:0.003663003663003663 77:0.0 78:0.003663003663003663 79:0.007326007326007326 80:0.007326007326007326 81:0.0 82:0.0 83:0.003663003663003663 84:0.0 85:0.0 86:0.0 87:0.0 88:0.0 89:0.003663003663003663 90:0.0 91:0.003663003663003663 92:0.0 93:0.0 94:0.003663003663003663 95:0.0 96:0.0 97:0.0 98:0.0 99:0.0 100:0.0 101:0.0 102:0.01098901098901099 103:0.014652014652014652 104:0.0 105:0.0 106:0.0 107:0.0 108:0.018315018315018316 109:0.003663003663003663 110:0.0 111:0.0 112:0.0 113:0.0 114:0.0 115:0.0 116:0.0 117:0.0 118:0.0 119:0.0 120:0.0 121:0.0 122:0.0 123:0.007326007326007326 124:0.0 125:0.0 126:0.0 127:0.0 128:0.0 129:0.0 130:0.0 131:0.003663003663003663 132:0.0 133:0.0 134:0.0 135:0.003663003663003663 136:0.003663003663003663 137:0.003663003663003663 138:0.003663003663003663 139:0.0 140:0.0 141:0.0 142:0.0 143:0.0 144:0.0 145:0.0 146:0.003663003663003663 147:0.0 148:0.0 149:0.0 150:0.0 151:0.003663003663003663 152:0.003663003663003663 153:0.0 154:0.007326007326007326 155:0.003663003663003663 156:0.0 157:0.007326007326007326 158:0.0 159:0.0 160:0.0 
1.0 1:0.0 2:0.0 3:0.0017006802721088435 4:0.00510204081632653 5:0.003401360544217687 6:0.00510204081632653 7:0.0 8:0.0 9:0.003401360544217687 10:0.0 11:0.0 12:0.0 13:0.0 14:0.0017006802721088435 15:0.0 16:0.0017006802721088435 17:0.0017006802721088435 18:0.00510204081632653 19:0.0 20:0.0017006802721088435 21:0.0 22:0.0 23:0.0 24:0.0 25:0.01020408163265306 26:0.0 27:0.0 28:0.0 29:0.0 30:0.0 31:0.00510204081632653 32:0.0 33:0.0017006802721088435 34:0.5238095238095238 35:0.00510204081632653 36:0.0 37:0.01020408163265306 38:0.02891156462585034 39:0.0 40:0.0017006802721088435 41:0.00510204081632653 42:0.0017006802721088435 43:0.0 44:0.015306122448979591 45:0.0 46:0.0 47:0.003401360544217687 48:0.017006802721088437 49:0.0 50:0.0 51:0.0017006802721088435 52:0.0 53:0.0017006802721088435 54:0.0 55:0.0 56:0.0 57:0.0 58:0.0 59:0.0 60:0.0 61:0.0017006802721088435 62:0.003401360544217687 63:0.0 64:0.0 65:0.0 66:0.0 67:0.0 68:0.0 69:0.0 70:0.0 71:0.0 72:0.0 73:0.0 74:0.0 75:0.00510204081632653 76:0.0017006802721088435 77:0.0 78:0.00510204081632653 79:0.00510204081632653 80:0.003401360544217687 81:0.0 82:0.0 83:0.003401360544217687 84:0.0017006802721088435 85:0.0 86:0.0017006802721088435 87:0.0 88:0.0 89:0.0 90:0.0 91:0.20918367346938777 92:0.0 93:0.0 94:0.0017006802721088435 95:0.003401360544217687 96:0.0 97:0.011904761904761904 98:0.0 99:0.0 100:0.003401360544217687 101:0.0 102:0.0017006802721088435 103:0.003401360544217687 104:0.0017006802721088435 105:0.0 106:0.0 107:0.0 108:0.00510204081632653 109:0.0 110:0.0 111:0.0 112:0.0 113:0.0 114:0.0017006802721088435 115:0.0 116:0.0 117:0.0 118:0.0 119:0.0 120:0.0 121:0.0 122:0.0 123:0.0017006802721088435 124:0.003401360544217687 125:0.0 126:0.0 127:0.0017006802721088435 128:0.0 129:0.0 130:0.0 131:0.0 132:0.0 133:0.0 134:0.006802721088435374 135:0.0 136:0.0 137:0.0 138:0.003401360544217687 139:0.0 140:0.0 141:0.0 142:0.0 143:0.0 144:0.0 145:0.0 146:0.00510204081632653 147:0.0 148:0.0 149:0.0 150:0.0 151:0.01870748299319728 152:0.0 153:0.0 154:0.00510204081632653 155:0.0017006802721088435 156:0.0 157:0.011904761904761904 158:0.0 159:0.0 160:0.0017006802721088435 
1.0 1:0.0 2:0.0 3:0.0 4:0.0 5:0.0 6:0.0 7:0.0 8:0.0 9:0.003236245954692557 10:0.0 11:0.0 12:0.0 13:0.0 14:0.003236245954692557 15:0.0 16:0.012944983818770227 17:0.0 18:0.0 19:0.0 20:0.0 21:0.0 22:0.0 23:0.0 24:0.0 25:0.003236245954692557 26:0.003236245954692557 27:0.0 28:0.0 29:0.006472491909385114 30:0.0 31:0.003236245954692557 32:0.0 33:0.0 34:0.7540453074433657 35:0.0 36:0.0 37:0.0 38:0.0 39:0.0 40:0.022653721682847898 41:0.0 42:0.0 43:0.0 44:0.0 45:0.0 46:0.0 47:0.003236245954692557 48:0.0 49:0.003236245954692557 50:0.003236245954692557 51:0.003236245954692557 52:0.0 53:0.006472491909385114 54:0.0 55:0.006472491909385114 56:0.0 57:0.0 58:0.0 59:0.0 60:0.0 61:0.0 62:0.003236245954692557 63:0.0 64:0.0 65:0.0 66:0.0 67:0.0 68:0.0 69:0.0 70:0.006472491909385114 71:0.0 72:0.0 73:0.016181229773462782 74:0.003236245954692557 75:0.003236245954692557 76:0.0 77:0.0 78:0.006472491909385114 79:0.003236245954692557 80:0.009708737864077669 81:0.0 82:0.0 83:0.0 84:0.0 85:0.0 86:0.006472491909385114 87:0.0 88:0.0 89:0.003236245954692557 90:0.0 91:0.0 92:0.0 93:0.0 94:0.012944983818770227 95:0.0 96:0.0 97:0.0 98:0.0 99:0.003236245954692557 100:0.003236245954692557 101:0.0 102:0.0 103:0.0 104:0.0 105:0.0 106:0.0 107:0.0 108:0.0 109:0.0 110:0.0 111:0.0 112:0.003236245954692557 113:0.0 114:0.0 115:0.0 116:0.0 117:0.0 118:0.0 119:0.0 120:0.0 121:0.0 122:0.003236245954692557 123:0.0 124:0.009708737864077669 125:0.0 126:0.0 127:0.0 128:0.0 129:0.0 130:0.0 131:0.006472491909385114 132:0.0 133:0.006472491909385114 134:0.012944983818770227 135:0.003236245954692557 136:0.0 137:0.003236245954692557 138:0.0 139:0.0 140:0.0 141:0.0 142:0.0 143:0.0 144:0.0 145:0.0 146:0.009708737864077669 147:0.003236245954692557 148:0.009708737864077669 149:0.0 150:0.0 151:0.0 152:0.0 153:0.0 154:0.0 155:0.006472491909385114 156:0.0 157:0.003236245954692557 158:0.0 159:0.0 160:0.0 
1.0 1:0.0 2:0.0 3:0.0 4:0.0 5:0.0 6:0.0 7:0.0 8:0.0 9:0.0 10:0.0 11:0.0 12:0.0 13:0.0 14:0.0 15:0.0 16:0.0 17:0.0 18:0.0 19:0.0 20:0.0 21:0.0 22:0.0 23:0.0 24:0.0 25:0.01060070671378092 26:0.0 27:0.0 28:0.0 29:0.0 30:0.0 31:0.0 32:0.0 33:0.0035335689045936395 34:0.7561837455830389 35:0.007067137809187279 36:0.0 37:0.0035335689045936395 38:0.014134275618374558 39:0.0 40:0.01060070671378092 41:0.007067137809187279 42:0.007067137809187279 43:0.0 44:0.007067137809187279 45:0.0 46:0.0 47:0.007067137809187279 48:0.0035335689045936395 49:0.0 50:0.0 51:0.0 52:0.0 53:0.0 54:0.0 55:0.0 56:0.0 57:0.0 58:0.0 59:0.0 60:0.0 61:0.0 62:0.014134275618374558 63:0.0 64:0.0 65:0.0 66:0.0 67:0.0 68:0.0 69:0.0 70:0.0035335689045936395 71:0.0 72:0.0 73:0.0 74:0.0 75:0.0035335689045936395 76:0.0035335689045936395 77:0.0 78:0.0 79:0.0 80:0.0 81:0.0 82:0.0 83:0.0 84:0.0 85:0.0 86:0.0 87:0.0 88:0.0 89:0.0 90:0.0 91:0.05653710247349823 92:0.0 93:0.0 94:0.0035335689045936395 95:0.0035335689045936395 96:0.0 97:0.0 98:0.0 99:0.0 100:0.0 101:0.0 102:0.0035335689045936395 103:0.0 104:0.0 105:0.0 106:0.0035335689045936395 107:0.0 108:0.0176678445229682 109:0.0 110:0.0 111:0.0035335689045936395 112:0.0035335689045936395 113:0.0 114:0.0 115:0.0 116:0.0 117:0.0 118:0.0 119:0.0 120:0.0 121:0.0 122:0.007067137809187279 123:0.0035335689045936395 124:0.0035335689045936395 125:0.0 126:0.0 127:0.0 128:0.0 129:0.0 130:0.0 131:0.0 132:0.0 133:0.0 134:0.01060070671378092 135:0.0 136:0.0035335689045936395 137:0.0 138:0.0 139:0.0 140:0.0 141:0.0 142:0.0 143:0.0 144:0.0 145:0.0 146:0.0 147:0.0 148:0.0035335689045936395 149:0.0 150:0.0 151:0.01060070671378092 152:0.0 153:0.0 154:0.0 155:0.0 156:0.0 157:0.0 158:0.0 159:0.0 160:0.0 
1.0 1:0.0 2:0.0 3:0.0 4:0.0 5:0.0042643923240938165 6:0.0042643923240938165 7:0.0021321961620469083 8:0.0 9:0.008528784648187633 10:0.0 11:0.0 12:0.0 13:0.0 14:0.0021321961620469083 15:0.0 16:0.0021321961620469083 17:0.0021321961620469083 18:0.0 19:0.0 20:0.0021321961620469083 21:0.0 22:0.0 23:0.0 24:0.0 25:0.006396588486140725 26:0.0 27:0.0 28:0.0 29:0.0021321961620469083 30:0.0 31:0.008528784648187633 32:0.0021321961620469083 33:0.0 34:0.6801705756929638 35:0.0 36:0.0 37:0.008528784648187633 38:0.006396588486140725 39:0.0 40:0.019189765458422176 41:0.0042643923240938165 42:0.0021321961620469083 43:0.0 44:0.019189765458422176 45:0.0 46:0.0 47:0.006396588486140725 48:0.006396588486140725 49:0.0021321961620469083 50:0.0 51:0.0 52:0.0021321961620469083 53:0.0 54:0.0 55:0.0 56:0.0 57:0.0 58:0.0 59:0.0 60:0.0 61:0.0042643923240938165 62:0.0042643923240938165 63:0.0 64:0.0 65:0.0 66:0.0 67:0.0 68:0.0 69:0.0 70:0.0 71:0.0 72:0.0021321961620469083 73:0.0 74:0.0021321961620469083 75:0.008528784648187633 76:0.0021321961620469083 77:0.0 78:0.0042643923240938165 79:0.0 80:0.0042643923240938165 81:0.0 82:0.0 83:0.0021321961620469083 84:0.0 85:0.0 86:0.0 87:0.0 88:0.0 89:0.0021321961620469083 90:0.0 91:0.03624733475479744 92:0.0 93:0.0 94:0.0042643923240938165 95:0.0021321961620469083 96:0.0 97:0.014925373134328358 98:0.0 99:0.0 100:0.0021321961620469083 101:0.0 102:0.0021321961620469083 103:0.0042643923240938165 104:0.0 105:0.0 106:0.0 107:0.0 108:0.010660980810234541 109:0.0021321961620469083 110:0.0 111:0.0 112:0.0 113:0.0 114:0.006396588486140725 115:0.0042643923240938165 116:0.0021321961620469083 117:0.0 118:0.0 119:0.0 120:0.0 121:0.0 122:0.0 123:0.0021321961620469083 124:0.0021321961620469083 125:0.008528784648187633 126:0.0 127:0.0021321961620469083 128:0.0 129:0.0 130:0.0 131:0.0021321961620469083 132:0.0 133:0.0 134:0.008528784648187633 135:0.0 136:0.0021321961620469083 137:0.0021321961620469083 138:0.0 139:0.0021321961620469083 140:0.0 141:0.0 142:0.0 143:0.0 144:0.0 145:0.0 146:0.0 147:0.0021321961620469083 148:0.0 149:0.0042643923240938165 150:0.0 151:0.006396588486140725 152:0.0042643923240938165 153:0.0 154:0.0042643923240938165 155:0.0021321961620469083 156:0.0 157:0.008528784648187633 158:0.0 159:0.0 160:0.0042643923240938165 
1.0 1:0.0 2:0.0 3:0.0 4:0.002028397565922921 5:0.0 6:0.008113590263691683 7:0.002028397565922921 8:0.0 9:0.0 10:0.002028397565922921 11:0.0 12:0.006085192697768763 13:0.0 14:0.004056795131845842 15:0.0 16:0.002028397565922921 17:0.0 18:0.002028397565922921 19:0.0 20:0.0 21:0.0 22:0.0 23:0.0 24:0.0 25:0.012170385395537525 26:0.0 27:0.0 28:0.0 29:0.006085192697768763 30:0.0 31:0.006085192697768763 32:0.004056795131845842 33:0.0 34:0.6632860040567952 35:0.006085192697768763 36:0.0 37:0.014198782961460446 38:0.02231237322515213 39:0.006085192697768763 40:0.008113590263691683 41:0.004056795131845842 42:0.004056795131845842 43:0.0 44:0.016227180527383367 45:0.002028397565922921 46:0.0 47:0.002028397565922921 48:0.004056795131845842 49:0.006085192697768763 50:0.0 51:0.002028397565922921 52:0.0 53:0.0 54:0.0 55:0.002028397565922921 56:0.0 57:0.002028397565922921 58:0.0 59:0.0 60:0.0 61:0.0 62:0.0 63:0.0 64:0.0 65:0.0 66:0.0 67:0.0 68:0.002028397565922921 69:0.0 70:0.002028397565922921 71:0.0 72:0.0 73:0.0 74:0.002028397565922921 75:0.006085192697768763 76:0.0 77:0.0 78:0.0 79:0.002028397565922921 80:0.002028397565922921 81:0.0 82:0.0 83:0.002028397565922921 84:0.004056795131845842 85:0.0 86:0.002028397565922921 87:0.0 88:0.0 89:0.0 90:0.0 91:0.04665314401622718 92:0.0 93:0.0 94:0.0 95:0.0 96:0.0 97:0.002028397565922921 98:0.0 99:0.0 100:0.0 101:0.0 102:0.002028397565922921 103:0.008113590263691683 104:0.0 105:0.0 106:0.0 107:0.0 108:0.008113590263691683 109:0.0 110:0.0 111:0.0 112:0.0 113:0.0 114:0.0 115:0.0 116:0.0 117:0.0 118:0.002028397565922921 119:0.0 120:0.0 121:0.0 122:0.004056795131845842 123:0.004056795131845842 124:0.008113590263691683 125:0.002028397565922921 126:0.0 127:0.0 128:0.0 129:0.0 130:0.0 131:0.0 132:0.0 133:0.002028397565922921 134:0.004056795131845842 135:0.008113590263691683 136:0.0 137:0.002028397565922921 138:0.0 139:0.0 140:0.0 141:0.0 142:0.0 143:0.0 144:0.002028397565922921 145:0.0 146:0.0 147:0.004056795131845842 148:0.004056795131845842 149:0.002028397565922921 150:0.0 151:0.008113590263691683 152:0.002028397565922921 153:0.0 154:0.006085192697768763 155:0.002028397565922921 156:0.0 157:0.014198782961460446 158:0.0 159:0.002028397565922921 160:0.004056795131845842 
1.0 1:0.0 2:0.0 3:0.0 4:0.0 5:0.0 6:0.0024937655860349127 7:0.0024937655860349127 8:0.0 9:0.0 10:0.004987531172069825 11:0.004987531172069825 12:0.004987531172069825 13:0.0 14:0.0 15:0.0 16:0.004987531172069825 17:0.0 18:0.00997506234413965 19:0.0 20:0.0 21:0.0 22:0.0 23:0.0 24:0.0 25:0.022443890274314215 26:0.0 27:0.0 28:0.0 29:0.0 30:0.0024937655860349127 31:0.00997506234413965 32:0.0 33:0.0024937655860349127 34:0.543640897755611 35:0.0024937655860349127 36:0.0 37:0.0024937655860349127 38:0.004987531172069825 39:0.0024937655860349127 40:0.017456359102244388 41:0.0 42:0.007481296758104738 43:0.0 44:0.00997506234413965 45:0.0 46:0.0 47:0.0 48:0.012468827930174564 49:0.0024937655860349127 50:0.0 51:0.0 52:0.0 53:0.0 54:0.0 55:0.007481296758104738 56:0.0 57:0.0 58:0.0 59:0.0 60:0.0 61:0.0 62:0.007481296758104738 63:0.0 64:0.0 65:0.0 66:0.0 67:0.0 68:0.0 69:0.0 70:0.007481296758104738 71:0.0 72:0.0 73:0.012468827930174564 74:0.0024937655860349127 75:0.004987531172069825 76:0.0 77:0.0 78:0.0 79:0.0024937655860349127 80:0.004987531172069825 81:0.0 82:0.0 83:0.012468827930174564 84:0.0024937655860349127 85:0.0 86:0.0024937655860349127 87:0.0 88:0.0 89:0.014962593516209476 90:0.0 91:0.02743142144638404 92:0.0 93:0.0 94:0.0024937655860349127 95:0.0024937655860349127 96:0.0 97:0.0024937655860349127 98:0.0 99:0.0024937655860349127 100:0.004987531172069825 101:0.0 102:0.00997506234413965 103:0.0 104:0.007481296758104738 105:0.0 106:0.0 107:0.0 108:0.014962593516209476 109:0.00997506234413965 110:0.0 111:0.0 112:0.004987531172069825 113:0.0 114:0.0 115:0.0 116:0.0024937655860349127 117:0.0 118:0.0 119:0.0 120:0.0 121:0.0 122:0.004987531172069825 123:0.00997506234413965 124:0.004987531172069825 125:0.0 126:0.0 127:0.0024937655860349127 128:0.0 129:0.0 130:0.0 131:0.0024937655860349127 132:0.0 133:0.0024937655860349127 134:0.00997506234413965 135:0.0024937655860349127 136:0.0 137:0.012468827930174564 138:0.004987531172069825 139:0.007481296758104738 140:0.004987531172069825 141:0.0 142:0.0 143:0.0 144:0.0 145:0.0 146:0.0 147:0.0024937655860349127 148:0.0 149:0.004987531172069825 150:0.0 151:0.004987531172069825 152:0.0024937655860349127 153:0.0 154:0.0024937655860349127 155:0.0024937655860349127 156:0.0 157:0.05486284289276808 158:0.0 159:0.0024937655860349127 160:0.0 
1.0 1:0.0 2:0.0 3:0.0 4:0.0 5:0.0 6:0.0 7:0.0 8:0.0 9:0.0 10:0.0 11:0.0 12:0.0 13:0.0 14:0.0 15:0.0 16:0.0 17:0.0 18:0.0 19:0.0 20:0.0 21:0.0 22:0.0 23:0.0 24:0.0 25:0.0 26:0.0 27:0.0 28:0.0 29:0.0 30:0.004 31:0.0 32:0.0 33:0.0 34:0.756 35:0.0 36:0.0 37:0.008 38:0.016 39:0.0 40:0.066 41:0.0 42:0.0 43:0.0 44:0.004 45:0.0 46:0.0 47:0.0 48:0.008 49:0.0 50:0.0 51:0.0 52:0.0 53:0.002 54:0.0 55:0.0 56:0.0 57:0.0 58:0.0 59:0.0 60:0.0 61:0.0 62:0.0 63:0.0 64:0.0 65:0.0 66:0.0 67:0.0 68:0.002 69:0.0 70:0.004 71:0.0 72:0.0 73:0.002 74:0.0 75:0.0 76:0.0 77:0.0 78:0.0 79:0.0 80:0.0 81:0.0 82:0.0 83:0.006 84:0.0 85:0.0 86:0.0 87:0.0 88:0.0 89:0.0 90:0.0 91:0.068 92:0.0 93:0.0 94:0.0 95:0.0 96:0.0 97:0.008 98:0.0 99:0.0 100:0.004 101:0.0 102:0.004 103:0.0 104:0.002 105:0.0 106:0.0 107:0.0 108:0.008 109:0.0 110:0.0 111:0.004 112:0.0 113:0.0 114:0.0 115:0.0 116:0.0 117:0.0 118:0.0 119:0.0 120:0.0 121:0.0 122:0.0 123:0.004 124:0.0 125:0.004 126:0.0 127:0.0 128:0.0 129:0.0 130:0.0 131:0.0 132:0.0 133:0.0 134:0.0 135:0.0 136:0.002 137:0.0 138:0.0 139:0.0 140:0.004 141:0.0 142:0.0 143:0.0 144:0.0 145:0.0 146:0.0 147:0.0 148:0.0 149:0.0 150:0.0 151:0.0 152:0.0 153:0.0 154:0.0 155:0.0 156:0.0 157:0.006 158:0.0 159:0.0 160:0.004 
1.0 1:0.0 2:0.0 3:0.0 4:0.0 5:0.0 6:0.0 7:0.0 8:0.0 9:0.0 10:0.0 11:0.0 12:0.0 13:0.0 14:0.0 15:0.0 16:0.0 17:0.0 18:0.0 19:0.0 20:0.0 21:0.0 22:0.0 23:0.0 24:0.0 25:0.0 26:0.0 27:0.0 28:0.0 29:0.0 30:0.004016064257028112 31:0.0 32:0.0 33:0.0 34:0.7650602409638554 35:0.0 36:0.0 37:0.008032128514056224 38:0.01606425702811245 39:0.0 40:0.060240963855421686 41:0.0 42:0.0 43:0.0 44:0.004016064257028112 45:0.0 46:0.0 47:0.0 48:0.008032128514056224 49:0.0 50:0.0 51:0.0 52:0.0 53:0.002008032128514056 54:0.0 55:0.0 56:0.0 57:0.0 58:0.0 59:0.0 60:0.0 61:0.0 62:0.0 63:0.0 64:0.0 65:0.0 66:0.0 67:0.0 68:0.002008032128514056 69:0.0 70:0.004016064257028112 71:0.0 72:0.0 73:0.002008032128514056 74:0.0 75:0.0 76:0.0 77:0.0 78:0.0 79:0.0 80:0.0 81:0.0 82:0.0 83:0.004016064257028112 84:0.0 85:0.0 86:0.0 87:0.0 88:0.0 89:0.0 90:0.0 91:0.06626506024096386 92:0.0 93:0.0 94:0.0 95:0.0 96:0.0 97:0.008032128514056224 98:0.0 99:0.0 100:0.004016064257028112 101:0.0 102:0.004016064257028112 103:0.0 104:0.002008032128514056 105:0.0 106:0.0 107:0.0 108:0.008032128514056224 109:0.0 110:0.0 111:0.004016064257028112 112:0.0 113:0.0 114:0.0 115:0.0 116:0.0 117:0.0 118:0.0 119:0.0 120:0.0 121:0.0 122:0.0 123:0.004016064257028112 124:0.0 125:0.004016064257028112 126:0.0 127:0.0 128:0.0 129:0.0 130:0.0 131:0.0 132:0.0 133:0.0 134:0.0 135:0.0 136:0.002008032128514056 137:0.0 138:0.0 139:0.0 140:0.004016064257028112 141:0.0 142:0.0 143:0.0 144:0.0 145:0.0 146:0.0 147:0.0 148:0.0 149:0.0 150:0.0 151:0.0 152:0.0 153:0.0 154:0.0 155:0.0 156:0.0 157:0.006024096385542169 158:0.0 159:0.0 160:0.004016064257028112 
1.0 1:0.0 2:0.0 3:0.002197802197802198 4:0.002197802197802198 5:0.0 6:0.002197802197802198 7:0.002197802197802198 8:0.0 9:0.013186813186813187 10:0.0 11:0.004395604395604396 12:0.008791208791208791 13:0.0 14:0.004395604395604396 15:0.0 16:0.002197802197802198 17:0.0 18:0.006593406593406593 19:0.0 20:0.0 21:0.0 22:0.0 23:0.0 24:0.0 25:0.02857142857142857 26:0.002197802197802198 27:0.0 28:0.0 29:0.0 30:0.006593406593406593 31:0.008791208791208791 32:0.0 33:0.002197802197802198 34:0.4175824175824176 35:0.008791208791208791 36:0.0 37:0.004395604395604396 38:0.017582417582417582 39:0.002197802197802198 40:0.017582417582417582 41:0.0 42:0.006593406593406593 43:0.002197802197802198 44:0.013186813186813187 45:0.0 46:0.0 47:0.0 48:0.008791208791208791 49:0.002197802197802198 50:0.0 51:0.0 52:0.002197802197802198 53:0.0 54:0.0 55:0.006593406593406593 56:0.0 57:0.0 58:0.0 59:0.0 60:0.0 61:0.0 62:0.017582417582417582 63:0.0 64:0.0 65:0.0 66:0.0 67:0.0 68:0.0 69:0.0 70:0.01098901098901099 71:0.0 72:0.0 73:0.01978021978021978 74:0.002197802197802198 75:0.006593406593406593 76:0.0 77:0.0 78:0.008791208791208791 79:0.004395604395604396 80:0.004395604395604396 81:0.0 82:0.0 83:0.02197802197802198 84:0.002197802197802198 85:0.0 86:0.002197802197802198 87:0.0 88:0.0 89:0.013186813186813187 90:0.0 91:0.006593406593406593 92:0.0 93:0.0 94:0.002197802197802198 95:0.006593406593406593 96:0.0 97:0.02197802197802198 98:0.0 99:0.002197802197802198 100:0.006593406593406593 101:0.0 102:0.008791208791208791 103:0.015384615384615385 104:0.006593406593406593 105:0.0 106:0.0 107:0.0 108:0.026373626373626374 109:0.008791208791208791 110:0.0 111:0.0 112:0.002197802197802198 113:0.0 114:0.0 115:0.0 116:0.002197802197802198 117:0.0 118:0.002197802197802198 119:0.0 120:0.0 121:0.0 122:0.006593406593406593 123:0.01978021978021978 124:0.004395604395604396 125:0.008791208791208791 126:0.0 127:0.0 128:0.0 129:0.0 130:0.0 131:0.0 132:0.0 133:0.0 134:0.008791208791208791 135:0.004395604395604396 136:0.002197802197802198 137:0.01098901098901099 138:0.006593406593406593 139:0.008791208791208791 140:0.004395604395604396 141:0.0 142:0.0 143:0.0 144:0.0 145:0.0 146:0.0 147:0.002197802197802198 148:0.0 149:0.004395604395604396 150:0.0 151:0.006593406593406593 152:0.004395604395604396 153:0.0 154:0.002197802197802198 155:0.004395604395604396 156:0.0 157:0.05054945054945055 158:0.0 159:0.0 160:0.0 
1.0 1:0.0 2:0.0 3:0.0 4:0.0 5:0.0 6:0.0 7:0.0 8:0.0 9:0.0 10:0.0 11:0.0 12:0.0 13:0.0 14:0.0 15:0.0 16:0.0 17:0.0 18:0.0 19:0.0 20:0.0 21:0.0 22:0.0 23:0.0 24:0.0 25:0.011235955056179775 26:0.0 27:0.0 28:0.0 29:0.0 30:0.0 31:0.0 32:0.0 33:0.003745318352059925 34:0.7415730337078652 35:0.00749063670411985 36:0.0 37:0.003745318352059925 38:0.0149812734082397 39:0.0 40:0.011235955056179775 41:0.00749063670411985 42:0.00749063670411985 43:0.0 44:0.00749063670411985 45:0.0 46:0.0 47:0.00749063670411985 48:0.003745318352059925 49:0.0 50:0.0 51:0.0 52:0.0 53:0.0 54:0.0 55:0.0 56:0.0 57:0.0 58:0.0 59:0.0 60:0.0 61:0.0 62:0.0149812734082397 63:0.0 64:0.0 65:0.0 66:0.0 67:0.0 68:0.0 69:0.0 70:0.003745318352059925 71:0.0 72:0.0 73:0.0 74:0.0 75:0.003745318352059925 76:0.003745318352059925 77:0.0 78:0.0 79:0.0 80:0.0 81:0.0 82:0.0 83:0.0 84:0.0 85:0.0 86:0.0 87:0.0 88:0.0 89:0.0 90:0.0 91:0.0599250936329588 92:0.0 93:0.0 94:0.003745318352059925 95:0.003745318352059925 96:0.0 97:0.0 98:0.0 99:0.0 100:0.0 101:0.0 102:0.003745318352059925 103:0.0 104:0.0 105:0.0 106:0.003745318352059925 107:0.0 108:0.018726591760299626 109:0.0 110:0.0 111:0.003745318352059925 112:0.003745318352059925 113:0.0 114:0.0 115:0.0 116:0.0 117:0.0 118:0.0 119:0.0 120:0.0 121:0.0 122:0.00749063670411985 123:0.003745318352059925 124:0.003745318352059925 125:0.0 126:0.0 127:0.0 128:0.0 129:0.0 130:0.0 131:0.0 132:0.0 133:0.0 134:0.011235955056179775 135:0.0 136:0.003745318352059925 137:0.0 138:0.0 139:0.0 140:0.0 141:0.0 142:0.0 143:0.0 144:0.0 145:0.0 146:0.0 147:0.0 148:0.003745318352059925 149:0.0 150:0.0 151:0.011235955056179775 152:0.0 153:0.0 154:0.0 155:0.0 156:0.0 157:0.0 158:0.0 159:0.0 160:0.0 
1.0 1:0.0 2:0.0 3:0.0 4:0.0 5:0.0 6:0.0 7:0.006711409395973154 8:0.0 9:0.008948545861297539 10:0.0 11:0.006711409395973154 12:0.006711409395973154 13:0.0 14:0.0 15:0.0 16:0.0022371364653243847 17:0.0 18:0.011185682326621925 19:0.0 20:0.0 21:0.0 22:0.0 23:0.0 24:0.0 25:0.02237136465324385 26:0.0 27:0.0 28:0.0 29:0.0 30:0.0022371364653243847 31:0.006711409395973154 32:0.0 33:0.0022371364653243847 34:0.4541387024608501 35:0.0044742729306487695 36:0.0 37:0.0044742729306487695 38:0.011185682326621925 39:0.006711409395973154 40:0.011185682326621925 41:0.006711409395973154 42:0.0044742729306487695 43:0.0 44:0.0022371364653243847 45:0.0022371364653243847 46:0.0 47:0.0 48:0.006711409395973154 49:0.0022371364653243847 50:0.0 51:0.0 52:0.0 53:0.0022371364653243847 54:0.0044742729306487695 55:0.011185682326621925 56:0.0 57:0.0 58:0.0 59:0.0 60:0.0 61:0.0 62:0.0044742729306487695 63:0.0 64:0.0 65:0.0 66:0.0 67:0.0 68:0.0 69:0.0 70:0.008948545861297539 71:0.0 72:0.0 73:0.020134228187919462 74:0.0022371364653243847 75:0.0044742729306487695 76:0.0 77:0.0 78:0.011185682326621925 79:0.006711409395973154 80:0.006711409395973154 81:0.0 82:0.0 83:0.013422818791946308 84:0.0022371364653243847 85:0.0 86:0.0022371364653243847 87:0.0 88:0.0 89:0.013422818791946308 90:0.0 91:0.020134228187919462 92:0.0 93:0.0 94:0.0 95:0.0022371364653243847 96:0.0 97:0.0044742729306487695 98:0.0 99:0.0022371364653243847 100:0.008948545861297539 101:0.0 102:0.011185682326621925 103:0.0044742729306487695 104:0.0044742729306487695 105:0.0 106:0.0 107:0.0 108:0.015659955257270694 109:0.008948545861297539 110:0.0 111:0.0022371364653243847 112:0.006711409395973154 113:0.0 114:0.0 115:0.0 116:0.0022371364653243847 117:0.0 118:0.0 119:0.0 120:0.0 121:0.0 122:0.008948545861297539 123:0.011185682326621925 124:0.008948545861297539 125:0.006711409395973154 126:0.0 127:0.0 128:0.0 129:0.0 130:0.0 131:0.0022371364653243847 132:0.0 133:0.0 134:0.015659955257270694 135:0.008948545861297539 136:0.0 137:0.024608501118568233 138:0.013422818791946308 139:0.011185682326621925 140:0.0022371364653243847 141:0.0 142:0.0 143:0.0 144:0.0 145:0.0 146:0.0 147:0.0022371364653243847 148:0.0 149:0.008948545861297539 150:0.0 151:0.006711409395973154 152:0.0022371364653243847 153:0.0 154:0.0044742729306487695 155:0.0022371364653243847 156:0.0 157:0.058165548098434 158:0.0 159:0.0 160:0.0 
1.0 1:0.0 2:0.0 3:0.0 4:0.0 5:0.0 6:0.0 7:0.006711409395973154 8:0.0 9:0.008948545861297539 10:0.0 11:0.006711409395973154 12:0.006711409395973154 13:0.0 14:0.0 15:0.0 16:0.0022371364653243847 17:0.0 18:0.011185682326621925 19:0.0 20:0.0 21:0.0 22:0.0 23:0.0 24:0.0 25:0.02237136465324385 26:0.0 27:0.0 28:0.0 29:0.0 30:0.0022371364653243847 31:0.006711409395973154 32:0.0 33:0.0022371364653243847 34:0.4541387024608501 35:0.0044742729306487695 36:0.0 37:0.0044742729306487695 38:0.011185682326621925 39:0.006711409395973154 40:0.011185682326621925 41:0.006711409395973154 42:0.0044742729306487695 43:0.0 44:0.0022371364653243847 45:0.0022371364653243847 46:0.0 47:0.0 48:0.006711409395973154 49:0.0022371364653243847 50:0.0 51:0.0 52:0.0 53:0.0022371364653243847 54:0.0044742729306487695 55:0.011185682326621925 56:0.0 57:0.0 58:0.0 59:0.0 60:0.0 61:0.0 62:0.0044742729306487695 63:0.0 64:0.0 65:0.0 66:0.0 67:0.0 68:0.0 69:0.0 70:0.008948545861297539 71:0.0 72:0.0 73:0.020134228187919462 74:0.0022371364653243847 75:0.0044742729306487695 76:0.0 77:0.0 78:0.011185682326621925 79:0.006711409395973154 80:0.006711409395973154 81:0.0 82:0.0 83:0.013422818791946308 84:0.0022371364653243847 85:0.0 86:0.0022371364653243847 87:0.0 88:0.0 89:0.013422818791946308 90:0.0 91:0.020134228187919462 92:0.0 93:0.0 94:0.0 95:0.0022371364653243847 96:0.0 97:0.0044742729306487695 98:0.0 99:0.0022371364653243847 100:0.008948545861297539 101:0.0 102:0.011185682326621925 103:0.0044742729306487695 104:0.0044742729306487695 105:0.0 106:0.0 107:0.0 108:0.015659955257270694 109:0.008948545861297539 110:0.0 111:0.0022371364653243847 112:0.006711409395973154 113:0.0 114:0.0 115:0.0 116:0.0022371364653243847 117:0.0 118:0.0 119:0.0 120:0.0 121:0.0 122:0.008948545861297539 123:0.011185682326621925 124:0.008948545861297539 125:0.006711409395973154 126:0.0 127:0.0 128:0.0 129:0.0 130:0.0 131:0.0022371364653243847 132:0.0 133:0.0 134:0.015659955257270694 135:0.008948545861297539 136:0.0 137:0.024608501118568233 138:0.013422818791946308 139:0.011185682326621925 140:0.0022371364653243847 141:0.0 142:0.0 143:0.0 144:0.0 145:0.0 146:0.0 147:0.0022371364653243847 148:0.0 149:0.008948545861297539 150:0.0 151:0.006711409395973154 152:0.0022371364653243847 153:0.0 154:0.0044742729306487695 155:0.0022371364653243847 156:0.0 157:0.058165548098434 158:0.0 159:0.0 160:0.0 
1.0 1:0.0 2:0.0 3:0.0 4:0.0 5:0.0 6:0.0 7:0.0 8:0.0 9:0.0 10:0.0 11:0.0 12:0.0 13:0.0 14:0.006191950464396285 15:0.0 16:0.006191950464396285 17:0.0 18:0.0 19:0.0 20:0.0 21:0.0 22:0.0 23:0.0 24:0.0 25:0.0030959752321981426 26:0.0030959752321981426 27:0.0 28:0.0 29:0.006191950464396285 30:0.0030959752321981426 31:0.0030959752321981426 32:0.0 33:0.0 34:0.7647058823529411 35:0.0 36:0.0 37:0.0 38:0.0 39:0.0 40:0.02476780185758514 41:0.0 42:0.0 43:0.0 44:0.0 45:0.0 46:0.0 47:0.0030959752321981426 48:0.0030959752321981426 49:0.0030959752321981426 50:0.0030959752321981426 51:0.0030959752321981426 52:0.0 53:0.006191950464396285 54:0.0 55:0.006191950464396285 56:0.0 57:0.0 58:0.0 59:0.0 60:0.0 61:0.0 62:0.0030959752321981426 63:0.0 64:0.0 65:0.0 66:0.0 67:0.0 68:0.0 69:0.0 70:0.006191950464396285 71:0.0 72:0.0 73:0.015479876160990712 74:0.0030959752321981426 75:0.0030959752321981426 76:0.0030959752321981426 77:0.0 78:0.0030959752321981426 79:0.0030959752321981426 80:0.009287925696594427 81:0.0 82:0.0 83:0.0 84:0.0 85:0.0 86:0.0030959752321981426 87:0.0 88:0.0 89:0.0030959752321981426 90:0.0 91:0.0030959752321981426 92:0.0 93:0.0 94:0.009287925696594427 95:0.0 96:0.0 97:0.0 98:0.0 99:0.0030959752321981426 100:0.0030959752321981426 101:0.0 102:0.0 103:0.0 104:0.0 105:0.0 106:0.0 107:0.0 108:0.0 109:0.0 110:0.0 111:0.0 112:0.0030959752321981426 113:0.0 114:0.0 115:0.0 116:0.0 117:0.0 118:0.0 119:0.0 120:0.0 121:0.0 122:0.0030959752321981426 123:0.0 124:0.006191950464396285 125:0.0030959752321981426 126:0.0 127:0.0 128:0.0 129:0.0 130:0.0 131:0.0030959752321981426 132:0.0 133:0.009287925696594427 134:0.006191950464396285 135:0.0030959752321981426 136:0.0030959752321981426 137:0.0030959752321981426 138:0.0 139:0.0 140:0.0 141:0.0 142:0.0 143:0.0 144:0.0 145:0.0 146:0.009287925696594427 147:0.0030959752321981426 148:0.009287925696594427 149:0.0030959752321981426 150:0.0 151:0.0 152:0.0 153:0.0 154:0.0 155:0.006191950464396285 156:0.0 157:0.0030959752321981426 158:0.0 159:0.0 160:0.0 
1.0 1:0.0 2:0.0 3:0.0 4:0.0078125 5:0.0 6:0.0 7:0.0 8:0.0 9:0.0 10:0.0 11:0.0 12:0.0 13:0.0 14:0.00390625 15:0.0 16:0.0 17:0.0 18:0.00390625 19:0.0 20:0.0 21:0.0 22:0.0 23:0.0 24:0.0 25:0.0078125 26:0.0 27:0.0 28:0.0 29:0.0 30:0.0 31:0.00390625 32:0.0 33:0.0 34:0.78515625 35:0.00390625 36:0.0 37:0.00390625 38:0.015625 39:0.00390625 40:0.0 41:0.00390625 42:0.0 43:0.0 44:0.0078125 45:0.0 46:0.0 47:0.00390625 48:0.01171875 49:0.0 50:0.0 51:0.0 52:0.0 53:0.0 54:0.0 55:0.0 56:0.0 57:0.0 58:0.0 59:0.0 60:0.0 61:0.0 62:0.00390625 63:0.0 64:0.0 65:0.0 66:0.0 67:0.0 68:0.0 69:0.0 70:0.0 71:0.0 72:0.0 73:0.0 74:0.00390625 75:0.0078125 76:0.0 77:0.0 78:0.0 79:0.0078125 80:0.0078125 81:0.0 82:0.0 83:0.0 84:0.00390625 85:0.0 86:0.0 87:0.0 88:0.0 89:0.0 90:0.0 91:0.01171875 92:0.0 93:0.0 94:0.0 95:0.0 96:0.0 97:0.0 98:0.0 99:0.0 100:0.0 101:0.0 102:0.0 103:0.0 104:0.0 105:0.0 106:0.0 107:0.0 108:0.015625 109:0.0 110:0.00390625 111:0.0 112:0.00390625 113:0.0 114:0.0 115:0.0 116:0.00390625 117:0.0 118:0.0 119:0.0 120:0.0 121:0.0 122:0.00390625 123:0.0078125 124:0.0 125:0.0078125 126:0.0 127:0.0 128:0.0 129:0.0 130:0.0 131:0.0 132:0.0 133:0.0 134:0.00390625 135:0.0 136:0.0 137:0.00390625 138:0.00390625 139:0.0 140:0.00390625 141:0.0 142:0.0 143:0.0 144:0.0 145:0.0 146:0.00390625 147:0.0 148:0.0 149:0.00390625 150:0.0 151:0.0078125 152:0.0 153:0.0 154:0.0 155:0.00390625 156:0.0 157:0.00390625 158:0.0 159:0.0 160:0.0 
1.0 1:0.0 2:0.0 3:0.0 4:0.0 5:0.0 6:0.0017513134851138354 7:0.005253940455341506 8:0.0 9:0.008756567425569177 10:0.0 11:0.0070052539404553416 12:0.005253940455341506 13:0.0 14:0.0 15:0.0 16:0.0017513134851138354 17:0.0 18:0.005253940455341506 19:0.0 20:0.0 21:0.0 22:0.0 23:0.0 24:0.0 25:0.02276707530647986 26:0.0 27:0.0 28:0.0 29:0.0 30:0.0035026269702276708 31:0.008756567425569177 32:0.0 33:0.0017513134851138354 34:0.542907180385289 35:0.0 36:0.0 37:0.005253940455341506 38:0.008756567425569177 39:0.005253940455341506 40:0.008756567425569177 41:0.008756567425569177 42:0.005253940455341506 43:0.0 44:0.0035026269702276708 45:0.0017513134851138354 46:0.0 47:0.0 48:0.0035026269702276708 49:0.0017513134851138354 50:0.0 51:0.0017513134851138354 52:0.0 53:0.0 54:0.0035026269702276708 55:0.008756567425569177 56:0.0 57:0.0 58:0.0 59:0.0 60:0.0 61:0.0 62:0.0070052539404553416 63:0.0 64:0.0 65:0.0 66:0.0 67:0.0 68:0.0 69:0.0 70:0.0070052539404553416 71:0.0 72:0.0 73:0.017513134851138354 74:0.0017513134851138354 75:0.0035026269702276708 76:0.0 77:0.0 78:0.008756567425569177 79:0.005253940455341506 80:0.0070052539404553416 81:0.0 82:0.0 83:0.008756567425569177 84:0.0017513134851138354 85:0.0 86:0.0017513134851138354 87:0.0 88:0.0 89:0.012259194395796848 90:0.0 91:0.012259194395796848 92:0.0 93:0.0 94:0.0017513134851138354 95:0.0017513134851138354 96:0.0 97:0.01576182136602452 98:0.0 99:0.0017513134851138354 100:0.008756567425569177 101:0.0 102:0.0070052539404553416 103:0.005253940455341506 104:0.005253940455341506 105:0.0 106:0.0 107:0.0 108:0.012259194395796848 109:0.008756567425569177 110:0.0 111:0.0 112:0.0017513134851138354 113:0.0 114:0.0 115:0.0 116:0.0017513134851138354 117:0.0 118:0.0 119:0.0 120:0.0 121:0.0 122:0.0070052539404553416 123:0.010507880910683012 124:0.0070052539404553416 125:0.0035026269702276708 126:0.0 127:0.0017513134851138354 128:0.0 129:0.0 130:0.0 131:0.0 132:0.0 133:0.0 134:0.010507880910683012 135:0.005253940455341506 136:0.0 137:0.017513134851138354 138:0.008756567425569177 139:0.0070052539404553416 140:0.0035026269702276708 141:0.0 142:0.0 143:0.0 144:0.0 145:0.0 146:0.0 147:0.0017513134851138354 148:0.0 149:0.0070052539404553416 150:0.0 151:0.008756567425569177 152:0.0017513134851138354 153:0.0 154:0.0017513134851138354 155:0.0017513134851138354 156:0.0 157:0.047285464098073555 158:0.0 159:0.0 160:0.0 
1.0 1:0.0 2:0.0 3:0.0 4:0.0 5:0.0 6:0.0028735632183908046 7:0.0 8:0.0 9:0.0 10:0.0 11:0.0 12:0.0 13:0.0 14:0.0 15:0.0 16:0.0 17:0.0 18:0.0 19:0.0 20:0.0 21:0.0 22:0.0 23:0.0 24:0.0 25:0.008620689655172414 26:0.0 27:0.0 28:0.0 29:0.0 30:0.0 31:0.0 32:0.0 33:0.0 34:0.764367816091954 35:0.0 36:0.0 37:0.0 38:0.008620689655172414 39:0.0 40:0.011494252873563218 41:0.0028735632183908046 42:0.0 43:0.0 44:0.005747126436781609 45:0.0 46:0.0 47:0.0 48:0.0 49:0.0 50:0.0 51:0.005747126436781609 52:0.0 53:0.0 54:0.0 55:0.0 56:0.0 57:0.0 58:0.0 59:0.0 60:0.0 61:0.0 62:0.005747126436781609 63:0.0 64:0.0 65:0.0 66:0.0 67:0.0 68:0.0 69:0.0 70:0.0 71:0.0 72:0.005747126436781609 73:0.0 74:0.0 75:0.0 76:0.0028735632183908046 77:0.0 78:0.0028735632183908046 79:0.0 80:0.0028735632183908046 81:0.0 82:0.0 83:0.0 84:0.0 85:0.0 86:0.0 87:0.0 88:0.0 89:0.005747126436781609 90:0.0 91:0.06609195402298851 92:0.0 93:0.0028735632183908046 94:0.005747126436781609 95:0.0 96:0.0 97:0.0 98:0.0 99:0.0 100:0.0 101:0.0 102:0.0 103:0.0 104:0.0028735632183908046 105:0.0 106:0.0 107:0.0 108:0.0 109:0.0 110:0.0 111:0.0 112:0.0 113:0.0 114:0.0 115:0.0 116:0.0 117:0.0 118:0.0 119:0.0 120:0.0 121:0.0 122:0.0 123:0.0028735632183908046 124:0.031609195402298854 125:0.005747126436781609 126:0.0 127:0.0 128:0.0 129:0.0 130:0.0 131:0.0 132:0.0 133:0.0 134:0.011494252873563218 135:0.0 136:0.0028735632183908046 137:0.0 138:0.0028735632183908046 139:0.0 140:0.0 141:0.0 142:0.0 143:0.0 144:0.0 145:0.0 146:0.0 147:0.0 148:0.0 149:0.0028735632183908046 150:0.0 151:0.014367816091954023 152:0.0 153:0.0 154:0.0 155:0.008620689655172414 156:0.0 157:0.0 158:0.0 159:0.0028735632183908046 160:0.0 
1.0 1:0.0 2:0.0 3:0.0 4:0.0 5:0.0 6:0.0 7:0.005607476635514018 8:0.0 9:0.007476635514018692 10:0.0 11:0.005607476635514018 12:0.005607476635514018 13:0.0 14:0.0 15:0.0 16:0.001869158878504673 17:0.0 18:0.009345794392523364 19:0.0 20:0.0 21:0.0 22:0.0 23:0.0 24:0.0 25:0.018691588785046728 26:0.0 27:0.0 28:0.0 29:0.0 30:0.001869158878504673 31:0.005607476635514018 32:0.0 33:0.001869158878504673 34:0.5439252336448598 35:0.003738317757009346 36:0.0 37:0.003738317757009346 38:0.009345794392523364 39:0.005607476635514018 40:0.009345794392523364 41:0.005607476635514018 42:0.003738317757009346 43:0.0 44:0.001869158878504673 45:0.001869158878504673 46:0.0 47:0.0 48:0.005607476635514018 49:0.001869158878504673 50:0.0 51:0.0 52:0.0 53:0.001869158878504673 54:0.003738317757009346 55:0.009345794392523364 56:0.0 57:0.0 58:0.0 59:0.0 60:0.0 61:0.0 62:0.003738317757009346 63:0.0 64:0.0 65:0.0 66:0.0 67:0.0 68:0.0 69:0.0 70:0.007476635514018692 71:0.0 72:0.0 73:0.016822429906542057 74:0.001869158878504673 75:0.003738317757009346 76:0.0 77:0.0 78:0.009345794392523364 79:0.005607476635514018 80:0.005607476635514018 81:0.0 82:0.0 83:0.011214953271028037 84:0.001869158878504673 85:0.0 86:0.001869158878504673 87:0.0 88:0.0 89:0.011214953271028037 90:0.0 91:0.016822429906542057 92:0.0 93:0.0 94:0.0 95:0.001869158878504673 96:0.0 97:0.003738317757009346 98:0.0 99:0.001869158878504673 100:0.007476635514018692 101:0.0 102:0.009345794392523364 103:0.003738317757009346 104:0.003738317757009346 105:0.0 106:0.0 107:0.0 108:0.013084112149532711 109:0.007476635514018692 110:0.0 111:0.001869158878504673 112:0.005607476635514018 113:0.0 114:0.0 115:0.0 116:0.001869158878504673 117:0.0 118:0.0 119:0.0 120:0.0 121:0.0 122:0.007476635514018692 123:0.009345794392523364 124:0.007476635514018692 125:0.005607476635514018 126:0.0 127:0.0 128:0.0 129:0.0 130:0.0 131:0.001869158878504673 132:0.0 133:0.0 134:0.013084112149532711 135:0.007476635514018692 136:0.0 137:0.020560747663551402 138:0.011214953271028037 139:0.009345794392523364 140:0.001869158878504673 141:0.0 142:0.0 143:0.0 144:0.0 145:0.0 146:0.0 147:0.001869158878504673 148:0.0 149:0.007476635514018692 150:0.0 151:0.005607476635514018 152:0.001869158878504673 153:0.0 154:0.003738317757009346 155:0.001869158878504673 156:0.0 157:0.048598130841121495 158:0.0 159:0.0 160:0.0 
1.0 1:0.0 2:0.0 3:0.0 4:0.0 5:0.0 6:0.003125 7:0.003125 8:0.0 9:0.009375 10:0.003125 11:0.0 12:0.003125 13:0.003125 14:0.00625 15:0.0 16:0.0 17:0.00625 18:0.0 19:0.0 20:0.003125 21:0.0 22:0.0 23:0.0 24:0.0 25:0.009375 26:0.0 27:0.0 28:0.0 29:0.0 30:0.0 31:0.003125 32:0.0 33:0.0 34:0.671875 35:0.0 36:0.0 37:0.0125 38:0.0125 39:0.0 40:0.021875 41:0.003125 42:0.003125 43:0.0 44:0.015625 45:0.0 46:0.0 47:0.00625 48:0.00625 49:0.003125 50:0.0 51:0.0 52:0.0 53:0.0 54:0.0 55:0.0 56:0.0 57:0.00625 58:0.0 59:0.0 60:0.0 61:0.0 62:0.00625 63:0.0 64:0.0 65:0.0 66:0.0 67:0.0 68:0.0 69:0.0 70:0.0 71:0.0 72:0.003125 73:0.0 74:0.0 75:0.009375 76:0.003125 77:0.0 78:0.0125 79:0.0 80:0.003125 81:0.0 82:0.0 83:0.0 84:0.0 85:0.0 86:0.0 87:0.0 88:0.0 89:0.003125 90:0.0 91:0.025 92:0.0 93:0.0 94:0.003125 95:0.003125 96:0.0 97:0.01875 98:0.0 99:0.0 100:0.00625 101:0.0 102:0.0 103:0.00625 104:0.003125 105:0.0 106:0.0 107:0.0 108:0.01875 109:0.0 110:0.0 111:0.003125 112:0.0 113:0.0 114:0.009375 115:0.0 116:0.00625 117:0.0 118:0.0 119:0.0 120:0.0 121:0.0 122:0.0 123:0.003125 124:0.0 125:0.00625 126:0.0 127:0.0 128:0.0 129:0.0 130:0.0 131:0.0 132:0.0 133:0.003125 134:0.003125 135:0.0 136:0.0 137:0.003125 138:0.0 139:0.0 140:0.0 141:0.0 142:0.0 143:0.0 144:0.0 145:0.0 146:0.0 147:0.003125 148:0.0 149:0.0 150:0.0 151:0.009375 152:0.0 153:0.0 154:0.0 155:0.0 156:0.0 157:0.009375 158:0.0 159:0.0 160:0.0 
1.0 1:0.0 2:0.0 3:0.0 4:0.0 5:0.0 6:0.0018484288354898336 7:0.005545286506469501 8:0.0 9:0.009242144177449169 10:0.0 11:0.0073937153419593345 12:0.005545286506469501 13:0.0 14:0.0 15:0.0 16:0.0018484288354898336 17:0.0 18:0.005545286506469501 19:0.0 20:0.0 21:0.0 22:0.0 23:0.0 24:0.0 25:0.024029574861367836 26:0.0 27:0.0 28:0.0 29:0.0 30:0.0036968576709796672 31:0.009242144177449169 32:0.0 33:0.0018484288354898336 34:0.5175600739371534 35:0.0 36:0.0 37:0.005545286506469501 38:0.009242144177449169 39:0.005545286506469501 40:0.009242144177449169 41:0.009242144177449169 42:0.005545286506469501 43:0.0 44:0.0036968576709796672 45:0.0018484288354898336 46:0.0 47:0.0 48:0.0036968576709796672 49:0.0018484288354898336 50:0.0 51:0.0018484288354898336 52:0.0 53:0.0 54:0.0036968576709796672 55:0.009242144177449169 56:0.0 57:0.0 58:0.0 59:0.0 60:0.0 61:0.0 62:0.0073937153419593345 63:0.0 64:0.0 65:0.0 66:0.0 67:0.0 68:0.0 69:0.0 70:0.0073937153419593345 71:0.0 72:0.0 73:0.018484288354898338 74:0.0018484288354898336 75:0.0036968576709796672 76:0.0 77:0.0 78:0.009242144177449169 79:0.005545286506469501 80:0.0073937153419593345 81:0.0 82:0.0 83:0.009242144177449169 84:0.0018484288354898336 85:0.0 86:0.0018484288354898336 87:0.0 88:0.0 89:0.012939001848428836 90:0.0 91:0.012939001848428836 92:0.0 93:0.0 94:0.0018484288354898336 95:0.0018484288354898336 96:0.0 97:0.0166358595194085 98:0.0 99:0.0018484288354898336 100:0.009242144177449169 101:0.0 102:0.0073937153419593345 103:0.005545286506469501 104:0.005545286506469501 105:0.0 106:0.0 107:0.0 108:0.012939001848428836 109:0.009242144177449169 110:0.0 111:0.0 112:0.0018484288354898336 113:0.0 114:0.0 115:0.0 116:0.0018484288354898336 117:0.0 118:0.0 119:0.0 120:0.0 121:0.0 122:0.0073937153419593345 123:0.011090573012939002 124:0.0073937153419593345 125:0.0036968576709796672 126:0.0 127:0.0018484288354898336 128:0.0 129:0.0 130:0.0 131:0.0 132:0.0 133:0.0 134:0.011090573012939002 135:0.005545286506469501 136:0.0 137:0.018484288354898338 138:0.009242144177449169 139:0.0073937153419593345 140:0.0036968576709796672 141:0.0 142:0.0 143:0.0 144:0.0 145:0.0 146:0.0 147:0.0018484288354898336 148:0.0 149:0.0073937153419593345 150:0.0 151:0.009242144177449169 152:0.0018484288354898336 153:0.0 154:0.0018484288354898336 155:0.0018484288354898336 156:0.0 157:0.04990757855822551 158:0.0 159:0.0 160:0.0 
1.0 1:0.0 2:0.0 3:0.0 4:0.0 5:0.0 6:0.0021008403361344537 7:0.0021008403361344537 8:0.0 9:0.0 10:0.0 11:0.0021008403361344537 12:0.004201680672268907 13:0.0 14:0.0 15:0.0 16:0.0 17:0.0 18:0.008403361344537815 19:0.0 20:0.0 21:0.0 22:0.0 23:0.0 24:0.0 25:0.02100840336134454 26:0.0 27:0.0 28:0.0 29:0.0 30:0.004201680672268907 31:0.008403361344537815 32:0.0 33:0.0021008403361344537 34:0.6302521008403361 35:0.0021008403361344537 36:0.0 37:0.0 38:0.008403361344537815 39:0.0021008403361344537 40:0.012605042016806723 41:0.0 42:0.004201680672268907 43:0.0 44:0.0063025210084033615 45:0.0 46:0.0 47:0.0021008403361344537 48:0.012605042016806723 49:0.0 50:0.0 51:0.0 52:0.0 53:0.0021008403361344537 54:0.0 55:0.0063025210084033615 56:0.0 57:0.0 58:0.0 59:0.0 60:0.0 61:0.0 62:0.004201680672268907 63:0.0 64:0.0 65:0.0 66:0.0 67:0.0 68:0.0 69:0.0021008403361344537 70:0.0063025210084033615 71:0.0 72:0.0 73:0.008403361344537815 74:0.0021008403361344537 75:0.004201680672268907 76:0.0 77:0.0 78:0.0 79:0.0021008403361344537 80:0.0021008403361344537 81:0.0 82:0.0 83:0.01050420168067227 84:0.0021008403361344537 85:0.0 86:0.0 87:0.0 88:0.0 89:0.012605042016806723 90:0.0 91:0.018907563025210083 92:0.0 93:0.0 94:0.0021008403361344537 95:0.0021008403361344537 96:0.0 97:0.0021008403361344537 98:0.0 99:0.0 100:0.004201680672268907 101:0.0 102:0.008403361344537815 103:0.0 104:0.0063025210084033615 105:0.0 106:0.0021008403361344537 107:0.0 108:0.012605042016806723 109:0.0063025210084033615 110:0.0 111:0.0021008403361344537 112:0.004201680672268907 113:0.0 114:0.0 115:0.0 116:0.0 117:0.0 118:0.0 119:0.0 120:0.0 121:0.0 122:0.004201680672268907 123:0.01050420168067227 124:0.004201680672268907 125:0.004201680672268907 126:0.0 127:0.0 128:0.0 129:0.0 130:0.0 131:0.0021008403361344537 132:0.0 133:0.0021008403361344537 134:0.008403361344537815 135:0.0021008403361344537 136:0.0 137:0.01050420168067227 138:0.004201680672268907 139:0.008403361344537815 140:0.0063025210084033615 141:0.0 142:0.0 143:0.0 144:0.0 145:0.0 146:0.0 147:0.004201680672268907 148:0.0 149:0.0021008403361344537 150:0.0 151:0.0063025210084033615 152:0.0021008403361344537 153:0.0 154:0.0 155:0.0021008403361344537 156:0.0 157:0.04411764705882353 158:0.0 159:0.0 160:0.0 
1.0 1:0.0 2:0.0 3:0.0 4:0.0 5:0.0 6:0.0029411764705882353 7:0.0058823529411764705 8:0.0 9:0.0 10:0.0 11:0.0029411764705882353 12:0.0 13:0.0 14:0.0 15:0.0 16:0.0029411764705882353 17:0.0 18:0.0 19:0.0 20:0.0 21:0.0 22:0.0 23:0.0 24:0.0 25:0.0058823529411764705 26:0.0 27:0.0 28:0.0 29:0.0 30:0.0 31:0.0 32:0.0 33:0.0029411764705882353 34:0.7264705882352941 35:0.0 36:0.0 37:0.0 38:0.011764705882352941 39:0.0 40:0.026470588235294117 41:0.0 42:0.0 43:0.0 44:0.0 45:0.0 46:0.0 47:0.0029411764705882353 48:0.0058823529411764705 49:0.0 50:0.0 51:0.0058823529411764705 52:0.0 53:0.0 54:0.0 55:0.0029411764705882353 56:0.0 57:0.0 58:0.0 59:0.0 60:0.0 61:0.0029411764705882353 62:0.0 63:0.0 64:0.0 65:0.0 66:0.0 67:0.0 68:0.0 69:0.0 70:0.0058823529411764705 71:0.0 72:0.0 73:0.0 74:0.0029411764705882353 75:0.0 76:0.0058823529411764705 77:0.0 78:0.0058823529411764705 79:0.0029411764705882353 80:0.0029411764705882353 81:0.0 82:0.0 83:0.0 84:0.0 85:0.0 86:0.0 87:0.0 88:0.0 89:0.0058823529411764705 90:0.0 91:0.008823529411764706 92:0.0 93:0.0029411764705882353 94:0.0058823529411764705 95:0.0 96:0.0 97:0.0029411764705882353 98:0.0 99:0.0058823529411764705 100:0.0 101:0.0 102:0.0 103:0.0029411764705882353 104:0.0029411764705882353 105:0.0 106:0.0 107:0.0 108:0.0 109:0.0 110:0.0 111:0.0029411764705882353 112:0.0 113:0.0 114:0.0 115:0.0 116:0.0 117:0.0 118:0.0029411764705882353 119:0.0 120:0.0 121:0.0 122:0.0 123:0.0058823529411764705 124:0.03529411764705882 125:0.0 126:0.0 127:0.0029411764705882353 128:0.0 129:0.0 130:0.0 131:0.0 132:0.0 133:0.0058823529411764705 134:0.008823529411764706 135:0.0029411764705882353 136:0.0029411764705882353 137:0.0 138:0.0029411764705882353 139:0.008823529411764706 140:0.0 141:0.0 142:0.0 143:0.0 144:0.0 145:0.0 146:0.0029411764705882353 147:0.0 148:0.0058823529411764705 149:0.0 150:0.0 151:0.0058823529411764705 152:0.0 153:0.0 154:0.011764705882352941 155:0.008823529411764706 156:0.0 157:0.008823529411764706 158:0.0 159:0.0 160:0.0 
1.0 1:0.0 2:0.0 3:0.0 4:0.00267379679144385 5:0.0 6:0.0053475935828877 7:0.00267379679144385 8:0.0 9:0.00267379679144385 10:0.00267379679144385 11:0.0 12:0.0053475935828877 13:0.0 14:0.0053475935828877 15:0.0 16:0.0 17:0.0 18:0.008021390374331552 19:0.0 20:0.0 21:0.0 22:0.0 23:0.0 24:0.0 25:0.013368983957219251 26:0.00267379679144385 27:0.0 28:0.0 29:0.00267379679144385 30:0.0 31:0.0053475935828877 32:0.0 33:0.0 34:0.6122994652406417 35:0.0053475935828877 36:0.0 37:0.008021390374331552 38:0.026737967914438502 39:0.00267379679144385 40:0.013368983957219251 41:0.0106951871657754 42:0.0053475935828877 43:0.00267379679144385 44:0.02406417112299465 45:0.00267379679144385 46:0.0 47:0.00267379679144385 48:0.0053475935828877 49:0.008021390374331552 50:0.0 51:0.00267379679144385 52:0.00267379679144385 53:0.0 54:0.0 55:0.00267379679144385 56:0.0 57:0.0 58:0.0 59:0.0 60:0.0 61:0.0 62:0.0 63:0.0 64:0.0 65:0.0 66:0.0 67:0.0 68:0.0 69:0.0 70:0.008021390374331552 71:0.0 72:0.0 73:0.0 74:0.00267379679144385 75:0.0053475935828877 76:0.0 77:0.0 78:0.00267379679144385 79:0.00267379679144385 80:0.0053475935828877 81:0.0 82:0.0 83:0.00267379679144385 84:0.0 85:0.0 86:0.0 87:0.0 88:0.0 89:0.0053475935828877 90:0.0 91:0.053475935828877004 92:0.0 93:0.0 94:0.0 95:0.0 96:0.0 97:0.00267379679144385 98:0.0 99:0.0 100:0.0 101:0.0 102:0.008021390374331552 103:0.0053475935828877 104:0.0 105:0.0 106:0.0 107:0.0 108:0.008021390374331552 109:0.0053475935828877 110:0.0 111:0.0 112:0.0 113:0.0 114:0.00267379679144385 115:0.0 116:0.0 117:0.0 118:0.0 119:0.0 120:0.0 121:0.0 122:0.0 123:0.0053475935828877 124:0.00267379679144385 125:0.0053475935828877 126:0.0 127:0.0 128:0.0 129:0.0 130:0.0 131:0.0 132:0.0 133:0.00267379679144385 134:0.00267379679144385 135:0.0053475935828877 136:0.0 137:0.0053475935828877 138:0.0 139:0.0 140:0.0 141:0.0 142:0.0 143:0.0 144:0.0053475935828877 145:0.0 146:0.0 147:0.0 148:0.0 149:0.0 150:0.0 151:0.0106951871657754 152:0.00267379679144385 153:0.0 154:0.008021390374331552 155:0.008021390374331552 156:0.0 157:0.016042780748663103 158:0.0 159:0.0 160:0.00267379679144385 
1.0 1:0.0 2:0.0 3:0.0 4:0.002352941176470588 5:0.0 6:0.002352941176470588 7:0.0 8:0.0 9:0.004705882352941176 10:0.0 11:0.002352941176470588 12:0.0 13:0.0 14:0.002352941176470588 15:0.0 16:0.002352941176470588 17:0.0 18:0.002352941176470588 19:0.0 20:0.0 21:0.0 22:0.0 23:0.0 24:0.0 25:0.01411764705882353 26:0.0 27:0.0 28:0.0 29:0.0 30:0.004705882352941176 31:0.0 32:0.0 33:0.002352941176470588 34:0.6329411764705882 35:0.009411764705882352 36:0.0 37:0.011764705882352941 38:0.018823529411764704 39:0.0 40:0.011764705882352941 41:0.004705882352941176 42:0.0 43:0.0 44:0.011764705882352941 45:0.0 46:0.0 47:0.004705882352941176 48:0.009411764705882352 49:0.0 50:0.0 51:0.004705882352941176 52:0.0 53:0.0 54:0.0 55:0.0 56:0.0 57:0.0 58:0.0 59:0.0 60:0.0 61:0.0 62:0.004705882352941176 63:0.0 64:0.0 65:0.0 66:0.0 67:0.0 68:0.0 69:0.0 70:0.002352941176470588 71:0.0 72:0.0 73:0.0 74:0.0 75:0.0 76:0.004705882352941176 77:0.0 78:0.009411764705882352 79:0.004705882352941176 80:0.004705882352941176 81:0.0 82:0.0 83:0.004705882352941176 84:0.0 85:0.0 86:0.002352941176470588 87:0.0 88:0.0 89:0.004705882352941176 90:0.0 91:0.04470588235294118 92:0.0 93:0.004705882352941176 94:0.004705882352941176 95:0.0 96:0.0 97:0.009411764705882352 98:0.0 99:0.0 100:0.002352941176470588 101:0.0 102:0.0 103:0.002352941176470588 104:0.002352941176470588 105:0.0 106:0.0 107:0.0 108:0.002352941176470588 109:0.002352941176470588 110:0.002352941176470588 111:0.0 112:0.0 113:0.0 114:0.0 115:0.0 116:0.0 117:0.0 118:0.0 119:0.0 120:0.0 121:0.0 122:0.0 123:0.011764705882352941 124:0.03058823529411765 125:0.004705882352941176 126:0.0 127:0.0 128:0.0 129:0.0 130:0.0 131:0.004705882352941176 132:0.0 133:0.0 134:0.007058823529411765 135:0.0 136:0.002352941176470588 137:0.004705882352941176 138:0.0 139:0.002352941176470588 140:0.0 141:0.0 142:0.0 143:0.0 144:0.0 145:0.0 146:0.002352941176470588 147:0.0 148:0.002352941176470588 149:0.002352941176470588 150:0.0 151:0.021176470588235293 152:0.0 153:0.0 154:0.0 155:0.009411764705882352 156:0.0 157:0.01411764705882353 158:0.0 159:0.0 160:0.0 
1.0 1:0.0 2:0.0 3:0.0 4:0.001949317738791423 5:0.0 6:0.001949317738791423 7:0.0 8:0.0 9:0.003898635477582846 10:0.0 11:0.001949317738791423 12:0.0 13:0.0 14:0.003898635477582846 15:0.0 16:0.001949317738791423 17:0.0 18:0.001949317738791423 19:0.0 20:0.0 21:0.0 22:0.0 23:0.0 24:0.0 25:0.01364522417153996 26:0.0 27:0.0 28:0.0 29:0.0 30:0.003898635477582846 31:0.0 32:0.0 33:0.001949317738791423 34:0.6705653021442495 35:0.007797270955165692 36:0.0 37:0.009746588693957114 38:0.015594541910331383 39:0.001949317738791423 40:0.011695906432748537 41:0.005847953216374269 42:0.003898635477582846 43:0.0 44:0.009746588693957114 45:0.0 46:0.0 47:0.001949317738791423 48:0.007797270955165692 49:0.0 50:0.0 51:0.003898635477582846 52:0.0 53:0.001949317738791423 54:0.0 55:0.0 56:0.0 57:0.001949317738791423 58:0.0 59:0.0 60:0.0 61:0.0 62:0.001949317738791423 63:0.0 64:0.0 65:0.0 66:0.0 67:0.0 68:0.0 69:0.0 70:0.001949317738791423 71:0.0 72:0.0 73:0.0 74:0.0 75:0.0 76:0.003898635477582846 77:0.0 78:0.007797270955165692 79:0.003898635477582846 80:0.003898635477582846 81:0.0 82:0.0 83:0.003898635477582846 84:0.0 85:0.0 86:0.0 87:0.0 88:0.0 89:0.003898635477582846 90:0.0 91:0.04093567251461988 92:0.0 93:0.003898635477582846 94:0.003898635477582846 95:0.0 96:0.0 97:0.007797270955165692 98:0.0 99:0.0 100:0.001949317738791423 101:0.0 102:0.0 103:0.001949317738791423 104:0.003898635477582846 105:0.0 106:0.0 107:0.0 108:0.001949317738791423 109:0.001949317738791423 110:0.001949317738791423 111:0.0 112:0.0 113:0.0 114:0.0 115:0.0 116:0.0 117:0.0 118:0.0 119:0.0 120:0.0 121:0.0 122:0.0 123:0.009746588693957114 124:0.023391812865497075 125:0.003898635477582846 126:0.0 127:0.0 128:0.0 129:0.0 130:0.0 131:0.003898635477582846 132:0.0 133:0.001949317738791423 134:0.005847953216374269 135:0.001949317738791423 136:0.001949317738791423 137:0.003898635477582846 138:0.0 139:0.001949317738791423 140:0.0 141:0.0 142:0.0 143:0.0 144:0.0 145:0.0 146:0.001949317738791423 147:0.0 148:0.003898635477582846 149:0.001949317738791423 150:0.0 151:0.017543859649122806 152:0.0 153:0.0 154:0.0 155:0.009746588693957114 156:0.0 157:0.011695906432748537 158:0.0 159:0.0 160:0.001949317738791423 
1.0 1:0.0 2:0.0 3:0.0 4:0.004975124378109453 5:0.0 6:0.004975124378109453 7:0.0024875621890547263 8:0.0 9:0.0024875621890547263 10:0.0024875621890547263 11:0.0 12:0.004975124378109453 13:0.0 14:0.004975124378109453 15:0.0 16:0.0 17:0.0 18:0.007462686567164179 19:0.0 20:0.0 21:0.0 22:0.0 23:0.0 24:0.0 25:0.012437810945273632 26:0.0024875621890547263 27:0.0 28:0.0 29:0.0024875621890547263 30:0.0 31:0.004975124378109453 32:0.0 33:0.0 34:0.6318407960199005 35:0.004975124378109453 36:0.0 37:0.007462686567164179 38:0.024875621890547265 39:0.0024875621890547263 40:0.017412935323383085 41:0.007462686567164179 42:0.004975124378109453 43:0.0024875621890547263 44:0.022388059701492536 45:0.0024875621890547263 46:0.0 47:0.004975124378109453 48:0.004975124378109453 49:0.007462686567164179 50:0.0 51:0.0024875621890547263 52:0.0 53:0.0 54:0.0 55:0.004975124378109453 56:0.0 57:0.0 58:0.0 59:0.0 60:0.0 61:0.0 62:0.0 63:0.0 64:0.0 65:0.0 66:0.0 67:0.0 68:0.0 69:0.0 70:0.007462686567164179 71:0.0 72:0.0 73:0.0 74:0.0024875621890547263 75:0.004975124378109453 76:0.0 77:0.0 78:0.0024875621890547263 79:0.0024875621890547263 80:0.0024875621890547263 81:0.0 82:0.0 83:0.004975124378109453 84:0.0 85:0.0 86:0.0 87:0.0 88:0.0 89:0.004975124378109453 90:0.0 91:0.05223880597014925 92:0.0 93:0.0 94:0.0 95:0.0 96:0.0 97:0.0024875621890547263 98:0.0 99:0.0 100:0.0 101:0.0 102:0.007462686567164179 103:0.004975124378109453 104:0.0 105:0.0 106:0.0 107:0.0 108:0.009950248756218905 109:0.004975124378109453 110:0.0 111:0.0 112:0.0 113:0.0 114:0.0024875621890547263 115:0.0 116:0.0 117:0.0 118:0.0 119:0.0 120:0.0 121:0.0 122:0.0024875621890547263 123:0.004975124378109453 124:0.0 125:0.004975124378109453 126:0.0 127:0.0 128:0.0 129:0.0 130:0.0 131:0.0 132:0.0 133:0.0 134:0.0 135:0.004975124378109453 136:0.0 137:0.004975124378109453 138:0.0 139:0.0 140:0.0 141:0.0 142:0.0 143:0.0 144:0.004975124378109453 145:0.0 146:0.0 147:0.0 148:0.0 149:0.0 150:0.0 151:0.007462686567164179 152:0.0024875621890547263 153:0.0 154:0.007462686567164179 155:0.007462686567164179 156:0.0 157:0.014925373134328358 158:0.0 159:0.0024875621890547263 160:0.0024875621890547263 
1.0 1:0.0 2:0.0 3:0.0 4:0.0 5:0.0 6:0.0022026431718061676 7:0.006607929515418502 8:0.0 9:0.011013215859030838 10:0.0 11:0.00881057268722467 12:0.006607929515418502 13:0.0 14:0.0 15:0.0 16:0.0022026431718061676 17:0.0 18:0.006607929515418502 19:0.0 20:0.0 21:0.0 22:0.0 23:0.0 24:0.0 25:0.028634361233480177 26:0.0 27:0.0 28:0.0 29:0.0 30:0.004405286343612335 31:0.011013215859030838 32:0.0 33:0.0022026431718061676 34:0.4251101321585903 35:0.0 36:0.0 37:0.006607929515418502 38:0.011013215859030838 39:0.006607929515418502 40:0.011013215859030838 41:0.011013215859030838 42:0.006607929515418502 43:0.0 44:0.004405286343612335 45:0.0022026431718061676 46:0.0 47:0.0 48:0.004405286343612335 49:0.0022026431718061676 50:0.0 51:0.0022026431718061676 52:0.0 53:0.0 54:0.004405286343612335 55:0.011013215859030838 56:0.0 57:0.0 58:0.0 59:0.0 60:0.0 61:0.0 62:0.00881057268722467 63:0.0 64:0.0 65:0.0 66:0.0 67:0.0 68:0.0 69:0.0 70:0.00881057268722467 71:0.0 72:0.0 73:0.022026431718061675 74:0.0022026431718061676 75:0.004405286343612335 76:0.0 77:0.0 78:0.011013215859030838 79:0.006607929515418502 80:0.00881057268722467 81:0.0 82:0.0 83:0.011013215859030838 84:0.0022026431718061676 85:0.0 86:0.0022026431718061676 87:0.0 88:0.0 89:0.015418502202643172 90:0.0 91:0.015418502202643172 92:0.0 93:0.0 94:0.0022026431718061676 95:0.0022026431718061676 96:0.0 97:0.019823788546255508 98:0.0 99:0.0022026431718061676 100:0.011013215859030838 101:0.0 102:0.00881057268722467 103:0.006607929515418502 104:0.006607929515418502 105:0.0 106:0.0 107:0.0 108:0.015418502202643172 109:0.011013215859030838 110:0.0 111:0.0 112:0.0022026431718061676 113:0.0 114:0.0 115:0.0 116:0.0022026431718061676 117:0.0 118:0.0 119:0.0 120:0.0 121:0.0 122:0.00881057268722467 123:0.013215859030837005 124:0.00881057268722467 125:0.004405286343612335 126:0.0 127:0.0022026431718061676 128:0.0 129:0.0 130:0.0 131:0.0 132:0.0 133:0.0 134:0.013215859030837005 135:0.006607929515418502 136:0.0 137:0.022026431718061675 138:0.011013215859030838 139:0.00881057268722467 140:0.004405286343612335 141:0.0 142:0.0 143:0.0 144:0.0 145:0.0 146:0.0 147:0.0022026431718061676 148:0.0 149:0.00881057268722467 150:0.0 151:0.011013215859030838 152:0.0022026431718061676 153:0.0 154:0.0022026431718061676 155:0.0022026431718061676 156:0.0 157:0.05947136563876652 158:0.0 159:0.0 160:0.0 
1.0 1:0.0 2:0.0 3:0.0 4:0.002932551319648094 5:0.002932551319648094 6:0.0 7:0.005865102639296188 8:0.0 9:0.002932551319648094 10:0.0 11:0.0 12:0.0 13:0.0 14:0.002932551319648094 15:0.0 16:0.0 17:0.002932551319648094 18:0.0 19:0.0 20:0.0 21:0.0 22:0.0 23:0.0 24:0.0 25:0.005865102639296188 26:0.0 27:0.0 28:0.0 29:0.002932551319648094 30:0.0 31:0.0 32:0.0 33:0.0 34:0.6129032258064516 35:0.002932551319648094 36:0.0 37:0.002932551319648094 38:0.026392961876832845 39:0.0 40:0.026392961876832845 41:0.005865102639296188 42:0.0 43:0.0 44:0.005865102639296188 45:0.0 46:0.0 47:0.002932551319648094 48:0.005865102639296188 49:0.0 50:0.0 51:0.002932551319648094 52:0.002932551319648094 53:0.0 54:0.0 55:0.0 56:0.0 57:0.0 58:0.0 59:0.0 60:0.0 61:0.0 62:0.0 63:0.0 64:0.0 65:0.0 66:0.0 67:0.0 68:0.0 69:0.002932551319648094 70:0.0 71:0.0 72:0.002932551319648094 73:0.0 74:0.0 75:0.002932551319648094 76:0.002932551319648094 77:0.0 78:0.0 79:0.017595307917888565 80:0.005865102639296188 81:0.0 82:0.0 83:0.0 84:0.002932551319648094 85:0.0 86:0.002932551319648094 87:0.0 88:0.0 89:0.005865102639296188 90:0.0 91:0.10850439882697947 92:0.0 93:0.0 94:0.002932551319648094 95:0.0 96:0.0 97:0.011730205278592375 98:0.0 99:0.0 100:0.0 101:0.0 102:0.0 103:0.0 104:0.0 105:0.0 106:0.0 107:0.0 108:0.002932551319648094 109:0.0 110:0.0 111:0.0 112:0.005865102639296188 113:0.0 114:0.002932551319648094 115:0.0 116:0.0 117:0.0 118:0.0 119:0.0 120:0.0 121:0.0 122:0.0 123:0.002932551319648094 124:0.0 125:0.017595307917888565 126:0.0 127:0.0 128:0.0 129:0.0 130:0.002932551319648094 131:0.008797653958944282 132:0.0 133:0.0 134:0.002932551319648094 135:0.0 136:0.002932551319648094 137:0.008797653958944282 138:0.0 139:0.002932551319648094 140:0.0 141:0.0 142:0.0 143:0.0 144:0.0 145:0.0 146:0.0 147:0.005865102639296188 148:0.0 149:0.005865102639296188 150:0.0 151:0.008797653958944282 152:0.005865102639296188 153:0.0 154:0.0 155:0.0 156:0.0 157:0.011730205278592375 158:0.0 159:0.0 160:0.002932551319648094 
1.0 1:0.0 2:0.0 3:0.0 4:0.0 5:0.0 6:0.0 7:0.0 8:0.0 9:0.0 10:0.0 11:0.0 12:0.0 13:0.0 14:0.006493506493506494 15:0.0 16:0.00974025974025974 17:0.0 18:0.0 19:0.0 20:0.0 21:0.0 22:0.0 23:0.0 24:0.0 25:0.006493506493506494 26:0.0 27:0.0 28:0.0 29:0.00974025974025974 30:0.0 31:0.003246753246753247 32:0.0 33:0.0 34:0.7727272727272727 35:0.0 36:0.0 37:0.0 38:0.0 39:0.0 40:0.02922077922077922 41:0.0 42:0.0 43:0.0 44:0.0 45:0.0 46:0.0 47:0.003246753246753247 48:0.0 49:0.0 50:0.003246753246753247 51:0.003246753246753247 52:0.0 53:0.006493506493506494 54:0.0 55:0.006493506493506494 56:0.0 57:0.0 58:0.0 59:0.0 60:0.0 61:0.0 62:0.003246753246753247 63:0.0 64:0.0 65:0.0 66:0.0 67:0.0 68:0.0 69:0.0 70:0.006493506493506494 71:0.0 72:0.0 73:0.012987012987012988 74:0.003246753246753247 75:0.0 76:0.0 77:0.0 78:0.0 79:0.003246753246753247 80:0.00974025974025974 81:0.0 82:0.0 83:0.0 84:0.0 85:0.0 86:0.003246753246753247 87:0.0 88:0.0 89:0.003246753246753247 90:0.0 91:0.0 92:0.0 93:0.0 94:0.006493506493506494 95:0.003246753246753247 96:0.0 97:0.0 98:0.0 99:0.006493506493506494 100:0.0 101:0.0 102:0.0 103:0.0 104:0.0 105:0.0 106:0.0 107:0.0 108:0.0 109:0.0 110:0.0 111:0.0 112:0.0 113:0.0 114:0.0 115:0.0 116:0.0 117:0.0 118:0.003246753246753247 119:0.0 120:0.0 121:0.0 122:0.003246753246753247 123:0.0 124:0.00974025974025974 125:0.003246753246753247 126:0.0 127:0.0 128:0.0 129:0.0 130:0.0 131:0.003246753246753247 132:0.0 133:0.006493506493506494 134:0.016233766233766232 135:0.003246753246753247 136:0.003246753246753247 137:0.003246753246753247 138:0.003246753246753247 139:0.0 140:0.0 141:0.0 142:0.0 143:0.0 144:0.0 145:0.0 146:0.003246753246753247 147:0.0 148:0.00974025974025974 149:0.0 150:0.0 151:0.0 152:0.0 153:0.0 154:0.0 155:0.0 156:0.0 157:0.003246753246753247 158:0.0 159:0.003246753246753247 160:0.0 
1.0 1:0.0 2:0.0 3:0.0 4:0.002857142857142857 5:0.0 6:0.002857142857142857 7:0.0 8:0.0 9:0.005714285714285714 10:0.0 11:0.0 12:0.0 13:0.0 14:0.0 15:0.0 16:0.005714285714285714 17:0.0 18:0.0 19:0.0 20:0.002857142857142857 21:0.0 22:0.0 23:0.0 24:0.0 25:0.002857142857142857 26:0.0 27:0.0 28:0.0 29:0.0 30:0.0 31:0.0 32:0.002857142857142857 33:0.0 34:0.7971428571428572 35:0.0 36:0.0 37:0.002857142857142857 38:0.008571428571428572 39:0.0 40:0.005714285714285714 41:0.0 42:0.002857142857142857 43:0.0 44:0.0 45:0.0 46:0.0 47:0.0 48:0.002857142857142857 49:0.0 50:0.0 51:0.0 52:0.0 53:0.0 54:0.002857142857142857 55:0.0 56:0.0 57:0.002857142857142857 58:0.0 59:0.0 60:0.0 61:0.0 62:0.0 63:0.0 64:0.0 65:0.0 66:0.0 67:0.0 68:0.0 69:0.0 70:0.0 71:0.0 72:0.0 73:0.0 74:0.002857142857142857 75:0.002857142857142857 76:0.0 77:0.0 78:0.005714285714285714 79:0.0 80:0.0 81:0.0 82:0.0 83:0.0 84:0.0 85:0.0 86:0.0 87:0.0 88:0.0 89:0.0 90:0.0 91:0.08285714285714285 92:0.0 93:0.0 94:0.0 95:0.0 96:0.0 97:0.0 98:0.0 99:0.0 100:0.002857142857142857 101:0.0 102:0.002857142857142857 103:0.005714285714285714 104:0.0 105:0.0 106:0.0 107:0.0 108:0.002857142857142857 109:0.0 110:0.0 111:0.0 112:0.0 113:0.0 114:0.005714285714285714 115:0.0 116:0.0 117:0.0 118:0.002857142857142857 119:0.0 120:0.0 121:0.0 122:0.0 123:0.005714285714285714 124:0.002857142857142857 125:0.002857142857142857 126:0.0 127:0.0 128:0.0 129:0.0 130:0.0 131:0.0 132:0.0 133:0.0 134:0.005714285714285714 135:0.0 136:0.0 137:0.0 138:0.002857142857142857 139:0.005714285714285714 140:0.0 141:0.0 142:0.0 143:0.0 144:0.0 145:0.0 146:0.0 147:0.0 148:0.0 149:0.0 150:0.0 151:0.0 152:0.0 153:0.0 154:0.0 155:0.0 156:0.0 157:0.005714285714285714 158:0.0 159:0.0 160:0.0 
1.0 1:0.0 2:0.0 3:0.002127659574468085 4:0.002127659574468085 5:0.0 6:0.002127659574468085 7:0.002127659574468085 8:0.0 9:0.01276595744680851 10:0.0 11:0.00425531914893617 12:0.00851063829787234 13:0.0 14:0.00425531914893617 15:0.0 16:0.002127659574468085 17:0.0 18:0.006382978723404255 19:0.0 20:0.0 21:0.0 22:0.0 23:0.0 24:0.0 25:0.027659574468085105 26:0.002127659574468085 27:0.0 28:0.0 29:0.0 30:0.006382978723404255 31:0.00851063829787234 32:0.0 33:0.002127659574468085 34:0.43617021276595747 35:0.00851063829787234 36:0.0 37:0.00425531914893617 38:0.01702127659574468 39:0.002127659574468085 40:0.01702127659574468 41:0.0 42:0.006382978723404255 43:0.002127659574468085 44:0.01276595744680851 45:0.0 46:0.0 47:0.0 48:0.00851063829787234 49:0.002127659574468085 50:0.0 51:0.0 52:0.002127659574468085 53:0.0 54:0.0 55:0.006382978723404255 56:0.0 57:0.0 58:0.0 59:0.0 60:0.0 61:0.0 62:0.01702127659574468 63:0.0 64:0.0 65:0.0 66:0.0 67:0.0 68:0.0 69:0.0 70:0.010638297872340425 71:0.0 72:0.0 73:0.019148936170212766 74:0.002127659574468085 75:0.006382978723404255 76:0.0 77:0.0 78:0.00851063829787234 79:0.00425531914893617 80:0.00425531914893617 81:0.0 82:0.0 83:0.02127659574468085 84:0.002127659574468085 85:0.0 86:0.002127659574468085 87:0.0 88:0.0 89:0.01276595744680851 90:0.0 91:0.006382978723404255 92:0.0 93:0.0 94:0.002127659574468085 95:0.006382978723404255 96:0.0 97:0.02127659574468085 98:0.0 99:0.002127659574468085 100:0.006382978723404255 101:0.0 102:0.00851063829787234 103:0.014893617021276596 104:0.006382978723404255 105:0.0 106:0.0 107:0.0 108:0.02553191489361702 109:0.00851063829787234 110:0.0 111:0.0 112:0.002127659574468085 113:0.0 114:0.0 115:0.0 116:0.002127659574468085 117:0.0 118:0.002127659574468085 119:0.0 120:0.0 121:0.0 122:0.006382978723404255 123:0.019148936170212766 124:0.00425531914893617 125:0.00851063829787234 126:0.0 127:0.0 128:0.0 129:0.0 130:0.0 131:0.0 132:0.0 133:0.0 134:0.00851063829787234 135:0.00425531914893617 136:0.002127659574468085 137:0.010638297872340425 138:0.006382978723404255 139:0.00851063829787234 140:0.00425531914893617 141:0.0 142:0.0 143:0.0 144:0.0 145:0.0 146:0.0 147:0.002127659574468085 148:0.0 149:0.00425531914893617 150:0.0 151:0.006382978723404255 152:0.00425531914893617 153:0.0 154:0.002127659574468085 155:0.00425531914893617 156:0.0 157:0.04893617021276596 158:0.0 159:0.0 160:0.0 
1.0 1:0.0 2:0.0 3:0.0 4:0.0 5:0.0 6:0.002127659574468085 7:0.006382978723404255 8:0.0 9:0.010638297872340425 10:0.0 11:0.00851063829787234 12:0.006382978723404255 13:0.0 14:0.0 15:0.0 16:0.002127659574468085 17:0.0 18:0.006382978723404255 19:0.0 20:0.0 21:0.0 22:0.0 23:0.0 24:0.0 25:0.027659574468085105 26:0.0 27:0.0 28:0.0 29:0.0 30:0.00425531914893617 31:0.010638297872340425 32:0.0 33:0.002127659574468085 34:0.44468085106382976 35:0.0 36:0.0 37:0.006382978723404255 38:0.010638297872340425 39:0.006382978723404255 40:0.010638297872340425 41:0.010638297872340425 42:0.006382978723404255 43:0.0 44:0.00425531914893617 45:0.002127659574468085 46:0.0 47:0.0 48:0.00425531914893617 49:0.002127659574468085 50:0.0 51:0.002127659574468085 52:0.0 53:0.0 54:0.00425531914893617 55:0.010638297872340425 56:0.0 57:0.0 58:0.0 59:0.0 60:0.0 61:0.0 62:0.00851063829787234 63:0.0 64:0.0 65:0.0 66:0.0 67:0.0 68:0.0 69:0.0 70:0.00851063829787234 71:0.0 72:0.0 73:0.02127659574468085 74:0.002127659574468085 75:0.00425531914893617 76:0.0 77:0.0 78:0.010638297872340425 79:0.006382978723404255 80:0.00851063829787234 81:0.0 82:0.0 83:0.010638297872340425 84:0.002127659574468085 85:0.0 86:0.002127659574468085 87:0.0 88:0.0 89:0.014893617021276596 90:0.0 91:0.014893617021276596 92:0.0 93:0.0 94:0.002127659574468085 95:0.002127659574468085 96:0.0 97:0.019148936170212766 98:0.0 99:0.002127659574468085 100:0.010638297872340425 101:0.0 102:0.00851063829787234 103:0.006382978723404255 104:0.006382978723404255 105:0.0 106:0.0 107:0.0 108:0.014893617021276596 109:0.010638297872340425 110:0.0 111:0.0 112:0.002127659574468085 113:0.0 114:0.0 115:0.0 116:0.002127659574468085 117:0.0 118:0.0 119:0.0 120:0.0 121:0.0 122:0.00851063829787234 123:0.01276595744680851 124:0.00851063829787234 125:0.00425531914893617 126:0.0 127:0.002127659574468085 128:0.0 129:0.0 130:0.0 131:0.0 132:0.0 133:0.0 134:0.01276595744680851 135:0.006382978723404255 136:0.0 137:0.02127659574468085 138:0.010638297872340425 139:0.00851063829787234 140:0.00425531914893617 141:0.0 142:0.0 143:0.0 144:0.0 145:0.0 146:0.0 147:0.002127659574468085 148:0.0 149:0.00851063829787234 150:0.0 151:0.010638297872340425 152:0.002127659574468085 153:0.0 154:0.002127659574468085 155:0.002127659574468085 156:0.0 157:0.0574468085106383 158:0.0 159:0.0 160:0.0 
1.0 1:0.0 2:0.0 3:0.0 4:0.0047169811320754715 5:0.0 6:0.0 7:0.0 8:0.0 9:0.0 10:0.0 11:0.0 12:0.0 13:0.0 14:0.0 15:0.0 16:0.0 17:0.0 18:0.0047169811320754715 19:0.0 20:0.0 21:0.0 22:0.0 23:0.0 24:0.0 25:0.009433962264150943 26:0.0 27:0.0 28:0.0 29:0.0 30:0.0 31:0.0 32:0.0 33:0.0 34:0.7405660377358491 35:0.0047169811320754715 36:0.0 37:0.009433962264150943 38:0.04245283018867924 39:0.0 40:0.014150943396226415 41:0.014150943396226415 42:0.0047169811320754715 43:0.0 44:0.009433962264150943 45:0.0 46:0.0 47:0.0047169811320754715 48:0.0047169811320754715 49:0.0047169811320754715 50:0.0 51:0.0 52:0.0 53:0.0 54:0.0 55:0.0 56:0.0 57:0.0 58:0.0 59:0.0 60:0.0 61:0.0 62:0.0047169811320754715 63:0.0 64:0.0 65:0.0 66:0.0 67:0.0 68:0.0 69:0.0 70:0.0 71:0.0 72:0.0 73:0.0 74:0.0047169811320754715 75:0.0047169811320754715 76:0.0 77:0.0 78:0.0 79:0.0 80:0.0 81:0.0 82:0.0 83:0.009433962264150943 84:0.0 85:0.0 86:0.0 87:0.0 88:0.0 89:0.0 90:0.0 91:0.04245283018867924 92:0.0 93:0.0 94:0.0047169811320754715 95:0.0 96:0.0 97:0.009433962264150943 98:0.0 99:0.0 100:0.0 101:0.0 102:0.0 103:0.0 104:0.0 105:0.0 106:0.0047169811320754715 107:0.0 108:0.0047169811320754715 109:0.0 110:0.0 111:0.0 112:0.0 113:0.0 114:0.0 115:0.0 116:0.0 117:0.0 118:0.0 119:0.0 120:0.0 121:0.0 122:0.0047169811320754715 123:0.0 124:0.0047169811320754715 125:0.0047169811320754715 126:0.0 127:0.0 128:0.0 129:0.0 130:0.0047169811320754715 131:0.0 132:0.0 133:0.0 134:0.0 135:0.0 136:0.0 137:0.0 138:0.0 139:0.0 140:0.0 141:0.0 142:0.0 143:0.0 144:0.0047169811320754715 145:0.0 146:0.0 147:0.0 148:0.0 149:0.0 150:0.0 151:0.0047169811320754715 152:0.0 153:0.0 154:0.0047169811320754715 155:0.0 156:0.0 157:0.0 158:0.0 159:0.0 160:0.0047169811320754715 
