svm_type one_class
kernel_type rbf
gamma 0.5
nr_class 2
total_sv 174
rho 168.43857016801826
SV
1.0 1:0.0 2:0.0 3:0.0 4:0.0 5:0.0 6:0.0 7:0.0 8:0.0 9:0.0 10:0.0 11:0.0 12:0.0 13:0.0 14:0.0 15:0.0 16:0.0 17:0.0 18:0.0 19:0.0 20:0.0 21:0.0 22:0.0 23:0.0 24:0.0 25:0.0 26:0.0 27:0.0 28:0.0 29:0.0 30:0.0 31:0.0 32:0.0 33:0.0 34:0.0 35:0.0 36:0.0 37:0.0 38:0.0 39:0.0 40:0.0 41:0.0 42:0.0 43:0.0 44:0.0 45:0.0 46:0.0 47:0.0 48:0.0 49:0.0 50:0.0 51:0.0 52:0.0 53:0.0 54:0.0 55:0.0 56:0.0 57:0.0 58:0.0 59:0.0 60:0.0 61:0.0 62:0.0 63:0.0 64:0.0 65:0.0 66:0.0 67:0.0 68:1.0 69:0.0 70:0.0 71:0.0 72:0.0 73:0.0 74:0.0 75:0.0 76:0.0 77:0.0 78:0.0 79:0.0 80:0.0 81:0.0 82:0.0 83:0.0 84:0.0 85:0.0 86:0.0 87:0.0 88:0.0 89:0.0 90:0.0 91:0.0 92:0.0 93:0.0 94:0.0 95:0.0 96:0.0 97:0.0 98:0.0 99:0.0 100:0.0 101:0.0 102:0.0 103:0.0 104:0.0 105:0.0 106:0.0 107:0.0 108:0.0 109:0.0 110:0.0 111:0.0 112:0.0 113:0.0 114:0.0 115:0.0 116:0.0 117:0.0 118:0.0 119:0.0 120:0.0 121:0.0 122:0.0 123:0.0 124:0.0 125:0.0 126:0.0 127:0.0 128:0.0 129:0.0 130:0.0 131:0.0 132:0.0 133:0.0 134:0.0 135:0.0 136:0.0 137:0.0 138:0.0 139:0.0 140:0.0 141:0.0 142:0.0 143:0.0 144:0.0 145:0.0 146:0.0 147:0.0 148:0.0 149:0.0 150:0.0 151:0.0 152:0.0 153:0.0 154:0.0 155:0.0 156:0.0 157:0.0 158:0.0 159:0.0 160:0.0 
1.0 1:0.0 2:0.0 3:0.0 4:0.0 5:0.0 6:0.0 7:0.0 8:0.0 9:0.0 10:0.0 11:0.0 12:0.0 13:0.0 14:0.0 15:0.0 16:0.0 17:0.0 18:0.0 19:0.0 20:0.0 21:0.0 22:0.0 23:0.0 24:0.0 25:0.0 26:0.0 27:0.0 28:0.0 29:0.0 30:0.0 31:0.0 32:0.0 33:0.0 34:0.0 35:0.0 36:0.0 37:0.0 38:0.0 39:0.0 40:0.0 41:0.0 42:0.0 43:0.0 44:0.0 45:0.0 46:0.0 47:0.0 48:0.0 49:0.0 50:0.0 51:0.0 52:0.0 53:0.0 54:0.0 55:0.0 56:0.0 57:0.0 58:0.0 59:0.0 60:0.0 61:0.0 62:0.0 63:0.0 64:0.0 65:0.0 66:0.0 67:0.0 68:1.0 69:0.0 70:0.0 71:0.0 72:0.0 73:0.0 74:0.0 75:0.0 76:0.0 77:0.0 78:0.0 79:0.0 80:0.0 81:0.0 82:0.0 83:0.0 84:0.0 85:0.0 86:0.0 87:0.0 88:0.0 89:0.0 90:0.0 91:0.0 92:0.0 93:0.0 94:0.0 95:0.0 96:0.0 97:0.0 98:0.0 99:0.0 100:0.0 101:0.0 102:0.0 103:0.0 104:0.0 105:0.0 106:0.0 107:0.0 108:0.0 109:0.0 110:0.0 111:0.0 112:0.0 113:0.0 114:0.0 115:0.0 116:0.0 117:0.0 118:0.0 119:0.0 120:0.0 121:0.0 122:0.0 123:0.0 124:0.0 125:0.0 126:0.0 127:0.0 128:0.0 129:0.0 130:0.0 131:0.0 132:0.0 133:0.0 134:0.0 135:0.0 136:0.0 137:0.0 138:0.0 139:0.0 140:0.0 141:0.0 142:0.0 143:0.0 144:0.0 145:0.0 146:0.0 147:0.0 148:0.0 149:0.0 150:0.0 151:0.0 152:0.0 153:0.0 154:0.0 155:0.0 156:0.0 157:0.0 158:0.0 159:0.0 160:0.0 
1.0 1:0.0 2:0.0 3:0.0 4:0.0 5:0.0 6:0.0 7:0.0 8:0.0 9:0.0 10:0.0 11:0.0 12:0.0 13:0.0 14:0.0 15:0.0 16:0.0 17:0.0 18:0.0 19:0.0 20:0.0 21:0.0 22:0.0 23:0.0 24:0.0 25:0.0 26:0.0 27:0.0 28:0.0 29:0.0 30:0.0 31:0.0 32:0.0 33:0.0 34:0.0 35:0.0 36:0.0 37:0.0 38:0.0 39:0.0 40:0.0 41:0.0 42:0.0 43:0.0 44:0.0 45:0.0 46:0.0 47:0.0 48:0.0 49:0.0 50:0.0 51:0.0 52:0.0 53:0.0 54:0.0 55:0.0 56:0.0 57:0.0 58:0.0 59:0.0 60:0.0 61:0.0 62:0.0 63:0.0 64:0.0 65:0.0 66:0.0 67:0.0 68:1.0 69:0.0 70:0.0 71:0.0 72:0.0 73:0.0 74:0.0 75:0.0 76:0.0 77:0.0 78:0.0 79:0.0 80:0.0 81:0.0 82:0.0 83:0.0 84:0.0 85:0.0 86:0.0 87:0.0 88:0.0 89:0.0 90:0.0 91:0.0 92:0.0 93:0.0 94:0.0 95:0.0 96:0.0 97:0.0 98:0.0 99:0.0 100:0.0 101:0.0 102:0.0 103:0.0 104:0.0 105:0.0 106:0.0 107:0.0 108:0.0 109:0.0 110:0.0 111:0.0 112:0.0 113:0.0 114:0.0 115:0.0 116:0.0 117:0.0 118:0.0 119:0.0 120:0.0 121:0.0 122:0.0 123:0.0 124:0.0 125:0.0 126:0.0 127:0.0 128:0.0 129:0.0 130:0.0 131:0.0 132:0.0 133:0.0 134:0.0 135:0.0 136:0.0 137:0.0 138:0.0 139:0.0 140:0.0 141:0.0 142:0.0 143:0.0 144:0.0 145:0.0 146:0.0 147:0.0 148:0.0 149:0.0 150:0.0 151:0.0 152:0.0 153:0.0 154:0.0 155:0.0 156:0.0 157:0.0 158:0.0 159:0.0 160:0.0 
1.0 1:0.0 2:0.0 3:0.0 4:0.0 5:0.0 6:0.0 7:0.0 8:0.0 9:0.0 10:0.0 11:0.0 12:0.0 13:0.0 14:0.0 15:0.0 16:0.0 17:0.0 18:0.0 19:0.0 20:0.0 21:0.0 22:0.0 23:0.0 24:0.0 25:0.0 26:0.0 27:0.0 28:0.0 29:0.0 30:0.0 31:0.0 32:0.0 33:0.0 34:0.0 35:0.0 36:0.0 37:0.0 38:0.0 39:0.0 40:0.0 41:0.0 42:0.0 43:0.0 44:0.0 45:0.0 46:0.0 47:0.0 48:0.0 49:0.0 50:0.0 51:0.0 52:0.0 53:0.0 54:0.0 55:0.0 56:0.0 57:0.0 58:0.0 59:0.0 60:0.0 61:0.0 62:0.0 63:0.0 64:0.0 65:0.0 66:0.0 67:0.0 68:1.0 69:0.0 70:0.0 71:0.0 72:0.0 73:0.0 74:0.0 75:0.0 76:0.0 77:0.0 78:0.0 79:0.0 80:0.0 81:0.0 82:0.0 83:0.0 84:0.0 85:0.0 86:0.0 87:0.0 88:0.0 89:0.0 90:0.0 91:0.0 92:0.0 93:0.0 94:0.0 95:0.0 96:0.0 97:0.0 98:0.0 99:0.0 100:0.0 101:0.0 102:0.0 103:0.0 104:0.0 105:0.0 106:0.0 107:0.0 108:0.0 109:0.0 110:0.0 111:0.0 112:0.0 113:0.0 114:0.0 115:0.0 116:0.0 117:0.0 118:0.0 119:0.0 120:0.0 121:0.0 122:0.0 123:0.0 124:0.0 125:0.0 126:0.0 127:0.0 128:0.0 129:0.0 130:0.0 131:0.0 132:0.0 133:0.0 134:0.0 135:0.0 136:0.0 137:0.0 138:0.0 139:0.0 140:0.0 141:0.0 142:0.0 143:0.0 144:0.0 145:0.0 146:0.0 147:0.0 148:0.0 149:0.0 150:0.0 151:0.0 152:0.0 153:0.0 154:0.0 155:0.0 156:0.0 157:0.0 158:0.0 159:0.0 160:0.0 
1.0 1:0.0 2:0.0 3:0.0 4:0.0 5:0.0 6:0.0 7:0.0 8:0.0 9:0.0 10:0.0 11:0.0 12:0.0 13:0.0 14:0.0 15:0.0 16:0.0 17:0.0 18:0.0 19:0.0 20:0.0 21:0.0 22:0.0 23:0.0 24:0.0 25:0.0 26:0.0 27:0.0 28:0.0 29:0.0 30:0.0 31:0.0 32:0.0 33:0.0 34:0.0 35:0.0 36:0.0 37:0.0 38:0.0 39:0.0 40:0.0 41:0.0 42:0.0 43:0.0 44:0.0 45:0.0 46:0.0 47:0.0 48:0.0 49:0.0 50:0.0 51:0.0 52:0.0 53:0.0 54:0.0 55:0.0 56:0.0 57:0.0 58:0.0 59:0.0 60:0.0 61:0.0 62:0.0 63:0.0 64:0.0 65:0.0 66:0.0 67:0.0 68:1.0 69:0.0 70:0.0 71:0.0 72:0.0 73:0.0 74:0.0 75:0.0 76:0.0 77:0.0 78:0.0 79:0.0 80:0.0 81:0.0 82:0.0 83:0.0 84:0.0 85:0.0 86:0.0 87:0.0 88:0.0 89:0.0 90:0.0 91:0.0 92:0.0 93:0.0 94:0.0 95:0.0 96:0.0 97:0.0 98:0.0 99:0.0 100:0.0 101:0.0 102:0.0 103:0.0 104:0.0 105:0.0 106:0.0 107:0.0 108:0.0 109:0.0 110:0.0 111:0.0 112:0.0 113:0.0 114:0.0 115:0.0 116:0.0 117:0.0 118:0.0 119:0.0 120:0.0 121:0.0 122:0.0 123:0.0 124:0.0 125:0.0 126:0.0 127:0.0 128:0.0 129:0.0 130:0.0 131:0.0 132:0.0 133:0.0 134:0.0 135:0.0 136:0.0 137:0.0 138:0.0 139:0.0 140:0.0 141:0.0 142:0.0 143:0.0 144:0.0 145:0.0 146:0.0 147:0.0 148:0.0 149:0.0 150:0.0 151:0.0 152:0.0 153:0.0 154:0.0 155:0.0 156:0.0 157:0.0 158:0.0 159:0.0 160:0.0 
1.0 1:0.0 2:0.0 3:0.0 4:0.0 5:0.0 6:0.0 7:0.0 8:0.0 9:0.0 10:0.0 11:0.0 12:0.0 13:0.0 14:0.0 15:0.0 16:0.0 17:0.0 18:0.0 19:0.0 20:0.0 21:0.0 22:0.0 23:0.0 24:0.0 25:0.0 26:0.0 27:0.0 28:0.0 29:0.0 30:0.0 31:0.0 32:0.0 33:0.0 34:0.0 35:0.0 36:0.0 37:0.0 38:0.0 39:0.0 40:0.0 41:0.0 42:0.0 43:0.0 44:0.0 45:0.0 46:0.0 47:0.0 48:0.0 49:0.0 50:0.0 51:0.0 52:0.0 53:0.0 54:0.0 55:0.0 56:0.0 57:0.0 58:0.0 59:0.0 60:0.0 61:0.0 62:0.0 63:0.0 64:0.0 65:0.0 66:0.0 67:0.0 68:1.0 69:0.0 70:0.0 71:0.0 72:0.0 73:0.0 74:0.0 75:0.0 76:0.0 77:0.0 78:0.0 79:0.0 80:0.0 81:0.0 82:0.0 83:0.0 84:0.0 85:0.0 86:0.0 87:0.0 88:0.0 89:0.0 90:0.0 91:0.0 92:0.0 93:0.0 94:0.0 95:0.0 96:0.0 97:0.0 98:0.0 99:0.0 100:0.0 101:0.0 102:0.0 103:0.0 104:0.0 105:0.0 106:0.0 107:0.0 108:0.0 109:0.0 110:0.0 111:0.0 112:0.0 113:0.0 114:0.0 115:0.0 116:0.0 117:0.0 118:0.0 119:0.0 120:0.0 121:0.0 122:0.0 123:0.0 124:0.0 125:0.0 126:0.0 127:0.0 128:0.0 129:0.0 130:0.0 131:0.0 132:0.0 133:0.0 134:0.0 135:0.0 136:0.0 137:0.0 138:0.0 139:0.0 140:0.0 141:0.0 142:0.0 143:0.0 144:0.0 145:0.0 146:0.0 147:0.0 148:0.0 149:0.0 150:0.0 151:0.0 152:0.0 153:0.0 154:0.0 155:0.0 156:0.0 157:0.0 158:0.0 159:0.0 160:0.0 
1.0 1:0.0 2:0.0 3:0.0 4:0.0 5:0.0 6:0.0 7:0.0 8:0.0 9:0.0 10:0.0 11:0.0 12:0.0 13:0.0 14:0.0 15:0.0 16:0.0 17:0.0 18:0.0 19:0.0 20:0.0 21:0.0 22:0.0 23:0.0 24:0.0 25:0.0 26:0.0 27:0.0 28:0.0 29:0.0 30:0.0 31:0.0 32:0.0 33:0.0 34:0.0 35:0.0 36:0.0 37:0.0 38:0.0 39:0.0 40:0.0 41:0.0 42:0.0 43:0.0 44:0.0 45:0.0 46:0.0 47:0.0 48:0.0 49:0.0 50:0.0 51:0.0 52:0.0 53:0.0 54:0.0 55:0.0 56:0.0 57:0.0 58:0.0 59:0.0 60:0.0 61:0.0 62:0.0 63:0.0 64:0.0 65:0.0 66:0.0 67:0.0 68:1.0 69:0.0 70:0.0 71:0.0 72:0.0 73:0.0 74:0.0 75:0.0 76:0.0 77:0.0 78:0.0 79:0.0 80:0.0 81:0.0 82:0.0 83:0.0 84:0.0 85:0.0 86:0.0 87:0.0 88:0.0 89:0.0 90:0.0 91:0.0 92:0.0 93:0.0 94:0.0 95:0.0 96:0.0 97:0.0 98:0.0 99:0.0 100:0.0 101:0.0 102:0.0 103:0.0 104:0.0 105:0.0 106:0.0 107:0.0 108:0.0 109:0.0 110:0.0 111:0.0 112:0.0 113:0.0 114:0.0 115:0.0 116:0.0 117:0.0 118:0.0 119:0.0 120:0.0 121:0.0 122:0.0 123:0.0 124:0.0 125:0.0 126:0.0 127:0.0 128:0.0 129:0.0 130:0.0 131:0.0 132:0.0 133:0.0 134:0.0 135:0.0 136:0.0 137:0.0 138:0.0 139:0.0 140:0.0 141:0.0 142:0.0 143:0.0 144:0.0 145:0.0 146:0.0 147:0.0 148:0.0 149:0.0 150:0.0 151:0.0 152:0.0 153:0.0 154:0.0 155:0.0 156:0.0 157:0.0 158:0.0 159:0.0 160:0.0 
1.0 1:0.0 2:0.0 3:0.0 4:0.0 5:0.0 6:0.0 7:0.0 8:0.0 9:0.0 10:0.0 11:0.0 12:0.0 13:0.0 14:0.0 15:0.0 16:0.0 17:0.0 18:0.0 19:0.0 20:0.0 21:0.0 22:0.0 23:0.0 24:0.0 25:0.0 26:0.0 27:0.0 28:0.0 29:0.0 30:0.0 31:0.0 32:0.0 33:0.0 34:0.0 35:0.0 36:0.0 37:0.0 38:0.0 39:0.0 40:0.0 41:0.0 42:0.0 43:0.0 44:0.0 45:0.0 46:0.0 47:0.0 48:0.0 49:0.0 50:0.0 51:0.0 52:0.0 53:0.0 54:0.0 55:0.0 56:0.0 57:0.0 58:0.0 59:0.0 60:0.0 61:0.0 62:0.0 63:0.0 64:0.0 65:0.0 66:0.0 67:0.0 68:1.0 69:0.0 70:0.0 71:0.0 72:0.0 73:0.0 74:0.0 75:0.0 76:0.0 77:0.0 78:0.0 79:0.0 80:0.0 81:0.0 82:0.0 83:0.0 84:0.0 85:0.0 86:0.0 87:0.0 88:0.0 89:0.0 90:0.0 91:0.0 92:0.0 93:0.0 94:0.0 95:0.0 96:0.0 97:0.0 98:0.0 99:0.0 100:0.0 101:0.0 102:0.0 103:0.0 104:0.0 105:0.0 106:0.0 107:0.0 108:0.0 109:0.0 110:0.0 111:0.0 112:0.0 113:0.0 114:0.0 115:0.0 116:0.0 117:0.0 118:0.0 119:0.0 120:0.0 121:0.0 122:0.0 123:0.0 124:0.0 125:0.0 126:0.0 127:0.0 128:0.0 129:0.0 130:0.0 131:0.0 132:0.0 133:0.0 134:0.0 135:0.0 136:0.0 137:0.0 138:0.0 139:0.0 140:0.0 141:0.0 142:0.0 143:0.0 144:0.0 145:0.0 146:0.0 147:0.0 148:0.0 149:0.0 150:0.0 151:0.0 152:0.0 153:0.0 154:0.0 155:0.0 156:0.0 157:0.0 158:0.0 159:0.0 160:0.0 
1.0 1:0.0 2:0.0 3:0.0 4:0.0 5:0.0 6:0.0 7:0.0 8:0.0 9:0.0 10:0.0 11:0.0 12:0.0 13:0.0 14:0.0 15:0.0 16:0.0 17:0.0 18:0.0 19:0.0 20:0.0 21:0.0 22:0.0 23:0.0 24:0.0 25:0.0 26:0.0 27:0.0 28:0.0 29:0.0 30:0.0 31:0.0 32:0.0 33:0.0 34:0.0 35:0.0 36:0.0 37:0.0 38:0.0 39:0.0 40:0.0 41:0.0 42:0.0 43:0.0 44:0.0 45:0.0 46:0.0 47:0.0 48:0.0 49:0.0 50:0.0 51:0.0 52:0.0 53:0.0 54:0.0 55:0.0 56:0.0 57:0.0 58:0.0 59:0.0 60:0.0 61:0.0 62:0.0 63:0.0 64:0.0 65:0.0 66:0.0 67:0.0 68:1.0 69:0.0 70:0.0 71:0.0 72:0.0 73:0.0 74:0.0 75:0.0 76:0.0 77:0.0 78:0.0 79:0.0 80:0.0 81:0.0 82:0.0 83:0.0 84:0.0 85:0.0 86:0.0 87:0.0 88:0.0 89:0.0 90:0.0 91:0.0 92:0.0 93:0.0 94:0.0 95:0.0 96:0.0 97:0.0 98:0.0 99:0.0 100:0.0 101:0.0 102:0.0 103:0.0 104:0.0 105:0.0 106:0.0 107:0.0 108:0.0 109:0.0 110:0.0 111:0.0 112:0.0 113:0.0 114:0.0 115:0.0 116:0.0 117:0.0 118:0.0 119:0.0 120:0.0 121:0.0 122:0.0 123:0.0 124:0.0 125:0.0 126:0.0 127:0.0 128:0.0 129:0.0 130:0.0 131:0.0 132:0.0 133:0.0 134:0.0 135:0.0 136:0.0 137:0.0 138:0.0 139:0.0 140:0.0 141:0.0 142:0.0 143:0.0 144:0.0 145:0.0 146:0.0 147:0.0 148:0.0 149:0.0 150:0.0 151:0.0 152:0.0 153:0.0 154:0.0 155:0.0 156:0.0 157:0.0 158:0.0 159:0.0 160:0.0 
1.0 1:0.0 2:0.0 3:0.0 4:0.0 5:0.0 6:0.0 7:0.0 8:0.0 9:0.0 10:0.0 11:0.0 12:0.0 13:0.0 14:0.0 15:0.0 16:0.0 17:0.0 18:0.0 19:0.0 20:0.0 21:0.0 22:0.0 23:0.0 24:0.0 25:0.0 26:0.0 27:0.0 28:0.0 29:0.0 30:0.0 31:0.0 32:0.0 33:0.0 34:0.0 35:0.0 36:0.0 37:0.0 38:0.0 39:0.0 40:0.0 41:0.0 42:0.0 43:0.0 44:0.0 45:0.0 46:0.0 47:0.0 48:0.0 49:0.0 50:0.0 51:0.0 52:0.0 53:0.0 54:0.0 55:0.0 56:0.0 57:0.0 58:0.0 59:0.0 60:0.0 61:0.0 62:0.0 63:0.0 64:0.0 65:0.0 66:0.0 67:0.0 68:1.0 69:0.0 70:0.0 71:0.0 72:0.0 73:0.0 74:0.0 75:0.0 76:0.0 77:0.0 78:0.0 79:0.0 80:0.0 81:0.0 82:0.0 83:0.0 84:0.0 85:0.0 86:0.0 87:0.0 88:0.0 89:0.0 90:0.0 91:0.0 92:0.0 93:0.0 94:0.0 95:0.0 96:0.0 97:0.0 98:0.0 99:0.0 100:0.0 101:0.0 102:0.0 103:0.0 104:0.0 105:0.0 106:0.0 107:0.0 108:0.0 109:0.0 110:0.0 111:0.0 112:0.0 113:0.0 114:0.0 115:0.0 116:0.0 117:0.0 118:0.0 119:0.0 120:0.0 121:0.0 122:0.0 123:0.0 124:0.0 125:0.0 126:0.0 127:0.0 128:0.0 129:0.0 130:0.0 131:0.0 132:0.0 133:0.0 134:0.0 135:0.0 136:0.0 137:0.0 138:0.0 139:0.0 140:0.0 141:0.0 142:0.0 143:0.0 144:0.0 145:0.0 146:0.0 147:0.0 148:0.0 149:0.0 150:0.0 151:0.0 152:0.0 153:0.0 154:0.0 155:0.0 156:0.0 157:0.0 158:0.0 159:0.0 160:0.0 
1.0 1:0.0 2:0.0 3:0.0 4:0.0 5:0.0 6:0.0 7:0.0 8:0.0 9:0.0 10:0.0 11:0.0 12:0.0 13:0.0 14:0.0 15:0.0 16:0.0 17:0.0 18:0.0 19:0.0 20:0.0 21:0.0 22:0.0 23:0.0 24:0.0 25:0.0 26:0.0 27:0.0 28:0.0 29:0.0 30:0.0 31:0.0 32:0.0 33:0.0 34:0.0 35:0.0 36:0.0 37:0.0 38:0.0 39:0.0 40:0.0 41:0.0 42:0.0 43:0.0 44:0.0 45:0.0 46:0.0 47:0.0 48:0.0 49:0.0 50:0.0 51:0.0 52:0.0 53:0.0 54:0.0 55:0.0 56:0.0 57:0.0 58:0.0 59:0.0 60:0.0 61:0.0 62:0.0 63:0.0 64:0.0 65:0.0 66:0.0 67:0.0 68:1.0 69:0.0 70:0.0 71:0.0 72:0.0 73:0.0 74:0.0 75:0.0 76:0.0 77:0.0 78:0.0 79:0.0 80:0.0 81:0.0 82:0.0 83:0.0 84:0.0 85:0.0 86:0.0 87:0.0 88:0.0 89:0.0 90:0.0 91:0.0 92:0.0 93:0.0 94:0.0 95:0.0 96:0.0 97:0.0 98:0.0 99:0.0 100:0.0 101:0.0 102:0.0 103:0.0 104:0.0 105:0.0 106:0.0 107:0.0 108:0.0 109:0.0 110:0.0 111:0.0 112:0.0 113:0.0 114:0.0 115:0.0 116:0.0 117:0.0 118:0.0 119:0.0 120:0.0 121:0.0 122:0.0 123:0.0 124:0.0 125:0.0 126:0.0 127:0.0 128:0.0 129:0.0 130:0.0 131:0.0 132:0.0 133:0.0 134:0.0 135:0.0 136:0.0 137:0.0 138:0.0 139:0.0 140:0.0 141:0.0 142:0.0 143:0.0 144:0.0 145:0.0 146:0.0 147:0.0 148:0.0 149:0.0 150:0.0 151:0.0 152:0.0 153:0.0 154:0.0 155:0.0 156:0.0 157:0.0 158:0.0 159:0.0 160:0.0 
1.0 1:0.0 2:0.0 3:0.0 4:0.0 5:0.0 6:0.0 7:0.0 8:0.0 9:0.0 10:0.0 11:0.0 12:0.0 13:0.0 14:0.0 15:0.0 16:0.0 17:0.0 18:0.0 19:0.0 20:0.0 21:0.0 22:0.0 23:0.0 24:0.0 25:0.0 26:0.0 27:0.0 28:0.0 29:0.0 30:0.0 31:0.0 32:0.0 33:0.0 34:0.0 35:0.0 36:0.0 37:0.0 38:0.0 39:0.0 40:0.0 41:0.0 42:0.0 43:0.0 44:0.0 45:0.0 46:0.0 47:0.0 48:0.0 49:0.0 50:0.0 51:0.0 52:0.0 53:0.0 54:0.0 55:0.0 56:0.0 57:0.0 58:0.0 59:0.0 60:0.0 61:0.0 62:0.0 63:0.0 64:0.0 65:0.0 66:0.0 67:0.0 68:1.0 69:0.0 70:0.0 71:0.0 72:0.0 73:0.0 74:0.0 75:0.0 76:0.0 77:0.0 78:0.0 79:0.0 80:0.0 81:0.0 82:0.0 83:0.0 84:0.0 85:0.0 86:0.0 87:0.0 88:0.0 89:0.0 90:0.0 91:0.0 92:0.0 93:0.0 94:0.0 95:0.0 96:0.0 97:0.0 98:0.0 99:0.0 100:0.0 101:0.0 102:0.0 103:0.0 104:0.0 105:0.0 106:0.0 107:0.0 108:0.0 109:0.0 110:0.0 111:0.0 112:0.0 113:0.0 114:0.0 115:0.0 116:0.0 117:0.0 118:0.0 119:0.0 120:0.0 121:0.0 122:0.0 123:0.0 124:0.0 125:0.0 126:0.0 127:0.0 128:0.0 129:0.0 130:0.0 131:0.0 132:0.0 133:0.0 134:0.0 135:0.0 136:0.0 137:0.0 138:0.0 139:0.0 140:0.0 141:0.0 142:0.0 143:0.0 144:0.0 145:0.0 146:0.0 147:0.0 148:0.0 149:0.0 150:0.0 151:0.0 152:0.0 153:0.0 154:0.0 155:0.0 156:0.0 157:0.0 158:0.0 159:0.0 160:0.0 
1.0 1:0.0 2:0.0 3:0.0 4:0.0 5:0.0 6:0.0 7:0.0 8:0.0 9:0.0 10:0.0 11:0.0 12:0.0 13:0.0 14:0.0 15:0.0 16:0.0 17:0.0 18:0.0 19:0.0 20:0.0 21:0.0 22:0.0 23:0.0 24:0.0 25:0.0 26:0.0 27:0.0 28:0.0 29:0.0 30:0.0 31:0.0 32:0.0 33:0.0 34:0.0 35:0.0 36:0.0 37:0.0 38:0.0 39:0.0 40:0.0 41:0.0 42:0.0 43:0.0 44:0.0 45:0.0 46:0.0 47:0.0 48:0.0 49:0.0 50:0.0 51:0.0 52:0.0 53:0.0 54:0.0 55:0.0 56:0.0 57:0.0 58:0.0 59:0.0 60:0.0 61:0.0 62:0.0 63:0.0 64:0.0 65:0.0 66:0.0 67:0.0 68:1.0 69:0.0 70:0.0 71:0.0 72:0.0 73:0.0 74:0.0 75:0.0 76:0.0 77:0.0 78:0.0 79:0.0 80:0.0 81:0.0 82:0.0 83:0.0 84:0.0 85:0.0 86:0.0 87:0.0 88:0.0 89:0.0 90:0.0 91:0.0 92:0.0 93:0.0 94:0.0 95:0.0 96:0.0 97:0.0 98:0.0 99:0.0 100:0.0 101:0.0 102:0.0 103:0.0 104:0.0 105:0.0 106:0.0 107:0.0 108:0.0 109:0.0 110:0.0 111:0.0 112:0.0 113:0.0 114:0.0 115:0.0 116:0.0 117:0.0 118:0.0 119:0.0 120:0.0 121:0.0 122:0.0 123:0.0 124:0.0 125:0.0 126:0.0 127:0.0 128:0.0 129:0.0 130:0.0 131:0.0 132:0.0 133:0.0 134:0.0 135:0.0 136:0.0 137:0.0 138:0.0 139:0.0 140:0.0 141:0.0 142:0.0 143:0.0 144:0.0 145:0.0 146:0.0 147:0.0 148:0.0 149:0.0 150:0.0 151:0.0 152:0.0 153:0.0 154:0.0 155:0.0 156:0.0 157:0.0 158:0.0 159:0.0 160:0.0 
1.0 1:0.0 2:0.0 3:0.0 4:0.0 5:0.0 6:0.0 7:0.0 8:0.0 9:0.0 10:0.0 11:0.0 12:0.0 13:0.0 14:0.0 15:0.0 16:0.0 17:0.0 18:0.0 19:0.0 20:0.0 21:0.0 22:0.0 23:0.0 24:0.0 25:0.0 26:0.0 27:0.0 28:0.0 29:0.0 30:0.0 31:0.0 32:0.0 33:0.0 34:0.0 35:0.0 36:0.0 37:0.0 38:0.0 39:0.0 40:0.0 41:0.0 42:0.0 43:0.0 44:0.0 45:0.0 46:0.0 47:0.0 48:0.0 49:0.0 50:0.0 51:0.0 52:0.0 53:0.0 54:0.0 55:0.0 56:0.0 57:0.0 58:0.0 59:0.0 60:0.0 61:0.0 62:0.0 63:0.0 64:0.0 65:0.0 66:0.0 67:0.0 68:1.0 69:0.0 70:0.0 71:0.0 72:0.0 73:0.0 74:0.0 75:0.0 76:0.0 77:0.0 78:0.0 79:0.0 80:0.0 81:0.0 82:0.0 83:0.0 84:0.0 85:0.0 86:0.0 87:0.0 88:0.0 89:0.0 90:0.0 91:0.0 92:0.0 93:0.0 94:0.0 95:0.0 96:0.0 97:0.0 98:0.0 99:0.0 100:0.0 101:0.0 102:0.0 103:0.0 104:0.0 105:0.0 106:0.0 107:0.0 108:0.0 109:0.0 110:0.0 111:0.0 112:0.0 113:0.0 114:0.0 115:0.0 116:0.0 117:0.0 118:0.0 119:0.0 120:0.0 121:0.0 122:0.0 123:0.0 124:0.0 125:0.0 126:0.0 127:0.0 128:0.0 129:0.0 130:0.0 131:0.0 132:0.0 133:0.0 134:0.0 135:0.0 136:0.0 137:0.0 138:0.0 139:0.0 140:0.0 141:0.0 142:0.0 143:0.0 144:0.0 145:0.0 146:0.0 147:0.0 148:0.0 149:0.0 150:0.0 151:0.0 152:0.0 153:0.0 154:0.0 155:0.0 156:0.0 157:0.0 158:0.0 159:0.0 160:0.0 
1.0 1:0.0 2:0.0 3:0.0 4:0.0 5:0.0 6:0.0 7:0.0 8:0.0 9:0.0 10:0.0 11:0.0 12:0.0 13:0.0 14:0.0 15:0.0 16:0.0 17:0.0 18:0.0 19:0.0 20:0.0 21:0.0 22:0.0 23:0.0 24:0.0 25:0.0 26:0.0 27:0.0 28:0.0 29:0.0 30:0.0 31:0.0 32:0.0 33:0.0 34:0.0 35:0.0 36:0.0 37:0.0 38:0.0 39:0.0 40:0.0 41:0.0 42:0.0 43:0.0 44:0.0 45:0.0 46:0.0 47:0.0 48:0.0 49:0.0 50:0.0 51:0.0 52:0.0 53:0.0 54:0.0 55:0.0 56:0.0 57:0.0 58:0.0 59:0.0 60:0.0 61:0.0 62:0.0 63:0.0 64:0.0 65:0.0 66:0.0 67:0.0 68:1.0 69:0.0 70:0.0 71:0.0 72:0.0 73:0.0 74:0.0 75:0.0 76:0.0 77:0.0 78:0.0 79:0.0 80:0.0 81:0.0 82:0.0 83:0.0 84:0.0 85:0.0 86:0.0 87:0.0 88:0.0 89:0.0 90:0.0 91:0.0 92:0.0 93:0.0 94:0.0 95:0.0 96:0.0 97:0.0 98:0.0 99:0.0 100:0.0 101:0.0 102:0.0 103:0.0 104:0.0 105:0.0 106:0.0 107:0.0 108:0.0 109:0.0 110:0.0 111:0.0 112:0.0 113:0.0 114:0.0 115:0.0 116:0.0 117:0.0 118:0.0 119:0.0 120:0.0 121:0.0 122:0.0 123:0.0 124:0.0 125:0.0 126:0.0 127:0.0 128:0.0 129:0.0 130:0.0 131:0.0 132:0.0 133:0.0 134:0.0 135:0.0 136:0.0 137:0.0 138:0.0 139:0.0 140:0.0 141:0.0 142:0.0 143:0.0 144:0.0 145:0.0 146:0.0 147:0.0 148:0.0 149:0.0 150:0.0 151:0.0 152:0.0 153:0.0 154:0.0 155:0.0 156:0.0 157:0.0 158:0.0 159:0.0 160:0.0 
1.0 1:0.0 2:0.0 3:0.0 4:0.0 5:0.0 6:0.0 7:0.0 8:0.0 9:0.0 10:0.0 11:0.0 12:0.0 13:0.0 14:0.0 15:0.0 16:0.0 17:0.0 18:0.0 19:0.0 20:0.0 21:0.0 22:0.0 23:0.0 24:0.0 25:0.0 26:0.0 27:0.0 28:0.0 29:0.0 30:0.0 31:0.0 32:0.0 33:0.0 34:0.0 35:0.0 36:0.0 37:0.0 38:0.0 39:0.0 40:0.0 41:0.0 42:0.0 43:0.0 44:0.0 45:0.0 46:0.0 47:0.0 48:0.0 49:0.0 50:0.0 51:0.0 52:0.0 53:0.0 54:0.0 55:0.0 56:0.0 57:0.0 58:0.0 59:0.0 60:0.0 61:0.0 62:0.0 63:0.0 64:0.0 65:0.0 66:0.0 67:0.0 68:1.0 69:0.0 70:0.0 71:0.0 72:0.0 73:0.0 74:0.0 75:0.0 76:0.0 77:0.0 78:0.0 79:0.0 80:0.0 81:0.0 82:0.0 83:0.0 84:0.0 85:0.0 86:0.0 87:0.0 88:0.0 89:0.0 90:0.0 91:0.0 92:0.0 93:0.0 94:0.0 95:0.0 96:0.0 97:0.0 98:0.0 99:0.0 100:0.0 101:0.0 102:0.0 103:0.0 104:0.0 105:0.0 106:0.0 107:0.0 108:0.0 109:0.0 110:0.0 111:0.0 112:0.0 113:0.0 114:0.0 115:0.0 116:0.0 117:0.0 118:0.0 119:0.0 120:0.0 121:0.0 122:0.0 123:0.0 124:0.0 125:0.0 126:0.0 127:0.0 128:0.0 129:0.0 130:0.0 131:0.0 132:0.0 133:0.0 134:0.0 135:0.0 136:0.0 137:0.0 138:0.0 139:0.0 140:0.0 141:0.0 142:0.0 143:0.0 144:0.0 145:0.0 146:0.0 147:0.0 148:0.0 149:0.0 150:0.0 151:0.0 152:0.0 153:0.0 154:0.0 155:0.0 156:0.0 157:0.0 158:0.0 159:0.0 160:0.0 
1.0 1:0.0 2:0.0 3:0.0 4:0.0 5:0.0 6:0.0 7:0.0 8:0.0 9:0.0 10:0.0 11:0.0 12:0.0 13:0.0 14:0.0 15:0.0 16:0.0 17:0.0 18:0.0 19:0.0 20:0.0 21:0.0 22:0.0 23:0.0 24:0.0 25:0.0 26:0.0 27:0.0 28:0.0 29:0.0 30:0.0 31:0.0 32:0.0 33:0.0 34:0.0 35:0.0 36:0.0 37:0.0 38:0.0 39:0.0 40:0.0 41:0.0 42:0.0 43:0.0 44:0.0 45:0.0 46:0.0 47:0.0 48:0.0 49:0.0 50:0.0 51:0.0 52:0.0 53:0.0 54:0.0 55:0.0 56:0.0 57:0.0 58:0.0 59:0.0 60:0.0 61:0.0 62:0.0 63:0.0 64:0.0 65:0.0 66:0.0 67:0.0 68:1.0 69:0.0 70:0.0 71:0.0 72:0.0 73:0.0 74:0.0 75:0.0 76:0.0 77:0.0 78:0.0 79:0.0 80:0.0 81:0.0 82:0.0 83:0.0 84:0.0 85:0.0 86:0.0 87:0.0 88:0.0 89:0.0 90:0.0 91:0.0 92:0.0 93:0.0 94:0.0 95:0.0 96:0.0 97:0.0 98:0.0 99:0.0 100:0.0 101:0.0 102:0.0 103:0.0 104:0.0 105:0.0 106:0.0 107:0.0 108:0.0 109:0.0 110:0.0 111:0.0 112:0.0 113:0.0 114:0.0 115:0.0 116:0.0 117:0.0 118:0.0 119:0.0 120:0.0 121:0.0 122:0.0 123:0.0 124:0.0 125:0.0 126:0.0 127:0.0 128:0.0 129:0.0 130:0.0 131:0.0 132:0.0 133:0.0 134:0.0 135:0.0 136:0.0 137:0.0 138:0.0 139:0.0 140:0.0 141:0.0 142:0.0 143:0.0 144:0.0 145:0.0 146:0.0 147:0.0 148:0.0 149:0.0 150:0.0 151:0.0 152:0.0 153:0.0 154:0.0 155:0.0 156:0.0 157:0.0 158:0.0 159:0.0 160:0.0 
1.0 1:0.0 2:0.0 3:0.0 4:0.0 5:0.0 6:0.0 7:0.0 8:0.0 9:0.0 10:0.0 11:0.0 12:0.0 13:0.0 14:0.0 15:0.0 16:0.0 17:0.0 18:0.0 19:0.0 20:0.0 21:0.0 22:0.0 23:0.0 24:0.0 25:0.0 26:0.0 27:0.0 28:0.0 29:0.0 30:0.0 31:0.0 32:0.0 33:0.0 34:0.0 35:0.0 36:0.0 37:0.0 38:0.0 39:0.0 40:0.0 41:0.0 42:0.0 43:0.0 44:0.0 45:0.0 46:0.0 47:0.0 48:0.0 49:0.0 50:0.0 51:0.0 52:0.0 53:0.0 54:0.0 55:0.0 56:0.0 57:0.0 58:0.0 59:0.0 60:0.0 61:0.0 62:0.0 63:0.0 64:0.0 65:0.0 66:0.0 67:0.0 68:1.0 69:0.0 70:0.0 71:0.0 72:0.0 73:0.0 74:0.0 75:0.0 76:0.0 77:0.0 78:0.0 79:0.0 80:0.0 81:0.0 82:0.0 83:0.0 84:0.0 85:0.0 86:0.0 87:0.0 88:0.0 89:0.0 90:0.0 91:0.0 92:0.0 93:0.0 94:0.0 95:0.0 96:0.0 97:0.0 98:0.0 99:0.0 100:0.0 101:0.0 102:0.0 103:0.0 104:0.0 105:0.0 106:0.0 107:0.0 108:0.0 109:0.0 110:0.0 111:0.0 112:0.0 113:0.0 114:0.0 115:0.0 116:0.0 117:0.0 118:0.0 119:0.0 120:0.0 121:0.0 122:0.0 123:0.0 124:0.0 125:0.0 126:0.0 127:0.0 128:0.0 129:0.0 130:0.0 131:0.0 132:0.0 133:0.0 134:0.0 135:0.0 136:0.0 137:0.0 138:0.0 139:0.0 140:0.0 141:0.0 142:0.0 143:0.0 144:0.0 145:0.0 146:0.0 147:0.0 148:0.0 149:0.0 150:0.0 151:0.0 152:0.0 153:0.0 154:0.0 155:0.0 156:0.0 157:0.0 158:0.0 159:0.0 160:0.0 
1.0 1:0.0 2:0.0 3:0.0 4:0.0 5:0.0 6:0.0 7:0.0 8:0.0 9:0.0 10:0.0 11:0.0 12:0.0 13:0.0 14:0.0 15:0.0 16:0.0 17:0.0 18:0.0 19:0.0 20:0.0 21:0.0 22:0.0 23:0.0 24:0.0 25:0.0 26:0.0 27:0.0 28:0.0 29:0.0 30:0.0 31:0.0 32:0.0 33:0.0 34:0.0 35:0.0 36:0.0 37:0.0 38:0.0 39:0.0 40:0.0 41:0.0 42:0.0 43:0.0 44:0.0 45:0.0 46:0.0 47:0.0 48:0.0 49:0.0 50:0.0 51:0.0 52:0.0 53:0.0 54:0.0 55:0.0 56:0.0 57:0.0 58:0.0 59:0.0 60:0.0 61:0.0 62:0.0 63:0.0 64:0.0 65:0.0 66:0.0 67:0.0 68:1.0 69:0.0 70:0.0 71:0.0 72:0.0 73:0.0 74:0.0 75:0.0 76:0.0 77:0.0 78:0.0 79:0.0 80:0.0 81:0.0 82:0.0 83:0.0 84:0.0 85:0.0 86:0.0 87:0.0 88:0.0 89:0.0 90:0.0 91:0.0 92:0.0 93:0.0 94:0.0 95:0.0 96:0.0 97:0.0 98:0.0 99:0.0 100:0.0 101:0.0 102:0.0 103:0.0 104:0.0 105:0.0 106:0.0 107:0.0 108:0.0 109:0.0 110:0.0 111:0.0 112:0.0 113:0.0 114:0.0 115:0.0 116:0.0 117:0.0 118:0.0 119:0.0 120:0.0 121:0.0 122:0.0 123:0.0 124:0.0 125:0.0 126:0.0 127:0.0 128:0.0 129:0.0 130:0.0 131:0.0 132:0.0 133:0.0 134:0.0 135:0.0 136:0.0 137:0.0 138:0.0 139:0.0 140:0.0 141:0.0 142:0.0 143:0.0 144:0.0 145:0.0 146:0.0 147:0.0 148:0.0 149:0.0 150:0.0 151:0.0 152:0.0 153:0.0 154:0.0 155:0.0 156:0.0 157:0.0 158:0.0 159:0.0 160:0.0 
1.0 1:0.0 2:0.0 3:0.0 4:0.0 5:0.0 6:0.0 7:0.0 8:0.0 9:0.0 10:0.0 11:0.0 12:0.0 13:0.0 14:0.0 15:0.0 16:0.0 17:0.0 18:0.0 19:0.0 20:0.0 21:0.0 22:0.0 23:0.0 24:0.0 25:0.0 26:0.0 27:0.0 28:0.0 29:0.0 30:0.0 31:0.0 32:0.0 33:0.0 34:0.0 35:0.0 36:0.0 37:0.0 38:0.0 39:0.0 40:0.0 41:0.0 42:0.0 43:0.0 44:0.0 45:0.0 46:0.0 47:0.0 48:0.0 49:0.0 50:0.0 51:0.0 52:0.0 53:0.0 54:0.0 55:0.0 56:0.0 57:0.0 58:0.0 59:0.0 60:0.0 61:0.0 62:0.0 63:0.0 64:0.0 65:0.0 66:0.0 67:0.0 68:1.0 69:0.0 70:0.0 71:0.0 72:0.0 73:0.0 74:0.0 75:0.0 76:0.0 77:0.0 78:0.0 79:0.0 80:0.0 81:0.0 82:0.0 83:0.0 84:0.0 85:0.0 86:0.0 87:0.0 88:0.0 89:0.0 90:0.0 91:0.0 92:0.0 93:0.0 94:0.0 95:0.0 96:0.0 97:0.0 98:0.0 99:0.0 100:0.0 101:0.0 102:0.0 103:0.0 104:0.0 105:0.0 106:0.0 107:0.0 108:0.0 109:0.0 110:0.0 111:0.0 112:0.0 113:0.0 114:0.0 115:0.0 116:0.0 117:0.0 118:0.0 119:0.0 120:0.0 121:0.0 122:0.0 123:0.0 124:0.0 125:0.0 126:0.0 127:0.0 128:0.0 129:0.0 130:0.0 131:0.0 132:0.0 133:0.0 134:0.0 135:0.0 136:0.0 137:0.0 138:0.0 139:0.0 140:0.0 141:0.0 142:0.0 143:0.0 144:0.0 145:0.0 146:0.0 147:0.0 148:0.0 149:0.0 150:0.0 151:0.0 152:0.0 153:0.0 154:0.0 155:0.0 156:0.0 157:0.0 158:0.0 159:0.0 160:0.0 
1.0 1:0.0 2:0.0 3:0.0 4:0.0 5:0.0 6:0.0 7:0.0 8:0.0 9:0.0 10:0.0 11:0.0 12:0.0 13:0.0 14:0.0 15:0.0 16:0.0 17:0.0 18:0.0 19:0.0 20:0.0 21:0.0 22:0.0 23:0.0 24:0.0 25:0.0 26:0.0 27:0.0 28:0.0 29:0.0 30:0.0 31:0.0 32:0.0 33:0.0 34:0.0 35:0.0 36:0.0 37:0.0 38:0.0 39:0.0 40:0.0 41:0.0 42:0.0 43:0.0 44:0.0 45:0.0 46:0.0 47:0.0 48:0.0 49:0.0 50:0.0 51:0.0 52:0.0 53:0.0 54:0.0 55:0.0 56:0.0 57:0.0 58:0.0 59:0.0 60:0.0 61:0.0 62:0.0 63:0.0 64:0.0 65:0.0 66:0.0 67:0.0 68:1.0 69:0.0 70:0.0 71:0.0 72:0.0 73:0.0 74:0.0 75:0.0 76:0.0 77:0.0 78:0.0 79:0.0 80:0.0 81:0.0 82:0.0 83:0.0 84:0.0 85:0.0 86:0.0 87:0.0 88:0.0 89:0.0 90:0.0 91:0.0 92:0.0 93:0.0 94:0.0 95:0.0 96:0.0 97:0.0 98:0.0 99:0.0 100:0.0 101:0.0 102:0.0 103:0.0 104:0.0 105:0.0 106:0.0 107:0.0 108:0.0 109:0.0 110:0.0 111:0.0 112:0.0 113:0.0 114:0.0 115:0.0 116:0.0 117:0.0 118:0.0 119:0.0 120:0.0 121:0.0 122:0.0 123:0.0 124:0.0 125:0.0 126:0.0 127:0.0 128:0.0 129:0.0 130:0.0 131:0.0 132:0.0 133:0.0 134:0.0 135:0.0 136:0.0 137:0.0 138:0.0 139:0.0 140:0.0 141:0.0 142:0.0 143:0.0 144:0.0 145:0.0 146:0.0 147:0.0 148:0.0 149:0.0 150:0.0 151:0.0 152:0.0 153:0.0 154:0.0 155:0.0 156:0.0 157:0.0 158:0.0 159:0.0 160:0.0 
1.0 1:0.0 2:0.0 3:0.0 4:0.0 5:0.0 6:0.0 7:0.0 8:0.0 9:0.0 10:0.0 11:0.0 12:0.0 13:0.0 14:0.0 15:0.0 16:0.0 17:0.0 18:0.0 19:0.0 20:0.0 21:0.0 22:0.0 23:0.0 24:0.0 25:0.0 26:0.0 27:0.0 28:0.0 29:0.0 30:0.0 31:0.0 32:0.0 33:0.0 34:0.0 35:0.0 36:0.0 37:0.0 38:0.0 39:0.0 40:0.0 41:0.0 42:0.0 43:0.0 44:0.0 45:0.0 46:0.0 47:0.0 48:0.0 49:0.0 50:0.0 51:0.0 52:0.0 53:0.0 54:0.0 55:0.0 56:0.0 57:0.0 58:0.0 59:0.0 60:0.0 61:0.0 62:0.0 63:0.0 64:0.0 65:0.0 66:0.0 67:0.0 68:1.0 69:0.0 70:0.0 71:0.0 72:0.0 73:0.0 74:0.0 75:0.0 76:0.0 77:0.0 78:0.0 79:0.0 80:0.0 81:0.0 82:0.0 83:0.0 84:0.0 85:0.0 86:0.0 87:0.0 88:0.0 89:0.0 90:0.0 91:0.0 92:0.0 93:0.0 94:0.0 95:0.0 96:0.0 97:0.0 98:0.0 99:0.0 100:0.0 101:0.0 102:0.0 103:0.0 104:0.0 105:0.0 106:0.0 107:0.0 108:0.0 109:0.0 110:0.0 111:0.0 112:0.0 113:0.0 114:0.0 115:0.0 116:0.0 117:0.0 118:0.0 119:0.0 120:0.0 121:0.0 122:0.0 123:0.0 124:0.0 125:0.0 126:0.0 127:0.0 128:0.0 129:0.0 130:0.0 131:0.0 132:0.0 133:0.0 134:0.0 135:0.0 136:0.0 137:0.0 138:0.0 139:0.0 140:0.0 141:0.0 142:0.0 143:0.0 144:0.0 145:0.0 146:0.0 147:0.0 148:0.0 149:0.0 150:0.0 151:0.0 152:0.0 153:0.0 154:0.0 155:0.0 156:0.0 157:0.0 158:0.0 159:0.0 160:0.0 
1.0 1:0.003316749585406302 2:0.014925373134328358 3:0.003316749585406302 4:0.0 5:0.0 6:0.001658374792703151 7:0.003316749585406302 8:0.001658374792703151 9:0.028192371475953566 10:0.0 11:0.0 12:0.0 13:0.0 14:0.0 15:0.0 16:0.0 17:0.001658374792703151 18:0.0 19:0.0 20:0.001658374792703151 21:0.0 22:0.001658374792703151 23:0.001658374792703151 24:0.001658374792703151 25:0.003316749585406302 26:0.0 27:0.0 28:0.004975124378109453 29:0.0 30:0.0 31:0.0 32:0.001658374792703151 33:0.011608623548922056 34:0.0 35:0.0 36:0.001658374792703151 37:0.001658374792703151 38:0.0 39:0.0 40:0.003316749585406302 41:0.0 42:0.0 43:0.0 44:0.0 45:0.0 46:0.0 47:0.0 48:0.001658374792703151 49:0.0 50:0.0 51:0.0 52:0.0 53:0.0 54:0.0 55:0.0 56:0.0 57:0.0 58:0.001658374792703151 59:0.003316749585406302 60:0.0 61:0.0 62:0.0 63:0.0 64:0.0 65:0.003316749585406302 66:0.0 67:0.001658374792703151 68:0.5439469320066335 69:0.003316749585406302 70:0.0 71:0.004975124378109453 72:0.004975124378109453 73:0.0 74:0.0 75:0.0 76:0.006633499170812604 77:0.003316749585406302 78:0.0 79:0.0 80:0.0 81:0.0 82:0.0 83:0.008291873963515755 84:0.0 85:0.0 86:0.0 87:0.0 88:0.001658374792703151 89:0.0 90:0.0 91:0.001658374792703151 92:0.0 93:0.001658374792703151 94:0.0 95:0.0 96:0.001658374792703151 97:0.003316749585406302 98:0.0 99:0.001658374792703151 100:0.0 101:0.0 102:0.0 103:0.0 104:0.0 105:0.0 106:0.003316749585406302 107:0.0 108:0.0 109:0.001658374792703151 110:0.0 111:0.0 112:0.0 113:0.003316749585406302 114:0.0 115:0.003316749585406302 116:0.18076285240464346 117:0.0 118:0.001658374792703151 119:0.0 120:0.0 121:0.014925373134328358 122:0.004975124378109453 123:0.003316749585406302 124:0.0 125:0.03150912106135987 126:0.0 127:0.003316749585406302 128:0.0 129:0.0 130:0.001658374792703151 131:0.003316749585406302 132:0.0 133:0.008291873963515755 134:0.0 135:0.0 136:0.0 137:0.0 138:0.0 139:0.0 140:0.013266998341625208 141:0.0 142:0.0 143:0.0 144:0.0 145:0.003316749585406302 146:0.003316749585406302 147:0.0 148:0.009950248756218905 149:0.0 150:0.0 151:0.004975124378109453 152:0.0 153:0.003316749585406302 154:0.0 155:0.001658374792703151 156:0.0 157:0.0 158:0.001658374792703151 159:0.0 160:0.001658374792703151 
1.0 1:0.007434944237918215 2:0.011152416356877323 3:0.007434944237918215 4:0.0037174721189591076 5:0.0 6:0.007434944237918215 7:0.0 8:0.0037174721189591076 9:0.01486988847583643 10:0.0 11:0.0 12:0.0 13:0.0 14:0.0 15:0.0037174721189591076 16:0.0037174721189591076 17:0.0 18:0.0 19:0.0037174721189591076 20:0.0 21:0.0 22:0.0037174721189591076 23:0.0 24:0.0 25:0.0 26:0.0 27:0.0 28:0.011152416356877323 29:0.0 30:0.0 31:0.0 32:0.0 33:0.011152416356877323 34:0.0 35:0.0 36:0.0 37:0.0037174721189591076 38:0.0 39:0.0 40:0.0037174721189591076 41:0.0 42:0.0 43:0.007434944237918215 44:0.0 45:0.0037174721189591076 46:0.0037174721189591076 47:0.0 48:0.0 49:0.007434944237918215 50:0.0 51:0.0037174721189591076 52:0.0 53:0.0 54:0.0 55:0.0 56:0.0 57:0.0 58:0.0 59:0.0037174721189591076 60:0.0 61:0.0 62:0.0 63:0.0 64:0.0 65:0.0037174721189591076 66:0.0 67:0.0037174721189591076 68:0.6617100371747212 69:0.0 70:0.0037174721189591076 71:0.0 72:0.01486988847583643 73:0.0 74:0.0 75:0.0 76:0.0 77:0.0 78:0.0 79:0.0037174721189591076 80:0.0 81:0.0 82:0.0 83:0.0 84:0.0 85:0.0 86:0.0 87:0.0 88:0.0037174721189591076 89:0.0 90:0.0 91:0.0 92:0.0 93:0.0 94:0.0 95:0.0037174721189591076 96:0.0 97:0.0037174721189591076 98:0.0 99:0.0 100:0.0 101:0.0 102:0.0 103:0.0 104:0.0 105:0.0037174721189591076 106:0.0 107:0.0 108:0.0 109:0.0 110:0.0 111:0.0 112:0.0 113:0.0 114:0.0 115:0.01486988847583643 116:0.022304832713754646 117:0.0 118:0.0 119:0.0 120:0.0 121:0.0037174721189591076 122:0.0037174721189591076 123:0.0 124:0.0 125:0.05204460966542751 126:0.0 127:0.0 128:0.0 129:0.0 130:0.0037174721189591076 131:0.0037174721189591076 132:0.0037174721189591076 133:0.007434944237918215 134:0.0 135:0.0 136:0.0 137:0.0 138:0.0 139:0.0 140:0.007434944237918215 141:0.0 142:0.0 143:0.0 144:0.0 145:0.0037174721189591076 146:0.0037174721189591076 147:0.0 148:0.0 149:0.0 150:0.0 151:0.01858736059479554 152:0.0037174721189591076 153:0.0 154:0.0 155:0.0037174721189591076 156:0.0 157:0.0 158:0.007434944237918215 159:0.0 160:0.0 
1.0 1:0.01532567049808429 2:0.0 3:0.007662835249042145 4:0.0 5:0.0038314176245210726 6:0.0 7:0.0 8:0.0038314176245210726 9:0.0 10:0.0 11:0.0038314176245210726 12:0.0 13:0.0 14:0.0038314176245210726 15:0.0 16:0.02681992337164751 17:0.011494252873563218 18:0.0 19:0.0 20:0.0 21:0.0 22:0.0 23:0.0 24:0.0038314176245210726 25:0.007662835249042145 26:0.0 27:0.0 28:0.0 29:0.0 30:0.007662835249042145 31:0.0 32:0.0038314176245210726 33:0.0 34:0.0 35:0.0 36:0.0 37:0.01532567049808429 38:0.0 39:0.0 40:0.0038314176245210726 41:0.0 42:0.0 43:0.011494252873563218 44:0.0 45:0.0 46:0.0038314176245210726 47:0.0 48:0.0 49:0.0 50:0.0 51:0.0038314176245210726 52:0.0 53:0.0 54:0.0 55:0.0038314176245210726 56:0.0 57:0.0 58:0.0038314176245210726 59:0.007662835249042145 60:0.0 61:0.0 62:0.0 63:0.0038314176245210726 64:0.0038314176245210726 65:0.0 66:0.0 67:0.0 68:0.7701149425287356 69:0.0038314176245210726 70:0.007662835249042145 71:0.0 72:0.0 73:0.0 74:0.0 75:0.0 76:0.0 77:0.0 78:0.0 79:0.0 80:0.0 81:0.0 82:0.0 83:0.0 84:0.0 85:0.0 86:0.0 87:0.0 88:0.0 89:0.0 90:0.0038314176245210726 91:0.0 92:0.0 93:0.0 94:0.0 95:0.007662835249042145 96:0.0038314176245210726 97:0.0038314176245210726 98:0.0 99:0.0 100:0.0 101:0.0 102:0.0 103:0.0 104:0.0 105:0.007662835249042145 106:0.0 107:0.0 108:0.0 109:0.0 110:0.0 111:0.0 112:0.0 113:0.0038314176245210726 114:0.0 115:0.0 116:0.0 117:0.0 118:0.0 119:0.0 120:0.0 121:0.0 122:0.0 123:0.0 124:0.0 125:0.0 126:0.0 127:0.0038314176245210726 128:0.0 129:0.0038314176245210726 130:0.0 131:0.0 132:0.0038314176245210726 133:0.0 134:0.0 135:0.0 136:0.0 137:0.0 138:0.0 139:0.0 140:0.0 141:0.0 142:0.0 143:0.0 144:0.0 145:0.0 146:0.0 147:0.0 148:0.0 149:0.0 150:0.0 151:0.0 152:0.007662835249042145 153:0.0 154:0.0 155:0.0 156:0.0 157:0.0 158:0.007662835249042145 159:0.0 160:0.0 
1.0 1:0.0022026431718061676 2:0.0022026431718061676 3:0.0 4:0.0 5:0.006607929515418502 6:0.0 7:0.0 8:0.0 9:0.039647577092511016 10:0.0 11:0.004405286343612335 12:0.0 13:0.0 14:0.015418502202643172 15:0.0 16:0.0022026431718061676 17:0.00881057268722467 18:0.0 19:0.006607929515418502 20:0.0022026431718061676 21:0.0 22:0.006607929515418502 23:0.019823788546255508 24:0.006607929515418502 25:0.006607929515418502 26:0.0 27:0.0 28:0.019823788546255508 29:0.0 30:0.0022026431718061676 31:0.00881057268722467 32:0.0 33:0.00881057268722467 34:0.0 35:0.0 36:0.006607929515418502 37:0.00881057268722467 38:0.0 39:0.0 40:0.006607929515418502 41:0.0 42:0.0 43:0.006607929515418502 44:0.0 45:0.006607929515418502 46:0.006607929515418502 47:0.0 48:0.013215859030837005 49:0.004405286343612335 50:0.004405286343612335 51:0.0022026431718061676 52:0.0 53:0.0022026431718061676 54:0.0 55:0.0 56:0.0 57:0.0 58:0.013215859030837005 59:0.0 60:0.0 61:0.0 62:0.0 63:0.0 64:0.0 65:0.004405286343612335 66:0.0 67:0.0 68:0.41629955947136565 69:0.013215859030837005 70:0.006607929515418502 71:0.013215859030837005 72:0.03524229074889868 73:0.0 74:0.0 75:0.0 76:0.006607929515418502 77:0.011013215859030838 78:0.004405286343612335 79:0.0 80:0.0 81:0.0 82:0.0 83:0.011013215859030838 84:0.0 85:0.0022026431718061676 86:0.0 87:0.0 88:0.0022026431718061676 89:0.0 90:0.0 91:0.006607929515418502 92:0.0 93:0.004405286343612335 94:0.0 95:0.0022026431718061676 96:0.0022026431718061676 97:0.006607929515418502 98:0.0 99:0.0 100:0.0 101:0.0 102:0.0022026431718061676 103:0.0 104:0.0 105:0.0 106:0.004405286343612335 107:0.0 108:0.0 109:0.004405286343612335 110:0.0 111:0.0 112:0.0 113:0.0 114:0.0 115:0.0022026431718061676 116:0.01762114537444934 117:0.00881057268722467 118:0.0 119:0.0 120:0.0 121:0.013215859030837005 122:0.004405286343612335 123:0.006607929515418502 124:0.0 125:0.02643171806167401 126:0.0 127:0.004405286343612335 128:0.0 129:0.0 130:0.0022026431718061676 131:0.00881057268722467 132:0.019823788546255508 133:0.006607929515418502 134:0.0 135:0.0 136:0.0 137:0.0 138:0.0 139:0.0022026431718061676 140:0.013215859030837005 141:0.0 142:0.0 143:0.0 144:0.0 145:0.0 146:0.0022026431718061676 147:0.0 148:0.004405286343612335 149:0.0 150:0.0 151:0.028634361233480177 152:0.004405286343612335 153:0.0022026431718061676 154:0.0 155:0.0 156:0.0 157:0.0 158:0.006607929515418502 159:0.0 160:0.004405286343612335 
1.0 1:0.009280742459396751 2:0.002320185614849188 3:0.0069605568445475635 4:0.0 5:0.0 6:0.0 7:0.0069605568445475635 8:0.0 9:0.030162412993039442 10:0.0 11:0.0 12:0.0 13:0.0 14:0.0 15:0.0 16:0.0 17:0.0 18:0.0 19:0.0 20:0.0 21:0.0 22:0.0 23:0.0 24:0.0 25:0.0 26:0.0 27:0.0 28:0.002320185614849188 29:0.0 30:0.0 31:0.002320185614849188 32:0.0 33:0.01160092807424594 34:0.0 35:0.0 36:0.0 37:0.002320185614849188 38:0.0 39:0.0 40:0.0 41:0.0 42:0.0 43:0.0069605568445475635 44:0.0 45:0.0 46:0.002320185614849188 47:0.0 48:0.0 49:0.0 50:0.0 51:0.0 52:0.02320185614849188 53:0.0 54:0.0 55:0.0 56:0.0 57:0.0 58:0.0 59:0.002320185614849188 60:0.0 61:0.0 62:0.0 63:0.0 64:0.0 65:0.0 66:0.0 67:0.0 68:0.6844547563805105 69:0.0 70:0.002320185614849188 71:0.002320185614849188 72:0.002320185614849188 73:0.0 74:0.0 75:0.0 76:0.018561484918793503 77:0.0 78:0.0 79:0.0 80:0.0 81:0.0 82:0.0 83:0.002320185614849188 84:0.0 85:0.002320185614849188 86:0.0 87:0.0 88:0.0 89:0.0 90:0.0 91:0.0 92:0.0 93:0.0 94:0.0 95:0.002320185614849188 96:0.0 97:0.0 98:0.0 99:0.0 100:0.0 101:0.0 102:0.0 103:0.0 104:0.0 105:0.0 106:0.0 107:0.0 108:0.0 109:0.0 110:0.0 111:0.0 112:0.0 113:0.0 114:0.004640371229698376 115:0.004640371229698376 116:0.07192575406032482 117:0.0 118:0.0 119:0.0 120:0.0 121:0.0 122:0.0 123:0.004640371229698376 124:0.0 125:0.048723897911832945 126:0.0 127:0.01160092807424594 128:0.0 129:0.0 130:0.002320185614849188 131:0.002320185614849188 132:0.0 133:0.0 134:0.0 135:0.0 136:0.0 137:0.0 138:0.0 139:0.0 140:0.004640371229698376 141:0.0 142:0.0 143:0.0 144:0.0 145:0.0 146:0.0 147:0.0 148:0.004640371229698376 149:0.0 150:0.0 151:0.004640371229698376 152:0.0 153:0.0 154:0.0 155:0.002320185614849188 156:0.0 157:0.0 158:0.002320185614849188 159:0.0 160:0.004640371229698376 
1.0 1:0.0035087719298245615 2:0.008771929824561403 3:0.0 4:0.0 5:0.007017543859649123 6:0.0 7:0.007017543859649123 8:0.0 9:0.012280701754385965 10:0.0 11:0.0017543859649122807 12:0.0 13:0.0 14:0.005263157894736842 15:0.0 16:0.005263157894736842 17:0.008771929824561403 18:0.0 19:0.0017543859649122807 20:0.005263157894736842 21:0.0 22:0.0017543859649122807 23:0.005263157894736842 24:0.0017543859649122807 25:0.007017543859649123 26:0.0 27:0.0 28:0.017543859649122806 29:0.0 30:0.0017543859649122807 31:0.0035087719298245615 32:0.0 33:0.007017543859649123 34:0.0 35:0.0 36:0.007017543859649123 37:0.008771929824561403 38:0.0 39:0.0 40:0.007017543859649123 41:0.0 42:0.0 43:0.007017543859649123 44:0.0 45:0.0035087719298245615 46:0.007017543859649123 47:0.0 48:0.005263157894736842 49:0.007017543859649123 50:0.005263157894736842 51:0.0017543859649122807 52:0.0 53:0.0035087719298245615 54:0.0 55:0.0 56:0.0 57:0.0 58:0.008771929824561403 59:0.0 60:0.0 61:0.0 62:0.0 63:0.0017543859649122807 64:0.0 65:0.0 66:0.0 67:0.0 68:0.5526315789473685 69:0.008771929824561403 70:0.007017543859649123 71:0.015789473684210527 72:0.03333333333333333 73:0.0 74:0.0 75:0.0 76:0.008771929824561403 77:0.005263157894736842 78:0.0017543859649122807 79:0.0017543859649122807 80:0.0 81:0.0 82:0.0 83:0.008771929824561403 84:0.0 85:0.0017543859649122807 86:0.0 87:0.0 88:0.007017543859649123 89:0.0017543859649122807 90:0.0 91:0.012280701754385965 92:0.0 93:0.007017543859649123 94:0.0 95:0.0017543859649122807 96:0.0 97:0.007017543859649123 98:0.0 99:0.0 100:0.0 101:0.0 102:0.0017543859649122807 103:0.0 104:0.0 105:0.0017543859649122807 106:0.005263157894736842 107:0.0 108:0.0 109:0.005263157894736842 110:0.0 111:0.0 112:0.0 113:0.0 114:0.0017543859649122807 115:0.0035087719298245615 116:0.0 117:0.012280701754385965 118:0.0 119:0.0 120:0.0 121:0.005263157894736842 122:0.005263157894736842 123:0.007017543859649123 124:0.0 125:0.008771929824561403 126:0.0 127:0.005263157894736842 128:0.0 129:0.0 130:0.0035087719298245615 131:0.0017543859649122807 132:0.015789473684210527 133:0.015789473684210527 134:0.0 135:0.0 136:0.0 137:0.0 138:0.0 139:0.0 140:0.005263157894736842 141:0.0 142:0.0 143:0.0 144:0.0 145:0.0 146:0.0017543859649122807 147:0.0 148:0.0035087719298245615 149:0.0 150:0.0 151:0.0035087719298245615 152:0.0035087719298245615 153:0.007017543859649123 154:0.0 155:0.0 156:0.0 157:0.0 158:0.0035087719298245615 159:0.0 160:0.0035087719298245615 
1.0 1:0.014198782961460446 2:0.0 3:0.0 4:0.0 5:0.0 6:0.0 7:0.0 8:0.0 9:0.002028397565922921 10:0.0 11:0.004056795131845842 12:0.0 13:0.0 14:0.0 15:0.0 16:0.0 17:0.002028397565922921 18:0.0 19:0.002028397565922921 20:0.0 21:0.0 22:0.008113590263691683 23:0.002028397565922921 24:0.002028397565922921 25:0.002028397565922921 26:0.0 27:0.002028397565922921 28:0.004056795131845842 29:0.0 30:0.0 31:0.0 32:0.0 33:0.0 34:0.0 35:0.0 36:0.0 37:0.002028397565922921 38:0.0 39:0.0 40:0.002028397565922921 41:0.0 42:0.0 43:0.002028397565922921 44:0.0 45:0.002028397565922921 46:0.002028397565922921 47:0.0 48:0.004056795131845842 49:0.0 50:0.004056795131845842 51:0.0 52:0.0 53:0.0 54:0.0 55:0.0 56:0.0 57:0.002028397565922921 58:0.004056795131845842 59:0.002028397565922921 60:0.0 61:0.0 62:0.0 63:0.002028397565922921 64:0.0 65:0.0 66:0.0 67:0.002028397565922921 68:0.768762677484787 69:0.002028397565922921 70:0.004056795131845842 71:0.002028397565922921 72:0.010141987829614604 73:0.0 74:0.0 75:0.0 76:0.0 77:0.002028397565922921 78:0.0 79:0.0 80:0.0 81:0.0 82:0.004056795131845842 83:0.002028397565922921 84:0.0 85:0.002028397565922921 86:0.0 87:0.0 88:0.0 89:0.0 90:0.0 91:0.0 92:0.0 93:0.0 94:0.0 95:0.002028397565922921 96:0.002028397565922921 97:0.004056795131845842 98:0.0 99:0.002028397565922921 100:0.0 101:0.0 102:0.0 103:0.0 104:0.0 105:0.0 106:0.014198782961460446 107:0.0 108:0.0 109:0.0 110:0.0 111:0.0 112:0.002028397565922921 113:0.004056795131845842 114:0.0 115:0.0 116:0.002028397565922921 117:0.002028397565922921 118:0.0 119:0.0 120:0.0 121:0.004056795131845842 122:0.0 123:0.0 124:0.0 125:0.0 126:0.0 127:0.006085192697768763 128:0.004056795131845842 129:0.002028397565922921 130:0.002028397565922921 131:0.018255578093306288 132:0.002028397565922921 133:0.002028397565922921 134:0.0 135:0.0 136:0.0 137:0.0 138:0.0 139:0.0 140:0.02636916835699797 141:0.0 142:0.0 143:0.0 144:0.0 145:0.0 146:0.004056795131845842 147:0.0 148:0.002028397565922921 149:0.0 150:0.0 151:0.006085192697768763 152:0.0 153:0.002028397565922921 154:0.0 155:0.004056795131845842 156:0.0 157:0.0 158:0.006085192697768763 159:0.0 160:0.002028397565922921 
1.0 1:0.01652892561983471 2:0.0 3:0.002066115702479339 4:0.002066115702479339 5:0.0 6:0.0 7:0.0 8:0.0 9:0.002066115702479339 10:0.0 11:0.004132231404958678 12:0.0 13:0.0 14:0.0 15:0.0 16:0.0 17:0.002066115702479339 18:0.0 19:0.002066115702479339 20:0.0 21:0.0 22:0.008264462809917356 23:0.002066115702479339 24:0.002066115702479339 25:0.002066115702479339 26:0.0 27:0.002066115702479339 28:0.004132231404958678 29:0.0 30:0.0 31:0.0 32:0.0 33:0.0 34:0.0 35:0.0 36:0.0 37:0.002066115702479339 38:0.0 39:0.0 40:0.002066115702479339 41:0.0 42:0.0 43:0.002066115702479339 44:0.0 45:0.002066115702479339 46:0.002066115702479339 47:0.0 48:0.006198347107438017 49:0.0 50:0.004132231404958678 51:0.0 52:0.0 53:0.0 54:0.0 55:0.002066115702479339 56:0.0 57:0.002066115702479339 58:0.004132231404958678 59:0.002066115702479339 60:0.0 61:0.0 62:0.0 63:0.002066115702479339 64:0.0 65:0.0 66:0.0 67:0.002066115702479339 68:0.7520661157024794 69:0.002066115702479339 70:0.004132231404958678 71:0.002066115702479339 72:0.010330578512396695 73:0.0 74:0.0 75:0.0 76:0.0 77:0.002066115702479339 78:0.0 79:0.0 80:0.0 81:0.0 82:0.004132231404958678 83:0.002066115702479339 84:0.0 85:0.002066115702479339 86:0.0 87:0.0 88:0.0 89:0.0 90:0.0 91:0.0 92:0.0 93:0.0 94:0.0 95:0.002066115702479339 96:0.002066115702479339 97:0.004132231404958678 98:0.0 99:0.002066115702479339 100:0.0 101:0.0 102:0.0 103:0.0 104:0.0 105:0.0 106:0.014462809917355372 107:0.0 108:0.0 109:0.0 110:0.0 111:0.0 112:0.002066115702479339 113:0.004132231404958678 114:0.0 115:0.0 116:0.004132231404958678 117:0.002066115702479339 118:0.0 119:0.0 120:0.0 121:0.004132231404958678 122:0.0 123:0.0 124:0.0 125:0.0 126:0.0 127:0.006198347107438017 128:0.004132231404958678 129:0.002066115702479339 130:0.002066115702479339 131:0.01859504132231405 132:0.002066115702479339 133:0.002066115702479339 134:0.0 135:0.0 136:0.0 137:0.0 138:0.0 139:0.0 140:0.026859504132231406 141:0.0 142:0.0 143:0.0 144:0.0 145:0.0 146:0.004132231404958678 147:0.0 148:0.002066115702479339 149:0.0 150:0.0 151:0.006198347107438017 152:0.0 153:0.002066115702479339 154:0.0 155:0.004132231404958678 156:0.0 157:0.0 158:0.006198347107438017 159:0.0 160:0.002066115702479339 
1.0 1:0.014227642276422764 2:0.0 3:0.0 4:0.0 5:0.0 6:0.0 7:0.0 8:0.0 9:0.0020325203252032522 10:0.0 11:0.0040650406504065045 12:0.0 13:0.0 14:0.0 15:0.0 16:0.0 17:0.0020325203252032522 18:0.0 19:0.0020325203252032522 20:0.0 21:0.0 22:0.008130081300813009 23:0.0020325203252032522 24:0.0020325203252032522 25:0.0020325203252032522 26:0.0 27:0.0020325203252032522 28:0.0040650406504065045 29:0.0 30:0.0 31:0.0 32:0.0 33:0.0 34:0.0 35:0.0 36:0.0 37:0.0020325203252032522 38:0.0 39:0.0 40:0.0020325203252032522 41:0.0 42:0.0 43:0.0020325203252032522 44:0.0 45:0.0020325203252032522 46:0.0020325203252032522 47:0.0 48:0.0040650406504065045 49:0.0 50:0.0040650406504065045 51:0.0 52:0.0 53:0.0 54:0.0 55:0.0 56:0.0 57:0.0020325203252032522 58:0.0040650406504065045 59:0.0020325203252032522 60:0.0 61:0.0 62:0.0 63:0.0020325203252032522 64:0.0 65:0.0 66:0.0 67:0.0020325203252032522 68:0.7682926829268293 69:0.0020325203252032522 70:0.0040650406504065045 71:0.0020325203252032522 72:0.01016260162601626 73:0.0 74:0.0 75:0.0 76:0.0 77:0.0020325203252032522 78:0.0 79:0.0 80:0.0 81:0.0 82:0.0040650406504065045 83:0.0020325203252032522 84:0.0 85:0.0020325203252032522 86:0.0 87:0.0 88:0.0 89:0.0 90:0.0 91:0.0 92:0.0 93:0.0 94:0.0 95:0.0020325203252032522 96:0.0020325203252032522 97:0.0040650406504065045 98:0.0 99:0.0020325203252032522 100:0.0 101:0.0 102:0.0 103:0.0 104:0.0 105:0.0 106:0.014227642276422764 107:0.0 108:0.0 109:0.0 110:0.0 111:0.0 112:0.0020325203252032522 113:0.0040650406504065045 114:0.0 115:0.0 116:0.0020325203252032522 117:0.0020325203252032522 118:0.0 119:0.0 120:0.0 121:0.0040650406504065045 122:0.0 123:0.0 124:0.0 125:0.0 126:0.0 127:0.006097560975609756 128:0.0040650406504065045 129:0.0020325203252032522 130:0.0020325203252032522 131:0.018292682926829267 132:0.0020325203252032522 133:0.0020325203252032522 134:0.0 135:0.0 136:0.0 137:0.0 138:0.0 139:0.0 140:0.026422764227642278 141:0.0 142:0.0 143:0.0 144:0.0 145:0.0 146:0.0040650406504065045 147:0.0 148:0.0020325203252032522 149:0.0 150:0.0 151:0.006097560975609756 152:0.0 153:0.0020325203252032522 154:0.0 155:0.0040650406504065045 156:0.0 157:0.0 158:0.006097560975609756 159:0.0 160:0.0020325203252032522 
1.0 1:0.0022026431718061676 2:0.013215859030837005 3:0.0 4:0.0 5:0.00881057268722467 6:0.0 7:0.00881057268722467 8:0.0 9:0.0022026431718061676 10:0.0 11:0.0022026431718061676 12:0.0 13:0.0 14:0.006607929515418502 15:0.0 16:0.006607929515418502 17:0.011013215859030838 18:0.0 19:0.004405286343612335 20:0.006607929515418502 21:0.0022026431718061676 22:0.0022026431718061676 23:0.006607929515418502 24:0.0022026431718061676 25:0.011013215859030838 26:0.0 27:0.0 28:0.019823788546255508 29:0.0 30:0.0022026431718061676 31:0.006607929515418502 32:0.0 33:0.006607929515418502 34:0.0 35:0.0 36:0.00881057268722467 37:0.011013215859030838 38:0.0 39:0.0 40:0.00881057268722467 41:0.0 42:0.0 43:0.00881057268722467 44:0.0 45:0.0022026431718061676 46:0.00881057268722467 47:0.0 48:0.006607929515418502 49:0.011013215859030838 50:0.006607929515418502 51:0.0022026431718061676 52:0.0 53:0.0022026431718061676 54:0.0 55:0.0 56:0.0 57:0.0 58:0.011013215859030838 59:0.0 60:0.0 61:0.0 62:0.0 63:0.0022026431718061676 64:0.0 65:0.0 66:0.0 67:0.0 68:0.44052863436123346 69:0.011013215859030838 70:0.00881057268722467 71:0.019823788546255508 72:0.039647577092511016 73:0.0 74:0.0 75:0.0 76:0.006607929515418502 77:0.006607929515418502 78:0.0022026431718061676 79:0.0022026431718061676 80:0.0 81:0.0 82:0.0 83:0.011013215859030838 84:0.0 85:0.0022026431718061676 86:0.0 87:0.0 88:0.00881057268722467 89:0.0022026431718061676 90:0.0 91:0.019823788546255508 92:0.0 93:0.011013215859030838 94:0.0 95:0.0022026431718061676 96:0.0022026431718061676 97:0.00881057268722467 98:0.0 99:0.0 100:0.0 101:0.0 102:0.0022026431718061676 103:0.0 104:0.0 105:0.0022026431718061676 106:0.004405286343612335 107:0.0 108:0.0 109:0.006607929515418502 110:0.0 111:0.0 112:0.0 113:0.0 114:0.0022026431718061676 115:0.006607929515418502 116:0.0 117:0.015418502202643172 118:0.0 119:0.0 120:0.0 121:0.011013215859030838 122:0.006607929515418502 123:0.011013215859030838 124:0.0 125:0.013215859030837005 126:0.0 127:0.00881057268722467 128:0.0 129:0.0 130:0.0022026431718061676 131:0.0022026431718061676 132:0.019823788546255508 133:0.01762114537444934 134:0.0 135:0.0 136:0.0 137:0.0 138:0.0 139:0.0 140:0.004405286343612335 141:0.0 142:0.0 143:0.0 144:0.0 145:0.0 146:0.0022026431718061676 147:0.0 148:0.004405286343612335 149:0.0 150:0.0 151:0.006607929515418502 152:0.004405286343612335 153:0.00881057268722467 154:0.0 155:0.0 156:0.0022026431718061676 157:0.0 158:0.0022026431718061676 159:0.0 160:0.004405286343612335 
1.0 1:0.004405286343612335 2:0.0022026431718061676 3:0.0 4:0.0 5:0.006607929515418502 6:0.0 7:0.0 8:0.0 9:0.039647577092511016 10:0.0 11:0.004405286343612335 12:0.0 13:0.0 14:0.015418502202643172 15:0.0 16:0.0022026431718061676 17:0.00881057268722467 18:0.0 19:0.004405286343612335 20:0.0022026431718061676 21:0.0 22:0.006607929515418502 23:0.019823788546255508 24:0.006607929515418502 25:0.004405286343612335 26:0.0 27:0.0 28:0.022026431718061675 29:0.0 30:0.0022026431718061676 31:0.00881057268722467 32:0.0 33:0.004405286343612335 34:0.0 35:0.0 36:0.006607929515418502 37:0.00881057268722467 38:0.0 39:0.0 40:0.006607929515418502 41:0.0 42:0.0 43:0.004405286343612335 44:0.0 45:0.006607929515418502 46:0.00881057268722467 47:0.0 48:0.013215859030837005 49:0.004405286343612335 50:0.004405286343612335 51:0.0022026431718061676 52:0.0022026431718061676 53:0.0022026431718061676 54:0.0 55:0.0 56:0.0 57:0.0 58:0.013215859030837005 59:0.0022026431718061676 60:0.0 61:0.0 62:0.0 63:0.0 64:0.0 65:0.004405286343612335 66:0.0 67:0.0 68:0.40748898678414097 69:0.013215859030837005 70:0.006607929515418502 71:0.015418502202643172 72:0.03303964757709251 73:0.0 74:0.0 75:0.0 76:0.00881057268722467 77:0.011013215859030838 78:0.004405286343612335 79:0.0 80:0.0 81:0.0 82:0.0 83:0.00881057268722467 84:0.0 85:0.0022026431718061676 86:0.0 87:0.0 88:0.0022026431718061676 89:0.0 90:0.0 91:0.006607929515418502 92:0.0 93:0.004405286343612335 94:0.0 95:0.004405286343612335 96:0.0022026431718061676 97:0.006607929515418502 98:0.0 99:0.0 100:0.0 101:0.0 102:0.0022026431718061676 103:0.0 104:0.0 105:0.0 106:0.004405286343612335 107:0.0 108:0.0 109:0.004405286343612335 110:0.0 111:0.0 112:0.0 113:0.0 114:0.0 115:0.0022026431718061676 116:0.013215859030837005 117:0.006607929515418502 118:0.0022026431718061676 119:0.0 120:0.0 121:0.013215859030837005 122:0.006607929515418502 123:0.006607929515418502 124:0.0 125:0.022026431718061675 126:0.0 127:0.006607929515418502 128:0.0 129:0.0 130:0.0022026431718061676 131:0.00881057268722467 132:0.019823788546255508 133:0.00881057268722467 134:0.0 135:0.0 136:0.0 137:0.0 138:0.0 139:0.0022026431718061676 140:0.013215859030837005 141:0.0 142:0.0 143:0.0 144:0.0022026431718061676 145:0.0 146:0.0022026431718061676 147:0.0 148:0.004405286343612335 149:0.0 150:0.0 151:0.03303964757709251 152:0.006607929515418502 153:0.0022026431718061676 154:0.0 155:0.0 156:0.0 157:0.0 158:0.006607929515418502 159:0.0 160:0.004405286343612335 
1.0 1:0.0022026431718061676 2:0.013215859030837005 3:0.0 4:0.0 5:0.00881057268722467 6:0.0 7:0.00881057268722467 8:0.0 9:0.0022026431718061676 10:0.0 11:0.0022026431718061676 12:0.0 13:0.0 14:0.006607929515418502 15:0.0 16:0.006607929515418502 17:0.011013215859030838 18:0.0 19:0.004405286343612335 20:0.006607929515418502 21:0.0022026431718061676 22:0.0022026431718061676 23:0.006607929515418502 24:0.0022026431718061676 25:0.011013215859030838 26:0.0 27:0.0 28:0.019823788546255508 29:0.0 30:0.0022026431718061676 31:0.006607929515418502 32:0.0 33:0.006607929515418502 34:0.0 35:0.0 36:0.00881057268722467 37:0.011013215859030838 38:0.0 39:0.0 40:0.00881057268722467 41:0.0 42:0.0 43:0.00881057268722467 44:0.0 45:0.0022026431718061676 46:0.00881057268722467 47:0.0 48:0.006607929515418502 49:0.011013215859030838 50:0.006607929515418502 51:0.0022026431718061676 52:0.0 53:0.0022026431718061676 54:0.0 55:0.0 56:0.0 57:0.0 58:0.011013215859030838 59:0.0 60:0.0 61:0.0 62:0.0 63:0.0022026431718061676 64:0.0 65:0.0 66:0.0 67:0.0 68:0.44052863436123346 69:0.011013215859030838 70:0.00881057268722467 71:0.019823788546255508 72:0.039647577092511016 73:0.0 74:0.0 75:0.0 76:0.006607929515418502 77:0.006607929515418502 78:0.0022026431718061676 79:0.0022026431718061676 80:0.0 81:0.0 82:0.0 83:0.011013215859030838 84:0.0 85:0.0022026431718061676 86:0.0 87:0.0 88:0.00881057268722467 89:0.0022026431718061676 90:0.0 91:0.019823788546255508 92:0.0 93:0.011013215859030838 94:0.0 95:0.0022026431718061676 96:0.0022026431718061676 97:0.00881057268722467 98:0.0 99:0.0 100:0.0 101:0.0 102:0.0022026431718061676 103:0.0 104:0.0 105:0.0022026431718061676 106:0.004405286343612335 107:0.0 108:0.0 109:0.006607929515418502 110:0.0 111:0.0 112:0.0 113:0.0 114:0.0022026431718061676 115:0.006607929515418502 116:0.0 117:0.015418502202643172 118:0.0 119:0.0 120:0.0 121:0.011013215859030838 122:0.006607929515418502 123:0.011013215859030838 124:0.0 125:0.013215859030837005 126:0.0 127:0.00881057268722467 128:0.0 129:0.0 130:0.0022026431718061676 131:0.0022026431718061676 132:0.019823788546255508 133:0.01762114537444934 134:0.0 135:0.0 136:0.0 137:0.0 138:0.0 139:0.0 140:0.004405286343612335 141:0.0 142:0.0 143:0.0 144:0.0 145:0.0 146:0.0022026431718061676 147:0.0 148:0.004405286343612335 149:0.0 150:0.0 151:0.006607929515418502 152:0.004405286343612335 153:0.00881057268722467 154:0.0 155:0.0 156:0.0022026431718061676 157:0.0 158:0.0022026431718061676 159:0.0 160:0.004405286343612335 
1.0 1:0.002173913043478261 2:0.017391304347826087 3:0.0 4:0.0 5:0.008695652173913044 6:0.002173913043478261 7:0.008695652173913044 8:0.0 9:0.002173913043478261 10:0.0 11:0.004347826086956522 12:0.0 13:0.0 14:0.006521739130434782 15:0.0 16:0.008695652173913044 17:0.010869565217391304 18:0.0 19:0.008695652173913044 20:0.006521739130434782 21:0.0 22:0.002173913043478261 23:0.006521739130434782 24:0.002173913043478261 25:0.008695652173913044 26:0.0 27:0.0 28:0.02391304347826087 29:0.0 30:0.002173913043478261 31:0.004347826086956522 32:0.0 33:0.002173913043478261 34:0.0 35:0.0 36:0.008695652173913044 37:0.013043478260869565 38:0.0 39:0.0 40:0.008695652173913044 41:0.0 42:0.0 43:0.010869565217391304 44:0.0 45:0.002173913043478261 46:0.006521739130434782 47:0.0 48:0.008695652173913044 49:0.008695652173913044 50:0.006521739130434782 51:0.002173913043478261 52:0.0 53:0.004347826086956522 54:0.0 55:0.002173913043478261 56:0.0 57:0.0 58:0.006521739130434782 59:0.002173913043478261 60:0.0 61:0.0 62:0.0 63:0.004347826086956522 64:0.0 65:0.0 66:0.0 67:0.002173913043478261 68:0.4673913043478261 69:0.008695652173913044 70:0.006521739130434782 71:0.021739130434782608 72:0.034782608695652174 73:0.0 74:0.0 75:0.0 76:0.004347826086956522 77:0.004347826086956522 78:0.004347826086956522 79:0.0 80:0.0 81:0.0 82:0.0 83:0.008695652173913044 84:0.0 85:0.002173913043478261 86:0.0 87:0.0 88:0.006521739130434782 89:0.0 90:0.0 91:0.015217391304347827 92:0.0 93:0.008695652173913044 94:0.0 95:0.004347826086956522 96:0.0 97:0.004347826086956522 98:0.0 99:0.0 100:0.0 101:0.0 102:0.002173913043478261 103:0.0 104:0.0 105:0.002173913043478261 106:0.006521739130434782 107:0.0 108:0.0 109:0.008695652173913044 110:0.0 111:0.0 112:0.0 113:0.002173913043478261 114:0.0 115:0.006521739130434782 116:0.010869565217391304 117:0.015217391304347827 118:0.0 119:0.0 120:0.0 121:0.0 122:0.004347826086956522 123:0.006521739130434782 124:0.0 125:0.002173913043478261 126:0.0 127:0.006521739130434782 128:0.0 129:0.002173913043478261 130:0.0 131:0.004347826086956522 132:0.021739130434782608 133:0.017391304347826087 134:0.0 135:0.0 136:0.0 137:0.0 138:0.0 139:0.0 140:0.004347826086956522 141:0.0 142:0.0 143:0.0 144:0.0 145:0.004347826086956522 146:0.002173913043478261 147:0.0 148:0.004347826086956522 149:0.0 150:0.0 151:0.002173913043478261 152:0.004347826086956522 153:0.008695652173913044 154:0.0 155:0.0 156:0.002173913043478261 157:0.0 158:0.004347826086956522 159:0.0 160:0.004347826086956522 
1.0 1:0.005376344086021506 2:0.002688172043010753 3:0.0 4:0.002688172043010753 5:0.0 6:0.0 7:0.002688172043010753 8:0.0 9:0.005376344086021506 10:0.0 11:0.002688172043010753 12:0.0 13:0.0 14:0.002688172043010753 15:0.0 16:0.0 17:0.0 18:0.0 19:0.008064516129032258 20:0.0 21:0.002688172043010753 22:0.005376344086021506 23:0.008064516129032258 24:0.0 25:0.002688172043010753 26:0.0 27:0.0 28:0.002688172043010753 29:0.0 30:0.0 31:0.0 32:0.0 33:0.002688172043010753 34:0.0 35:0.0 36:0.0 37:0.002688172043010753 38:0.0 39:0.0 40:0.0 41:0.0 42:0.0 43:0.002688172043010753 44:0.0 45:0.0 46:0.005376344086021506 47:0.0 48:0.0 49:0.0 50:0.0 51:0.005376344086021506 52:0.0 53:0.0 54:0.0 55:0.0 56:0.0 57:0.0 58:0.005376344086021506 59:0.002688172043010753 60:0.0 61:0.0 62:0.0 63:0.0 64:0.0 65:0.002688172043010753 66:0.0 67:0.0 68:0.7338709677419355 69:0.008064516129032258 70:0.008064516129032258 71:0.0 72:0.0 73:0.0 74:0.0 75:0.0 76:0.008064516129032258 77:0.002688172043010753 78:0.0 79:0.002688172043010753 80:0.0 81:0.0 82:0.005376344086021506 83:0.0 84:0.0 85:0.0 86:0.0 87:0.0 88:0.002688172043010753 89:0.0 90:0.0 91:0.005376344086021506 92:0.0 93:0.0 94:0.0 95:0.002688172043010753 96:0.0 97:0.0 98:0.0 99:0.0 100:0.0 101:0.0 102:0.005376344086021506 103:0.0 104:0.0 105:0.0 106:0.016129032258064516 107:0.0 108:0.0 109:0.0 110:0.0 111:0.0 112:0.002688172043010753 113:0.002688172043010753 114:0.002688172043010753 115:0.002688172043010753 116:0.021505376344086023 117:0.002688172043010753 118:0.0 119:0.0 120:0.0 121:0.005376344086021506 122:0.0 123:0.002688172043010753 124:0.0 125:0.010752688172043012 126:0.0 127:0.005376344086021506 128:0.0 129:0.0 130:0.008064516129032258 131:0.002688172043010753 132:0.002688172043010753 133:0.008064516129032258 134:0.0 135:0.0 136:0.0 137:0.0 138:0.0 139:0.0 140:0.01881720430107527 141:0.0 142:0.002688172043010753 143:0.0 144:0.0 145:0.002688172043010753 146:0.002688172043010753 147:0.0 148:0.002688172043010753 149:0.0 150:0.0 151:0.0 152:0.002688172043010753 153:0.0 154:0.0 155:0.0 156:0.0 157:0.0 158:0.002688172043010753 159:0.0 160:0.0 
1.0 1:0.002242152466367713 2:0.020179372197309416 3:0.0 4:0.0 5:0.006726457399103139 6:0.002242152466367713 7:0.008968609865470852 8:0.0 9:0.008968609865470852 10:0.0 11:0.004484304932735426 12:0.0 13:0.0 14:0.008968609865470852 15:0.0 16:0.008968609865470852 17:0.011210762331838564 18:0.0 19:0.008968609865470852 20:0.006726457399103139 21:0.0 22:0.0 23:0.008968609865470852 24:0.002242152466367713 25:0.008968609865470852 26:0.0 27:0.0 28:0.02242152466367713 29:0.0 30:0.002242152466367713 31:0.006726457399103139 32:0.0 33:0.006726457399103139 34:0.0 35:0.0 36:0.008968609865470852 37:0.011210762331838564 38:0.0 39:0.0 40:0.013452914798206279 41:0.0 42:0.0 43:0.006726457399103139 44:0.0 45:0.004484304932735426 46:0.006726457399103139 47:0.0 48:0.008968609865470852 49:0.008968609865470852 50:0.006726457399103139 51:0.004484304932735426 52:0.0 53:0.004484304932735426 54:0.0 55:0.002242152466367713 56:0.0 57:0.0 58:0.006726457399103139 59:0.0 60:0.0 61:0.0 62:0.0 63:0.004484304932735426 64:0.0 65:0.002242152466367713 66:0.0 67:0.0 68:0.452914798206278 69:0.011210762331838564 70:0.006726457399103139 71:0.020179372197309416 72:0.033632286995515695 73:0.0 74:0.0 75:0.0 76:0.004484304932735426 77:0.006726457399103139 78:0.004484304932735426 79:0.0 80:0.0 81:0.0 82:0.002242152466367713 83:0.011210762331838564 84:0.0 85:0.002242152466367713 86:0.0 87:0.0 88:0.006726457399103139 89:0.0 90:0.0 91:0.01569506726457399 92:0.0 93:0.008968609865470852 94:0.0 95:0.002242152466367713 96:0.0 97:0.004484304932735426 98:0.0 99:0.0 100:0.0 101:0.0 102:0.002242152466367713 103:0.0 104:0.0 105:0.002242152466367713 106:0.004484304932735426 107:0.0 108:0.0 109:0.006726457399103139 110:0.0 111:0.0 112:0.0 113:0.0 114:0.0 115:0.002242152466367713 116:0.0 117:0.01569506726457399 118:0.0 119:0.0 120:0.0 121:0.0 122:0.006726457399103139 123:0.008968609865470852 124:0.0 125:0.011210762331838564 126:0.0 127:0.006726457399103139 128:0.0 129:0.0 130:0.0 131:0.004484304932735426 132:0.020179372197309416 133:0.013452914798206279 134:0.0 135:0.0 136:0.0 137:0.0 138:0.0 139:0.0 140:0.004484304932735426 141:0.0 142:0.0 143:0.0 144:0.002242152466367713 145:0.0 146:0.002242152466367713 147:0.0 148:0.004484304932735426 149:0.0 150:0.0 151:0.006726457399103139 152:0.004484304932735426 153:0.011210762331838564 154:0.0 155:0.0 156:0.0 157:0.0 158:0.002242152466367713 159:0.0 160:0.004484304932735426 
1.0 1:0.02517162471395881 2:0.0 3:0.006864988558352402 4:0.0 5:0.004576659038901602 6:0.002288329519450801 7:0.0 8:0.0 9:0.004576659038901602 10:0.0 11:0.006864988558352402 12:0.0 13:0.0 14:0.0 15:0.0 16:0.0 17:0.006864988558352402 18:0.0 19:0.0 20:0.0 21:0.0 22:0.002288329519450801 23:0.0 24:0.002288329519450801 25:0.009153318077803204 26:0.0 27:0.0 28:0.0 29:0.0 30:0.0 31:0.0 32:0.002288329519450801 33:0.004576659038901602 34:0.0 35:0.0 36:0.0 37:0.004576659038901602 38:0.0 39:0.0 40:0.002288329519450801 41:0.0 42:0.0 43:0.011441647597254004 44:0.0 45:0.0 46:0.006864988558352402 47:0.0 48:0.0 49:0.002288329519450801 50:0.0 51:0.002288329519450801 52:0.02517162471395881 53:0.004576659038901602 54:0.0 55:0.002288329519450801 56:0.0 57:0.002288329519450801 58:0.0 59:0.004576659038901602 60:0.0 61:0.0 62:0.0 63:0.002288329519450801 64:0.004576659038901602 65:0.0 66:0.0 67:0.0 68:0.7299771167048055 69:0.004576659038901602 70:0.004576659038901602 71:0.0 72:0.002288329519450801 73:0.0 74:0.0 75:0.0 76:0.0 77:0.0 78:0.0 79:0.002288329519450801 80:0.0 81:0.0 82:0.0 83:0.0 84:0.0 85:0.004576659038901602 86:0.0 87:0.0 88:0.002288329519450801 89:0.0 90:0.002288329519450801 91:0.0 92:0.0 93:0.0 94:0.0 95:0.0 96:0.002288329519450801 97:0.0 98:0.0 99:0.0 100:0.0 101:0.0 102:0.0 103:0.0 104:0.0 105:0.0 106:0.002288329519450801 107:0.0 108:0.0 109:0.0 110:0.0 111:0.0 112:0.0 113:0.0 114:0.004576659038901602 115:0.0 116:0.006864988558352402 117:0.0 118:0.0 119:0.0 120:0.0 121:0.002288329519450801 122:0.0 123:0.002288329519450801 124:0.0 125:0.004576659038901602 126:0.0 127:0.018306636155606407 128:0.004576659038901602 129:0.002288329519450801 130:0.002288329519450801 131:0.0 132:0.002288329519450801 133:0.002288329519450801 134:0.0 135:0.0 136:0.0 137:0.0 138:0.0 139:0.002288329519450801 140:0.009153318077803204 141:0.0 142:0.0 143:0.002288329519450801 144:0.0 145:0.0 146:0.004576659038901602 147:0.0 148:0.004576659038901602 149:0.0 150:0.0 151:0.0 152:0.004576659038901602 153:0.002288329519450801 154:0.0 155:0.002288329519450801 156:0.0 157:0.0 158:0.0 159:0.0 160:0.004576659038901602 
1.0 1:0.02386634844868735 2:0.002386634844868735 3:0.007159904534606206 4:0.0 5:0.002386634844868735 6:0.0 7:0.00477326968973747 8:0.002386634844868735 9:0.014319809069212411 10:0.0 11:0.007159904534606206 12:0.0 13:0.0 14:0.0 15:0.0 16:0.0 17:0.002386634844868735 18:0.0 19:0.002386634844868735 20:0.0 21:0.002386634844868735 22:0.0 23:0.0 24:0.0 25:0.002386634844868735 26:0.0 27:0.0 28:0.0 29:0.0 30:0.0 31:0.0 32:0.002386634844868735 33:0.007159904534606206 34:0.0 35:0.0 36:0.0 37:0.002386634844868735 38:0.0 39:0.0 40:0.0 41:0.0 42:0.0 43:0.014319809069212411 44:0.0 45:0.0 46:0.002386634844868735 47:0.0 48:0.002386634844868735 49:0.0 50:0.0 51:0.0 52:0.028639618138424822 53:0.002386634844868735 54:0.0 55:0.00477326968973747 56:0.0 57:0.0 58:0.0 59:0.002386634844868735 60:0.0 61:0.0 62:0.0 63:0.0 64:0.00477326968973747 65:0.002386634844868735 66:0.0 67:0.00477326968973747 68:0.7446300715990454 69:0.007159904534606206 70:0.0 71:0.0 72:0.0 73:0.0 74:0.0 75:0.0 76:0.002386634844868735 77:0.002386634844868735 78:0.0 79:0.0 80:0.0 81:0.0 82:0.0 83:0.00477326968973747 84:0.0 85:0.0 86:0.0 87:0.0 88:0.002386634844868735 89:0.0 90:0.002386634844868735 91:0.0 92:0.0 93:0.0 94:0.0 95:0.0 96:0.0 97:0.0 98:0.0 99:0.0 100:0.0 101:0.0 102:0.002386634844868735 103:0.0 104:0.0 105:0.0 106:0.002386634844868735 107:0.0 108:0.0 109:0.0 110:0.0 111:0.0 112:0.0 113:0.0 114:0.00477326968973747 115:0.0 116:0.00954653937947494 117:0.002386634844868735 118:0.0 119:0.0 120:0.0 121:0.0 122:0.0 123:0.002386634844868735 124:0.0 125:0.002386634844868735 126:0.0 127:0.026252983293556086 128:0.0 129:0.0 130:0.002386634844868735 131:0.0 132:0.0 133:0.00477326968973747 134:0.0 135:0.0 136:0.0 137:0.0 138:0.0 139:0.0 140:0.00477326968973747 141:0.0 142:0.0 143:0.0 144:0.0 145:0.0 146:0.00477326968973747 147:0.0 148:0.002386634844868735 149:0.0 150:0.0 151:0.002386634844868735 152:0.002386634844868735 153:0.0 154:0.0 155:0.002386634844868735 156:0.0 157:0.0 158:0.0 159:0.0 160:0.0 
1.0 1:0.0035971223021582736 2:0.007194244604316547 3:0.0035971223021582736 4:0.0 5:0.0035971223021582736 6:0.0035971223021582736 7:0.0 8:0.0 9:0.014388489208633094 10:0.0 11:0.007194244604316547 12:0.0 13:0.0 14:0.0 15:0.0 16:0.0035971223021582736 17:0.0 18:0.0 19:0.0 20:0.0 21:0.0 22:0.007194244604316547 23:0.0 24:0.0 25:0.0 26:0.0 27:0.0 28:0.014388489208633094 29:0.0 30:0.0 31:0.0035971223021582736 32:0.0 33:0.01079136690647482 34:0.0 35:0.0 36:0.0 37:0.0035971223021582736 38:0.0 39:0.0 40:0.0 41:0.0 42:0.0 43:0.007194244604316547 44:0.0 45:0.007194244604316547 46:0.0 47:0.0 48:0.0 49:0.0 50:0.0035971223021582736 51:0.0035971223021582736 52:0.0 53:0.0 54:0.0 55:0.0 56:0.0 57:0.0 58:0.0 59:0.0 60:0.0 61:0.0 62:0.0 63:0.0 64:0.0035971223021582736 65:0.0 66:0.0 67:0.0035971223021582736 68:0.6762589928057554 69:0.0035971223021582736 70:0.01079136690647482 71:0.0 72:0.0 73:0.0 74:0.0 75:0.0 76:0.0035971223021582736 77:0.0 78:0.0035971223021582736 79:0.0035971223021582736 80:0.0 81:0.0 82:0.0035971223021582736 83:0.0 84:0.0035971223021582736 85:0.0 86:0.0 87:0.0 88:0.01079136690647482 89:0.0 90:0.0 91:0.0 92:0.0 93:0.0 94:0.0 95:0.0035971223021582736 96:0.0 97:0.0035971223021582736 98:0.0 99:0.0 100:0.0 101:0.0 102:0.0035971223021582736 103:0.0 104:0.0 105:0.0 106:0.0 107:0.0 108:0.0 109:0.0035971223021582736 110:0.0 111:0.0 112:0.0035971223021582736 113:0.0 114:0.0 115:0.01079136690647482 116:0.014388489208633094 117:0.0 118:0.0 119:0.0 120:0.0 121:0.0 122:0.0 123:0.0 124:0.0 125:0.050359712230215826 126:0.0 127:0.007194244604316547 128:0.0035971223021582736 129:0.0 130:0.0035971223021582736 131:0.01079136690647482 132:0.0035971223021582736 133:0.0035971223021582736 134:0.0 135:0.0 136:0.0 137:0.0 138:0.0 139:0.0 140:0.007194244604316547 141:0.0 142:0.0 143:0.0 144:0.0 145:0.0 146:0.0 147:0.0 148:0.0 149:0.0 150:0.0 151:0.01079136690647482 152:0.0 153:0.0 154:0.0 155:0.007194244604316547 156:0.0 157:0.0 158:0.01079136690647482 159:0.0 160:0.0035971223021582736 
1.0 1:0.01532567049808429 2:0.0 3:0.007662835249042145 4:0.0 5:0.0038314176245210726 6:0.0 7:0.0 8:0.0038314176245210726 9:0.0 10:0.0 11:0.0038314176245210726 12:0.0 13:0.0 14:0.0038314176245210726 15:0.0 16:0.02681992337164751 17:0.011494252873563218 18:0.0 19:0.0 20:0.0 21:0.0 22:0.0 23:0.0 24:0.0038314176245210726 25:0.007662835249042145 26:0.0 27:0.0 28:0.0 29:0.0 30:0.007662835249042145 31:0.0 32:0.0038314176245210726 33:0.0 34:0.0 35:0.0 36:0.0 37:0.01532567049808429 38:0.0 39:0.0 40:0.0038314176245210726 41:0.0 42:0.0 43:0.011494252873563218 44:0.0 45:0.0 46:0.0038314176245210726 47:0.0 48:0.0 49:0.0 50:0.0 51:0.0038314176245210726 52:0.0 53:0.0 54:0.0 55:0.0038314176245210726 56:0.0 57:0.0 58:0.0038314176245210726 59:0.007662835249042145 60:0.0 61:0.0 62:0.0 63:0.0038314176245210726 64:0.0038314176245210726 65:0.0 66:0.0 67:0.0 68:0.7701149425287356 69:0.0038314176245210726 70:0.007662835249042145 71:0.0 72:0.0 73:0.0 74:0.0 75:0.0 76:0.0 77:0.0 78:0.0 79:0.0 80:0.0 81:0.0 82:0.0 83:0.0 84:0.0 85:0.0 86:0.0 87:0.0 88:0.0 89:0.0 90:0.0038314176245210726 91:0.0 92:0.0 93:0.0 94:0.0 95:0.007662835249042145 96:0.0038314176245210726 97:0.0038314176245210726 98:0.0 99:0.0 100:0.0 101:0.0 102:0.0 103:0.0 104:0.0 105:0.007662835249042145 106:0.0 107:0.0 108:0.0 109:0.0 110:0.0 111:0.0 112:0.0 113:0.0038314176245210726 114:0.0 115:0.0 116:0.0 117:0.0 118:0.0 119:0.0 120:0.0 121:0.0 122:0.0 123:0.0 124:0.0 125:0.0 126:0.0 127:0.0038314176245210726 128:0.0 129:0.0038314176245210726 130:0.0 131:0.0 132:0.0038314176245210726 133:0.0 134:0.0 135:0.0 136:0.0 137:0.0 138:0.0 139:0.0 140:0.0 141:0.0 142:0.0 143:0.0 144:0.0 145:0.0 146:0.0 147:0.0 148:0.0 149:0.0 150:0.0 151:0.0 152:0.007662835249042145 153:0.0 154:0.0 155:0.0 156:0.0 157:0.0 158:0.007662835249042145 159:0.0 160:0.0 
1.0 1:0.010676156583629894 2:0.0 3:0.010676156583629894 4:0.0 5:0.0035587188612099642 6:0.0 7:0.0 8:0.0 9:0.0 10:0.0 11:0.0 12:0.0 13:0.0 14:0.0035587188612099642 15:0.0 16:0.02491103202846975 17:0.010676156583629894 18:0.0 19:0.0 20:0.0 21:0.0 22:0.0 23:0.0 24:0.0035587188612099642 25:0.0035587188612099642 26:0.0 27:0.0 28:0.0 29:0.0 30:0.0071174377224199285 31:0.0 32:0.0035587188612099642 33:0.0 34:0.0 35:0.0 36:0.0 37:0.014234875444839857 38:0.0 39:0.0 40:0.0035587188612099642 41:0.0 42:0.0 43:0.014234875444839857 44:0.0 45:0.0 46:0.0035587188612099642 47:0.0 48:0.0 49:0.0 50:0.0 51:0.0035587188612099642 52:0.0 53:0.0 54:0.0 55:0.0035587188612099642 56:0.0 57:0.0035587188612099642 58:0.0035587188612099642 59:0.0035587188612099642 60:0.0 61:0.0 62:0.0 63:0.0035587188612099642 64:0.0 65:0.0035587188612099642 66:0.0 67:0.0 68:0.7686832740213523 69:0.0071174377224199285 70:0.0035587188612099642 71:0.0 72:0.0 73:0.0 74:0.0 75:0.0 76:0.0 77:0.0 78:0.0 79:0.0035587188612099642 80:0.0 81:0.0 82:0.0035587188612099642 83:0.0035587188612099642 84:0.0 85:0.0 86:0.0 87:0.0 88:0.0 89:0.0 90:0.010676156583629894 91:0.0 92:0.0 93:0.0 94:0.0 95:0.0 96:0.0035587188612099642 97:0.0035587188612099642 98:0.0 99:0.0 100:0.0 101:0.0 102:0.0035587188612099642 103:0.0 104:0.0 105:0.0071174377224199285 106:0.0 107:0.0 108:0.0 109:0.0 110:0.0 111:0.0 112:0.0 113:0.0035587188612099642 114:0.0 115:0.0 116:0.0 117:0.0071174377224199285 118:0.0 119:0.0 120:0.0 121:0.0 122:0.0 123:0.0 124:0.0 125:0.0 126:0.0 127:0.0035587188612099642 128:0.0 129:0.0035587188612099642 130:0.0 131:0.0 132:0.0 133:0.0 134:0.0 135:0.0 136:0.0 137:0.0 138:0.0 139:0.0 140:0.0035587188612099642 141:0.0 142:0.0 143:0.0 144:0.0 145:0.0 146:0.0 147:0.0 148:0.0 149:0.0 150:0.0 151:0.0 152:0.0071174377224199285 153:0.0035587188612099642 154:0.0 155:0.0 156:0.0 157:0.0 158:0.0071174377224199285 159:0.0 160:0.0 
1.0 1:0.0 2:0.006944444444444444 3:0.004629629629629629 4:0.0023148148148148147 5:0.0023148148148148147 6:0.0023148148148148147 7:0.0 8:0.004629629629629629 9:0.009259259259259259 10:0.0 11:0.004629629629629629 12:0.0 13:0.0 14:0.0 15:0.0023148148148148147 16:0.0023148148148148147 17:0.0 18:0.0 19:0.0 20:0.0 21:0.0 22:0.004629629629629629 23:0.0023148148148148147 24:0.0023148148148148147 25:0.0 26:0.0 27:0.0023148148148148147 28:0.006944444444444444 29:0.0 30:0.0 31:0.0023148148148148147 32:0.0 33:0.011574074074074073 34:0.0 35:0.0 36:0.0 37:0.004629629629629629 38:0.0 39:0.0 40:0.0023148148148148147 41:0.0 42:0.0 43:0.011574074074074073 44:0.0 45:0.0023148148148148147 46:0.0023148148148148147 47:0.0 48:0.0 49:0.0023148148148148147 50:0.0 51:0.009259259259259259 52:0.0 53:0.0 54:0.0 55:0.0 56:0.0 57:0.0 58:0.0023148148148148147 59:0.004629629629629629 60:0.0 61:0.0 62:0.0 63:0.0 64:0.006944444444444444 65:0.0023148148148148147 66:0.0 67:0.0023148148148148147 68:0.6967592592592593 69:0.004629629629629629 70:0.013888888888888888 71:0.0023148148148148147 72:0.0 73:0.0 74:0.0 75:0.0 76:0.0 77:0.0023148148148148147 78:0.0 79:0.0023148148148148147 80:0.0 81:0.0 82:0.0 83:0.0 84:0.0 85:0.0023148148148148147 86:0.0 87:0.0 88:0.0 89:0.0 90:0.0 91:0.0 92:0.0 93:0.0023148148148148147 94:0.0 95:0.0023148148148148147 96:0.0 97:0.0 98:0.0 99:0.0 100:0.0 101:0.0 102:0.0 103:0.0 104:0.0 105:0.0 106:0.0 107:0.0 108:0.0 109:0.0 110:0.0 111:0.0 112:0.0023148148148148147 113:0.0023148148148148147 114:0.0 115:0.006944444444444444 116:0.034722222222222224 117:0.0023148148148148147 118:0.0023148148148148147 119:0.0 120:0.0 121:0.0 122:0.0023148148148148147 123:0.0023148148148148147 124:0.0 125:0.02546296296296296 126:0.0 127:0.009259259259259259 128:0.0023148148148148147 129:0.004629629629629629 130:0.004629629629629629 131:0.0023148148148148147 132:0.0023148148148148147 133:0.0023148148148148147 134:0.0 135:0.0 136:0.0 137:0.0 138:0.0 139:0.0 140:0.009259259259259259 141:0.0 142:0.0 143:0.0 144:0.0 145:0.0 146:0.004629629629629629 147:0.0 148:0.0 149:0.0 150:0.0 151:0.006944444444444444 152:0.006944444444444444 153:0.0 154:0.0 155:0.0 156:0.0 157:0.0 158:0.004629629629629629 159:0.0 160:0.0023148148148148147 
1.0 1:0.015384615384615385 2:0.0 3:0.007692307692307693 4:0.0 5:0.0038461538461538464 6:0.0 7:0.0 8:0.0038461538461538464 9:0.0 10:0.0 11:0.0038461538461538464 12:0.0 13:0.0 14:0.0038461538461538464 15:0.0 16:0.026923076923076925 17:0.011538461538461539 18:0.0 19:0.0 20:0.0 21:0.0 22:0.0 23:0.0 24:0.0038461538461538464 25:0.007692307692307693 26:0.0 27:0.0 28:0.0 29:0.0 30:0.007692307692307693 31:0.0 32:0.0038461538461538464 33:0.0 34:0.0 35:0.0 36:0.0 37:0.015384615384615385 38:0.0 39:0.0 40:0.0038461538461538464 41:0.0 42:0.0 43:0.011538461538461539 44:0.0 45:0.0 46:0.0038461538461538464 47:0.0 48:0.0 49:0.0 50:0.0 51:0.0038461538461538464 52:0.0 53:0.0 54:0.0 55:0.0038461538461538464 56:0.0 57:0.0 58:0.0038461538461538464 59:0.007692307692307693 60:0.0 61:0.0 62:0.0 63:0.0038461538461538464 64:0.0038461538461538464 65:0.0 66:0.0 67:0.0 68:0.7692307692307693 69:0.0038461538461538464 70:0.007692307692307693 71:0.0 72:0.0 73:0.0 74:0.0 75:0.0 76:0.0 77:0.0 78:0.0 79:0.0 80:0.0 81:0.0 82:0.0 83:0.0 84:0.0 85:0.0 86:0.0 87:0.0 88:0.0 89:0.0 90:0.0038461538461538464 91:0.0 92:0.0 93:0.0 94:0.0 95:0.007692307692307693 96:0.0038461538461538464 97:0.0038461538461538464 98:0.0 99:0.0 100:0.0 101:0.0 102:0.0 103:0.0 104:0.0 105:0.007692307692307693 106:0.0 107:0.0 108:0.0 109:0.0 110:0.0 111:0.0 112:0.0 113:0.0038461538461538464 114:0.0 115:0.0 116:0.0 117:0.0 118:0.0 119:0.0 120:0.0 121:0.0 122:0.0 123:0.0 124:0.0 125:0.0 126:0.0 127:0.0038461538461538464 128:0.0 129:0.0038461538461538464 130:0.0 131:0.0 132:0.0038461538461538464 133:0.0 134:0.0 135:0.0 136:0.0 137:0.0 138:0.0 139:0.0 140:0.0 141:0.0 142:0.0 143:0.0 144:0.0 145:0.0 146:0.0 147:0.0 148:0.0 149:0.0 150:0.0 151:0.0 152:0.007692307692307693 153:0.0 154:0.0 155:0.0 156:0.0 157:0.0 158:0.007692307692307693 159:0.0 160:0.0 
1.0 1:0.007075471698113208 2:0.0023584905660377358 3:0.009433962264150943 4:0.0 5:0.0 6:0.0 7:0.007075471698113208 8:0.0 9:0.05188679245283019 10:0.0 11:0.0023584905660377358 12:0.0 13:0.0 14:0.0 15:0.0 16:0.0023584905660377358 17:0.0 18:0.0 19:0.0 20:0.0 21:0.0 22:0.007075471698113208 23:0.0023584905660377358 24:0.0 25:0.0023584905660377358 26:0.0 27:0.0 28:0.01179245283018868 29:0.0 30:0.0 31:0.0 32:0.0 33:0.014150943396226415 34:0.0 35:0.0 36:0.0 37:0.0023584905660377358 38:0.0 39:0.0 40:0.009433962264150943 41:0.0 42:0.0 43:0.007075471698113208 44:0.0 45:0.0 46:0.0023584905660377358 47:0.0 48:0.0 49:0.0 50:0.0047169811320754715 51:0.0 52:0.02358490566037736 53:0.0023584905660377358 54:0.0 55:0.0 56:0.0 57:0.0023584905660377358 58:0.0 59:0.0023584905660377358 60:0.0 61:0.0 62:0.0 63:0.0 64:0.0 65:0.0023584905660377358 66:0.0 67:0.0 68:0.6415094339622641 69:0.0023584905660377358 70:0.0047169811320754715 71:0.0023584905660377358 72:0.0023584905660377358 73:0.0 74:0.0 75:0.0 76:0.0047169811320754715 77:0.0 78:0.0 79:0.0023584905660377358 80:0.0 81:0.0 82:0.0 83:0.01650943396226415 84:0.0 85:0.0 86:0.0 87:0.0 88:0.0023584905660377358 89:0.0047169811320754715 90:0.0 91:0.0 92:0.0 93:0.0 94:0.0 95:0.0023584905660377358 96:0.0 97:0.0 98:0.0 99:0.0 100:0.0 101:0.0 102:0.0 103:0.0 104:0.0 105:0.0 106:0.007075471698113208 107:0.0 108:0.0 109:0.0023584905660377358 110:0.0 111:0.0 112:0.0 113:0.0047169811320754715 114:0.0047169811320754715 115:0.0047169811320754715 116:0.009433962264150943 117:0.0047169811320754715 118:0.0 119:0.0 120:0.0 121:0.009433962264150943 122:0.0023584905660377358 123:0.0023584905660377358 124:0.0 125:0.0047169811320754715 126:0.0 127:0.01179245283018868 128:0.0 129:0.0 130:0.0023584905660377358 131:0.01179245283018868 132:0.0 133:0.009433962264150943 134:0.0 135:0.0 136:0.0 137:0.0 138:0.0 139:0.0 140:0.02122641509433962 141:0.0 142:0.0 143:0.0 144:0.0 145:0.0 146:0.0023584905660377358 147:0.0 148:0.0 149:0.0 150:0.0 151:0.009433962264150943 152:0.0047169811320754715 153:0.0023584905660377358 154:0.0 155:0.0023584905660377358 156:0.0 157:0.0 158:0.0 159:0.0 160:0.0 
1.0 1:0.007766990291262136 2:0.001941747572815534 3:0.007766990291262136 4:0.0 5:0.001941747572815534 6:0.0 7:0.003883495145631068 8:0.0 9:0.04466019417475728 10:0.0 11:0.001941747572815534 12:0.0 13:0.0 14:0.0 15:0.0 16:0.003883495145631068 17:0.0 18:0.0 19:0.0 20:0.0 21:0.0 22:0.005825242718446602 23:0.001941747572815534 24:0.0 25:0.001941747572815534 26:0.0 27:0.0 28:0.009708737864077669 29:0.0 30:0.0 31:0.0 32:0.0 33:0.011650485436893204 34:0.0 35:0.0 36:0.0 37:0.003883495145631068 38:0.0 39:0.0 40:0.007766990291262136 41:0.0 42:0.0 43:0.005825242718446602 44:0.0 45:0.0 46:0.001941747572815534 47:0.0 48:0.0 49:0.0 50:0.003883495145631068 51:0.0 52:0.019417475728155338 53:0.001941747572815534 54:0.0 55:0.0 56:0.0 57:0.001941747572815534 58:0.001941747572815534 59:0.001941747572815534 60:0.0 61:0.0 62:0.0 63:0.0 64:0.001941747572815534 65:0.001941747572815534 66:0.0 67:0.0 68:0.6776699029126214 69:0.003883495145631068 70:0.003883495145631068 71:0.001941747572815534 72:0.003883495145631068 73:0.0 74:0.0 75:0.0 76:0.003883495145631068 77:0.0 78:0.0 79:0.0 80:0.0 81:0.0 82:0.005825242718446602 83:0.013592233009708738 84:0.0 85:0.0 86:0.0 87:0.0 88:0.001941747572815534 89:0.003883495145631068 90:0.0 91:0.0 92:0.0 93:0.001941747572815534 94:0.0 95:0.001941747572815534 96:0.0 97:0.0 98:0.0 99:0.0 100:0.0 101:0.0 102:0.0 103:0.0 104:0.0 105:0.0 106:0.005825242718446602 107:0.0 108:0.0 109:0.003883495145631068 110:0.0 111:0.0 112:0.0 113:0.003883495145631068 114:0.003883495145631068 115:0.005825242718446602 116:0.007766990291262136 117:0.001941747572815534 118:0.0 119:0.0 120:0.0 121:0.007766990291262136 122:0.001941747572815534 123:0.001941747572815534 124:0.0 125:0.003883495145631068 126:0.0 127:0.013592233009708738 128:0.001941747572815534 129:0.0 130:0.001941747572815534 131:0.007766990291262136 132:0.0 133:0.007766990291262136 134:0.0 135:0.0 136:0.0 137:0.0 138:0.0 139:0.0 140:0.017475728155339806 141:0.0 142:0.0 143:0.0 144:0.0 145:0.001941747572815534 146:0.001941747572815534 147:0.0 148:0.0 149:0.0 150:0.0 151:0.007766990291262136 152:0.003883495145631068 153:0.0 154:0.0 155:0.001941747572815534 156:0.0 157:0.0 158:0.0 159:0.0 160:0.0 
1.0 1:0.0036900369003690036 2:0.00922509225092251 3:0.0 4:0.0 5:0.007380073800738007 6:0.0 7:0.007380073800738007 8:0.0 9:0.012915129151291513 10:0.0 11:0.0018450184501845018 12:0.0 13:0.0 14:0.005535055350553505 15:0.0 16:0.005535055350553505 17:0.00922509225092251 18:0.0 19:0.0018450184501845018 20:0.005535055350553505 21:0.0 22:0.0018450184501845018 23:0.005535055350553505 24:0.0018450184501845018 25:0.007380073800738007 26:0.0 27:0.0 28:0.01845018450184502 29:0.0 30:0.0018450184501845018 31:0.0036900369003690036 32:0.0 33:0.007380073800738007 34:0.0 35:0.0 36:0.007380073800738007 37:0.00922509225092251 38:0.0 39:0.0 40:0.007380073800738007 41:0.0 42:0.0 43:0.007380073800738007 44:0.0 45:0.0036900369003690036 46:0.007380073800738007 47:0.0 48:0.005535055350553505 49:0.007380073800738007 50:0.005535055350553505 51:0.0018450184501845018 52:0.0 53:0.0036900369003690036 54:0.0 55:0.0 56:0.0 57:0.0 58:0.00922509225092251 59:0.0 60:0.0 61:0.0 62:0.0 63:0.0018450184501845018 64:0.0 65:0.0 66:0.0 67:0.0 68:0.5295202952029521 69:0.00922509225092251 70:0.007380073800738007 71:0.016605166051660517 72:0.03505535055350553 73:0.0 74:0.0 75:0.0 76:0.00922509225092251 77:0.005535055350553505 78:0.0018450184501845018 79:0.0018450184501845018 80:0.0 81:0.0 82:0.0 83:0.00922509225092251 84:0.0 85:0.0018450184501845018 86:0.0 87:0.0 88:0.007380073800738007 89:0.0018450184501845018 90:0.0 91:0.012915129151291513 92:0.0 93:0.007380073800738007 94:0.0 95:0.0018450184501845018 96:0.0 97:0.007380073800738007 98:0.0 99:0.0 100:0.0 101:0.0 102:0.0018450184501845018 103:0.0 104:0.0 105:0.0018450184501845018 106:0.005535055350553505 107:0.0 108:0.0 109:0.005535055350553505 110:0.0 111:0.0 112:0.0 113:0.0 114:0.0018450184501845018 115:0.0036900369003690036 116:0.0 117:0.012915129151291513 118:0.0 119:0.0 120:0.0 121:0.005535055350553505 122:0.005535055350553505 123:0.007380073800738007 124:0.0 125:0.00922509225092251 126:0.0 127:0.005535055350553505 128:0.0 129:0.0 130:0.0036900369003690036 131:0.0018450184501845018 132:0.016605166051660517 133:0.016605166051660517 134:0.0 135:0.0 136:0.0 137:0.0 138:0.0 139:0.0 140:0.005535055350553505 141:0.0 142:0.0 143:0.0 144:0.0 145:0.0 146:0.0018450184501845018 147:0.0 148:0.0036900369003690036 149:0.0 150:0.0 151:0.0036900369003690036 152:0.0036900369003690036 153:0.007380073800738007 154:0.0 155:0.0 156:0.0 157:0.0 158:0.0036900369003690036 159:0.0 160:0.0036900369003690036 
1.0 1:0.014545454545454545 2:0.0 3:0.007272727272727273 4:0.0 5:0.0036363636363636364 6:0.0 7:0.0 8:0.0 9:0.0 10:0.0 11:0.0 12:0.0 13:0.0 14:0.0036363636363636364 15:0.0 16:0.025454545454545455 17:0.014545454545454545 18:0.0 19:0.0 20:0.0 21:0.0 22:0.0 23:0.0 24:0.0036363636363636364 25:0.0 26:0.0 27:0.0 28:0.0036363636363636364 29:0.0 30:0.007272727272727273 31:0.0 32:0.0036363636363636364 33:0.0036363636363636364 34:0.0 35:0.0 36:0.0 37:0.014545454545454545 38:0.0 39:0.0 40:0.0 41:0.0 42:0.0 43:0.007272727272727273 44:0.0 45:0.0 46:0.0036363636363636364 47:0.0 48:0.0 49:0.0 50:0.0 51:0.0036363636363636364 52:0.0 53:0.0036363636363636364 54:0.0 55:0.0036363636363636364 56:0.0 57:0.0036363636363636364 58:0.0036363636363636364 59:0.0036363636363636364 60:0.0 61:0.0 62:0.0 63:0.0036363636363636364 64:0.0036363636363636364 65:0.0 66:0.0 67:0.0 68:0.7709090909090909 69:0.0036363636363636364 70:0.01090909090909091 71:0.0 72:0.0 73:0.0 74:0.0 75:0.0 76:0.0036363636363636364 77:0.0 78:0.0 79:0.0 80:0.0 81:0.0 82:0.0 83:0.0 84:0.0 85:0.0 86:0.0 87:0.0 88:0.0036363636363636364 89:0.0 90:0.0036363636363636364 91:0.0 92:0.0 93:0.0 94:0.0 95:0.0 96:0.0036363636363636364 97:0.007272727272727273 98:0.0 99:0.0 100:0.0 101:0.0 102:0.0 103:0.0 104:0.0 105:0.01090909090909091 106:0.0 107:0.0 108:0.0 109:0.0 110:0.0 111:0.0 112:0.0 113:0.0036363636363636364 114:0.0 115:0.0 116:0.0036363636363636364 117:0.0 118:0.0 119:0.0 120:0.0 121:0.0 122:0.0 123:0.0 124:0.0 125:0.0 126:0.0 127:0.0036363636363636364 128:0.0 129:0.007272727272727273 130:0.0 131:0.0 132:0.0 133:0.0 134:0.0 135:0.0 136:0.0 137:0.0 138:0.0 139:0.0 140:0.0036363636363636364 141:0.0 142:0.0 143:0.0 144:0.0 145:0.0 146:0.0 147:0.0 148:0.0036363636363636364 149:0.0 150:0.0 151:0.0 152:0.0036363636363636364 153:0.0 154:0.0 155:0.0 156:0.0 157:0.0 158:0.007272727272727273 159:0.0 160:0.0 
1.0 1:0.002242152466367713 2:0.020179372197309416 3:0.0 4:0.0 5:0.006726457399103139 6:0.002242152466367713 7:0.008968609865470852 8:0.0 9:0.008968609865470852 10:0.0 11:0.004484304932735426 12:0.0 13:0.0 14:0.008968609865470852 15:0.0 16:0.008968609865470852 17:0.011210762331838564 18:0.0 19:0.008968609865470852 20:0.006726457399103139 21:0.0 22:0.0 23:0.008968609865470852 24:0.002242152466367713 25:0.008968609865470852 26:0.0 27:0.0 28:0.02242152466367713 29:0.0 30:0.002242152466367713 31:0.006726457399103139 32:0.0 33:0.006726457399103139 34:0.0 35:0.0 36:0.008968609865470852 37:0.011210762331838564 38:0.0 39:0.0 40:0.013452914798206279 41:0.0 42:0.0 43:0.006726457399103139 44:0.0 45:0.004484304932735426 46:0.006726457399103139 47:0.0 48:0.008968609865470852 49:0.008968609865470852 50:0.006726457399103139 51:0.004484304932735426 52:0.0 53:0.004484304932735426 54:0.0 55:0.002242152466367713 56:0.0 57:0.0 58:0.006726457399103139 59:0.0 60:0.0 61:0.0 62:0.0 63:0.004484304932735426 64:0.0 65:0.002242152466367713 66:0.0 67:0.0 68:0.452914798206278 69:0.011210762331838564 70:0.006726457399103139 71:0.020179372197309416 72:0.033632286995515695 73:0.0 74:0.0 75:0.0 76:0.004484304932735426 77:0.006726457399103139 78:0.004484304932735426 79:0.0 80:0.0 81:0.0 82:0.002242152466367713 83:0.011210762331838564 84:0.0 85:0.002242152466367713 86:0.0 87:0.0 88:0.006726457399103139 89:0.0 90:0.0 91:0.01569506726457399 92:0.0 93:0.008968609865470852 94:0.0 95:0.002242152466367713 96:0.0 97:0.004484304932735426 98:0.0 99:0.0 100:0.0 101:0.0 102:0.002242152466367713 103:0.0 104:0.0 105:0.002242152466367713 106:0.004484304932735426 107:0.0 108:0.0 109:0.006726457399103139 110:0.0 111:0.0 112:0.0 113:0.0 114:0.0 115:0.002242152466367713 116:0.0 117:0.01569506726457399 118:0.0 119:0.0 120:0.0 121:0.0 122:0.006726457399103139 123:0.008968609865470852 124:0.0 125:0.011210762331838564 126:0.0 127:0.006726457399103139 128:0.0 129:0.0 130:0.0 131:0.004484304932735426 132:0.020179372197309416 133:0.013452914798206279 134:0.0 135:0.0 136:0.0 137:0.0 138:0.0 139:0.0 140:0.004484304932735426 141:0.0 142:0.0 143:0.0 144:0.002242152466367713 145:0.0 146:0.002242152466367713 147:0.0 148:0.004484304932735426 149:0.0 150:0.0 151:0.006726457399103139 152:0.004484304932735426 153:0.011210762331838564 154:0.0 155:0.0 156:0.0 157:0.0 158:0.002242152466367713 159:0.0 160:0.004484304932735426 
1.0 1:0.00425531914893617 2:0.002127659574468085 3:0.0 4:0.0 5:0.006382978723404255 6:0.0 7:0.0 8:0.0 9:0.03829787234042553 10:0.0 11:0.00425531914893617 12:0.0 13:0.0 14:0.014893617021276596 15:0.0 16:0.002127659574468085 17:0.00851063829787234 18:0.0 19:0.00425531914893617 20:0.002127659574468085 21:0.0 22:0.006382978723404255 23:0.019148936170212766 24:0.006382978723404255 25:0.00425531914893617 26:0.0 27:0.0 28:0.02127659574468085 29:0.0 30:0.002127659574468085 31:0.00851063829787234 32:0.0 33:0.00425531914893617 34:0.0 35:0.0 36:0.006382978723404255 37:0.00851063829787234 38:0.0 39:0.0 40:0.006382978723404255 41:0.0 42:0.0 43:0.00425531914893617 44:0.0 45:0.006382978723404255 46:0.00851063829787234 47:0.0 48:0.01276595744680851 49:0.00425531914893617 50:0.00425531914893617 51:0.002127659574468085 52:0.002127659574468085 53:0.002127659574468085 54:0.0 55:0.0 56:0.0 57:0.0 58:0.01276595744680851 59:0.002127659574468085 60:0.0 61:0.0 62:0.0 63:0.0 64:0.0 65:0.00425531914893617 66:0.0 67:0.0 68:0.4276595744680851 69:0.01276595744680851 70:0.006382978723404255 71:0.014893617021276596 72:0.031914893617021274 73:0.0 74:0.0 75:0.0 76:0.00851063829787234 77:0.010638297872340425 78:0.00425531914893617 79:0.0 80:0.0 81:0.0 82:0.0 83:0.00851063829787234 84:0.0 85:0.002127659574468085 86:0.0 87:0.0 88:0.002127659574468085 89:0.0 90:0.0 91:0.006382978723404255 92:0.0 93:0.00425531914893617 94:0.0 95:0.00425531914893617 96:0.002127659574468085 97:0.006382978723404255 98:0.0 99:0.0 100:0.0 101:0.0 102:0.002127659574468085 103:0.0 104:0.0 105:0.0 106:0.00425531914893617 107:0.0 108:0.0 109:0.00425531914893617 110:0.0 111:0.0 112:0.0 113:0.0 114:0.0 115:0.002127659574468085 116:0.01276595744680851 117:0.006382978723404255 118:0.002127659574468085 119:0.0 120:0.0 121:0.01276595744680851 122:0.006382978723404255 123:0.006382978723404255 124:0.0 125:0.02127659574468085 126:0.0 127:0.006382978723404255 128:0.0 129:0.0 130:0.002127659574468085 131:0.00851063829787234 132:0.019148936170212766 133:0.00851063829787234 134:0.0 135:0.0 136:0.0 137:0.0 138:0.0 139:0.002127659574468085 140:0.01276595744680851 141:0.0 142:0.0 143:0.0 144:0.002127659574468085 145:0.0 146:0.002127659574468085 147:0.0 148:0.00425531914893617 149:0.0 150:0.0 151:0.031914893617021274 152:0.006382978723404255 153:0.002127659574468085 154:0.0 155:0.0 156:0.0 157:0.0 158:0.006382978723404255 159:0.0 160:0.00425531914893617 
1.0 1:0.007462686567164179 2:0.009950248756218905 3:0.0 4:0.0 5:0.004975124378109453 6:0.0024875621890547263 7:0.0 8:0.0 9:0.004975124378109453 10:0.0 11:0.004975124378109453 12:0.0 13:0.0 14:0.012437810945273632 15:0.0 16:0.004975124378109453 17:0.004975124378109453 18:0.0 19:0.007462686567164179 20:0.0024875621890547263 21:0.0 22:0.0024875621890547263 23:0.007462686567164179 24:0.0024875621890547263 25:0.009950248756218905 26:0.0 27:0.0 28:0.024875621890547265 29:0.0 30:0.0 31:0.004975124378109453 32:0.0 33:0.007462686567164179 34:0.0 35:0.0 36:0.004975124378109453 37:0.007462686567164179 38:0.0 39:0.0 40:0.009950248756218905 41:0.0 42:0.0 43:0.004975124378109453 44:0.0 45:0.004975124378109453 46:0.007462686567164179 47:0.0 48:0.004975124378109453 49:0.004975124378109453 50:0.004975124378109453 51:0.0024875621890547263 52:0.0024875621890547263 53:0.004975124378109453 54:0.0 55:0.0 56:0.0 57:0.0 58:0.007462686567164179 59:0.0 60:0.0 61:0.0 62:0.0 63:0.0 64:0.0024875621890547263 65:0.0 66:0.0 67:0.0 68:0.5746268656716418 69:0.007462686567164179 70:0.0024875621890547263 71:0.012437810945273632 72:0.03482587064676617 73:0.0 74:0.0 75:0.0 76:0.012437810945273632 77:0.004975124378109453 78:0.0024875621890547263 79:0.0 80:0.0 81:0.0 82:0.0 83:0.009950248756218905 84:0.0024875621890547263 85:0.004975124378109453 86:0.0 87:0.0 88:0.0024875621890547263 89:0.0 90:0.0 91:0.007462686567164179 92:0.0 93:0.007462686567164179 94:0.0 95:0.0024875621890547263 96:0.0 97:0.004975124378109453 98:0.0 99:0.0 100:0.0 101:0.0 102:0.0 103:0.0 104:0.0 105:0.0024875621890547263 106:0.004975124378109453 107:0.0 108:0.0 109:0.0024875621890547263 110:0.0 111:0.0 112:0.0 113:0.0 114:0.0 115:0.004975124378109453 116:0.017412935323383085 117:0.009950248756218905 118:0.0 119:0.0 120:0.0 121:0.0024875621890547263 122:0.0 123:0.004975124378109453 124:0.0 125:0.009950248756218905 126:0.0 127:0.0024875621890547263 128:0.0 129:0.0 130:0.0 131:0.0 132:0.009950248756218905 133:0.0024875621890547263 134:0.0 135:0.0 136:0.0 137:0.0 138:0.0 139:0.0 140:0.004975124378109453 141:0.0 142:0.0 143:0.0 144:0.0 145:0.0 146:0.0024875621890547263 147:0.0 148:0.0024875621890547263 149:0.0 150:0.0 151:0.0024875621890547263 152:0.0 153:0.004975124378109453 154:0.0 155:0.004975124378109453 156:0.0 157:0.0 158:0.0024875621890547263 159:0.0 160:0.004975124378109453 
1.0 1:0.004140786749482402 2:0.010351966873706004 3:0.0 4:0.0 5:0.004140786749482402 6:0.0 7:0.002070393374741201 8:0.0 9:0.024844720496894408 10:0.0 11:0.002070393374741201 12:0.0 13:0.0 14:0.016563146997929608 15:0.0 16:0.002070393374741201 17:0.006211180124223602 18:0.0 19:0.004140786749482402 20:0.002070393374741201 21:0.0 22:0.004140786749482402 23:0.020703933747412008 24:0.006211180124223602 25:0.006211180124223602 26:0.0 27:0.0 28:0.018633540372670808 29:0.0 30:0.002070393374741201 31:0.010351966873706004 32:0.0 33:0.002070393374741201 34:0.0 35:0.0 36:0.006211180124223602 37:0.004140786749482402 38:0.0 39:0.0 40:0.006211180124223602 41:0.0 42:0.0 43:0.004140786749482402 44:0.0 45:0.008281573498964804 46:0.008281573498964804 47:0.0 48:0.014492753623188406 49:0.004140786749482402 50:0.004140786749482402 51:0.004140786749482402 52:0.0 53:0.004140786749482402 54:0.0 55:0.002070393374741201 56:0.0 57:0.0 58:0.014492753623188406 59:0.0 60:0.0 61:0.0 62:0.0 63:0.0 64:0.0 65:0.004140786749482402 66:0.0 67:0.0 68:0.4492753623188406 69:0.008281573498964804 70:0.004140786749482402 71:0.018633540372670808 72:0.033126293995859216 73:0.0 74:0.0 75:0.0 76:0.004140786749482402 77:0.008281573498964804 78:0.004140786749482402 79:0.004140786749482402 80:0.0 81:0.0 82:0.0 83:0.010351966873706004 84:0.002070393374741201 85:0.002070393374741201 86:0.0 87:0.0 88:0.004140786749482402 89:0.002070393374741201 90:0.0 91:0.006211180124223602 92:0.0 93:0.008281573498964804 94:0.0 95:0.004140786749482402 96:0.004140786749482402 97:0.006211180124223602 98:0.0 99:0.0 100:0.0 101:0.0 102:0.002070393374741201 103:0.0 104:0.0 105:0.0 106:0.004140786749482402 107:0.0 108:0.0 109:0.004140786749482402 110:0.0 111:0.0 112:0.0 113:0.0 114:0.0 115:0.004140786749482402 116:0.026915113871635612 117:0.006211180124223602 118:0.0 119:0.0 120:0.0 121:0.018633540372670808 122:0.004140786749482402 123:0.006211180124223602 124:0.0 125:0.004140786749482402 126:0.0 127:0.002070393374741201 128:0.0 129:0.0 130:0.002070393374741201 131:0.010351966873706004 132:0.020703933747412008 133:0.004140786749482402 134:0.0 135:0.0 136:0.0 137:0.0 138:0.0 139:0.0 140:0.006211180124223602 141:0.0 142:0.0 143:0.0 144:0.0 145:0.0 146:0.002070393374741201 147:0.0 148:0.006211180124223602 149:0.0 150:0.0 151:0.024844720496894408 152:0.004140786749482402 153:0.002070393374741201 154:0.0 155:0.0 156:0.0 157:0.0 158:0.008281573498964804 159:0.0 160:0.004140786749482402 
1.0 1:0.004739336492890996 2:0.014218009478672985 3:0.0 4:0.004739336492890996 5:0.0 6:0.0 7:0.018957345971563982 8:0.0 9:0.004739336492890996 10:0.0 11:0.0 12:0.0 13:0.0 14:0.004739336492890996 15:0.0 16:0.0 17:0.0 18:0.0 19:0.004739336492890996 20:0.0 21:0.0 22:0.009478672985781991 23:0.0 24:0.0 25:0.0 26:0.0 27:0.0 28:0.0 29:0.0 30:0.0 31:0.004739336492890996 32:0.0 33:0.014218009478672985 34:0.0 35:0.0 36:0.0 37:0.004739336492890996 38:0.0 39:0.0 40:0.004739336492890996 41:0.0 42:0.0 43:0.018957345971563982 44:0.0 45:0.0 46:0.004739336492890996 47:0.0 48:0.0 49:0.0 50:0.0 51:0.0 52:0.0 53:0.0 54:0.0 55:0.0 56:0.0 57:0.0 58:0.0 59:0.0 60:0.0 61:0.0 62:0.0 63:0.0 64:0.0 65:0.0 66:0.0 67:0.0 68:0.7251184834123223 69:0.0 70:0.0 71:0.0 72:0.004739336492890996 73:0.0 74:0.0 75:0.0 76:0.004739336492890996 77:0.0 78:0.0 79:0.0 80:0.0 81:0.0 82:0.0 83:0.009478672985781991 84:0.0 85:0.0 86:0.0 87:0.0 88:0.0 89:0.0 90:0.0 91:0.004739336492890996 92:0.0 93:0.0 94:0.0 95:0.0 96:0.0 97:0.0 98:0.0 99:0.0 100:0.0 101:0.0 102:0.004739336492890996 103:0.0 104:0.0 105:0.0 106:0.004739336492890996 107:0.0 108:0.0 109:0.0 110:0.0 111:0.0 112:0.0 113:0.0 114:0.0 115:0.0 116:0.004739336492890996 117:0.0 118:0.004739336492890996 119:0.0 120:0.0 121:0.0 122:0.0 123:0.004739336492890996 124:0.0 125:0.04265402843601896 126:0.0 127:0.004739336492890996 128:0.0 129:0.0 130:0.0 131:0.009478672985781991 132:0.004739336492890996 133:0.009478672985781991 134:0.0 135:0.0 136:0.0 137:0.0 138:0.0 139:0.0 140:0.009478672985781991 141:0.0 142:0.0 143:0.0 144:0.0 145:0.0 146:0.0 147:0.0 148:0.009478672985781991 149:0.0 150:0.0 151:0.0 152:0.0 153:0.004739336492890996 154:0.0 155:0.004739336492890996 156:0.004739336492890996 157:0.0 158:0.004739336492890996 159:0.0 160:0.0 
0.27212681824552876 1:0.007547169811320755 2:0.0 3:0.0037735849056603774 4:0.0 5:0.0037735849056603774 6:0.0 7:0.0 8:0.0 9:0.0037735849056603774 10:0.0 11:0.0 12:0.0 13:0.0 14:0.0 15:0.0 16:0.0 17:0.0037735849056603774 18:0.0 19:0.0037735849056603774 20:0.0 21:0.0037735849056603774 22:0.0037735849056603774 23:0.0037735849056603774 24:0.0037735849056603774 25:0.0 26:0.0 27:0.0 28:0.007547169811320755 29:0.0 30:0.0 31:0.0 32:0.0037735849056603774 33:0.0037735849056603774 34:0.0 35:0.0 36:0.0 37:0.0037735849056603774 38:0.0 39:0.0 40:0.0 41:0.0 42:0.0 43:0.007547169811320755 44:0.0 45:0.0 46:0.0 47:0.0 48:0.0 49:0.0 50:0.0 51:0.0037735849056603774 52:0.0 53:0.0 54:0.0 55:0.0037735849056603774 56:0.0 57:0.0 58:0.0 59:0.0 60:0.0 61:0.0 62:0.0 63:0.0 64:0.0 65:0.0 66:0.0 67:0.0 68:0.769811320754717 69:0.0 70:0.0 71:0.007547169811320755 72:0.0 73:0.0 74:0.0 75:0.0 76:0.007547169811320755 77:0.0037735849056603774 78:0.0037735849056603774 79:0.0037735849056603774 80:0.0 81:0.0 82:0.0 83:0.007547169811320755 84:0.0 85:0.0 86:0.0 87:0.0 88:0.0 89:0.0 90:0.0 91:0.0 92:0.0 93:0.0 94:0.0 95:0.0037735849056603774 96:0.0037735849056603774 97:0.0037735849056603774 98:0.0 99:0.0 100:0.0 101:0.0 102:0.0 103:0.0 104:0.0 105:0.0 106:0.007547169811320755 107:0.0 108:0.0 109:0.0037735849056603774 110:0.0 111:0.0 112:0.0037735849056603774 113:0.0037735849056603774 114:0.0 115:0.0 116:0.0 117:0.007547169811320755 118:0.0 119:0.0 120:0.0 121:0.011320754716981131 122:0.0 123:0.0 124:0.0 125:0.0 126:0.0 127:0.018867924528301886 128:0.0 129:0.0 130:0.0 131:0.01509433962264151 132:0.007547169811320755 133:0.011320754716981131 134:0.0 135:0.0 136:0.0 137:0.0 138:0.0 139:0.0 140:0.0037735849056603774 141:0.0 142:0.0 143:0.0 144:0.0 145:0.0 146:0.0 147:0.0 148:0.0 149:0.0 150:0.0 151:0.007547169811320755 152:0.0 153:0.0 154:0.0 155:0.0 156:0.0037735849056603774 157:0.0 158:0.0 159:0.0 160:0.0037735849056603774 
1.0 1:0.007722007722007722 2:0.003861003861003861 3:0.003861003861003861 4:0.0 5:0.011583011583011582 6:0.0 7:0.0 8:0.0 9:0.003861003861003861 10:0.0 11:0.0 12:0.0 13:0.0 14:0.0 15:0.0 16:0.003861003861003861 17:0.003861003861003861 18:0.0 19:0.003861003861003861 20:0.0 21:0.0 22:0.003861003861003861 23:0.007722007722007722 24:0.0 25:0.0 26:0.0 27:0.0 28:0.011583011583011582 29:0.0 30:0.0 31:0.0 32:0.0 33:0.003861003861003861 34:0.0 35:0.0 36:0.0 37:0.007722007722007722 38:0.0 39:0.0 40:0.0 41:0.0 42:0.0 43:0.007722007722007722 44:0.0 45:0.003861003861003861 46:0.0 47:0.0 48:0.0 49:0.0 50:0.0 51:0.003861003861003861 52:0.0 53:0.0 54:0.0 55:0.003861003861003861 56:0.0 57:0.0 58:0.0 59:0.0 60:0.0 61:0.0 62:0.0 63:0.0 64:0.0 65:0.0 66:0.0 67:0.0 68:0.7644787644787645 69:0.003861003861003861 70:0.0 71:0.003861003861003861 72:0.0 73:0.0 74:0.0 75:0.0 76:0.003861003861003861 77:0.0 78:0.003861003861003861 79:0.0 80:0.0 81:0.0 82:0.0 83:0.003861003861003861 84:0.0 85:0.0 86:0.0 87:0.0 88:0.0 89:0.003861003861003861 90:0.003861003861003861 91:0.0 92:0.0 93:0.0 94:0.0 95:0.003861003861003861 96:0.003861003861003861 97:0.003861003861003861 98:0.0 99:0.0 100:0.0 101:0.0 102:0.0 103:0.0 104:0.0 105:0.0 106:0.007722007722007722 107:0.0 108:0.0 109:0.0 110:0.0 111:0.0 112:0.003861003861003861 113:0.0 114:0.0 115:0.003861003861003861 116:0.0 117:0.007722007722007722 118:0.0 119:0.0 120:0.0 121:0.011583011583011582 122:0.0 123:0.0 124:0.0 125:0.0 126:0.0 127:0.023166023166023165 128:0.0 129:0.0 130:0.0 131:0.011583011583011582 132:0.007722007722007722 133:0.003861003861003861 134:0.0 135:0.0 136:0.0 137:0.0 138:0.0 139:0.0 140:0.003861003861003861 141:0.0 142:0.0 143:0.0 144:0.0 145:0.0 146:0.003861003861003861 147:0.0 148:0.0 149:0.0 150:0.0 151:0.011583011583011582 152:0.0 153:0.0 154:0.0 155:0.0 156:0.0 157:0.0 158:0.0 159:0.0 160:0.0 
1.0 1:0.006726457399103139 2:0.017937219730941704 3:0.0 4:0.0 5:0.006726457399103139 6:0.004484304932735426 7:0.008968609865470852 8:0.0 9:0.008968609865470852 10:0.0 11:0.002242152466367713 12:0.0 13:0.0 14:0.006726457399103139 15:0.0 16:0.006726457399103139 17:0.011210762331838564 18:0.0 19:0.011210762331838564 20:0.006726457399103139 21:0.0 22:0.0 23:0.008968609865470852 24:0.002242152466367713 25:0.008968609865470852 26:0.0 27:0.0 28:0.02466367713004484 29:0.0 30:0.002242152466367713 31:0.004484304932735426 32:0.0 33:0.004484304932735426 34:0.0 35:0.0 36:0.008968609865470852 37:0.011210762331838564 38:0.0 39:0.0 40:0.008968609865470852 41:0.0 42:0.0 43:0.006726457399103139 44:0.0 45:0.002242152466367713 46:0.006726457399103139 47:0.0 48:0.006726457399103139 49:0.008968609865470852 50:0.006726457399103139 51:0.004484304932735426 52:0.0 53:0.004484304932735426 54:0.0 55:0.002242152466367713 56:0.0 57:0.0 58:0.008968609865470852 59:0.0 60:0.0 61:0.0 62:0.0 63:0.002242152466367713 64:0.002242152466367713 65:0.002242152466367713 66:0.0 67:0.0 68:0.452914798206278 69:0.008968609865470852 70:0.006726457399103139 71:0.017937219730941704 72:0.03811659192825112 73:0.0 74:0.0 75:0.0 76:0.004484304932735426 77:0.004484304932735426 78:0.004484304932735426 79:0.0 80:0.0 81:0.0 82:0.0 83:0.011210762331838564 84:0.0 85:0.002242152466367713 86:0.0 87:0.0 88:0.006726457399103139 89:0.0 90:0.0 91:0.01569506726457399 92:0.0 93:0.008968609865470852 94:0.0 95:0.002242152466367713 96:0.0 97:0.004484304932735426 98:0.0 99:0.0 100:0.0 101:0.0 102:0.002242152466367713 103:0.0 104:0.0 105:0.002242152466367713 106:0.004484304932735426 107:0.0 108:0.0 109:0.006726457399103139 110:0.0 111:0.0 112:0.0 113:0.0 114:0.0 115:0.002242152466367713 116:0.020179372197309416 117:0.020179372197309416 118:0.0 119:0.0 120:0.0 121:0.002242152466367713 122:0.004484304932735426 123:0.006726457399103139 124:0.0 125:0.008968609865470852 126:0.0 127:0.006726457399103139 128:0.0 129:0.0 130:0.0 131:0.004484304932735426 132:0.020179372197309416 133:0.013452914798206279 134:0.0 135:0.0 136:0.0 137:0.0 138:0.0 139:0.0 140:0.004484304932735426 141:0.0 142:0.0 143:0.0 144:0.0 145:0.0 146:0.002242152466367713 147:0.0 148:0.004484304932735426 149:0.0 150:0.0 151:0.002242152466367713 152:0.004484304932735426 153:0.008968609865470852 154:0.0 155:0.002242152466367713 156:0.0 157:0.0 158:0.002242152466367713 159:0.0 160:0.004484304932735426 
