svm_type one_class
kernel_type rbf
gamma 0.5
nr_class 2
total_sv 174
rho 168.11363070517774
SV
1.0 1:0.0 2:0.0 3:0.0 4:0.0 5:0.0 6:0.0 7:0.0 8:0.0 9:0.0 10:0.0 11:0.0 12:0.0 13:0.0 14:0.0 15:0.0 16:0.0 17:0.0 18:0.0 19:0.0 20:0.0 21:0.0 22:0.0 23:0.0 24:0.0 25:0.0 26:0.0 27:0.0 28:0.0 29:0.0 30:0.0 31:0.0 32:0.0 33:0.0 34:0.0 35:0.0 36:0.0 37:0.0 38:0.0 39:0.0 40:0.0 41:0.0 42:0.0 43:0.0 44:0.0 45:0.0 46:0.0 47:0.0 48:0.0 49:0.0 50:0.0 51:0.0 52:0.0 53:0.0 54:0.0 55:0.0 56:0.0 57:0.0 58:0.0 59:0.0 60:0.0 61:0.0 62:0.0 63:0.0 64:0.0 65:0.0 66:0.0 67:0.0 68:0.0 69:0.0 70:0.0 71:0.0 72:0.0 73:0.0 74:0.0 75:0.0 76:0.0 77:0.0 78:0.0 79:0.0 80:0.0 81:0.0 82:0.0 83:0.0 84:0.0 85:0.0 86:0.0 87:0.0 88:0.0 89:0.0 90:0.0 91:0.0 92:0.0 93:0.0 94:0.0 95:0.0 96:1.0 97:0.0 98:0.0 99:0.0 100:0.0 101:0.0 102:0.0 103:0.0 104:0.0 105:0.0 106:0.0 107:0.0 108:0.0 109:0.0 110:0.0 111:0.0 112:0.0 113:0.0 114:0.0 115:0.0 116:0.0 117:0.0 118:0.0 119:0.0 120:0.0 121:0.0 122:0.0 123:0.0 124:0.0 125:0.0 126:0.0 127:0.0 128:0.0 129:0.0 130:0.0 131:0.0 132:0.0 133:0.0 134:0.0 135:0.0 136:0.0 137:0.0 138:0.0 139:0.0 140:0.0 141:0.0 142:0.0 143:0.0 144:0.0 145:0.0 146:0.0 147:0.0 148:0.0 149:0.0 150:0.0 151:0.0 152:0.0 153:0.0 154:0.0 155:0.0 156:0.0 157:0.0 158:0.0 159:0.0 160:0.0 
1.0 1:0.0 2:0.0 3:0.0 4:0.0 5:0.0 6:0.0 7:0.0 8:0.0 9:0.0 10:0.0 11:0.0 12:0.0 13:0.0 14:0.0 15:0.0 16:0.0 17:0.0 18:0.0 19:0.0 20:0.0 21:0.0 22:0.0 23:0.0 24:0.0 25:0.0 26:0.0 27:0.0 28:0.0 29:0.0 30:0.0 31:0.0 32:0.0 33:0.0 34:0.0 35:0.0 36:0.0 37:0.0 38:0.0 39:0.0 40:0.0 41:0.0 42:0.0 43:0.0 44:0.0 45:0.0 46:0.0 47:0.0 48:0.0 49:0.0 50:0.0 51:0.0 52:0.0 53:0.0 54:0.0 55:0.0 56:0.0 57:0.0 58:0.0 59:0.0 60:0.0 61:0.0 62:0.0 63:0.0 64:0.0 65:0.0 66:0.0 67:0.0 68:0.0 69:0.0 70:0.0 71:0.0 72:0.0 73:0.0 74:0.0 75:0.0 76:0.0 77:0.0 78:0.0 79:0.0 80:0.0 81:0.0 82:0.0 83:0.0 84:0.0 85:0.0 86:0.0 87:0.0 88:0.0 89:0.0 90:0.0 91:0.0 92:0.0 93:0.0 94:0.0 95:0.0 96:1.0 97:0.0 98:0.0 99:0.0 100:0.0 101:0.0 102:0.0 103:0.0 104:0.0 105:0.0 106:0.0 107:0.0 108:0.0 109:0.0 110:0.0 111:0.0 112:0.0 113:0.0 114:0.0 115:0.0 116:0.0 117:0.0 118:0.0 119:0.0 120:0.0 121:0.0 122:0.0 123:0.0 124:0.0 125:0.0 126:0.0 127:0.0 128:0.0 129:0.0 130:0.0 131:0.0 132:0.0 133:0.0 134:0.0 135:0.0 136:0.0 137:0.0 138:0.0 139:0.0 140:0.0 141:0.0 142:0.0 143:0.0 144:0.0 145:0.0 146:0.0 147:0.0 148:0.0 149:0.0 150:0.0 151:0.0 152:0.0 153:0.0 154:0.0 155:0.0 156:0.0 157:0.0 158:0.0 159:0.0 160:0.0 
1.0 1:0.0 2:0.0 3:0.0 4:0.0 5:0.0 6:0.0 7:0.0 8:0.0 9:0.0 10:0.0 11:0.0 12:0.0 13:0.0 14:0.0 15:0.0 16:0.0 17:0.0 18:0.0 19:0.0 20:0.0 21:0.0 22:0.0 23:0.0 24:0.0 25:0.0 26:0.0 27:0.0 28:0.0 29:0.0 30:0.0 31:0.0 32:0.0 33:0.0 34:0.0 35:0.0 36:0.0 37:0.0 38:0.0 39:0.0 40:0.0 41:0.0 42:0.0 43:0.0 44:0.0 45:0.0 46:0.0 47:0.0 48:0.0 49:0.0 50:0.0 51:0.0 52:0.0 53:0.0 54:0.0 55:0.0 56:0.0 57:0.0 58:0.0 59:0.0 60:0.0 61:0.0 62:0.0 63:0.0 64:0.0 65:0.0 66:0.0 67:0.0 68:0.0 69:0.0 70:0.0 71:0.0 72:0.0 73:0.0 74:0.0 75:0.0 76:0.0 77:0.0 78:0.0 79:0.0 80:0.0 81:0.0 82:0.0 83:0.0 84:0.0 85:0.0 86:0.0 87:0.0 88:0.0 89:0.0 90:0.0 91:0.0 92:0.0 93:0.0 94:0.0 95:0.0 96:1.0 97:0.0 98:0.0 99:0.0 100:0.0 101:0.0 102:0.0 103:0.0 104:0.0 105:0.0 106:0.0 107:0.0 108:0.0 109:0.0 110:0.0 111:0.0 112:0.0 113:0.0 114:0.0 115:0.0 116:0.0 117:0.0 118:0.0 119:0.0 120:0.0 121:0.0 122:0.0 123:0.0 124:0.0 125:0.0 126:0.0 127:0.0 128:0.0 129:0.0 130:0.0 131:0.0 132:0.0 133:0.0 134:0.0 135:0.0 136:0.0 137:0.0 138:0.0 139:0.0 140:0.0 141:0.0 142:0.0 143:0.0 144:0.0 145:0.0 146:0.0 147:0.0 148:0.0 149:0.0 150:0.0 151:0.0 152:0.0 153:0.0 154:0.0 155:0.0 156:0.0 157:0.0 158:0.0 159:0.0 160:0.0 
1.0 1:0.0 2:0.0 3:0.0 4:0.0 5:0.0 6:0.0 7:0.0 8:0.0 9:0.0 10:0.0 11:0.0 12:0.0 13:0.0 14:0.0 15:0.0 16:0.0 17:0.0 18:0.0 19:0.0 20:0.0 21:0.0 22:0.0 23:0.0 24:0.0 25:0.0 26:0.0 27:0.0 28:0.0 29:0.0 30:0.0 31:0.0 32:0.0 33:0.0 34:0.0 35:0.0 36:0.0 37:0.0 38:0.0 39:0.0 40:0.0 41:0.0 42:0.0 43:0.0 44:0.0 45:0.0 46:0.0 47:0.0 48:0.0 49:0.0 50:0.0 51:0.0 52:0.0 53:0.0 54:0.0 55:0.0 56:0.0 57:0.0 58:0.0 59:0.0 60:0.0 61:0.0 62:0.0 63:0.0 64:0.0 65:0.0 66:0.0 67:0.0 68:0.0 69:0.0 70:0.0 71:0.0 72:0.0 73:0.0 74:0.0 75:0.0 76:0.0 77:0.0 78:0.0 79:0.0 80:0.0 81:0.0 82:0.0 83:0.0 84:0.0 85:0.0 86:0.0 87:0.0 88:0.0 89:0.0 90:0.0 91:0.0 92:0.0 93:0.0 94:0.0 95:0.0 96:1.0 97:0.0 98:0.0 99:0.0 100:0.0 101:0.0 102:0.0 103:0.0 104:0.0 105:0.0 106:0.0 107:0.0 108:0.0 109:0.0 110:0.0 111:0.0 112:0.0 113:0.0 114:0.0 115:0.0 116:0.0 117:0.0 118:0.0 119:0.0 120:0.0 121:0.0 122:0.0 123:0.0 124:0.0 125:0.0 126:0.0 127:0.0 128:0.0 129:0.0 130:0.0 131:0.0 132:0.0 133:0.0 134:0.0 135:0.0 136:0.0 137:0.0 138:0.0 139:0.0 140:0.0 141:0.0 142:0.0 143:0.0 144:0.0 145:0.0 146:0.0 147:0.0 148:0.0 149:0.0 150:0.0 151:0.0 152:0.0 153:0.0 154:0.0 155:0.0 156:0.0 157:0.0 158:0.0 159:0.0 160:0.0 
1.0 1:0.0 2:0.0 3:0.0 4:0.0 5:0.0 6:0.0 7:0.0 8:0.0 9:0.0 10:0.0 11:0.0 12:0.0 13:0.0 14:0.0 15:0.0 16:0.0 17:0.0 18:0.0 19:0.0 20:0.0 21:0.0 22:0.0 23:0.0 24:0.0 25:0.0 26:0.0 27:0.0 28:0.0 29:0.0 30:0.0 31:0.0 32:0.0 33:0.0 34:0.0 35:0.0 36:0.0 37:0.0 38:0.0 39:0.0 40:0.0 41:0.0 42:0.0 43:0.0 44:0.0 45:0.0 46:0.0 47:0.0 48:0.0 49:0.0 50:0.0 51:0.0 52:0.0 53:0.0 54:0.0 55:0.0 56:0.0 57:0.0 58:0.0 59:0.0 60:0.0 61:0.0 62:0.0 63:0.0 64:0.0 65:0.0 66:0.0 67:0.0 68:0.0 69:0.0 70:0.0 71:0.0 72:0.0 73:0.0 74:0.0 75:0.0 76:0.0 77:0.0 78:0.0 79:0.0 80:0.0 81:0.0 82:0.0 83:0.0 84:0.0 85:0.0 86:0.0 87:0.0 88:0.0 89:0.0 90:0.0 91:0.0 92:0.0 93:0.0 94:0.0 95:0.0 96:1.0 97:0.0 98:0.0 99:0.0 100:0.0 101:0.0 102:0.0 103:0.0 104:0.0 105:0.0 106:0.0 107:0.0 108:0.0 109:0.0 110:0.0 111:0.0 112:0.0 113:0.0 114:0.0 115:0.0 116:0.0 117:0.0 118:0.0 119:0.0 120:0.0 121:0.0 122:0.0 123:0.0 124:0.0 125:0.0 126:0.0 127:0.0 128:0.0 129:0.0 130:0.0 131:0.0 132:0.0 133:0.0 134:0.0 135:0.0 136:0.0 137:0.0 138:0.0 139:0.0 140:0.0 141:0.0 142:0.0 143:0.0 144:0.0 145:0.0 146:0.0 147:0.0 148:0.0 149:0.0 150:0.0 151:0.0 152:0.0 153:0.0 154:0.0 155:0.0 156:0.0 157:0.0 158:0.0 159:0.0 160:0.0 
1.0 1:0.0 2:0.0 3:0.0 4:0.0 5:0.0 6:0.0 7:0.0 8:0.0 9:0.0 10:0.0 11:0.0 12:0.0 13:0.0 14:0.0 15:0.0 16:0.0 17:0.0 18:0.0 19:0.0 20:0.0 21:0.0 22:0.0 23:0.0 24:0.0 25:0.0 26:0.0 27:0.0 28:0.0 29:0.0 30:0.0 31:0.0 32:0.0 33:0.0 34:0.0 35:0.0 36:0.0 37:0.0 38:0.0 39:0.0 40:0.0 41:0.0 42:0.0 43:0.0 44:0.0 45:0.0 46:0.0 47:0.0 48:0.0 49:0.0 50:0.0 51:0.0 52:0.0 53:0.0 54:0.0 55:0.0 56:0.0 57:0.0 58:0.0 59:0.0 60:0.0 61:0.0 62:0.0 63:0.0 64:0.0 65:0.0 66:0.0 67:0.0 68:0.0 69:0.0 70:0.0 71:0.0 72:0.0 73:0.0 74:0.0 75:0.0 76:0.0 77:0.0 78:0.0 79:0.0 80:0.0 81:0.0 82:0.0 83:0.0 84:0.0 85:0.0 86:0.0 87:0.0 88:0.0 89:0.0 90:0.0 91:0.0 92:0.0 93:0.0 94:0.0 95:0.0 96:1.0 97:0.0 98:0.0 99:0.0 100:0.0 101:0.0 102:0.0 103:0.0 104:0.0 105:0.0 106:0.0 107:0.0 108:0.0 109:0.0 110:0.0 111:0.0 112:0.0 113:0.0 114:0.0 115:0.0 116:0.0 117:0.0 118:0.0 119:0.0 120:0.0 121:0.0 122:0.0 123:0.0 124:0.0 125:0.0 126:0.0 127:0.0 128:0.0 129:0.0 130:0.0 131:0.0 132:0.0 133:0.0 134:0.0 135:0.0 136:0.0 137:0.0 138:0.0 139:0.0 140:0.0 141:0.0 142:0.0 143:0.0 144:0.0 145:0.0 146:0.0 147:0.0 148:0.0 149:0.0 150:0.0 151:0.0 152:0.0 153:0.0 154:0.0 155:0.0 156:0.0 157:0.0 158:0.0 159:0.0 160:0.0 
1.0 1:0.0 2:0.0 3:0.0 4:0.0 5:0.0 6:0.0 7:0.0 8:0.0 9:0.0 10:0.0 11:0.0 12:0.0 13:0.0 14:0.0 15:0.0 16:0.0 17:0.0 18:0.0 19:0.0 20:0.0 21:0.0 22:0.0 23:0.0 24:0.0 25:0.0 26:0.0 27:0.0 28:0.0 29:0.0 30:0.0 31:0.0 32:0.0 33:0.0 34:0.0 35:0.0 36:0.0 37:0.0 38:0.0 39:0.0 40:0.0 41:0.0 42:0.0 43:0.0 44:0.0 45:0.0 46:0.0 47:0.0 48:0.0 49:0.0 50:0.0 51:0.0 52:0.0 53:0.0 54:0.0 55:0.0 56:0.0 57:0.0 58:0.0 59:0.0 60:0.0 61:0.0 62:0.0 63:0.0 64:0.0 65:0.0 66:0.0 67:0.0 68:0.0 69:0.0 70:0.0 71:0.0 72:0.0 73:0.0 74:0.0 75:0.0 76:0.0 77:0.0 78:0.0 79:0.0 80:0.0 81:0.0 82:0.0 83:0.0 84:0.0 85:0.0 86:0.0 87:0.0 88:0.0 89:0.0 90:0.0 91:0.0 92:0.0 93:0.0 94:0.0 95:0.0 96:1.0 97:0.0 98:0.0 99:0.0 100:0.0 101:0.0 102:0.0 103:0.0 104:0.0 105:0.0 106:0.0 107:0.0 108:0.0 109:0.0 110:0.0 111:0.0 112:0.0 113:0.0 114:0.0 115:0.0 116:0.0 117:0.0 118:0.0 119:0.0 120:0.0 121:0.0 122:0.0 123:0.0 124:0.0 125:0.0 126:0.0 127:0.0 128:0.0 129:0.0 130:0.0 131:0.0 132:0.0 133:0.0 134:0.0 135:0.0 136:0.0 137:0.0 138:0.0 139:0.0 140:0.0 141:0.0 142:0.0 143:0.0 144:0.0 145:0.0 146:0.0 147:0.0 148:0.0 149:0.0 150:0.0 151:0.0 152:0.0 153:0.0 154:0.0 155:0.0 156:0.0 157:0.0 158:0.0 159:0.0 160:0.0 
1.0 1:0.0 2:0.0 3:0.0 4:0.0 5:0.0 6:0.0 7:0.0 8:0.0 9:0.0 10:0.0 11:0.0 12:0.0 13:0.0 14:0.0 15:0.0 16:0.0 17:0.0 18:0.0 19:0.0 20:0.0 21:0.0 22:0.0 23:0.0 24:0.0 25:0.0 26:0.0 27:0.0 28:0.0 29:0.0 30:0.0 31:0.0 32:0.0 33:0.0 34:0.0 35:0.0 36:0.0 37:0.0 38:0.0 39:0.0 40:0.0 41:0.0 42:0.0 43:0.0 44:0.0 45:0.0 46:0.0 47:0.0 48:0.0 49:0.0 50:0.0 51:0.0 52:0.0 53:0.0 54:0.0 55:0.0 56:0.0 57:0.0 58:0.0 59:0.0 60:0.0 61:0.0 62:0.0 63:0.0 64:0.0 65:0.0 66:0.0 67:0.0 68:0.0 69:0.0 70:0.0 71:0.0 72:0.0 73:0.0 74:0.0 75:0.0 76:0.0 77:0.0 78:0.0 79:0.0 80:0.0 81:0.0 82:0.0 83:0.0 84:0.0 85:0.0 86:0.0 87:0.0 88:0.0 89:0.0 90:0.0 91:0.0 92:0.0 93:0.0 94:0.0 95:0.0 96:1.0 97:0.0 98:0.0 99:0.0 100:0.0 101:0.0 102:0.0 103:0.0 104:0.0 105:0.0 106:0.0 107:0.0 108:0.0 109:0.0 110:0.0 111:0.0 112:0.0 113:0.0 114:0.0 115:0.0 116:0.0 117:0.0 118:0.0 119:0.0 120:0.0 121:0.0 122:0.0 123:0.0 124:0.0 125:0.0 126:0.0 127:0.0 128:0.0 129:0.0 130:0.0 131:0.0 132:0.0 133:0.0 134:0.0 135:0.0 136:0.0 137:0.0 138:0.0 139:0.0 140:0.0 141:0.0 142:0.0 143:0.0 144:0.0 145:0.0 146:0.0 147:0.0 148:0.0 149:0.0 150:0.0 151:0.0 152:0.0 153:0.0 154:0.0 155:0.0 156:0.0 157:0.0 158:0.0 159:0.0 160:0.0 
1.0 1:0.0 2:0.0 3:0.0 4:0.0 5:0.0 6:0.0 7:0.0 8:0.0 9:0.0 10:0.0 11:0.0 12:0.0 13:0.0 14:0.0 15:0.0 16:0.0 17:0.0 18:0.0 19:0.0 20:0.0 21:0.0 22:0.0 23:0.0 24:0.0 25:0.0 26:0.0 27:0.0 28:0.0 29:0.0 30:0.0 31:0.0 32:0.0 33:0.0 34:0.0 35:0.0 36:0.0 37:0.0 38:0.0 39:0.0 40:0.0 41:0.0 42:0.0 43:0.0 44:0.0 45:0.0 46:0.0 47:0.0 48:0.0 49:0.0 50:0.0 51:0.0 52:0.0 53:0.0 54:0.0 55:0.0 56:0.0 57:0.0 58:0.0 59:0.0 60:0.0 61:0.0 62:0.0 63:0.0 64:0.0 65:0.0 66:0.0 67:0.0 68:0.0 69:0.0 70:0.0 71:0.0 72:0.0 73:0.0 74:0.0 75:0.0 76:0.0 77:0.0 78:0.0 79:0.0 80:0.0 81:0.0 82:0.0 83:0.0 84:0.0 85:0.0 86:0.0 87:0.0 88:0.0 89:0.0 90:0.0 91:0.0 92:0.0 93:0.0 94:0.0 95:0.0 96:1.0 97:0.0 98:0.0 99:0.0 100:0.0 101:0.0 102:0.0 103:0.0 104:0.0 105:0.0 106:0.0 107:0.0 108:0.0 109:0.0 110:0.0 111:0.0 112:0.0 113:0.0 114:0.0 115:0.0 116:0.0 117:0.0 118:0.0 119:0.0 120:0.0 121:0.0 122:0.0 123:0.0 124:0.0 125:0.0 126:0.0 127:0.0 128:0.0 129:0.0 130:0.0 131:0.0 132:0.0 133:0.0 134:0.0 135:0.0 136:0.0 137:0.0 138:0.0 139:0.0 140:0.0 141:0.0 142:0.0 143:0.0 144:0.0 145:0.0 146:0.0 147:0.0 148:0.0 149:0.0 150:0.0 151:0.0 152:0.0 153:0.0 154:0.0 155:0.0 156:0.0 157:0.0 158:0.0 159:0.0 160:0.0 
1.0 1:0.0 2:0.0 3:0.0 4:0.0 5:0.0 6:0.0 7:0.0 8:0.0 9:0.0 10:0.0 11:0.0 12:0.0 13:0.0 14:0.0 15:0.0 16:0.0 17:0.0 18:0.0 19:0.0 20:0.0 21:0.0 22:0.0 23:0.0 24:0.0 25:0.0 26:0.0 27:0.0 28:0.0 29:0.0 30:0.0 31:0.0 32:0.0 33:0.0 34:0.0 35:0.0 36:0.0 37:0.0 38:0.0 39:0.0 40:0.0 41:0.0 42:0.0 43:0.0 44:0.0 45:0.0 46:0.0 47:0.0 48:0.0 49:0.0 50:0.0 51:0.0 52:0.0 53:0.0 54:0.0 55:0.0 56:0.0 57:0.0 58:0.0 59:0.0 60:0.0 61:0.0 62:0.0 63:0.0 64:0.0 65:0.0 66:0.0 67:0.0 68:0.0 69:0.0 70:0.0 71:0.0 72:0.0 73:0.0 74:0.0 75:0.0 76:0.0 77:0.0 78:0.0 79:0.0 80:0.0 81:0.0 82:0.0 83:0.0 84:0.0 85:0.0 86:0.0 87:0.0 88:0.0 89:0.0 90:0.0 91:0.0 92:0.0 93:0.0 94:0.0 95:0.0 96:1.0 97:0.0 98:0.0 99:0.0 100:0.0 101:0.0 102:0.0 103:0.0 104:0.0 105:0.0 106:0.0 107:0.0 108:0.0 109:0.0 110:0.0 111:0.0 112:0.0 113:0.0 114:0.0 115:0.0 116:0.0 117:0.0 118:0.0 119:0.0 120:0.0 121:0.0 122:0.0 123:0.0 124:0.0 125:0.0 126:0.0 127:0.0 128:0.0 129:0.0 130:0.0 131:0.0 132:0.0 133:0.0 134:0.0 135:0.0 136:0.0 137:0.0 138:0.0 139:0.0 140:0.0 141:0.0 142:0.0 143:0.0 144:0.0 145:0.0 146:0.0 147:0.0 148:0.0 149:0.0 150:0.0 151:0.0 152:0.0 153:0.0 154:0.0 155:0.0 156:0.0 157:0.0 158:0.0 159:0.0 160:0.0 
1.0 1:0.0 2:0.0 3:0.0 4:0.0 5:0.0 6:0.0 7:0.0 8:0.0 9:0.0 10:0.0 11:0.0 12:0.0 13:0.0 14:0.0 15:0.0 16:0.0 17:0.0 18:0.0 19:0.0 20:0.0 21:0.0 22:0.0 23:0.0 24:0.0 25:0.0 26:0.0 27:0.0 28:0.0 29:0.0 30:0.0 31:0.0 32:0.0 33:0.0 34:0.0 35:0.0 36:0.0 37:0.0 38:0.0 39:0.0 40:0.0 41:0.0 42:0.0 43:0.0 44:0.0 45:0.0 46:0.0 47:0.0 48:0.0 49:0.0 50:0.0 51:0.0 52:0.0 53:0.0 54:0.0 55:0.0 56:0.0 57:0.0 58:0.0 59:0.0 60:0.0 61:0.0 62:0.0 63:0.0 64:0.0 65:0.0 66:0.0 67:0.0 68:0.0 69:0.0 70:0.0 71:0.0 72:0.0 73:0.0 74:0.0 75:0.0 76:0.0 77:0.0 78:0.0 79:0.0 80:0.0 81:0.0 82:0.0 83:0.0 84:0.0 85:0.0 86:0.0 87:0.0 88:0.0 89:0.0 90:0.0 91:0.0 92:0.0 93:0.0 94:0.0 95:0.0 96:1.0 97:0.0 98:0.0 99:0.0 100:0.0 101:0.0 102:0.0 103:0.0 104:0.0 105:0.0 106:0.0 107:0.0 108:0.0 109:0.0 110:0.0 111:0.0 112:0.0 113:0.0 114:0.0 115:0.0 116:0.0 117:0.0 118:0.0 119:0.0 120:0.0 121:0.0 122:0.0 123:0.0 124:0.0 125:0.0 126:0.0 127:0.0 128:0.0 129:0.0 130:0.0 131:0.0 132:0.0 133:0.0 134:0.0 135:0.0 136:0.0 137:0.0 138:0.0 139:0.0 140:0.0 141:0.0 142:0.0 143:0.0 144:0.0 145:0.0 146:0.0 147:0.0 148:0.0 149:0.0 150:0.0 151:0.0 152:0.0 153:0.0 154:0.0 155:0.0 156:0.0 157:0.0 158:0.0 159:0.0 160:0.0 
1.0 1:0.0 2:0.0 3:0.0 4:0.0 5:0.0 6:0.0 7:0.0 8:0.0 9:0.0 10:0.0 11:0.0 12:0.0 13:0.0 14:0.0 15:0.0 16:0.0 17:0.0 18:0.0 19:0.0 20:0.0 21:0.0 22:0.0 23:0.0 24:0.0 25:0.0 26:0.0 27:0.0 28:0.0 29:0.0 30:0.0 31:0.0 32:0.0 33:0.0 34:0.0 35:0.0 36:0.0 37:0.0 38:0.0 39:0.0 40:0.0 41:0.0 42:0.0 43:0.0 44:0.0 45:0.0 46:0.0 47:0.0 48:0.0 49:0.0 50:0.0 51:0.0 52:0.0 53:0.0 54:0.0 55:0.0 56:0.0 57:0.0 58:0.0 59:0.0 60:0.0 61:0.0 62:0.0 63:0.0 64:0.0 65:0.0 66:0.0 67:0.0 68:0.0 69:0.0 70:0.0 71:0.0 72:0.0 73:0.0 74:0.0 75:0.0 76:0.0 77:0.0 78:0.0 79:0.0 80:0.0 81:0.0 82:0.0 83:0.0 84:0.0 85:0.0 86:0.0 87:0.0 88:0.0 89:0.0 90:0.0 91:0.0 92:0.0 93:0.0 94:0.0 95:0.0 96:1.0 97:0.0 98:0.0 99:0.0 100:0.0 101:0.0 102:0.0 103:0.0 104:0.0 105:0.0 106:0.0 107:0.0 108:0.0 109:0.0 110:0.0 111:0.0 112:0.0 113:0.0 114:0.0 115:0.0 116:0.0 117:0.0 118:0.0 119:0.0 120:0.0 121:0.0 122:0.0 123:0.0 124:0.0 125:0.0 126:0.0 127:0.0 128:0.0 129:0.0 130:0.0 131:0.0 132:0.0 133:0.0 134:0.0 135:0.0 136:0.0 137:0.0 138:0.0 139:0.0 140:0.0 141:0.0 142:0.0 143:0.0 144:0.0 145:0.0 146:0.0 147:0.0 148:0.0 149:0.0 150:0.0 151:0.0 152:0.0 153:0.0 154:0.0 155:0.0 156:0.0 157:0.0 158:0.0 159:0.0 160:0.0 
1.0 1:0.0 2:0.0 3:0.0 4:0.0 5:0.0 6:0.0 7:0.0 8:0.0 9:0.0 10:0.0 11:0.0 12:0.0 13:0.0 14:0.0 15:0.0 16:0.0 17:0.0 18:0.0 19:0.0 20:0.0 21:0.0 22:0.0 23:0.0 24:0.0 25:0.0 26:0.0 27:0.0 28:0.0 29:0.0 30:0.0 31:0.0 32:0.0 33:0.0 34:0.0 35:0.0 36:0.0 37:0.0 38:0.0 39:0.0 40:0.0 41:0.0 42:0.0 43:0.0 44:0.0 45:0.0 46:0.0 47:0.0 48:0.0 49:0.0 50:0.0 51:0.0 52:0.0 53:0.0 54:0.0 55:0.0 56:0.0 57:0.0 58:0.0 59:0.0 60:0.0 61:0.0 62:0.0 63:0.0 64:0.0 65:0.0 66:0.0 67:0.0 68:0.0 69:0.0 70:0.0 71:0.0 72:0.0 73:0.0 74:0.0 75:0.0 76:0.0 77:0.0 78:0.0 79:0.0 80:0.0 81:0.0 82:0.0 83:0.0 84:0.0 85:0.0 86:0.0 87:0.0 88:0.0 89:0.0 90:0.0 91:0.0 92:0.0 93:0.0 94:0.0 95:0.0 96:1.0 97:0.0 98:0.0 99:0.0 100:0.0 101:0.0 102:0.0 103:0.0 104:0.0 105:0.0 106:0.0 107:0.0 108:0.0 109:0.0 110:0.0 111:0.0 112:0.0 113:0.0 114:0.0 115:0.0 116:0.0 117:0.0 118:0.0 119:0.0 120:0.0 121:0.0 122:0.0 123:0.0 124:0.0 125:0.0 126:0.0 127:0.0 128:0.0 129:0.0 130:0.0 131:0.0 132:0.0 133:0.0 134:0.0 135:0.0 136:0.0 137:0.0 138:0.0 139:0.0 140:0.0 141:0.0 142:0.0 143:0.0 144:0.0 145:0.0 146:0.0 147:0.0 148:0.0 149:0.0 150:0.0 151:0.0 152:0.0 153:0.0 154:0.0 155:0.0 156:0.0 157:0.0 158:0.0 159:0.0 160:0.0 
1.0 1:0.0 2:0.0 3:0.0 4:0.0 5:0.0 6:0.0 7:0.0 8:0.0 9:0.0 10:0.0 11:0.0 12:0.0 13:0.0 14:0.0 15:0.0 16:0.0 17:0.0 18:0.0 19:0.0 20:0.0 21:0.0 22:0.0 23:0.0 24:0.0 25:0.0 26:0.0 27:0.0 28:0.0 29:0.0 30:0.0 31:0.0 32:0.0 33:0.0 34:0.0 35:0.0 36:0.0 37:0.0 38:0.0 39:0.0 40:0.0 41:0.0 42:0.0 43:0.0 44:0.0 45:0.0 46:0.0 47:0.0 48:0.0 49:0.0 50:0.0 51:0.0 52:0.0 53:0.0 54:0.0 55:0.0 56:0.0 57:0.0 58:0.0 59:0.0 60:0.0 61:0.0 62:0.0 63:0.0 64:0.0 65:0.0 66:0.0 67:0.0 68:0.0 69:0.0 70:0.0 71:0.0 72:0.0 73:0.0 74:0.0 75:0.0 76:0.0 77:0.0 78:0.0 79:0.0 80:0.0 81:0.0 82:0.0 83:0.0 84:0.0 85:0.0 86:0.0 87:0.0 88:0.0 89:0.0 90:0.0 91:0.0 92:0.0 93:0.0 94:0.0 95:0.0 96:1.0 97:0.0 98:0.0 99:0.0 100:0.0 101:0.0 102:0.0 103:0.0 104:0.0 105:0.0 106:0.0 107:0.0 108:0.0 109:0.0 110:0.0 111:0.0 112:0.0 113:0.0 114:0.0 115:0.0 116:0.0 117:0.0 118:0.0 119:0.0 120:0.0 121:0.0 122:0.0 123:0.0 124:0.0 125:0.0 126:0.0 127:0.0 128:0.0 129:0.0 130:0.0 131:0.0 132:0.0 133:0.0 134:0.0 135:0.0 136:0.0 137:0.0 138:0.0 139:0.0 140:0.0 141:0.0 142:0.0 143:0.0 144:0.0 145:0.0 146:0.0 147:0.0 148:0.0 149:0.0 150:0.0 151:0.0 152:0.0 153:0.0 154:0.0 155:0.0 156:0.0 157:0.0 158:0.0 159:0.0 160:0.0 
1.0 1:0.0 2:0.0 3:0.0 4:0.0 5:0.0 6:0.0 7:0.0 8:0.0 9:0.0 10:0.0 11:0.0 12:0.0 13:0.0 14:0.0 15:0.0 16:0.0 17:0.0 18:0.0 19:0.0 20:0.0 21:0.0 22:0.0 23:0.0 24:0.0 25:0.0 26:0.0 27:0.0 28:0.0 29:0.0 30:0.0 31:0.0 32:0.0 33:0.0 34:0.0 35:0.0 36:0.0 37:0.0 38:0.0 39:0.0 40:0.0 41:0.0 42:0.0 43:0.0 44:0.0 45:0.0 46:0.0 47:0.0 48:0.0 49:0.0 50:0.0 51:0.0 52:0.0 53:0.0 54:0.0 55:0.0 56:0.0 57:0.0 58:0.0 59:0.0 60:0.0 61:0.0 62:0.0 63:0.0 64:0.0 65:0.0 66:0.0 67:0.0 68:0.0 69:0.0 70:0.0 71:0.0 72:0.0 73:0.0 74:0.0 75:0.0 76:0.0 77:0.0 78:0.0 79:0.0 80:0.0 81:0.0 82:0.0 83:0.0 84:0.0 85:0.0 86:0.0 87:0.0 88:0.0 89:0.0 90:0.0 91:0.0 92:0.0 93:0.0 94:0.0 95:0.0 96:1.0 97:0.0 98:0.0 99:0.0 100:0.0 101:0.0 102:0.0 103:0.0 104:0.0 105:0.0 106:0.0 107:0.0 108:0.0 109:0.0 110:0.0 111:0.0 112:0.0 113:0.0 114:0.0 115:0.0 116:0.0 117:0.0 118:0.0 119:0.0 120:0.0 121:0.0 122:0.0 123:0.0 124:0.0 125:0.0 126:0.0 127:0.0 128:0.0 129:0.0 130:0.0 131:0.0 132:0.0 133:0.0 134:0.0 135:0.0 136:0.0 137:0.0 138:0.0 139:0.0 140:0.0 141:0.0 142:0.0 143:0.0 144:0.0 145:0.0 146:0.0 147:0.0 148:0.0 149:0.0 150:0.0 151:0.0 152:0.0 153:0.0 154:0.0 155:0.0 156:0.0 157:0.0 158:0.0 159:0.0 160:0.0 
1.0 1:0.0 2:0.0 3:0.0 4:0.0 5:0.0 6:0.0 7:0.0 8:0.0 9:0.0 10:0.0 11:0.0 12:0.0 13:0.0 14:0.0 15:0.0 16:0.0 17:0.0 18:0.0 19:0.0 20:0.0 21:0.0 22:0.0 23:0.0 24:0.0 25:0.0 26:0.0 27:0.0 28:0.0 29:0.0 30:0.0 31:0.0 32:0.0 33:0.0 34:0.0 35:0.0 36:0.0 37:0.0 38:0.0 39:0.0 40:0.0 41:0.0 42:0.0 43:0.0 44:0.0 45:0.0 46:0.0 47:0.0 48:0.0 49:0.0 50:0.0 51:0.0 52:0.0 53:0.0 54:0.0 55:0.0 56:0.0 57:0.0 58:0.0 59:0.0 60:0.0 61:0.0 62:0.0 63:0.0 64:0.0 65:0.0 66:0.0 67:0.0 68:0.0 69:0.0 70:0.0 71:0.0 72:0.0 73:0.0 74:0.0 75:0.0 76:0.0 77:0.0 78:0.0 79:0.0 80:0.0 81:0.0 82:0.0 83:0.0 84:0.0 85:0.0 86:0.0 87:0.0 88:0.0 89:0.0 90:0.0 91:0.0 92:0.0 93:0.0 94:0.0 95:0.0 96:1.0 97:0.0 98:0.0 99:0.0 100:0.0 101:0.0 102:0.0 103:0.0 104:0.0 105:0.0 106:0.0 107:0.0 108:0.0 109:0.0 110:0.0 111:0.0 112:0.0 113:0.0 114:0.0 115:0.0 116:0.0 117:0.0 118:0.0 119:0.0 120:0.0 121:0.0 122:0.0 123:0.0 124:0.0 125:0.0 126:0.0 127:0.0 128:0.0 129:0.0 130:0.0 131:0.0 132:0.0 133:0.0 134:0.0 135:0.0 136:0.0 137:0.0 138:0.0 139:0.0 140:0.0 141:0.0 142:0.0 143:0.0 144:0.0 145:0.0 146:0.0 147:0.0 148:0.0 149:0.0 150:0.0 151:0.0 152:0.0 153:0.0 154:0.0 155:0.0 156:0.0 157:0.0 158:0.0 159:0.0 160:0.0 
1.0 1:0.0 2:0.0 3:0.0 4:0.0 5:0.0 6:0.0 7:0.0 8:0.0 9:0.0 10:0.0 11:0.0 12:0.0 13:0.0 14:0.0 15:0.0 16:0.0 17:0.0 18:0.0 19:0.0 20:0.0 21:0.0 22:0.0 23:0.0 24:0.0 25:0.0 26:0.0 27:0.0 28:0.0 29:0.0 30:0.0 31:0.0 32:0.0 33:0.0 34:0.0 35:0.0 36:0.0 37:0.0 38:0.0 39:0.0 40:0.0 41:0.0 42:0.0 43:0.0 44:0.0 45:0.0 46:0.0 47:0.0 48:0.0 49:0.0 50:0.0 51:0.0 52:0.0 53:0.0 54:0.0 55:0.0 56:0.0 57:0.0 58:0.0 59:0.0 60:0.0 61:0.0 62:0.0 63:0.0 64:0.0 65:0.0 66:0.0 67:0.0 68:0.0 69:0.0 70:0.0 71:0.0 72:0.0 73:0.0 74:0.0 75:0.0 76:0.0 77:0.0 78:0.0 79:0.0 80:0.0 81:0.0 82:0.0 83:0.0 84:0.0 85:0.0 86:0.0 87:0.0 88:0.0 89:0.0 90:0.0 91:0.0 92:0.0 93:0.0 94:0.0 95:0.0 96:1.0 97:0.0 98:0.0 99:0.0 100:0.0 101:0.0 102:0.0 103:0.0 104:0.0 105:0.0 106:0.0 107:0.0 108:0.0 109:0.0 110:0.0 111:0.0 112:0.0 113:0.0 114:0.0 115:0.0 116:0.0 117:0.0 118:0.0 119:0.0 120:0.0 121:0.0 122:0.0 123:0.0 124:0.0 125:0.0 126:0.0 127:0.0 128:0.0 129:0.0 130:0.0 131:0.0 132:0.0 133:0.0 134:0.0 135:0.0 136:0.0 137:0.0 138:0.0 139:0.0 140:0.0 141:0.0 142:0.0 143:0.0 144:0.0 145:0.0 146:0.0 147:0.0 148:0.0 149:0.0 150:0.0 151:0.0 152:0.0 153:0.0 154:0.0 155:0.0 156:0.0 157:0.0 158:0.0 159:0.0 160:0.0 
1.0 1:0.0 2:0.0 3:0.0 4:0.0 5:0.0 6:0.0 7:0.0 8:0.0 9:0.0 10:0.0 11:0.0 12:0.0 13:0.0 14:0.0 15:0.0 16:0.0 17:0.0 18:0.0 19:0.0 20:0.0 21:0.0 22:0.0 23:0.0 24:0.0 25:0.0 26:0.0 27:0.0 28:0.0 29:0.0 30:0.0 31:0.0 32:0.0 33:0.0 34:0.0 35:0.0 36:0.0 37:0.0 38:0.0 39:0.0 40:0.0 41:0.0 42:0.0 43:0.0 44:0.0 45:0.0 46:0.0 47:0.0 48:0.0 49:0.0 50:0.0 51:0.0 52:0.0 53:0.0 54:0.0 55:0.0 56:0.0 57:0.0 58:0.0 59:0.0 60:0.0 61:0.0 62:0.0 63:0.0 64:0.0 65:0.0 66:0.0 67:0.0 68:0.0 69:0.0 70:0.0 71:0.0 72:0.0 73:0.0 74:0.0 75:0.0 76:0.0 77:0.0 78:0.0 79:0.0 80:0.0 81:0.0 82:0.0 83:0.0 84:0.0 85:0.0 86:0.0 87:0.0 88:0.0 89:0.0 90:0.0 91:0.0 92:0.0 93:0.0 94:0.0 95:0.0 96:1.0 97:0.0 98:0.0 99:0.0 100:0.0 101:0.0 102:0.0 103:0.0 104:0.0 105:0.0 106:0.0 107:0.0 108:0.0 109:0.0 110:0.0 111:0.0 112:0.0 113:0.0 114:0.0 115:0.0 116:0.0 117:0.0 118:0.0 119:0.0 120:0.0 121:0.0 122:0.0 123:0.0 124:0.0 125:0.0 126:0.0 127:0.0 128:0.0 129:0.0 130:0.0 131:0.0 132:0.0 133:0.0 134:0.0 135:0.0 136:0.0 137:0.0 138:0.0 139:0.0 140:0.0 141:0.0 142:0.0 143:0.0 144:0.0 145:0.0 146:0.0 147:0.0 148:0.0 149:0.0 150:0.0 151:0.0 152:0.0 153:0.0 154:0.0 155:0.0 156:0.0 157:0.0 158:0.0 159:0.0 160:0.0 
1.0 1:0.0 2:0.0 3:0.0 4:0.0 5:0.0 6:0.0 7:0.0 8:0.0 9:0.0 10:0.0 11:0.0 12:0.0 13:0.0 14:0.0 15:0.0 16:0.0 17:0.0 18:0.0 19:0.0 20:0.0 21:0.0 22:0.0 23:0.0 24:0.0 25:0.0 26:0.0 27:0.0 28:0.0 29:0.0 30:0.0 31:0.0 32:0.0 33:0.0 34:0.0 35:0.0 36:0.0 37:0.0 38:0.0 39:0.0 40:0.0 41:0.0 42:0.0 43:0.0 44:0.0 45:0.0 46:0.0 47:0.0 48:0.0 49:0.0 50:0.0 51:0.0 52:0.0 53:0.0 54:0.0 55:0.0 56:0.0 57:0.0 58:0.0 59:0.0 60:0.0 61:0.0 62:0.0 63:0.0 64:0.0 65:0.0 66:0.0 67:0.0 68:0.0 69:0.0 70:0.0 71:0.0 72:0.0 73:0.0 74:0.0 75:0.0 76:0.0 77:0.0 78:0.0 79:0.0 80:0.0 81:0.0 82:0.0 83:0.0 84:0.0 85:0.0 86:0.0 87:0.0 88:0.0 89:0.0 90:0.0 91:0.0 92:0.0 93:0.0 94:0.0 95:0.0 96:1.0 97:0.0 98:0.0 99:0.0 100:0.0 101:0.0 102:0.0 103:0.0 104:0.0 105:0.0 106:0.0 107:0.0 108:0.0 109:0.0 110:0.0 111:0.0 112:0.0 113:0.0 114:0.0 115:0.0 116:0.0 117:0.0 118:0.0 119:0.0 120:0.0 121:0.0 122:0.0 123:0.0 124:0.0 125:0.0 126:0.0 127:0.0 128:0.0 129:0.0 130:0.0 131:0.0 132:0.0 133:0.0 134:0.0 135:0.0 136:0.0 137:0.0 138:0.0 139:0.0 140:0.0 141:0.0 142:0.0 143:0.0 144:0.0 145:0.0 146:0.0 147:0.0 148:0.0 149:0.0 150:0.0 151:0.0 152:0.0 153:0.0 154:0.0 155:0.0 156:0.0 157:0.0 158:0.0 159:0.0 160:0.0 
1.0 1:0.0 2:0.0 3:0.0 4:0.0 5:0.0 6:0.0 7:0.0 8:0.0 9:0.0 10:0.0 11:0.0 12:0.0 13:0.0 14:0.0 15:0.0 16:0.0 17:0.0 18:0.0 19:0.0 20:0.0 21:0.0 22:0.0 23:0.0 24:0.0 25:0.0 26:0.0 27:0.0 28:0.0 29:0.0 30:0.0 31:0.0 32:0.0 33:0.0 34:0.0 35:0.0 36:0.0 37:0.0 38:0.0 39:0.0 40:0.0 41:0.0 42:0.0 43:0.0 44:0.0 45:0.0 46:0.0 47:0.0 48:0.0 49:0.0 50:0.0 51:0.0 52:0.0 53:0.0 54:0.0 55:0.0 56:0.0 57:0.0 58:0.0 59:0.0 60:0.0 61:0.0 62:0.0 63:0.0 64:0.0 65:0.0 66:0.0 67:0.0 68:0.0 69:0.0 70:0.0 71:0.0 72:0.0 73:0.0 74:0.0 75:0.0 76:0.0 77:0.0 78:0.0 79:0.0 80:0.0 81:0.0 82:0.0 83:0.0 84:0.0 85:0.0 86:0.0 87:0.0 88:0.0 89:0.0 90:0.0 91:0.0 92:0.0 93:0.0 94:0.0 95:0.0 96:1.0 97:0.0 98:0.0 99:0.0 100:0.0 101:0.0 102:0.0 103:0.0 104:0.0 105:0.0 106:0.0 107:0.0 108:0.0 109:0.0 110:0.0 111:0.0 112:0.0 113:0.0 114:0.0 115:0.0 116:0.0 117:0.0 118:0.0 119:0.0 120:0.0 121:0.0 122:0.0 123:0.0 124:0.0 125:0.0 126:0.0 127:0.0 128:0.0 129:0.0 130:0.0 131:0.0 132:0.0 133:0.0 134:0.0 135:0.0 136:0.0 137:0.0 138:0.0 139:0.0 140:0.0 141:0.0 142:0.0 143:0.0 144:0.0 145:0.0 146:0.0 147:0.0 148:0.0 149:0.0 150:0.0 151:0.0 152:0.0 153:0.0 154:0.0 155:0.0 156:0.0 157:0.0 158:0.0 159:0.0 160:0.0 
1.0 1:0.0 2:0.0 3:0.0 4:0.0 5:0.0 6:0.0 7:0.0 8:0.0 9:0.0 10:0.0 11:0.0 12:0.0 13:0.0 14:0.0 15:0.0 16:0.0 17:0.0 18:0.0 19:0.0 20:0.0 21:0.0 22:0.0 23:0.0 24:0.0 25:0.0 26:0.0 27:0.0 28:0.0 29:0.0 30:0.0 31:0.0 32:0.0 33:0.0 34:0.0 35:0.0 36:0.0 37:0.0 38:0.0 39:0.0 40:0.0 41:0.0 42:0.0 43:0.0 44:0.0 45:0.0 46:0.0 47:0.0 48:0.0 49:0.0 50:0.0 51:0.0 52:0.0 53:0.0 54:0.0 55:0.0 56:0.0 57:0.0 58:0.0 59:0.0 60:0.0 61:0.0 62:0.0 63:0.0 64:0.0 65:0.0 66:0.0 67:0.0 68:0.0 69:0.0 70:0.0 71:0.0 72:0.0 73:0.0 74:0.0 75:0.0 76:0.0 77:0.0 78:0.0 79:0.0 80:0.0 81:0.0 82:0.0 83:0.0 84:0.0 85:0.0 86:0.0 87:0.0 88:0.0 89:0.0 90:0.0 91:0.0 92:0.0 93:0.0 94:0.0 95:0.0 96:1.0 97:0.0 98:0.0 99:0.0 100:0.0 101:0.0 102:0.0 103:0.0 104:0.0 105:0.0 106:0.0 107:0.0 108:0.0 109:0.0 110:0.0 111:0.0 112:0.0 113:0.0 114:0.0 115:0.0 116:0.0 117:0.0 118:0.0 119:0.0 120:0.0 121:0.0 122:0.0 123:0.0 124:0.0 125:0.0 126:0.0 127:0.0 128:0.0 129:0.0 130:0.0 131:0.0 132:0.0 133:0.0 134:0.0 135:0.0 136:0.0 137:0.0 138:0.0 139:0.0 140:0.0 141:0.0 142:0.0 143:0.0 144:0.0 145:0.0 146:0.0 147:0.0 148:0.0 149:0.0 150:0.0 151:0.0 152:0.0 153:0.0 154:0.0 155:0.0 156:0.0 157:0.0 158:0.0 159:0.0 160:0.0 
1.0 1:0.0 2:0.0 3:0.0 4:0.0 5:0.0 6:0.0 7:0.0 8:0.0 9:0.0 10:0.0 11:0.0 12:0.0 13:0.0 14:0.0 15:0.0 16:0.0 17:0.0 18:0.0 19:0.0 20:0.0 21:0.0 22:0.0 23:0.0 24:0.0 25:0.0 26:0.0 27:0.0 28:0.0 29:0.0 30:0.0 31:0.0 32:0.0 33:0.0 34:0.0 35:0.0 36:0.0 37:0.0 38:0.0 39:0.0 40:0.0 41:0.0 42:0.0 43:0.0 44:0.0 45:0.0 46:0.0 47:0.0 48:0.0 49:0.0 50:0.0 51:0.0 52:0.0 53:0.0 54:0.0 55:0.0 56:0.0 57:0.0 58:0.0 59:0.0 60:0.0 61:0.0 62:0.0 63:0.0 64:0.0 65:0.0 66:0.0 67:0.0 68:0.0 69:0.0 70:0.0 71:0.0 72:0.0 73:0.0 74:0.0 75:0.0 76:0.0 77:0.0 78:0.0 79:0.0 80:0.0 81:0.0 82:0.0 83:0.0 84:0.0 85:0.0 86:0.0 87:0.0 88:0.0 89:0.0 90:0.0 91:0.0 92:0.0 93:0.0 94:0.0 95:0.0 96:1.0 97:0.0 98:0.0 99:0.0 100:0.0 101:0.0 102:0.0 103:0.0 104:0.0 105:0.0 106:0.0 107:0.0 108:0.0 109:0.0 110:0.0 111:0.0 112:0.0 113:0.0 114:0.0 115:0.0 116:0.0 117:0.0 118:0.0 119:0.0 120:0.0 121:0.0 122:0.0 123:0.0 124:0.0 125:0.0 126:0.0 127:0.0 128:0.0 129:0.0 130:0.0 131:0.0 132:0.0 133:0.0 134:0.0 135:0.0 136:0.0 137:0.0 138:0.0 139:0.0 140:0.0 141:0.0 142:0.0 143:0.0 144:0.0 145:0.0 146:0.0 147:0.0 148:0.0 149:0.0 150:0.0 151:0.0 152:0.0 153:0.0 154:0.0 155:0.0 156:0.0 157:0.0 158:0.0 159:0.0 160:0.0 
1.0 1:0.0 2:0.0 3:0.0 4:0.0 5:0.0 6:0.0 7:0.0 8:0.0 9:0.0 10:0.0 11:0.0 12:0.0 13:0.0 14:0.0 15:0.0 16:0.0 17:0.0 18:0.0 19:0.0 20:0.0 21:0.0 22:0.0 23:0.0 24:0.0 25:0.0 26:0.0 27:0.0 28:0.0 29:0.0 30:0.0 31:0.0 32:0.0 33:0.0 34:0.0 35:0.0 36:0.0 37:0.0 38:0.0 39:0.0 40:0.0 41:0.0 42:0.0 43:0.0 44:0.0 45:0.0 46:0.0 47:0.0 48:0.0 49:0.0 50:0.0 51:0.0 52:0.0 53:0.0 54:0.0 55:0.0 56:0.0 57:0.0 58:0.0 59:0.0 60:0.0 61:0.0 62:0.0 63:0.0 64:0.0 65:0.0 66:0.0 67:0.0 68:0.0 69:0.0 70:0.0 71:0.0 72:0.0 73:0.0 74:0.0 75:0.0 76:0.0 77:0.0 78:0.0 79:0.0 80:0.0 81:0.0 82:0.0 83:0.0 84:0.0 85:0.0 86:0.0 87:0.0 88:0.0 89:0.0 90:0.0 91:0.0 92:0.0 93:0.0 94:0.0 95:0.0 96:1.0 97:0.0 98:0.0 99:0.0 100:0.0 101:0.0 102:0.0 103:0.0 104:0.0 105:0.0 106:0.0 107:0.0 108:0.0 109:0.0 110:0.0 111:0.0 112:0.0 113:0.0 114:0.0 115:0.0 116:0.0 117:0.0 118:0.0 119:0.0 120:0.0 121:0.0 122:0.0 123:0.0 124:0.0 125:0.0 126:0.0 127:0.0 128:0.0 129:0.0 130:0.0 131:0.0 132:0.0 133:0.0 134:0.0 135:0.0 136:0.0 137:0.0 138:0.0 139:0.0 140:0.0 141:0.0 142:0.0 143:0.0 144:0.0 145:0.0 146:0.0 147:0.0 148:0.0 149:0.0 150:0.0 151:0.0 152:0.0 153:0.0 154:0.0 155:0.0 156:0.0 157:0.0 158:0.0 159:0.0 160:0.0 
1.0 1:0.0 2:0.0 3:0.0 4:0.0 5:0.0 6:0.0 7:0.0 8:0.0 9:0.0 10:0.0 11:0.0 12:0.0 13:0.0 14:0.0 15:0.0 16:0.0 17:0.0 18:0.0 19:0.0 20:0.0 21:0.0 22:0.0 23:0.0 24:0.0 25:0.0 26:0.0 27:0.0 28:0.0 29:0.0 30:0.0 31:0.0 32:0.0 33:0.0 34:0.0 35:0.0 36:0.0 37:0.0 38:0.0 39:0.0 40:0.0 41:0.0 42:0.0 43:0.0 44:0.0 45:0.0 46:0.0 47:0.0 48:0.0 49:0.0 50:0.0 51:0.0 52:0.0 53:0.0 54:0.0 55:0.0 56:0.0 57:0.0 58:0.0 59:0.0 60:0.0 61:0.0 62:0.0 63:0.0 64:0.0 65:0.0 66:0.0 67:0.0 68:0.0 69:0.0 70:0.0 71:0.0 72:0.0 73:0.0 74:0.0 75:0.0 76:0.0 77:0.0 78:0.0 79:0.0 80:0.0 81:0.0 82:0.0 83:0.0 84:0.0 85:0.0 86:0.0 87:0.0 88:0.0 89:0.0 90:0.0 91:0.0 92:0.0 93:0.0 94:0.0 95:0.0 96:1.0 97:0.0 98:0.0 99:0.0 100:0.0 101:0.0 102:0.0 103:0.0 104:0.0 105:0.0 106:0.0 107:0.0 108:0.0 109:0.0 110:0.0 111:0.0 112:0.0 113:0.0 114:0.0 115:0.0 116:0.0 117:0.0 118:0.0 119:0.0 120:0.0 121:0.0 122:0.0 123:0.0 124:0.0 125:0.0 126:0.0 127:0.0 128:0.0 129:0.0 130:0.0 131:0.0 132:0.0 133:0.0 134:0.0 135:0.0 136:0.0 137:0.0 138:0.0 139:0.0 140:0.0 141:0.0 142:0.0 143:0.0 144:0.0 145:0.0 146:0.0 147:0.0 148:0.0 149:0.0 150:0.0 151:0.0 152:0.0 153:0.0 154:0.0 155:0.0 156:0.0 157:0.0 158:0.0 159:0.0 160:0.0 
1.0 1:0.0 2:0.0 3:0.0 4:0.0 5:0.0 6:0.0 7:0.0 8:0.0 9:0.0 10:0.0 11:0.0 12:0.0 13:0.0 14:0.0 15:0.0 16:0.0 17:0.0 18:0.0 19:0.0 20:0.0 21:0.0 22:0.0 23:0.0 24:0.0 25:0.0 26:0.0 27:0.0 28:0.0 29:0.0 30:0.0 31:0.0 32:0.0 33:0.0 34:0.0 35:0.0 36:0.0 37:0.0 38:0.0 39:0.0 40:0.0 41:0.0 42:0.0 43:0.0 44:0.0 45:0.0 46:0.0 47:0.0 48:0.0 49:0.0 50:0.0 51:0.0 52:0.0 53:0.0 54:0.0 55:0.0 56:0.0 57:0.0 58:0.0 59:0.0 60:0.0 61:0.0 62:0.0 63:0.0 64:0.0 65:0.0 66:0.0 67:0.0 68:0.0 69:0.0 70:0.0 71:0.0 72:0.0 73:0.0 74:0.0 75:0.0 76:0.0 77:0.0 78:0.0 79:0.0 80:0.0 81:0.0 82:0.0 83:0.0 84:0.0 85:0.0 86:0.0 87:0.0 88:0.0 89:0.0 90:0.0 91:0.0 92:0.0 93:0.0 94:0.0 95:0.0 96:1.0 97:0.0 98:0.0 99:0.0 100:0.0 101:0.0 102:0.0 103:0.0 104:0.0 105:0.0 106:0.0 107:0.0 108:0.0 109:0.0 110:0.0 111:0.0 112:0.0 113:0.0 114:0.0 115:0.0 116:0.0 117:0.0 118:0.0 119:0.0 120:0.0 121:0.0 122:0.0 123:0.0 124:0.0 125:0.0 126:0.0 127:0.0 128:0.0 129:0.0 130:0.0 131:0.0 132:0.0 133:0.0 134:0.0 135:0.0 136:0.0 137:0.0 138:0.0 139:0.0 140:0.0 141:0.0 142:0.0 143:0.0 144:0.0 145:0.0 146:0.0 147:0.0 148:0.0 149:0.0 150:0.0 151:0.0 152:0.0 153:0.0 154:0.0 155:0.0 156:0.0 157:0.0 158:0.0 159:0.0 160:0.0 
1.0 1:0.0 2:0.0 3:0.0 4:0.0 5:0.0 6:0.0 7:0.0 8:0.0 9:0.0 10:0.0 11:0.0 12:0.0 13:0.0 14:0.0 15:0.0 16:0.0 17:0.0 18:0.0 19:0.0 20:0.0 21:0.0 22:0.0 23:0.0 24:0.0 25:0.0 26:0.0 27:0.0 28:0.0 29:0.0 30:0.0 31:0.0 32:0.0 33:0.0 34:0.0 35:0.0 36:0.0 37:0.0 38:0.0 39:0.0 40:0.0 41:0.0 42:0.0 43:0.0 44:0.0 45:0.0 46:0.0 47:0.0 48:0.0 49:0.0 50:0.0 51:0.0 52:0.0 53:0.0 54:0.0 55:0.0 56:0.0 57:0.0 58:0.0 59:0.0 60:0.0 61:0.0 62:0.0 63:0.0 64:0.0 65:0.0 66:0.0 67:0.0 68:0.0 69:0.0 70:0.0 71:0.0 72:0.0 73:0.0 74:0.0 75:0.0 76:0.0 77:0.0 78:0.0 79:0.0 80:0.0 81:0.0 82:0.0 83:0.0 84:0.0 85:0.0 86:0.0 87:0.0 88:0.0 89:0.0 90:0.0 91:0.0 92:0.0 93:0.0 94:0.0 95:0.0 96:1.0 97:0.0 98:0.0 99:0.0 100:0.0 101:0.0 102:0.0 103:0.0 104:0.0 105:0.0 106:0.0 107:0.0 108:0.0 109:0.0 110:0.0 111:0.0 112:0.0 113:0.0 114:0.0 115:0.0 116:0.0 117:0.0 118:0.0 119:0.0 120:0.0 121:0.0 122:0.0 123:0.0 124:0.0 125:0.0 126:0.0 127:0.0 128:0.0 129:0.0 130:0.0 131:0.0 132:0.0 133:0.0 134:0.0 135:0.0 136:0.0 137:0.0 138:0.0 139:0.0 140:0.0 141:0.0 142:0.0 143:0.0 144:0.0 145:0.0 146:0.0 147:0.0 148:0.0 149:0.0 150:0.0 151:0.0 152:0.0 153:0.0 154:0.0 155:0.0 156:0.0 157:0.0 158:0.0 159:0.0 160:0.0 
1.0 1:0.0 2:0.0 3:0.0 4:0.0 5:0.0 6:0.0 7:0.0 8:0.0 9:0.0 10:0.0 11:0.0 12:0.0 13:0.0 14:0.0 15:0.0 16:0.0 17:0.0 18:0.0 19:0.0 20:0.0 21:0.0 22:0.0 23:0.0 24:0.0 25:0.0 26:0.0 27:0.0 28:0.0 29:0.0 30:0.0 31:0.0 32:0.0 33:0.0 34:0.0 35:0.0 36:0.0 37:0.0 38:0.0 39:0.0 40:0.0 41:0.0 42:0.0 43:0.0 44:0.0 45:0.0 46:0.0 47:0.0 48:0.0 49:0.0 50:0.0 51:0.0 52:0.0 53:0.0 54:0.0 55:0.0 56:0.0 57:0.0 58:0.0 59:0.0 60:0.0 61:0.0 62:0.0 63:0.0 64:0.0 65:0.0 66:0.0 67:0.0 68:0.0 69:0.0 70:0.0 71:0.0 72:0.0 73:0.0 74:0.0 75:0.0 76:0.0 77:0.0 78:0.0 79:0.0 80:0.0 81:0.0 82:0.0 83:0.0 84:0.0 85:0.0 86:0.0 87:0.0 88:0.0 89:0.0 90:0.0 91:0.0 92:0.0 93:0.0 94:0.0 95:0.0 96:1.0 97:0.0 98:0.0 99:0.0 100:0.0 101:0.0 102:0.0 103:0.0 104:0.0 105:0.0 106:0.0 107:0.0 108:0.0 109:0.0 110:0.0 111:0.0 112:0.0 113:0.0 114:0.0 115:0.0 116:0.0 117:0.0 118:0.0 119:0.0 120:0.0 121:0.0 122:0.0 123:0.0 124:0.0 125:0.0 126:0.0 127:0.0 128:0.0 129:0.0 130:0.0 131:0.0 132:0.0 133:0.0 134:0.0 135:0.0 136:0.0 137:0.0 138:0.0 139:0.0 140:0.0 141:0.0 142:0.0 143:0.0 144:0.0 145:0.0 146:0.0 147:0.0 148:0.0 149:0.0 150:0.0 151:0.0 152:0.0 153:0.0 154:0.0 155:0.0 156:0.0 157:0.0 158:0.0 159:0.0 160:0.0 
1.0 1:0.0 2:0.0 3:0.0 4:0.0 5:0.0 6:0.0 7:0.0 8:0.0 9:0.0 10:0.0 11:0.0 12:0.0 13:0.0 14:0.0 15:0.0 16:0.0 17:0.0 18:0.0 19:0.0 20:0.0 21:0.0 22:0.0 23:0.0 24:0.0 25:0.0 26:0.0 27:0.0 28:0.0 29:0.0 30:0.0 31:0.0 32:0.0 33:0.0 34:0.0 35:0.0 36:0.0 37:0.0 38:0.0 39:0.0 40:0.0 41:0.0 42:0.0 43:0.0 44:0.0 45:0.0 46:0.0 47:0.0 48:0.0 49:0.0 50:0.0 51:0.0 52:0.0 53:0.0 54:0.0 55:0.0 56:0.0 57:0.0 58:0.0 59:0.0 60:0.0 61:0.0 62:0.0 63:0.0 64:0.0 65:0.0 66:0.0 67:0.0 68:0.0 69:0.0 70:0.0 71:0.0 72:0.0 73:0.0 74:0.0 75:0.0 76:0.0 77:0.0 78:0.0 79:0.0 80:0.0 81:0.0 82:0.0 83:0.0 84:0.0 85:0.0 86:0.0 87:0.0 88:0.0 89:0.0 90:0.0 91:0.0 92:0.0 93:0.0 94:0.0 95:0.0 96:1.0 97:0.0 98:0.0 99:0.0 100:0.0 101:0.0 102:0.0 103:0.0 104:0.0 105:0.0 106:0.0 107:0.0 108:0.0 109:0.0 110:0.0 111:0.0 112:0.0 113:0.0 114:0.0 115:0.0 116:0.0 117:0.0 118:0.0 119:0.0 120:0.0 121:0.0 122:0.0 123:0.0 124:0.0 125:0.0 126:0.0 127:0.0 128:0.0 129:0.0 130:0.0 131:0.0 132:0.0 133:0.0 134:0.0 135:0.0 136:0.0 137:0.0 138:0.0 139:0.0 140:0.0 141:0.0 142:0.0 143:0.0 144:0.0 145:0.0 146:0.0 147:0.0 148:0.0 149:0.0 150:0.0 151:0.0 152:0.0 153:0.0 154:0.0 155:0.0 156:0.0 157:0.0 158:0.0 159:0.0 160:0.0 
1.0 1:0.0 2:0.0 3:0.0 4:0.0 5:0.0 6:0.0 7:0.0 8:0.0 9:0.0 10:0.0 11:0.0 12:0.0 13:0.0 14:0.0 15:0.0 16:0.0 17:0.0 18:0.0 19:0.0 20:0.0 21:0.0 22:0.0 23:0.0 24:0.0 25:0.0 26:0.0 27:0.0 28:0.0 29:0.0 30:0.0 31:0.0 32:0.0 33:0.0 34:0.0 35:0.0 36:0.0 37:0.0 38:0.0 39:0.0 40:0.0 41:0.0 42:0.0 43:0.0 44:0.0 45:0.0 46:0.0 47:0.0 48:0.0 49:0.0 50:0.0 51:0.0 52:0.0 53:0.0 54:0.0 55:0.0 56:0.0 57:0.0 58:0.0 59:0.0 60:0.0 61:0.0 62:0.0 63:0.0 64:0.0 65:0.0 66:0.0 67:0.0 68:0.0 69:0.0 70:0.0 71:0.0 72:0.0 73:0.0 74:0.0 75:0.0 76:0.0 77:0.0 78:0.0 79:0.0 80:0.0 81:0.0 82:0.0 83:0.0 84:0.0 85:0.0 86:0.0 87:0.0 88:0.0 89:0.0 90:0.0 91:0.0 92:0.0 93:0.0 94:0.0 95:0.0 96:1.0 97:0.0 98:0.0 99:0.0 100:0.0 101:0.0 102:0.0 103:0.0 104:0.0 105:0.0 106:0.0 107:0.0 108:0.0 109:0.0 110:0.0 111:0.0 112:0.0 113:0.0 114:0.0 115:0.0 116:0.0 117:0.0 118:0.0 119:0.0 120:0.0 121:0.0 122:0.0 123:0.0 124:0.0 125:0.0 126:0.0 127:0.0 128:0.0 129:0.0 130:0.0 131:0.0 132:0.0 133:0.0 134:0.0 135:0.0 136:0.0 137:0.0 138:0.0 139:0.0 140:0.0 141:0.0 142:0.0 143:0.0 144:0.0 145:0.0 146:0.0 147:0.0 148:0.0 149:0.0 150:0.0 151:0.0 152:0.0 153:0.0 154:0.0 155:0.0 156:0.0 157:0.0 158:0.0 159:0.0 160:0.0 
1.0 1:0.0 2:0.0 3:0.011194029850746268 4:0.0 5:0.0 6:0.0 7:0.0037313432835820895 8:0.0 9:0.0 10:0.0 11:0.0 12:0.0 13:0.0 14:0.0 15:0.0 16:0.011194029850746268 17:0.0 18:0.0 19:0.007462686567164179 20:0.0 21:0.0 22:0.007462686567164179 23:0.0 24:0.0037313432835820895 25:0.0 26:0.0 27:0.0 28:0.0 29:0.0 30:0.014925373134328358 31:0.0 32:0.0037313432835820895 33:0.0 34:0.0 35:0.0 36:0.0 37:0.0 38:0.0 39:0.0 40:0.0 41:0.0 42:0.0037313432835820895 43:0.0 44:0.0 45:0.0 46:0.0037313432835820895 47:0.0 48:0.0037313432835820895 49:0.0 50:0.007462686567164179 51:0.0 52:0.0 53:0.007462686567164179 54:0.0 55:0.0 56:0.0 57:0.0 58:0.0 59:0.0 60:0.0 61:0.0 62:0.0 63:0.0 64:0.0 65:0.0037313432835820895 66:0.0 67:0.0 68:0.007462686567164179 69:0.0 70:0.0 71:0.0 72:0.0 73:0.0 74:0.0 75:0.0 76:0.0 77:0.0 78:0.018656716417910446 79:0.018656716417910446 80:0.0 81:0.007462686567164179 82:0.0 83:0.0 84:0.0 85:0.0 86:0.0 87:0.011194029850746268 88:0.0 89:0.0037313432835820895 90:0.0 91:0.0 92:0.0037313432835820895 93:0.0 94:0.0 95:0.0 96:0.664179104477612 97:0.0 98:0.0037313432835820895 99:0.0 100:0.0 101:0.0 102:0.022388059701492536 103:0.007462686567164179 104:0.0 105:0.022388059701492536 106:0.0 107:0.014925373134328358 108:0.0037313432835820895 109:0.0037313432835820895 110:0.0 111:0.007462686567164179 112:0.0037313432835820895 113:0.0 114:0.007462686567164179 115:0.0 116:0.0 117:0.0 118:0.0 119:0.0 120:0.007462686567164179 121:0.018656716417910446 122:0.0 123:0.007462686567164179 124:0.0 125:0.0 126:0.0037313432835820895 127:0.0 128:0.0 129:0.007462686567164179 130:0.0 131:0.0 132:0.0 133:0.0 134:0.0 135:0.0 136:0.0 137:0.0 138:0.0 139:0.0 140:0.0 141:0.0037313432835820895 142:0.0 143:0.0 144:0.0 145:0.011194029850746268 146:0.0 147:0.0 148:0.0037313432835820895 149:0.0 150:0.0 151:0.0 152:0.0 153:0.0 154:0.0 155:0.011194029850746268 156:0.0 157:0.0 158:0.0 159:0.0 160:0.0 
1.0 1:0.00641025641025641 2:0.0 3:0.016025641025641024 4:0.003205128205128205 5:0.0 6:0.0 7:0.003205128205128205 8:0.003205128205128205 9:0.003205128205128205 10:0.0 11:0.0 12:0.0 13:0.0 14:0.0 15:0.0 16:0.003205128205128205 17:0.00641025641025641 18:0.0 19:0.003205128205128205 20:0.0 21:0.00641025641025641 22:0.009615384615384616 23:0.0 24:0.0 25:0.0 26:0.0 27:0.0 28:0.00641025641025641 29:0.0 30:0.01282051282051282 31:0.003205128205128205 32:0.00641025641025641 33:0.0 34:0.003205128205128205 35:0.003205128205128205 36:0.003205128205128205 37:0.0 38:0.0 39:0.0 40:0.0 41:0.003205128205128205 42:0.0 43:0.0 44:0.0 45:0.0 46:0.003205128205128205 47:0.003205128205128205 48:0.003205128205128205 49:0.0 50:0.003205128205128205 51:0.003205128205128205 52:0.0 53:0.003205128205128205 54:0.0 55:0.0 56:0.0 57:0.0 58:0.0 59:0.0 60:0.003205128205128205 61:0.0 62:0.0 63:0.003205128205128205 64:0.009615384615384616 65:0.0 66:0.009615384615384616 67:0.0 68:0.01282051282051282 69:0.0 70:0.0 71:0.0 72:0.003205128205128205 73:0.0 74:0.0 75:0.00641025641025641 76:0.00641025641025641 77:0.0 78:0.01282051282051282 79:0.00641025641025641 80:0.0 81:0.003205128205128205 82:0.0 83:0.0 84:0.0 85:0.0 86:0.0 87:0.003205128205128205 88:0.0 89:0.0 90:0.0 91:0.003205128205128205 92:0.0 93:0.0 94:0.0 95:0.0 96:0.5897435897435898 97:0.0 98:0.01282051282051282 99:0.0 100:0.003205128205128205 101:0.0 102:0.01282051282051282 103:0.00641025641025641 104:0.0 105:0.035256410256410256 106:0.003205128205128205 107:0.01282051282051282 108:0.0 109:0.0 110:0.0 111:0.0 112:0.003205128205128205 113:0.0 114:0.00641025641025641 115:0.0 116:0.0 117:0.0 118:0.0 119:0.0 120:0.009615384615384616 121:0.003205128205128205 122:0.0 123:0.003205128205128205 124:0.0 125:0.0 126:0.022435897435897436 127:0.0 128:0.0 129:0.01282051282051282 130:0.0 131:0.0 132:0.0 133:0.003205128205128205 134:0.0 135:0.0 136:0.0 137:0.0 138:0.0 139:0.003205128205128205 140:0.0 141:0.0 142:0.003205128205128205 143:0.00641025641025641 144:0.0 145:0.0 146:0.0 147:0.0 148:0.00641025641025641 149:0.0 150:0.0 151:0.0 152:0.0 153:0.003205128205128205 154:0.003205128205128205 155:0.01282051282051282 156:0.0 157:0.003205128205128205 158:0.009615384615384616 159:0.0 160:0.0 
1.0 1:0.0 2:0.0 3:0.020366598778004074 4:0.0 5:0.004073319755600814 6:0.0 7:0.008146639511201629 8:0.0 9:0.0 10:0.0 11:0.0 12:0.0 13:0.0 14:0.0 15:0.0 16:0.008146639511201629 17:0.0 18:0.0 19:0.006109979633401222 20:0.002036659877800407 21:0.006109979633401222 22:0.014256619144602852 23:0.0 24:0.002036659877800407 25:0.0 26:0.0 27:0.0 28:0.004073319755600814 29:0.0 30:0.012219959266802444 31:0.008146639511201629 32:0.002036659877800407 33:0.004073319755600814 34:0.002036659877800407 35:0.008146639511201629 36:0.0 37:0.004073319755600814 38:0.0 39:0.0 40:0.0 41:0.002036659877800407 42:0.0 43:0.0 44:0.0 45:0.0 46:0.0 47:0.0 48:0.0 49:0.0 50:0.004073319755600814 51:0.0 52:0.0 53:0.0 54:0.0 55:0.0 56:0.0 57:0.006109979633401222 58:0.0 59:0.002036659877800407 60:0.0 61:0.0 62:0.0 63:0.002036659877800407 64:0.006109979633401222 65:0.006109979633401222 66:0.0 67:0.0 68:0.012219959266802444 69:0.0 70:0.0 71:0.0 72:0.002036659877800407 73:0.0 74:0.0 75:0.0 76:0.008146639511201629 77:0.0 78:0.004073319755600814 79:0.008146639511201629 80:0.004073319755600814 81:0.008146639511201629 82:0.004073319755600814 83:0.002036659877800407 84:0.002036659877800407 85:0.0 86:0.0 87:0.006109979633401222 88:0.0 89:0.004073319755600814 90:0.0 91:0.002036659877800407 92:0.004073319755600814 93:0.0 94:0.0 95:0.0 96:0.6578411405295316 97:0.0 98:0.002036659877800407 99:0.0 100:0.002036659877800407 101:0.0 102:0.012219959266802444 103:0.0 104:0.0 105:0.018329938900203666 106:0.002036659877800407 107:0.006109979633401222 108:0.0 109:0.002036659877800407 110:0.0 111:0.0 112:0.006109979633401222 113:0.0 114:0.002036659877800407 115:0.0 116:0.0 117:0.0 118:0.0 119:0.004073319755600814 120:0.002036659877800407 121:0.002036659877800407 122:0.002036659877800407 123:0.002036659877800407 124:0.0 125:0.0 126:0.012219959266802444 127:0.0 128:0.0 129:0.012219959266802444 130:0.0 131:0.0 132:0.0 133:0.002036659877800407 134:0.0 135:0.0 136:0.0 137:0.0 138:0.0 139:0.0 140:0.0 141:0.0 142:0.004073319755600814 143:0.0 144:0.0 145:0.0 146:0.0 147:0.0 148:0.008146639511201629 149:0.0 150:0.0 151:0.004073319755600814 152:0.0 153:0.0 154:0.002036659877800407 155:0.014256619144602852 156:0.0 157:0.002036659877800407 158:0.0 159:0.0 160:0.0 
1.0 1:0.005012531328320802 2:0.0 3:0.015037593984962405 4:0.0 5:0.0 6:0.0 7:0.007518796992481203 8:0.0 9:0.002506265664160401 10:0.002506265664160401 11:0.002506265664160401 12:0.0 13:0.0 14:0.0 15:0.0 16:0.007518796992481203 17:0.002506265664160401 18:0.0 19:0.007518796992481203 20:0.010025062656641603 21:0.002506265664160401 22:0.005012531328320802 23:0.002506265664160401 24:0.005012531328320802 25:0.0 26:0.0 27:0.0 28:0.002506265664160401 29:0.0 30:0.007518796992481203 31:0.002506265664160401 32:0.020050125313283207 33:0.002506265664160401 34:0.0 35:0.0 36:0.012531328320802004 37:0.0 38:0.0 39:0.0 40:0.0 41:0.0 42:0.005012531328320802 43:0.0 44:0.0 45:0.0 46:0.0 47:0.0 48:0.015037593984962405 49:0.0 50:0.010025062656641603 51:0.0 52:0.0 53:0.002506265664160401 54:0.002506265664160401 55:0.0 56:0.0 57:0.002506265664160401 58:0.0 59:0.002506265664160401 60:0.002506265664160401 61:0.0 62:0.005012531328320802 63:0.002506265664160401 64:0.0 65:0.005012531328320802 66:0.002506265664160401 67:0.0 68:0.005012531328320802 69:0.0 70:0.002506265664160401 71:0.0 72:0.0 73:0.002506265664160401 74:0.0 75:0.007518796992481203 76:0.012531328320802004 77:0.0 78:0.010025062656641603 79:0.03759398496240601 80:0.002506265664160401 81:0.0 82:0.002506265664160401 83:0.0 84:0.0 85:0.0 86:0.0 87:0.005012531328320802 88:0.007518796992481203 89:0.0 90:0.0 91:0.007518796992481203 92:0.005012531328320802 93:0.0 94:0.0 95:0.0 96:0.556390977443609 97:0.0 98:0.0 99:0.0 100:0.0 101:0.0 102:0.002506265664160401 103:0.0 104:0.0 105:0.03007518796992481 106:0.005012531328320802 107:0.005012531328320802 108:0.002506265664160401 109:0.0 110:0.0 111:0.010025062656641603 112:0.005012531328320802 113:0.0 114:0.0 115:0.0 116:0.0 117:0.0 118:0.0 119:0.0 120:0.005012531328320802 121:0.0 122:0.0 123:0.007518796992481203 124:0.0 125:0.0 126:0.007518796992481203 127:0.0 128:0.0 129:0.0 130:0.0 131:0.0 132:0.002506265664160401 133:0.0 134:0.0 135:0.0 136:0.0 137:0.002506265664160401 138:0.0 139:0.005012531328320802 140:0.0 141:0.002506265664160401 142:0.002506265664160401 143:0.007518796992481203 144:0.0 145:0.0 146:0.002506265664160401 147:0.0 148:0.015037593984962405 149:0.0 150:0.0 151:0.0 152:0.0 153:0.0 154:0.0 155:0.020050125313283207 156:0.0 157:0.012531328320802004 158:0.0 159:0.0 160:0.0 
1.0 1:0.007042253521126761 2:0.0 3:0.0035211267605633804 4:0.0 5:0.0 6:0.0 7:0.0 8:0.0 9:0.0 10:0.0035211267605633804 11:0.0035211267605633804 12:0.0035211267605633804 13:0.0 14:0.0 15:0.0 16:0.0 17:0.0035211267605633804 18:0.0 19:0.0035211267605633804 20:0.007042253521126761 21:0.0035211267605633804 22:0.0035211267605633804 23:0.0 24:0.0035211267605633804 25:0.0 26:0.0 27:0.0 28:0.007042253521126761 29:0.0 30:0.0035211267605633804 31:0.0 32:0.0 33:0.0035211267605633804 34:0.0035211267605633804 35:0.007042253521126761 36:0.0 37:0.0 38:0.0 39:0.0 40:0.0 41:0.007042253521126761 42:0.0 43:0.0 44:0.0 45:0.0 46:0.0035211267605633804 47:0.0035211267605633804 48:0.0 49:0.0 50:0.0035211267605633804 51:0.0 52:0.0 53:0.0 54:0.007042253521126761 55:0.0 56:0.0 57:0.0 58:0.0 59:0.0 60:0.0035211267605633804 61:0.0 62:0.0 63:0.0 64:0.0035211267605633804 65:0.0035211267605633804 66:0.0 67:0.0 68:0.0035211267605633804 69:0.0 70:0.0 71:0.0 72:0.0 73:0.0035211267605633804 74:0.0 75:0.0 76:0.0 77:0.0 78:0.0035211267605633804 79:0.0035211267605633804 80:0.0 81:0.0035211267605633804 82:0.017605633802816902 83:0.0 84:0.0 85:0.0 86:0.0 87:0.007042253521126761 88:0.0035211267605633804 89:0.0 90:0.0 91:0.0035211267605633804 92:0.0 93:0.0 94:0.0035211267605633804 95:0.0 96:0.7429577464788732 97:0.0 98:0.0 99:0.0035211267605633804 100:0.0 101:0.0 102:0.0 103:0.007042253521126761 104:0.0 105:0.0 106:0.0035211267605633804 107:0.0035211267605633804 108:0.007042253521126761 109:0.0 110:0.0 111:0.0 112:0.0 113:0.0 114:0.0 115:0.0 116:0.0 117:0.0 118:0.0 119:0.0 120:0.0035211267605633804 121:0.0 122:0.0035211267605633804 123:0.0035211267605633804 124:0.0 125:0.0 126:0.0 127:0.0 128:0.0 129:0.0 130:0.0 131:0.0 132:0.0 133:0.0035211267605633804 134:0.0 135:0.0 136:0.0035211267605633804 137:0.007042253521126761 138:0.0 139:0.0035211267605633804 140:0.0 141:0.0 142:0.0035211267605633804 143:0.0 144:0.0035211267605633804 145:0.0035211267605633804 146:0.0035211267605633804 147:0.0 148:0.007042253521126761 149:0.0 150:0.0 151:0.0035211267605633804 152:0.0 153:0.0 154:0.0035211267605633804 155:0.007042253521126761 156:0.0 157:0.0035211267605633804 158:0.007042253521126761 159:0.0 160:0.0 
1.0 1:0.0 2:0.0 3:0.0 4:0.0 5:0.0 6:0.0 7:0.0 8:0.0 9:0.0 10:0.0 11:0.0 12:0.0 13:0.0 14:0.0 15:0.0 16:0.0 17:0.0 18:0.0 19:0.004016064257028112 20:0.004016064257028112 21:0.0 22:0.0 23:0.0 24:0.0 25:0.0 26:0.0 27:0.0 28:0.0 29:0.0 30:0.0 31:0.004016064257028112 32:0.004016064257028112 33:0.004016064257028112 34:0.0 35:0.0 36:0.002008032128514056 37:0.0 38:0.0 39:0.0 40:0.0 41:0.0 42:0.0 43:0.0 44:0.0 45:0.0 46:0.0 47:0.0 48:0.004016064257028112 49:0.0 50:0.0 51:0.0 52:0.0 53:0.0 54:0.0 55:0.0 56:0.0 57:0.0 58:0.0 59:0.0 60:0.0 61:0.0 62:0.0 63:0.0 64:0.0 65:0.004016064257028112 66:0.0 67:0.0 68:0.0 69:0.0 70:0.0 71:0.0 72:0.0 73:0.0 74:0.0 75:0.0 76:0.0 77:0.0 78:0.004016064257028112 79:0.008032128514056224 80:0.002008032128514056 81:0.002008032128514056 82:0.0 83:0.0 84:0.004016064257028112 85:0.0 86:0.0 87:0.0 88:0.0 89:0.0 90:0.0 91:0.004016064257028112 92:0.0 93:0.0 94:0.0 95:0.0 96:0.7530120481927711 97:0.0 98:0.0 99:0.0 100:0.0 101:0.0 102:0.002008032128514056 103:0.0 104:0.0 105:0.012048192771084338 106:0.004016064257028112 107:0.008032128514056224 108:0.0 109:0.0 110:0.0 111:0.0 112:0.0 113:0.0 114:0.0 115:0.0 116:0.0 117:0.0 118:0.0 119:0.002008032128514056 120:0.0 121:0.0 122:0.0 123:0.004016064257028112 124:0.0 125:0.002008032128514056 126:0.0642570281124498 127:0.0 128:0.0 129:0.01606425702811245 130:0.0 131:0.0 132:0.004016064257028112 133:0.004016064257028112 134:0.0 135:0.0 136:0.0 137:0.0 138:0.0 139:0.004016064257028112 140:0.0 141:0.0 142:0.0 143:0.0 144:0.004016064257028112 145:0.0 146:0.0 147:0.0 148:0.06224899598393574 149:0.0 150:0.0 151:0.0 152:0.0 153:0.0 154:0.0 155:0.0 156:0.0 157:0.0 158:0.0 159:0.0 160:0.0 
1.0 1:0.0 2:0.0 3:0.0 4:0.0 5:0.0 6:0.0 7:0.0 8:0.0 9:0.0 10:0.0 11:0.0 12:0.0 13:0.0 14:0.0 15:0.0 16:0.0 17:0.0 18:0.0 19:0.0020242914979757085 20:0.004048582995951417 21:0.0 22:0.0 23:0.0 24:0.0 25:0.0 26:0.0 27:0.0 28:0.0 29:0.0 30:0.0 31:0.004048582995951417 32:0.004048582995951417 33:0.004048582995951417 34:0.0 35:0.0 36:0.0 37:0.0 38:0.0 39:0.0 40:0.0 41:0.0 42:0.0 43:0.0 44:0.0 45:0.0 46:0.0 47:0.0 48:0.004048582995951417 49:0.0 50:0.0 51:0.0 52:0.0 53:0.0 54:0.0 55:0.0 56:0.0 57:0.0 58:0.0 59:0.0 60:0.0 61:0.0 62:0.0 63:0.0 64:0.0 65:0.004048582995951417 66:0.0 67:0.0 68:0.0 69:0.0 70:0.0 71:0.0 72:0.0 73:0.0 74:0.0 75:0.0 76:0.0 77:0.0 78:0.004048582995951417 79:0.008097165991902834 80:0.0020242914979757085 81:0.0 82:0.0 83:0.0 84:0.004048582995951417 85:0.0 86:0.0 87:0.0 88:0.0 89:0.0 90:0.0 91:0.004048582995951417 92:0.0 93:0.0 94:0.0 95:0.0 96:0.757085020242915 97:0.0 98:0.0 99:0.0 100:0.0 101:0.0 102:0.0020242914979757085 103:0.0 104:0.0 105:0.012145748987854251 106:0.004048582995951417 107:0.008097165991902834 108:0.0 109:0.0 110:0.0 111:0.0 112:0.0 113:0.0 114:0.0 115:0.0 116:0.0 117:0.0 118:0.0 119:0.0020242914979757085 120:0.0 121:0.0 122:0.0 123:0.004048582995951417 124:0.0 125:0.0020242914979757085 126:0.06477732793522267 127:0.0 128:0.0 129:0.016194331983805668 130:0.0 131:0.0 132:0.004048582995951417 133:0.004048582995951417 134:0.0 135:0.0 136:0.0 137:0.0 138:0.0 139:0.004048582995951417 140:0.0 141:0.0 142:0.0 143:0.0 144:0.004048582995951417 145:0.0 146:0.0 147:0.0 148:0.06275303643724696 149:0.0 150:0.0 151:0.0 152:0.0 153:0.0 154:0.0 155:0.0 156:0.0 157:0.0 158:0.0 159:0.0 160:0.0 
1.0 1:0.006430868167202572 2:0.0 3:0.006430868167202572 4:0.003215434083601286 5:0.003215434083601286 6:0.0 7:0.0 8:0.0 9:0.0 10:0.0 11:0.0 12:0.003215434083601286 13:0.0 14:0.0 15:0.0 16:0.006430868167202572 17:0.006430868167202572 18:0.0 19:0.003215434083601286 20:0.0 21:0.0 22:0.01607717041800643 23:0.0 24:0.006430868167202572 25:0.0 26:0.0 27:0.0 28:0.0 29:0.0 30:0.006430868167202572 31:0.006430868167202572 32:0.006430868167202572 33:0.0 34:0.006430868167202572 35:0.0 36:0.006430868167202572 37:0.0 38:0.0 39:0.0 40:0.0 41:0.006430868167202572 42:0.0 43:0.0 44:0.0 45:0.0 46:0.0 47:0.0 48:0.006430868167202572 49:0.0 50:0.003215434083601286 51:0.003215434083601286 52:0.0 53:0.0 54:0.0 55:0.0 56:0.0 57:0.0 58:0.0 59:0.003215434083601286 60:0.00964630225080386 61:0.0 62:0.0 63:0.003215434083601286 64:0.0 65:0.006430868167202572 66:0.003215434083601286 67:0.0 68:0.012861736334405145 69:0.0 70:0.0 71:0.0 72:0.0 73:0.0 74:0.0 75:0.006430868167202572 76:0.003215434083601286 77:0.0 78:0.00964630225080386 79:0.006430868167202572 80:0.006430868167202572 81:0.006430868167202572 82:0.003215434083601286 83:0.0 84:0.0 85:0.0 86:0.0 87:0.003215434083601286 88:0.0 89:0.0 90:0.0 91:0.003215434083601286 92:0.0 93:0.0 94:0.0 95:0.0 96:0.662379421221865 97:0.0 98:0.003215434083601286 99:0.006430868167202572 100:0.0 101:0.0 102:0.006430868167202572 103:0.0 104:0.0 105:0.03858520900321544 106:0.003215434083601286 107:0.006430868167202572 108:0.006430868167202572 109:0.003215434083601286 110:0.0 111:0.0 112:0.003215434083601286 113:0.0 114:0.0 115:0.0 116:0.0 117:0.0 118:0.0 119:0.0 120:0.006430868167202572 121:0.006430868167202572 122:0.0 123:0.003215434083601286 124:0.0 125:0.0 126:0.003215434083601286 127:0.0 128:0.0 129:0.003215434083601286 130:0.0 131:0.0 132:0.003215434083601286 133:0.003215434083601286 134:0.0 135:0.0 136:0.003215434083601286 137:0.0 138:0.0 139:0.0 140:0.0 141:0.003215434083601286 142:0.003215434083601286 143:0.003215434083601286 144:0.0 145:0.0 146:0.0 147:0.0 148:0.003215434083601286 149:0.0 150:0.0 151:0.0 152:0.0 153:0.0 154:0.0 155:0.012861736334405145 156:0.0 157:0.0 158:0.003215434083601286 159:0.0 160:0.0 
1.0 1:0.006211180124223602 2:0.0 3:0.008281573498964804 4:0.0 5:0.0 6:0.0 7:0.012422360248447204 8:0.0 9:0.0 10:0.0 11:0.0 12:0.0 13:0.0 14:0.0 15:0.0 16:0.006211180124223602 17:0.0 18:0.0 19:0.008281573498964804 20:0.0 21:0.002070393374741201 22:0.002070393374741201 23:0.0 24:0.0 25:0.0 26:0.0 27:0.0 28:0.0 29:0.0 30:0.010351966873706004 31:0.0 32:0.002070393374741201 33:0.0 34:0.002070393374741201 35:0.004140786749482402 36:0.002070393374741201 37:0.0 38:0.0 39:0.0 40:0.0 41:0.004140786749482402 42:0.0 43:0.0 44:0.0 45:0.0 46:0.002070393374741201 47:0.002070393374741201 48:0.004140786749482402 49:0.0 50:0.002070393374741201 51:0.0 52:0.0 53:0.0 54:0.002070393374741201 55:0.0 56:0.0 57:0.0 58:0.0 59:0.0 60:0.0 61:0.0 62:0.0 63:0.006211180124223602 64:0.0 65:0.004140786749482402 66:0.0 67:0.0 68:0.004140786749482402 69:0.0 70:0.0 71:0.0 72:0.002070393374741201 73:0.0 74:0.0 75:0.0 76:0.008281573498964804 77:0.0 78:0.012422360248447204 79:0.0 80:0.002070393374741201 81:0.004140786749482402 82:0.0 83:0.0 84:0.002070393374741201 85:0.0 86:0.0 87:0.002070393374741201 88:0.0 89:0.0 90:0.0 91:0.004140786749482402 92:0.0 93:0.0 94:0.0 95:0.0 96:0.7556935817805382 97:0.0 98:0.006211180124223602 99:0.002070393374741201 100:0.004140786749482402 101:0.0 102:0.002070393374741201 103:0.0 104:0.0 105:0.0 106:0.0 107:0.008281573498964804 108:0.002070393374741201 109:0.0 110:0.0 111:0.002070393374741201 112:0.002070393374741201 113:0.0 114:0.0 115:0.002070393374741201 116:0.0 117:0.0 118:0.0 119:0.002070393374741201 120:0.004140786749482402 121:0.010351966873706004 122:0.0 123:0.004140786749482402 124:0.0 125:0.002070393374741201 126:0.004140786749482402 127:0.0 128:0.0 129:0.006211180124223602 130:0.0 131:0.0 132:0.0 133:0.0 134:0.0 135:0.0 136:0.002070393374741201 137:0.004140786749482402 138:0.0 139:0.002070393374741201 140:0.0 141:0.0 142:0.002070393374741201 143:0.0 144:0.0 145:0.0 146:0.002070393374741201 147:0.0 148:0.008281573498964804 149:0.0 150:0.0 151:0.002070393374741201 152:0.0 153:0.0 154:0.002070393374741201 155:0.008281573498964804 156:0.002070393374741201 157:0.002070393374741201 158:0.008281573498964804 159:0.0 160:0.0 
1.0 1:0.009111617312072893 2:0.0 3:0.0 4:0.0 5:0.0 6:0.0 7:0.009111617312072893 8:0.0 9:0.0 10:0.0 11:0.0 12:0.0 13:0.0 14:0.0 15:0.0 16:0.011389521640091117 17:0.0 18:0.0 19:0.002277904328018223 20:0.0 21:0.009111617312072893 22:0.00683371298405467 23:0.002277904328018223 24:0.002277904328018223 25:0.0 26:0.0 27:0.0 28:0.0 29:0.002277904328018223 30:0.011389521640091117 31:0.0 32:0.004555808656036446 33:0.0 34:0.0 35:0.0 36:0.0 37:0.0 38:0.0 39:0.0 40:0.0 41:0.002277904328018223 42:0.009111617312072893 43:0.0 44:0.0 45:0.0 46:0.0 47:0.0 48:0.009111617312072893 49:0.0 50:0.0 51:0.0 52:0.0 53:0.002277904328018223 54:0.0 55:0.0 56:0.0 57:0.0 58:0.0 59:0.002277904328018223 60:0.0 61:0.0 62:0.002277904328018223 63:0.0 64:0.004555808656036446 65:0.002277904328018223 66:0.009111617312072893 67:0.0 68:0.004555808656036446 69:0.0 70:0.0 71:0.0 72:0.0 73:0.002277904328018223 74:0.0 75:0.002277904328018223 76:0.0 77:0.0 78:0.009111617312072893 79:0.004555808656036446 80:0.0 81:0.004555808656036446 82:0.0 83:0.0 84:0.002277904328018223 85:0.0 86:0.0 87:0.0 88:0.002277904328018223 89:0.0 90:0.0 91:0.0 92:0.002277904328018223 93:0.0 94:0.002277904328018223 95:0.0 96:0.6856492027334852 97:0.0 98:0.004555808656036446 99:0.0 100:0.002277904328018223 101:0.0 102:0.011389521640091117 103:0.0 104:0.0 105:0.03644646924829157 106:0.0 107:0.011389521640091117 108:0.0 109:0.0 110:0.0 111:0.004555808656036446 112:0.004555808656036446 113:0.0 114:0.0 115:0.002277904328018223 116:0.0 117:0.0 118:0.0 119:0.0 120:0.004555808656036446 121:0.018223234624145785 122:0.0 123:0.004555808656036446 124:0.0 125:0.0 126:0.00683371298405467 127:0.0 128:0.0 129:0.004555808656036446 130:0.0 131:0.0 132:0.00683371298405467 133:0.0 134:0.0 135:0.0 136:0.002277904328018223 137:0.002277904328018223 138:0.0 139:0.0 140:0.0 141:0.0 142:0.0 143:0.0 144:0.0 145:0.0 146:0.002277904328018223 147:0.0 148:0.00683371298405467 149:0.0 150:0.0 151:0.002277904328018223 152:0.0 153:0.0 154:0.002277904328018223 155:0.018223234624145785 156:0.0 157:0.002277904328018223 158:0.002277904328018223 159:0.0 160:0.0 
1.0 1:0.006622516556291391 2:0.0 3:0.011037527593818985 4:0.0 5:0.0 6:0.0 7:0.006622516556291391 8:0.0 9:0.0 10:0.013245033112582781 11:0.006622516556291391 12:0.0 13:0.0 14:0.0 15:0.0 16:0.01545253863134658 17:0.004415011037527594 18:0.0 19:0.008830022075055188 20:0.011037527593818985 21:0.002207505518763797 22:0.013245033112582781 23:0.0 24:0.008830022075055188 25:0.0 26:0.0 27:0.0 28:0.004415011037527594 29:0.0 30:0.013245033112582781 31:0.002207505518763797 32:0.017660044150110375 33:0.0 34:0.004415011037527594 35:0.0 36:0.013245033112582781 37:0.0 38:0.0 39:0.0 40:0.0 41:0.004415011037527594 42:0.008830022075055188 43:0.0 44:0.0 45:0.0 46:0.0 47:0.0 48:0.01545253863134658 49:0.0 50:0.017660044150110375 51:0.0 52:0.0 53:0.006622516556291391 54:0.0 55:0.0 56:0.0 57:0.002207505518763797 58:0.0 59:0.002207505518763797 60:0.002207505518763797 61:0.0 62:0.008830022075055188 63:0.0 64:0.0 65:0.004415011037527594 66:0.002207505518763797 67:0.0 68:0.004415011037527594 69:0.0 70:0.006622516556291391 71:0.0 72:0.002207505518763797 73:0.006622516556291391 74:0.0 75:0.008830022075055188 76:0.01545253863134658 77:0.0 78:0.011037527593818985 79:0.037527593818984545 80:0.004415011037527594 81:0.004415011037527594 82:0.004415011037527594 83:0.0 84:0.0 85:0.0 86:0.0 87:0.011037527593818985 88:0.013245033112582781 89:0.0 90:0.0 91:0.013245033112582781 92:0.002207505518763797 93:0.0 94:0.0 95:0.0 96:0.4304635761589404 97:0.0 98:0.0 99:0.0 100:0.0 101:0.0 102:0.017660044150110375 103:0.002207505518763797 104:0.0 105:0.0 106:0.002207505518763797 107:0.006622516556291391 108:0.002207505518763797 109:0.0 110:0.0 111:0.017660044150110375 112:0.004415011037527594 113:0.0 114:0.0 115:0.0 116:0.0 117:0.0 118:0.0 119:0.0 120:0.013245033112582781 121:0.0 122:0.0 123:0.006622516556291391 124:0.0 125:0.0 126:0.008830022075055188 127:0.0 128:0.0 129:0.02207505518763797 130:0.0 131:0.0 132:0.004415011037527594 133:0.0 134:0.0 135:0.0 136:0.0 137:0.002207505518763797 138:0.0 139:0.008830022075055188 140:0.0 141:0.006622516556291391 142:0.002207505518763797 143:0.004415011037527594 144:0.0 145:0.0 146:0.002207505518763797 147:0.0 148:0.011037527593818985 149:0.0 150:0.002207505518763797 151:0.0 152:0.0 153:0.0 154:0.0 155:0.024282560706401765 156:0.0 157:0.013245033112582781 158:0.0 159:0.0 160:0.0 
1.0 1:0.008988764044943821 2:0.0 3:0.017977528089887642 4:0.0 5:0.0 6:0.0 7:0.006741573033707865 8:0.0 9:0.0 10:0.011235955056179775 11:0.0044943820224719105 12:0.0 13:0.0 14:0.0 15:0.0 16:0.0022471910112359553 17:0.0022471910112359553 18:0.0 19:0.008988764044943821 20:0.01348314606741573 21:0.0022471910112359553 22:0.011235955056179775 23:0.0022471910112359553 24:0.008988764044943821 25:0.0 26:0.0 27:0.0 28:0.0 29:0.0 30:0.0044943820224719105 31:0.0022471910112359553 32:0.017977528089887642 33:0.0 34:0.0022471910112359553 35:0.0 36:0.01348314606741573 37:0.0 38:0.0 39:0.0 40:0.0 41:0.006741573033707865 42:0.011235955056179775 43:0.0 44:0.0 45:0.0 46:0.0 47:0.0 48:0.01348314606741573 49:0.0 50:0.020224719101123594 51:0.0 52:0.0 53:0.008988764044943821 54:0.0022471910112359553 55:0.0 56:0.0 57:0.0022471910112359553 58:0.0 59:0.0044943820224719105 60:0.0022471910112359553 61:0.0 62:0.011235955056179775 63:0.0 64:0.0 65:0.011235955056179775 66:0.0022471910112359553 67:0.0 68:0.0044943820224719105 69:0.0 70:0.008988764044943821 71:0.0 72:0.0 73:0.006741573033707865 74:0.0 75:0.008988764044943821 76:0.01348314606741573 77:0.0 78:0.01348314606741573 79:0.04269662921348315 80:0.0022471910112359553 81:0.0022471910112359553 82:0.0022471910112359553 83:0.0 84:0.0 85:0.0 86:0.0 87:0.008988764044943821 88:0.011235955056179775 89:0.0 90:0.0 91:0.017977528089887642 92:0.0022471910112359553 93:0.0 94:0.0 95:0.0 96:0.43820224719101125 97:0.0 98:0.0022471910112359553 99:0.0 100:0.0 101:0.0 102:0.0022471910112359553 103:0.0 104:0.0 105:0.02247191011235955 106:0.0022471910112359553 107:0.0044943820224719105 108:0.0 109:0.0 110:0.0 111:0.017977528089887642 112:0.0044943820224719105 113:0.0 114:0.0022471910112359553 115:0.0 116:0.0 117:0.0 118:0.0 119:0.0 120:0.008988764044943821 121:0.0 122:0.0 123:0.006741573033707865 124:0.0 125:0.0 126:0.0022471910112359553 127:0.0 128:0.0 129:0.015730337078651686 130:0.0 131:0.0 132:0.0022471910112359553 133:0.0 134:0.0 135:0.0 136:0.0 137:0.0022471910112359553 138:0.0 139:0.008988764044943821 140:0.0 141:0.006741573033707865 142:0.0022471910112359553 143:0.0044943820224719105 144:0.0 145:0.0 146:0.0022471910112359553 147:0.0 148:0.015730337078651686 149:0.0 150:0.0 151:0.0 152:0.0 153:0.0 154:0.0022471910112359553 155:0.024719101123595506 156:0.0 157:0.01348314606741573 158:0.0 159:0.0 160:0.0 
1.0 1:0.006622516556291391 2:0.0 3:0.011037527593818985 4:0.0 5:0.0 6:0.0 7:0.006622516556291391 8:0.0 9:0.0 10:0.013245033112582781 11:0.006622516556291391 12:0.0 13:0.0 14:0.0 15:0.0 16:0.01545253863134658 17:0.004415011037527594 18:0.0 19:0.008830022075055188 20:0.011037527593818985 21:0.002207505518763797 22:0.013245033112582781 23:0.0 24:0.008830022075055188 25:0.0 26:0.0 27:0.0 28:0.004415011037527594 29:0.0 30:0.013245033112582781 31:0.002207505518763797 32:0.017660044150110375 33:0.0 34:0.004415011037527594 35:0.0 36:0.013245033112582781 37:0.0 38:0.0 39:0.0 40:0.0 41:0.004415011037527594 42:0.008830022075055188 43:0.0 44:0.0 45:0.0 46:0.0 47:0.0 48:0.01545253863134658 49:0.0 50:0.017660044150110375 51:0.0 52:0.0 53:0.006622516556291391 54:0.0 55:0.0 56:0.0 57:0.002207505518763797 58:0.0 59:0.002207505518763797 60:0.002207505518763797 61:0.0 62:0.008830022075055188 63:0.0 64:0.0 65:0.004415011037527594 66:0.002207505518763797 67:0.0 68:0.004415011037527594 69:0.0 70:0.006622516556291391 71:0.0 72:0.002207505518763797 73:0.006622516556291391 74:0.0 75:0.008830022075055188 76:0.01545253863134658 77:0.0 78:0.011037527593818985 79:0.037527593818984545 80:0.004415011037527594 81:0.004415011037527594 82:0.004415011037527594 83:0.0 84:0.0 85:0.0 86:0.0 87:0.011037527593818985 88:0.013245033112582781 89:0.0 90:0.0 91:0.013245033112582781 92:0.002207505518763797 93:0.0 94:0.0 95:0.0 96:0.4304635761589404 97:0.0 98:0.0 99:0.0 100:0.0 101:0.0 102:0.017660044150110375 103:0.002207505518763797 104:0.0 105:0.0 106:0.002207505518763797 107:0.006622516556291391 108:0.002207505518763797 109:0.0 110:0.0 111:0.017660044150110375 112:0.004415011037527594 113:0.0 114:0.0 115:0.0 116:0.0 117:0.0 118:0.0 119:0.0 120:0.013245033112582781 121:0.0 122:0.0 123:0.006622516556291391 124:0.0 125:0.0 126:0.008830022075055188 127:0.0 128:0.0 129:0.02207505518763797 130:0.0 131:0.0 132:0.004415011037527594 133:0.0 134:0.0 135:0.0 136:0.0 137:0.002207505518763797 138:0.0 139:0.008830022075055188 140:0.0 141:0.006622516556291391 142:0.002207505518763797 143:0.004415011037527594 144:0.0 145:0.0 146:0.002207505518763797 147:0.0 148:0.011037527593818985 149:0.0 150:0.002207505518763797 151:0.0 152:0.0 153:0.0 154:0.0 155:0.024282560706401765 156:0.0 157:0.013245033112582781 158:0.0 159:0.0 160:0.0 
1.0 1:0.008988764044943821 2:0.0 3:0.017977528089887642 4:0.0 5:0.0 6:0.0 7:0.006741573033707865 8:0.0 9:0.0 10:0.011235955056179775 11:0.0044943820224719105 12:0.0 13:0.0 14:0.0 15:0.0 16:0.0022471910112359553 17:0.0022471910112359553 18:0.0 19:0.008988764044943821 20:0.01348314606741573 21:0.0022471910112359553 22:0.011235955056179775 23:0.0022471910112359553 24:0.008988764044943821 25:0.0 26:0.0 27:0.0 28:0.0 29:0.0 30:0.0044943820224719105 31:0.0022471910112359553 32:0.017977528089887642 33:0.0 34:0.0022471910112359553 35:0.0 36:0.01348314606741573 37:0.0 38:0.0 39:0.0 40:0.0 41:0.006741573033707865 42:0.011235955056179775 43:0.0 44:0.0 45:0.0 46:0.0 47:0.0 48:0.01348314606741573 49:0.0 50:0.020224719101123594 51:0.0 52:0.0 53:0.008988764044943821 54:0.0022471910112359553 55:0.0 56:0.0 57:0.0022471910112359553 58:0.0 59:0.0044943820224719105 60:0.0022471910112359553 61:0.0 62:0.011235955056179775 63:0.0 64:0.0 65:0.011235955056179775 66:0.0022471910112359553 67:0.0 68:0.0044943820224719105 69:0.0 70:0.008988764044943821 71:0.0 72:0.0 73:0.006741573033707865 74:0.0 75:0.008988764044943821 76:0.01348314606741573 77:0.0 78:0.01348314606741573 79:0.04269662921348315 80:0.0022471910112359553 81:0.0022471910112359553 82:0.0022471910112359553 83:0.0 84:0.0 85:0.0 86:0.0 87:0.008988764044943821 88:0.011235955056179775 89:0.0 90:0.0 91:0.017977528089887642 92:0.0022471910112359553 93:0.0 94:0.0 95:0.0 96:0.43820224719101125 97:0.0 98:0.0022471910112359553 99:0.0 100:0.0 101:0.0 102:0.0022471910112359553 103:0.0 104:0.0 105:0.02247191011235955 106:0.0022471910112359553 107:0.0044943820224719105 108:0.0 109:0.0 110:0.0 111:0.017977528089887642 112:0.0044943820224719105 113:0.0 114:0.0022471910112359553 115:0.0 116:0.0 117:0.0 118:0.0 119:0.0 120:0.008988764044943821 121:0.0 122:0.0 123:0.006741573033707865 124:0.0 125:0.0 126:0.0022471910112359553 127:0.0 128:0.0 129:0.015730337078651686 130:0.0 131:0.0 132:0.0022471910112359553 133:0.0 134:0.0 135:0.0 136:0.0 137:0.0022471910112359553 138:0.0 139:0.008988764044943821 140:0.0 141:0.006741573033707865 142:0.0022471910112359553 143:0.0044943820224719105 144:0.0 145:0.0 146:0.0022471910112359553 147:0.0 148:0.015730337078651686 149:0.0 150:0.0 151:0.0 152:0.0 153:0.0 154:0.0022471910112359553 155:0.024719101123595506 156:0.0 157:0.01348314606741573 158:0.0 159:0.0 160:0.0 
1.0 1:0.0 2:0.0 3:0.007194244604316547 4:0.0 5:0.0 6:0.0 7:0.0 8:0.0 9:0.0 10:0.0 11:0.0 12:0.007194244604316547 13:0.0 14:0.0 15:0.0 16:0.0 17:0.0 18:0.0 19:0.0035971223021582736 20:0.0 21:0.0 22:0.01079136690647482 23:0.0 24:0.0 25:0.0 26:0.0 27:0.0 28:0.0035971223021582736 29:0.0 30:0.0 31:0.0 32:0.0035971223021582736 33:0.0 34:0.0 35:0.0 36:0.0 37:0.0 38:0.0 39:0.0 40:0.0 41:0.0 42:0.0035971223021582736 43:0.0 44:0.0 45:0.0 46:0.0 47:0.0035971223021582736 48:0.0 49:0.0 50:0.0035971223021582736 51:0.0 52:0.0 53:0.0 54:0.01079136690647482 55:0.0 56:0.0 57:0.0 58:0.0 59:0.0 60:0.0 61:0.0 62:0.0 63:0.0035971223021582736 64:0.0035971223021582736 65:0.0 66:0.014388489208633094 67:0.0 68:0.01079136690647482 69:0.0 70:0.0 71:0.0 72:0.0 73:0.0 74:0.0 75:0.0 76:0.007194244604316547 77:0.0 78:0.007194244604316547 79:0.0 80:0.0 81:0.007194244604316547 82:0.0 83:0.0 84:0.0 85:0.0 86:0.0 87:0.01079136690647482 88:0.0 89:0.0 90:0.0 91:0.007194244604316547 92:0.007194244604316547 93:0.0 94:0.0 95:0.0 96:0.7410071942446043 97:0.0 98:0.0 99:0.0 100:0.0 101:0.0 102:0.01079136690647482 103:0.0 104:0.0 105:0.046762589928057555 106:0.0035971223021582736 107:0.0 108:0.0 109:0.0 110:0.0 111:0.0 112:0.01079136690647482 113:0.0 114:0.0 115:0.0 116:0.0 117:0.0 118:0.0 119:0.0 120:0.0 121:0.0 122:0.0 123:0.0 124:0.0 125:0.0 126:0.014388489208633094 127:0.0 128:0.0 129:0.014388489208633094 130:0.0 131:0.0 132:0.0 133:0.0 134:0.0 135:0.0 136:0.0 137:0.0 138:0.0 139:0.0 140:0.0 141:0.0 142:0.0 143:0.0 144:0.0 145:0.0 146:0.0 147:0.0 148:0.007194244604316547 149:0.0 150:0.0 151:0.0 152:0.0 153:0.0 154:0.0 155:0.01079136690647482 156:0.0 157:0.0035971223021582736 158:0.0 159:0.0 160:0.0 
1.0 1:0.0 2:0.0 3:0.007352941176470588 4:0.0 5:0.0 6:0.0 7:0.0 8:0.0 9:0.0 10:0.0 11:0.0024509803921568627 12:0.007352941176470588 13:0.0 14:0.0 15:0.0 16:0.0 17:0.0 18:0.0 19:0.00980392156862745 20:0.0024509803921568627 21:0.004901960784313725 22:0.004901960784313725 23:0.0024509803921568627 24:0.0 25:0.0 26:0.0 27:0.0 28:0.004901960784313725 29:0.0 30:0.0 31:0.0 32:0.0 33:0.0 34:0.0 35:0.0 36:0.0024509803921568627 37:0.0 38:0.0 39:0.0 40:0.0 41:0.0 42:0.0 43:0.0 44:0.0 45:0.0 46:0.0 47:0.004901960784313725 48:0.0024509803921568627 49:0.0 50:0.0 51:0.0 52:0.0 53:0.0 54:0.012254901960784314 55:0.0 56:0.0 57:0.0024509803921568627 58:0.0 59:0.0 60:0.0 61:0.0 62:0.0024509803921568627 63:0.004901960784313725 64:0.007352941176470588 65:0.0 66:0.012254901960784314 67:0.0 68:0.00980392156862745 69:0.0 70:0.0024509803921568627 71:0.0 72:0.0 73:0.0 74:0.0 75:0.0 76:0.004901960784313725 77:0.0 78:0.00980392156862745 79:0.0 80:0.00980392156862745 81:0.012254901960784314 82:0.0 83:0.0 84:0.0024509803921568627 85:0.0 86:0.0 87:0.01715686274509804 88:0.0 89:0.0 90:0.0 91:0.007352941176470588 92:0.00980392156862745 93:0.0 94:0.0 95:0.0 96:0.6666666666666666 97:0.0 98:0.0 99:0.0 100:0.0 101:0.0 102:0.007352941176470588 103:0.0 104:0.0 105:0.04656862745098039 106:0.0024509803921568627 107:0.0024509803921568627 108:0.0 109:0.0024509803921568627 110:0.0 111:0.0 112:0.00980392156862745 113:0.0024509803921568627 114:0.0 115:0.0 116:0.0 117:0.0 118:0.0 119:0.0 120:0.0 121:0.0024509803921568627 122:0.0 123:0.0024509803921568627 124:0.0 125:0.0 126:0.0196078431372549 127:0.0 128:0.0 129:0.012254901960784314 130:0.0 131:0.0 132:0.0 133:0.0 134:0.0 135:0.0 136:0.0024509803921568627 137:0.0 138:0.0 139:0.0024509803921568627 140:0.0 141:0.0 142:0.0 143:0.0 144:0.0024509803921568627 145:0.0 146:0.0 147:0.0 148:0.0196078431372549 149:0.0 150:0.0 151:0.0 152:0.0 153:0.0 154:0.0 155:0.004901960784313725 156:0.0 157:0.004901960784313725 158:0.0024509803921568627 159:0.0 160:0.0 
1.0 1:0.0 2:0.0 3:0.007142857142857143 4:0.0 5:0.0 6:0.0 7:0.0 8:0.0 9:0.0 10:0.0 11:0.0 12:0.007142857142857143 13:0.0 14:0.0 15:0.0 16:0.0 17:0.0 18:0.0 19:0.007142857142857143 20:0.0 21:0.0 22:0.010714285714285714 23:0.0 24:0.0 25:0.0 26:0.0 27:0.0 28:0.0035714285714285713 29:0.0 30:0.0035714285714285713 31:0.0 32:0.0 33:0.0 34:0.0 35:0.0 36:0.0 37:0.0 38:0.0 39:0.0 40:0.0 41:0.0 42:0.0 43:0.0 44:0.0 45:0.0 46:0.0 47:0.0035714285714285713 48:0.0 49:0.0 50:0.0035714285714285713 51:0.0 52:0.0 53:0.0 54:0.010714285714285714 55:0.0 56:0.0 57:0.0 58:0.0 59:0.0 60:0.0 61:0.0 62:0.0 63:0.0035714285714285713 64:0.0035714285714285713 65:0.0 66:0.014285714285714285 67:0.0 68:0.010714285714285714 69:0.0 70:0.0 71:0.0 72:0.0 73:0.0 74:0.0 75:0.0 76:0.007142857142857143 77:0.0 78:0.007142857142857143 79:0.0 80:0.0 81:0.007142857142857143 82:0.0 83:0.0 84:0.0 85:0.0 86:0.0 87:0.007142857142857143 88:0.0 89:0.0 90:0.0 91:0.007142857142857143 92:0.007142857142857143 93:0.0 94:0.0 95:0.0 96:0.7428571428571429 97:0.0 98:0.0 99:0.0 100:0.0 101:0.0 102:0.014285714285714285 103:0.0 104:0.0 105:0.04642857142857143 106:0.0035714285714285713 107:0.0 108:0.0 109:0.0 110:0.0 111:0.0 112:0.010714285714285714 113:0.0 114:0.0 115:0.0 116:0.0 117:0.0 118:0.0 119:0.0 120:0.0 121:0.0 122:0.0 123:0.0 124:0.0 125:0.0 126:0.014285714285714285 127:0.0 128:0.0 129:0.014285714285714285 130:0.0 131:0.0 132:0.0 133:0.0 134:0.0 135:0.0 136:0.0 137:0.0 138:0.0 139:0.0 140:0.0 141:0.0 142:0.0 143:0.0 144:0.0 145:0.0 146:0.0 147:0.0 148:0.007142857142857143 149:0.0 150:0.0 151:0.0 152:0.0 153:0.0 154:0.0 155:0.010714285714285714 156:0.0 157:0.0035714285714285713 158:0.0 159:0.0 160:0.0 
1.0 1:0.002207505518763797 2:0.0 3:0.02207505518763797 4:0.0 5:0.0 6:0.0 7:0.006622516556291391 8:0.0 9:0.0 10:0.004415011037527594 11:0.004415011037527594 12:0.0 13:0.0 14:0.0 15:0.0 16:0.008830022075055188 17:0.006622516556291391 18:0.0 19:0.011037527593818985 20:0.008830022075055188 21:0.002207505518763797 22:0.008830022075055188 23:0.002207505518763797 24:0.006622516556291391 25:0.0 26:0.0 27:0.0 28:0.002207505518763797 29:0.0 30:0.017660044150110375 31:0.002207505518763797 32:0.017660044150110375 33:0.0 34:0.0 35:0.0 36:0.017660044150110375 37:0.0 38:0.0 39:0.0 40:0.0 41:0.0 42:0.004415011037527594 43:0.0 44:0.0 45:0.0 46:0.0 47:0.0 48:0.01545253863134658 49:0.0 50:0.013245033112582781 51:0.0 52:0.0 53:0.002207505518763797 54:0.0 55:0.0 56:0.0 57:0.002207505518763797 58:0.0 59:0.002207505518763797 60:0.004415011037527594 61:0.0 62:0.004415011037527594 63:0.0 64:0.002207505518763797 65:0.006622516556291391 66:0.008830022075055188 67:0.0 68:0.008830022075055188 69:0.0 70:0.002207505518763797 71:0.0 72:0.0 73:0.002207505518763797 74:0.0 75:0.013245033112582781 76:0.013245033112582781 77:0.0 78:0.02207505518763797 79:0.04194260485651214 80:0.004415011037527594 81:0.002207505518763797 82:0.004415011037527594 83:0.0 84:0.002207505518763797 85:0.0 86:0.0 87:0.002207505518763797 88:0.013245033112582781 89:0.0 90:0.0 91:0.008830022075055188 92:0.002207505518763797 93:0.0 94:0.0 95:0.0 96:0.41501103752759383 97:0.0 98:0.0 99:0.0 100:0.002207505518763797 101:0.0 102:0.008830022075055188 103:0.0 104:0.0 105:0.024282560706401765 106:0.002207505518763797 107:0.02207505518763797 108:0.006622516556291391 109:0.0 110:0.0 111:0.011037527593818985 112:0.004415011037527594 113:0.0 114:0.0 115:0.0 116:0.0 117:0.0 118:0.0 119:0.0 120:0.004415011037527594 121:0.0 122:0.0 123:0.019867549668874173 124:0.0 125:0.0 126:0.013245033112582781 127:0.0 128:0.0 129:0.013245033112582781 130:0.0 131:0.0 132:0.006622516556291391 133:0.0 134:0.0 135:0.0 136:0.002207505518763797 137:0.002207505518763797 138:0.0 139:0.004415011037527594 140:0.0 141:0.013245033112582781 142:0.002207505518763797 143:0.002207505518763797 144:0.0 145:0.0 146:0.004415011037527594 147:0.0 148:0.006622516556291391 149:0.0 150:0.002207505518763797 151:0.0 152:0.0 153:0.0 154:0.0 155:0.02207505518763797 156:0.0 157:0.019867549668874173 158:0.002207505518763797 159:0.0 160:0.0 
1.0 1:0.0017574692442882249 2:0.0 3:0.019332161687170474 4:0.0 5:0.0 6:0.0 7:0.005272407732864675 8:0.0 9:0.0 10:0.0035149384885764497 11:0.0035149384885764497 12:0.0 13:0.0 14:0.0 15:0.0 16:0.007029876977152899 17:0.005272407732864675 18:0.0 19:0.01054481546572935 20:0.007029876977152899 21:0.0017574692442882249 22:0.007029876977152899 23:0.0017574692442882249 24:0.005272407732864675 25:0.0 26:0.0 27:0.0 28:0.0035149384885764497 29:0.0 30:0.015817223198594025 31:0.0017574692442882249 32:0.015817223198594025 33:0.0 34:0.0017574692442882249 35:0.0 36:0.014059753954305799 37:0.0 38:0.0 39:0.0 40:0.0 41:0.0 42:0.0035149384885764497 43:0.0 44:0.0 45:0.0 46:0.0 47:0.0 48:0.007029876977152899 49:0.0 50:0.01054481546572935 51:0.0 52:0.0 53:0.0017574692442882249 54:0.0 55:0.0 56:0.0 57:0.0035149384885764497 58:0.0 59:0.0017574692442882249 60:0.005272407732864675 61:0.0 62:0.0035149384885764497 63:0.0 64:0.0 65:0.0035149384885764497 66:0.008787346221441126 67:0.0 68:0.007029876977152899 69:0.0 70:0.0017574692442882249 71:0.0017574692442882249 72:0.0 73:0.0017574692442882249 74:0.0 75:0.008787346221441126 76:0.008787346221441126 77:0.0 78:0.015817223198594025 79:0.0351493848857645 80:0.0017574692442882249 81:0.0 82:0.0035149384885764497 83:0.0 84:0.0 85:0.0 86:0.0 87:0.0017574692442882249 88:0.01054481546572935 89:0.0 90:0.0 91:0.008787346221441126 92:0.0017574692442882249 93:0.0 94:0.0 95:0.0 96:0.5342706502636204 97:0.0 98:0.0017574692442882249 99:0.0017574692442882249 100:0.0017574692442882249 101:0.0 102:0.01054481546572935 103:0.0 104:0.0 105:0.012302284710017574 106:0.0017574692442882249 107:0.015817223198594025 108:0.005272407732864675 109:0.0 110:0.0 111:0.008787346221441126 112:0.0035149384885764497 113:0.0 114:0.0017574692442882249 115:0.0 116:0.0 117:0.0 118:0.0 119:0.0 120:0.0035149384885764497 121:0.0 122:0.0017574692442882249 123:0.01054481546572935 124:0.0 125:0.0 126:0.012302284710017574 127:0.0 128:0.0 129:0.012302284710017574 130:0.0 131:0.0 132:0.0035149384885764497 133:0.0 134:0.0 135:0.0 136:0.0017574692442882249 137:0.0017574692442882249 138:0.0 139:0.0035149384885764497 140:0.0 141:0.01054481546572935 142:0.0035149384885764497 143:0.0017574692442882249 144:0.0 145:0.0 146:0.0017574692442882249 147:0.0 148:0.005272407732864675 149:0.0 150:0.0017574692442882249 151:0.0017574692442882249 152:0.0 153:0.0 154:0.0 155:0.015817223198594025 156:0.0 157:0.015817223198594025 158:0.0017574692442882249 159:0.0 160:0.0 
1.0 1:0.005272407732864675 2:0.0 3:0.01054481546572935 4:0.0 5:0.0 6:0.0 7:0.005272407732864675 8:0.0 9:0.0 10:0.008787346221441126 11:0.005272407732864675 12:0.0 13:0.0 14:0.0 15:0.0 16:0.01054481546572935 17:0.0035149384885764497 18:0.0 19:0.007029876977152899 20:0.008787346221441126 21:0.0017574692442882249 22:0.007029876977152899 23:0.0 24:0.007029876977152899 25:0.0 26:0.0 27:0.0 28:0.0017574692442882249 29:0.0 30:0.014059753954305799 31:0.0035149384885764497 32:0.014059753954305799 33:0.0 34:0.0035149384885764497 35:0.0 36:0.01054481546572935 37:0.0 38:0.0 39:0.0 40:0.0 41:0.0035149384885764497 42:0.007029876977152899 43:0.0 44:0.0 45:0.0 46:0.0 47:0.0 48:0.01054481546572935 49:0.0 50:0.014059753954305799 51:0.0 52:0.0 53:0.005272407732864675 54:0.0 55:0.0 56:0.0 57:0.0017574692442882249 58:0.0 59:0.0017574692442882249 60:0.0017574692442882249 61:0.0 62:0.007029876977152899 63:0.0017574692442882249 64:0.0 65:0.0035149384885764497 66:0.0017574692442882249 67:0.0 68:0.0035149384885764497 69:0.0 70:0.005272407732864675 71:0.0 72:0.0017574692442882249 73:0.005272407732864675 74:0.0 75:0.007029876977152899 76:0.012302284710017574 77:0.0 78:0.01054481546572935 79:0.029876977152899824 80:0.0017574692442882249 81:0.0035149384885764497 82:0.0017574692442882249 83:0.0 84:0.0 85:0.0 86:0.0 87:0.007029876977152899 88:0.01054481546572935 89:0.0 90:0.0 91:0.012302284710017574 92:0.0017574692442882249 93:0.0 94:0.0 95:0.0 96:0.5518453427065027 97:0.0 98:0.0017574692442882249 99:0.0 100:0.0 101:0.0 102:0.012302284710017574 103:0.0 104:0.0 105:0.007029876977152899 106:0.0017574692442882249 107:0.0035149384885764497 108:0.0017574692442882249 109:0.0 110:0.0 111:0.014059753954305799 112:0.0035149384885764497 113:0.0 114:0.0 115:0.0 116:0.0 117:0.0 118:0.0 119:0.0 120:0.008787346221441126 121:0.0 122:0.0 123:0.005272407732864675 124:0.0 125:0.0 126:0.0 127:0.0 128:0.0 129:0.01757469244288225 130:0.0 131:0.0 132:0.005272407732864675 133:0.0 134:0.0 135:0.0 136:0.0 137:0.0017574692442882249 138:0.0 139:0.007029876977152899 140:0.0 141:0.007029876977152899 142:0.0035149384885764497 143:0.0035149384885764497 144:0.0 145:0.0 146:0.0017574692442882249 147:0.0 148:0.01054481546572935 149:0.0 150:0.0 151:0.0 152:0.0 153:0.0 154:0.0 155:0.01757469244288225 156:0.0 157:0.01054481546572935 158:0.0 159:0.0 160:0.0 
1.0 1:0.0 2:0.0 3:0.0 4:0.0 5:0.0 6:0.0 7:0.0 8:0.0 9:0.0 10:0.0 11:0.003215434083601286 12:0.0 13:0.0 14:0.0 15:0.0 16:0.0 17:0.0 18:0.0 19:0.003215434083601286 20:0.0 21:0.003215434083601286 22:0.003215434083601286 23:0.0 24:0.003215434083601286 25:0.0 26:0.0 27:0.0 28:0.003215434083601286 29:0.0 30:0.0 31:0.0 32:0.003215434083601286 33:0.0 34:0.0 35:0.003215434083601286 36:0.0 37:0.0 38:0.0 39:0.0 40:0.0 41:0.003215434083601286 42:0.0 43:0.0 44:0.0 45:0.0 46:0.003215434083601286 47:0.0 48:0.0 49:0.0 50:0.003215434083601286 51:0.0 52:0.0 53:0.003215434083601286 54:0.003215434083601286 55:0.0 56:0.0 57:0.0 58:0.0 59:0.0 60:0.0 61:0.0 62:0.006430868167202572 63:0.0 64:0.006430868167202572 65:0.0 66:0.0 67:0.0 68:0.012861736334405145 69:0.0 70:0.0 71:0.0 72:0.0 73:0.0 74:0.0 75:0.003215434083601286 76:0.0 77:0.0 78:0.0 79:0.0 80:0.006430868167202572 81:0.022508038585209004 82:0.006430868167202572 83:0.0 84:0.0 85:0.0 86:0.0 87:0.0 88:0.003215434083601286 89:0.0 90:0.0 91:0.00964630225080386 92:0.0 93:0.0 94:0.0 95:0.0 96:0.77491961414791 97:0.0 98:0.003215434083601286 99:0.003215434083601286 100:0.0 101:0.0 102:0.0 103:0.006430868167202572 104:0.0 105:0.0 106:0.0 107:0.006430868167202572 108:0.0 109:0.0 110:0.0 111:0.0 112:0.0 113:0.0 114:0.003215434083601286 115:0.006430868167202572 116:0.0 117:0.0 118:0.0 119:0.0 120:0.0 121:0.003215434083601286 122:0.003215434083601286 123:0.0 124:0.0 125:0.0 126:0.0 127:0.0 128:0.0 129:0.0 130:0.0 131:0.0 132:0.0 133:0.003215434083601286 134:0.0 135:0.0 136:0.0 137:0.0 138:0.0 139:0.003215434083601286 140:0.0 141:0.0 142:0.003215434083601286 143:0.0 144:0.003215434083601286 145:0.003215434083601286 146:0.003215434083601286 147:0.0 148:0.04180064308681672 149:0.0 150:0.0 151:0.003215434083601286 152:0.0 153:0.0 154:0.0 155:0.003215434083601286 156:0.0 157:0.0 158:0.003215434083601286 159:0.0 160:0.0 
1.0 1:0.0 2:0.0 3:0.020930232558139535 4:0.0 5:0.0 6:0.0 7:0.0 8:0.0 9:0.0 10:0.0 11:0.0 12:0.0 13:0.0 14:0.0 15:0.0 16:0.004651162790697674 17:0.0 18:0.0 19:0.020930232558139535 20:0.0 21:0.0069767441860465115 22:0.0069767441860465115 23:0.0 24:0.0 25:0.0 26:0.0 27:0.0 28:0.0 29:0.0 30:0.030232558139534883 31:0.0 32:0.0 33:0.0 34:0.0 35:0.0 36:0.0 37:0.0 38:0.0 39:0.0 40:0.0 41:0.002325581395348837 42:0.0 43:0.0 44:0.0 45:0.0 46:0.0 47:0.0 48:0.004651162790697674 49:0.0 50:0.004651162790697674 51:0.0 52:0.0 53:0.0 54:0.0 55:0.0 56:0.0 57:0.0 58:0.0 59:0.0 60:0.002325581395348837 61:0.0 62:0.0 63:0.0 64:0.011627906976744186 65:0.002325581395348837 66:0.0 67:0.0 68:0.0 69:0.0 70:0.0 71:0.0 72:0.0 73:0.0 74:0.0 75:0.0 76:0.0 77:0.0 78:0.004651162790697674 79:0.004651162790697674 80:0.002325581395348837 81:0.002325581395348837 82:0.0 83:0.0 84:0.0 85:0.0 86:0.0 87:0.004651162790697674 88:0.0 89:0.0 90:0.0 91:0.0 92:0.002325581395348837 93:0.0 94:0.0 95:0.0 96:0.7023255813953488 97:0.0 98:0.0 99:0.0 100:0.0 101:0.0 102:0.020930232558139535 103:0.0 104:0.0 105:0.04883720930232558 106:0.0 107:0.009302325581395349 108:0.002325581395348837 109:0.0 110:0.0 111:0.0 112:0.0069767441860465115 113:0.0 114:0.0 115:0.0 116:0.0 117:0.0 118:0.0 119:0.0 120:0.0 121:0.004651162790697674 122:0.0 123:0.0 124:0.0 125:0.002325581395348837 126:0.018604651162790697 127:0.0 128:0.0 129:0.0069767441860465115 130:0.0 131:0.0 132:0.004651162790697674 133:0.0 134:0.0 135:0.0 136:0.002325581395348837 137:0.0 138:0.0 139:0.009302325581395349 140:0.0 141:0.0 142:0.0 143:0.0 144:0.0 145:0.0 146:0.0 147:0.0 148:0.013953488372093023 149:0.0 150:0.0 151:0.0 152:0.0 153:0.0 154:0.0 155:0.004651162790697674 156:0.0 157:0.002325581395348837 158:0.0 159:0.0 160:0.0 
1.0 1:0.002544529262086514 2:0.0 3:0.005089058524173028 4:0.0 5:0.002544529262086514 6:0.0 7:0.0 8:0.0 9:0.005089058524173028 10:0.002544529262086514 11:0.002544529262086514 12:0.002544529262086514 13:0.0 14:0.0 15:0.0 16:0.0 17:0.002544529262086514 18:0.0 19:0.017811704834605598 20:0.0 21:0.015267175572519083 22:0.005089058524173028 23:0.0 24:0.0 25:0.0 26:0.0 27:0.0 28:0.002544529262086514 29:0.002544529262086514 30:0.0 31:0.0 32:0.002544529262086514 33:0.0 34:0.0 35:0.0 36:0.0 37:0.0 38:0.0 39:0.0 40:0.0 41:0.005089058524173028 42:0.0 43:0.0 44:0.0 45:0.0 46:0.0 47:0.002544529262086514 48:0.002544529262086514 49:0.0 50:0.005089058524173028 51:0.0 52:0.0 53:0.010178117048346057 54:0.0 55:0.0 56:0.0 57:0.0 58:0.0 59:0.0 60:0.010178117048346057 61:0.0 62:0.0 63:0.0 64:0.01272264631043257 65:0.010178117048346057 66:0.005089058524173028 67:0.0 68:0.002544529262086514 69:0.0 70:0.0 71:0.0 72:0.0 73:0.002544529262086514 74:0.0 75:0.0 76:0.005089058524173028 77:0.0 78:0.0 79:0.0 80:0.002544529262086514 81:0.007633587786259542 82:0.007633587786259542 83:0.0 84:0.0 85:0.0 86:0.0 87:0.002544529262086514 88:0.005089058524173028 89:0.0 90:0.0 91:0.002544529262086514 92:0.0 93:0.0 94:0.0 95:0.0 96:0.6946564885496184 97:0.0 98:0.0 99:0.005089058524173028 100:0.002544529262086514 101:0.0 102:0.007633587786259542 103:0.0 104:0.0 105:0.020356234096692113 106:0.0 107:0.005089058524173028 108:0.0 109:0.0 110:0.0 111:0.0 112:0.002544529262086514 113:0.0 114:0.0 115:0.0 116:0.0 117:0.0 118:0.0 119:0.0 120:0.0 121:0.005089058524173028 122:0.0 123:0.002544529262086514 124:0.0 125:0.0 126:0.005089058524173028 127:0.0 128:0.0 129:0.010178117048346057 130:0.0 131:0.0 132:0.0 133:0.005089058524173028 134:0.0 135:0.0 136:0.002544529262086514 137:0.002544529262086514 138:0.0 139:0.01272264631043257 140:0.0 141:0.002544529262086514 142:0.0 143:0.0 144:0.002544529262086514 145:0.0 146:0.0 147:0.0 148:0.022900763358778626 149:0.0 150:0.0 151:0.002544529262086514 152:0.0 153:0.0 154:0.0 155:0.007633587786259542 156:0.0 157:0.005089058524173028 158:0.0 159:0.0 160:0.0 
1.0 1:0.0018656716417910447 2:0.0 3:0.009328358208955223 4:0.0 5:0.0 6:0.0 7:0.005597014925373134 8:0.0 9:0.0 10:0.0 11:0.0 12:0.0 13:0.0 14:0.0 15:0.0 16:0.007462686567164179 17:0.0 18:0.0 19:0.0037313432835820895 20:0.0 21:0.0037313432835820895 22:0.029850746268656716 23:0.0 24:0.0 25:0.0 26:0.0 27:0.0 28:0.0 29:0.0 30:0.009328358208955223 31:0.0 32:0.0037313432835820895 33:0.0018656716417910447 34:0.005597014925373134 35:0.0 36:0.0018656716417910447 37:0.0 38:0.0 39:0.0 40:0.0 41:0.005597014925373134 42:0.0037313432835820895 43:0.0 44:0.0 45:0.0 46:0.0037313432835820895 47:0.0018656716417910447 48:0.007462686567164179 49:0.0 50:0.0037313432835820895 51:0.0 52:0.0 53:0.0018656716417910447 54:0.0037313432835820895 55:0.0 56:0.0 57:0.0018656716417910447 58:0.0 59:0.0018656716417910447 60:0.0 61:0.0 62:0.0 63:0.0 64:0.0 65:0.0 66:0.005597014925373134 67:0.0 68:0.0 69:0.0 70:0.0 71:0.0 72:0.0 73:0.0 74:0.0 75:0.0037313432835820895 76:0.0018656716417910447 77:0.0 78:0.009328358208955223 79:0.0037313432835820895 80:0.0018656716417910447 81:0.0018656716417910447 82:0.007462686567164179 83:0.0 84:0.0 85:0.0 86:0.0 87:0.0 88:0.0 89:0.0 90:0.0 91:0.0 92:0.0018656716417910447 93:0.0 94:0.0018656716417910447 95:0.0 96:0.6697761194029851 97:0.0 98:0.005597014925373134 99:0.0 100:0.020522388059701493 101:0.0 102:0.013059701492537313 103:0.0 104:0.0 105:0.03731343283582089 106:0.0 107:0.024253731343283583 108:0.0 109:0.0 110:0.0 111:0.0018656716417910447 112:0.0018656716417910447 113:0.0 114:0.0018656716417910447 115:0.0 116:0.0 117:0.0 118:0.0 119:0.0 120:0.005597014925373134 121:0.0037313432835820895 122:0.0 123:0.007462686567164179 124:0.0 125:0.0 126:0.005597014925373134 127:0.0 128:0.0 129:0.013059701492537313 130:0.0 131:0.0 132:0.0 133:0.0 134:0.0 135:0.0 136:0.005597014925373134 137:0.0 138:0.0 139:0.0 140:0.0 141:0.0018656716417910447 142:0.0018656716417910447 143:0.0018656716417910447 144:0.0 145:0.0 146:0.0 147:0.0 148:0.005597014925373134 149:0.0 150:0.0 151:0.0037313432835820895 152:0.0 153:0.0 154:0.0 155:0.009328358208955223 156:0.0 157:0.0 158:0.0 159:0.0 160:0.0 
1.0 1:0.0 2:0.0 3:0.0 4:0.003205128205128205 5:0.003205128205128205 6:0.0 7:0.003205128205128205 8:0.0 9:0.0 10:0.0 11:0.003205128205128205 12:0.0 13:0.0 14:0.0 15:0.0 16:0.0 17:0.0 18:0.0 19:0.003205128205128205 20:0.009615384615384616 21:0.003205128205128205 22:0.009615384615384616 23:0.0 24:0.0 25:0.0 26:0.0 27:0.0 28:0.003205128205128205 29:0.003205128205128205 30:0.009615384615384616 31:0.003205128205128205 32:0.003205128205128205 33:0.0 34:0.009615384615384616 35:0.0 36:0.0 37:0.0 38:0.0 39:0.0 40:0.0 41:0.003205128205128205 42:0.003205128205128205 43:0.0 44:0.0 45:0.0 46:0.0 47:0.0 48:0.0 49:0.0 50:0.0 51:0.0 52:0.0 53:0.0 54:0.0 55:0.0 56:0.0 57:0.0 58:0.0 59:0.0 60:0.003205128205128205 61:0.0 62:0.0 63:0.003205128205128205 64:0.003205128205128205 65:0.009615384615384616 66:0.003205128205128205 67:0.0 68:0.009615384615384616 69:0.0 70:0.003205128205128205 71:0.0 72:0.003205128205128205 73:0.0 74:0.0 75:0.003205128205128205 76:0.00641025641025641 77:0.0 78:0.009615384615384616 79:0.003205128205128205 80:0.0 81:0.003205128205128205 82:0.00641025641025641 83:0.0 84:0.0 85:0.0 86:0.0 87:0.003205128205128205 88:0.0 89:0.0 90:0.0 91:0.0 92:0.0 93:0.0 94:0.0 95:0.0 96:0.7692307692307693 97:0.0 98:0.003205128205128205 99:0.003205128205128205 100:0.0 101:0.0 102:0.0 103:0.0 104:0.0 105:0.01282051282051282 106:0.0 107:0.0 108:0.0 109:0.0 110:0.0 111:0.003205128205128205 112:0.0 113:0.0 114:0.0 115:0.0 116:0.0 117:0.0 118:0.0 119:0.003205128205128205 120:0.0 121:0.009615384615384616 122:0.0 123:0.003205128205128205 124:0.0 125:0.0 126:0.003205128205128205 127:0.0 128:0.0 129:0.0 130:0.0 131:0.0 132:0.003205128205128205 133:0.0 134:0.0 135:0.0 136:0.003205128205128205 137:0.003205128205128205 138:0.0 139:0.0 140:0.0 141:0.003205128205128205 142:0.0 143:0.0 144:0.0 145:0.0 146:0.0 147:0.0 148:0.009615384615384616 149:0.0 150:0.003205128205128205 151:0.0 152:0.0 153:0.0 154:0.0 155:0.003205128205128205 156:0.0 157:0.009615384615384616 158:0.0 159:0.0 160:0.0 
1.0 1:0.0 2:0.0 3:0.00510204081632653 4:0.0 5:0.0 6:0.0 7:0.0 8:0.0 9:0.0 10:0.0 11:0.0 12:0.0 13:0.0 14:0.0 15:0.0 16:0.00510204081632653 17:0.0 18:0.0 19:0.0 20:0.0 21:0.01020408163265306 22:0.00510204081632653 23:0.0 24:0.00510204081632653 25:0.0 26:0.0 27:0.0 28:0.0 29:0.0 30:0.00510204081632653 31:0.0 32:0.00510204081632653 33:0.0 34:0.0 35:0.0 36:0.0 37:0.0 38:0.0 39:0.0 40:0.0 41:0.0 42:0.0 43:0.0 44:0.0 45:0.0 46:0.0 47:0.00510204081632653 48:0.0 49:0.0 50:0.01020408163265306 51:0.0 52:0.0 53:0.0 54:0.0 55:0.0 56:0.0 57:0.0 58:0.0 59:0.0 60:0.0 61:0.0 62:0.0 63:0.0 64:0.01020408163265306 65:0.0 66:0.0 67:0.0 68:0.00510204081632653 69:0.0 70:0.0 71:0.0 72:0.0 73:0.0 74:0.0 75:0.00510204081632653 76:0.0 77:0.0 78:0.0 79:0.0 80:0.0 81:0.015306122448979591 82:0.0 83:0.0 84:0.0 85:0.0 86:0.0 87:0.00510204081632653 88:0.00510204081632653 89:0.0 90:0.0 91:0.0 92:0.00510204081632653 93:0.0 94:0.00510204081632653 95:0.0 96:0.7704081632653061 97:0.0 98:0.0 99:0.0 100:0.00510204081632653 101:0.0 102:0.0 103:0.00510204081632653 104:0.0 105:0.04591836734693878 106:0.00510204081632653 107:0.0 108:0.0 109:0.0 110:0.0 111:0.0 112:0.0 113:0.0 114:0.0 115:0.0 116:0.0 117:0.0 118:0.0 119:0.0 120:0.0 121:0.0 122:0.0 123:0.00510204081632653 124:0.0 125:0.0 126:0.00510204081632653 127:0.0 128:0.0 129:0.01020408163265306 130:0.0 131:0.0 132:0.00510204081632653 133:0.0 134:0.0 135:0.0 136:0.0 137:0.0 138:0.0 139:0.0 140:0.0 141:0.0 142:0.0 143:0.0 144:0.0 145:0.0 146:0.0 147:0.0 148:0.015306122448979591 149:0.0 150:0.0 151:0.0 152:0.0 153:0.0 154:0.0 155:0.01020408163265306 156:0.0 157:0.0 158:0.00510204081632653 159:0.0 160:0.0 
1.0 1:0.011299435028248588 2:0.0 3:0.01694915254237288 4:0.0 5:0.0 6:0.0 7:0.005649717514124294 8:0.0 9:0.0 10:0.009416195856873822 11:0.003766478342749529 12:0.0 13:0.0 14:0.0 15:0.0 16:0.003766478342749529 17:0.0018832391713747645 18:0.0 19:0.005649717514124294 20:0.011299435028248588 21:0.0018832391713747645 22:0.009416195856873822 23:0.0018832391713747645 24:0.007532956685499058 25:0.0 26:0.0 27:0.0 28:0.0 29:0.0 30:0.003766478342749529 31:0.0018832391713747645 32:0.015065913370998116 33:0.0 34:0.0018832391713747645 35:0.0 36:0.009416195856873822 37:0.0018832391713747645 38:0.0 39:0.0 40:0.0 41:0.003766478342749529 42:0.009416195856873822 43:0.0 44:0.0 45:0.0 46:0.0 47:0.0 48:0.007532956685499058 49:0.0 50:0.01694915254237288 51:0.0 52:0.0 53:0.005649717514124294 54:0.0018832391713747645 55:0.0 56:0.0 57:0.0018832391713747645 58:0.0 59:0.0018832391713747645 60:0.0018832391713747645 61:0.0 62:0.007532956685499058 63:0.0018832391713747645 64:0.0 65:0.005649717514124294 66:0.003766478342749529 67:0.0 68:0.003766478342749529 69:0.0 70:0.005649717514124294 71:0.0 72:0.0 73:0.005649717514124294 74:0.0 75:0.005649717514124294 76:0.011299435028248588 77:0.0 78:0.013182674199623353 79:0.035781544256120526 80:0.0018832391713747645 81:0.0018832391713747645 82:0.0018832391713747645 83:0.0 84:0.0 85:0.0 86:0.0 87:0.007532956685499058 88:0.009416195856873822 89:0.0 90:0.0 91:0.015065913370998116 92:0.0018832391713747645 93:0.0 94:0.0 95:0.0 96:0.5310734463276836 97:0.0 98:0.0 99:0.0018832391713747645 100:0.0 101:0.0 102:0.005649717514124294 103:0.0 104:0.0 105:0.011299435028248588 106:0.0018832391713747645 107:0.007532956685499058 108:0.0 109:0.0 110:0.0 111:0.015065913370998116 112:0.003766478342749529 113:0.0 114:0.0018832391713747645 115:0.0 116:0.0 117:0.0 118:0.0 119:0.0 120:0.007532956685499058 121:0.0 122:0.0 123:0.003766478342749529 124:0.0 125:0.0 126:0.005649717514124294 127:0.0 128:0.0 129:0.015065913370998116 130:0.0 131:0.0 132:0.007532956685499058 133:0.0 134:0.0 135:0.0 136:0.0 137:0.0018832391713747645 138:0.0 139:0.007532956685499058 140:0.0 141:0.005649717514124294 142:0.0018832391713747645 143:0.003766478342749529 144:0.0 145:0.0 146:0.0018832391713747645 147:0.0 148:0.011299435028248588 149:0.0 150:0.0 151:0.0 152:0.0 153:0.0 154:0.0 155:0.02071563088512241 156:0.0 157:0.011299435028248588 158:0.0 159:0.0 160:0.0 
1.0 1:0.0038461538461538464 2:0.0 3:0.0038461538461538464 4:0.0 5:0.0 6:0.0 7:0.0038461538461538464 8:0.0 9:0.0 10:0.0038461538461538464 11:0.0 12:0.0 13:0.0 14:0.0 15:0.0 16:0.007692307692307693 17:0.0038461538461538464 18:0.0 19:0.0 20:0.0 21:0.0 22:0.0038461538461538464 23:0.0 24:0.0 25:0.0 26:0.0 27:0.0 28:0.0 29:0.0038461538461538464 30:0.0038461538461538464 31:0.0 32:0.0 33:0.0 34:0.0 35:0.0 36:0.0 37:0.0 38:0.0 39:0.0 40:0.0 41:0.0038461538461538464 42:0.0 43:0.0 44:0.0 45:0.0 46:0.0 47:0.0 48:0.0 49:0.0 50:0.0 51:0.0 52:0.0 53:0.0 54:0.0 55:0.0 56:0.0 57:0.0 58:0.0 59:0.0 60:0.0 61:0.0 62:0.0 63:0.0 64:0.0 65:0.007692307692307693 66:0.0 67:0.0 68:0.0 69:0.0 70:0.0 71:0.0 72:0.0 73:0.0 74:0.0 75:0.0 76:0.0038461538461538464 77:0.0 78:0.0 79:0.0 80:0.0038461538461538464 81:0.007692307692307693 82:0.0038461538461538464 83:0.0 84:0.0 85:0.0 86:0.0 87:0.0038461538461538464 88:0.0 89:0.0 90:0.0 91:0.0 92:0.0 93:0.0 94:0.0 95:0.0 96:0.7615384615384615 97:0.0 98:0.0038461538461538464 99:0.0038461538461538464 100:0.0 101:0.0 102:0.0 103:0.0 104:0.0 105:0.06923076923076923 106:0.0 107:0.0 108:0.0 109:0.0038461538461538464 110:0.0 111:0.0 112:0.0 113:0.0 114:0.0 115:0.0 116:0.0 117:0.0 118:0.0 119:0.0 120:0.0 121:0.011538461538461539 122:0.0 123:0.0038461538461538464 124:0.0 125:0.0 126:0.007692307692307693 127:0.0 128:0.0 129:0.007692307692307693 130:0.0 131:0.0 132:0.007692307692307693 133:0.0038461538461538464 134:0.0 135:0.0 136:0.0 137:0.0 138:0.0 139:0.0038461538461538464 140:0.0 141:0.0 142:0.0 143:0.0 144:0.0 145:0.0038461538461538464 146:0.0 147:0.0 148:0.019230769230769232 149:0.0 150:0.0 151:0.0 152:0.0 153:0.0 154:0.0038461538461538464 155:0.0038461538461538464 156:0.0 157:0.0038461538461538464 158:0.0038461538461538464 159:0.0 160:0.0 
1.0 1:0.004219409282700422 2:0.0 3:0.012658227848101266 4:0.0 5:0.002109704641350211 6:0.0 7:0.006329113924050633 8:0.0 9:0.002109704641350211 10:0.002109704641350211 11:0.004219409282700422 12:0.0 13:0.0 14:0.0 15:0.0 16:0.004219409282700422 17:0.002109704641350211 18:0.0 19:0.006329113924050633 20:0.008438818565400843 21:0.0 22:0.004219409282700422 23:0.002109704641350211 24:0.006329113924050633 25:0.0 26:0.0 27:0.0 28:0.0 29:0.0 30:0.004219409282700422 31:0.002109704641350211 32:0.016877637130801686 33:0.0 34:0.0 35:0.0 36:0.010548523206751054 37:0.0 38:0.0 39:0.0 40:0.0 41:0.0 42:0.004219409282700422 43:0.0 44:0.0 45:0.0 46:0.0 47:0.0 48:0.014767932489451477 49:0.0 50:0.008438818565400843 51:0.002109704641350211 52:0.0 53:0.004219409282700422 54:0.0 55:0.0 56:0.0 57:0.0 58:0.0 59:0.002109704641350211 60:0.008438818565400843 61:0.0 62:0.004219409282700422 63:0.0 64:0.004219409282700422 65:0.004219409282700422 66:0.002109704641350211 67:0.0 68:0.002109704641350211 69:0.0 70:0.002109704641350211 71:0.0 72:0.004219409282700422 73:0.002109704641350211 74:0.0 75:0.004219409282700422 76:0.010548523206751054 77:0.0 78:0.008438818565400843 79:0.029535864978902954 80:0.002109704641350211 81:0.002109704641350211 82:0.004219409282700422 83:0.0 84:0.002109704641350211 85:0.0 86:0.0 87:0.002109704641350211 88:0.006329113924050633 89:0.0 90:0.0 91:0.008438818565400843 92:0.004219409282700422 93:0.0 94:0.0 95:0.0 96:0.6244725738396625 97:0.0 98:0.004219409282700422 99:0.0 100:0.0 101:0.0 102:0.006329113924050633 103:0.0 104:0.0 105:0.02109704641350211 106:0.004219409282700422 107:0.002109704641350211 108:0.002109704641350211 109:0.0 110:0.0 111:0.006329113924050633 112:0.0 113:0.0 114:0.0 115:0.0 116:0.0 117:0.0 118:0.0 119:0.0 120:0.004219409282700422 121:0.002109704641350211 122:0.0 123:0.006329113924050633 124:0.002109704641350211 125:0.0 126:0.006329113924050633 127:0.0 128:0.0 129:0.002109704641350211 130:0.0 131:0.0 132:0.002109704641350211 133:0.0 134:0.0 135:0.0 136:0.004219409282700422 137:0.0 138:0.0 139:0.004219409282700422 140:0.0 141:0.002109704641350211 142:0.0 143:0.004219409282700422 144:0.0 145:0.0 146:0.0 147:0.0 148:0.010548523206751054 149:0.0 150:0.0 151:0.002109704641350211 152:0.0 153:0.0 154:0.0 155:0.010548523206751054 156:0.0 157:0.010548523206751054 158:0.0 159:0.0 160:0.0 
1.0 1:0.0 2:0.0 3:0.009950248756218905 4:0.0 5:0.0 6:0.0 7:0.0 8:0.0 9:0.0 10:0.0 11:0.0 12:0.0 13:0.0 14:0.0 15:0.0 16:0.014925373134328358 17:0.0 18:0.0 19:0.0 20:0.0 21:0.0 22:0.0 23:0.0 24:0.0 25:0.0 26:0.0 27:0.0 28:0.004975124378109453 29:0.0 30:0.014925373134328358 31:0.0 32:0.0 33:0.0 34:0.0 35:0.0 36:0.0 37:0.0 38:0.0 39:0.0 40:0.0 41:0.0 42:0.0 43:0.0 44:0.0 45:0.0 46:0.004975124378109453 47:0.0 48:0.0 49:0.0 50:0.0 51:0.0 52:0.0 53:0.004975124378109453 54:0.0 55:0.0 56:0.0 57:0.0 58:0.0 59:0.0 60:0.0 61:0.0 62:0.0 63:0.0 64:0.0 65:0.0 66:0.004975124378109453 67:0.0 68:0.0 69:0.0 70:0.0 71:0.0 72:0.0 73:0.0 74:0.0 75:0.0 76:0.004975124378109453 77:0.0 78:0.004975124378109453 79:0.0 80:0.0 81:0.0 82:0.0 83:0.0 84:0.0 85:0.0 86:0.0 87:0.0 88:0.0 89:0.0 90:0.0 91:0.0 92:0.0 93:0.0 94:0.0 95:0.0 96:0.7910447761194029 97:0.0 98:0.0 99:0.0 100:0.0 101:0.0 102:0.004975124378109453 103:0.0 104:0.0 105:0.09950248756218906 106:0.0 107:0.0 108:0.0 109:0.0 110:0.0 111:0.0 112:0.0 113:0.0 114:0.0 115:0.0 116:0.0 117:0.0 118:0.0 119:0.0 120:0.0 121:0.0 122:0.0 123:0.0 124:0.0 125:0.0 126:0.009950248756218905 127:0.0 128:0.0 129:0.01990049751243781 130:0.0 131:0.0 132:0.0 133:0.0 134:0.0 135:0.0 136:0.0 137:0.0 138:0.0 139:0.0 140:0.0 141:0.0 142:0.0 143:0.0 144:0.0 145:0.0 146:0.0 147:0.0 148:0.0 149:0.0 150:0.0 151:0.0 152:0.0 153:0.0 154:0.0 155:0.0 156:0.0 157:0.0 158:0.004975124378109453 159:0.0 160:0.0 
0.13267946005016157 1:0.0 2:0.0 3:0.0 4:0.0 5:0.0 6:0.0 7:0.003745318352059925 8:0.0 9:0.0 10:0.0 11:0.003745318352059925 12:0.0 13:0.0 14:0.0 15:0.0 16:0.0 17:0.0 18:0.0 19:0.003745318352059925 20:0.0 21:0.0 22:0.0 23:0.0 24:0.0 25:0.0 26:0.0 27:0.0 28:0.0 29:0.0 30:0.0 31:0.0 32:0.0 33:0.0 34:0.0 35:0.0 36:0.0 37:0.0 38:0.0 39:0.0 40:0.0 41:0.0 42:0.0 43:0.0 44:0.0 45:0.0 46:0.003745318352059925 47:0.00749063670411985 48:0.0 49:0.0 50:0.0 51:0.0 52:0.0 53:0.0 54:0.00749063670411985 55:0.0 56:0.0 57:0.003745318352059925 58:0.0 59:0.0 60:0.00749063670411985 61:0.0 62:0.003745318352059925 63:0.0 64:0.00749063670411985 65:0.0 66:0.0 67:0.0 68:0.003745318352059925 69:0.0 70:0.0 71:0.0 72:0.0 73:0.0 74:0.0 75:0.0 76:0.0 77:0.0 78:0.0 79:0.0 80:0.003745318352059925 81:0.00749063670411985 82:0.003745318352059925 83:0.0 84:0.0 85:0.0 86:0.0 87:0.0 88:0.0 89:0.0 90:0.0 91:0.003745318352059925 92:0.0 93:0.0 94:0.003745318352059925 95:0.0 96:0.7790262172284644 97:0.0 98:0.003745318352059925 99:0.003745318352059925 100:0.0 101:0.0 102:0.003745318352059925 103:0.0 104:0.0 105:0.0 106:0.003745318352059925 107:0.0 108:0.0 109:0.003745318352059925 110:0.0 111:0.0 112:0.003745318352059925 113:0.0 114:0.0 115:0.003745318352059925 116:0.0 117:0.0 118:0.0 119:0.0 120:0.0 121:0.0 122:0.003745318352059925 123:0.0 124:0.0 125:0.0 126:0.0 127:0.0 128:0.0 129:0.0 130:0.0 131:0.0 132:0.0 133:0.003745318352059925 134:0.0 135:0.0 136:0.003745318352059925 137:0.003745318352059925 138:0.0 139:0.003745318352059925 140:0.003745318352059925 141:0.003745318352059925 142:0.00749063670411985 143:0.003745318352059925 144:0.0 145:0.003745318352059925 146:0.00749063670411985 147:0.0 148:0.0449438202247191 149:0.0 150:0.0 151:0.003745318352059925 152:0.0 153:0.0 154:0.0 155:0.00749063670411985 156:0.0 157:0.003745318352059925 158:0.00749063670411985 159:0.0 160:0.0 
1.0 1:0.0 2:0.0 3:0.028037383177570093 4:0.0 5:0.0 6:0.0 7:0.0 8:0.0 9:0.0 10:0.0 11:0.0 12:0.0 13:0.0 14:0.0 15:0.0 16:0.004672897196261682 17:0.004672897196261682 18:0.0 19:0.0 20:0.0 21:0.0 22:0.004672897196261682 23:0.0 24:0.0 25:0.0 26:0.0 27:0.0 28:0.0 29:0.0 30:0.037383177570093455 31:0.0 32:0.0 33:0.0 34:0.0 35:0.0 36:0.0 37:0.0 38:0.0 39:0.0 40:0.0 41:0.0 42:0.0 43:0.0 44:0.0 45:0.0 46:0.0 47:0.0 48:0.004672897196261682 49:0.0 50:0.0 51:0.004672897196261682 52:0.0 53:0.0 54:0.0 55:0.0 56:0.0 57:0.0 58:0.0 59:0.0 60:0.0 61:0.0 62:0.0 63:0.0 64:0.0 65:0.0 66:0.0 67:0.0 68:0.004672897196261682 69:0.0 70:0.0 71:0.0 72:0.0 73:0.0 74:0.0 75:0.0 76:0.004672897196261682 77:0.0 78:0.018691588785046728 79:0.004672897196261682 80:0.004672897196261682 81:0.0 82:0.0 83:0.004672897196261682 84:0.0 85:0.0 86:0.0 87:0.028037383177570093 88:0.004672897196261682 89:0.0 90:0.0 91:0.0 92:0.0 93:0.0 94:0.0 95:0.0 96:0.677570093457944 97:0.0 98:0.0 99:0.0 100:0.0 101:0.0 102:0.018691588785046728 103:0.0 104:0.0 105:0.07009345794392523 106:0.0 107:0.014018691588785047 108:0.0 109:0.0 110:0.0 111:0.0 112:0.009345794392523364 113:0.0 114:0.0 115:0.0 116:0.0 117:0.0 118:0.0 119:0.0 120:0.0 121:0.0 122:0.0 123:0.0 124:0.0 125:0.004672897196261682 126:0.018691588785046728 127:0.0 128:0.0 129:0.004672897196261682 130:0.0 131:0.0 132:0.0 133:0.0 134:0.0 135:0.0 136:0.0 137:0.0 138:0.0 139:0.0 140:0.0 141:0.0 142:0.0 143:0.0 144:0.0 145:0.0 146:0.0 147:0.0 148:0.0 149:0.0 150:0.0 151:0.0 152:0.0 153:0.0 154:0.0 155:0.014018691588785047 156:0.0 157:0.004672897196261682 158:0.0 159:0.0 160:0.0 
