svm_type one_class
kernel_type rbf
gamma 0.5
nr_class 2
total_sv 171
rho 166.36069945186375
SV
1.0 1:0.0 2:0.0 3:0.0 4:0.0 5:0.0 6:0.0 7:0.0 8:0.0 9:0.0 10:0.0 11:0.0 12:0.0 13:0.0 14:0.0 15:0.0 16:0.0 17:0.0 18:0.0 19:0.0 20:0.0 21:0.0 22:0.0 23:0.0 24:0.0 25:0.0 26:0.0 27:0.0 28:0.0 29:0.0 30:0.0 31:0.0 32:0.0 33:0.0 34:0.0 35:0.0 36:0.0 37:0.0 38:0.0 39:0.0 40:0.0 41:0.0 42:0.0 43:0.0 44:0.0 45:0.0 46:0.0 47:0.0 48:0.0 49:0.0 50:0.0 51:0.0 52:0.0 53:0.0 54:0.0 55:0.0 56:0.0 57:0.0 58:0.0 59:0.0 60:0.0 61:0.0 62:0.0 63:0.0 64:0.0 65:0.0 66:0.0 67:0.0 68:0.0 69:0.0 70:0.0 71:0.0 72:0.0 73:0.0 74:0.0 75:0.0 76:0.0 77:1.0 78:0.0 79:0.0 80:0.0 81:0.0 82:0.0 83:0.0 84:0.0 85:0.0 86:0.0 87:0.0 88:0.0 89:0.0 90:0.0 91:0.0 92:0.0 93:0.0 94:0.0 95:0.0 96:0.0 97:0.0 98:0.0 99:0.0 100:0.0 101:0.0 102:0.0 103:0.0 104:0.0 105:0.0 106:0.0 107:0.0 108:0.0 109:0.0 110:0.0 111:0.0 112:0.0 113:0.0 114:0.0 115:0.0 116:0.0 117:0.0 118:0.0 119:0.0 120:0.0 121:0.0 122:0.0 123:0.0 124:0.0 125:0.0 126:0.0 127:0.0 128:0.0 129:0.0 130:0.0 131:0.0 132:0.0 133:0.0 134:0.0 135:0.0 136:0.0 137:0.0 138:0.0 139:0.0 140:0.0 141:0.0 142:0.0 143:0.0 144:0.0 145:0.0 146:0.0 147:0.0 148:0.0 149:0.0 150:0.0 151:0.0 152:0.0 153:0.0 154:0.0 155:0.0 156:0.0 157:0.0 158:0.0 159:0.0 160:0.0 
1.0 1:0.0 2:0.0 3:0.0 4:0.0 5:0.0 6:0.0 7:0.0 8:0.0 9:0.0 10:0.0 11:0.0 12:0.0 13:0.0 14:0.0 15:0.0 16:0.0 17:0.0 18:0.0 19:0.0 20:0.0 21:0.0 22:0.0 23:0.0 24:0.0 25:0.0 26:0.0 27:0.0 28:0.0 29:0.0 30:0.0 31:0.0 32:0.0 33:0.0 34:0.0 35:0.0 36:0.0 37:0.0 38:0.0 39:0.0 40:0.0 41:0.0 42:0.0 43:0.0 44:0.0 45:0.0 46:0.0 47:0.0 48:0.0 49:0.0 50:0.0 51:0.0 52:0.0 53:0.0 54:0.0 55:0.0 56:0.0 57:0.0 58:0.0 59:0.0 60:0.0 61:0.0 62:0.0 63:0.0 64:0.0 65:0.0 66:0.0 67:0.0 68:0.0 69:0.0 70:0.0 71:0.0 72:0.0 73:0.0 74:0.0 75:0.0 76:0.0 77:1.0 78:0.0 79:0.0 80:0.0 81:0.0 82:0.0 83:0.0 84:0.0 85:0.0 86:0.0 87:0.0 88:0.0 89:0.0 90:0.0 91:0.0 92:0.0 93:0.0 94:0.0 95:0.0 96:0.0 97:0.0 98:0.0 99:0.0 100:0.0 101:0.0 102:0.0 103:0.0 104:0.0 105:0.0 106:0.0 107:0.0 108:0.0 109:0.0 110:0.0 111:0.0 112:0.0 113:0.0 114:0.0 115:0.0 116:0.0 117:0.0 118:0.0 119:0.0 120:0.0 121:0.0 122:0.0 123:0.0 124:0.0 125:0.0 126:0.0 127:0.0 128:0.0 129:0.0 130:0.0 131:0.0 132:0.0 133:0.0 134:0.0 135:0.0 136:0.0 137:0.0 138:0.0 139:0.0 140:0.0 141:0.0 142:0.0 143:0.0 144:0.0 145:0.0 146:0.0 147:0.0 148:0.0 149:0.0 150:0.0 151:0.0 152:0.0 153:0.0 154:0.0 155:0.0 156:0.0 157:0.0 158:0.0 159:0.0 160:0.0 
1.0 1:0.0 2:0.0 3:0.0 4:0.0 5:0.0 6:0.0 7:0.0 8:0.0 9:0.0 10:0.0 11:0.0 12:0.0 13:0.0 14:0.0 15:0.0 16:0.0 17:0.0 18:0.0 19:0.0 20:0.0 21:0.0 22:0.0 23:0.0 24:0.0 25:0.0 26:0.0 27:0.0 28:0.0 29:0.0 30:0.0 31:0.0 32:0.0 33:0.0 34:0.0 35:0.0 36:0.0 37:0.0 38:0.0 39:0.0 40:0.0 41:0.0 42:0.0 43:0.0 44:0.0 45:0.0 46:0.0 47:0.0 48:0.0 49:0.0 50:0.0 51:0.0 52:0.0 53:0.0 54:0.0 55:0.0 56:0.0 57:0.0 58:0.0 59:0.0 60:0.0 61:0.0 62:0.0 63:0.0 64:0.0 65:0.0 66:0.0 67:0.0 68:0.0 69:0.0 70:0.0 71:0.0 72:0.0 73:0.0 74:0.0 75:0.0 76:0.0 77:1.0 78:0.0 79:0.0 80:0.0 81:0.0 82:0.0 83:0.0 84:0.0 85:0.0 86:0.0 87:0.0 88:0.0 89:0.0 90:0.0 91:0.0 92:0.0 93:0.0 94:0.0 95:0.0 96:0.0 97:0.0 98:0.0 99:0.0 100:0.0 101:0.0 102:0.0 103:0.0 104:0.0 105:0.0 106:0.0 107:0.0 108:0.0 109:0.0 110:0.0 111:0.0 112:0.0 113:0.0 114:0.0 115:0.0 116:0.0 117:0.0 118:0.0 119:0.0 120:0.0 121:0.0 122:0.0 123:0.0 124:0.0 125:0.0 126:0.0 127:0.0 128:0.0 129:0.0 130:0.0 131:0.0 132:0.0 133:0.0 134:0.0 135:0.0 136:0.0 137:0.0 138:0.0 139:0.0 140:0.0 141:0.0 142:0.0 143:0.0 144:0.0 145:0.0 146:0.0 147:0.0 148:0.0 149:0.0 150:0.0 151:0.0 152:0.0 153:0.0 154:0.0 155:0.0 156:0.0 157:0.0 158:0.0 159:0.0 160:0.0 
1.0 1:0.0 2:0.0 3:0.0 4:0.0 5:0.0 6:0.0 7:0.0 8:0.0 9:0.0 10:0.0 11:0.0 12:0.0 13:0.0 14:0.0 15:0.0 16:0.0 17:0.0 18:0.0 19:0.0 20:0.0 21:0.0 22:0.0 23:0.0 24:0.0 25:0.0 26:0.0 27:0.0 28:0.0 29:0.0 30:0.0 31:0.0 32:0.0 33:0.0 34:0.0 35:0.0 36:0.0 37:0.0 38:0.0 39:0.0 40:0.0 41:0.0 42:0.0 43:0.0 44:0.0 45:0.0 46:0.0 47:0.0 48:0.0 49:0.0 50:0.0 51:0.0 52:0.0 53:0.0 54:0.0 55:0.0 56:0.0 57:0.0 58:0.0 59:0.0 60:0.0 61:0.0 62:0.0 63:0.0 64:0.0 65:0.0 66:0.0 67:0.0 68:0.0 69:0.0 70:0.0 71:0.0 72:0.0 73:0.0 74:0.0 75:0.0 76:0.0 77:1.0 78:0.0 79:0.0 80:0.0 81:0.0 82:0.0 83:0.0 84:0.0 85:0.0 86:0.0 87:0.0 88:0.0 89:0.0 90:0.0 91:0.0 92:0.0 93:0.0 94:0.0 95:0.0 96:0.0 97:0.0 98:0.0 99:0.0 100:0.0 101:0.0 102:0.0 103:0.0 104:0.0 105:0.0 106:0.0 107:0.0 108:0.0 109:0.0 110:0.0 111:0.0 112:0.0 113:0.0 114:0.0 115:0.0 116:0.0 117:0.0 118:0.0 119:0.0 120:0.0 121:0.0 122:0.0 123:0.0 124:0.0 125:0.0 126:0.0 127:0.0 128:0.0 129:0.0 130:0.0 131:0.0 132:0.0 133:0.0 134:0.0 135:0.0 136:0.0 137:0.0 138:0.0 139:0.0 140:0.0 141:0.0 142:0.0 143:0.0 144:0.0 145:0.0 146:0.0 147:0.0 148:0.0 149:0.0 150:0.0 151:0.0 152:0.0 153:0.0 154:0.0 155:0.0 156:0.0 157:0.0 158:0.0 159:0.0 160:0.0 
1.0 1:0.0 2:0.0 3:0.0 4:0.0 5:0.0 6:0.0 7:0.0 8:0.0 9:0.0 10:0.0 11:0.0 12:0.0 13:0.0 14:0.0 15:0.0 16:0.0 17:0.0 18:0.0 19:0.0 20:0.0 21:0.0 22:0.0 23:0.0 24:0.0 25:0.0 26:0.0 27:0.0 28:0.0 29:0.0 30:0.0 31:0.0 32:0.0 33:0.0 34:0.0 35:0.0 36:0.0 37:0.0 38:0.0 39:0.0 40:0.0 41:0.0 42:0.0 43:0.0 44:0.0 45:0.0 46:0.0 47:0.0 48:0.0 49:0.0 50:0.0 51:0.0 52:0.0 53:0.0 54:0.0 55:0.0 56:0.0 57:0.0 58:0.0 59:0.0 60:0.0 61:0.0 62:0.0 63:0.0 64:0.0 65:0.0 66:0.0 67:0.0 68:0.0 69:0.0 70:0.0 71:0.0 72:0.0 73:0.0 74:0.0 75:0.0 76:0.0 77:1.0 78:0.0 79:0.0 80:0.0 81:0.0 82:0.0 83:0.0 84:0.0 85:0.0 86:0.0 87:0.0 88:0.0 89:0.0 90:0.0 91:0.0 92:0.0 93:0.0 94:0.0 95:0.0 96:0.0 97:0.0 98:0.0 99:0.0 100:0.0 101:0.0 102:0.0 103:0.0 104:0.0 105:0.0 106:0.0 107:0.0 108:0.0 109:0.0 110:0.0 111:0.0 112:0.0 113:0.0 114:0.0 115:0.0 116:0.0 117:0.0 118:0.0 119:0.0 120:0.0 121:0.0 122:0.0 123:0.0 124:0.0 125:0.0 126:0.0 127:0.0 128:0.0 129:0.0 130:0.0 131:0.0 132:0.0 133:0.0 134:0.0 135:0.0 136:0.0 137:0.0 138:0.0 139:0.0 140:0.0 141:0.0 142:0.0 143:0.0 144:0.0 145:0.0 146:0.0 147:0.0 148:0.0 149:0.0 150:0.0 151:0.0 152:0.0 153:0.0 154:0.0 155:0.0 156:0.0 157:0.0 158:0.0 159:0.0 160:0.0 
1.0 1:0.0 2:0.0 3:0.0 4:0.0 5:0.0 6:0.0 7:0.0 8:0.0 9:0.0 10:0.0 11:0.0 12:0.0 13:0.0 14:0.0 15:0.0 16:0.0 17:0.0 18:0.0 19:0.0 20:0.0 21:0.0 22:0.0 23:0.0 24:0.0 25:0.0 26:0.0 27:0.0 28:0.0 29:0.0 30:0.0 31:0.0 32:0.0 33:0.0 34:0.0 35:0.0 36:0.0 37:0.0 38:0.0 39:0.0 40:0.0 41:0.0 42:0.0 43:0.0 44:0.0 45:0.0 46:0.0 47:0.0 48:0.0 49:0.0 50:0.0 51:0.0 52:0.0 53:0.0 54:0.0 55:0.0 56:0.0 57:0.0 58:0.0 59:0.0 60:0.0 61:0.0 62:0.0 63:0.0 64:0.0 65:0.0 66:0.0 67:0.0 68:0.0 69:0.0 70:0.0 71:0.0 72:0.0 73:0.0 74:0.0 75:0.0 76:0.0 77:1.0 78:0.0 79:0.0 80:0.0 81:0.0 82:0.0 83:0.0 84:0.0 85:0.0 86:0.0 87:0.0 88:0.0 89:0.0 90:0.0 91:0.0 92:0.0 93:0.0 94:0.0 95:0.0 96:0.0 97:0.0 98:0.0 99:0.0 100:0.0 101:0.0 102:0.0 103:0.0 104:0.0 105:0.0 106:0.0 107:0.0 108:0.0 109:0.0 110:0.0 111:0.0 112:0.0 113:0.0 114:0.0 115:0.0 116:0.0 117:0.0 118:0.0 119:0.0 120:0.0 121:0.0 122:0.0 123:0.0 124:0.0 125:0.0 126:0.0 127:0.0 128:0.0 129:0.0 130:0.0 131:0.0 132:0.0 133:0.0 134:0.0 135:0.0 136:0.0 137:0.0 138:0.0 139:0.0 140:0.0 141:0.0 142:0.0 143:0.0 144:0.0 145:0.0 146:0.0 147:0.0 148:0.0 149:0.0 150:0.0 151:0.0 152:0.0 153:0.0 154:0.0 155:0.0 156:0.0 157:0.0 158:0.0 159:0.0 160:0.0 
1.0 1:0.0 2:0.0 3:0.0 4:0.0 5:0.0 6:0.0 7:0.0 8:0.0 9:0.0 10:0.0 11:0.0 12:0.0 13:0.0 14:0.0 15:0.0 16:0.0 17:0.0 18:0.0 19:0.0 20:0.0 21:0.0 22:0.0 23:0.0 24:0.0 25:0.0 26:0.0 27:0.0 28:0.0 29:0.0 30:0.0 31:0.0 32:0.0 33:0.0 34:0.0 35:0.0 36:0.0 37:0.0 38:0.0 39:0.0 40:0.0 41:0.0 42:0.0 43:0.0 44:0.0 45:0.0 46:0.0 47:0.0 48:0.0 49:0.0 50:0.0 51:0.0 52:0.0 53:0.0 54:0.0 55:0.0 56:0.0 57:0.0 58:0.0 59:0.0 60:0.0 61:0.0 62:0.0 63:0.0 64:0.0 65:0.0 66:0.0 67:0.0 68:0.0 69:0.0 70:0.0 71:0.0 72:0.0 73:0.0 74:0.0 75:0.0 76:0.0 77:1.0 78:0.0 79:0.0 80:0.0 81:0.0 82:0.0 83:0.0 84:0.0 85:0.0 86:0.0 87:0.0 88:0.0 89:0.0 90:0.0 91:0.0 92:0.0 93:0.0 94:0.0 95:0.0 96:0.0 97:0.0 98:0.0 99:0.0 100:0.0 101:0.0 102:0.0 103:0.0 104:0.0 105:0.0 106:0.0 107:0.0 108:0.0 109:0.0 110:0.0 111:0.0 112:0.0 113:0.0 114:0.0 115:0.0 116:0.0 117:0.0 118:0.0 119:0.0 120:0.0 121:0.0 122:0.0 123:0.0 124:0.0 125:0.0 126:0.0 127:0.0 128:0.0 129:0.0 130:0.0 131:0.0 132:0.0 133:0.0 134:0.0 135:0.0 136:0.0 137:0.0 138:0.0 139:0.0 140:0.0 141:0.0 142:0.0 143:0.0 144:0.0 145:0.0 146:0.0 147:0.0 148:0.0 149:0.0 150:0.0 151:0.0 152:0.0 153:0.0 154:0.0 155:0.0 156:0.0 157:0.0 158:0.0 159:0.0 160:0.0 
1.0 1:0.0 2:0.0 3:0.0 4:0.0 5:0.0 6:0.0 7:0.0 8:0.0 9:0.0 10:0.0 11:0.0 12:0.0 13:0.0 14:0.0 15:0.0 16:0.0 17:0.0 18:0.0 19:0.0 20:0.0 21:0.0 22:0.0 23:0.0 24:0.0 25:0.0 26:0.0 27:0.0 28:0.0 29:0.0 30:0.0 31:0.0 32:0.0 33:0.0 34:0.0 35:0.0 36:0.0 37:0.0 38:0.0 39:0.0 40:0.0 41:0.0 42:0.0 43:0.0 44:0.0 45:0.0 46:0.0 47:0.0 48:0.0 49:0.0 50:0.0 51:0.0 52:0.0 53:0.0 54:0.0 55:0.0 56:0.0 57:0.0 58:0.0 59:0.0 60:0.0 61:0.0 62:0.0 63:0.0 64:0.0 65:0.0 66:0.0 67:0.0 68:0.0 69:0.0 70:0.0 71:0.0 72:0.0 73:0.0 74:0.0 75:0.0 76:0.0 77:1.0 78:0.0 79:0.0 80:0.0 81:0.0 82:0.0 83:0.0 84:0.0 85:0.0 86:0.0 87:0.0 88:0.0 89:0.0 90:0.0 91:0.0 92:0.0 93:0.0 94:0.0 95:0.0 96:0.0 97:0.0 98:0.0 99:0.0 100:0.0 101:0.0 102:0.0 103:0.0 104:0.0 105:0.0 106:0.0 107:0.0 108:0.0 109:0.0 110:0.0 111:0.0 112:0.0 113:0.0 114:0.0 115:0.0 116:0.0 117:0.0 118:0.0 119:0.0 120:0.0 121:0.0 122:0.0 123:0.0 124:0.0 125:0.0 126:0.0 127:0.0 128:0.0 129:0.0 130:0.0 131:0.0 132:0.0 133:0.0 134:0.0 135:0.0 136:0.0 137:0.0 138:0.0 139:0.0 140:0.0 141:0.0 142:0.0 143:0.0 144:0.0 145:0.0 146:0.0 147:0.0 148:0.0 149:0.0 150:0.0 151:0.0 152:0.0 153:0.0 154:0.0 155:0.0 156:0.0 157:0.0 158:0.0 159:0.0 160:0.0 
1.0 1:0.0 2:0.0 3:0.0 4:0.0 5:0.0 6:0.0 7:0.0 8:0.0 9:0.0 10:0.0 11:0.0 12:0.0 13:0.0 14:0.0 15:0.0 16:0.0 17:0.0 18:0.0 19:0.0 20:0.0 21:0.0 22:0.0 23:0.0 24:0.0 25:0.0 26:0.0 27:0.0 28:0.0 29:0.0 30:0.0 31:0.0 32:0.0 33:0.0 34:0.0 35:0.0 36:0.0 37:0.0 38:0.0 39:0.0 40:0.0 41:0.0 42:0.0 43:0.0 44:0.0 45:0.0 46:0.0 47:0.0 48:0.0 49:0.0 50:0.0 51:0.0 52:0.0 53:0.0 54:0.0 55:0.0 56:0.0 57:0.0 58:0.0 59:0.0 60:0.0 61:0.0 62:0.0 63:0.0 64:0.0 65:0.0 66:0.0 67:0.0 68:0.0 69:0.0 70:0.0 71:0.0 72:0.0 73:0.0 74:0.0 75:0.0 76:0.0 77:1.0 78:0.0 79:0.0 80:0.0 81:0.0 82:0.0 83:0.0 84:0.0 85:0.0 86:0.0 87:0.0 88:0.0 89:0.0 90:0.0 91:0.0 92:0.0 93:0.0 94:0.0 95:0.0 96:0.0 97:0.0 98:0.0 99:0.0 100:0.0 101:0.0 102:0.0 103:0.0 104:0.0 105:0.0 106:0.0 107:0.0 108:0.0 109:0.0 110:0.0 111:0.0 112:0.0 113:0.0 114:0.0 115:0.0 116:0.0 117:0.0 118:0.0 119:0.0 120:0.0 121:0.0 122:0.0 123:0.0 124:0.0 125:0.0 126:0.0 127:0.0 128:0.0 129:0.0 130:0.0 131:0.0 132:0.0 133:0.0 134:0.0 135:0.0 136:0.0 137:0.0 138:0.0 139:0.0 140:0.0 141:0.0 142:0.0 143:0.0 144:0.0 145:0.0 146:0.0 147:0.0 148:0.0 149:0.0 150:0.0 151:0.0 152:0.0 153:0.0 154:0.0 155:0.0 156:0.0 157:0.0 158:0.0 159:0.0 160:0.0 
1.0 1:0.0 2:0.0 3:0.0 4:0.0 5:0.0 6:0.0 7:0.0 8:0.0 9:0.0 10:0.0 11:0.0 12:0.0 13:0.0 14:0.0 15:0.0 16:0.0 17:0.0 18:0.0 19:0.0 20:0.0 21:0.0 22:0.0 23:0.0 24:0.0 25:0.0 26:0.0 27:0.0 28:0.0 29:0.0 30:0.0 31:0.0 32:0.0 33:0.0 34:0.0 35:0.0 36:0.0 37:0.0 38:0.0 39:0.0 40:0.0 41:0.0 42:0.0 43:0.0 44:0.0 45:0.0 46:0.0 47:0.0 48:0.0 49:0.0 50:0.0 51:0.0 52:0.0 53:0.0 54:0.0 55:0.0 56:0.0 57:0.0 58:0.0 59:0.0 60:0.0 61:0.0 62:0.0 63:0.0 64:0.0 65:0.0 66:0.0 67:0.0 68:0.0 69:0.0 70:0.0 71:0.0 72:0.0 73:0.0 74:0.0 75:0.0 76:0.0 77:1.0 78:0.0 79:0.0 80:0.0 81:0.0 82:0.0 83:0.0 84:0.0 85:0.0 86:0.0 87:0.0 88:0.0 89:0.0 90:0.0 91:0.0 92:0.0 93:0.0 94:0.0 95:0.0 96:0.0 97:0.0 98:0.0 99:0.0 100:0.0 101:0.0 102:0.0 103:0.0 104:0.0 105:0.0 106:0.0 107:0.0 108:0.0 109:0.0 110:0.0 111:0.0 112:0.0 113:0.0 114:0.0 115:0.0 116:0.0 117:0.0 118:0.0 119:0.0 120:0.0 121:0.0 122:0.0 123:0.0 124:0.0 125:0.0 126:0.0 127:0.0 128:0.0 129:0.0 130:0.0 131:0.0 132:0.0 133:0.0 134:0.0 135:0.0 136:0.0 137:0.0 138:0.0 139:0.0 140:0.0 141:0.0 142:0.0 143:0.0 144:0.0 145:0.0 146:0.0 147:0.0 148:0.0 149:0.0 150:0.0 151:0.0 152:0.0 153:0.0 154:0.0 155:0.0 156:0.0 157:0.0 158:0.0 159:0.0 160:0.0 
1.0 1:0.0 2:0.0 3:0.0 4:0.0 5:0.0 6:0.0 7:0.0 8:0.0 9:0.0 10:0.0 11:0.0 12:0.0 13:0.0 14:0.0 15:0.0 16:0.0 17:0.0 18:0.0 19:0.0 20:0.0 21:0.0 22:0.0 23:0.0 24:0.0 25:0.0 26:0.0 27:0.0 28:0.0 29:0.0 30:0.0 31:0.0 32:0.0 33:0.0 34:0.0 35:0.0 36:0.0 37:0.0 38:0.0 39:0.0 40:0.0 41:0.0 42:0.0 43:0.0 44:0.0 45:0.0 46:0.0 47:0.0 48:0.0 49:0.0 50:0.0 51:0.0 52:0.0 53:0.0 54:0.0 55:0.0 56:0.0 57:0.0 58:0.0 59:0.0 60:0.0 61:0.0 62:0.0 63:0.0 64:0.0 65:0.0 66:0.0 67:0.0 68:0.0 69:0.0 70:0.0 71:0.0 72:0.0 73:0.0 74:0.0 75:0.0 76:0.0 77:1.0 78:0.0 79:0.0 80:0.0 81:0.0 82:0.0 83:0.0 84:0.0 85:0.0 86:0.0 87:0.0 88:0.0 89:0.0 90:0.0 91:0.0 92:0.0 93:0.0 94:0.0 95:0.0 96:0.0 97:0.0 98:0.0 99:0.0 100:0.0 101:0.0 102:0.0 103:0.0 104:0.0 105:0.0 106:0.0 107:0.0 108:0.0 109:0.0 110:0.0 111:0.0 112:0.0 113:0.0 114:0.0 115:0.0 116:0.0 117:0.0 118:0.0 119:0.0 120:0.0 121:0.0 122:0.0 123:0.0 124:0.0 125:0.0 126:0.0 127:0.0 128:0.0 129:0.0 130:0.0 131:0.0 132:0.0 133:0.0 134:0.0 135:0.0 136:0.0 137:0.0 138:0.0 139:0.0 140:0.0 141:0.0 142:0.0 143:0.0 144:0.0 145:0.0 146:0.0 147:0.0 148:0.0 149:0.0 150:0.0 151:0.0 152:0.0 153:0.0 154:0.0 155:0.0 156:0.0 157:0.0 158:0.0 159:0.0 160:0.0 
1.0 1:0.0 2:0.0 3:0.0 4:0.0 5:0.0 6:0.0 7:0.0 8:0.0 9:0.0 10:0.0 11:0.0 12:0.0 13:0.0 14:0.0 15:0.0 16:0.0 17:0.0 18:0.0 19:0.0 20:0.0 21:0.0 22:0.0 23:0.0 24:0.0 25:0.0 26:0.0 27:0.0 28:0.0 29:0.0 30:0.0 31:0.0 32:0.0 33:0.0 34:0.0 35:0.0 36:0.0 37:0.0 38:0.0 39:0.0 40:0.0 41:0.0 42:0.0 43:0.0 44:0.0 45:0.0 46:0.0 47:0.0 48:0.0 49:0.0 50:0.0 51:0.0 52:0.0 53:0.0 54:0.0 55:0.0 56:0.0 57:0.0 58:0.0 59:0.0 60:0.0 61:0.0 62:0.0 63:0.0 64:0.0 65:0.0 66:0.0 67:0.0 68:0.0 69:0.0 70:0.0 71:0.0 72:0.0 73:0.0 74:0.0 75:0.0 76:0.0 77:1.0 78:0.0 79:0.0 80:0.0 81:0.0 82:0.0 83:0.0 84:0.0 85:0.0 86:0.0 87:0.0 88:0.0 89:0.0 90:0.0 91:0.0 92:0.0 93:0.0 94:0.0 95:0.0 96:0.0 97:0.0 98:0.0 99:0.0 100:0.0 101:0.0 102:0.0 103:0.0 104:0.0 105:0.0 106:0.0 107:0.0 108:0.0 109:0.0 110:0.0 111:0.0 112:0.0 113:0.0 114:0.0 115:0.0 116:0.0 117:0.0 118:0.0 119:0.0 120:0.0 121:0.0 122:0.0 123:0.0 124:0.0 125:0.0 126:0.0 127:0.0 128:0.0 129:0.0 130:0.0 131:0.0 132:0.0 133:0.0 134:0.0 135:0.0 136:0.0 137:0.0 138:0.0 139:0.0 140:0.0 141:0.0 142:0.0 143:0.0 144:0.0 145:0.0 146:0.0 147:0.0 148:0.0 149:0.0 150:0.0 151:0.0 152:0.0 153:0.0 154:0.0 155:0.0 156:0.0 157:0.0 158:0.0 159:0.0 160:0.0 
1.0 1:0.0 2:0.0 3:0.0 4:0.0 5:0.0 6:0.0 7:0.0 8:0.0 9:0.0 10:0.0 11:0.0 12:0.0 13:0.0 14:0.0 15:0.0 16:0.0 17:0.0 18:0.0 19:0.0 20:0.0 21:0.0 22:0.0 23:0.0 24:0.0 25:0.0 26:0.0 27:0.0 28:0.0 29:0.0 30:0.0 31:0.0 32:0.0 33:0.0 34:0.0 35:0.0 36:0.0 37:0.0 38:0.0 39:0.0 40:0.0 41:0.0 42:0.0 43:0.0 44:0.0 45:0.0 46:0.0 47:0.0 48:0.0 49:0.0 50:0.0 51:0.0 52:0.0 53:0.0 54:0.0 55:0.0 56:0.0 57:0.0 58:0.0 59:0.0 60:0.0 61:0.0 62:0.0 63:0.0 64:0.0 65:0.0 66:0.0 67:0.0 68:0.0 69:0.0 70:0.0 71:0.0 72:0.0 73:0.0 74:0.0 75:0.0 76:0.0 77:1.0 78:0.0 79:0.0 80:0.0 81:0.0 82:0.0 83:0.0 84:0.0 85:0.0 86:0.0 87:0.0 88:0.0 89:0.0 90:0.0 91:0.0 92:0.0 93:0.0 94:0.0 95:0.0 96:0.0 97:0.0 98:0.0 99:0.0 100:0.0 101:0.0 102:0.0 103:0.0 104:0.0 105:0.0 106:0.0 107:0.0 108:0.0 109:0.0 110:0.0 111:0.0 112:0.0 113:0.0 114:0.0 115:0.0 116:0.0 117:0.0 118:0.0 119:0.0 120:0.0 121:0.0 122:0.0 123:0.0 124:0.0 125:0.0 126:0.0 127:0.0 128:0.0 129:0.0 130:0.0 131:0.0 132:0.0 133:0.0 134:0.0 135:0.0 136:0.0 137:0.0 138:0.0 139:0.0 140:0.0 141:0.0 142:0.0 143:0.0 144:0.0 145:0.0 146:0.0 147:0.0 148:0.0 149:0.0 150:0.0 151:0.0 152:0.0 153:0.0 154:0.0 155:0.0 156:0.0 157:0.0 158:0.0 159:0.0 160:0.0 
1.0 1:0.0 2:0.0 3:0.0 4:0.0 5:0.0 6:0.0 7:0.0 8:0.0 9:0.0 10:0.0 11:0.0 12:0.0 13:0.0 14:0.0 15:0.0 16:0.0 17:0.0 18:0.0 19:0.0 20:0.0 21:0.0 22:0.0 23:0.0 24:0.0 25:0.0 26:0.0 27:0.0 28:0.0 29:0.0 30:0.0 31:0.0 32:0.0 33:0.0 34:0.0 35:0.0 36:0.0 37:0.0 38:0.0 39:0.0 40:0.0 41:0.0 42:0.0 43:0.0 44:0.0 45:0.0 46:0.0 47:0.0 48:0.0 49:0.0 50:0.0 51:0.0 52:0.0 53:0.0 54:0.0 55:0.0 56:0.0 57:0.0 58:0.0 59:0.0 60:0.0 61:0.0 62:0.0 63:0.0 64:0.0 65:0.0 66:0.0 67:0.0 68:0.0 69:0.0 70:0.0 71:0.0 72:0.0 73:0.0 74:0.0 75:0.0 76:0.0 77:1.0 78:0.0 79:0.0 80:0.0 81:0.0 82:0.0 83:0.0 84:0.0 85:0.0 86:0.0 87:0.0 88:0.0 89:0.0 90:0.0 91:0.0 92:0.0 93:0.0 94:0.0 95:0.0 96:0.0 97:0.0 98:0.0 99:0.0 100:0.0 101:0.0 102:0.0 103:0.0 104:0.0 105:0.0 106:0.0 107:0.0 108:0.0 109:0.0 110:0.0 111:0.0 112:0.0 113:0.0 114:0.0 115:0.0 116:0.0 117:0.0 118:0.0 119:0.0 120:0.0 121:0.0 122:0.0 123:0.0 124:0.0 125:0.0 126:0.0 127:0.0 128:0.0 129:0.0 130:0.0 131:0.0 132:0.0 133:0.0 134:0.0 135:0.0 136:0.0 137:0.0 138:0.0 139:0.0 140:0.0 141:0.0 142:0.0 143:0.0 144:0.0 145:0.0 146:0.0 147:0.0 148:0.0 149:0.0 150:0.0 151:0.0 152:0.0 153:0.0 154:0.0 155:0.0 156:0.0 157:0.0 158:0.0 159:0.0 160:0.0 
1.0 1:0.0 2:0.0 3:0.0 4:0.0 5:0.0 6:0.0 7:0.0 8:0.0 9:0.0 10:0.0 11:0.0 12:0.0 13:0.0 14:0.0 15:0.0 16:0.0 17:0.0 18:0.0 19:0.0 20:0.0 21:0.0 22:0.0 23:0.0 24:0.0 25:0.0 26:0.0 27:0.0 28:0.0 29:0.0 30:0.0 31:0.0 32:0.0 33:0.0 34:0.0 35:0.0 36:0.0 37:0.0 38:0.0 39:0.0 40:0.0 41:0.0 42:0.0 43:0.0 44:0.0 45:0.0 46:0.0 47:0.0 48:0.0 49:0.0 50:0.0 51:0.0 52:0.0 53:0.0 54:0.0 55:0.0 56:0.0 57:0.0 58:0.0 59:0.0 60:0.0 61:0.0 62:0.0 63:0.0 64:0.0 65:0.0 66:0.0 67:0.0 68:0.0 69:0.0 70:0.0 71:0.0 72:0.0 73:0.0 74:0.0 75:0.0 76:0.0 77:1.0 78:0.0 79:0.0 80:0.0 81:0.0 82:0.0 83:0.0 84:0.0 85:0.0 86:0.0 87:0.0 88:0.0 89:0.0 90:0.0 91:0.0 92:0.0 93:0.0 94:0.0 95:0.0 96:0.0 97:0.0 98:0.0 99:0.0 100:0.0 101:0.0 102:0.0 103:0.0 104:0.0 105:0.0 106:0.0 107:0.0 108:0.0 109:0.0 110:0.0 111:0.0 112:0.0 113:0.0 114:0.0 115:0.0 116:0.0 117:0.0 118:0.0 119:0.0 120:0.0 121:0.0 122:0.0 123:0.0 124:0.0 125:0.0 126:0.0 127:0.0 128:0.0 129:0.0 130:0.0 131:0.0 132:0.0 133:0.0 134:0.0 135:0.0 136:0.0 137:0.0 138:0.0 139:0.0 140:0.0 141:0.0 142:0.0 143:0.0 144:0.0 145:0.0 146:0.0 147:0.0 148:0.0 149:0.0 150:0.0 151:0.0 152:0.0 153:0.0 154:0.0 155:0.0 156:0.0 157:0.0 158:0.0 159:0.0 160:0.0 
1.0 1:0.0 2:0.0 3:0.0 4:0.0 5:0.0 6:0.0 7:0.0 8:0.0 9:0.0 10:0.0 11:0.0 12:0.0 13:0.0 14:0.0 15:0.0 16:0.0 17:0.0 18:0.0 19:0.0 20:0.0 21:0.0 22:0.0 23:0.0 24:0.0 25:0.0 26:0.0 27:0.0 28:0.0 29:0.0 30:0.0 31:0.0 32:0.0 33:0.0 34:0.0 35:0.0 36:0.0 37:0.0 38:0.0 39:0.0 40:0.0 41:0.0 42:0.0 43:0.0 44:0.0 45:0.0 46:0.0 47:0.0 48:0.0 49:0.0 50:0.0 51:0.0 52:0.0 53:0.0 54:0.0 55:0.0 56:0.0 57:0.0 58:0.0 59:0.0 60:0.0 61:0.0 62:0.0 63:0.0 64:0.0 65:0.0 66:0.0 67:0.0 68:0.0 69:0.0 70:0.0 71:0.0 72:0.0 73:0.0 74:0.0 75:0.0 76:0.0 77:1.0 78:0.0 79:0.0 80:0.0 81:0.0 82:0.0 83:0.0 84:0.0 85:0.0 86:0.0 87:0.0 88:0.0 89:0.0 90:0.0 91:0.0 92:0.0 93:0.0 94:0.0 95:0.0 96:0.0 97:0.0 98:0.0 99:0.0 100:0.0 101:0.0 102:0.0 103:0.0 104:0.0 105:0.0 106:0.0 107:0.0 108:0.0 109:0.0 110:0.0 111:0.0 112:0.0 113:0.0 114:0.0 115:0.0 116:0.0 117:0.0 118:0.0 119:0.0 120:0.0 121:0.0 122:0.0 123:0.0 124:0.0 125:0.0 126:0.0 127:0.0 128:0.0 129:0.0 130:0.0 131:0.0 132:0.0 133:0.0 134:0.0 135:0.0 136:0.0 137:0.0 138:0.0 139:0.0 140:0.0 141:0.0 142:0.0 143:0.0 144:0.0 145:0.0 146:0.0 147:0.0 148:0.0 149:0.0 150:0.0 151:0.0 152:0.0 153:0.0 154:0.0 155:0.0 156:0.0 157:0.0 158:0.0 159:0.0 160:0.0 
1.0 1:0.0 2:0.0 3:0.0 4:0.0 5:0.0 6:0.0 7:0.0 8:0.0 9:0.0 10:0.0 11:0.0 12:0.0 13:0.0 14:0.0 15:0.0 16:0.0 17:0.0 18:0.0 19:0.0 20:0.0 21:0.0 22:0.0 23:0.0 24:0.0 25:0.0 26:0.0 27:0.0 28:0.0 29:0.0 30:0.0 31:0.0 32:0.0 33:0.0 34:0.0 35:0.0 36:0.0 37:0.0 38:0.0 39:0.0 40:0.0 41:0.0 42:0.0 43:0.0 44:0.0 45:0.0 46:0.0 47:0.0 48:0.0 49:0.0 50:0.0 51:0.0 52:0.0 53:0.0 54:0.0 55:0.0 56:0.0 57:0.0 58:0.0 59:0.0 60:0.0 61:0.0 62:0.0 63:0.0 64:0.0 65:0.0 66:0.0 67:0.0 68:0.0 69:0.0 70:0.0 71:0.0 72:0.0 73:0.0 74:0.0 75:0.0 76:0.0 77:1.0 78:0.0 79:0.0 80:0.0 81:0.0 82:0.0 83:0.0 84:0.0 85:0.0 86:0.0 87:0.0 88:0.0 89:0.0 90:0.0 91:0.0 92:0.0 93:0.0 94:0.0 95:0.0 96:0.0 97:0.0 98:0.0 99:0.0 100:0.0 101:0.0 102:0.0 103:0.0 104:0.0 105:0.0 106:0.0 107:0.0 108:0.0 109:0.0 110:0.0 111:0.0 112:0.0 113:0.0 114:0.0 115:0.0 116:0.0 117:0.0 118:0.0 119:0.0 120:0.0 121:0.0 122:0.0 123:0.0 124:0.0 125:0.0 126:0.0 127:0.0 128:0.0 129:0.0 130:0.0 131:0.0 132:0.0 133:0.0 134:0.0 135:0.0 136:0.0 137:0.0 138:0.0 139:0.0 140:0.0 141:0.0 142:0.0 143:0.0 144:0.0 145:0.0 146:0.0 147:0.0 148:0.0 149:0.0 150:0.0 151:0.0 152:0.0 153:0.0 154:0.0 155:0.0 156:0.0 157:0.0 158:0.0 159:0.0 160:0.0 
1.0 1:0.0 2:0.0 3:0.0 4:0.0 5:0.0 6:0.0 7:0.0 8:0.0 9:0.0 10:0.0 11:0.0 12:0.0 13:0.0 14:0.0 15:0.0 16:0.0 17:0.0 18:0.0 19:0.0 20:0.0 21:0.0 22:0.0 23:0.0 24:0.0 25:0.0 26:0.0 27:0.0 28:0.0 29:0.0 30:0.0 31:0.0 32:0.0 33:0.0 34:0.0 35:0.0 36:0.0 37:0.0 38:0.0 39:0.0 40:0.0 41:0.0 42:0.0 43:0.0 44:0.0 45:0.0 46:0.0 47:0.0 48:0.0 49:0.0 50:0.0 51:0.0 52:0.0 53:0.0 54:0.0 55:0.0 56:0.0 57:0.0 58:0.0 59:0.0 60:0.0 61:0.0 62:0.0 63:0.0 64:0.0 65:0.0 66:0.0 67:0.0 68:0.0 69:0.0 70:0.0 71:0.0 72:0.0 73:0.0 74:0.0 75:0.0 76:0.0 77:1.0 78:0.0 79:0.0 80:0.0 81:0.0 82:0.0 83:0.0 84:0.0 85:0.0 86:0.0 87:0.0 88:0.0 89:0.0 90:0.0 91:0.0 92:0.0 93:0.0 94:0.0 95:0.0 96:0.0 97:0.0 98:0.0 99:0.0 100:0.0 101:0.0 102:0.0 103:0.0 104:0.0 105:0.0 106:0.0 107:0.0 108:0.0 109:0.0 110:0.0 111:0.0 112:0.0 113:0.0 114:0.0 115:0.0 116:0.0 117:0.0 118:0.0 119:0.0 120:0.0 121:0.0 122:0.0 123:0.0 124:0.0 125:0.0 126:0.0 127:0.0 128:0.0 129:0.0 130:0.0 131:0.0 132:0.0 133:0.0 134:0.0 135:0.0 136:0.0 137:0.0 138:0.0 139:0.0 140:0.0 141:0.0 142:0.0 143:0.0 144:0.0 145:0.0 146:0.0 147:0.0 148:0.0 149:0.0 150:0.0 151:0.0 152:0.0 153:0.0 154:0.0 155:0.0 156:0.0 157:0.0 158:0.0 159:0.0 160:0.0 
1.0 1:0.0 2:0.0 3:0.0 4:0.0 5:0.0 6:0.0 7:0.0 8:0.0 9:0.0 10:0.0 11:0.0 12:0.0 13:0.0 14:0.0 15:0.0 16:0.0 17:0.0 18:0.0 19:0.0 20:0.0 21:0.0 22:0.0 23:0.0 24:0.0 25:0.0 26:0.0 27:0.0 28:0.0 29:0.0 30:0.0 31:0.0 32:0.0 33:0.0 34:0.0 35:0.0 36:0.0 37:0.0 38:0.0 39:0.0 40:0.0 41:0.0 42:0.0 43:0.0 44:0.0 45:0.0 46:0.0 47:0.0 48:0.0 49:0.0 50:0.0 51:0.0 52:0.0 53:0.0 54:0.0 55:0.0 56:0.0 57:0.0 58:0.0 59:0.0 60:0.0 61:0.0 62:0.0 63:0.0 64:0.0 65:0.0 66:0.0 67:0.0 68:0.0 69:0.0 70:0.0 71:0.0 72:0.0 73:0.0 74:0.0 75:0.0 76:0.0 77:1.0 78:0.0 79:0.0 80:0.0 81:0.0 82:0.0 83:0.0 84:0.0 85:0.0 86:0.0 87:0.0 88:0.0 89:0.0 90:0.0 91:0.0 92:0.0 93:0.0 94:0.0 95:0.0 96:0.0 97:0.0 98:0.0 99:0.0 100:0.0 101:0.0 102:0.0 103:0.0 104:0.0 105:0.0 106:0.0 107:0.0 108:0.0 109:0.0 110:0.0 111:0.0 112:0.0 113:0.0 114:0.0 115:0.0 116:0.0 117:0.0 118:0.0 119:0.0 120:0.0 121:0.0 122:0.0 123:0.0 124:0.0 125:0.0 126:0.0 127:0.0 128:0.0 129:0.0 130:0.0 131:0.0 132:0.0 133:0.0 134:0.0 135:0.0 136:0.0 137:0.0 138:0.0 139:0.0 140:0.0 141:0.0 142:0.0 143:0.0 144:0.0 145:0.0 146:0.0 147:0.0 148:0.0 149:0.0 150:0.0 151:0.0 152:0.0 153:0.0 154:0.0 155:0.0 156:0.0 157:0.0 158:0.0 159:0.0 160:0.0 
1.0 1:0.0 2:0.0 3:0.0 4:0.0 5:0.0 6:0.0 7:0.0 8:0.0 9:0.0 10:0.0 11:0.0 12:0.0 13:0.0 14:0.0 15:0.0 16:0.0 17:0.0 18:0.0 19:0.0 20:0.0 21:0.0 22:0.0 23:0.0 24:0.0 25:0.0 26:0.0 27:0.0 28:0.0 29:0.0 30:0.0 31:0.0 32:0.0 33:0.0 34:0.0 35:0.0 36:0.0 37:0.0 38:0.0 39:0.0 40:0.0 41:0.0 42:0.0 43:0.0 44:0.0 45:0.0 46:0.0 47:0.0 48:0.0 49:0.0 50:0.0 51:0.0 52:0.0 53:0.0 54:0.0 55:0.0 56:0.0 57:0.0 58:0.0 59:0.0 60:0.0 61:0.0 62:0.0 63:0.0 64:0.0 65:0.0 66:0.0 67:0.0 68:0.0 69:0.0 70:0.0 71:0.0 72:0.0 73:0.0 74:0.0 75:0.0 76:0.0 77:1.0 78:0.0 79:0.0 80:0.0 81:0.0 82:0.0 83:0.0 84:0.0 85:0.0 86:0.0 87:0.0 88:0.0 89:0.0 90:0.0 91:0.0 92:0.0 93:0.0 94:0.0 95:0.0 96:0.0 97:0.0 98:0.0 99:0.0 100:0.0 101:0.0 102:0.0 103:0.0 104:0.0 105:0.0 106:0.0 107:0.0 108:0.0 109:0.0 110:0.0 111:0.0 112:0.0 113:0.0 114:0.0 115:0.0 116:0.0 117:0.0 118:0.0 119:0.0 120:0.0 121:0.0 122:0.0 123:0.0 124:0.0 125:0.0 126:0.0 127:0.0 128:0.0 129:0.0 130:0.0 131:0.0 132:0.0 133:0.0 134:0.0 135:0.0 136:0.0 137:0.0 138:0.0 139:0.0 140:0.0 141:0.0 142:0.0 143:0.0 144:0.0 145:0.0 146:0.0 147:0.0 148:0.0 149:0.0 150:0.0 151:0.0 152:0.0 153:0.0 154:0.0 155:0.0 156:0.0 157:0.0 158:0.0 159:0.0 160:0.0 
1.0 1:0.0 2:0.0 3:0.0 4:0.0 5:0.0 6:0.0 7:0.0 8:0.0 9:0.0 10:0.0 11:0.0 12:0.0 13:0.0 14:0.0 15:0.0 16:0.0 17:0.0 18:0.0 19:0.0 20:0.0 21:0.0 22:0.0 23:0.0 24:0.0 25:0.0 26:0.0 27:0.0 28:0.0 29:0.0 30:0.0 31:0.0 32:0.0 33:0.0 34:0.0 35:0.0 36:0.0 37:0.0 38:0.0 39:0.0 40:0.0 41:0.0 42:0.0 43:0.0 44:0.0 45:0.0 46:0.0 47:0.0 48:0.0 49:0.0 50:0.0 51:0.0 52:0.0 53:0.0 54:0.0 55:0.0 56:0.0 57:0.0 58:0.0 59:0.0 60:0.0 61:0.0 62:0.0 63:0.0 64:0.0 65:0.0 66:0.0 67:0.0 68:0.0 69:0.0 70:0.0 71:0.0 72:0.0 73:0.0 74:0.0 75:0.0 76:0.0 77:1.0 78:0.0 79:0.0 80:0.0 81:0.0 82:0.0 83:0.0 84:0.0 85:0.0 86:0.0 87:0.0 88:0.0 89:0.0 90:0.0 91:0.0 92:0.0 93:0.0 94:0.0 95:0.0 96:0.0 97:0.0 98:0.0 99:0.0 100:0.0 101:0.0 102:0.0 103:0.0 104:0.0 105:0.0 106:0.0 107:0.0 108:0.0 109:0.0 110:0.0 111:0.0 112:0.0 113:0.0 114:0.0 115:0.0 116:0.0 117:0.0 118:0.0 119:0.0 120:0.0 121:0.0 122:0.0 123:0.0 124:0.0 125:0.0 126:0.0 127:0.0 128:0.0 129:0.0 130:0.0 131:0.0 132:0.0 133:0.0 134:0.0 135:0.0 136:0.0 137:0.0 138:0.0 139:0.0 140:0.0 141:0.0 142:0.0 143:0.0 144:0.0 145:0.0 146:0.0 147:0.0 148:0.0 149:0.0 150:0.0 151:0.0 152:0.0 153:0.0 154:0.0 155:0.0 156:0.0 157:0.0 158:0.0 159:0.0 160:0.0 
1.0 1:0.0 2:0.0 3:0.0 4:0.0 5:0.0 6:0.0 7:0.0 8:0.0 9:0.0 10:0.0 11:0.0 12:0.0 13:0.0 14:0.0 15:0.0 16:0.0 17:0.0 18:0.0 19:0.0 20:0.0 21:0.0 22:0.0 23:0.0 24:0.0 25:0.0 26:0.0 27:0.0 28:0.0 29:0.0 30:0.0 31:0.0 32:0.0 33:0.0 34:0.0 35:0.0 36:0.0 37:0.0 38:0.0 39:0.0 40:0.0 41:0.0 42:0.0 43:0.0 44:0.0 45:0.0 46:0.0 47:0.0 48:0.0 49:0.0 50:0.0 51:0.0 52:0.0 53:0.0 54:0.0 55:0.0 56:0.0 57:0.0 58:0.0 59:0.0 60:0.0 61:0.0 62:0.0 63:0.0 64:0.0 65:0.0 66:0.0 67:0.0 68:0.0 69:0.0 70:0.0 71:0.0 72:0.0 73:0.0 74:0.0 75:0.0 76:0.0 77:1.0 78:0.0 79:0.0 80:0.0 81:0.0 82:0.0 83:0.0 84:0.0 85:0.0 86:0.0 87:0.0 88:0.0 89:0.0 90:0.0 91:0.0 92:0.0 93:0.0 94:0.0 95:0.0 96:0.0 97:0.0 98:0.0 99:0.0 100:0.0 101:0.0 102:0.0 103:0.0 104:0.0 105:0.0 106:0.0 107:0.0 108:0.0 109:0.0 110:0.0 111:0.0 112:0.0 113:0.0 114:0.0 115:0.0 116:0.0 117:0.0 118:0.0 119:0.0 120:0.0 121:0.0 122:0.0 123:0.0 124:0.0 125:0.0 126:0.0 127:0.0 128:0.0 129:0.0 130:0.0 131:0.0 132:0.0 133:0.0 134:0.0 135:0.0 136:0.0 137:0.0 138:0.0 139:0.0 140:0.0 141:0.0 142:0.0 143:0.0 144:0.0 145:0.0 146:0.0 147:0.0 148:0.0 149:0.0 150:0.0 151:0.0 152:0.0 153:0.0 154:0.0 155:0.0 156:0.0 157:0.0 158:0.0 159:0.0 160:0.0 
1.0 1:0.0 2:0.0 3:0.0 4:0.0 5:0.0 6:0.0 7:0.0 8:0.0 9:0.0 10:0.0 11:0.0 12:0.0 13:0.0 14:0.0 15:0.0 16:0.0 17:0.0 18:0.0 19:0.0 20:0.0 21:0.0 22:0.0 23:0.0 24:0.0 25:0.0 26:0.0 27:0.0 28:0.0 29:0.0 30:0.0 31:0.0 32:0.0 33:0.0 34:0.0 35:0.0 36:0.0 37:0.0 38:0.0 39:0.0 40:0.0 41:0.0 42:0.0 43:0.0 44:0.0 45:0.0 46:0.0 47:0.0 48:0.0 49:0.0 50:0.0 51:0.0 52:0.0 53:0.0 54:0.0 55:0.0 56:0.0 57:0.0 58:0.0 59:0.0 60:0.0 61:0.0 62:0.0 63:0.0 64:0.0 65:0.0 66:0.0 67:0.0 68:0.0 69:0.0 70:0.0 71:0.0 72:0.0 73:0.0 74:0.0 75:0.0 76:0.0 77:1.0 78:0.0 79:0.0 80:0.0 81:0.0 82:0.0 83:0.0 84:0.0 85:0.0 86:0.0 87:0.0 88:0.0 89:0.0 90:0.0 91:0.0 92:0.0 93:0.0 94:0.0 95:0.0 96:0.0 97:0.0 98:0.0 99:0.0 100:0.0 101:0.0 102:0.0 103:0.0 104:0.0 105:0.0 106:0.0 107:0.0 108:0.0 109:0.0 110:0.0 111:0.0 112:0.0 113:0.0 114:0.0 115:0.0 116:0.0 117:0.0 118:0.0 119:0.0 120:0.0 121:0.0 122:0.0 123:0.0 124:0.0 125:0.0 126:0.0 127:0.0 128:0.0 129:0.0 130:0.0 131:0.0 132:0.0 133:0.0 134:0.0 135:0.0 136:0.0 137:0.0 138:0.0 139:0.0 140:0.0 141:0.0 142:0.0 143:0.0 144:0.0 145:0.0 146:0.0 147:0.0 148:0.0 149:0.0 150:0.0 151:0.0 152:0.0 153:0.0 154:0.0 155:0.0 156:0.0 157:0.0 158:0.0 159:0.0 160:0.0 
1.0 1:0.0 2:0.0 3:0.0 4:0.0 5:0.0 6:0.0 7:0.0 8:0.0 9:0.0 10:0.0 11:0.0 12:0.0 13:0.0 14:0.0 15:0.0 16:0.0 17:0.0 18:0.0 19:0.0 20:0.0 21:0.0 22:0.0 23:0.0 24:0.0 25:0.0 26:0.0 27:0.0 28:0.0 29:0.0 30:0.0 31:0.0 32:0.0 33:0.0 34:0.0 35:0.0 36:0.0 37:0.0 38:0.0 39:0.0 40:0.0 41:0.0 42:0.0 43:0.0 44:0.0 45:0.0 46:0.0 47:0.0 48:0.0 49:0.0 50:0.0 51:0.0 52:0.0 53:0.0 54:0.0 55:0.0 56:0.0 57:0.0 58:0.0 59:0.0 60:0.0 61:0.0 62:0.0 63:0.0 64:0.0 65:0.0 66:0.0 67:0.0 68:0.0 69:0.0 70:0.0 71:0.0 72:0.0 73:0.0 74:0.0 75:0.0 76:0.0 77:1.0 78:0.0 79:0.0 80:0.0 81:0.0 82:0.0 83:0.0 84:0.0 85:0.0 86:0.0 87:0.0 88:0.0 89:0.0 90:0.0 91:0.0 92:0.0 93:0.0 94:0.0 95:0.0 96:0.0 97:0.0 98:0.0 99:0.0 100:0.0 101:0.0 102:0.0 103:0.0 104:0.0 105:0.0 106:0.0 107:0.0 108:0.0 109:0.0 110:0.0 111:0.0 112:0.0 113:0.0 114:0.0 115:0.0 116:0.0 117:0.0 118:0.0 119:0.0 120:0.0 121:0.0 122:0.0 123:0.0 124:0.0 125:0.0 126:0.0 127:0.0 128:0.0 129:0.0 130:0.0 131:0.0 132:0.0 133:0.0 134:0.0 135:0.0 136:0.0 137:0.0 138:0.0 139:0.0 140:0.0 141:0.0 142:0.0 143:0.0 144:0.0 145:0.0 146:0.0 147:0.0 148:0.0 149:0.0 150:0.0 151:0.0 152:0.0 153:0.0 154:0.0 155:0.0 156:0.0 157:0.0 158:0.0 159:0.0 160:0.0 
1.0 1:0.0 2:0.0 3:0.0 4:0.0 5:0.0 6:0.0 7:0.0 8:0.0 9:0.0 10:0.0 11:0.0 12:0.0 13:0.0 14:0.0 15:0.0 16:0.0 17:0.0 18:0.0 19:0.0 20:0.0 21:0.0 22:0.0 23:0.0 24:0.0 25:0.0 26:0.0 27:0.0 28:0.0 29:0.0 30:0.0 31:0.0 32:0.0 33:0.0 34:0.0 35:0.0 36:0.0 37:0.0 38:0.0 39:0.0 40:0.0 41:0.0 42:0.0 43:0.0 44:0.0 45:0.0 46:0.0 47:0.0 48:0.0 49:0.0 50:0.0 51:0.0 52:0.0 53:0.0 54:0.0 55:0.0 56:0.0 57:0.0 58:0.0 59:0.0 60:0.0 61:0.0 62:0.0 63:0.0 64:0.0 65:0.0 66:0.0 67:0.0 68:0.0 69:0.0 70:0.0 71:0.0 72:0.0 73:0.0 74:0.0 75:0.0 76:0.0 77:1.0 78:0.0 79:0.0 80:0.0 81:0.0 82:0.0 83:0.0 84:0.0 85:0.0 86:0.0 87:0.0 88:0.0 89:0.0 90:0.0 91:0.0 92:0.0 93:0.0 94:0.0 95:0.0 96:0.0 97:0.0 98:0.0 99:0.0 100:0.0 101:0.0 102:0.0 103:0.0 104:0.0 105:0.0 106:0.0 107:0.0 108:0.0 109:0.0 110:0.0 111:0.0 112:0.0 113:0.0 114:0.0 115:0.0 116:0.0 117:0.0 118:0.0 119:0.0 120:0.0 121:0.0 122:0.0 123:0.0 124:0.0 125:0.0 126:0.0 127:0.0 128:0.0 129:0.0 130:0.0 131:0.0 132:0.0 133:0.0 134:0.0 135:0.0 136:0.0 137:0.0 138:0.0 139:0.0 140:0.0 141:0.0 142:0.0 143:0.0 144:0.0 145:0.0 146:0.0 147:0.0 148:0.0 149:0.0 150:0.0 151:0.0 152:0.0 153:0.0 154:0.0 155:0.0 156:0.0 157:0.0 158:0.0 159:0.0 160:0.0 
1.0 1:0.0 2:0.0 3:0.0 4:0.0 5:0.0 6:0.0 7:0.0 8:0.0 9:0.0 10:0.0 11:0.0 12:0.0 13:0.0 14:0.0 15:0.0 16:0.0 17:0.0 18:0.0 19:0.0 20:0.0 21:0.0 22:0.0 23:0.0 24:0.0 25:0.0 26:0.0 27:0.0 28:0.0 29:0.0 30:0.0 31:0.0 32:0.0 33:0.0 34:0.0 35:0.0 36:0.0 37:0.0 38:0.0 39:0.0 40:0.0 41:0.0 42:0.0 43:0.0 44:0.0 45:0.0 46:0.0 47:0.0 48:0.0 49:0.0 50:0.0 51:0.0 52:0.0 53:0.0 54:0.0 55:0.0 56:0.0 57:0.0 58:0.0 59:0.0 60:0.0 61:0.0 62:0.0 63:0.0 64:0.0 65:0.0 66:0.0 67:0.0 68:0.0 69:0.0 70:0.0 71:0.0 72:0.0 73:0.0 74:0.0 75:0.0 76:0.0 77:1.0 78:0.0 79:0.0 80:0.0 81:0.0 82:0.0 83:0.0 84:0.0 85:0.0 86:0.0 87:0.0 88:0.0 89:0.0 90:0.0 91:0.0 92:0.0 93:0.0 94:0.0 95:0.0 96:0.0 97:0.0 98:0.0 99:0.0 100:0.0 101:0.0 102:0.0 103:0.0 104:0.0 105:0.0 106:0.0 107:0.0 108:0.0 109:0.0 110:0.0 111:0.0 112:0.0 113:0.0 114:0.0 115:0.0 116:0.0 117:0.0 118:0.0 119:0.0 120:0.0 121:0.0 122:0.0 123:0.0 124:0.0 125:0.0 126:0.0 127:0.0 128:0.0 129:0.0 130:0.0 131:0.0 132:0.0 133:0.0 134:0.0 135:0.0 136:0.0 137:0.0 138:0.0 139:0.0 140:0.0 141:0.0 142:0.0 143:0.0 144:0.0 145:0.0 146:0.0 147:0.0 148:0.0 149:0.0 150:0.0 151:0.0 152:0.0 153:0.0 154:0.0 155:0.0 156:0.0 157:0.0 158:0.0 159:0.0 160:0.0 
1.0 1:0.0 2:0.0 3:0.0 4:0.0 5:0.0 6:0.0 7:0.0 8:0.0 9:0.0 10:0.0 11:0.0 12:0.0 13:0.0 14:0.0 15:0.0 16:0.0 17:0.0 18:0.0 19:0.0 20:0.0 21:0.0 22:0.0 23:0.0 24:0.0 25:0.0 26:0.0 27:0.0 28:0.0 29:0.0 30:0.0 31:0.0 32:0.0 33:0.0 34:0.0 35:0.0 36:0.0 37:0.0 38:0.0 39:0.0 40:0.0 41:0.0 42:0.0 43:0.0 44:0.0 45:0.0 46:0.0 47:0.0 48:0.0 49:0.0 50:0.0 51:0.0 52:0.0 53:0.0 54:0.0 55:0.0 56:0.0 57:0.0 58:0.0 59:0.0 60:0.0 61:0.0 62:0.0 63:0.0 64:0.0 65:0.0 66:0.0 67:0.0 68:0.0 69:0.0 70:0.0 71:0.0 72:0.0 73:0.0 74:0.0 75:0.0 76:0.0 77:1.0 78:0.0 79:0.0 80:0.0 81:0.0 82:0.0 83:0.0 84:0.0 85:0.0 86:0.0 87:0.0 88:0.0 89:0.0 90:0.0 91:0.0 92:0.0 93:0.0 94:0.0 95:0.0 96:0.0 97:0.0 98:0.0 99:0.0 100:0.0 101:0.0 102:0.0 103:0.0 104:0.0 105:0.0 106:0.0 107:0.0 108:0.0 109:0.0 110:0.0 111:0.0 112:0.0 113:0.0 114:0.0 115:0.0 116:0.0 117:0.0 118:0.0 119:0.0 120:0.0 121:0.0 122:0.0 123:0.0 124:0.0 125:0.0 126:0.0 127:0.0 128:0.0 129:0.0 130:0.0 131:0.0 132:0.0 133:0.0 134:0.0 135:0.0 136:0.0 137:0.0 138:0.0 139:0.0 140:0.0 141:0.0 142:0.0 143:0.0 144:0.0 145:0.0 146:0.0 147:0.0 148:0.0 149:0.0 150:0.0 151:0.0 152:0.0 153:0.0 154:0.0 155:0.0 156:0.0 157:0.0 158:0.0 159:0.0 160:0.0 
1.0 1:0.0 2:0.0 3:0.0 4:0.0 5:0.0 6:0.0 7:0.0 8:0.0 9:0.0 10:0.0 11:0.0 12:0.0 13:0.0 14:0.0 15:0.0 16:0.0 17:0.0 18:0.0 19:0.0 20:0.0 21:0.0 22:0.0 23:0.0 24:0.0 25:0.0 26:0.0 27:0.0 28:0.0 29:0.0 30:0.0 31:0.0 32:0.0 33:0.0 34:0.0 35:0.0 36:0.0 37:0.0 38:0.0 39:0.0 40:0.0 41:0.0 42:0.0 43:0.0 44:0.0 45:0.0 46:0.0 47:0.0 48:0.0 49:0.0 50:0.0 51:0.0 52:0.0 53:0.0 54:0.0 55:0.0 56:0.0 57:0.0 58:0.0 59:0.0 60:0.0 61:0.0 62:0.0 63:0.0 64:0.0 65:0.0 66:0.0 67:0.0 68:0.0 69:0.0 70:0.0 71:0.0 72:0.0 73:0.0 74:0.0 75:0.0 76:0.0 77:1.0 78:0.0 79:0.0 80:0.0 81:0.0 82:0.0 83:0.0 84:0.0 85:0.0 86:0.0 87:0.0 88:0.0 89:0.0 90:0.0 91:0.0 92:0.0 93:0.0 94:0.0 95:0.0 96:0.0 97:0.0 98:0.0 99:0.0 100:0.0 101:0.0 102:0.0 103:0.0 104:0.0 105:0.0 106:0.0 107:0.0 108:0.0 109:0.0 110:0.0 111:0.0 112:0.0 113:0.0 114:0.0 115:0.0 116:0.0 117:0.0 118:0.0 119:0.0 120:0.0 121:0.0 122:0.0 123:0.0 124:0.0 125:0.0 126:0.0 127:0.0 128:0.0 129:0.0 130:0.0 131:0.0 132:0.0 133:0.0 134:0.0 135:0.0 136:0.0 137:0.0 138:0.0 139:0.0 140:0.0 141:0.0 142:0.0 143:0.0 144:0.0 145:0.0 146:0.0 147:0.0 148:0.0 149:0.0 150:0.0 151:0.0 152:0.0 153:0.0 154:0.0 155:0.0 156:0.0 157:0.0 158:0.0 159:0.0 160:0.0 
1.0 1:0.0 2:0.0 3:0.0 4:0.0 5:0.0 6:0.0 7:0.0 8:0.0 9:0.0 10:0.0 11:0.0 12:0.0 13:0.0 14:0.0 15:0.0 16:0.0 17:0.0 18:0.0 19:0.0 20:0.0 21:0.0 22:0.0 23:0.0 24:0.0 25:0.0 26:0.0 27:0.0 28:0.0 29:0.0 30:0.0 31:0.0 32:0.0 33:0.0 34:0.0 35:0.0 36:0.0 37:0.0 38:0.0 39:0.0 40:0.0 41:0.0 42:0.0 43:0.0 44:0.0 45:0.0 46:0.0 47:0.0 48:0.0 49:0.0 50:0.0 51:0.0 52:0.0 53:0.0 54:0.0 55:0.0 56:0.0 57:0.0 58:0.0 59:0.0 60:0.0 61:0.0 62:0.0 63:0.0 64:0.0 65:0.0 66:0.0 67:0.0 68:0.0 69:0.0 70:0.0 71:0.0 72:0.0 73:0.0 74:0.0 75:0.0 76:0.0 77:1.0 78:0.0 79:0.0 80:0.0 81:0.0 82:0.0 83:0.0 84:0.0 85:0.0 86:0.0 87:0.0 88:0.0 89:0.0 90:0.0 91:0.0 92:0.0 93:0.0 94:0.0 95:0.0 96:0.0 97:0.0 98:0.0 99:0.0 100:0.0 101:0.0 102:0.0 103:0.0 104:0.0 105:0.0 106:0.0 107:0.0 108:0.0 109:0.0 110:0.0 111:0.0 112:0.0 113:0.0 114:0.0 115:0.0 116:0.0 117:0.0 118:0.0 119:0.0 120:0.0 121:0.0 122:0.0 123:0.0 124:0.0 125:0.0 126:0.0 127:0.0 128:0.0 129:0.0 130:0.0 131:0.0 132:0.0 133:0.0 134:0.0 135:0.0 136:0.0 137:0.0 138:0.0 139:0.0 140:0.0 141:0.0 142:0.0 143:0.0 144:0.0 145:0.0 146:0.0 147:0.0 148:0.0 149:0.0 150:0.0 151:0.0 152:0.0 153:0.0 154:0.0 155:0.0 156:0.0 157:0.0 158:0.0 159:0.0 160:0.0 
1.0 1:0.0 2:0.002688172043010753 3:0.0 4:0.0 5:0.005376344086021506 6:0.0 7:0.0 8:0.0 9:0.0 10:0.0 11:0.0 12:0.0 13:0.0 14:0.002688172043010753 15:0.0 16:0.0 17:0.002688172043010753 18:0.0 19:0.0 20:0.0 21:0.0 22:0.0 23:0.0 24:0.0 25:0.0 26:0.002688172043010753 27:0.0 28:0.0 29:0.002688172043010753 30:0.0 31:0.0 32:0.002688172043010753 33:0.0 34:0.0 35:0.008064516129032258 36:0.0 37:0.0 38:0.0 39:0.0 40:0.0 41:0.0 42:0.0 43:0.0 44:0.0 45:0.0 46:0.0 47:0.0 48:0.0 49:0.0 50:0.002688172043010753 51:0.0 52:0.0 53:0.0 54:0.05913978494623656 55:0.0 56:0.0 57:0.0 58:0.0 59:0.0 60:0.0 61:0.002688172043010753 62:0.002688172043010753 63:0.0 64:0.0 65:0.0 66:0.002688172043010753 67:0.0 68:0.002688172043010753 69:0.0 70:0.002688172043010753 71:0.0 72:0.0 73:0.0 74:0.0 75:0.002688172043010753 76:0.0 77:0.7956989247311828 78:0.0 79:0.0 80:0.0 81:0.0 82:0.0 83:0.002688172043010753 84:0.008064516129032258 85:0.0 86:0.008064516129032258 87:0.0 88:0.002688172043010753 89:0.0 90:0.0 91:0.0 92:0.0 93:0.0 94:0.005376344086021506 95:0.005376344086021506 96:0.002688172043010753 97:0.0 98:0.0 99:0.0 100:0.005376344086021506 101:0.0 102:0.0 103:0.0 104:0.0 105:0.0 106:0.0 107:0.0 108:0.0 109:0.0 110:0.0 111:0.0 112:0.0 113:0.0 114:0.002688172043010753 115:0.0 116:0.0 117:0.0 118:0.002688172043010753 119:0.0 120:0.0 121:0.0 122:0.0 123:0.0 124:0.002688172043010753 125:0.002688172043010753 126:0.0 127:0.013440860215053764 128:0.0 129:0.0 130:0.0 131:0.0 132:0.005376344086021506 133:0.0 134:0.0 135:0.002688172043010753 136:0.010752688172043012 137:0.0 138:0.0 139:0.0 140:0.0 141:0.002688172043010753 142:0.0 143:0.0 144:0.0 145:0.0 146:0.002688172043010753 147:0.0 148:0.0 149:0.0 150:0.0 151:0.0 152:0.002688172043010753 153:0.0 154:0.002688172043010753 155:0.0 156:0.002688172043010753 157:0.0 158:0.0 159:0.0 160:0.0 
1.0 1:0.0 2:0.0033277870216306157 3:0.0 4:0.0 5:0.018302828618968387 6:0.0 7:0.0 8:0.0 9:0.0 10:0.0 11:0.0 12:0.0 13:0.0 14:0.0033277870216306157 15:0.0 16:0.0 17:0.0016638935108153079 18:0.0016638935108153079 19:0.0 20:0.0033277870216306157 21:0.0 22:0.0 23:0.0016638935108153079 24:0.0 25:0.0 26:0.0 27:0.004991680532445923 28:0.0 29:0.0 30:0.0 31:0.0 32:0.0 33:0.0 34:0.0 35:0.009983361064891847 36:0.0 37:0.0 38:0.0 39:0.0 40:0.0016638935108153079 41:0.0 42:0.0 43:0.0 44:0.0 45:0.0 46:0.0 47:0.0 48:0.0 49:0.0 50:0.0016638935108153079 51:0.0 52:0.0 53:0.0 54:0.19966722129783693 55:0.009983361064891847 56:0.0033277870216306157 57:0.0033277870216306157 58:0.0 59:0.0 60:0.0 61:0.0016638935108153079 62:0.0033277870216306157 63:0.0 64:0.0033277870216306157 65:0.0016638935108153079 66:0.0033277870216306157 67:0.0016638935108153079 68:0.0 69:0.0016638935108153079 70:0.0033277870216306157 71:0.0 72:0.0 73:0.0016638935108153079 74:0.0 75:0.0 76:0.0 77:0.5490848585690515 78:0.0 79:0.0 80:0.0 81:0.0016638935108153079 82:0.0 83:0.0016638935108153079 84:0.0016638935108153079 85:0.0 86:0.0066555740432612314 87:0.0 88:0.0033277870216306157 89:0.0 90:0.0 91:0.0 92:0.0 93:0.0 94:0.019966722129783693 95:0.0066555740432612314 96:0.0066555740432612314 97:0.0 98:0.0 99:0.0 100:0.0 101:0.0016638935108153079 102:0.0 103:0.0 104:0.0 105:0.0 106:0.0 107:0.0 108:0.0 109:0.0 110:0.0 111:0.0 112:0.0 113:0.0 114:0.0 115:0.0 116:0.0 117:0.0 118:0.014975041597337771 119:0.0 120:0.0 121:0.0 122:0.0 123:0.0 124:0.0 125:0.004991680532445923 126:0.0 127:0.011647254575707155 128:0.0 129:0.0 130:0.0016638935108153079 131:0.0 132:0.03993344425956739 133:0.0 134:0.0 135:0.004991680532445923 136:0.0016638935108153079 137:0.0 138:0.0 139:0.004991680532445923 140:0.0 141:0.0066555740432612314 142:0.0 143:0.0 144:0.0 145:0.0 146:0.0033277870216306157 147:0.0033277870216306157 148:0.0016638935108153079 149:0.0 150:0.0 151:0.0 152:0.0016638935108153079 153:0.0 154:0.0016638935108153079 155:0.0 156:0.0066555740432612314 157:0.0 158:0.0 159:0.0016638935108153079 160:0.0 
1.0 1:0.0018587360594795538 2:0.011152416356877323 3:0.0 4:0.0 5:0.0055762081784386614 6:0.0 7:0.0 8:0.0 9:0.0 10:0.0 11:0.0 12:0.0 13:0.0 14:0.0018587360594795538 15:0.0 16:0.0018587360594795538 17:0.0037174721189591076 18:0.0 19:0.0 20:0.0055762081784386614 21:0.0 22:0.0 23:0.0018587360594795538 24:0.0 25:0.0037174721189591076 26:0.0037174721189591076 27:0.0037174721189591076 28:0.0 29:0.0018587360594795538 30:0.0 31:0.0037174721189591076 32:0.0018587360594795538 33:0.0 34:0.0 35:0.05390334572490706 36:0.0 37:0.0 38:0.0 39:0.0 40:0.0 41:0.0 42:0.0 43:0.0 44:0.0018587360594795538 45:0.0 46:0.0018587360594795538 47:0.0 48:0.0 49:0.0 50:0.0018587360594795538 51:0.0 52:0.0 53:0.0018587360594795538 54:0.05390334572490706 55:0.011152416356877323 56:0.0 57:0.0018587360594795538 58:0.0 59:0.0 60:0.0 61:0.0 62:0.0 63:0.0055762081784386614 64:0.0055762081784386614 65:0.0018587360594795538 66:0.0018587360594795538 67:0.0 68:0.011152416356877323 69:0.011152416356877323 70:0.0037174721189591076 71:0.0 72:0.0 73:0.0037174721189591076 74:0.0018587360594795538 75:0.0037174721189591076 76:0.0055762081784386614 77:0.5297397769516728 78:0.0055762081784386614 79:0.0 80:0.0 81:0.0018587360594795538 82:0.0 83:0.01858736059479554 84:0.00929368029739777 85:0.0 86:0.0037174721189591076 87:0.0 88:0.0 89:0.0 90:0.0 91:0.0 92:0.0 93:0.0 94:0.013011152416356878 95:0.011152416356877323 96:0.011152416356877323 97:0.0 98:0.0 99:0.0 100:0.0018587360594795538 101:0.0018587360594795538 102:0.0 103:0.0 104:0.0055762081784386614 105:0.0 106:0.0 107:0.0 108:0.0 109:0.0 110:0.0 111:0.0 112:0.0 113:0.0 114:0.00929368029739777 115:0.0 116:0.0 117:0.0 118:0.007434944237918215 119:0.0 120:0.0 121:0.0 122:0.0 123:0.0 124:0.0018587360594795538 125:0.0 126:0.0018587360594795538 127:0.022304832713754646 128:0.0 129:0.0 130:0.0018587360594795538 131:0.0 132:0.013011152416356878 133:0.0 134:0.011152416356877323 135:0.0037174721189591076 136:0.0 137:0.0055762081784386614 138:0.0018587360594795538 139:0.0018587360594795538 140:0.0 141:0.00929368029739777 142:0.0 143:0.0 144:0.0 145:0.0018587360594795538 146:0.0037174721189591076 147:0.0055762081784386614 148:0.0018587360594795538 149:0.0018587360594795538 150:0.0 151:0.0 152:0.024163568773234202 153:0.0 154:0.0037174721189591076 155:0.0 156:0.0055762081784386614 157:0.0 158:0.0 159:0.007434944237918215 160:0.0037174721189591076 
1.0 1:0.004149377593360996 2:0.0 3:0.0 4:0.0 5:0.0 6:0.0 7:0.0 8:0.0 9:0.0 10:0.0 11:0.0 12:0.0 13:0.0 14:0.0 15:0.0 16:0.0 17:0.0 18:0.0 19:0.0 20:0.008298755186721992 21:0.0 22:0.0 23:0.008298755186721992 24:0.0 25:0.0 26:0.0 27:0.0 28:0.0 29:0.0 30:0.0 31:0.0 32:0.0 33:0.0 34:0.0 35:0.008298755186721992 36:0.0 37:0.0 38:0.0 39:0.0 40:0.004149377593360996 41:0.0 42:0.0 43:0.0 44:0.008298755186721992 45:0.0 46:0.0 47:0.0 48:0.0 49:0.0 50:0.0 51:0.0 52:0.0 53:0.0 54:0.008298755186721992 55:0.0 56:0.004149377593360996 57:0.004149377593360996 58:0.0 59:0.0 60:0.0 61:0.0 62:0.0 63:0.008298755186721992 64:0.008298755186721992 65:0.0 66:0.0 67:0.0 68:0.0 69:0.0 70:0.004149377593360996 71:0.0 72:0.0 73:0.0 74:0.008298755186721992 75:0.008298755186721992 76:0.0 77:0.8008298755186722 78:0.004149377593360996 79:0.0 80:0.0 81:0.0 82:0.0 83:0.012448132780082987 84:0.0 85:0.0 86:0.0 87:0.0 88:0.0 89:0.0 90:0.0 91:0.0 92:0.0 93:0.0 94:0.004149377593360996 95:0.004149377593360996 96:0.0 97:0.0 98:0.0 99:0.0 100:0.0 101:0.004149377593360996 102:0.0 103:0.0 104:0.0 105:0.004149377593360996 106:0.0 107:0.0 108:0.004149377593360996 109:0.0 110:0.0 111:0.0 112:0.0 113:0.0 114:0.0 115:0.0 116:0.0 117:0.004149377593360996 118:0.0 119:0.0 120:0.0 121:0.0 122:0.0 123:0.0 124:0.0 125:0.004149377593360996 126:0.004149377593360996 127:0.004149377593360996 128:0.0 129:0.0 130:0.0 131:0.0 132:0.012448132780082987 133:0.0 134:0.004149377593360996 135:0.0 136:0.004149377593360996 137:0.004149377593360996 138:0.0 139:0.0 140:0.0 141:0.004149377593360996 142:0.0 143:0.0 144:0.0 145:0.008298755186721992 146:0.004149377593360996 147:0.0 148:0.0 149:0.0 150:0.0 151:0.0 152:0.004149377593360996 153:0.0 154:0.0 155:0.0 156:0.0 157:0.0 158:0.0 159:0.004149377593360996 160:0.0 
1.0 1:0.0022123893805309734 2:0.01327433628318584 3:0.0 4:0.0 5:0.00663716814159292 6:0.0 7:0.0 8:0.0 9:0.0 10:0.0 11:0.0 12:0.0 13:0.0 14:0.0022123893805309734 15:0.0 16:0.0022123893805309734 17:0.004424778761061947 18:0.0 19:0.0 20:0.00663716814159292 21:0.0 22:0.0 23:0.0022123893805309734 24:0.0 25:0.004424778761061947 26:0.004424778761061947 27:0.004424778761061947 28:0.0 29:0.0022123893805309734 30:0.0 31:0.004424778761061947 32:0.0022123893805309734 33:0.0 34:0.0 35:0.06415929203539823 36:0.0 37:0.0 38:0.0 39:0.0 40:0.0 41:0.0 42:0.0 43:0.0 44:0.0022123893805309734 45:0.0 46:0.0022123893805309734 47:0.0 48:0.0 49:0.0 50:0.0022123893805309734 51:0.0 52:0.0 53:0.0022123893805309734 54:0.06415929203539823 55:0.01327433628318584 56:0.0 57:0.0022123893805309734 58:0.0 59:0.0 60:0.0 61:0.0 62:0.0 63:0.00663716814159292 64:0.00663716814159292 65:0.0022123893805309734 66:0.0022123893805309734 67:0.0 68:0.01327433628318584 69:0.01327433628318584 70:0.004424778761061947 71:0.0 72:0.0 73:0.004424778761061947 74:0.0022123893805309734 75:0.004424778761061947 76:0.00663716814159292 77:0.44026548672566373 78:0.00663716814159292 79:0.0 80:0.0 81:0.0022123893805309734 82:0.0 83:0.022123893805309734 84:0.011061946902654867 85:0.0 86:0.004424778761061947 87:0.0 88:0.0 89:0.0 90:0.0 91:0.0 92:0.0 93:0.0 94:0.015486725663716814 95:0.01327433628318584 96:0.01327433628318584 97:0.0 98:0.0 99:0.0 100:0.0022123893805309734 101:0.0022123893805309734 102:0.0 103:0.0 104:0.00663716814159292 105:0.0 106:0.0 107:0.0 108:0.0 109:0.0 110:0.0 111:0.0 112:0.0 113:0.0 114:0.011061946902654867 115:0.0 116:0.0 117:0.0 118:0.008849557522123894 119:0.0 120:0.0 121:0.0 122:0.0 123:0.0 124:0.0022123893805309734 125:0.0 126:0.0022123893805309734 127:0.02654867256637168 128:0.0 129:0.0 130:0.0022123893805309734 131:0.0 132:0.015486725663716814 133:0.0 134:0.01327433628318584 135:0.004424778761061947 136:0.0 137:0.00663716814159292 138:0.0022123893805309734 139:0.0022123893805309734 140:0.0 141:0.011061946902654867 142:0.0 143:0.0 144:0.0 145:0.0022123893805309734 146:0.004424778761061947 147:0.00663716814159292 148:0.0022123893805309734 149:0.0022123893805309734 150:0.0 151:0.0 152:0.028761061946902654 153:0.0 154:0.004424778761061947 155:0.0 156:0.00663716814159292 157:0.0 158:0.0 159:0.008849557522123894 160:0.004424778761061947 
1.0 1:0.0 2:0.003067484662576687 3:0.0 4:0.0 5:0.006134969325153374 6:0.0 7:0.0 8:0.0 9:0.0 10:0.0 11:0.0 12:0.0 13:0.0 14:0.0 15:0.0 16:0.0 17:0.006134969325153374 18:0.0 19:0.0 20:0.018404907975460124 21:0.0 22:0.0 23:0.0 24:0.0 25:0.0 26:0.003067484662576687 27:0.006134969325153374 28:0.0 29:0.003067484662576687 30:0.0 31:0.0 32:0.0 33:0.0 34:0.0 35:0.0 36:0.0 37:0.0 38:0.0 39:0.0 40:0.0 41:0.0 42:0.0 43:0.0 44:0.012269938650306749 45:0.0 46:0.003067484662576687 47:0.0 48:0.0 49:0.0 50:0.0 51:0.0 52:0.0 53:0.0 54:0.05214723926380368 55:0.003067484662576687 56:0.0 57:0.0 58:0.0 59:0.0 60:0.0 61:0.003067484662576687 62:0.0 63:0.003067484662576687 64:0.0 65:0.0 66:0.0 67:0.0 68:0.003067484662576687 69:0.003067484662576687 70:0.0 71:0.0 72:0.0 73:0.0 74:0.0 75:0.0 76:0.0 77:0.7668711656441718 78:0.003067484662576687 79:0.0 80:0.0 81:0.0 82:0.0 83:0.0 84:0.003067484662576687 85:0.0 86:0.009202453987730062 87:0.0 88:0.0 89:0.0 90:0.0 91:0.0 92:0.0 93:0.0 94:0.0 95:0.003067484662576687 96:0.0 97:0.0 98:0.0 99:0.0 100:0.0 101:0.003067484662576687 102:0.0 103:0.0 104:0.0 105:0.0 106:0.0 107:0.0 108:0.0 109:0.0 110:0.0 111:0.0 112:0.0 113:0.0 114:0.0 115:0.0 116:0.0 117:0.0 118:0.0 119:0.0 120:0.0 121:0.0 122:0.0 123:0.0 124:0.003067484662576687 125:0.0 126:0.0 127:0.006134969325153374 128:0.0 129:0.0 130:0.0 131:0.0 132:0.027607361963190184 133:0.0 134:0.0 135:0.0 136:0.012269938650306749 137:0.0 138:0.0 139:0.0 140:0.0 141:0.0 142:0.0 143:0.0 144:0.0 145:0.0 146:0.012269938650306749 147:0.0 148:0.0 149:0.0 150:0.0 151:0.0 152:0.003067484662576687 153:0.0 154:0.012269938650306749 155:0.0 156:0.006134969325153374 157:0.0 158:0.0 159:0.0 160:0.0 
1.0 1:0.0023148148148148147 2:0.0023148148148148147 3:0.0 4:0.0 5:0.004629629629629629 6:0.0 7:0.0 8:0.0 9:0.0 10:0.0 11:0.0 12:0.0 13:0.0 14:0.0 15:0.0 16:0.0 17:0.004629629629629629 18:0.0 19:0.0 20:0.018518518518518517 21:0.0 22:0.0 23:0.0 24:0.0 25:0.0 26:0.0 27:0.004629629629629629 28:0.0 29:0.0 30:0.0 31:0.0 32:0.0 33:0.0 34:0.0 35:0.004629629629629629 36:0.0 37:0.0 38:0.0 39:0.0 40:0.0023148148148148147 41:0.0 42:0.0 43:0.0 44:0.006944444444444444 45:0.0 46:0.0023148148148148147 47:0.0 48:0.0 49:0.0 50:0.0 51:0.0 52:0.0 53:0.0 54:0.09722222222222222 55:0.004629629629629629 56:0.004629629629629629 57:0.0 58:0.0 59:0.0 60:0.0 61:0.004629629629629629 62:0.0 63:0.0023148148148148147 64:0.0 65:0.0 66:0.0 67:0.0 68:0.0023148148148148147 69:0.004629629629629629 70:0.0 71:0.0 72:0.0 73:0.0 74:0.0 75:0.0 76:0.0 77:0.6944444444444444 78:0.0 79:0.0 80:0.0 81:0.0 82:0.0 83:0.0 84:0.0023148148148148147 85:0.0 86:0.013888888888888888 87:0.0 88:0.0 89:0.0 90:0.0 91:0.0 92:0.0 93:0.0 94:0.0 95:0.006944444444444444 96:0.0 97:0.0 98:0.0 99:0.0 100:0.0 101:0.006944444444444444 102:0.0 103:0.0 104:0.0 105:0.0 106:0.0 107:0.0 108:0.0 109:0.0 110:0.0 111:0.0 112:0.0 113:0.0 114:0.0 115:0.0 116:0.0 117:0.0 118:0.0 119:0.0023148148148148147 120:0.0 121:0.0 122:0.0 123:0.0 124:0.0023148148148148147 125:0.0 126:0.0 127:0.011574074074074073 128:0.0 129:0.0 130:0.0 131:0.0 132:0.03009259259259259 133:0.0 134:0.004629629629629629 135:0.0 136:0.009259259259259259 137:0.0 138:0.0 139:0.0 140:0.0 141:0.004629629629629629 142:0.0 143:0.0 144:0.0 145:0.0 146:0.009259259259259259 147:0.0 148:0.0 149:0.0 150:0.0 151:0.0 152:0.004629629629629629 153:0.0 154:0.009259259259259259 155:0.0 156:0.011574074074074073 157:0.0 158:0.0 159:0.0 160:0.0023148148148148147 
1.0 1:0.002331002331002331 2:0.002331002331002331 3:0.0 4:0.0 5:0.004662004662004662 6:0.0 7:0.0 8:0.0 9:0.0 10:0.0 11:0.0 12:0.0 13:0.0 14:0.0 15:0.0 16:0.0 17:0.004662004662004662 18:0.0 19:0.0 20:0.018648018648018648 21:0.0 22:0.0 23:0.0 24:0.0 25:0.0 26:0.0 27:0.004662004662004662 28:0.0 29:0.0 30:0.0 31:0.0 32:0.0 33:0.0 34:0.0 35:0.004662004662004662 36:0.0 37:0.0 38:0.0 39:0.0 40:0.002331002331002331 41:0.0 42:0.0 43:0.0 44:0.006993006993006993 45:0.0 46:0.002331002331002331 47:0.0 48:0.0 49:0.0 50:0.0 51:0.0 52:0.0 53:0.0 54:0.0979020979020979 55:0.004662004662004662 56:0.004662004662004662 57:0.0 58:0.0 59:0.0 60:0.0 61:0.004662004662004662 62:0.0 63:0.002331002331002331 64:0.0 65:0.0 66:0.0 67:0.0 68:0.002331002331002331 69:0.004662004662004662 70:0.0 71:0.0 72:0.0 73:0.0 74:0.0 75:0.0 76:0.0 77:0.6923076923076923 78:0.0 79:0.0 80:0.0 81:0.0 82:0.0 83:0.0 84:0.002331002331002331 85:0.0 86:0.013986013986013986 87:0.0 88:0.0 89:0.0 90:0.0 91:0.0 92:0.0 93:0.0 94:0.0 95:0.006993006993006993 96:0.0 97:0.0 98:0.0 99:0.0 100:0.0 101:0.006993006993006993 102:0.0 103:0.0 104:0.0 105:0.0 106:0.0 107:0.0 108:0.0 109:0.0 110:0.0 111:0.0 112:0.0 113:0.0 114:0.0 115:0.0 116:0.0 117:0.0 118:0.0 119:0.002331002331002331 120:0.0 121:0.0 122:0.0 123:0.0 124:0.002331002331002331 125:0.0 126:0.0 127:0.011655011655011656 128:0.0 129:0.0 130:0.0 131:0.0 132:0.030303030303030304 133:0.0 134:0.004662004662004662 135:0.0 136:0.009324009324009324 137:0.0 138:0.0 139:0.0 140:0.0 141:0.004662004662004662 142:0.0 143:0.0 144:0.0 145:0.0 146:0.009324009324009324 147:0.0 148:0.0 149:0.0 150:0.0 151:0.0 152:0.004662004662004662 153:0.0 154:0.009324009324009324 155:0.0 156:0.011655011655011656 157:0.0 158:0.0 159:0.0 160:0.002331002331002331 
1.0 1:0.0 2:0.01056338028169014 3:0.0 4:0.0 5:0.0 6:0.0 7:0.0 8:0.0 9:0.0 10:0.0 11:0.0 12:0.0 13:0.0 14:0.00528169014084507 15:0.0 16:0.0 17:0.0035211267605633804 18:0.0 19:0.0 20:0.00528169014084507 21:0.0 22:0.0 23:0.0017605633802816902 24:0.0 25:0.0017605633802816902 26:0.00528169014084507 27:0.007042253521126761 28:0.0 29:0.0 30:0.0 31:0.007042253521126761 32:0.0017605633802816902 33:0.0 34:0.0 35:0.04929577464788732 36:0.0 37:0.0 38:0.0 39:0.0 40:0.0035211267605633804 41:0.0 42:0.0 43:0.0 44:0.0 45:0.0 46:0.0 47:0.0 48:0.0 49:0.0 50:0.0035211267605633804 51:0.0 52:0.0 53:0.0035211267605633804 54:0.056338028169014086 55:0.0035211267605633804 56:0.0017605633802816902 57:0.0 58:0.0 59:0.0 60:0.0 61:0.0017605633802816902 62:0.0 63:0.0035211267605633804 64:0.01232394366197183 65:0.0017605633802816902 66:0.0035211267605633804 67:0.0 68:0.017605633802816902 69:0.017605633802816902 70:0.007042253521126761 71:0.0 72:0.0 73:0.0035211267605633804 74:0.0017605633802816902 75:0.0035211267605633804 76:0.0017605633802816902 77:0.5704225352112676 78:0.007042253521126761 79:0.0 80:0.0 81:0.0017605633802816902 82:0.0 83:0.014084507042253521 84:0.008802816901408451 85:0.0 86:0.008802816901408451 87:0.0 88:0.0 89:0.0 90:0.0 91:0.0 92:0.0 93:0.0 94:0.008802816901408451 95:0.0017605633802816902 96:0.007042253521126761 97:0.0 98:0.0 99:0.0 100:0.0035211267605633804 101:0.007042253521126761 102:0.0 103:0.0 104:0.0035211267605633804 105:0.0 106:0.0 107:0.0 108:0.0 109:0.0 110:0.0 111:0.0 112:0.0 113:0.0 114:0.008802816901408451 115:0.0 116:0.0 117:0.0 118:0.007042253521126761 119:0.0 120:0.0 121:0.0 122:0.0 123:0.0 124:0.0017605633802816902 125:0.0 126:0.0017605633802816902 127:0.00528169014084507 128:0.0 129:0.0 130:0.0 131:0.0 132:0.01232394366197183 133:0.0 134:0.007042253521126761 135:0.0017605633802816902 136:0.0 137:0.00528169014084507 138:0.0017605633802816902 139:0.0 140:0.0 141:0.008802816901408451 142:0.0 143:0.0 144:0.0 145:0.0017605633802816902 146:0.0017605633802816902 147:0.008802816901408451 148:0.00528169014084507 149:0.0 150:0.0 151:0.0 152:0.007042253521126761 153:0.0 154:0.0017605633802816902 155:0.0 156:0.01056338028169014 157:0.0 158:0.0 159:0.00528169014084507 160:0.007042253521126761 
1.0 1:0.0 2:0.0025188916876574307 3:0.0 4:0.0 5:0.012594458438287154 6:0.0 7:0.0 8:0.0 9:0.0 10:0.0 11:0.0 12:0.0 13:0.0 14:0.0 15:0.0 16:0.0 17:0.005037783375314861 18:0.0 19:0.0 20:0.015113350125944584 21:0.0 22:0.0 23:0.0 24:0.0 25:0.0 26:0.0025188916876574307 27:0.0025188916876574307 28:0.0 29:0.0 30:0.0 31:0.0 32:0.0025188916876574307 33:0.0 34:0.0 35:0.0 36:0.0 37:0.0 38:0.0 39:0.0 40:0.0 41:0.0 42:0.0 43:0.0 44:0.007556675062972292 45:0.0 46:0.0025188916876574307 47:0.0 48:0.0 49:0.0 50:0.0 51:0.0 52:0.0 53:0.0 54:0.05793450881612091 55:0.0025188916876574307 56:0.0 57:0.0 58:0.0 59:0.0 60:0.0 61:0.0 62:0.0 63:0.0025188916876574307 64:0.005037783375314861 65:0.0 66:0.0 67:0.0 68:0.0 69:0.0025188916876574307 70:0.0 71:0.0 72:0.0 73:0.0 74:0.0025188916876574307 75:0.0 76:0.0 77:0.7934508816120907 78:0.0 79:0.0 80:0.0 81:0.0 82:0.0 83:0.0 84:0.0025188916876574307 85:0.0 86:0.010075566750629723 87:0.0 88:0.0 89:0.0 90:0.0 91:0.0 92:0.0 93:0.0 94:0.007556675062972292 95:0.0025188916876574307 96:0.0025188916876574307 97:0.0 98:0.0 99:0.0 100:0.0 101:0.0025188916876574307 102:0.0 103:0.0 104:0.0 105:0.0 106:0.0 107:0.0 108:0.0 109:0.0 110:0.0 111:0.0 112:0.0 113:0.0 114:0.0 115:0.0 116:0.0 117:0.0 118:0.0025188916876574307 119:0.0 120:0.0 121:0.0 122:0.0 123:0.0 124:0.0 125:0.0 126:0.0 127:0.0025188916876574307 128:0.0 129:0.0 130:0.0 131:0.0 132:0.007556675062972292 133:0.0 134:0.0025188916876574307 135:0.0 136:0.010075566750629723 137:0.0 138:0.0 139:0.0 140:0.0 141:0.0025188916876574307 142:0.0 143:0.0 144:0.0 145:0.0 146:0.010075566750629723 147:0.0 148:0.0 149:0.0 150:0.0 151:0.0 152:0.0025188916876574307 153:0.0 154:0.010075566750629723 155:0.0 156:0.0025188916876574307 157:0.0 158:0.0 159:0.0 160:0.0 
1.0 1:0.002036659877800407 2:0.004073319755600814 3:0.0 4:0.0 5:0.0 6:0.0 7:0.0 8:0.0 9:0.0 10:0.0 11:0.002036659877800407 12:0.0 13:0.0 14:0.002036659877800407 15:0.0 16:0.0 17:0.002036659877800407 18:0.0 19:0.0 20:0.002036659877800407 21:0.0 22:0.0 23:0.0 24:0.0 25:0.0 26:0.0 27:0.006109979633401222 28:0.0 29:0.002036659877800407 30:0.0 31:0.0 32:0.0 33:0.0 34:0.0 35:0.006109979633401222 36:0.0 37:0.0 38:0.0 39:0.0 40:0.004073319755600814 41:0.0 42:0.0 43:0.0 44:0.006109979633401222 45:0.0 46:0.002036659877800407 47:0.0 48:0.0 49:0.0 50:0.0 51:0.0 52:0.0 53:0.002036659877800407 54:0.004073319755600814 55:0.008146639511201629 56:0.002036659877800407 57:0.0 58:0.0 59:0.0 60:0.0 61:0.0 62:0.004073319755600814 63:0.010183299389002037 64:0.002036659877800407 65:0.0 66:0.006109979633401222 67:0.0 68:0.0 69:0.004073319755600814 70:0.0 71:0.0 72:0.0 73:0.0 74:0.0 75:0.002036659877800407 76:0.0 77:0.769857433808554 78:0.002036659877800407 79:0.0 80:0.0 81:0.006109979633401222 82:0.0 83:0.002036659877800407 84:0.006109979633401222 85:0.0 86:0.008146639511201629 87:0.0 88:0.004073319755600814 89:0.0 90:0.0 91:0.0 92:0.0 93:0.0 94:0.002036659877800407 95:0.010183299389002037 96:0.004073319755600814 97:0.0 98:0.0 99:0.0 100:0.004073319755600814 101:0.004073319755600814 102:0.0 103:0.0 104:0.0 105:0.006109979633401222 106:0.0 107:0.0 108:0.006109979633401222 109:0.0 110:0.0 111:0.0 112:0.0 113:0.0 114:0.004073319755600814 115:0.0 116:0.0 117:0.004073319755600814 118:0.0 119:0.0 120:0.002036659877800407 121:0.0 122:0.0 123:0.0 124:0.0 125:0.006109979633401222 126:0.004073319755600814 127:0.012219959266802444 128:0.0 129:0.0 130:0.0 131:0.0 132:0.004073319755600814 133:0.0 134:0.008146639511201629 135:0.0 136:0.0 137:0.0 138:0.0 139:0.004073319755600814 140:0.0 141:0.010183299389002037 142:0.0 143:0.0 144:0.0 145:0.004073319755600814 146:0.0 147:0.0 148:0.002036659877800407 149:0.004073319755600814 150:0.0 151:0.0 152:0.004073319755600814 153:0.0 154:0.0 155:0.0 156:0.004073319755600814 157:0.0 158:0.0 159:0.002036659877800407 160:0.0 
1.0 1:0.002079002079002079 2:0.004158004158004158 3:0.0 4:0.0 5:0.0 6:0.0 7:0.0 8:0.0 9:0.0 10:0.0 11:0.002079002079002079 12:0.0 13:0.0 14:0.002079002079002079 15:0.0 16:0.0 17:0.002079002079002079 18:0.0 19:0.0 20:0.002079002079002079 21:0.0 22:0.0 23:0.0 24:0.0 25:0.0 26:0.0 27:0.006237006237006237 28:0.0 29:0.002079002079002079 30:0.0 31:0.0 32:0.0 33:0.0 34:0.0 35:0.006237006237006237 36:0.0 37:0.0 38:0.0 39:0.0 40:0.004158004158004158 41:0.0 42:0.0 43:0.0 44:0.006237006237006237 45:0.0 46:0.002079002079002079 47:0.0 48:0.0 49:0.0 50:0.0 51:0.0 52:0.0 53:0.002079002079002079 54:0.004158004158004158 55:0.006237006237006237 56:0.002079002079002079 57:0.0 58:0.0 59:0.0 60:0.0 61:0.0 62:0.004158004158004158 63:0.010395010395010396 64:0.002079002079002079 65:0.0 66:0.006237006237006237 67:0.0 68:0.0 69:0.004158004158004158 70:0.0 71:0.0 72:0.0 73:0.0 74:0.0 75:0.002079002079002079 76:0.0 77:0.7546777546777547 78:0.002079002079002079 79:0.0 80:0.0 81:0.006237006237006237 82:0.0 83:0.002079002079002079 84:0.006237006237006237 85:0.0 86:0.008316008316008316 87:0.0 88:0.004158004158004158 89:0.0 90:0.0 91:0.0 92:0.0 93:0.0 94:0.002079002079002079 95:0.010395010395010396 96:0.004158004158004158 97:0.0 98:0.0 99:0.0 100:0.004158004158004158 101:0.004158004158004158 102:0.0 103:0.0 104:0.0 105:0.006237006237006237 106:0.0 107:0.0 108:0.006237006237006237 109:0.0 110:0.0 111:0.0 112:0.0 113:0.0 114:0.004158004158004158 115:0.0 116:0.0 117:0.004158004158004158 118:0.002079002079002079 119:0.0 120:0.002079002079002079 121:0.0 122:0.0 123:0.0 124:0.0 125:0.006237006237006237 126:0.004158004158004158 127:0.012474012474012475 128:0.0 129:0.0 130:0.0 131:0.0 132:0.004158004158004158 133:0.0 134:0.008316008316008316 135:0.0 136:0.002079002079002079 137:0.0 138:0.0 139:0.006237006237006237 140:0.0 141:0.010395010395010396 142:0.0 143:0.0 144:0.0 145:0.004158004158004158 146:0.004158004158004158 147:0.0 148:0.002079002079002079 149:0.004158004158004158 150:0.0 151:0.0 152:0.004158004158004158 153:0.0 154:0.0 155:0.0 156:0.006237006237006237 157:0.0 158:0.0 159:0.002079002079002079 160:0.0 
1.0 1:0.009345794392523364 2:0.0 3:0.0 4:0.0 5:0.0 6:0.003115264797507788 7:0.0 8:0.0 9:0.0 10:0.0 11:0.0 12:0.0 13:0.0 14:0.0 15:0.0 16:0.003115264797507788 17:0.006230529595015576 18:0.0 19:0.0 20:0.006230529595015576 21:0.0 22:0.0 23:0.0 24:0.0 25:0.0 26:0.0 27:0.006230529595015576 28:0.0 29:0.0 30:0.0 31:0.003115264797507788 32:0.012461059190031152 33:0.0 34:0.0 35:0.003115264797507788 36:0.0 37:0.0 38:0.0 39:0.0 40:0.0 41:0.0 42:0.0 43:0.0 44:0.003115264797507788 45:0.003115264797507788 46:0.0 47:0.0 48:0.0 49:0.0 50:0.0 51:0.0 52:0.0 53:0.0 54:0.0 55:0.0 56:0.0 57:0.003115264797507788 58:0.0 59:0.0 60:0.0 61:0.003115264797507788 62:0.0 63:0.006230529595015576 64:0.006230529595015576 65:0.009345794392523364 66:0.0 67:0.0 68:0.0 69:0.003115264797507788 70:0.0 71:0.0 72:0.0 73:0.0 74:0.0 75:0.0 76:0.0 77:0.8037383177570093 78:0.0 79:0.0 80:0.0 81:0.0 82:0.0 83:0.0 84:0.003115264797507788 85:0.0 86:0.0 87:0.0 88:0.009345794392523364 89:0.0 90:0.0 91:0.0 92:0.0 93:0.0 94:0.003115264797507788 95:0.003115264797507788 96:0.0 97:0.0 98:0.0 99:0.0 100:0.0 101:0.009345794392523364 102:0.0 103:0.0 104:0.003115264797507788 105:0.0 106:0.0 107:0.0 108:0.0 109:0.0 110:0.0 111:0.0 112:0.0 113:0.0 114:0.003115264797507788 115:0.0 116:0.0 117:0.0 118:0.0 119:0.003115264797507788 120:0.0 121:0.0 122:0.0 123:0.0 124:0.0 125:0.003115264797507788 126:0.0 127:0.0 128:0.003115264797507788 129:0.0 130:0.009345794392523364 131:0.0 132:0.003115264797507788 133:0.0 134:0.003115264797507788 135:0.0 136:0.018691588785046728 137:0.003115264797507788 138:0.0 139:0.0 140:0.0 141:0.0 142:0.0 143:0.003115264797507788 144:0.0 145:0.006230529595015576 146:0.003115264797507788 147:0.003115264797507788 148:0.0 149:0.0 150:0.0 151:0.0 152:0.0 153:0.0 154:0.0 155:0.003115264797507788 156:0.0 157:0.0 158:0.0 159:0.006230529595015576 160:0.0 
1.0 1:0.0 2:0.0 3:0.0 4:0.0 5:0.010752688172043012 6:0.0 7:0.0 8:0.0035842293906810036 9:0.0 10:0.0 11:0.0 12:0.0 13:0.0 14:0.0 15:0.0 16:0.0 17:0.0 18:0.0 19:0.0 20:0.0 21:0.0 22:0.0 23:0.0 24:0.0 25:0.0 26:0.0 27:0.0 28:0.0 29:0.0035842293906810036 30:0.0 31:0.0 32:0.0 33:0.0 34:0.0 35:0.010752688172043012 36:0.0 37:0.0 38:0.0 39:0.0 40:0.0 41:0.0 42:0.0 43:0.0 44:0.0 45:0.0 46:0.0 47:0.0 48:0.0 49:0.0 50:0.0035842293906810036 51:0.0 52:0.0 53:0.0 54:0.05734767025089606 55:0.0035842293906810036 56:0.0 57:0.0 58:0.0 59:0.0 60:0.0 61:0.010752688172043012 62:0.0 63:0.0035842293906810036 64:0.010752688172043012 65:0.0 66:0.0035842293906810036 67:0.0 68:0.0 69:0.0 70:0.0 71:0.0 72:0.0 73:0.0 74:0.0 75:0.007168458781362007 76:0.0 77:0.7419354838709677 78:0.007168458781362007 79:0.0 80:0.0 81:0.0 82:0.0 83:0.0 84:0.0035842293906810036 85:0.0 86:0.010752688172043012 87:0.0 88:0.0035842293906810036 89:0.0 90:0.0 91:0.0 92:0.0 93:0.0 94:0.017921146953405017 95:0.007168458781362007 96:0.0 97:0.0 98:0.0 99:0.0 100:0.0 101:0.0 102:0.0 103:0.0 104:0.0 105:0.0035842293906810036 106:0.0 107:0.0 108:0.0 109:0.0 110:0.0 111:0.0 112:0.0 113:0.0 114:0.0 115:0.0 116:0.0 117:0.0 118:0.0 119:0.0 120:0.0 121:0.0 122:0.0 123:0.0 124:0.0 125:0.0035842293906810036 126:0.0 127:0.014336917562724014 128:0.0 129:0.0 130:0.0 131:0.0 132:0.025089605734767026 133:0.0 134:0.0 135:0.014336917562724014 136:0.0035842293906810036 137:0.0 138:0.0 139:0.0 140:0.007168458781362007 141:0.0 142:0.0 143:0.0 144:0.0 145:0.0 146:0.0 147:0.0 148:0.0 149:0.0 150:0.0 151:0.0 152:0.0 153:0.0 154:0.0 155:0.0 156:0.007168458781362007 157:0.0 158:0.0 159:0.0 160:0.0 
1.0 1:0.017006802721088437 2:0.006802721088435374 3:0.0 4:0.0 5:0.006802721088435374 6:0.0 7:0.0 8:0.0 9:0.0 10:0.0 11:0.0 12:0.0 13:0.0 14:0.0 15:0.0 16:0.0 17:0.003401360544217687 18:0.0 19:0.0 20:0.0 21:0.0 22:0.0 23:0.0 24:0.0 25:0.0 26:0.0 27:0.003401360544217687 28:0.0 29:0.0 30:0.0 31:0.003401360544217687 32:0.0 33:0.0 34:0.0 35:0.003401360544217687 36:0.0 37:0.0 38:0.0 39:0.0 40:0.0 41:0.0 42:0.0 43:0.0 44:0.0 45:0.003401360544217687 46:0.0 47:0.0 48:0.0 49:0.0 50:0.0 51:0.0 52:0.0 53:0.0 54:0.030612244897959183 55:0.006802721088435374 56:0.006802721088435374 57:0.003401360544217687 58:0.0 59:0.0 60:0.0 61:0.003401360544217687 62:0.0 63:0.0 64:0.003401360544217687 65:0.0 66:0.0 67:0.003401360544217687 68:0.0 69:0.0 70:0.003401360544217687 71:0.0 72:0.0 73:0.003401360544217687 74:0.0 75:0.0 76:0.0 77:0.782312925170068 78:0.006802721088435374 79:0.0 80:0.0 81:0.0 82:0.0 83:0.006802721088435374 84:0.003401360544217687 85:0.0 86:0.003401360544217687 87:0.0 88:0.0 89:0.0 90:0.0 91:0.0 92:0.0 93:0.0 94:0.003401360544217687 95:0.0 96:0.006802721088435374 97:0.0 98:0.0 99:0.0 100:0.0 101:0.0 102:0.0 103:0.0 104:0.0 105:0.006802721088435374 106:0.0 107:0.0 108:0.003401360544217687 109:0.0 110:0.0 111:0.0 112:0.0 113:0.0 114:0.0 115:0.0 116:0.0 117:0.0 118:0.003401360544217687 119:0.0 120:0.0 121:0.0 122:0.0 123:0.0 124:0.0 125:0.003401360544217687 126:0.0 127:0.0 128:0.0 129:0.0 130:0.0 131:0.0 132:0.01020408163265306 133:0.0 134:0.006802721088435374 135:0.003401360544217687 136:0.003401360544217687 137:0.0 138:0.003401360544217687 139:0.0 140:0.0 141:0.01020408163265306 142:0.0 143:0.0 144:0.0 145:0.003401360544217687 146:0.003401360544217687 147:0.0 148:0.0 149:0.0 150:0.0 151:0.0 152:0.003401360544217687 153:0.0 154:0.003401360544217687 155:0.0 156:0.006802721088435374 157:0.0 158:0.0 159:0.0 160:0.0 
1.0 1:0.0045045045045045045 2:0.01126126126126126 3:0.0 4:0.0 5:0.0022522522522522522 6:0.0 7:0.0 8:0.0 9:0.0 10:0.0 11:0.0 12:0.0022522522522522522 13:0.0 14:0.0 15:0.0 16:0.0045045045045045045 17:0.0045045045045045045 18:0.0 19:0.0 20:0.009009009009009009 21:0.0 22:0.0 23:0.0022522522522522522 24:0.0 25:0.0022522522522522522 26:0.006756756756756757 27:0.006756756756756757 28:0.0 29:0.0 30:0.0 31:0.006756756756756757 32:0.0022522522522522522 33:0.0 34:0.0 35:0.060810810810810814 36:0.0 37:0.0 38:0.0 39:0.0 40:0.0022522522522522522 41:0.0 42:0.0 43:0.0 44:0.0 45:0.0 46:0.0022522522522522522 47:0.0 48:0.0 49:0.0 50:0.0022522522522522522 51:0.0 52:0.0 53:0.0022522522522522522 54:0.018018018018018018 55:0.006756756756756757 56:0.0 57:0.0 58:0.0 59:0.0 60:0.0 61:0.0022522522522522522 62:0.0 63:0.006756756756756757 64:0.013513513513513514 65:0.0022522522522522522 66:0.0045045045045045045 67:0.0 68:0.02252252252252252 69:0.02027027027027027 70:0.009009009009009009 71:0.0 72:0.0 73:0.0045045045045045045 74:0.0022522522522522522 75:0.0022522522522522522 76:0.0022522522522522522 77:0.47072072072072074 78:0.009009009009009009 79:0.0 80:0.0 81:0.0022522522522522522 82:0.0 83:0.018018018018018018 84:0.015765765765765764 85:0.0 86:0.015765765765765764 87:0.0 88:0.0 89:0.0 90:0.0 91:0.0 92:0.0 93:0.0 94:0.009009009009009009 95:0.01126126126126126 96:0.006756756756756757 97:0.0 98:0.0 99:0.0 100:0.0022522522522522522 101:0.009009009009009009 102:0.0 103:0.0 104:0.0045045045045045045 105:0.0 106:0.0 107:0.0 108:0.0 109:0.0 110:0.0 111:0.0 112:0.0 113:0.0 114:0.013513513513513514 115:0.0 116:0.0 117:0.0 118:0.006756756756756757 119:0.0 120:0.0 121:0.0 122:0.0 123:0.0 124:0.0022522522522522522 125:0.0 126:0.0045045045045045045 127:0.01126126126126126 128:0.0 129:0.0 130:0.0022522522522522522 131:0.0 132:0.02702702702702703 133:0.0 134:0.01126126126126126 135:0.0022522522522522522 136:0.0 137:0.009009009009009009 138:0.0022522522522522522 139:0.0 140:0.0 141:0.009009009009009009 142:0.0 143:0.0 144:0.0 145:0.0045045045045045045 146:0.0022522522522522522 147:0.01126126126126126 148:0.009009009009009009 149:0.0 150:0.0 151:0.0 152:0.01126126126126126 153:0.0 154:0.0022522522522522522 155:0.0022522522522522522 156:0.015765765765765764 157:0.0 158:0.0 159:0.0045045045045045045 160:0.009009009009009009 
1.0 1:0.0 2:0.01056338028169014 3:0.0 4:0.0 5:0.0 6:0.0 7:0.0 8:0.0 9:0.0 10:0.0 11:0.0 12:0.0 13:0.0 14:0.00528169014084507 15:0.0 16:0.0 17:0.0035211267605633804 18:0.0 19:0.0 20:0.00528169014084507 21:0.0 22:0.0 23:0.0017605633802816902 24:0.0 25:0.0017605633802816902 26:0.00528169014084507 27:0.007042253521126761 28:0.0 29:0.0 30:0.0 31:0.007042253521126761 32:0.0017605633802816902 33:0.0 34:0.0 35:0.04929577464788732 36:0.0 37:0.0 38:0.0 39:0.0 40:0.0035211267605633804 41:0.0 42:0.0 43:0.0 44:0.0 45:0.0 46:0.0 47:0.0 48:0.0 49:0.0 50:0.0035211267605633804 51:0.0 52:0.0 53:0.0035211267605633804 54:0.056338028169014086 55:0.0035211267605633804 56:0.0017605633802816902 57:0.0 58:0.0 59:0.0 60:0.0 61:0.0017605633802816902 62:0.0 63:0.0035211267605633804 64:0.01232394366197183 65:0.0017605633802816902 66:0.0035211267605633804 67:0.0 68:0.017605633802816902 69:0.017605633802816902 70:0.007042253521126761 71:0.0 72:0.0 73:0.0035211267605633804 74:0.0017605633802816902 75:0.0035211267605633804 76:0.0017605633802816902 77:0.5704225352112676 78:0.007042253521126761 79:0.0 80:0.0 81:0.0017605633802816902 82:0.0 83:0.014084507042253521 84:0.008802816901408451 85:0.0 86:0.008802816901408451 87:0.0 88:0.0 89:0.0 90:0.0 91:0.0 92:0.0 93:0.0 94:0.008802816901408451 95:0.0017605633802816902 96:0.007042253521126761 97:0.0 98:0.0 99:0.0 100:0.0035211267605633804 101:0.007042253521126761 102:0.0 103:0.0 104:0.0035211267605633804 105:0.0 106:0.0 107:0.0 108:0.0 109:0.0 110:0.0 111:0.0 112:0.0 113:0.0 114:0.008802816901408451 115:0.0 116:0.0 117:0.0 118:0.007042253521126761 119:0.0 120:0.0 121:0.0 122:0.0 123:0.0 124:0.0017605633802816902 125:0.0 126:0.0017605633802816902 127:0.00528169014084507 128:0.0 129:0.0 130:0.0 131:0.0 132:0.01232394366197183 133:0.0 134:0.007042253521126761 135:0.0017605633802816902 136:0.0 137:0.00528169014084507 138:0.0017605633802816902 139:0.0 140:0.0 141:0.008802816901408451 142:0.0 143:0.0 144:0.0 145:0.0017605633802816902 146:0.0017605633802816902 147:0.008802816901408451 148:0.00528169014084507 149:0.0 150:0.0 151:0.0 152:0.007042253521126761 153:0.0 154:0.0017605633802816902 155:0.0 156:0.01056338028169014 157:0.0 158:0.0 159:0.00528169014084507 160:0.007042253521126761 
1.0 1:0.0 2:0.0 3:0.0 4:0.0 5:0.0 6:0.0 7:0.0 8:0.0 9:0.0 10:0.0 11:0.0 12:0.0 13:0.0 14:0.0047169811320754715 15:0.0 16:0.0 17:0.0047169811320754715 18:0.0 19:0.0 20:0.0 21:0.0 22:0.0 23:0.0 24:0.0 25:0.0047169811320754715 26:0.0 27:0.0 28:0.0 29:0.0 30:0.0 31:0.0 32:0.0 33:0.0 34:0.0 35:0.0047169811320754715 36:0.0 37:0.0 38:0.0 39:0.0 40:0.0 41:0.0 42:0.0 43:0.0 44:0.0047169811320754715 45:0.0047169811320754715 46:0.0 47:0.0 48:0.0 49:0.0 50:0.0 51:0.0 52:0.0 53:0.0 54:0.0330188679245283 55:0.0 56:0.0 57:0.0 58:0.0 59:0.0 60:0.0 61:0.0 62:0.0 63:0.014150943396226415 64:0.0 65:0.0 66:0.0047169811320754715 67:0.0 68:0.0 69:0.0 70:0.0 71:0.0 72:0.0 73:0.0 74:0.0 75:0.0047169811320754715 76:0.0 77:0.7971698113207547 78:0.0047169811320754715 79:0.0 80:0.0 81:0.0 82:0.0 83:0.0 84:0.0 85:0.0 86:0.0047169811320754715 87:0.0047169811320754715 88:0.0 89:0.0 90:0.0 91:0.0 92:0.0 93:0.0 94:0.009433962264150943 95:0.0047169811320754715 96:0.009433962264150943 97:0.009433962264150943 98:0.0 99:0.0 100:0.0 101:0.0 102:0.0 103:0.0 104:0.0 105:0.009433962264150943 106:0.0 107:0.0047169811320754715 108:0.0 109:0.0 110:0.0 111:0.0 112:0.0 113:0.0 114:0.0 115:0.0 116:0.0 117:0.0 118:0.009433962264150943 119:0.0 120:0.0 121:0.0 122:0.0 123:0.0 124:0.0047169811320754715 125:0.0 126:0.0 127:0.0 128:0.0 129:0.0 130:0.0 131:0.0 132:0.009433962264150943 133:0.0 134:0.0 135:0.0047169811320754715 136:0.0047169811320754715 137:0.0047169811320754715 138:0.0 139:0.0 140:0.0 141:0.0047169811320754715 142:0.0 143:0.0 144:0.0 145:0.0047169811320754715 146:0.0 147:0.0 148:0.0 149:0.0 150:0.0 151:0.0 152:0.0047169811320754715 153:0.0 154:0.0 155:0.0 156:0.0047169811320754715 157:0.0 158:0.0 159:0.0 160:0.0 
1.0 1:0.0 2:0.0023094688221709007 3:0.0 4:0.0 5:0.004618937644341801 6:0.0 7:0.0 8:0.0 9:0.0 10:0.0 11:0.0 12:0.0 13:0.0 14:0.0 15:0.0 16:0.0 17:0.004618937644341801 18:0.0 19:0.0 20:0.016166281755196306 21:0.0 22:0.0 23:0.0 24:0.0 25:0.0 26:0.0 27:0.006928406466512702 28:0.0 29:0.0 30:0.0 31:0.0 32:0.0 33:0.0 34:0.0 35:0.0023094688221709007 36:0.0 37:0.0 38:0.0 39:0.0 40:0.0 41:0.0 42:0.0 43:0.0 44:0.006928406466512702 45:0.0 46:0.0023094688221709007 47:0.0 48:0.0 49:0.0 50:0.0 51:0.0 52:0.0 53:0.0 54:0.09237875288683603 55:0.004618937644341801 56:0.004618937644341801 57:0.0 58:0.0 59:0.0 60:0.0 61:0.004618937644341801 62:0.0023094688221709007 63:0.0023094688221709007 64:0.0 65:0.0 66:0.0 67:0.0 68:0.0023094688221709007 69:0.0023094688221709007 70:0.0 71:0.0 72:0.0 73:0.0 74:0.0 75:0.0 76:0.0 77:0.7159353348729792 78:0.0 79:0.0 80:0.0 81:0.0 82:0.0 83:0.0 84:0.0023094688221709007 85:0.0 86:0.013856812933025405 87:0.0 88:0.0 89:0.0 90:0.0 91:0.0 92:0.0 93:0.0 94:0.0 95:0.006928406466512702 96:0.0023094688221709007 97:0.0 98:0.0 99:0.0 100:0.0 101:0.004618937644341801 102:0.0 103:0.0 104:0.0 105:0.0 106:0.0 107:0.0 108:0.0 109:0.0 110:0.0 111:0.0 112:0.0 113:0.0 114:0.0 115:0.0 116:0.0 117:0.0 118:0.0 119:0.0 120:0.0 121:0.0 122:0.0 123:0.0 124:0.0023094688221709007 125:0.0 126:0.0 127:0.009237875288683603 128:0.0 129:0.0 130:0.0023094688221709007 131:0.0 132:0.02771362586605081 133:0.0 134:0.004618937644341801 135:0.0 136:0.009237875288683603 137:0.0 138:0.0 139:0.0 140:0.0 141:0.0023094688221709007 142:0.0 143:0.0 144:0.0 145:0.0 146:0.009237875288683603 147:0.0 148:0.0 149:0.0 150:0.0 151:0.0 152:0.004618937644341801 153:0.0 154:0.009237875288683603 155:0.0 156:0.011547344110854504 157:0.0 158:0.0 159:0.0 160:0.0 
1.0 1:0.0 2:0.011152416356877323 3:0.0 4:0.0 5:0.0 6:0.0 7:0.0 8:0.0 9:0.0 10:0.0 11:0.0 12:0.0 13:0.0 14:0.0055762081784386614 15:0.0 16:0.0 17:0.0037174721189591076 18:0.0 19:0.0 20:0.0055762081784386614 21:0.0 22:0.0 23:0.0018587360594795538 24:0.0 25:0.0018587360594795538 26:0.0055762081784386614 27:0.007434944237918215 28:0.0 29:0.0 30:0.0 31:0.007434944237918215 32:0.0018587360594795538 33:0.0 34:0.0 35:0.05204460966542751 36:0.0 37:0.0 38:0.0 39:0.0 40:0.0037174721189591076 41:0.0 42:0.0 43:0.0 44:0.0 45:0.0 46:0.0 47:0.0 48:0.0 49:0.0 50:0.0037174721189591076 51:0.0 52:0.0 53:0.0037174721189591076 54:0.05947955390334572 55:0.0037174721189591076 56:0.0018587360594795538 57:0.0 58:0.0 59:0.0 60:0.0 61:0.0018587360594795538 62:0.0 63:0.0037174721189591076 64:0.013011152416356878 65:0.0018587360594795538 66:0.0037174721189591076 67:0.0 68:0.01858736059479554 69:0.01858736059479554 70:0.007434944237918215 71:0.0 72:0.0 73:0.0037174721189591076 74:0.0018587360594795538 75:0.0037174721189591076 76:0.0018587360594795538 77:0.5464684014869888 78:0.007434944237918215 79:0.0 80:0.0 81:0.0018587360594795538 82:0.0 83:0.01486988847583643 84:0.00929368029739777 85:0.0 86:0.00929368029739777 87:0.0 88:0.0 89:0.0 90:0.0 91:0.0 92:0.0 93:0.0 94:0.00929368029739777 95:0.0018587360594795538 96:0.007434944237918215 97:0.0 98:0.0 99:0.0 100:0.0037174721189591076 101:0.007434944237918215 102:0.0 103:0.0 104:0.0037174721189591076 105:0.0 106:0.0 107:0.0 108:0.0 109:0.0 110:0.0 111:0.0 112:0.0 113:0.0 114:0.00929368029739777 115:0.0 116:0.0 117:0.0 118:0.007434944237918215 119:0.0 120:0.0 121:0.0 122:0.0 123:0.0 124:0.0018587360594795538 125:0.0 126:0.0018587360594795538 127:0.0055762081784386614 128:0.0 129:0.0 130:0.0 131:0.0 132:0.013011152416356878 133:0.0 134:0.007434944237918215 135:0.0018587360594795538 136:0.0 137:0.0055762081784386614 138:0.0018587360594795538 139:0.0 140:0.0 141:0.00929368029739777 142:0.0 143:0.0 144:0.0 145:0.0018587360594795538 146:0.0018587360594795538 147:0.00929368029739777 148:0.0055762081784386614 149:0.0 150:0.0 151:0.0 152:0.007434944237918215 153:0.0 154:0.0018587360594795538 155:0.0 156:0.011152416356877323 157:0.0 158:0.0 159:0.0055762081784386614 160:0.007434944237918215 
1.0 1:0.0034129692832764505 2:0.0034129692832764505 3:0.0 4:0.0034129692832764505 5:0.0 6:0.0 7:0.0034129692832764505 8:0.0 9:0.0 10:0.0 11:0.0 12:0.0 13:0.0 14:0.0 15:0.0 16:0.0 17:0.0 18:0.0 19:0.0 20:0.0034129692832764505 21:0.0 22:0.0 23:0.0 24:0.0 25:0.0034129692832764505 26:0.006825938566552901 27:0.0034129692832764505 28:0.0 29:0.0034129692832764505 30:0.0 31:0.0 32:0.0 33:0.0 34:0.0 35:0.017064846416382253 36:0.0 37:0.0 38:0.0 39:0.0034129692832764505 40:0.0034129692832764505 41:0.0 42:0.0 43:0.0 44:0.006825938566552901 45:0.0 46:0.0 47:0.0 48:0.0 49:0.0 50:0.006825938566552901 51:0.0 52:0.0 53:0.010238907849829351 54:0.013651877133105802 55:0.0034129692832764505 56:0.0034129692832764505 57:0.0 58:0.0 59:0.0 60:0.0034129692832764505 61:0.0 62:0.0 63:0.006825938566552901 64:0.0 65:0.0 66:0.0 67:0.0034129692832764505 68:0.0 69:0.006825938566552901 70:0.0 71:0.0 72:0.0 73:0.0034129692832764505 74:0.0 75:0.0 76:0.0 77:0.7610921501706485 78:0.0034129692832764505 79:0.0 80:0.0 81:0.0034129692832764505 82:0.0 83:0.0 84:0.006825938566552901 85:0.0 86:0.006825938566552901 87:0.0 88:0.0034129692832764505 89:0.0 90:0.0 91:0.0 92:0.0 93:0.0 94:0.0034129692832764505 95:0.0 96:0.010238907849829351 97:0.0 98:0.0 99:0.0 100:0.0 101:0.0034129692832764505 102:0.0 103:0.0 104:0.0 105:0.0034129692832764505 106:0.0 107:0.0 108:0.0 109:0.0 110:0.0 111:0.0 112:0.0034129692832764505 113:0.0 114:0.0 115:0.0 116:0.0 117:0.0 118:0.0 119:0.0 120:0.0 121:0.0 122:0.0 123:0.0 124:0.006825938566552901 125:0.0 126:0.0 127:0.0034129692832764505 128:0.0 129:0.0 130:0.0 131:0.0 132:0.006825938566552901 133:0.0 134:0.0034129692832764505 135:0.006825938566552901 136:0.010238907849829351 137:0.0 138:0.0034129692832764505 139:0.0 140:0.0 141:0.0 142:0.0 143:0.0034129692832764505 144:0.0 145:0.006825938566552901 146:0.0034129692832764505 147:0.0034129692832764505 148:0.0 149:0.0 150:0.0 151:0.0 152:0.0034129692832764505 153:0.0 154:0.0 155:0.0 156:0.0034129692832764505 157:0.0 158:0.0 159:0.0 160:0.0 
1.0 1:0.003367003367003367 2:0.0 3:0.0 4:0.003367003367003367 5:0.0 6:0.0 7:0.0 8:0.0 9:0.0 10:0.0 11:0.0 12:0.003367003367003367 13:0.0 14:0.006734006734006734 15:0.0 16:0.0 17:0.003367003367003367 18:0.003367003367003367 19:0.0 20:0.003367003367003367 21:0.0 22:0.0 23:0.003367003367003367 24:0.0 25:0.0 26:0.0 27:0.003367003367003367 28:0.0 29:0.0 30:0.0 31:0.003367003367003367 32:0.0 33:0.0 34:0.0 35:0.006734006734006734 36:0.0 37:0.0 38:0.0 39:0.0 40:0.0 41:0.0 42:0.0 43:0.0 44:0.006734006734006734 45:0.0 46:0.0 47:0.0 48:0.0 49:0.0 50:0.003367003367003367 51:0.0 52:0.0 53:0.0 54:0.04040404040404041 55:0.0 56:0.0 57:0.0 58:0.0 59:0.0 60:0.003367003367003367 61:0.003367003367003367 62:0.003367003367003367 63:0.016835016835016835 64:0.0 65:0.0 66:0.0 67:0.0 68:0.0 69:0.0 70:0.0 71:0.0 72:0.0 73:0.0 74:0.0 75:0.003367003367003367 76:0.0 77:0.7575757575757576 78:0.0 79:0.0 80:0.0 81:0.0 82:0.0 83:0.003367003367003367 84:0.003367003367003367 85:0.0 86:0.0 87:0.003367003367003367 88:0.0 89:0.0 90:0.0 91:0.0 92:0.0 93:0.0 94:0.003367003367003367 95:0.003367003367003367 96:0.003367003367003367 97:0.0 98:0.0 99:0.0 100:0.003367003367003367 101:0.003367003367003367 102:0.0 103:0.0 104:0.0 105:0.003367003367003367 106:0.0 107:0.0 108:0.006734006734006734 109:0.0 110:0.0 111:0.0 112:0.003367003367003367 113:0.0 114:0.0 115:0.0 116:0.0 117:0.0 118:0.0 119:0.0 120:0.0 121:0.0 122:0.0 123:0.0 124:0.003367003367003367 125:0.003367003367003367 126:0.003367003367003367 127:0.010101010101010102 128:0.0 129:0.0 130:0.003367003367003367 131:0.0 132:0.013468013468013467 133:0.0 134:0.006734006734006734 135:0.006734006734006734 136:0.006734006734006734 137:0.0 138:0.003367003367003367 139:0.0 140:0.0 141:0.0 142:0.0 143:0.0 144:0.0 145:0.003367003367003367 146:0.006734006734006734 147:0.0 148:0.0 149:0.0 150:0.0 151:0.0 152:0.0 153:0.0 154:0.0 155:0.0 156:0.0 157:0.0 158:0.0 159:0.003367003367003367 160:0.003367003367003367 
1.0 1:0.002967359050445104 2:0.0 3:0.0 4:0.002967359050445104 5:0.002967359050445104 6:0.0 7:0.0 8:0.0 9:0.0 10:0.002967359050445104 11:0.0 12:0.0 13:0.0 14:0.0 15:0.0 16:0.0 17:0.005934718100890208 18:0.0 19:0.0 20:0.02373887240356083 21:0.0 22:0.0 23:0.0 24:0.0 25:0.0 26:0.005934718100890208 27:0.002967359050445104 28:0.0 29:0.002967359050445104 30:0.0 31:0.0 32:0.002967359050445104 33:0.0 34:0.0 35:0.008902077151335312 36:0.0 37:0.0 38:0.0 39:0.0 40:0.0 41:0.0 42:0.0 43:0.0 44:0.008902077151335312 45:0.0 46:0.002967359050445104 47:0.0 48:0.0 49:0.0 50:0.0 51:0.0 52:0.0 53:0.0 54:0.01483679525222552 55:0.002967359050445104 56:0.0 57:0.0 58:0.0 59:0.0 60:0.0 61:0.0 62:0.0 63:0.002967359050445104 64:0.002967359050445104 65:0.0 66:0.002967359050445104 67:0.0 68:0.0 69:0.002967359050445104 70:0.005934718100890208 71:0.0 72:0.0 73:0.0 74:0.002967359050445104 75:0.002967359050445104 76:0.0 77:0.7270029673590505 78:0.002967359050445104 79:0.0 80:0.0 81:0.0 82:0.0 83:0.0 84:0.008902077151335312 85:0.0 86:0.005934718100890208 87:0.0 88:0.0 89:0.0 90:0.0 91:0.0 92:0.0 93:0.0 94:0.005934718100890208 95:0.002967359050445104 96:0.005934718100890208 97:0.0 98:0.0 99:0.0 100:0.0 101:0.002967359050445104 102:0.0 103:0.0 104:0.002967359050445104 105:0.0 106:0.0 107:0.0 108:0.0 109:0.0 110:0.0 111:0.0 112:0.0 113:0.0 114:0.002967359050445104 115:0.0 116:0.0 117:0.0 118:0.0 119:0.002967359050445104 120:0.0 121:0.0 122:0.0 123:0.0 124:0.0 125:0.0 126:0.002967359050445104 127:0.005934718100890208 128:0.0 129:0.0 130:0.002967359050445104 131:0.0 132:0.008902077151335312 133:0.0 134:0.005934718100890208 135:0.0 136:0.020771513353115726 137:0.005934718100890208 138:0.002967359050445104 139:0.0 140:0.002967359050445104 141:0.005934718100890208 142:0.0 143:0.0 144:0.0 145:0.002967359050445104 146:0.01483679525222552 147:0.002967359050445104 148:0.002967359050445104 149:0.0 150:0.0 151:0.0 152:0.0 153:0.0 154:0.011869436201780416 155:0.0 156:0.002967359050445104 157:0.0 158:0.0 159:0.005934718100890208 160:0.0 
1.0 1:0.0 2:0.0091324200913242 3:0.0 4:0.0 5:0.0136986301369863 6:0.0 7:0.0 8:0.0 9:0.0 10:0.0 11:0.0 12:0.0045662100456621 13:0.0 14:0.0 15:0.0 16:0.0 17:0.0045662100456621 18:0.0 19:0.0 20:0.0 21:0.0 22:0.0 23:0.0 24:0.0 25:0.0 26:0.0045662100456621 27:0.0 28:0.0 29:0.0 30:0.0 31:0.0 32:0.0 33:0.0 34:0.0 35:0.0 36:0.0 37:0.0 38:0.0 39:0.0 40:0.0 41:0.0 42:0.0 43:0.0 44:0.0045662100456621 45:0.0 46:0.0 47:0.0 48:0.0 49:0.0 50:0.0045662100456621 51:0.0 52:0.0 53:0.0 54:0.0867579908675799 55:0.0045662100456621 56:0.0045662100456621 57:0.0 58:0.0 59:0.0 60:0.0 61:0.0045662100456621 62:0.0 63:0.0 64:0.0 65:0.0 66:0.0 67:0.0 68:0.0 69:0.0 70:0.0 71:0.0 72:0.0 73:0.0 74:0.0 75:0.0 76:0.0045662100456621 77:0.8082191780821918 78:0.0 79:0.0 80:0.0 81:0.0 82:0.0 83:0.0091324200913242 84:0.0 85:0.0 86:0.0045662100456621 87:0.0 88:0.0 89:0.0 90:0.0 91:0.0 92:0.0 93:0.0 94:0.0045662100456621 95:0.0 96:0.0 97:0.0 98:0.0 99:0.0 100:0.0 101:0.0 102:0.0 103:0.0 104:0.0 105:0.0045662100456621 106:0.0 107:0.0 108:0.0 109:0.0 110:0.0 111:0.0 112:0.0 113:0.0 114:0.0 115:0.0 116:0.0 117:0.0 118:0.0 119:0.0 120:0.0 121:0.0 122:0.0 123:0.0 124:0.0 125:0.0 126:0.0 127:0.0045662100456621 128:0.0 129:0.0 130:0.0045662100456621 131:0.0 132:0.0 133:0.0 134:0.0045662100456621 135:0.0 136:0.0 137:0.0 138:0.0 139:0.0 140:0.0 141:0.0 142:0.0 143:0.0 144:0.0 145:0.0 146:0.0 147:0.0 148:0.0045662100456621 149:0.0 150:0.0 151:0.0 152:0.0 153:0.0 154:0.0 155:0.0 156:0.0 157:0.0 158:0.0 159:0.0 160:0.0 
1.0 1:0.0 2:0.0 3:0.0 4:0.0029585798816568047 5:0.026627218934911243 6:0.0 7:0.0 8:0.0 9:0.0 10:0.0 11:0.0 12:0.0 13:0.0 14:0.005917159763313609 15:0.0 16:0.0 17:0.0029585798816568047 18:0.0 19:0.0 20:0.0029585798816568047 21:0.0 22:0.0 23:0.0 24:0.0 25:0.0 26:0.0029585798816568047 27:0.0029585798816568047 28:0.0 29:0.0 30:0.0 31:0.0 32:0.0029585798816568047 33:0.0 34:0.0 35:0.014792899408284023 36:0.0 37:0.0 38:0.0 39:0.0 40:0.0 41:0.0 42:0.0 43:0.0 44:0.0 45:0.0 46:0.0029585798816568047 47:0.0 48:0.0 49:0.0 50:0.0 51:0.0 52:0.0 53:0.005917159763313609 54:0.05029585798816568 55:0.0029585798816568047 56:0.0029585798816568047 57:0.008875739644970414 58:0.0 59:0.0 60:0.0 61:0.0029585798816568047 62:0.0 63:0.0029585798816568047 64:0.0 65:0.0 66:0.0 67:0.0029585798816568047 68:0.0029585798816568047 69:0.0 70:0.0 71:0.0 72:0.0 73:0.0 74:0.008875739644970414 75:0.0029585798816568047 76:0.0 77:0.6627218934911243 78:0.0029585798816568047 79:0.0 80:0.0 81:0.0 82:0.0 83:0.0 84:0.005917159763313609 85:0.0 86:0.0029585798816568047 87:0.0 88:0.014792899408284023 89:0.0 90:0.0 91:0.0 92:0.0 93:0.0 94:0.005917159763313609 95:0.0 96:0.0029585798816568047 97:0.0029585798816568047 98:0.0 99:0.0 100:0.0 101:0.0 102:0.0 103:0.0 104:0.0 105:0.0 106:0.0 107:0.0 108:0.0 109:0.0 110:0.0 111:0.0 112:0.0 113:0.0 114:0.0 115:0.0 116:0.0 117:0.0029585798816568047 118:0.020710059171597635 119:0.0 120:0.0029585798816568047 121:0.0 122:0.0 123:0.0 124:0.0029585798816568047 125:0.0 126:0.0 127:0.008875739644970414 128:0.0 129:0.0 130:0.0 131:0.0 132:0.029585798816568046 133:0.0 134:0.0029585798816568047 135:0.0029585798816568047 136:0.0029585798816568047 137:0.0 138:0.0 139:0.0029585798816568047 140:0.0 141:0.005917159763313609 142:0.0 143:0.005917159763313609 144:0.0 145:0.005917159763313609 146:0.0029585798816568047 147:0.008875739644970414 148:0.0 149:0.0 150:0.0 151:0.0 152:0.0029585798816568047 153:0.0 154:0.0 155:0.0 156:0.020710059171597635 157:0.0 158:0.0 159:0.0 160:0.0029585798816568047 
1.0 1:0.002136752136752137 2:0.01282051282051282 3:0.0 4:0.0 5:0.004273504273504274 6:0.002136752136752137 7:0.0 8:0.0 9:0.0 10:0.0 11:0.0 12:0.0 13:0.0 14:0.0 15:0.0 16:0.0 17:0.004273504273504274 18:0.0 19:0.0 20:0.00641025641025641 21:0.0 22:0.0 23:0.002136752136752137 24:0.0 25:0.004273504273504274 26:0.004273504273504274 27:0.004273504273504274 28:0.0 29:0.002136752136752137 30:0.0 31:0.004273504273504274 32:0.002136752136752137 33:0.0 34:0.0 35:0.06623931623931624 36:0.0 37:0.0 38:0.0 39:0.0 40:0.0 41:0.0 42:0.0 43:0.0 44:0.0 45:0.0 46:0.002136752136752137 47:0.0 48:0.0 49:0.0 50:0.002136752136752137 51:0.0 52:0.0 53:0.002136752136752137 54:0.0641025641025641 55:0.01282051282051282 56:0.002136752136752137 57:0.002136752136752137 58:0.0 59:0.0 60:0.0 61:0.002136752136752137 62:0.0 63:0.010683760683760684 64:0.00641025641025641 65:0.002136752136752137 66:0.002136752136752137 67:0.0 68:0.01282051282051282 69:0.010683760683760684 70:0.004273504273504274 71:0.0 72:0.0 73:0.004273504273504274 74:0.002136752136752137 75:0.00641025641025641 76:0.00641025641025641 77:0.452991452991453 78:0.00641025641025641 79:0.0 80:0.0 81:0.002136752136752137 82:0.0 83:0.021367521367521368 84:0.010683760683760684 85:0.0 86:0.002136752136752137 87:0.0 88:0.002136752136752137 89:0.0 90:0.0 91:0.0 92:0.0 93:0.0 94:0.01282051282051282 95:0.01282051282051282 96:0.010683760683760684 97:0.0 98:0.0 99:0.0 100:0.002136752136752137 101:0.002136752136752137 102:0.0 103:0.0 104:0.00641025641025641 105:0.0 106:0.0 107:0.0 108:0.0 109:0.0 110:0.0 111:0.0 112:0.0 113:0.0 114:0.010683760683760684 115:0.0 116:0.0 117:0.0 118:0.008547008547008548 119:0.0 120:0.0 121:0.0 122:0.0 123:0.0 124:0.002136752136752137 125:0.0 126:0.002136752136752137 127:0.023504273504273504 128:0.0 129:0.0 130:0.004273504273504274 131:0.0 132:0.017094017094017096 133:0.0 134:0.01282051282051282 135:0.002136752136752137 136:0.0 137:0.004273504273504274 138:0.002136752136752137 139:0.002136752136752137 140:0.0 141:0.01282051282051282 142:0.0 143:0.0 144:0.0 145:0.002136752136752137 146:0.004273504273504274 147:0.00641025641025641 148:0.002136752136752137 149:0.002136752136752137 150:0.0 151:0.0 152:0.027777777777777776 153:0.0 154:0.00641025641025641 155:0.0 156:0.00641025641025641 157:0.0 158:0.0 159:0.008547008547008548 160:0.004273504273504274 
1.0 1:0.002136752136752137 2:0.01282051282051282 3:0.0 4:0.0 5:0.004273504273504274 6:0.002136752136752137 7:0.0 8:0.0 9:0.0 10:0.0 11:0.0 12:0.0 13:0.0 14:0.0 15:0.0 16:0.0 17:0.004273504273504274 18:0.0 19:0.0 20:0.00641025641025641 21:0.0 22:0.0 23:0.002136752136752137 24:0.0 25:0.004273504273504274 26:0.004273504273504274 27:0.004273504273504274 28:0.0 29:0.002136752136752137 30:0.0 31:0.004273504273504274 32:0.002136752136752137 33:0.0 34:0.0 35:0.06623931623931624 36:0.0 37:0.0 38:0.0 39:0.0 40:0.0 41:0.0 42:0.0 43:0.0 44:0.0 45:0.0 46:0.002136752136752137 47:0.0 48:0.0 49:0.0 50:0.002136752136752137 51:0.0 52:0.0 53:0.002136752136752137 54:0.0641025641025641 55:0.01282051282051282 56:0.002136752136752137 57:0.002136752136752137 58:0.0 59:0.0 60:0.0 61:0.002136752136752137 62:0.0 63:0.010683760683760684 64:0.00641025641025641 65:0.002136752136752137 66:0.002136752136752137 67:0.0 68:0.01282051282051282 69:0.010683760683760684 70:0.004273504273504274 71:0.0 72:0.0 73:0.004273504273504274 74:0.002136752136752137 75:0.00641025641025641 76:0.00641025641025641 77:0.452991452991453 78:0.00641025641025641 79:0.0 80:0.0 81:0.002136752136752137 82:0.0 83:0.021367521367521368 84:0.010683760683760684 85:0.0 86:0.002136752136752137 87:0.0 88:0.002136752136752137 89:0.0 90:0.0 91:0.0 92:0.0 93:0.0 94:0.01282051282051282 95:0.01282051282051282 96:0.010683760683760684 97:0.0 98:0.0 99:0.0 100:0.002136752136752137 101:0.002136752136752137 102:0.0 103:0.0 104:0.00641025641025641 105:0.0 106:0.0 107:0.0 108:0.0 109:0.0 110:0.0 111:0.0 112:0.0 113:0.0 114:0.010683760683760684 115:0.0 116:0.0 117:0.0 118:0.008547008547008548 119:0.0 120:0.0 121:0.0 122:0.0 123:0.0 124:0.002136752136752137 125:0.0 126:0.002136752136752137 127:0.023504273504273504 128:0.0 129:0.0 130:0.004273504273504274 131:0.0 132:0.017094017094017096 133:0.0 134:0.01282051282051282 135:0.002136752136752137 136:0.0 137:0.004273504273504274 138:0.002136752136752137 139:0.002136752136752137 140:0.0 141:0.01282051282051282 142:0.0 143:0.0 144:0.0 145:0.002136752136752137 146:0.004273504273504274 147:0.00641025641025641 148:0.002136752136752137 149:0.002136752136752137 150:0.0 151:0.0 152:0.027777777777777776 153:0.0 154:0.00641025641025641 155:0.0 156:0.00641025641025641 157:0.0 158:0.0 159:0.008547008547008548 160:0.004273504273504274 
1.0 1:0.0 2:0.012474012474012475 3:0.0 4:0.0 5:0.004158004158004158 6:0.002079002079002079 7:0.0 8:0.0 9:0.0 10:0.0 11:0.0 12:0.0 13:0.0 14:0.004158004158004158 15:0.0 16:0.0 17:0.004158004158004158 18:0.0 19:0.0 20:0.008316008316008316 21:0.0 22:0.0 23:0.002079002079002079 24:0.0 25:0.002079002079002079 26:0.002079002079002079 27:0.004158004158004158 28:0.0 29:0.002079002079002079 30:0.0 31:0.004158004158004158 32:0.002079002079002079 33:0.0 34:0.0 35:0.062370062370062374 36:0.0 37:0.0 38:0.0 39:0.0 40:0.002079002079002079 41:0.0 42:0.0 43:0.0 44:0.0 45:0.0 46:0.004158004158004158 47:0.0 48:0.0 49:0.0 50:0.002079002079002079 51:0.0 52:0.0 53:0.004158004158004158 54:0.079002079002079 55:0.008316008316008316 56:0.0 57:0.0 58:0.0 59:0.0 60:0.0 61:0.004158004158004158 62:0.0 63:0.006237006237006237 64:0.006237006237006237 65:0.002079002079002079 66:0.002079002079002079 67:0.0 68:0.012474012474012475 69:0.012474012474012475 70:0.004158004158004158 71:0.0 72:0.0 73:0.004158004158004158 74:0.0 75:0.004158004158004158 76:0.006237006237006237 77:0.4656964656964657 78:0.008316008316008316 79:0.0 80:0.0 81:0.002079002079002079 82:0.0 83:0.02079002079002079 84:0.006237006237006237 85:0.0 86:0.006237006237006237 87:0.0 88:0.0 89:0.0 90:0.0 91:0.0 92:0.0 93:0.0 94:0.004158004158004158 95:0.012474012474012475 96:0.012474012474012475 97:0.0 98:0.0 99:0.0 100:0.004158004158004158 101:0.002079002079002079 102:0.0 103:0.0 104:0.008316008316008316 105:0.002079002079002079 106:0.0 107:0.004158004158004158 108:0.0 109:0.0 110:0.0 111:0.0 112:0.0 113:0.0 114:0.010395010395010396 115:0.0 116:0.0 117:0.0 118:0.008316008316008316 119:0.0 120:0.0 121:0.0 122:0.0 123:0.0 124:0.002079002079002079 125:0.0 126:0.002079002079002079 127:0.02286902286902287 128:0.0 129:0.0 130:0.002079002079002079 131:0.0 132:0.008316008316008316 133:0.0 134:0.010395010395010396 135:0.002079002079002079 136:0.0 137:0.006237006237006237 138:0.002079002079002079 139:0.004158004158004158 140:0.0 141:0.008316008316008316 142:0.0 143:0.002079002079002079 144:0.0 145:0.002079002079002079 146:0.008316008316008316 147:0.006237006237006237 148:0.0 149:0.002079002079002079 150:0.0 151:0.0 152:0.02702702702702703 153:0.0 154:0.004158004158004158 155:0.0 156:0.008316008316008316 157:0.0 158:0.0 159:0.006237006237006237 160:0.004158004158004158 
1.0 1:0.004784688995215311 2:0.0 3:0.0 4:0.0 5:0.009569377990430622 6:0.0 7:0.0 8:0.0 9:0.0 10:0.0 11:0.0 12:0.0 13:0.0 14:0.0 15:0.0 16:0.0 17:0.0 18:0.0 19:0.0 20:0.004784688995215311 21:0.0 22:0.0 23:0.0 24:0.0 25:0.0 26:0.0 27:0.004784688995215311 28:0.0 29:0.0 30:0.0 31:0.0 32:0.0 33:0.0 34:0.0 35:0.004784688995215311 36:0.0 37:0.0 38:0.0 39:0.0 40:0.0 41:0.0 42:0.0 43:0.0 44:0.0 45:0.0 46:0.0 47:0.0 48:0.0 49:0.0 50:0.0 51:0.0 52:0.0 53:0.0 54:0.08133971291866028 55:0.004784688995215311 56:0.0 57:0.0 58:0.0 59:0.0 60:0.0 61:0.0 62:0.0 63:0.0 64:0.0 65:0.0 66:0.0 67:0.0 68:0.0 69:0.0 70:0.0 71:0.0 72:0.0 73:0.0 74:0.0 75:0.004784688995215311 76:0.0 77:0.7559808612440191 78:0.0 79:0.0 80:0.0 81:0.0 82:0.0 83:0.0 84:0.0 85:0.0 86:0.0 87:0.0 88:0.0 89:0.0 90:0.0 91:0.004784688995215311 92:0.0 93:0.0 94:0.009569377990430622 95:0.004784688995215311 96:0.004784688995215311 97:0.0 98:0.0 99:0.0 100:0.0 101:0.004784688995215311 102:0.0 103:0.0 104:0.004784688995215311 105:0.0 106:0.0 107:0.0 108:0.0 109:0.0 110:0.0 111:0.0 112:0.0 113:0.0 114:0.0 115:0.0 116:0.0 117:0.0 118:0.004784688995215311 119:0.0 120:0.0 121:0.0 122:0.0 123:0.0 124:0.0 125:0.0 126:0.0 127:0.014354066985645933 128:0.004784688995215311 129:0.0 130:0.0 131:0.0 132:0.023923444976076555 133:0.0 134:0.0 135:0.009569377990430622 136:0.009569377990430622 137:0.0 138:0.0 139:0.0 140:0.0 141:0.004784688995215311 142:0.0 143:0.004784688995215311 144:0.0 145:0.0 146:0.004784688995215311 147:0.0 148:0.0 149:0.004784688995215311 150:0.0 151:0.0 152:0.0 153:0.0 154:0.0 155:0.0 156:0.004784688995215311 157:0.0 158:0.0 159:0.0 160:0.0 
1.0 1:0.013850415512465374 2:0.002770083102493075 3:0.0 4:0.0 5:0.00554016620498615 6:0.0 7:0.0 8:0.0 9:0.0 10:0.0 11:0.0 12:0.0 13:0.0 14:0.0 15:0.0 16:0.0 17:0.013850415512465374 18:0.0 19:0.0 20:0.0 21:0.0 22:0.0 23:0.0 24:0.0 25:0.0 26:0.0 27:0.0 28:0.0 29:0.0 30:0.0 31:0.0 32:0.0 33:0.0 34:0.0 35:0.0110803324099723 36:0.0 37:0.0 38:0.0 39:0.0 40:0.0 41:0.0 42:0.0 43:0.0 44:0.0 45:0.0 46:0.0 47:0.0 48:0.0 49:0.0 50:0.0 51:0.0 52:0.0 53:0.0 54:0.09418282548476455 55:0.0 56:0.0 57:0.0 58:0.0 59:0.0 60:0.0 61:0.0 62:0.0 63:0.002770083102493075 64:0.0 65:0.0 66:0.0 67:0.0 68:0.0 69:0.0 70:0.0 71:0.0 72:0.0 73:0.0 74:0.0 75:0.0 76:0.0 77:0.7977839335180056 78:0.002770083102493075 79:0.0 80:0.0 81:0.0 82:0.0 83:0.002770083102493075 84:0.0 85:0.0 86:0.0 87:0.0 88:0.0 89:0.0 90:0.0 91:0.0 92:0.0 93:0.0 94:0.00554016620498615 95:0.0 96:0.002770083102493075 97:0.0 98:0.0 99:0.0 100:0.002770083102493075 101:0.0 102:0.0 103:0.0 104:0.0 105:0.0 106:0.0 107:0.0 108:0.0 109:0.0 110:0.0 111:0.0 112:0.0 113:0.0 114:0.00554016620498615 115:0.0 116:0.0 117:0.0 118:0.0 119:0.0 120:0.002770083102493075 121:0.0 122:0.0 123:0.0 124:0.0 125:0.0 126:0.0 127:0.002770083102493075 128:0.0 129:0.0 130:0.0 131:0.0 132:0.013850415512465374 133:0.0 134:0.0 135:0.0 136:0.0 137:0.0 138:0.0 139:0.0 140:0.0 141:0.002770083102493075 142:0.0 143:0.0 144:0.0 145:0.0 146:0.0 147:0.0 148:0.0 149:0.002770083102493075 150:0.0 151:0.0 152:0.002770083102493075 153:0.002770083102493075 154:0.002770083102493075 155:0.0 156:0.002770083102493075 157:0.0 158:0.0 159:0.0 160:0.0 
1.0 1:0.0 2:0.01327433628318584 3:0.0 4:0.0 5:0.0 6:0.0 7:0.0 8:0.0 9:0.0 10:0.0 11:0.0 12:0.0 13:0.0 14:0.00663716814159292 15:0.0 16:0.0 17:0.004424778761061947 18:0.0 19:0.0 20:0.00663716814159292 21:0.0 22:0.0 23:0.0022123893805309734 24:0.0 25:0.0022123893805309734 26:0.00663716814159292 27:0.008849557522123894 28:0.0 29:0.0 30:0.0 31:0.008849557522123894 32:0.0022123893805309734 33:0.0 34:0.0 35:0.061946902654867256 36:0.0 37:0.0 38:0.0 39:0.0 40:0.004424778761061947 41:0.0 42:0.0 43:0.0 44:0.0 45:0.0 46:0.0 47:0.0 48:0.0 49:0.0 50:0.004424778761061947 51:0.0 52:0.0 53:0.004424778761061947 54:0.07079646017699115 55:0.004424778761061947 56:0.0022123893805309734 57:0.0 58:0.0 59:0.0 60:0.0 61:0.0022123893805309734 62:0.0 63:0.004424778761061947 64:0.015486725663716814 65:0.0022123893805309734 66:0.004424778761061947 67:0.0 68:0.022123893805309734 69:0.022123893805309734 70:0.008849557522123894 71:0.0 72:0.0 73:0.004424778761061947 74:0.0022123893805309734 75:0.004424778761061947 76:0.0022123893805309734 77:0.46017699115044247 78:0.008849557522123894 79:0.0 80:0.0 81:0.0022123893805309734 82:0.0 83:0.017699115044247787 84:0.011061946902654867 85:0.0 86:0.011061946902654867 87:0.0 88:0.0 89:0.0 90:0.0 91:0.0 92:0.0 93:0.0 94:0.011061946902654867 95:0.0022123893805309734 96:0.008849557522123894 97:0.0 98:0.0 99:0.0 100:0.004424778761061947 101:0.008849557522123894 102:0.0 103:0.0 104:0.004424778761061947 105:0.0 106:0.0 107:0.0 108:0.0 109:0.0 110:0.0 111:0.0 112:0.0 113:0.0 114:0.011061946902654867 115:0.0 116:0.0 117:0.0 118:0.008849557522123894 119:0.0 120:0.0 121:0.0 122:0.0 123:0.0 124:0.0022123893805309734 125:0.0 126:0.0022123893805309734 127:0.00663716814159292 128:0.0 129:0.0 130:0.0 131:0.0 132:0.015486725663716814 133:0.0 134:0.008849557522123894 135:0.0022123893805309734 136:0.0 137:0.00663716814159292 138:0.0022123893805309734 139:0.0 140:0.0 141:0.011061946902654867 142:0.0 143:0.0 144:0.0 145:0.0022123893805309734 146:0.0022123893805309734 147:0.011061946902654867 148:0.00663716814159292 149:0.0 150:0.0 151:0.0 152:0.008849557522123894 153:0.0 154:0.0022123893805309734 155:0.0 156:0.01327433628318584 157:0.0 158:0.0 159:0.00663716814159292 160:0.008849557522123894 
1.0 1:0.0 2:0.004819277108433735 3:0.0 4:0.0024096385542168677 5:0.00963855421686747 6:0.0 7:0.0 8:0.0 9:0.0 10:0.0 11:0.0 12:0.004819277108433735 13:0.0 14:0.0 15:0.0 16:0.0 17:0.0024096385542168677 18:0.0 19:0.0 20:0.004819277108433735 21:0.0 22:0.0 23:0.0 24:0.0 25:0.0024096385542168677 26:0.0024096385542168677 27:0.007228915662650603 28:0.0 29:0.0024096385542168677 30:0.0 31:0.0024096385542168677 32:0.0 33:0.0 34:0.0 35:0.03132530120481928 36:0.0 37:0.0 38:0.0 39:0.0 40:0.0 41:0.0 42:0.0 43:0.0 44:0.0024096385542168677 45:0.0024096385542168677 46:0.004819277108433735 47:0.0 48:0.0 49:0.0024096385542168677 50:0.0024096385542168677 51:0.0 52:0.0 53:0.0 54:0.1493975903614458 55:0.014457831325301205 56:0.0024096385542168677 57:0.0024096385542168677 58:0.0 59:0.0 60:0.0 61:0.0 62:0.0 63:0.00963855421686747 64:0.004819277108433735 65:0.0024096385542168677 66:0.0024096385542168677 67:0.0 68:0.004819277108433735 69:0.0 70:0.007228915662650603 71:0.0 72:0.0 73:0.0024096385542168677 74:0.0024096385542168677 75:0.0 76:0.00963855421686747 77:0.4072289156626506 78:0.0024096385542168677 79:0.0 80:0.0 81:0.0024096385542168677 82:0.0 83:0.01927710843373494 84:0.007228915662650603 85:0.0 86:0.007228915662650603 87:0.004819277108433735 88:0.0 89:0.0 90:0.0 91:0.0 92:0.0 93:0.0 94:0.0024096385542168677 95:0.024096385542168676 96:0.007228915662650603 97:0.0 98:0.0 99:0.0 100:0.0024096385542168677 101:0.0024096385542168677 102:0.0 103:0.0 104:0.00963855421686747 105:0.0024096385542168677 106:0.0 107:0.0 108:0.0 109:0.0 110:0.0 111:0.0 112:0.0 113:0.0 114:0.012048192771084338 115:0.0 116:0.0 117:0.0024096385542168677 118:0.0 119:0.0 120:0.0024096385542168677 121:0.0 122:0.0 123:0.0 124:0.0 125:0.0 126:0.0024096385542168677 127:0.043373493975903614 128:0.0 129:0.0 130:0.0024096385542168677 131:0.0 132:0.01927710843373494 133:0.0 134:0.014457831325301205 135:0.004819277108433735 136:0.0 137:0.004819277108433735 138:0.0 139:0.0024096385542168677 140:0.0 141:0.014457831325301205 142:0.0 143:0.0 144:0.0 145:0.0024096385542168677 146:0.0024096385542168677 147:0.004819277108433735 148:0.0024096385542168677 149:0.0024096385542168677 150:0.0 151:0.0 152:0.033734939759036145 153:0.0 154:0.0024096385542168677 155:0.0 156:0.007228915662650603 157:0.0 158:0.0 159:0.00963855421686747 160:0.0 
1.0 1:0.0 2:0.013513513513513514 3:0.0 4:0.0 5:0.0045045045045045045 6:0.0 7:0.0 8:0.0022522522522522522 9:0.0 10:0.0 11:0.0 12:0.0022522522522522522 13:0.0 14:0.0022522522522522522 15:0.0 16:0.0022522522522522522 17:0.0045045045045045045 18:0.0 19:0.0 20:0.006756756756756757 21:0.0 22:0.0 23:0.0022522522522522522 24:0.0 25:0.0045045045045045045 26:0.006756756756756757 27:0.006756756756756757 28:0.0 29:0.0 30:0.0 31:0.006756756756756757 32:0.0022522522522522522 33:0.0 34:0.0 35:0.06531531531531531 36:0.0 37:0.0 38:0.0 39:0.0 40:0.0022522522522522522 41:0.0 42:0.0 43:0.0 44:0.0 45:0.0 46:0.0022522522522522522 47:0.0 48:0.0 49:0.0 50:0.0022522522522522522 51:0.0 52:0.0 53:0.0022522522522522522 54:0.02702702702702703 55:0.009009009009009009 56:0.0 57:0.0 58:0.0 59:0.0 60:0.0 61:0.0022522522522522522 62:0.0 63:0.006756756756756757 64:0.013513513513513514 65:0.0045045045045045045 66:0.009009009009009009 67:0.0 68:0.02252252252252252 69:0.02027027027027027 70:0.009009009009009009 71:0.0 72:0.0 73:0.0045045045045045045 74:0.0022522522522522522 75:0.0022522522522522522 76:0.0022522522522522522 77:0.4594594594594595 78:0.01126126126126126 79:0.0 80:0.0 81:0.0022522522522522522 82:0.0 83:0.015765765765765764 84:0.01126126126126126 85:0.0 86:0.015765765765765764 87:0.0 88:0.0 89:0.0 90:0.0 91:0.0 92:0.0 93:0.0 94:0.009009009009009009 95:0.009009009009009009 96:0.006756756756756757 97:0.0 98:0.0 99:0.0 100:0.0022522522522522522 101:0.009009009009009009 102:0.0 103:0.0 104:0.0045045045045045045 105:0.0 106:0.0 107:0.0 108:0.0 109:0.0 110:0.0 111:0.0 112:0.0 113:0.0 114:0.01126126126126126 115:0.0 116:0.0 117:0.0 118:0.006756756756756757 119:0.0 120:0.0 121:0.0 122:0.0 123:0.0 124:0.0022522522522522522 125:0.0 126:0.0022522522522522522 127:0.01126126126126126 128:0.0 129:0.0 130:0.0 131:0.0 132:0.02252252252252252 133:0.0 134:0.009009009009009009 135:0.009009009009009009 136:0.0022522522522522522 137:0.006756756756756757 138:0.0022522522522522522 139:0.0 140:0.0 141:0.006756756756756757 142:0.0 143:0.0 144:0.0 145:0.006756756756756757 146:0.0022522522522522522 147:0.01126126126126126 148:0.009009009009009009 149:0.0 150:0.0 151:0.0 152:0.009009009009009009 153:0.0 154:0.0045045045045045045 155:0.0 156:0.015765765765765764 157:0.0 158:0.0 159:0.006756756756756757 160:0.009009009009009009 
