svm_type one_class
kernel_type rbf
gamma 0.5
nr_class 2
total_sv 174
rho 169.84778136909011
SV
1.0 1:0.0 2:0.0 3:0.0 4:0.0 5:0.0 6:0.0 7:0.0 8:0.0 9:0.0 10:0.0 11:0.0 12:0.0 13:0.0 14:0.0 15:0.0 16:0.0 17:0.0 18:0.0 19:0.0 20:0.0 21:0.0 22:0.0 23:0.0 24:0.0 25:0.0 26:0.0 27:0.0 28:0.0 29:0.0 30:0.0 31:0.0 32:0.0 33:0.0 34:0.0 35:0.0 36:0.0 37:0.0 38:0.0 39:0.0 40:0.0 41:0.0 42:0.0 43:0.0 44:0.0 45:0.0 46:0.0 47:0.0 48:0.0 49:0.0 50:0.0 51:0.0 52:0.0 53:0.0 54:0.0 55:0.0 56:0.0 57:0.0 58:0.0 59:0.0 60:0.0 61:0.0 62:0.0 63:0.0 64:0.0 65:0.0 66:0.0 67:0.0 68:0.0 69:0.0 70:0.0 71:0.0 72:0.0 73:0.0 74:0.0 75:0.0 76:0.0 77:0.0 78:0.0 79:0.0 80:0.0 81:0.0 82:0.0 83:0.0 84:0.0 85:0.0 86:0.0 87:0.0 88:0.0 89:0.0 90:0.0 91:0.0 92:0.0 93:0.0 94:0.0 95:0.0 96:0.0 97:0.0 98:0.0 99:0.0 100:0.0 101:0.0 102:0.0 103:0.0 104:0.0 105:0.0 106:0.0 107:0.0 108:0.0 109:0.0 110:0.0 111:0.0 112:1.0 113:0.0 114:0.0 115:0.0 116:0.0 117:0.0 118:0.0 119:0.0 120:0.0 121:0.0 122:0.0 123:0.0 124:0.0 125:0.0 126:0.0 127:0.0 128:0.0 129:0.0 130:0.0 131:0.0 132:0.0 133:0.0 134:0.0 135:0.0 136:0.0 137:0.0 138:0.0 139:0.0 140:0.0 141:0.0 142:0.0 143:0.0 144:0.0 145:0.0 146:0.0 147:0.0 148:0.0 149:0.0 150:0.0 151:0.0 152:0.0 153:0.0 154:0.0 155:0.0 156:0.0 157:0.0 158:0.0 159:0.0 160:0.0 
1.0 1:0.0 2:0.0 3:0.0 4:0.0 5:0.0 6:0.0 7:0.0 8:0.0 9:0.0 10:0.0 11:0.0 12:0.0 13:0.0 14:0.0 15:0.0 16:0.0 17:0.0 18:0.0 19:0.0 20:0.0 21:0.0 22:0.0 23:0.0 24:0.0 25:0.0 26:0.0 27:0.0 28:0.0 29:0.0 30:0.0 31:0.0 32:0.0 33:0.0 34:0.0 35:0.0 36:0.0 37:0.0 38:0.0 39:0.0 40:0.0 41:0.0 42:0.0 43:0.0 44:0.0 45:0.0 46:0.0 47:0.0 48:0.0 49:0.0 50:0.0 51:0.0 52:0.0 53:0.0 54:0.0 55:0.0 56:0.0 57:0.0 58:0.0 59:0.0 60:0.0 61:0.0 62:0.0 63:0.0 64:0.0 65:0.0 66:0.0 67:0.0 68:0.0 69:0.0 70:0.0 71:0.0 72:0.0 73:0.0 74:0.0 75:0.0 76:0.0 77:0.0 78:0.0 79:0.0 80:0.0 81:0.0 82:0.0 83:0.0 84:0.0 85:0.0 86:0.0 87:0.0 88:0.0 89:0.0 90:0.0 91:0.0 92:0.0 93:0.0 94:0.0 95:0.0 96:0.0 97:0.0 98:0.0 99:0.0 100:0.0 101:0.0 102:0.0 103:0.0 104:0.0 105:0.0 106:0.0 107:0.0 108:0.0 109:0.0 110:0.0 111:0.0 112:1.0 113:0.0 114:0.0 115:0.0 116:0.0 117:0.0 118:0.0 119:0.0 120:0.0 121:0.0 122:0.0 123:0.0 124:0.0 125:0.0 126:0.0 127:0.0 128:0.0 129:0.0 130:0.0 131:0.0 132:0.0 133:0.0 134:0.0 135:0.0 136:0.0 137:0.0 138:0.0 139:0.0 140:0.0 141:0.0 142:0.0 143:0.0 144:0.0 145:0.0 146:0.0 147:0.0 148:0.0 149:0.0 150:0.0 151:0.0 152:0.0 153:0.0 154:0.0 155:0.0 156:0.0 157:0.0 158:0.0 159:0.0 160:0.0 
1.0 1:0.0 2:0.0 3:0.0 4:0.0 5:0.0 6:0.0 7:0.0 8:0.0 9:0.0 10:0.0 11:0.0 12:0.0 13:0.0 14:0.0 15:0.0 16:0.0 17:0.0 18:0.0 19:0.0 20:0.0 21:0.0 22:0.0 23:0.0 24:0.0 25:0.0 26:0.0 27:0.0 28:0.0 29:0.0 30:0.0 31:0.0 32:0.0 33:0.0 34:0.0 35:0.0 36:0.0 37:0.0 38:0.0 39:0.0 40:0.0 41:0.0 42:0.0 43:0.0 44:0.0 45:0.0 46:0.0 47:0.0 48:0.0 49:0.0 50:0.0 51:0.0 52:0.0 53:0.0 54:0.0 55:0.0 56:0.0 57:0.0 58:0.0 59:0.0 60:0.0 61:0.0 62:0.0 63:0.0 64:0.0 65:0.0 66:0.0 67:0.0 68:0.0 69:0.0 70:0.0 71:0.0 72:0.0 73:0.0 74:0.0 75:0.0 76:0.0 77:0.0 78:0.0 79:0.0 80:0.0 81:0.0 82:0.0 83:0.0 84:0.0 85:0.0 86:0.0 87:0.0 88:0.0 89:0.0 90:0.0 91:0.0 92:0.0 93:0.0 94:0.0 95:0.0 96:0.0 97:0.0 98:0.0 99:0.0 100:0.0 101:0.0 102:0.0 103:0.0 104:0.0 105:0.0 106:0.0 107:0.0 108:0.0 109:0.0 110:0.0 111:0.0 112:1.0 113:0.0 114:0.0 115:0.0 116:0.0 117:0.0 118:0.0 119:0.0 120:0.0 121:0.0 122:0.0 123:0.0 124:0.0 125:0.0 126:0.0 127:0.0 128:0.0 129:0.0 130:0.0 131:0.0 132:0.0 133:0.0 134:0.0 135:0.0 136:0.0 137:0.0 138:0.0 139:0.0 140:0.0 141:0.0 142:0.0 143:0.0 144:0.0 145:0.0 146:0.0 147:0.0 148:0.0 149:0.0 150:0.0 151:0.0 152:0.0 153:0.0 154:0.0 155:0.0 156:0.0 157:0.0 158:0.0 159:0.0 160:0.0 
1.0 1:0.0 2:0.0 3:0.0 4:0.0 5:0.0 6:0.0 7:0.0 8:0.0 9:0.0 10:0.0 11:0.0 12:0.0 13:0.0 14:0.0 15:0.0 16:0.0 17:0.0 18:0.0 19:0.0 20:0.0 21:0.0 22:0.0 23:0.0 24:0.0 25:0.0 26:0.0 27:0.0 28:0.0 29:0.0 30:0.0 31:0.0 32:0.0 33:0.0 34:0.0 35:0.0 36:0.0 37:0.0 38:0.0 39:0.0 40:0.0 41:0.0 42:0.0 43:0.0 44:0.0 45:0.0 46:0.0 47:0.0 48:0.0 49:0.0 50:0.0 51:0.0 52:0.0 53:0.0 54:0.0 55:0.0 56:0.0 57:0.0 58:0.0 59:0.0 60:0.0 61:0.0 62:0.0 63:0.0 64:0.0 65:0.0 66:0.0 67:0.0 68:0.0 69:0.0 70:0.0 71:0.0 72:0.0 73:0.0 74:0.0 75:0.0 76:0.0 77:0.0 78:0.0 79:0.0 80:0.0 81:0.0 82:0.0 83:0.0 84:0.0 85:0.0 86:0.0 87:0.0 88:0.0 89:0.0 90:0.0 91:0.0 92:0.0 93:0.0 94:0.0 95:0.0 96:0.0 97:0.0 98:0.0 99:0.0 100:0.0 101:0.0 102:0.0 103:0.0 104:0.0 105:0.0 106:0.0 107:0.0 108:0.0 109:0.0 110:0.0 111:0.0 112:1.0 113:0.0 114:0.0 115:0.0 116:0.0 117:0.0 118:0.0 119:0.0 120:0.0 121:0.0 122:0.0 123:0.0 124:0.0 125:0.0 126:0.0 127:0.0 128:0.0 129:0.0 130:0.0 131:0.0 132:0.0 133:0.0 134:0.0 135:0.0 136:0.0 137:0.0 138:0.0 139:0.0 140:0.0 141:0.0 142:0.0 143:0.0 144:0.0 145:0.0 146:0.0 147:0.0 148:0.0 149:0.0 150:0.0 151:0.0 152:0.0 153:0.0 154:0.0 155:0.0 156:0.0 157:0.0 158:0.0 159:0.0 160:0.0 
1.0 1:0.0 2:0.0 3:0.0 4:0.0 5:0.0 6:0.0 7:0.0 8:0.0 9:0.0 10:0.0 11:0.0 12:0.0 13:0.0 14:0.0 15:0.0 16:0.0 17:0.0 18:0.0 19:0.0 20:0.0 21:0.0 22:0.0 23:0.0 24:0.0 25:0.0 26:0.0 27:0.0 28:0.0 29:0.0 30:0.0 31:0.0 32:0.0 33:0.0 34:0.0 35:0.0 36:0.0 37:0.0 38:0.0 39:0.0 40:0.0 41:0.0 42:0.0 43:0.0 44:0.0 45:0.0 46:0.0 47:0.0 48:0.0 49:0.0 50:0.0 51:0.0 52:0.0 53:0.0 54:0.0 55:0.0 56:0.0 57:0.0 58:0.0 59:0.0 60:0.0 61:0.0 62:0.0 63:0.0 64:0.0 65:0.0 66:0.0 67:0.0 68:0.0 69:0.0 70:0.0 71:0.0 72:0.0 73:0.0 74:0.0 75:0.0 76:0.0 77:0.0 78:0.0 79:0.0 80:0.0 81:0.0 82:0.0 83:0.0 84:0.0 85:0.0 86:0.0 87:0.0 88:0.0 89:0.0 90:0.0 91:0.0 92:0.0 93:0.0 94:0.0 95:0.0 96:0.0 97:0.0 98:0.0 99:0.0 100:0.0 101:0.0 102:0.0 103:0.0 104:0.0 105:0.0 106:0.0 107:0.0 108:0.0 109:0.0 110:0.0 111:0.0 112:1.0 113:0.0 114:0.0 115:0.0 116:0.0 117:0.0 118:0.0 119:0.0 120:0.0 121:0.0 122:0.0 123:0.0 124:0.0 125:0.0 126:0.0 127:0.0 128:0.0 129:0.0 130:0.0 131:0.0 132:0.0 133:0.0 134:0.0 135:0.0 136:0.0 137:0.0 138:0.0 139:0.0 140:0.0 141:0.0 142:0.0 143:0.0 144:0.0 145:0.0 146:0.0 147:0.0 148:0.0 149:0.0 150:0.0 151:0.0 152:0.0 153:0.0 154:0.0 155:0.0 156:0.0 157:0.0 158:0.0 159:0.0 160:0.0 
1.0 1:0.0 2:0.0 3:0.0 4:0.0 5:0.0 6:0.0 7:0.0 8:0.0 9:0.0 10:0.0 11:0.0 12:0.0 13:0.0 14:0.0 15:0.0 16:0.0 17:0.0 18:0.0 19:0.0 20:0.0 21:0.0 22:0.0 23:0.0 24:0.0 25:0.0 26:0.0 27:0.0 28:0.0 29:0.0 30:0.0 31:0.0 32:0.0 33:0.0 34:0.0 35:0.0 36:0.0 37:0.0 38:0.0 39:0.0 40:0.0 41:0.0 42:0.0 43:0.0 44:0.0 45:0.0 46:0.0 47:0.0 48:0.0 49:0.0 50:0.0 51:0.0 52:0.0 53:0.0 54:0.0 55:0.0 56:0.0 57:0.0 58:0.0 59:0.0 60:0.0 61:0.0 62:0.0 63:0.0 64:0.0 65:0.0 66:0.0 67:0.0 68:0.0 69:0.0 70:0.0 71:0.0 72:0.0 73:0.0 74:0.0 75:0.0 76:0.0 77:0.0 78:0.0 79:0.0 80:0.0 81:0.0 82:0.0 83:0.0 84:0.0 85:0.0 86:0.0 87:0.0 88:0.0 89:0.0 90:0.0 91:0.0 92:0.0 93:0.0 94:0.0 95:0.0 96:0.0 97:0.0 98:0.0 99:0.0 100:0.0 101:0.0 102:0.0 103:0.0 104:0.0 105:0.0 106:0.0 107:0.0 108:0.0 109:0.0 110:0.0 111:0.0 112:1.0 113:0.0 114:0.0 115:0.0 116:0.0 117:0.0 118:0.0 119:0.0 120:0.0 121:0.0 122:0.0 123:0.0 124:0.0 125:0.0 126:0.0 127:0.0 128:0.0 129:0.0 130:0.0 131:0.0 132:0.0 133:0.0 134:0.0 135:0.0 136:0.0 137:0.0 138:0.0 139:0.0 140:0.0 141:0.0 142:0.0 143:0.0 144:0.0 145:0.0 146:0.0 147:0.0 148:0.0 149:0.0 150:0.0 151:0.0 152:0.0 153:0.0 154:0.0 155:0.0 156:0.0 157:0.0 158:0.0 159:0.0 160:0.0 
1.0 1:0.0 2:0.0 3:0.0 4:0.0 5:0.0 6:0.0 7:0.0 8:0.0 9:0.0 10:0.0 11:0.0 12:0.0 13:0.0 14:0.0 15:0.0 16:0.0 17:0.0 18:0.0 19:0.0 20:0.0 21:0.0 22:0.0 23:0.0 24:0.0 25:0.0 26:0.0 27:0.0 28:0.0 29:0.0 30:0.0 31:0.0 32:0.0 33:0.0 34:0.0 35:0.0 36:0.0 37:0.0 38:0.0 39:0.0 40:0.0 41:0.0 42:0.0 43:0.0 44:0.0 45:0.0 46:0.0 47:0.0 48:0.0 49:0.0 50:0.0 51:0.0 52:0.0 53:0.0 54:0.0 55:0.0 56:0.0 57:0.0 58:0.0 59:0.0 60:0.0 61:0.0 62:0.0 63:0.0 64:0.0 65:0.0 66:0.0 67:0.0 68:0.0 69:0.0 70:0.0 71:0.0 72:0.0 73:0.0 74:0.0 75:0.0 76:0.0 77:0.0 78:0.0 79:0.0 80:0.0 81:0.0 82:0.0 83:0.0 84:0.0 85:0.0 86:0.0 87:0.0 88:0.0 89:0.0 90:0.0 91:0.0 92:0.0 93:0.0 94:0.0 95:0.0 96:0.0 97:0.0 98:0.0 99:0.0 100:0.0 101:0.0 102:0.0 103:0.0 104:0.0 105:0.0 106:0.0 107:0.0 108:0.0 109:0.0 110:0.0 111:0.0 112:1.0 113:0.0 114:0.0 115:0.0 116:0.0 117:0.0 118:0.0 119:0.0 120:0.0 121:0.0 122:0.0 123:0.0 124:0.0 125:0.0 126:0.0 127:0.0 128:0.0 129:0.0 130:0.0 131:0.0 132:0.0 133:0.0 134:0.0 135:0.0 136:0.0 137:0.0 138:0.0 139:0.0 140:0.0 141:0.0 142:0.0 143:0.0 144:0.0 145:0.0 146:0.0 147:0.0 148:0.0 149:0.0 150:0.0 151:0.0 152:0.0 153:0.0 154:0.0 155:0.0 156:0.0 157:0.0 158:0.0 159:0.0 160:0.0 
1.0 1:0.0 2:0.0 3:0.0 4:0.0 5:0.0 6:0.0 7:0.0 8:0.0 9:0.0 10:0.0 11:0.0 12:0.0 13:0.0 14:0.0 15:0.0 16:0.0 17:0.0 18:0.0 19:0.0 20:0.0 21:0.0 22:0.0 23:0.0 24:0.0 25:0.0 26:0.0 27:0.0 28:0.0 29:0.0 30:0.0 31:0.0 32:0.0 33:0.0 34:0.0 35:0.0 36:0.0 37:0.0 38:0.0 39:0.0 40:0.0 41:0.0 42:0.0 43:0.0 44:0.0 45:0.0 46:0.0 47:0.0 48:0.0 49:0.0 50:0.0 51:0.0 52:0.0 53:0.0 54:0.0 55:0.0 56:0.0 57:0.0 58:0.0 59:0.0 60:0.0 61:0.0 62:0.0 63:0.0 64:0.0 65:0.0 66:0.0 67:0.0 68:0.0 69:0.0 70:0.0 71:0.0 72:0.0 73:0.0 74:0.0 75:0.0 76:0.0 77:0.0 78:0.0 79:0.0 80:0.0 81:0.0 82:0.0 83:0.0 84:0.0 85:0.0 86:0.0 87:0.0 88:0.0 89:0.0 90:0.0 91:0.0 92:0.0 93:0.0 94:0.0 95:0.0 96:0.0 97:0.0 98:0.0 99:0.0 100:0.0 101:0.0 102:0.0 103:0.0 104:0.0 105:0.0 106:0.0 107:0.0 108:0.0 109:0.0 110:0.0 111:0.0 112:1.0 113:0.0 114:0.0 115:0.0 116:0.0 117:0.0 118:0.0 119:0.0 120:0.0 121:0.0 122:0.0 123:0.0 124:0.0 125:0.0 126:0.0 127:0.0 128:0.0 129:0.0 130:0.0 131:0.0 132:0.0 133:0.0 134:0.0 135:0.0 136:0.0 137:0.0 138:0.0 139:0.0 140:0.0 141:0.0 142:0.0 143:0.0 144:0.0 145:0.0 146:0.0 147:0.0 148:0.0 149:0.0 150:0.0 151:0.0 152:0.0 153:0.0 154:0.0 155:0.0 156:0.0 157:0.0 158:0.0 159:0.0 160:0.0 
1.0 1:0.0 2:0.0 3:0.0 4:0.0 5:0.0 6:0.0 7:0.0 8:0.0 9:0.0 10:0.0 11:0.0 12:0.0 13:0.0 14:0.0 15:0.0 16:0.0 17:0.0 18:0.0 19:0.0 20:0.0 21:0.0 22:0.0 23:0.0 24:0.0 25:0.0 26:0.0 27:0.0 28:0.0 29:0.0 30:0.0 31:0.0 32:0.0 33:0.0 34:0.0 35:0.0 36:0.0 37:0.0 38:0.0 39:0.0 40:0.0 41:0.0 42:0.0 43:0.0 44:0.0 45:0.0 46:0.0 47:0.0 48:0.0 49:0.0 50:0.0 51:0.0 52:0.0 53:0.0 54:0.0 55:0.0 56:0.0 57:0.0 58:0.0 59:0.0 60:0.0 61:0.0 62:0.0 63:0.0 64:0.0 65:0.0 66:0.0 67:0.0 68:0.0 69:0.0 70:0.0 71:0.0 72:0.0 73:0.0 74:0.0 75:0.0 76:0.0 77:0.0 78:0.0 79:0.0 80:0.0 81:0.0 82:0.0 83:0.0 84:0.0 85:0.0 86:0.0 87:0.0 88:0.0 89:0.0 90:0.0 91:0.0 92:0.0 93:0.0 94:0.0 95:0.0 96:0.0 97:0.0 98:0.0 99:0.0 100:0.0 101:0.0 102:0.0 103:0.0 104:0.0 105:0.0 106:0.0 107:0.0 108:0.0 109:0.0 110:0.0 111:0.0 112:1.0 113:0.0 114:0.0 115:0.0 116:0.0 117:0.0 118:0.0 119:0.0 120:0.0 121:0.0 122:0.0 123:0.0 124:0.0 125:0.0 126:0.0 127:0.0 128:0.0 129:0.0 130:0.0 131:0.0 132:0.0 133:0.0 134:0.0 135:0.0 136:0.0 137:0.0 138:0.0 139:0.0 140:0.0 141:0.0 142:0.0 143:0.0 144:0.0 145:0.0 146:0.0 147:0.0 148:0.0 149:0.0 150:0.0 151:0.0 152:0.0 153:0.0 154:0.0 155:0.0 156:0.0 157:0.0 158:0.0 159:0.0 160:0.0 
1.0 1:0.0 2:0.0 3:0.0 4:0.0 5:0.0 6:0.0 7:0.0 8:0.0 9:0.0 10:0.0 11:0.0 12:0.0 13:0.0 14:0.0 15:0.0 16:0.0 17:0.0 18:0.0 19:0.0 20:0.0 21:0.0 22:0.0 23:0.0 24:0.0 25:0.0 26:0.0 27:0.0 28:0.0 29:0.0 30:0.0 31:0.0 32:0.0 33:0.0 34:0.0 35:0.0 36:0.0 37:0.0 38:0.0 39:0.0 40:0.0 41:0.0 42:0.0 43:0.0 44:0.0 45:0.0 46:0.0 47:0.0 48:0.0 49:0.0 50:0.0 51:0.0 52:0.0 53:0.0 54:0.0 55:0.0 56:0.0 57:0.0 58:0.0 59:0.0 60:0.0 61:0.0 62:0.0 63:0.0 64:0.0 65:0.0 66:0.0 67:0.0 68:0.0 69:0.0 70:0.0 71:0.0 72:0.0 73:0.0 74:0.0 75:0.0 76:0.0 77:0.0 78:0.0 79:0.0 80:0.0 81:0.0 82:0.0 83:0.0 84:0.0 85:0.0 86:0.0 87:0.0 88:0.0 89:0.0 90:0.0 91:0.0 92:0.0 93:0.0 94:0.0 95:0.0 96:0.0 97:0.0 98:0.0 99:0.0 100:0.0 101:0.0 102:0.0 103:0.0 104:0.0 105:0.0 106:0.0 107:0.0 108:0.0 109:0.0 110:0.0 111:0.0 112:1.0 113:0.0 114:0.0 115:0.0 116:0.0 117:0.0 118:0.0 119:0.0 120:0.0 121:0.0 122:0.0 123:0.0 124:0.0 125:0.0 126:0.0 127:0.0 128:0.0 129:0.0 130:0.0 131:0.0 132:0.0 133:0.0 134:0.0 135:0.0 136:0.0 137:0.0 138:0.0 139:0.0 140:0.0 141:0.0 142:0.0 143:0.0 144:0.0 145:0.0 146:0.0 147:0.0 148:0.0 149:0.0 150:0.0 151:0.0 152:0.0 153:0.0 154:0.0 155:0.0 156:0.0 157:0.0 158:0.0 159:0.0 160:0.0 
1.0 1:0.0 2:0.0 3:0.0 4:0.0 5:0.0 6:0.0 7:0.0 8:0.0 9:0.0 10:0.0 11:0.0 12:0.0 13:0.0 14:0.0 15:0.0 16:0.0 17:0.0 18:0.0 19:0.0 20:0.0 21:0.0 22:0.0 23:0.0 24:0.0 25:0.0 26:0.0 27:0.0 28:0.0 29:0.0 30:0.0 31:0.0 32:0.0 33:0.0 34:0.0 35:0.0 36:0.0 37:0.0 38:0.0 39:0.0 40:0.0 41:0.0 42:0.0 43:0.0 44:0.0 45:0.0 46:0.0 47:0.0 48:0.0 49:0.0 50:0.0 51:0.0 52:0.0 53:0.0 54:0.0 55:0.0 56:0.0 57:0.0 58:0.0 59:0.0 60:0.0 61:0.0 62:0.0 63:0.0 64:0.0 65:0.0 66:0.0 67:0.0 68:0.0 69:0.0 70:0.0 71:0.0 72:0.0 73:0.0 74:0.0 75:0.0 76:0.0 77:0.0 78:0.0 79:0.0 80:0.0 81:0.0 82:0.0 83:0.0 84:0.0 85:0.0 86:0.0 87:0.0 88:0.0 89:0.0 90:0.0 91:0.0 92:0.0 93:0.0 94:0.0 95:0.0 96:0.0 97:0.0 98:0.0 99:0.0 100:0.0 101:0.0 102:0.0 103:0.0 104:0.0 105:0.0 106:0.0 107:0.0 108:0.0 109:0.0 110:0.0 111:0.0 112:1.0 113:0.0 114:0.0 115:0.0 116:0.0 117:0.0 118:0.0 119:0.0 120:0.0 121:0.0 122:0.0 123:0.0 124:0.0 125:0.0 126:0.0 127:0.0 128:0.0 129:0.0 130:0.0 131:0.0 132:0.0 133:0.0 134:0.0 135:0.0 136:0.0 137:0.0 138:0.0 139:0.0 140:0.0 141:0.0 142:0.0 143:0.0 144:0.0 145:0.0 146:0.0 147:0.0 148:0.0 149:0.0 150:0.0 151:0.0 152:0.0 153:0.0 154:0.0 155:0.0 156:0.0 157:0.0 158:0.0 159:0.0 160:0.0 
1.0 1:0.0 2:0.0 3:0.0 4:0.0 5:0.0 6:0.0 7:0.0 8:0.0 9:0.0 10:0.0 11:0.0 12:0.0 13:0.0 14:0.0 15:0.0 16:0.0 17:0.0 18:0.0 19:0.0 20:0.0 21:0.0 22:0.0 23:0.0 24:0.0 25:0.0 26:0.0 27:0.0 28:0.0 29:0.0 30:0.0 31:0.0 32:0.0 33:0.0 34:0.0 35:0.0 36:0.0 37:0.0 38:0.0 39:0.0 40:0.0 41:0.0 42:0.0 43:0.0 44:0.0 45:0.0 46:0.0 47:0.0 48:0.0 49:0.0 50:0.0 51:0.0 52:0.0 53:0.0 54:0.0 55:0.0 56:0.0 57:0.0 58:0.0 59:0.0 60:0.0 61:0.0 62:0.0 63:0.0 64:0.0 65:0.0 66:0.0 67:0.0 68:0.0 69:0.0 70:0.0 71:0.0 72:0.0 73:0.0 74:0.0 75:0.0 76:0.0 77:0.0 78:0.0 79:0.0 80:0.0 81:0.0 82:0.0 83:0.0 84:0.0 85:0.0 86:0.0 87:0.0 88:0.0 89:0.0 90:0.0 91:0.0 92:0.0 93:0.0 94:0.0 95:0.0 96:0.0 97:0.0 98:0.0 99:0.0 100:0.0 101:0.0 102:0.0 103:0.0 104:0.0 105:0.0 106:0.0 107:0.0 108:0.0 109:0.0 110:0.0 111:0.0 112:1.0 113:0.0 114:0.0 115:0.0 116:0.0 117:0.0 118:0.0 119:0.0 120:0.0 121:0.0 122:0.0 123:0.0 124:0.0 125:0.0 126:0.0 127:0.0 128:0.0 129:0.0 130:0.0 131:0.0 132:0.0 133:0.0 134:0.0 135:0.0 136:0.0 137:0.0 138:0.0 139:0.0 140:0.0 141:0.0 142:0.0 143:0.0 144:0.0 145:0.0 146:0.0 147:0.0 148:0.0 149:0.0 150:0.0 151:0.0 152:0.0 153:0.0 154:0.0 155:0.0 156:0.0 157:0.0 158:0.0 159:0.0 160:0.0 
1.0 1:0.0 2:0.0 3:0.0 4:0.0 5:0.0 6:0.0 7:0.0 8:0.0 9:0.0 10:0.0 11:0.0 12:0.0 13:0.0 14:0.0 15:0.0 16:0.0 17:0.0 18:0.0 19:0.0 20:0.0 21:0.0 22:0.0 23:0.0 24:0.0 25:0.0 26:0.0 27:0.0 28:0.0 29:0.0 30:0.0 31:0.0 32:0.0 33:0.0 34:0.0 35:0.0 36:0.0 37:0.0 38:0.0 39:0.0 40:0.0 41:0.0 42:0.0 43:0.0 44:0.0 45:0.0 46:0.0 47:0.0 48:0.0 49:0.0 50:0.0 51:0.0 52:0.0 53:0.0 54:0.0 55:0.0 56:0.0 57:0.0 58:0.0 59:0.0 60:0.0 61:0.0 62:0.0 63:0.0 64:0.0 65:0.0 66:0.0 67:0.0 68:0.0 69:0.0 70:0.0 71:0.0 72:0.0 73:0.0 74:0.0 75:0.0 76:0.0 77:0.0 78:0.0 79:0.0 80:0.0 81:0.0 82:0.0 83:0.0 84:0.0 85:0.0 86:0.0 87:0.0 88:0.0 89:0.0 90:0.0 91:0.0 92:0.0 93:0.0 94:0.0 95:0.0 96:0.0 97:0.0 98:0.0 99:0.0 100:0.0 101:0.0 102:0.0 103:0.0 104:0.0 105:0.0 106:0.0 107:0.0 108:0.0 109:0.0 110:0.0 111:0.0 112:1.0 113:0.0 114:0.0 115:0.0 116:0.0 117:0.0 118:0.0 119:0.0 120:0.0 121:0.0 122:0.0 123:0.0 124:0.0 125:0.0 126:0.0 127:0.0 128:0.0 129:0.0 130:0.0 131:0.0 132:0.0 133:0.0 134:0.0 135:0.0 136:0.0 137:0.0 138:0.0 139:0.0 140:0.0 141:0.0 142:0.0 143:0.0 144:0.0 145:0.0 146:0.0 147:0.0 148:0.0 149:0.0 150:0.0 151:0.0 152:0.0 153:0.0 154:0.0 155:0.0 156:0.0 157:0.0 158:0.0 159:0.0 160:0.0 
1.0 1:0.0 2:0.0 3:0.0 4:0.0 5:0.0 6:0.0 7:0.0 8:0.0 9:0.0 10:0.0 11:0.0 12:0.0 13:0.0 14:0.0 15:0.0 16:0.0 17:0.0 18:0.0 19:0.0 20:0.0 21:0.0 22:0.0 23:0.0 24:0.0 25:0.0 26:0.0 27:0.0 28:0.0 29:0.0 30:0.0 31:0.0 32:0.0 33:0.0 34:0.0 35:0.0 36:0.0 37:0.0 38:0.0 39:0.0 40:0.0 41:0.0 42:0.0 43:0.0 44:0.0 45:0.0 46:0.0 47:0.0 48:0.0 49:0.0 50:0.0 51:0.0 52:0.0 53:0.0 54:0.0 55:0.0 56:0.0 57:0.0 58:0.0 59:0.0 60:0.0 61:0.0 62:0.0 63:0.0 64:0.0 65:0.0 66:0.0 67:0.0 68:0.0 69:0.0 70:0.0 71:0.0 72:0.0 73:0.0 74:0.0 75:0.0 76:0.0 77:0.0 78:0.0 79:0.0 80:0.0 81:0.0 82:0.0 83:0.0 84:0.0 85:0.0 86:0.0 87:0.0 88:0.0 89:0.0 90:0.0 91:0.0 92:0.0 93:0.0 94:0.0 95:0.0 96:0.0 97:0.0 98:0.0 99:0.0 100:0.0 101:0.0 102:0.0 103:0.0 104:0.0 105:0.0 106:0.0 107:0.0 108:0.0 109:0.0 110:0.0 111:0.0 112:1.0 113:0.0 114:0.0 115:0.0 116:0.0 117:0.0 118:0.0 119:0.0 120:0.0 121:0.0 122:0.0 123:0.0 124:0.0 125:0.0 126:0.0 127:0.0 128:0.0 129:0.0 130:0.0 131:0.0 132:0.0 133:0.0 134:0.0 135:0.0 136:0.0 137:0.0 138:0.0 139:0.0 140:0.0 141:0.0 142:0.0 143:0.0 144:0.0 145:0.0 146:0.0 147:0.0 148:0.0 149:0.0 150:0.0 151:0.0 152:0.0 153:0.0 154:0.0 155:0.0 156:0.0 157:0.0 158:0.0 159:0.0 160:0.0 
1.0 1:0.0 2:0.0 3:0.0 4:0.0 5:0.0 6:0.0 7:0.0 8:0.0 9:0.0 10:0.0 11:0.0 12:0.0 13:0.0 14:0.0 15:0.0 16:0.0 17:0.0 18:0.0 19:0.0 20:0.0 21:0.0 22:0.0 23:0.0 24:0.0 25:0.0 26:0.0 27:0.0 28:0.0 29:0.0 30:0.0 31:0.0 32:0.0 33:0.0 34:0.0 35:0.0 36:0.0 37:0.0 38:0.0 39:0.0 40:0.0 41:0.0 42:0.0 43:0.0 44:0.0 45:0.0 46:0.0 47:0.0 48:0.0 49:0.0 50:0.0 51:0.0 52:0.0 53:0.0 54:0.0 55:0.0 56:0.0 57:0.0 58:0.0 59:0.0 60:0.0 61:0.0 62:0.0 63:0.0 64:0.0 65:0.0 66:0.0 67:0.0 68:0.0 69:0.0 70:0.0 71:0.0 72:0.0 73:0.0 74:0.0 75:0.0 76:0.0 77:0.0 78:0.0 79:0.0 80:0.0 81:0.0 82:0.0 83:0.0 84:0.0 85:0.0 86:0.0 87:0.0 88:0.0 89:0.0 90:0.0 91:0.0 92:0.0 93:0.0 94:0.0 95:0.0 96:0.0 97:0.0 98:0.0 99:0.0 100:0.0 101:0.0 102:0.0 103:0.0 104:0.0 105:0.0 106:0.0 107:0.0 108:0.0 109:0.0 110:0.0 111:0.0 112:1.0 113:0.0 114:0.0 115:0.0 116:0.0 117:0.0 118:0.0 119:0.0 120:0.0 121:0.0 122:0.0 123:0.0 124:0.0 125:0.0 126:0.0 127:0.0 128:0.0 129:0.0 130:0.0 131:0.0 132:0.0 133:0.0 134:0.0 135:0.0 136:0.0 137:0.0 138:0.0 139:0.0 140:0.0 141:0.0 142:0.0 143:0.0 144:0.0 145:0.0 146:0.0 147:0.0 148:0.0 149:0.0 150:0.0 151:0.0 152:0.0 153:0.0 154:0.0 155:0.0 156:0.0 157:0.0 158:0.0 159:0.0 160:0.0 
1.0 1:0.0 2:0.0 3:0.0 4:0.0 5:0.0 6:0.0 7:0.0 8:0.0 9:0.0 10:0.0 11:0.0 12:0.0 13:0.0 14:0.0 15:0.0 16:0.0 17:0.0 18:0.0 19:0.0 20:0.0 21:0.0 22:0.0 23:0.0 24:0.0 25:0.0 26:0.0 27:0.0 28:0.0 29:0.0 30:0.0 31:0.0 32:0.0 33:0.0 34:0.0 35:0.0 36:0.0 37:0.0 38:0.0 39:0.0 40:0.0 41:0.0 42:0.0 43:0.0 44:0.0 45:0.0 46:0.0 47:0.0 48:0.0 49:0.0 50:0.0 51:0.0 52:0.0 53:0.0 54:0.0 55:0.0 56:0.0 57:0.0 58:0.0 59:0.0 60:0.0 61:0.0 62:0.0 63:0.0 64:0.0 65:0.0 66:0.0 67:0.0 68:0.0 69:0.0 70:0.0 71:0.0 72:0.0 73:0.0 74:0.0 75:0.0 76:0.0 77:0.0 78:0.0 79:0.0 80:0.0 81:0.0 82:0.0 83:0.0 84:0.0 85:0.0 86:0.0 87:0.0 88:0.0 89:0.0 90:0.0 91:0.0 92:0.0 93:0.0 94:0.0 95:0.0 96:0.0 97:0.0 98:0.0 99:0.0 100:0.0 101:0.0 102:0.0 103:0.0 104:0.0 105:0.0 106:0.0 107:0.0 108:0.0 109:0.0 110:0.0 111:0.0 112:1.0 113:0.0 114:0.0 115:0.0 116:0.0 117:0.0 118:0.0 119:0.0 120:0.0 121:0.0 122:0.0 123:0.0 124:0.0 125:0.0 126:0.0 127:0.0 128:0.0 129:0.0 130:0.0 131:0.0 132:0.0 133:0.0 134:0.0 135:0.0 136:0.0 137:0.0 138:0.0 139:0.0 140:0.0 141:0.0 142:0.0 143:0.0 144:0.0 145:0.0 146:0.0 147:0.0 148:0.0 149:0.0 150:0.0 151:0.0 152:0.0 153:0.0 154:0.0 155:0.0 156:0.0 157:0.0 158:0.0 159:0.0 160:0.0 
1.0 1:0.0 2:0.0 3:0.0 4:0.0 5:0.0 6:0.0 7:0.0 8:0.0 9:0.0 10:0.0 11:0.0 12:0.0 13:0.0 14:0.0 15:0.0 16:0.0 17:0.0 18:0.0 19:0.0 20:0.0 21:0.0 22:0.0 23:0.0 24:0.0 25:0.0 26:0.0 27:0.0 28:0.0 29:0.0 30:0.0 31:0.0 32:0.0 33:0.0 34:0.0 35:0.0 36:0.0 37:0.0 38:0.0 39:0.0 40:0.0 41:0.0 42:0.0 43:0.0 44:0.0 45:0.0 46:0.0 47:0.0 48:0.0 49:0.0 50:0.0 51:0.0 52:0.0 53:0.0 54:0.0 55:0.0 56:0.0 57:0.0 58:0.0 59:0.0 60:0.0 61:0.0 62:0.0 63:0.0 64:0.0 65:0.0 66:0.0 67:0.0 68:0.0 69:0.0 70:0.0 71:0.0 72:0.0 73:0.0 74:0.0 75:0.0 76:0.0 77:0.0 78:0.0 79:0.0 80:0.0 81:0.0 82:0.0 83:0.0 84:0.0 85:0.0 86:0.0 87:0.0 88:0.0 89:0.0 90:0.0 91:0.0 92:0.0 93:0.0 94:0.0 95:0.0 96:0.0 97:0.0 98:0.0 99:0.0 100:0.0 101:0.0 102:0.0 103:0.0 104:0.0 105:0.0 106:0.0 107:0.0 108:0.0 109:0.0 110:0.0 111:0.0 112:1.0 113:0.0 114:0.0 115:0.0 116:0.0 117:0.0 118:0.0 119:0.0 120:0.0 121:0.0 122:0.0 123:0.0 124:0.0 125:0.0 126:0.0 127:0.0 128:0.0 129:0.0 130:0.0 131:0.0 132:0.0 133:0.0 134:0.0 135:0.0 136:0.0 137:0.0 138:0.0 139:0.0 140:0.0 141:0.0 142:0.0 143:0.0 144:0.0 145:0.0 146:0.0 147:0.0 148:0.0 149:0.0 150:0.0 151:0.0 152:0.0 153:0.0 154:0.0 155:0.0 156:0.0 157:0.0 158:0.0 159:0.0 160:0.0 
1.0 1:0.0 2:0.0 3:0.0 4:0.0 5:0.0 6:0.0 7:0.0 8:0.0 9:0.0 10:0.0 11:0.0 12:0.0 13:0.0 14:0.0 15:0.0 16:0.0 17:0.0 18:0.0 19:0.0 20:0.0 21:0.0 22:0.0 23:0.0 24:0.0 25:0.0 26:0.0 27:0.0 28:0.0 29:0.0 30:0.0 31:0.0 32:0.0 33:0.0 34:0.0 35:0.0 36:0.0 37:0.0 38:0.0 39:0.0 40:0.0 41:0.0 42:0.0 43:0.0 44:0.0 45:0.0 46:0.0 47:0.0 48:0.0 49:0.0 50:0.0 51:0.0 52:0.0 53:0.0 54:0.0 55:0.0 56:0.0 57:0.0 58:0.0 59:0.0 60:0.0 61:0.0 62:0.0 63:0.0 64:0.0 65:0.0 66:0.0 67:0.0 68:0.0 69:0.0 70:0.0 71:0.0 72:0.0 73:0.0 74:0.0 75:0.0 76:0.0 77:0.0 78:0.0 79:0.0 80:0.0 81:0.0 82:0.0 83:0.0 84:0.0 85:0.0 86:0.0 87:0.0 88:0.0 89:0.0 90:0.0 91:0.0 92:0.0 93:0.0 94:0.0 95:0.0 96:0.0 97:0.0 98:0.0 99:0.0 100:0.0 101:0.0 102:0.0 103:0.0 104:0.0 105:0.0 106:0.0 107:0.0 108:0.0 109:0.0 110:0.0 111:0.0 112:1.0 113:0.0 114:0.0 115:0.0 116:0.0 117:0.0 118:0.0 119:0.0 120:0.0 121:0.0 122:0.0 123:0.0 124:0.0 125:0.0 126:0.0 127:0.0 128:0.0 129:0.0 130:0.0 131:0.0 132:0.0 133:0.0 134:0.0 135:0.0 136:0.0 137:0.0 138:0.0 139:0.0 140:0.0 141:0.0 142:0.0 143:0.0 144:0.0 145:0.0 146:0.0 147:0.0 148:0.0 149:0.0 150:0.0 151:0.0 152:0.0 153:0.0 154:0.0 155:0.0 156:0.0 157:0.0 158:0.0 159:0.0 160:0.0 
1.0 1:0.0 2:0.0 3:0.0 4:0.0 5:0.0 6:0.0 7:0.0 8:0.0 9:0.0 10:0.0 11:0.0 12:0.0 13:0.0 14:0.0 15:0.0 16:0.0 17:0.0 18:0.0 19:0.0 20:0.0 21:0.0 22:0.0 23:0.0 24:0.0 25:0.0 26:0.0 27:0.0 28:0.0 29:0.0 30:0.0 31:0.0 32:0.0 33:0.0 34:0.0 35:0.0 36:0.0 37:0.0 38:0.0 39:0.0 40:0.0 41:0.0 42:0.0 43:0.0 44:0.0 45:0.0 46:0.0 47:0.0 48:0.0 49:0.0 50:0.0 51:0.0 52:0.0 53:0.0 54:0.0 55:0.0 56:0.0 57:0.0 58:0.0 59:0.0 60:0.0 61:0.0 62:0.0 63:0.0 64:0.0 65:0.0 66:0.0 67:0.0 68:0.0 69:0.0 70:0.0 71:0.0 72:0.0 73:0.0 74:0.0 75:0.0 76:0.0 77:0.0 78:0.0 79:0.0 80:0.0 81:0.0 82:0.0 83:0.0 84:0.0 85:0.0 86:0.0 87:0.0 88:0.0 89:0.0 90:0.0 91:0.0 92:0.0 93:0.0 94:0.0 95:0.0 96:0.0 97:0.0 98:0.0 99:0.0 100:0.0 101:0.0 102:0.0 103:0.0 104:0.0 105:0.0 106:0.0 107:0.0 108:0.0 109:0.0 110:0.0 111:0.0 112:1.0 113:0.0 114:0.0 115:0.0 116:0.0 117:0.0 118:0.0 119:0.0 120:0.0 121:0.0 122:0.0 123:0.0 124:0.0 125:0.0 126:0.0 127:0.0 128:0.0 129:0.0 130:0.0 131:0.0 132:0.0 133:0.0 134:0.0 135:0.0 136:0.0 137:0.0 138:0.0 139:0.0 140:0.0 141:0.0 142:0.0 143:0.0 144:0.0 145:0.0 146:0.0 147:0.0 148:0.0 149:0.0 150:0.0 151:0.0 152:0.0 153:0.0 154:0.0 155:0.0 156:0.0 157:0.0 158:0.0 159:0.0 160:0.0 
1.0 1:0.0 2:0.0 3:0.0 4:0.0 5:0.0 6:0.0 7:0.0 8:0.0 9:0.0 10:0.0 11:0.0 12:0.0 13:0.0 14:0.0 15:0.0 16:0.0 17:0.0 18:0.0 19:0.0 20:0.0 21:0.0 22:0.0 23:0.0 24:0.0 25:0.0 26:0.0 27:0.0 28:0.0 29:0.0 30:0.0 31:0.0 32:0.0 33:0.0 34:0.0 35:0.0 36:0.0 37:0.0 38:0.0 39:0.0 40:0.0 41:0.0 42:0.0 43:0.0 44:0.0 45:0.0 46:0.0 47:0.0 48:0.0 49:0.0 50:0.0 51:0.0 52:0.0 53:0.0 54:0.0 55:0.0 56:0.0 57:0.0 58:0.0 59:0.0 60:0.0 61:0.0 62:0.0 63:0.0 64:0.0 65:0.0 66:0.0 67:0.0 68:0.0 69:0.0 70:0.0 71:0.0 72:0.0 73:0.0 74:0.0 75:0.0 76:0.0 77:0.0 78:0.0 79:0.0 80:0.0 81:0.0 82:0.0 83:0.0 84:0.0 85:0.0 86:0.0 87:0.0 88:0.0 89:0.0 90:0.0 91:0.0 92:0.0 93:0.0 94:0.0 95:0.0 96:0.0 97:0.0 98:0.0 99:0.0 100:0.0 101:0.0 102:0.0 103:0.0 104:0.0 105:0.0 106:0.0 107:0.0 108:0.0 109:0.0 110:0.0 111:0.0 112:1.0 113:0.0 114:0.0 115:0.0 116:0.0 117:0.0 118:0.0 119:0.0 120:0.0 121:0.0 122:0.0 123:0.0 124:0.0 125:0.0 126:0.0 127:0.0 128:0.0 129:0.0 130:0.0 131:0.0 132:0.0 133:0.0 134:0.0 135:0.0 136:0.0 137:0.0 138:0.0 139:0.0 140:0.0 141:0.0 142:0.0 143:0.0 144:0.0 145:0.0 146:0.0 147:0.0 148:0.0 149:0.0 150:0.0 151:0.0 152:0.0 153:0.0 154:0.0 155:0.0 156:0.0 157:0.0 158:0.0 159:0.0 160:0.0 
1.0 1:0.0 2:0.0 3:0.0 4:0.0 5:0.0 6:0.0 7:0.0 8:0.0 9:0.0 10:0.0 11:0.0 12:0.0 13:0.0 14:0.0 15:0.0 16:0.0 17:0.0 18:0.0 19:0.0 20:0.0 21:0.0 22:0.0 23:0.0 24:0.0 25:0.0 26:0.0 27:0.0 28:0.0 29:0.0 30:0.0 31:0.0 32:0.0 33:0.0 34:0.0 35:0.0 36:0.0 37:0.0 38:0.0 39:0.0 40:0.0 41:0.0 42:0.0 43:0.0 44:0.0 45:0.0 46:0.0 47:0.0 48:0.0 49:0.0 50:0.0 51:0.0 52:0.0 53:0.0 54:0.0 55:0.0 56:0.0 57:0.0 58:0.0 59:0.0 60:0.0 61:0.0 62:0.0 63:0.0 64:0.0 65:0.0 66:0.0 67:0.0 68:0.0 69:0.0 70:0.0 71:0.0 72:0.0 73:0.0 74:0.0 75:0.0 76:0.0 77:0.0 78:0.0 79:0.0 80:0.0 81:0.0 82:0.0 83:0.0 84:0.0 85:0.0 86:0.0 87:0.0 88:0.0 89:0.0 90:0.0 91:0.0 92:0.0 93:0.0 94:0.0 95:0.0 96:0.0 97:0.0 98:0.0 99:0.0 100:0.0 101:0.0 102:0.0 103:0.0 104:0.0 105:0.0 106:0.0 107:0.0 108:0.0 109:0.0 110:0.0 111:0.0 112:1.0 113:0.0 114:0.0 115:0.0 116:0.0 117:0.0 118:0.0 119:0.0 120:0.0 121:0.0 122:0.0 123:0.0 124:0.0 125:0.0 126:0.0 127:0.0 128:0.0 129:0.0 130:0.0 131:0.0 132:0.0 133:0.0 134:0.0 135:0.0 136:0.0 137:0.0 138:0.0 139:0.0 140:0.0 141:0.0 142:0.0 143:0.0 144:0.0 145:0.0 146:0.0 147:0.0 148:0.0 149:0.0 150:0.0 151:0.0 152:0.0 153:0.0 154:0.0 155:0.0 156:0.0 157:0.0 158:0.0 159:0.0 160:0.0 
1.0 1:0.0 2:0.0 3:0.0 4:0.0 5:0.0 6:0.0 7:0.0 8:0.0 9:0.0 10:0.0 11:0.0 12:0.0 13:0.0 14:0.0 15:0.0 16:0.0 17:0.0 18:0.0 19:0.0 20:0.0 21:0.0 22:0.0 23:0.0 24:0.0 25:0.0 26:0.0 27:0.0 28:0.0 29:0.0 30:0.0 31:0.0 32:0.0 33:0.0 34:0.0 35:0.0 36:0.0 37:0.0 38:0.0 39:0.0 40:0.0 41:0.0 42:0.0 43:0.0 44:0.0 45:0.0 46:0.0 47:0.0 48:0.0 49:0.0 50:0.0 51:0.0 52:0.0 53:0.0 54:0.0 55:0.0 56:0.0 57:0.0 58:0.0 59:0.0 60:0.0 61:0.0 62:0.0 63:0.0 64:0.0 65:0.0 66:0.0 67:0.0 68:0.0 69:0.0 70:0.0 71:0.0 72:0.0 73:0.0 74:0.0 75:0.0 76:0.0 77:0.0 78:0.0 79:0.0 80:0.0 81:0.0 82:0.0 83:0.0 84:0.0 85:0.0 86:0.0 87:0.0 88:0.0 89:0.0 90:0.0 91:0.0 92:0.0 93:0.0 94:0.0 95:0.0 96:0.0 97:0.0 98:0.0 99:0.0 100:0.0 101:0.0 102:0.0 103:0.0 104:0.0 105:0.0 106:0.0 107:0.0 108:0.0 109:0.0 110:0.0 111:0.0 112:1.0 113:0.0 114:0.0 115:0.0 116:0.0 117:0.0 118:0.0 119:0.0 120:0.0 121:0.0 122:0.0 123:0.0 124:0.0 125:0.0 126:0.0 127:0.0 128:0.0 129:0.0 130:0.0 131:0.0 132:0.0 133:0.0 134:0.0 135:0.0 136:0.0 137:0.0 138:0.0 139:0.0 140:0.0 141:0.0 142:0.0 143:0.0 144:0.0 145:0.0 146:0.0 147:0.0 148:0.0 149:0.0 150:0.0 151:0.0 152:0.0 153:0.0 154:0.0 155:0.0 156:0.0 157:0.0 158:0.0 159:0.0 160:0.0 
1.0 1:0.0 2:0.0 3:0.0 4:0.0 5:0.0 6:0.0 7:0.0 8:0.0 9:0.0 10:0.0 11:0.0 12:0.0 13:0.0 14:0.0 15:0.0 16:0.0 17:0.0 18:0.0 19:0.0 20:0.0 21:0.0 22:0.0 23:0.0 24:0.0 25:0.0 26:0.0 27:0.0 28:0.0 29:0.0 30:0.0 31:0.0 32:0.0 33:0.0 34:0.0 35:0.0 36:0.0 37:0.0 38:0.0 39:0.0 40:0.0 41:0.0 42:0.0 43:0.0 44:0.0 45:0.0 46:0.0 47:0.0 48:0.0 49:0.0 50:0.0 51:0.0 52:0.0 53:0.0 54:0.0 55:0.0 56:0.0 57:0.0 58:0.0 59:0.0 60:0.0 61:0.0 62:0.0 63:0.0 64:0.0 65:0.0 66:0.0 67:0.0 68:0.0 69:0.0 70:0.0 71:0.0 72:0.0 73:0.0 74:0.0 75:0.0 76:0.0 77:0.0 78:0.0 79:0.0 80:0.0 81:0.0 82:0.0 83:0.0 84:0.0 85:0.0 86:0.0 87:0.0 88:0.0 89:0.0 90:0.0 91:0.0 92:0.0 93:0.0 94:0.0 95:0.0 96:0.0 97:0.0 98:0.0 99:0.0 100:0.0 101:0.0 102:0.0 103:0.0 104:0.0 105:0.0 106:0.0 107:0.0 108:0.0 109:0.0 110:0.0 111:0.0 112:1.0 113:0.0 114:0.0 115:0.0 116:0.0 117:0.0 118:0.0 119:0.0 120:0.0 121:0.0 122:0.0 123:0.0 124:0.0 125:0.0 126:0.0 127:0.0 128:0.0 129:0.0 130:0.0 131:0.0 132:0.0 133:0.0 134:0.0 135:0.0 136:0.0 137:0.0 138:0.0 139:0.0 140:0.0 141:0.0 142:0.0 143:0.0 144:0.0 145:0.0 146:0.0 147:0.0 148:0.0 149:0.0 150:0.0 151:0.0 152:0.0 153:0.0 154:0.0 155:0.0 156:0.0 157:0.0 158:0.0 159:0.0 160:0.0 
1.0 1:0.0 2:0.0 3:0.0 4:0.0 5:0.0 6:0.0 7:0.0 8:0.0 9:0.0 10:0.0 11:0.0 12:0.0 13:0.0 14:0.0 15:0.0 16:0.0 17:0.0 18:0.0 19:0.0 20:0.0 21:0.0 22:0.0 23:0.0 24:0.0 25:0.0 26:0.0 27:0.0 28:0.0 29:0.0 30:0.0 31:0.0 32:0.0 33:0.0 34:0.0 35:0.0 36:0.0 37:0.0 38:0.0 39:0.0 40:0.0 41:0.0 42:0.0 43:0.0 44:0.0 45:0.0 46:0.0 47:0.0 48:0.0 49:0.0 50:0.0 51:0.0 52:0.0 53:0.0 54:0.0 55:0.0 56:0.0 57:0.0 58:0.0 59:0.0 60:0.0 61:0.0 62:0.0 63:0.0 64:0.0 65:0.0 66:0.0 67:0.0 68:0.0 69:0.0 70:0.0 71:0.0 72:0.0 73:0.0 74:0.0 75:0.0 76:0.0 77:0.0 78:0.0 79:0.0 80:0.0 81:0.0 82:0.0 83:0.0 84:0.0 85:0.0 86:0.0 87:0.0 88:0.0 89:0.0 90:0.0 91:0.0 92:0.0 93:0.0 94:0.0 95:0.0 96:0.0 97:0.0 98:0.0 99:0.0 100:0.0 101:0.0 102:0.0 103:0.0 104:0.0 105:0.0 106:0.0 107:0.0 108:0.0 109:0.0 110:0.0 111:0.0 112:1.0 113:0.0 114:0.0 115:0.0 116:0.0 117:0.0 118:0.0 119:0.0 120:0.0 121:0.0 122:0.0 123:0.0 124:0.0 125:0.0 126:0.0 127:0.0 128:0.0 129:0.0 130:0.0 131:0.0 132:0.0 133:0.0 134:0.0 135:0.0 136:0.0 137:0.0 138:0.0 139:0.0 140:0.0 141:0.0 142:0.0 143:0.0 144:0.0 145:0.0 146:0.0 147:0.0 148:0.0 149:0.0 150:0.0 151:0.0 152:0.0 153:0.0 154:0.0 155:0.0 156:0.0 157:0.0 158:0.0 159:0.0 160:0.0 
1.0 1:0.0 2:0.0 3:0.0 4:0.0 5:0.0 6:0.0 7:0.0 8:0.0 9:0.0 10:0.0 11:0.0 12:0.0 13:0.0 14:0.0 15:0.0 16:0.0 17:0.0 18:0.0 19:0.0 20:0.0 21:0.0 22:0.0 23:0.0 24:0.0 25:0.0 26:0.0 27:0.0 28:0.0 29:0.0 30:0.0 31:0.0 32:0.0 33:0.0 34:0.0 35:0.0 36:0.0 37:0.0 38:0.0 39:0.0 40:0.0 41:0.0 42:0.0 43:0.0 44:0.0 45:0.0 46:0.0 47:0.0 48:0.0 49:0.0 50:0.0 51:0.0 52:0.0 53:0.0 54:0.0 55:0.0 56:0.0 57:0.0 58:0.0 59:0.0 60:0.0 61:0.0 62:0.0 63:0.0 64:0.0 65:0.0 66:0.0 67:0.0 68:0.0 69:0.0 70:0.0 71:0.0 72:0.0 73:0.0 74:0.0 75:0.0 76:0.0 77:0.0 78:0.0 79:0.0 80:0.0 81:0.0 82:0.0 83:0.0 84:0.0 85:0.0 86:0.0 87:0.0 88:0.0 89:0.0 90:0.0 91:0.0 92:0.0 93:0.0 94:0.0 95:0.0 96:0.0 97:0.0 98:0.0 99:0.0 100:0.0 101:0.0 102:0.0 103:0.0 104:0.0 105:0.0 106:0.0 107:0.0 108:0.0 109:0.0 110:0.0 111:0.0 112:1.0 113:0.0 114:0.0 115:0.0 116:0.0 117:0.0 118:0.0 119:0.0 120:0.0 121:0.0 122:0.0 123:0.0 124:0.0 125:0.0 126:0.0 127:0.0 128:0.0 129:0.0 130:0.0 131:0.0 132:0.0 133:0.0 134:0.0 135:0.0 136:0.0 137:0.0 138:0.0 139:0.0 140:0.0 141:0.0 142:0.0 143:0.0 144:0.0 145:0.0 146:0.0 147:0.0 148:0.0 149:0.0 150:0.0 151:0.0 152:0.0 153:0.0 154:0.0 155:0.0 156:0.0 157:0.0 158:0.0 159:0.0 160:0.0 
1.0 1:0.0 2:0.0 3:0.0 4:0.0 5:0.0 6:0.0 7:0.0 8:0.0 9:0.0 10:0.0 11:0.0 12:0.0 13:0.0 14:0.0 15:0.0 16:0.0 17:0.0 18:0.0 19:0.0 20:0.0 21:0.0 22:0.0 23:0.0 24:0.0 25:0.0 26:0.0 27:0.0 28:0.0 29:0.0 30:0.0 31:0.0 32:0.0 33:0.0 34:0.0 35:0.0 36:0.0 37:0.0 38:0.0 39:0.0 40:0.0 41:0.0 42:0.0 43:0.0 44:0.0 45:0.0 46:0.0 47:0.0 48:0.0 49:0.0 50:0.0 51:0.0 52:0.0 53:0.0 54:0.0 55:0.0 56:0.0 57:0.0 58:0.0 59:0.0 60:0.0 61:0.0 62:0.0 63:0.0 64:0.0 65:0.0 66:0.0 67:0.0 68:0.0 69:0.0 70:0.0 71:0.0 72:0.0 73:0.0 74:0.0 75:0.0 76:0.0 77:0.0 78:0.0 79:0.0 80:0.0 81:0.0 82:0.0 83:0.0 84:0.0 85:0.0 86:0.0 87:0.0 88:0.0 89:0.0 90:0.0 91:0.0 92:0.0 93:0.0 94:0.0 95:0.0 96:0.0 97:0.0 98:0.0 99:0.0 100:0.0 101:0.0 102:0.0 103:0.0 104:0.0 105:0.0 106:0.0 107:0.0 108:0.0 109:0.0 110:0.0 111:0.0 112:1.0 113:0.0 114:0.0 115:0.0 116:0.0 117:0.0 118:0.0 119:0.0 120:0.0 121:0.0 122:0.0 123:0.0 124:0.0 125:0.0 126:0.0 127:0.0 128:0.0 129:0.0 130:0.0 131:0.0 132:0.0 133:0.0 134:0.0 135:0.0 136:0.0 137:0.0 138:0.0 139:0.0 140:0.0 141:0.0 142:0.0 143:0.0 144:0.0 145:0.0 146:0.0 147:0.0 148:0.0 149:0.0 150:0.0 151:0.0 152:0.0 153:0.0 154:0.0 155:0.0 156:0.0 157:0.0 158:0.0 159:0.0 160:0.0 
1.0 1:0.0 2:0.0 3:0.0 4:0.0 5:0.0 6:0.0 7:0.0 8:0.0 9:0.0 10:0.0 11:0.0 12:0.0 13:0.0 14:0.0 15:0.0 16:0.0 17:0.0 18:0.0 19:0.0 20:0.0 21:0.0 22:0.0 23:0.0 24:0.0 25:0.0 26:0.0 27:0.0 28:0.0 29:0.0 30:0.0 31:0.0 32:0.0 33:0.0 34:0.0 35:0.0 36:0.0 37:0.0 38:0.0 39:0.0 40:0.0 41:0.0 42:0.0 43:0.0 44:0.0 45:0.0 46:0.0 47:0.0 48:0.0 49:0.0 50:0.0 51:0.0 52:0.0 53:0.0 54:0.0 55:0.0 56:0.0 57:0.0 58:0.0 59:0.0 60:0.0 61:0.0 62:0.0 63:0.0 64:0.0 65:0.0 66:0.0 67:0.0 68:0.0 69:0.0 70:0.0 71:0.0 72:0.0 73:0.0 74:0.0 75:0.0 76:0.0 77:0.0 78:0.0 79:0.0 80:0.0 81:0.0 82:0.0 83:0.0 84:0.0 85:0.0 86:0.0 87:0.0 88:0.0 89:0.0 90:0.0 91:0.0 92:0.0 93:0.0 94:0.0 95:0.0 96:0.0 97:0.0 98:0.0 99:0.0 100:0.0 101:0.0 102:0.0 103:0.0 104:0.0 105:0.0 106:0.0 107:0.0 108:0.0 109:0.0 110:0.0 111:0.0 112:1.0 113:0.0 114:0.0 115:0.0 116:0.0 117:0.0 118:0.0 119:0.0 120:0.0 121:0.0 122:0.0 123:0.0 124:0.0 125:0.0 126:0.0 127:0.0 128:0.0 129:0.0 130:0.0 131:0.0 132:0.0 133:0.0 134:0.0 135:0.0 136:0.0 137:0.0 138:0.0 139:0.0 140:0.0 141:0.0 142:0.0 143:0.0 144:0.0 145:0.0 146:0.0 147:0.0 148:0.0 149:0.0 150:0.0 151:0.0 152:0.0 153:0.0 154:0.0 155:0.0 156:0.0 157:0.0 158:0.0 159:0.0 160:0.0 
1.0 1:0.0 2:0.0 3:0.0 4:0.0 5:0.0 6:0.0 7:0.0 8:0.0 9:0.0 10:0.0 11:0.0 12:0.0 13:0.0 14:0.0 15:0.0 16:0.0 17:0.0 18:0.0 19:0.0 20:0.0 21:0.0 22:0.0 23:0.0 24:0.0 25:0.0 26:0.0 27:0.0 28:0.0 29:0.0 30:0.0 31:0.0 32:0.0 33:0.0 34:0.0 35:0.0 36:0.0 37:0.0 38:0.0 39:0.0 40:0.0 41:0.0 42:0.0 43:0.0 44:0.0 45:0.0 46:0.0 47:0.0 48:0.0 49:0.0 50:0.0 51:0.0 52:0.0 53:0.0 54:0.0 55:0.0 56:0.0 57:0.0 58:0.0 59:0.0 60:0.0 61:0.0 62:0.0 63:0.0 64:0.0 65:0.0 66:0.0 67:0.0 68:0.0 69:0.0 70:0.0 71:0.0 72:0.0 73:0.0 74:0.0 75:0.0 76:0.0 77:0.0 78:0.0 79:0.0 80:0.0 81:0.0 82:0.0 83:0.0 84:0.0 85:0.0 86:0.0 87:0.0 88:0.0 89:0.0 90:0.0 91:0.0 92:0.0 93:0.0 94:0.0 95:0.0 96:0.0 97:0.0 98:0.0 99:0.0 100:0.0 101:0.0 102:0.0 103:0.0 104:0.0 105:0.0 106:0.0 107:0.0 108:0.0 109:0.0 110:0.0 111:0.0 112:1.0 113:0.0 114:0.0 115:0.0 116:0.0 117:0.0 118:0.0 119:0.0 120:0.0 121:0.0 122:0.0 123:0.0 124:0.0 125:0.0 126:0.0 127:0.0 128:0.0 129:0.0 130:0.0 131:0.0 132:0.0 133:0.0 134:0.0 135:0.0 136:0.0 137:0.0 138:0.0 139:0.0 140:0.0 141:0.0 142:0.0 143:0.0 144:0.0 145:0.0 146:0.0 147:0.0 148:0.0 149:0.0 150:0.0 151:0.0 152:0.0 153:0.0 154:0.0 155:0.0 156:0.0 157:0.0 158:0.0 159:0.0 160:0.0 
1.0 1:0.0 2:0.0 3:0.0 4:0.0 5:0.0 6:0.0 7:0.0 8:0.0 9:0.0 10:0.0 11:0.0 12:0.0 13:0.0 14:0.0 15:0.0 16:0.0 17:0.0 18:0.0 19:0.0 20:0.0 21:0.0 22:0.0 23:0.0 24:0.0 25:0.0 26:0.0 27:0.0 28:0.0 29:0.0 30:0.0 31:0.0 32:0.0 33:0.0 34:0.0 35:0.0 36:0.0 37:0.0 38:0.0 39:0.0 40:0.0 41:0.0 42:0.0 43:0.0 44:0.0 45:0.0 46:0.0 47:0.0 48:0.0 49:0.0 50:0.0 51:0.0 52:0.0 53:0.0 54:0.0 55:0.0 56:0.0 57:0.0 58:0.0 59:0.0 60:0.0 61:0.0 62:0.0 63:0.0 64:0.0 65:0.0 66:0.0 67:0.0 68:0.0 69:0.0 70:0.0 71:0.0 72:0.0 73:0.0 74:0.0 75:0.0 76:0.0 77:0.0 78:0.0 79:0.0 80:0.0 81:0.0 82:0.0 83:0.0 84:0.0 85:0.0 86:0.0 87:0.0 88:0.0 89:0.0 90:0.0 91:0.0 92:0.0 93:0.0 94:0.0 95:0.0 96:0.0 97:0.0 98:0.0 99:0.0 100:0.0 101:0.0 102:0.0 103:0.0 104:0.0 105:0.0 106:0.0 107:0.0 108:0.0 109:0.0 110:0.0 111:0.0 112:1.0 113:0.0 114:0.0 115:0.0 116:0.0 117:0.0 118:0.0 119:0.0 120:0.0 121:0.0 122:0.0 123:0.0 124:0.0 125:0.0 126:0.0 127:0.0 128:0.0 129:0.0 130:0.0 131:0.0 132:0.0 133:0.0 134:0.0 135:0.0 136:0.0 137:0.0 138:0.0 139:0.0 140:0.0 141:0.0 142:0.0 143:0.0 144:0.0 145:0.0 146:0.0 147:0.0 148:0.0 149:0.0 150:0.0 151:0.0 152:0.0 153:0.0 154:0.0 155:0.0 156:0.0 157:0.0 158:0.0 159:0.0 160:0.0 
1.0 1:0.0 2:0.0 3:0.0 4:0.0 5:0.0 6:0.0 7:0.0 8:0.0 9:0.0 10:0.0 11:0.0 12:0.0 13:0.0 14:0.0 15:0.0 16:0.0 17:0.0 18:0.0 19:0.0 20:0.0 21:0.0 22:0.0 23:0.0 24:0.0 25:0.0 26:0.0 27:0.0 28:0.0 29:0.0 30:0.0 31:0.0 32:0.0 33:0.0 34:0.0 35:0.0 36:0.0 37:0.0 38:0.0 39:0.0 40:0.0 41:0.0 42:0.0 43:0.0 44:0.0 45:0.0 46:0.0 47:0.0 48:0.0 49:0.0 50:0.0 51:0.0 52:0.0 53:0.0 54:0.0 55:0.0 56:0.0 57:0.0 58:0.0 59:0.0 60:0.0 61:0.0 62:0.0 63:0.0 64:0.0 65:0.0 66:0.0 67:0.0 68:0.0 69:0.0 70:0.0 71:0.0 72:0.0 73:0.0 74:0.0 75:0.0 76:0.0 77:0.0 78:0.0 79:0.0 80:0.0 81:0.0 82:0.0 83:0.0 84:0.0 85:0.0 86:0.0 87:0.0 88:0.0 89:0.0 90:0.0 91:0.0 92:0.0 93:0.0 94:0.0 95:0.0 96:0.0 97:0.0 98:0.0 99:0.0 100:0.0 101:0.0 102:0.0 103:0.0 104:0.0 105:0.0 106:0.0 107:0.0 108:0.0 109:0.0 110:0.0 111:0.0 112:1.0 113:0.0 114:0.0 115:0.0 116:0.0 117:0.0 118:0.0 119:0.0 120:0.0 121:0.0 122:0.0 123:0.0 124:0.0 125:0.0 126:0.0 127:0.0 128:0.0 129:0.0 130:0.0 131:0.0 132:0.0 133:0.0 134:0.0 135:0.0 136:0.0 137:0.0 138:0.0 139:0.0 140:0.0 141:0.0 142:0.0 143:0.0 144:0.0 145:0.0 146:0.0 147:0.0 148:0.0 149:0.0 150:0.0 151:0.0 152:0.0 153:0.0 154:0.0 155:0.0 156:0.0 157:0.0 158:0.0 159:0.0 160:0.0 
1.0 1:0.0 2:0.0 3:0.0 4:0.0 5:0.0 6:0.0 7:0.0 8:0.0 9:0.0 10:0.0 11:0.0 12:0.0 13:0.0 14:0.0 15:0.0 16:0.0 17:0.0 18:0.0 19:0.0 20:0.0 21:0.0 22:0.0 23:0.0 24:0.0 25:0.0 26:0.0 27:0.0 28:0.0 29:0.0 30:0.0 31:0.0 32:0.0 33:0.0 34:0.0 35:0.0 36:0.0 37:0.0 38:0.0 39:0.0 40:0.0 41:0.0 42:0.0 43:0.0 44:0.0 45:0.0 46:0.0 47:0.0 48:0.0 49:0.0 50:0.0 51:0.0 52:0.0 53:0.0 54:0.0 55:0.0 56:0.0 57:0.0 58:0.0 59:0.0 60:0.0 61:0.0 62:0.0 63:0.0 64:0.0 65:0.0 66:0.0 67:0.0 68:0.0 69:0.0 70:0.0 71:0.0 72:0.0 73:0.0 74:0.0 75:0.0 76:0.0 77:0.0 78:0.0 79:0.0 80:0.0 81:0.0 82:0.0 83:0.0 84:0.0 85:0.0 86:0.0 87:0.0 88:0.0 89:0.0 90:0.0 91:0.0 92:0.0 93:0.0 94:0.0 95:0.0 96:0.0 97:0.0 98:0.0 99:0.0 100:0.0 101:0.0 102:0.0 103:0.0 104:0.0 105:0.0 106:0.0 107:0.0 108:0.0 109:0.0 110:0.0 111:0.0 112:1.0 113:0.0 114:0.0 115:0.0 116:0.0 117:0.0 118:0.0 119:0.0 120:0.0 121:0.0 122:0.0 123:0.0 124:0.0 125:0.0 126:0.0 127:0.0 128:0.0 129:0.0 130:0.0 131:0.0 132:0.0 133:0.0 134:0.0 135:0.0 136:0.0 137:0.0 138:0.0 139:0.0 140:0.0 141:0.0 142:0.0 143:0.0 144:0.0 145:0.0 146:0.0 147:0.0 148:0.0 149:0.0 150:0.0 151:0.0 152:0.0 153:0.0 154:0.0 155:0.0 156:0.0 157:0.0 158:0.0 159:0.0 160:0.0 
1.0 1:0.0 2:0.0 3:0.0 4:0.0 5:0.0 6:0.0 7:0.0 8:0.0 9:0.0 10:0.0 11:0.0 12:0.0 13:0.0 14:0.0 15:0.0 16:0.0 17:0.0 18:0.0 19:0.0 20:0.0 21:0.0 22:0.0 23:0.0 24:0.0 25:0.0 26:0.0 27:0.0 28:0.0 29:0.0 30:0.0 31:0.0 32:0.0 33:0.0 34:0.0 35:0.0 36:0.0 37:0.0 38:0.0 39:0.0 40:0.0 41:0.0 42:0.0 43:0.0 44:0.0 45:0.0 46:0.0 47:0.0 48:0.0 49:0.0 50:0.0 51:0.0 52:0.0 53:0.0 54:0.0 55:0.0 56:0.0 57:0.0 58:0.0 59:0.0 60:0.0 61:0.0 62:0.0 63:0.0 64:0.0 65:0.0 66:0.0 67:0.0 68:0.0 69:0.0 70:0.0 71:0.0 72:0.0 73:0.0 74:0.0 75:0.0 76:0.0 77:0.0 78:0.0 79:0.0 80:0.0 81:0.0 82:0.0 83:0.0 84:0.0 85:0.0 86:0.0 87:0.0 88:0.0 89:0.0 90:0.0 91:0.0 92:0.0 93:0.0 94:0.0 95:0.0 96:0.0 97:0.0 98:0.0 99:0.0 100:0.0 101:0.0 102:0.0 103:0.0 104:0.0 105:0.0 106:0.0 107:0.0 108:0.0 109:0.0 110:0.0 111:0.0 112:1.0 113:0.0 114:0.0 115:0.0 116:0.0 117:0.0 118:0.0 119:0.0 120:0.0 121:0.0 122:0.0 123:0.0 124:0.0 125:0.0 126:0.0 127:0.0 128:0.0 129:0.0 130:0.0 131:0.0 132:0.0 133:0.0 134:0.0 135:0.0 136:0.0 137:0.0 138:0.0 139:0.0 140:0.0 141:0.0 142:0.0 143:0.0 144:0.0 145:0.0 146:0.0 147:0.0 148:0.0 149:0.0 150:0.0 151:0.0 152:0.0 153:0.0 154:0.0 155:0.0 156:0.0 157:0.0 158:0.0 159:0.0 160:0.0 
1.0 1:0.0 2:0.0 3:0.0 4:0.0 5:0.0 6:0.0 7:0.0 8:0.0 9:0.0 10:0.0 11:0.0 12:0.0 13:0.0 14:0.0 15:0.0 16:0.0 17:0.0 18:0.0 19:0.0 20:0.0 21:0.0 22:0.0 23:0.0 24:0.0 25:0.0 26:0.0 27:0.0 28:0.0 29:0.0 30:0.0 31:0.0 32:0.0 33:0.0 34:0.0 35:0.0 36:0.0 37:0.0 38:0.0 39:0.0 40:0.0 41:0.0 42:0.0 43:0.0 44:0.0 45:0.0 46:0.0 47:0.0 48:0.0 49:0.0 50:0.0 51:0.0 52:0.0 53:0.0 54:0.0 55:0.0 56:0.0 57:0.0 58:0.0 59:0.0 60:0.0 61:0.0 62:0.0 63:0.0 64:0.0 65:0.0 66:0.0 67:0.0 68:0.0 69:0.0 70:0.0 71:0.0 72:0.0 73:0.0 74:0.0 75:0.0 76:0.0 77:0.0 78:0.0 79:0.0 80:0.0 81:0.0 82:0.0 83:0.0 84:0.0 85:0.0 86:0.0 87:0.0 88:0.0 89:0.0 90:0.0 91:0.0 92:0.0 93:0.0 94:0.0 95:0.0 96:0.0 97:0.0 98:0.0 99:0.0 100:0.0 101:0.0 102:0.0 103:0.0 104:0.0 105:0.0 106:0.0 107:0.0 108:0.0 109:0.0 110:0.0 111:0.0 112:1.0 113:0.0 114:0.0 115:0.0 116:0.0 117:0.0 118:0.0 119:0.0 120:0.0 121:0.0 122:0.0 123:0.0 124:0.0 125:0.0 126:0.0 127:0.0 128:0.0 129:0.0 130:0.0 131:0.0 132:0.0 133:0.0 134:0.0 135:0.0 136:0.0 137:0.0 138:0.0 139:0.0 140:0.0 141:0.0 142:0.0 143:0.0 144:0.0 145:0.0 146:0.0 147:0.0 148:0.0 149:0.0 150:0.0 151:0.0 152:0.0 153:0.0 154:0.0 155:0.0 156:0.0 157:0.0 158:0.0 159:0.0 160:0.0 
1.0 1:0.0 2:0.0 3:0.0 4:0.0 5:0.0 6:0.0 7:0.0 8:0.0 9:0.0 10:0.0 11:0.0 12:0.0 13:0.0 14:0.0 15:0.0 16:0.0 17:0.0 18:0.0 19:0.0 20:0.0 21:0.0 22:0.0 23:0.0 24:0.0 25:0.0 26:0.0 27:0.0 28:0.0 29:0.0 30:0.0 31:0.0 32:0.0 33:0.0 34:0.0 35:0.0 36:0.0 37:0.0 38:0.0 39:0.0 40:0.0 41:0.0 42:0.0 43:0.0 44:0.0 45:0.0 46:0.0 47:0.0 48:0.0 49:0.0 50:0.0 51:0.0 52:0.0 53:0.0 54:0.0 55:0.0 56:0.0 57:0.0 58:0.0 59:0.0 60:0.0 61:0.0 62:0.0 63:0.0 64:0.0 65:0.0 66:0.0 67:0.0 68:0.0 69:0.0 70:0.0 71:0.0 72:0.0 73:0.0 74:0.0 75:0.0 76:0.0 77:0.0 78:0.0 79:0.0 80:0.0 81:0.0 82:0.0 83:0.0 84:0.0 85:0.0 86:0.0 87:0.0 88:0.0 89:0.0 90:0.0 91:0.0 92:0.0 93:0.0 94:0.0 95:0.0 96:0.0 97:0.0 98:0.0 99:0.0 100:0.0 101:0.0 102:0.0 103:0.0 104:0.0 105:0.0 106:0.0 107:0.0 108:0.0 109:0.0 110:0.0 111:0.0 112:1.0 113:0.0 114:0.0 115:0.0 116:0.0 117:0.0 118:0.0 119:0.0 120:0.0 121:0.0 122:0.0 123:0.0 124:0.0 125:0.0 126:0.0 127:0.0 128:0.0 129:0.0 130:0.0 131:0.0 132:0.0 133:0.0 134:0.0 135:0.0 136:0.0 137:0.0 138:0.0 139:0.0 140:0.0 141:0.0 142:0.0 143:0.0 144:0.0 145:0.0 146:0.0 147:0.0 148:0.0 149:0.0 150:0.0 151:0.0 152:0.0 153:0.0 154:0.0 155:0.0 156:0.0 157:0.0 158:0.0 159:0.0 160:0.0 
1.0 1:0.0 2:0.0 3:0.0 4:0.0 5:0.0 6:0.0 7:0.0 8:0.0 9:0.0 10:0.0 11:0.0 12:0.0 13:0.0 14:0.0 15:0.0 16:0.0 17:0.0 18:0.0 19:0.0 20:0.0 21:0.0 22:0.0 23:0.0 24:0.0 25:0.0 26:0.0 27:0.0 28:0.0 29:0.0 30:0.0 31:0.0 32:0.0 33:0.0 34:0.0 35:0.0 36:0.0 37:0.0 38:0.0 39:0.0 40:0.0 41:0.0 42:0.0 43:0.0 44:0.0 45:0.0 46:0.0 47:0.0 48:0.0 49:0.0 50:0.0 51:0.0 52:0.0 53:0.0 54:0.0 55:0.0 56:0.0 57:0.0 58:0.0 59:0.0 60:0.0 61:0.0 62:0.0 63:0.0 64:0.0 65:0.0 66:0.0 67:0.0 68:0.0 69:0.0 70:0.0 71:0.0 72:0.0 73:0.0 74:0.0 75:0.0 76:0.0 77:0.0 78:0.0 79:0.0 80:0.0 81:0.0 82:0.0 83:0.0 84:0.0 85:0.0 86:0.0 87:0.0 88:0.0 89:0.0 90:0.0 91:0.0 92:0.0 93:0.0 94:0.0 95:0.0 96:0.0 97:0.0 98:0.0 99:0.0 100:0.0 101:0.0 102:0.0 103:0.0 104:0.0 105:0.0 106:0.0 107:0.0 108:0.0 109:0.0 110:0.0 111:0.0 112:1.0 113:0.0 114:0.0 115:0.0 116:0.0 117:0.0 118:0.0 119:0.0 120:0.0 121:0.0 122:0.0 123:0.0 124:0.0 125:0.0 126:0.0 127:0.0 128:0.0 129:0.0 130:0.0 131:0.0 132:0.0 133:0.0 134:0.0 135:0.0 136:0.0 137:0.0 138:0.0 139:0.0 140:0.0 141:0.0 142:0.0 143:0.0 144:0.0 145:0.0 146:0.0 147:0.0 148:0.0 149:0.0 150:0.0 151:0.0 152:0.0 153:0.0 154:0.0 155:0.0 156:0.0 157:0.0 158:0.0 159:0.0 160:0.0 
1.0 1:0.003355704697986577 2:0.0 3:0.0 4:0.0 5:0.003355704697986577 6:0.0050335570469798654 7:0.0 8:0.0 9:0.0 10:0.0 11:0.0 12:0.0 13:0.0016778523489932886 14:0.0 15:0.0 16:0.0 17:0.0 18:0.0 19:0.0 20:0.003355704697986577 21:0.0 22:0.008389261744966443 23:0.0 24:0.0 25:0.0016778523489932886 26:0.0 27:0.0 28:0.0 29:0.01174496644295302 30:0.003355704697986577 31:0.003355704697986577 32:0.0 33:0.0 34:0.0 35:0.0 36:0.015100671140939598 37:0.0 38:0.0 39:0.0016778523489932886 40:0.0 41:0.0 42:0.0050335570469798654 43:0.0 44:0.013422818791946308 45:0.0 46:0.003355704697986577 47:0.0 48:0.0 49:0.0050335570469798654 50:0.0 51:0.0 52:0.0 53:0.0016778523489932886 54:0.008389261744966443 55:0.0 56:0.0016778523489932886 57:0.003355704697986577 58:0.006711409395973154 59:0.0050335570469798654 60:0.0016778523489932886 61:0.015100671140939598 62:0.0 63:0.0 64:0.0 65:0.003355704697986577 66:0.0050335570469798654 67:0.0016778523489932886 68:0.003355704697986577 69:0.0 70:0.0 71:0.003355704697986577 72:0.0 73:0.0 74:0.0 75:0.003355704697986577 76:0.0 77:0.0 78:0.0 79:0.0 80:0.0016778523489932886 81:0.0050335570469798654 82:0.0016778523489932886 83:0.008389261744966443 84:0.0016778523489932886 85:0.0 86:0.0 87:0.0 88:0.0 89:0.0 90:0.0 91:0.0 92:0.0 93:0.0 94:0.0 95:0.0 96:0.0 97:0.0 98:0.0016778523489932886 99:0.0 100:0.008389261744966443 101:0.006711409395973154 102:0.0 103:0.010067114093959731 104:0.0 105:0.0 106:0.0016778523489932886 107:0.0 108:0.0 109:0.0016778523489932886 110:0.0 111:0.015100671140939598 112:0.5771812080536913 113:0.0 114:0.003355704697986577 115:0.0 116:0.0 117:0.003355704697986577 118:0.003355704697986577 119:0.0 120:0.0 121:0.0 122:0.11241610738255034 123:0.008389261744966443 124:0.0 125:0.0 126:0.0 127:0.0 128:0.006711409395973154 129:0.008389261744966443 130:0.0 131:0.01174496644295302 132:0.003355704697986577 133:0.0 134:0.003355704697986577 135:0.0 136:0.016778523489932886 137:0.0 138:0.0 139:0.0050335570469798654 140:0.0016778523489932886 141:0.0016778523489932886 142:0.0016778523489932886 143:0.0016778523489932886 144:0.0 145:0.0 146:0.0 147:0.003355704697986577 148:0.0 149:0.003355704697986577 150:0.0050335570469798654 151:0.0 152:0.0 153:0.0 154:0.0 155:0.0 156:0.0 157:0.0 158:0.0016778523489932886 159:0.0 160:0.0 
1.0 1:0.0 2:0.0 3:0.0 4:0.0 5:0.0 6:0.0 7:0.0 8:0.0 9:0.0 10:0.0 11:0.0 12:0.0 13:0.0 14:0.0 15:0.0 16:0.0 17:0.0 18:0.0032258064516129032 19:0.0 20:0.0064516129032258064 21:0.0 22:0.0 23:0.0032258064516129032 24:0.0032258064516129032 25:0.0 26:0.0 27:0.0 28:0.0 29:0.0032258064516129032 30:0.0 31:0.0032258064516129032 32:0.0 33:0.0 34:0.0 35:0.0 36:0.012903225806451613 37:0.0 38:0.0 39:0.0 40:0.0 41:0.0 42:0.0064516129032258064 43:0.0 44:0.0032258064516129032 45:0.0 46:0.0032258064516129032 47:0.0032258064516129032 48:0.0 49:0.0 50:0.0 51:0.0 52:0.0 53:0.0032258064516129032 54:0.0032258064516129032 55:0.0 56:0.0 57:0.0064516129032258064 58:0.0 59:0.0 60:0.0 61:0.00967741935483871 62:0.0 63:0.0032258064516129032 64:0.0 65:0.0032258064516129032 66:0.0 67:0.0 68:0.0 69:0.0 70:0.0 71:0.0064516129032258064 72:0.0 73:0.0 74:0.0 75:0.0032258064516129032 76:0.0 77:0.0032258064516129032 78:0.0 79:0.0 80:0.0 81:0.0032258064516129032 82:0.0 83:0.0032258064516129032 84:0.0 85:0.0 86:0.0 87:0.0 88:0.0 89:0.0 90:0.0 91:0.0 92:0.0 93:0.0 94:0.0 95:0.0 96:0.0 97:0.0 98:0.0 99:0.0 100:0.012903225806451613 101:0.0064516129032258064 102:0.0 103:0.0032258064516129032 104:0.0 105:0.0 106:0.0 107:0.0 108:0.0 109:0.0 110:0.0064516129032258064 111:0.0 112:0.7903225806451613 113:0.0 114:0.012903225806451613 115:0.0 116:0.0 117:0.0032258064516129032 118:0.0064516129032258064 119:0.0 120:0.0 121:0.0 122:0.02903225806451613 123:0.0032258064516129032 124:0.0 125:0.0 126:0.0 127:0.0 128:0.0064516129032258064 129:0.0032258064516129032 130:0.0 131:0.0032258064516129032 132:0.0032258064516129032 133:0.0 134:0.0 135:0.0 136:0.0032258064516129032 137:0.0 138:0.0 139:0.0032258064516129032 140:0.0 141:0.0 142:0.0032258064516129032 143:0.0 144:0.0 145:0.0 146:0.0 147:0.0 148:0.0 149:0.0 150:0.0 151:0.0 152:0.0 153:0.0 154:0.0 155:0.0 156:0.0 157:0.0 158:0.0 159:0.0 160:0.0 
1.0 1:0.0045871559633027525 2:0.0 3:0.0 4:0.0 5:0.0 6:0.0045871559633027525 7:0.0 8:0.0 9:0.0 10:0.0 11:0.0 12:0.0 13:0.0 14:0.0 15:0.0 16:0.0 17:0.0 18:0.0 19:0.0 20:0.009174311926605505 21:0.0 22:0.0 23:0.0 24:0.0 25:0.0 26:0.0 27:0.0 28:0.0 29:0.0 30:0.0 31:0.0 32:0.0 33:0.0 34:0.0 35:0.0 36:0.0 37:0.0 38:0.0 39:0.0045871559633027525 40:0.0 41:0.0 42:0.0 43:0.0 44:0.0045871559633027525 45:0.0045871559633027525 46:0.0 47:0.0 48:0.0 49:0.0 50:0.0 51:0.0 52:0.0 53:0.0 54:0.0045871559633027525 55:0.0 56:0.0 57:0.0045871559633027525 58:0.0045871559633027525 59:0.0 60:0.0 61:0.0 62:0.0 63:0.0 64:0.0045871559633027525 65:0.009174311926605505 66:0.0045871559633027525 67:0.0 68:0.0 69:0.0 70:0.0045871559633027525 71:0.0045871559633027525 72:0.0 73:0.0 74:0.0 75:0.0 76:0.0 77:0.0045871559633027525 78:0.0 79:0.0 80:0.0 81:0.0 82:0.0 83:0.0 84:0.0 85:0.0 86:0.0 87:0.0 88:0.0 89:0.0045871559633027525 90:0.0045871559633027525 91:0.0 92:0.0 93:0.0 94:0.0 95:0.0 96:0.0 97:0.0 98:0.0 99:0.0 100:0.013761467889908258 101:0.013761467889908258 102:0.0 103:0.0045871559633027525 104:0.0 105:0.0 106:0.0 107:0.0 108:0.0 109:0.0 110:0.0 111:0.0 112:0.8027522935779816 113:0.0 114:0.0045871559633027525 115:0.0 116:0.0 117:0.0 118:0.0 119:0.0 120:0.0 121:0.0 122:0.05504587155963303 123:0.0 124:0.0 125:0.0 126:0.0 127:0.0 128:0.0 129:0.0045871559633027525 130:0.0 131:0.0 132:0.0 133:0.0 134:0.0 135:0.0 136:0.013761467889908258 137:0.0 138:0.0 139:0.0 140:0.0 141:0.0 142:0.0 143:0.0 144:0.0 145:0.0 146:0.0 147:0.0 148:0.0 149:0.0 150:0.0 151:0.0 152:0.0 153:0.0 154:0.0 155:0.0 156:0.0 157:0.0 158:0.0 159:0.0 160:0.0 
1.0 1:0.0049504950495049506 2:0.0 3:0.0 4:0.0 5:0.0 6:0.0 7:0.0 8:0.0 9:0.0 10:0.0 11:0.0 12:0.0 13:0.0 14:0.0 15:0.0 16:0.0 17:0.0 18:0.0 19:0.0 20:0.0049504950495049506 21:0.0 22:0.0 23:0.0 24:0.0 25:0.0 26:0.0 27:0.0 28:0.0 29:0.0 30:0.0 31:0.0 32:0.0 33:0.0 34:0.0 35:0.0 36:0.0049504950495049506 37:0.0 38:0.0 39:0.0 40:0.0 41:0.0 42:0.0 43:0.0 44:0.0049504950495049506 45:0.0 46:0.0 47:0.0 48:0.0 49:0.009900990099009901 50:0.0 51:0.0 52:0.0 53:0.0 54:0.0049504950495049506 55:0.0 56:0.0 57:0.0 58:0.0 59:0.0 60:0.0 61:0.0 62:0.0 63:0.0 64:0.0 65:0.0 66:0.0 67:0.0 68:0.0 69:0.0 70:0.0 71:0.0 72:0.0 73:0.0 74:0.0 75:0.0 76:0.0 77:0.0 78:0.0 79:0.0 80:0.0 81:0.0 82:0.0 83:0.0 84:0.0 85:0.0 86:0.0 87:0.0 88:0.0 89:0.0 90:0.0 91:0.0 92:0.0 93:0.0 94:0.0 95:0.0 96:0.0 97:0.0 98:0.0 99:0.0 100:0.0 101:0.0 102:0.0 103:0.0049504950495049506 104:0.0049504950495049506 105:0.0 106:0.0 107:0.0 108:0.0 109:0.0 110:0.0 111:0.0049504950495049506 112:0.7871287128712872 113:0.0 114:0.0 115:0.0 116:0.0 117:0.0 118:0.0 119:0.0 120:0.0 121:0.0 122:0.13861386138613863 123:0.0 124:0.0 125:0.0 126:0.0 127:0.0 128:0.0 129:0.0 130:0.0 131:0.0049504950495049506 132:0.0 133:0.0 134:0.0 135:0.0 136:0.019801980198019802 137:0.0 138:0.0 139:0.0 140:0.0 141:0.0 142:0.0 143:0.0 144:0.0 145:0.0 146:0.0 147:0.0 148:0.0 149:0.0 150:0.0 151:0.0 152:0.0 153:0.0 154:0.0 155:0.0 156:0.0 157:0.0 158:0.0 159:0.0 160:0.0 
1.0 1:0.0 2:0.0 3:0.0 4:0.0 5:0.002702702702702703 6:0.0 7:0.0 8:0.0 9:0.0 10:0.0 11:0.0 12:0.0 13:0.0 14:0.002702702702702703 15:0.0 16:0.0 17:0.0 18:0.0 19:0.0 20:0.0 21:0.0 22:0.002702702702702703 23:0.0 24:0.0 25:0.0 26:0.0 27:0.0 28:0.0 29:0.0 30:0.0 31:0.0 32:0.0 33:0.0 34:0.0 35:0.0 36:0.002702702702702703 37:0.0 38:0.0 39:0.0 40:0.002702702702702703 41:0.0 42:0.002702702702702703 43:0.0 44:0.005405405405405406 45:0.0 46:0.0 47:0.0 48:0.0 49:0.008108108108108109 50:0.0 51:0.0 52:0.0 53:0.0 54:0.0 55:0.0 56:0.0 57:0.002702702702702703 58:0.0 59:0.0 60:0.0 61:0.0 62:0.0 63:0.0 64:0.0 65:0.0 66:0.002702702702702703 67:0.002702702702702703 68:0.0 69:0.0 70:0.002702702702702703 71:0.002702702702702703 72:0.0 73:0.0 74:0.002702702702702703 75:0.0 76:0.0 77:0.0 78:0.0 79:0.0 80:0.0 81:0.0 82:0.008108108108108109 83:0.0 84:0.0 85:0.0 86:0.0 87:0.0 88:0.0 89:0.0 90:0.0 91:0.0 92:0.0 93:0.0 94:0.0 95:0.0 96:0.0 97:0.0 98:0.0 99:0.0 100:0.002702702702702703 101:0.010810810810810811 102:0.0 103:0.0 104:0.0 105:0.0 106:0.0 107:0.0 108:0.0 109:0.002702702702702703 110:0.0 111:0.0 112:0.8243243243243243 113:0.0 114:0.0 115:0.0 116:0.0 117:0.005405405405405406 118:0.0 119:0.0 120:0.0 121:0.0 122:0.07027027027027027 123:0.008108108108108109 124:0.0 125:0.0 126:0.0 127:0.0 128:0.0 129:0.0 130:0.0 131:0.002702702702702703 132:0.0 133:0.0 134:0.0 135:0.0 136:0.008108108108108109 137:0.0 138:0.0 139:0.002702702702702703 140:0.0 141:0.0 142:0.0 143:0.0 144:0.0 145:0.0 146:0.0 147:0.0 148:0.0 149:0.002702702702702703 150:0.002702702702702703 151:0.0 152:0.0 153:0.0 154:0.0 155:0.0 156:0.0 157:0.0 158:0.0 159:0.002702702702702703 160:0.0 
1.0 1:0.011278195488721804 2:0.0 3:0.0 4:0.0 5:0.0 6:0.0037593984962406013 7:0.0 8:0.0 9:0.0 10:0.0 11:0.0 12:0.0 13:0.0 14:0.0 15:0.0 16:0.0 17:0.0 18:0.0 19:0.0 20:0.0 21:0.0 22:0.007518796992481203 23:0.0 24:0.0 25:0.007518796992481203 26:0.0 27:0.0 28:0.0 29:0.011278195488721804 30:0.0 31:0.0037593984962406013 32:0.0 33:0.0 34:0.0 35:0.0 36:0.007518796992481203 37:0.0 38:0.0 39:0.007518796992481203 40:0.0 41:0.0 42:0.0 43:0.0 44:0.0037593984962406013 45:0.0 46:0.0 47:0.0 48:0.0 49:0.0 50:0.0 51:0.0 52:0.0 53:0.0 54:0.0 55:0.0 56:0.0 57:0.0 58:0.0 59:0.0037593984962406013 60:0.0037593984962406013 61:0.0037593984962406013 62:0.0 63:0.0037593984962406013 64:0.0 65:0.0 66:0.0037593984962406013 67:0.0 68:0.0 69:0.0 70:0.0 71:0.011278195488721804 72:0.0 73:0.0 74:0.0 75:0.0 76:0.0 77:0.0 78:0.0 79:0.0 80:0.0037593984962406013 81:0.0037593984962406013 82:0.0037593984962406013 83:0.0037593984962406013 84:0.0 85:0.0 86:0.0 87:0.0 88:0.0 89:0.0 90:0.0 91:0.0 92:0.0 93:0.0 94:0.0 95:0.0 96:0.0 97:0.0 98:0.0037593984962406013 99:0.0 100:0.007518796992481203 101:0.007518796992481203 102:0.0 103:0.0 104:0.0037593984962406013 105:0.0 106:0.0 107:0.0 108:0.0 109:0.0 110:0.0 111:0.0037593984962406013 112:0.7218045112781954 113:0.0 114:0.0037593984962406013 115:0.0 116:0.0 117:0.0 118:0.011278195488721804 119:0.0 120:0.0 121:0.0 122:0.07894736842105263 123:0.007518796992481203 124:0.0 125:0.0 126:0.0 127:0.0 128:0.0 129:0.0 130:0.0 131:0.0037593984962406013 132:0.0 133:0.0037593984962406013 134:0.0037593984962406013 135:0.0 136:0.022556390977443608 137:0.0 138:0.0 139:0.0 140:0.0 141:0.0 142:0.0 143:0.0 144:0.0 145:0.0037593984962406013 146:0.0 147:0.0 148:0.0 149:0.0 150:0.0 151:0.0 152:0.0 153:0.0 154:0.0 155:0.0 156:0.0 157:0.0 158:0.0 159:0.0 160:0.0037593984962406013 
1.0 1:0.004132231404958678 2:0.0 3:0.0 4:0.0 5:0.004132231404958678 6:0.0 7:0.004132231404958678 8:0.004132231404958678 9:0.0 10:0.0 11:0.004132231404958678 12:0.0 13:0.0 14:0.008264462809917356 15:0.0 16:0.0 17:0.0 18:0.0 19:0.0 20:0.004132231404958678 21:0.0 22:0.0 23:0.0 24:0.004132231404958678 25:0.004132231404958678 26:0.0 27:0.0 28:0.0 29:0.004132231404958678 30:0.004132231404958678 31:0.004132231404958678 32:0.0 33:0.0 34:0.0 35:0.0 36:0.0 37:0.0 38:0.0 39:0.004132231404958678 40:0.004132231404958678 41:0.0 42:0.0 43:0.0 44:0.0 45:0.0 46:0.004132231404958678 47:0.004132231404958678 48:0.0 49:0.0 50:0.008264462809917356 51:0.0 52:0.0 53:0.004132231404958678 54:0.004132231404958678 55:0.0 56:0.0 57:0.004132231404958678 58:0.0 59:0.0 60:0.0 61:0.0 62:0.0 63:0.0 64:0.0 65:0.004132231404958678 66:0.0 67:0.0 68:0.0 69:0.0 70:0.0 71:0.0 72:0.004132231404958678 73:0.0 74:0.0 75:0.004132231404958678 76:0.0 77:0.004132231404958678 78:0.0 79:0.0 80:0.0 81:0.004132231404958678 82:0.0 83:0.0 84:0.004132231404958678 85:0.004132231404958678 86:0.0 87:0.0 88:0.0 89:0.004132231404958678 90:0.004132231404958678 91:0.0 92:0.004132231404958678 93:0.0 94:0.0 95:0.0 96:0.0 97:0.008264462809917356 98:0.004132231404958678 99:0.0 100:0.0 101:0.0 102:0.0 103:0.0 104:0.0 105:0.0 106:0.0 107:0.0 108:0.0 109:0.0 110:0.004132231404958678 111:0.0 112:0.8140495867768595 113:0.0 114:0.012396694214876033 115:0.0 116:0.0 117:0.0 118:0.0 119:0.0 120:0.0 121:0.0 122:0.0 123:0.0 124:0.0 125:0.0 126:0.0 127:0.0 128:0.0 129:0.0 130:0.0 131:0.0 132:0.004132231404958678 133:0.0 134:0.0 135:0.0 136:0.0 137:0.004132231404958678 138:0.004132231404958678 139:0.0 140:0.0 141:0.0 142:0.004132231404958678 143:0.0 144:0.0 145:0.004132231404958678 146:0.0 147:0.004132231404958678 148:0.0 149:0.0 150:0.0 151:0.0 152:0.0 153:0.0 154:0.0 155:0.0 156:0.0 157:0.0 158:0.0 159:0.0 160:0.0 
1.0 1:0.0 2:0.0 3:0.0 4:0.0 5:0.0 6:0.0 7:0.0 8:0.004694835680751174 9:0.0 10:0.0 11:0.0 12:0.0 13:0.0 14:0.0 15:0.0 16:0.0 17:0.0 18:0.0 19:0.0 20:0.0 21:0.0 22:0.007042253521126761 23:0.004694835680751174 24:0.0 25:0.002347417840375587 26:0.0 27:0.0 28:0.0 29:0.002347417840375587 30:0.0 31:0.009389671361502348 32:0.0 33:0.0 34:0.0 35:0.0 36:0.0 37:0.0 38:0.0 39:0.002347417840375587 40:0.007042253521126761 41:0.0 42:0.002347417840375587 43:0.0 44:0.011737089201877934 45:0.0 46:0.0 47:0.0 48:0.0 49:0.002347417840375587 50:0.0 51:0.0 52:0.002347417840375587 53:0.004694835680751174 54:0.009389671361502348 55:0.0 56:0.0 57:0.002347417840375587 58:0.004694835680751174 59:0.0 60:0.0 61:0.007042253521126761 62:0.0 63:0.0 64:0.004694835680751174 65:0.0 66:0.0 67:0.002347417840375587 68:0.0 69:0.0 70:0.004694835680751174 71:0.009389671361502348 72:0.0 73:0.0 74:0.002347417840375587 75:0.002347417840375587 76:0.0 77:0.0 78:0.0 79:0.0 80:0.002347417840375587 81:0.007042253521126761 82:0.0 83:0.0 84:0.0 85:0.002347417840375587 86:0.0 87:0.0 88:0.0 89:0.0 90:0.007042253521126761 91:0.0 92:0.002347417840375587 93:0.0 94:0.0 95:0.0 96:0.0 97:0.007042253521126761 98:0.0 99:0.0 100:0.014084507042253521 101:0.004694835680751174 102:0.0 103:0.004694835680751174 104:0.002347417840375587 105:0.0 106:0.002347417840375587 107:0.0 108:0.0 109:0.002347417840375587 110:0.002347417840375587 111:0.018779342723004695 112:0.6854460093896714 113:0.0 114:0.002347417840375587 115:0.0 116:0.0 117:0.004694835680751174 118:0.004694835680751174 119:0.0 120:0.0 121:0.0 122:0.06338028169014084 123:0.014084507042253521 124:0.0 125:0.0 126:0.0 127:0.0 128:0.0 129:0.0 130:0.0 131:0.002347417840375587 132:0.0 133:0.0 134:0.002347417840375587 135:0.0 136:0.007042253521126761 137:0.0 138:0.0 139:0.0 140:0.0 141:0.004694835680751174 142:0.002347417840375587 143:0.004694835680751174 144:0.002347417840375587 145:0.002347417840375587 146:0.0 147:0.0 148:0.0 149:0.0 150:0.0 151:0.0 152:0.0 153:0.0 154:0.0 155:0.0 156:0.0 157:0.0 158:0.002347417840375587 159:0.0 160:0.002347417840375587 
1.0 1:0.0038910505836575876 2:0.0 3:0.0 4:0.0 5:0.0 6:0.0038910505836575876 7:0.0 8:0.0 9:0.0 10:0.0 11:0.0 12:0.007782101167315175 13:0.0 14:0.0038910505836575876 15:0.0 16:0.0 17:0.0 18:0.0 19:0.0 20:0.0038910505836575876 21:0.0 22:0.0038910505836575876 23:0.011673151750972763 24:0.0 25:0.0 26:0.0 27:0.0 28:0.0 29:0.0038910505836575876 30:0.0038910505836575876 31:0.0 32:0.0 33:0.0 34:0.0 35:0.0 36:0.011673151750972763 37:0.0 38:0.0 39:0.007782101167315175 40:0.0 41:0.0 42:0.0038910505836575876 43:0.0 44:0.0038910505836575876 45:0.0038910505836575876 46:0.0038910505836575876 47:0.0 48:0.0 49:0.0 50:0.0038910505836575876 51:0.0 52:0.0038910505836575876 53:0.0 54:0.0038910505836575876 55:0.0038910505836575876 56:0.0 57:0.0038910505836575876 58:0.0 59:0.007782101167315175 60:0.0 61:0.007782101167315175 62:0.0 63:0.0 64:0.0 65:0.0038910505836575876 66:0.0 67:0.0 68:0.0 69:0.0 70:0.0038910505836575876 71:0.0038910505836575876 72:0.0 73:0.0 74:0.0038910505836575876 75:0.0038910505836575876 76:0.0 77:0.0038910505836575876 78:0.0 79:0.0 80:0.0 81:0.0038910505836575876 82:0.0038910505836575876 83:0.007782101167315175 84:0.0 85:0.0 86:0.0 87:0.0 88:0.0 89:0.0 90:0.0 91:0.0 92:0.0 93:0.0 94:0.0 95:0.0 96:0.0 97:0.0038910505836575876 98:0.0 99:0.0 100:0.0 101:0.0 102:0.0 103:0.0038910505836575876 104:0.0 105:0.0 106:0.0 107:0.0 108:0.0 109:0.0 110:0.0 111:0.0038910505836575876 112:0.7821011673151751 113:0.0 114:0.0038910505836575876 115:0.0 116:0.0038910505836575876 117:0.0038910505836575876 118:0.0 119:0.0 120:0.0 121:0.0 122:0.0 123:0.0038910505836575876 124:0.0 125:0.0 126:0.0 127:0.0 128:0.0 129:0.0038910505836575876 130:0.0 131:0.0 132:0.0038910505836575876 133:0.0 134:0.0 135:0.0 136:0.0 137:0.0 138:0.0038910505836575876 139:0.007782101167315175 140:0.0038910505836575876 141:0.0 142:0.0038910505836575876 143:0.0038910505836575876 144:0.0 145:0.0 146:0.0 147:0.0 148:0.0 149:0.0 150:0.0038910505836575876 151:0.0 152:0.0 153:0.0 154:0.0 155:0.0 156:0.0 157:0.0 158:0.0 159:0.0 160:0.0 
1.0 1:0.005128205128205128 2:0.0 3:0.0 4:0.0 5:0.0 6:0.002564102564102564 7:0.0 8:0.005128205128205128 9:0.0 10:0.0 11:0.0 12:0.0 13:0.0 14:0.0 15:0.0 16:0.0 17:0.0 18:0.0 19:0.0 20:0.0 21:0.0 22:0.005128205128205128 23:0.005128205128205128 24:0.0 25:0.0 26:0.0 27:0.0 28:0.0 29:0.010256410256410256 30:0.0 31:0.002564102564102564 32:0.0 33:0.0 34:0.0 35:0.0 36:0.002564102564102564 37:0.0 38:0.0 39:0.0 40:0.0 41:0.0 42:0.005128205128205128 43:0.0 44:0.002564102564102564 45:0.0 46:0.0 47:0.0 48:0.0 49:0.002564102564102564 50:0.0 51:0.0 52:0.005128205128205128 53:0.0 54:0.007692307692307693 55:0.0 56:0.002564102564102564 57:0.0 58:0.005128205128205128 59:0.0 60:0.002564102564102564 61:0.005128205128205128 62:0.0 63:0.002564102564102564 64:0.0 65:0.0 66:0.002564102564102564 67:0.0 68:0.0 69:0.0 70:0.0 71:0.007692307692307693 72:0.0 73:0.0 74:0.0 75:0.002564102564102564 76:0.0 77:0.0 78:0.0 79:0.0 80:0.0 81:0.005128205128205128 82:0.007692307692307693 83:0.005128205128205128 84:0.0 85:0.0 86:0.0 87:0.0 88:0.0 89:0.002564102564102564 90:0.0 91:0.0 92:0.002564102564102564 93:0.0 94:0.0 95:0.0 96:0.0 97:0.0 98:0.0 99:0.0 100:0.005128205128205128 101:0.005128205128205128 102:0.0 103:0.005128205128205128 104:0.0 105:0.0 106:0.0 107:0.0 108:0.0 109:0.002564102564102564 110:0.0 111:0.0 112:0.7256410256410256 113:0.0 114:0.002564102564102564 115:0.0 116:0.0 117:0.0 118:0.002564102564102564 119:0.0 120:0.0 121:0.0 122:0.06666666666666667 123:0.005128205128205128 124:0.0 125:0.0 126:0.0 127:0.0 128:0.0 129:0.002564102564102564 130:0.0 131:0.005128205128205128 132:0.005128205128205128 133:0.0 134:0.0 135:0.0 136:0.02564102564102564 137:0.0 138:0.0 139:0.005128205128205128 140:0.0 141:0.005128205128205128 142:0.0 143:0.0 144:0.0 145:0.002564102564102564 146:0.0 147:0.002564102564102564 148:0.0 149:0.0 150:0.005128205128205128 151:0.0 152:0.002564102564102564 153:0.0 154:0.0 155:0.0 156:0.0 157:0.0 158:0.002564102564102564 159:0.0 160:0.0 
1.0 1:0.0 2:0.0 3:0.0 4:0.0 5:0.0 6:0.0 7:0.0 8:0.004524886877828055 9:0.0 10:0.0 11:0.0 12:0.0 13:0.0 14:0.0 15:0.0 16:0.0 17:0.0 18:0.0 19:0.0 20:0.0 21:0.0 22:0.0 23:0.0 24:0.0 25:0.0 26:0.0 27:0.0 28:0.0 29:0.004524886877828055 30:0.0 31:0.0 32:0.0 33:0.0 34:0.0 35:0.0 36:0.00904977375565611 37:0.0 38:0.0 39:0.0 40:0.0 41:0.0 42:0.0 43:0.0 44:0.004524886877828055 45:0.0 46:0.0 47:0.0 48:0.0 49:0.0 50:0.0 51:0.0 52:0.0 53:0.004524886877828055 54:0.004524886877828055 55:0.0 56:0.004524886877828055 57:0.004524886877828055 58:0.0 59:0.0 60:0.004524886877828055 61:0.00904977375565611 62:0.0 63:0.004524886877828055 64:0.0 65:0.0 66:0.0 67:0.004524886877828055 68:0.0 69:0.0 70:0.0 71:0.004524886877828055 72:0.0 73:0.0 74:0.0 75:0.0 76:0.0 77:0.0 78:0.0 79:0.0 80:0.0 81:0.004524886877828055 82:0.0 83:0.0 84:0.004524886877828055 85:0.0 86:0.0 87:0.0 88:0.0 89:0.004524886877828055 90:0.0 91:0.0 92:0.0 93:0.0 94:0.0 95:0.0 96:0.0 97:0.0 98:0.0 99:0.0 100:0.0 101:0.004524886877828055 102:0.0 103:0.01809954751131222 104:0.0 105:0.0 106:0.0 107:0.0 108:0.0 109:0.004524886877828055 110:0.0 111:0.0 112:0.7873303167420814 113:0.0 114:0.0 115:0.0 116:0.0 117:0.004524886877828055 118:0.00904977375565611 119:0.0 120:0.0 121:0.0 122:0.06787330316742081 123:0.004524886877828055 124:0.0 125:0.0 126:0.0 127:0.0 128:0.0 129:0.0 130:0.0 131:0.0 132:0.0 133:0.0 134:0.0 135:0.0 136:0.004524886877828055 137:0.0 138:0.0 139:0.0 140:0.0 141:0.004524886877828055 142:0.0 143:0.0 144:0.0 145:0.0 146:0.0 147:0.0 148:0.0 149:0.0 150:0.004524886877828055 151:0.0 152:0.0 153:0.0 154:0.0 155:0.0 156:0.0 157:0.0 158:0.0 159:0.0 160:0.004524886877828055 
1.0 1:0.0 2:0.0 3:0.0 4:0.0 5:0.004434589800443459 6:0.0022172949002217295 7:0.0 8:0.0022172949002217295 9:0.0 10:0.0 11:0.0 12:0.0066518847006651885 13:0.004434589800443459 14:0.0 15:0.0 16:0.0 17:0.0 18:0.0 19:0.0 20:0.0 21:0.0 22:0.015521064301552107 23:0.004434589800443459 24:0.0 25:0.0022172949002217295 26:0.0 27:0.0 28:0.0 29:0.026607538802660754 30:0.004434589800443459 31:0.011086474501108648 32:0.0 33:0.0 34:0.0 35:0.0 36:0.004434589800443459 37:0.0 38:0.0 39:0.0 40:0.0 41:0.0 42:0.008869179600886918 43:0.0 44:0.028824833702882482 45:0.0 46:0.0066518847006651885 47:0.0 48:0.0022172949002217295 49:0.013303769401330377 50:0.008869179600886918 51:0.0 52:0.004434589800443459 53:0.0066518847006651885 54:0.0022172949002217295 55:0.0022172949002217295 56:0.0 57:0.0022172949002217295 58:0.017738359201773836 59:0.0 60:0.0022172949002217295 61:0.0 62:0.0 63:0.004434589800443459 64:0.008869179600886918 65:0.0 66:0.004434589800443459 67:0.0 68:0.013303769401330377 69:0.0 70:0.0 71:0.031042128603104215 72:0.0022172949002217295 73:0.0 74:0.0 75:0.0022172949002217295 76:0.0 77:0.0 78:0.0 79:0.0 80:0.0066518847006651885 81:0.004434589800443459 82:0.0066518847006651885 83:0.0022172949002217295 84:0.0 85:0.004434589800443459 86:0.0 87:0.0 88:0.0 89:0.0022172949002217295 90:0.0066518847006651885 91:0.0 92:0.004434589800443459 93:0.0 94:0.0 95:0.0 96:0.0 97:0.0066518847006651885 98:0.0 99:0.0 100:0.017738359201773836 101:0.004434589800443459 102:0.0 103:0.017738359201773836 104:0.0 105:0.0 106:0.0066518847006651885 107:0.0 108:0.0 109:0.0022172949002217295 110:0.0 111:0.008869179600886918 112:0.43902439024390244 113:0.0 114:0.0022172949002217295 115:0.0 116:0.004434589800443459 117:0.0066518847006651885 118:0.0066518847006651885 119:0.0 120:0.0022172949002217295 121:0.0 122:0.07095343680709534 123:0.013303769401330377 124:0.0 125:0.011086474501108648 126:0.0 127:0.0 128:0.004434589800443459 129:0.0022172949002217295 130:0.0 131:0.022172949002217297 132:0.0022172949002217295 133:0.0 134:0.0 135:0.0 136:0.017738359201773836 137:0.0 138:0.0 139:0.008869179600886918 140:0.0 141:0.011086474501108648 142:0.0 143:0.0 144:0.0 145:0.0 146:0.0 147:0.0 148:0.0 149:0.0022172949002217295 150:0.0066518847006651885 151:0.0 152:0.0022172949002217295 153:0.0 154:0.0 155:0.0 156:0.0 157:0.0 158:0.0 159:0.0 160:0.0 
1.0 1:0.0 2:0.0 3:0.0 4:0.0 5:0.0 6:0.002320185614849188 7:0.0 8:0.0 9:0.0 10:0.0 11:0.0 12:0.002320185614849188 13:0.0 14:0.002320185614849188 15:0.0 16:0.0 17:0.0 18:0.0 19:0.0 20:0.0 21:0.0 22:0.004640371229698376 23:0.0 24:0.002320185614849188 25:0.0 26:0.0 27:0.0 28:0.0 29:0.004640371229698376 30:0.0 31:0.002320185614849188 32:0.0 33:0.0 34:0.0 35:0.0 36:0.0 37:0.0 38:0.0 39:0.002320185614849188 40:0.0 41:0.002320185614849188 42:0.002320185614849188 43:0.0 44:0.004640371229698376 45:0.0 46:0.004640371229698376 47:0.0 48:0.0 49:0.004640371229698376 50:0.0 51:0.0 52:0.0 53:0.002320185614849188 54:0.004640371229698376 55:0.0 56:0.0 57:0.0 58:0.0 59:0.002320185614849188 60:0.0 61:0.0 62:0.0 63:0.0 64:0.0 65:0.0 66:0.0 67:0.0 68:0.0 69:0.0 70:0.0 71:0.002320185614849188 72:0.0 73:0.0 74:0.0 75:0.0 76:0.0 77:0.0 78:0.0 79:0.0 80:0.0 81:0.0 82:0.002320185614849188 83:0.0 84:0.0 85:0.0 86:0.0 87:0.0 88:0.0 89:0.0 90:0.0 91:0.0 92:0.0 93:0.0 94:0.0 95:0.0 96:0.0 97:0.002320185614849188 98:0.0 99:0.0 100:0.004640371229698376 101:0.004640371229698376 102:0.0 103:0.002320185614849188 104:0.0 105:0.0 106:0.002320185614849188 107:0.0 108:0.0 109:0.0 110:0.0 111:0.009280742459396751 112:0.703016241299304 113:0.0 114:0.004640371229698376 115:0.0 116:0.002320185614849188 117:0.0 118:0.0 119:0.0 120:0.0 121:0.0 122:0.13921113689095127 123:0.002320185614849188 124:0.0 125:0.0 126:0.0 127:0.0 128:0.0 129:0.002320185614849188 130:0.0 131:0.004640371229698376 132:0.0 133:0.0 134:0.0 135:0.0 136:0.03480278422273782 137:0.0 138:0.0 139:0.002320185614849188 140:0.0 141:0.0 142:0.0 143:0.002320185614849188 144:0.0 145:0.0 146:0.0 147:0.0 148:0.0 149:0.0 150:0.02088167053364269 151:0.0 152:0.0 153:0.0 154:0.0 155:0.0 156:0.0 157:0.0 158:0.0 159:0.0 160:0.0 
1.0 1:0.004132231404958678 2:0.0 3:0.0 4:0.0 5:0.004132231404958678 6:0.0 7:0.004132231404958678 8:0.004132231404958678 9:0.0 10:0.0 11:0.004132231404958678 12:0.0 13:0.0 14:0.008264462809917356 15:0.0 16:0.0 17:0.0 18:0.0 19:0.0 20:0.004132231404958678 21:0.0 22:0.0 23:0.0 24:0.004132231404958678 25:0.004132231404958678 26:0.0 27:0.0 28:0.0 29:0.004132231404958678 30:0.004132231404958678 31:0.004132231404958678 32:0.0 33:0.0 34:0.0 35:0.0 36:0.0 37:0.0 38:0.0 39:0.004132231404958678 40:0.004132231404958678 41:0.0 42:0.0 43:0.0 44:0.0 45:0.0 46:0.004132231404958678 47:0.004132231404958678 48:0.0 49:0.0 50:0.008264462809917356 51:0.0 52:0.0 53:0.004132231404958678 54:0.004132231404958678 55:0.0 56:0.0 57:0.004132231404958678 58:0.0 59:0.0 60:0.0 61:0.0 62:0.0 63:0.0 64:0.0 65:0.004132231404958678 66:0.0 67:0.0 68:0.0 69:0.0 70:0.0 71:0.0 72:0.004132231404958678 73:0.0 74:0.0 75:0.004132231404958678 76:0.0 77:0.004132231404958678 78:0.0 79:0.0 80:0.0 81:0.004132231404958678 82:0.0 83:0.0 84:0.004132231404958678 85:0.004132231404958678 86:0.0 87:0.0 88:0.0 89:0.004132231404958678 90:0.004132231404958678 91:0.0 92:0.004132231404958678 93:0.0 94:0.0 95:0.0 96:0.0 97:0.008264462809917356 98:0.004132231404958678 99:0.0 100:0.0 101:0.0 102:0.0 103:0.0 104:0.0 105:0.0 106:0.0 107:0.0 108:0.0 109:0.0 110:0.004132231404958678 111:0.0 112:0.8140495867768595 113:0.0 114:0.012396694214876033 115:0.0 116:0.0 117:0.0 118:0.0 119:0.0 120:0.0 121:0.0 122:0.0 123:0.0 124:0.0 125:0.0 126:0.0 127:0.0 128:0.0 129:0.0 130:0.0 131:0.0 132:0.004132231404958678 133:0.0 134:0.0 135:0.0 136:0.0 137:0.004132231404958678 138:0.004132231404958678 139:0.0 140:0.0 141:0.0 142:0.004132231404958678 143:0.0 144:0.0 145:0.004132231404958678 146:0.0 147:0.004132231404958678 148:0.0 149:0.0 150:0.0 151:0.0 152:0.0 153:0.0 154:0.0 155:0.0 156:0.0 157:0.0 158:0.0 159:0.0 160:0.0 
1.0 1:0.00205761316872428 2:0.0 3:0.0 4:0.0 5:0.00205761316872428 6:0.0 7:0.00205761316872428 8:0.0 9:0.0 10:0.0 11:0.00411522633744856 12:0.0 13:0.0 14:0.00411522633744856 15:0.0 16:0.0 17:0.0 18:0.00205761316872428 19:0.0 20:0.0 21:0.0 22:0.00823045267489712 23:0.00205761316872428 24:0.0 25:0.00411522633744856 26:0.0 27:0.0 28:0.00205761316872428 29:0.00205761316872428 30:0.0 31:0.00205761316872428 32:0.0 33:0.0 34:0.0 35:0.0 36:0.00411522633744856 37:0.0 38:0.00205761316872428 39:0.00205761316872428 40:0.0 41:0.0 42:0.00205761316872428 43:0.0 44:0.0 45:0.0 46:0.00411522633744856 47:0.0 48:0.0 49:0.00411522633744856 50:0.0 51:0.00205761316872428 52:0.0 53:0.00205761316872428 54:0.006172839506172839 55:0.0 56:0.00205761316872428 57:0.0 58:0.00205761316872428 59:0.00205761316872428 60:0.0 61:0.00823045267489712 62:0.0 63:0.0 64:0.0 65:0.0 66:0.00823045267489712 67:0.00205761316872428 68:0.0 69:0.0 70:0.00205761316872428 71:0.00411522633744856 72:0.0 73:0.0 74:0.0 75:0.00205761316872428 76:0.0 77:0.0 78:0.0 79:0.0 80:0.00205761316872428 81:0.0 82:0.00205761316872428 83:0.0 84:0.0 85:0.0 86:0.0 87:0.0 88:0.0 89:0.00205761316872428 90:0.00411522633744856 91:0.0 92:0.0 93:0.0 94:0.0 95:0.0 96:0.0 97:0.00411522633744856 98:0.00205761316872428 99:0.0 100:0.00205761316872428 101:0.00823045267489712 102:0.0 103:0.0102880658436214 104:0.0 105:0.0 106:0.0 107:0.0 108:0.0 109:0.0 110:0.0 111:0.00411522633744856 112:0.7880658436213992 113:0.0 114:0.006172839506172839 115:0.0 116:0.00411522633744856 117:0.0 118:0.00205761316872428 119:0.0 120:0.006172839506172839 121:0.0 122:0.024691358024691357 123:0.006172839506172839 124:0.0 125:0.0 126:0.0 127:0.0 128:0.00205761316872428 129:0.0 130:0.0 131:0.0 132:0.0 133:0.0 134:0.0 135:0.0 136:0.00823045267489712 137:0.0 138:0.0 139:0.0 140:0.00205761316872428 141:0.0 142:0.0 143:0.0 144:0.00205761316872428 145:0.00411522633744856 146:0.00205761316872428 147:0.0 148:0.0 149:0.0 150:0.0 151:0.0 152:0.0 153:0.0 154:0.0 155:0.0 156:0.0 157:0.0 158:0.0 159:0.0 160:0.00205761316872428 
1.0 1:0.002079002079002079 2:0.0 3:0.0 4:0.0 5:0.002079002079002079 6:0.0 7:0.002079002079002079 8:0.0 9:0.0 10:0.0 11:0.004158004158004158 12:0.0 13:0.0 14:0.004158004158004158 15:0.0 16:0.0 17:0.0 18:0.0 19:0.0 20:0.0 21:0.0 22:0.008316008316008316 23:0.002079002079002079 24:0.0 25:0.004158004158004158 26:0.0 27:0.0 28:0.002079002079002079 29:0.002079002079002079 30:0.0 31:0.004158004158004158 32:0.0 33:0.0 34:0.0 35:0.0 36:0.004158004158004158 37:0.0 38:0.002079002079002079 39:0.004158004158004158 40:0.0 41:0.0 42:0.002079002079002079 43:0.0 44:0.0 45:0.0 46:0.004158004158004158 47:0.0 48:0.0 49:0.004158004158004158 50:0.0 51:0.002079002079002079 52:0.0 53:0.002079002079002079 54:0.008316008316008316 55:0.0 56:0.002079002079002079 57:0.0 58:0.002079002079002079 59:0.002079002079002079 60:0.0 61:0.008316008316008316 62:0.0 63:0.0 64:0.0 65:0.0 66:0.008316008316008316 67:0.002079002079002079 68:0.0 69:0.0 70:0.002079002079002079 71:0.004158004158004158 72:0.0 73:0.0 74:0.0 75:0.002079002079002079 76:0.0 77:0.0 78:0.0 79:0.0 80:0.002079002079002079 81:0.0 82:0.002079002079002079 83:0.0 84:0.0 85:0.0 86:0.0 87:0.0 88:0.0 89:0.002079002079002079 90:0.004158004158004158 91:0.0 92:0.0 93:0.0 94:0.0 95:0.0 96:0.0 97:0.004158004158004158 98:0.002079002079002079 99:0.0 100:0.002079002079002079 101:0.008316008316008316 102:0.0 103:0.010395010395010396 104:0.0 105:0.0 106:0.0 107:0.0 108:0.0 109:0.0 110:0.0 111:0.004158004158004158 112:0.7775467775467776 113:0.0 114:0.008316008316008316 115:0.0 116:0.004158004158004158 117:0.002079002079002079 118:0.002079002079002079 119:0.0 120:0.006237006237006237 121:0.0 122:0.02702702702702703 123:0.006237006237006237 124:0.0 125:0.0 126:0.0 127:0.0 128:0.002079002079002079 129:0.0 130:0.0 131:0.0 132:0.0 133:0.0 134:0.0 135:0.0 136:0.008316008316008316 137:0.0 138:0.0 139:0.0 140:0.002079002079002079 141:0.0 142:0.0 143:0.0 144:0.002079002079002079 145:0.004158004158004158 146:0.002079002079002079 147:0.0 148:0.0 149:0.0 150:0.0 151:0.0 152:0.0 153:0.0 154:0.0 155:0.0 156:0.0 157:0.0 158:0.0 159:0.0 160:0.0 
1.0 1:0.0019342359767891683 2:0.0 3:0.0 4:0.0 5:0.0019342359767891683 6:0.0 7:0.0019342359767891683 8:0.0 9:0.0 10:0.0 11:0.0038684719535783366 12:0.0 13:0.0 14:0.0038684719535783366 15:0.0 16:0.0 17:0.0 18:0.0 19:0.0 20:0.0019342359767891683 21:0.0 22:0.015473887814313346 23:0.0019342359767891683 24:0.0 25:0.0038684719535783366 26:0.0 27:0.0 28:0.0019342359767891683 29:0.0019342359767891683 30:0.0 31:0.0019342359767891683 32:0.0 33:0.0 34:0.0 35:0.0 36:0.005802707930367505 37:0.0 38:0.0019342359767891683 39:0.0019342359767891683 40:0.0 41:0.0 42:0.0038684719535783366 43:0.0 44:0.0019342359767891683 45:0.0019342359767891683 46:0.0038684719535783366 47:0.0 48:0.0 49:0.0038684719535783366 50:0.0 51:0.0019342359767891683 52:0.0 53:0.0019342359767891683 54:0.005802707930367505 55:0.0 56:0.0019342359767891683 57:0.0019342359767891683 58:0.0019342359767891683 59:0.0019342359767891683 60:0.0 61:0.009671179883945842 62:0.0 63:0.0 64:0.0019342359767891683 65:0.0 66:0.009671179883945842 67:0.0019342359767891683 68:0.0 69:0.0 70:0.0019342359767891683 71:0.0038684719535783366 72:0.0 73:0.0 74:0.0 75:0.0019342359767891683 76:0.0 77:0.0 78:0.0 79:0.0 80:0.0019342359767891683 81:0.0 82:0.0 83:0.0 84:0.0019342359767891683 85:0.0 86:0.0 87:0.0 88:0.0 89:0.0019342359767891683 90:0.0038684719535783366 91:0.0 92:0.0 93:0.0 94:0.0 95:0.0 96:0.0 97:0.0038684719535783366 98:0.0019342359767891683 99:0.0 100:0.0038684719535783366 101:0.007736943907156673 102:0.0 103:0.013539651837524178 104:0.0 105:0.0 106:0.0 107:0.0 108:0.0 109:0.0 110:0.0 111:0.009671179883945842 112:0.7253384912959381 113:0.0 114:0.005802707930367505 115:0.0 116:0.0038684719535783366 117:0.0038684719535783366 118:0.0019342359767891683 119:0.0 120:0.0038684719535783366 121:0.0 122:0.059961315280464215 123:0.005802707930367505 124:0.0 125:0.0 126:0.0 127:0.0 128:0.0019342359767891683 129:0.0 130:0.0 131:0.0 132:0.0 133:0.0 134:0.0 135:0.0 136:0.01160541586073501 137:0.0 138:0.0 139:0.0 140:0.0 141:0.0 142:0.0 143:0.0 144:0.0019342359767891683 145:0.0038684719535783366 146:0.0019342359767891683 147:0.0 148:0.0 149:0.0019342359767891683 150:0.0 151:0.0 152:0.0 153:0.0 154:0.0 155:0.0 156:0.0 157:0.0 158:0.0 159:0.0 160:0.0 
1.0 1:0.002044989775051125 2:0.0 3:0.0 4:0.0 5:0.002044989775051125 6:0.0 7:0.002044989775051125 8:0.0 9:0.0 10:0.0 11:0.00408997955010225 12:0.0 13:0.0 14:0.00408997955010225 15:0.0 16:0.0 17:0.0 18:0.0 19:0.0 20:0.0 21:0.0 22:0.0081799591002045 23:0.002044989775051125 24:0.0 25:0.00408997955010225 26:0.0 27:0.0 28:0.002044989775051125 29:0.002044989775051125 30:0.0 31:0.002044989775051125 32:0.0 33:0.0 34:0.0 35:0.0 36:0.00408997955010225 37:0.0 38:0.002044989775051125 39:0.002044989775051125 40:0.0 41:0.0 42:0.002044989775051125 43:0.0 44:0.0 45:0.0 46:0.00408997955010225 47:0.0 48:0.0 49:0.00408997955010225 50:0.0 51:0.002044989775051125 52:0.0 53:0.002044989775051125 54:0.006134969325153374 55:0.0 56:0.002044989775051125 57:0.0 58:0.002044989775051125 59:0.002044989775051125 60:0.0 61:0.0081799591002045 62:0.0 63:0.0 64:0.0 65:0.0 66:0.0081799591002045 67:0.002044989775051125 68:0.0 69:0.0 70:0.002044989775051125 71:0.00408997955010225 72:0.0 73:0.0 74:0.0 75:0.002044989775051125 76:0.0 77:0.0 78:0.0 79:0.0 80:0.002044989775051125 81:0.0 82:0.002044989775051125 83:0.0 84:0.0 85:0.0 86:0.0 87:0.0 88:0.0 89:0.002044989775051125 90:0.00408997955010225 91:0.0 92:0.0 93:0.0 94:0.0 95:0.0 96:0.0 97:0.00408997955010225 98:0.002044989775051125 99:0.0 100:0.002044989775051125 101:0.0081799591002045 102:0.0 103:0.010224948875255624 104:0.0 105:0.0 106:0.0 107:0.0 108:0.0 109:0.0 110:0.0 111:0.00408997955010225 112:0.7934560327198364 113:0.0 114:0.006134969325153374 115:0.0 116:0.00408997955010225 117:0.0 118:0.002044989775051125 119:0.0 120:0.006134969325153374 121:0.0 122:0.024539877300613498 123:0.006134969325153374 124:0.0 125:0.0 126:0.0 127:0.0 128:0.002044989775051125 129:0.0 130:0.0 131:0.0 132:0.0 133:0.0 134:0.0 135:0.0 136:0.0081799591002045 137:0.0 138:0.0 139:0.0 140:0.002044989775051125 141:0.0 142:0.0 143:0.0 144:0.002044989775051125 145:0.00408997955010225 146:0.002044989775051125 147:0.0 148:0.0 149:0.0 150:0.0 151:0.0 152:0.0 153:0.0 154:0.0 155:0.0 156:0.0 157:0.0 158:0.0 159:0.0 160:0.0 
1.0 1:0.0 2:0.0 3:0.0 4:0.0 5:0.003401360544217687 6:0.0 7:0.003401360544217687 8:0.003401360544217687 9:0.0 10:0.0 11:0.003401360544217687 12:0.003401360544217687 13:0.0 14:0.003401360544217687 15:0.0 16:0.0 17:0.0 18:0.0 19:0.0 20:0.0 21:0.0 22:0.003401360544217687 23:0.0 24:0.0 25:0.003401360544217687 26:0.0 27:0.0 28:0.0 29:0.0 30:0.003401360544217687 31:0.0 32:0.0 33:0.0 34:0.0 35:0.0 36:0.0 37:0.0 38:0.003401360544217687 39:0.003401360544217687 40:0.003401360544217687 41:0.003401360544217687 42:0.003401360544217687 43:0.0 44:0.0 45:0.0 46:0.0 47:0.003401360544217687 48:0.0 49:0.0 50:0.003401360544217687 51:0.003401360544217687 52:0.006802721088435374 53:0.0 54:0.006802721088435374 55:0.003401360544217687 56:0.0 57:0.003401360544217687 58:0.0 59:0.0 60:0.0 61:0.0 62:0.0 63:0.003401360544217687 64:0.006802721088435374 65:0.0 66:0.003401360544217687 67:0.0 68:0.0 69:0.0 70:0.0 71:0.01020408163265306 72:0.003401360544217687 73:0.0 74:0.0 75:0.003401360544217687 76:0.0 77:0.0 78:0.0 79:0.0 80:0.0 81:0.006802721088435374 82:0.003401360544217687 83:0.0 84:0.003401360544217687 85:0.0 86:0.0 87:0.0 88:0.0 89:0.0 90:0.0 91:0.0 92:0.0 93:0.0 94:0.0 95:0.0 96:0.0 97:0.01020408163265306 98:0.0 99:0.0 100:0.003401360544217687 101:0.0 102:0.0 103:0.0 104:0.0 105:0.0 106:0.003401360544217687 107:0.0 108:0.0 109:0.0 110:0.0 111:0.0 112:0.8129251700680272 113:0.0 114:0.01020408163265306 115:0.0 116:0.0 117:0.003401360544217687 118:0.003401360544217687 119:0.0 120:0.0 121:0.0 122:0.013605442176870748 123:0.0 124:0.0 125:0.0 126:0.0 127:0.0 128:0.0 129:0.0 130:0.0 131:0.0 132:0.0 133:0.0 134:0.0 135:0.0 136:0.003401360544217687 137:0.003401360544217687 138:0.0 139:0.0 140:0.0 141:0.0 142:0.0 143:0.0 144:0.0 145:0.0 146:0.0 147:0.0 148:0.0 149:0.003401360544217687 150:0.006802721088435374 151:0.0 152:0.0 153:0.0 154:0.0 155:0.0 156:0.0 157:0.0 158:0.0 159:0.0 160:0.0 
1.0 1:0.0 2:0.0 3:0.0 4:0.0 5:0.0 6:0.0027100271002710027 7:0.0 8:0.0 9:0.0 10:0.0 11:0.0 12:0.0 13:0.0 14:0.0 15:0.0 16:0.0 17:0.0 18:0.0 19:0.0 20:0.0027100271002710027 21:0.0 22:0.0027100271002710027 23:0.0 24:0.0 25:0.0027100271002710027 26:0.0 27:0.0 28:0.0 29:0.0027100271002710027 30:0.0 31:0.005420054200542005 32:0.0 33:0.0 34:0.0 35:0.0 36:0.0027100271002710027 37:0.0 38:0.0 39:0.0027100271002710027 40:0.0027100271002710027 41:0.0 42:0.0027100271002710027 43:0.0 44:0.0027100271002710027 45:0.0 46:0.0027100271002710027 47:0.0 48:0.0 49:0.0 50:0.0 51:0.0 52:0.005420054200542005 53:0.0027100271002710027 54:0.01084010840108401 55:0.0027100271002710027 56:0.0 57:0.0027100271002710027 58:0.0027100271002710027 59:0.005420054200542005 60:0.0 61:0.0027100271002710027 62:0.0 63:0.0027100271002710027 64:0.0027100271002710027 65:0.0 66:0.0027100271002710027 67:0.0 68:0.0 69:0.0 70:0.0 71:0.0027100271002710027 72:0.0 73:0.0 74:0.0 75:0.0 76:0.0 77:0.0 78:0.0 79:0.0 80:0.0027100271002710027 81:0.0 82:0.0027100271002710027 83:0.0027100271002710027 84:0.0 85:0.0 86:0.0 87:0.0 88:0.0 89:0.0027100271002710027 90:0.0 91:0.0 92:0.0 93:0.0 94:0.0 95:0.0 96:0.0 97:0.0 98:0.0027100271002710027 99:0.0 100:0.013550135501355014 101:0.0027100271002710027 102:0.0 103:0.01084010840108401 104:0.0 105:0.0 106:0.0027100271002710027 107:0.0 108:0.0 109:0.0 110:0.0 111:0.008130081300813009 112:0.7669376693766937 113:0.0 114:0.0027100271002710027 115:0.0 116:0.0027100271002710027 117:0.0 118:0.0 119:0.0 120:0.0 121:0.0 122:0.04607046070460705 123:0.008130081300813009 124:0.0 125:0.0 126:0.0 127:0.0 128:0.0 129:0.005420054200542005 130:0.0 131:0.0 132:0.0 133:0.0 134:0.0 135:0.0 136:0.008130081300813009 137:0.0 138:0.0 139:0.0027100271002710027 140:0.0 141:0.0 142:0.005420054200542005 143:0.005420054200542005 144:0.0 145:0.0 146:0.0 147:0.0027100271002710027 148:0.0 149:0.0 150:0.0027100271002710027 151:0.0 152:0.005420054200542005 153:0.0 154:0.0 155:0.0 156:0.0 157:0.0 158:0.0027100271002710027 159:0.0 160:0.0 
1.0 1:0.002304147465437788 2:0.0 3:0.0 4:0.0 5:0.004608294930875576 6:0.0 7:0.002304147465437788 8:0.002304147465437788 9:0.0 10:0.0 11:0.0 12:0.0 13:0.0 14:0.004608294930875576 15:0.0 16:0.0 17:0.0 18:0.0 19:0.0 20:0.0 21:0.0 22:0.0 23:0.0 24:0.0 25:0.004608294930875576 26:0.0 27:0.0 28:0.0 29:0.0 30:0.0 31:0.0 32:0.002304147465437788 33:0.0 34:0.0 35:0.0 36:0.004608294930875576 37:0.0 38:0.0 39:0.0069124423963133645 40:0.002304147465437788 41:0.002304147465437788 42:0.004608294930875576 43:0.0 44:0.0 45:0.0 46:0.004608294930875576 47:0.002304147465437788 48:0.0 49:0.0 50:0.002304147465437788 51:0.0 52:0.0 53:0.002304147465437788 54:0.009216589861751152 55:0.0 56:0.0 57:0.0 58:0.002304147465437788 59:0.0 60:0.002304147465437788 61:0.0 62:0.0 63:0.002304147465437788 64:0.002304147465437788 65:0.002304147465437788 66:0.0 67:0.002304147465437788 68:0.004608294930875576 69:0.0 70:0.0 71:0.004608294930875576 72:0.002304147465437788 73:0.0 74:0.0 75:0.002304147465437788 76:0.0 77:0.002304147465437788 78:0.0 79:0.0 80:0.002304147465437788 81:0.004608294930875576 82:0.002304147465437788 83:0.0 84:0.002304147465437788 85:0.002304147465437788 86:0.002304147465437788 87:0.0 88:0.0 89:0.0 90:0.0 91:0.0 92:0.002304147465437788 93:0.0 94:0.0 95:0.0 96:0.0 97:0.002304147465437788 98:0.002304147465437788 99:0.0 100:0.0 101:0.002304147465437788 102:0.0 103:0.0 104:0.004608294930875576 105:0.0 106:0.002304147465437788 107:0.0 108:0.0 109:0.0 110:0.0 111:0.0069124423963133645 112:0.783410138248848 113:0.0 114:0.0069124423963133645 115:0.0 116:0.0 117:0.0 118:0.004608294930875576 119:0.0 120:0.0 121:0.0 122:0.013824884792626729 123:0.004608294930875576 124:0.0 125:0.002304147465437788 126:0.0 127:0.0 128:0.0 129:0.002304147465437788 130:0.0 131:0.002304147465437788 132:0.004608294930875576 133:0.0 134:0.002304147465437788 135:0.0 136:0.004608294930875576 137:0.004608294930875576 138:0.0 139:0.002304147465437788 140:0.0 141:0.0 142:0.0 143:0.0 144:0.0 145:0.0 146:0.0 147:0.0 148:0.0 149:0.002304147465437788 150:0.020737327188940093 151:0.0 152:0.002304147465437788 153:0.0 154:0.0 155:0.0 156:0.0 157:0.0 158:0.0 159:0.0 160:0.002304147465437788 
1.0 1:0.0 2:0.0 3:0.0 4:0.0 5:0.0 6:0.0 7:0.0 8:0.0 9:0.0 10:0.0 11:0.0 12:0.0023094688221709007 13:0.0 14:0.0023094688221709007 15:0.0 16:0.0 17:0.0 18:0.0 19:0.0 20:0.0 21:0.0 22:0.0023094688221709007 23:0.0 24:0.0 25:0.0 26:0.0 27:0.0 28:0.0 29:0.0 30:0.0 31:0.0023094688221709007 32:0.0 33:0.0 34:0.0 35:0.0 36:0.0 37:0.0 38:0.0 39:0.0023094688221709007 40:0.0 41:0.0023094688221709007 42:0.0023094688221709007 43:0.0 44:0.004618937644341801 45:0.0 46:0.004618937644341801 47:0.0 48:0.0 49:0.004618937644341801 50:0.0 51:0.0 52:0.0023094688221709007 53:0.004618937644341801 54:0.004618937644341801 55:0.0 56:0.0 57:0.0 58:0.0 59:0.0 60:0.0 61:0.0 62:0.0 63:0.0 64:0.0 65:0.0 66:0.0 67:0.0 68:0.0 69:0.0 70:0.0 71:0.0023094688221709007 72:0.0 73:0.0 74:0.0 75:0.0 76:0.0 77:0.0 78:0.0 79:0.0 80:0.0 81:0.0 82:0.0023094688221709007 83:0.0 84:0.0 85:0.0 86:0.0 87:0.0 88:0.0 89:0.0 90:0.0 91:0.0 92:0.0 93:0.0 94:0.0 95:0.0 96:0.0 97:0.0 98:0.0 99:0.0 100:0.004618937644341801 101:0.004618937644341801 102:0.0 103:0.0023094688221709007 104:0.0 105:0.0 106:0.0023094688221709007 107:0.0 108:0.0 109:0.0 110:0.0 111:0.009237875288683603 112:0.7274826789838337 113:0.0 114:0.004618937644341801 115:0.0 116:0.0 117:0.0 118:0.0 119:0.0 120:0.0 121:0.0 122:0.13625866050808313 123:0.0 124:0.0 125:0.0 126:0.0 127:0.0 128:0.0 129:0.0 130:0.0 131:0.004618937644341801 132:0.0023094688221709007 133:0.0 134:0.0 135:0.0 136:0.03233256351039261 137:0.0 138:0.0 139:0.0023094688221709007 140:0.0 141:0.0 142:0.0 143:0.0 144:0.0 145:0.0 146:0.0 147:0.0 148:0.0 149:0.0 150:0.020785219399538105 151:0.0 152:0.0 153:0.0 154:0.0 155:0.0 156:0.0 157:0.0 158:0.0 159:0.0 160:0.0 
1.0 1:0.004796163069544364 2:0.0 3:0.0 4:0.0 5:0.0 6:0.0 7:0.002398081534772182 8:0.004796163069544364 9:0.0 10:0.0 11:0.002398081534772182 12:0.0 13:0.0 14:0.0 15:0.0 16:0.0 17:0.0 18:0.0 19:0.0 20:0.0 21:0.0 22:0.002398081534772182 23:0.0 24:0.0 25:0.0 26:0.0 27:0.0 28:0.0 29:0.004796163069544364 30:0.0 31:0.004796163069544364 32:0.0 33:0.0 34:0.0 35:0.0 36:0.002398081534772182 37:0.0 38:0.0 39:0.002398081534772182 40:0.0 41:0.0 42:0.0 43:0.0 44:0.0 45:0.002398081534772182 46:0.0 47:0.002398081534772182 48:0.0 49:0.007194244604316547 50:0.0 51:0.0 52:0.0 53:0.002398081534772182 54:0.004796163069544364 55:0.0 56:0.0 57:0.0 58:0.0 59:0.0 60:0.0 61:0.0 62:0.0 63:0.002398081534772182 64:0.0 65:0.002398081534772182 66:0.004796163069544364 67:0.0 68:0.004796163069544364 69:0.0 70:0.0 71:0.002398081534772182 72:0.0 73:0.0 74:0.0 75:0.0 76:0.0 77:0.0 78:0.0 79:0.0 80:0.002398081534772182 81:0.0 82:0.007194244604316547 83:0.0 84:0.0 85:0.0 86:0.0 87:0.0 88:0.0 89:0.0 90:0.0 91:0.0 92:0.0 93:0.0 94:0.0 95:0.0 96:0.0 97:0.007194244604316547 98:0.0 99:0.0 100:0.002398081534772182 101:0.004796163069544364 102:0.0 103:0.002398081534772182 104:0.004796163069544364 105:0.0 106:0.0 107:0.0 108:0.0 109:0.0 110:0.0 111:0.004796163069544364 112:0.8105515587529976 113:0.0 114:0.002398081534772182 115:0.0 116:0.002398081534772182 117:0.0 118:0.002398081534772182 119:0.0 120:0.002398081534772182 121:0.0 122:0.03117505995203837 123:0.004796163069544364 124:0.0 125:0.0 126:0.0 127:0.0 128:0.0 129:0.0 130:0.0 131:0.002398081534772182 132:0.0 133:0.0 134:0.002398081534772182 135:0.0 136:0.004796163069544364 137:0.0 138:0.0 139:0.002398081534772182 140:0.0 141:0.0 142:0.004796163069544364 143:0.0 144:0.0 145:0.002398081534772182 146:0.0 147:0.0 148:0.0 149:0.007194244604316547 150:0.009592326139088728 151:0.0 152:0.004796163069544364 153:0.0 154:0.0 155:0.0 156:0.0 157:0.0 158:0.0 159:0.0 160:0.0 
1.0 1:0.0 2:0.0 3:0.0 4:0.0 5:0.0 6:0.0 7:0.0 8:0.0 9:0.0 10:0.0 11:0.014218009478672985 12:0.0 13:0.0 14:0.0 15:0.0 16:0.0 17:0.0 18:0.0 19:0.0 20:0.0 21:0.0 22:0.0 23:0.0 24:0.0 25:0.0 26:0.0 27:0.0 28:0.0 29:0.0 30:0.0 31:0.0 32:0.0 33:0.0 34:0.0 35:0.0 36:0.009478672985781991 37:0.0 38:0.0 39:0.0 40:0.0 41:0.0 42:0.0 43:0.0 44:0.018957345971563982 45:0.004739336492890996 46:0.004739336492890996 47:0.0 48:0.0 49:0.0 50:0.0 51:0.0 52:0.0 53:0.004739336492890996 54:0.009478672985781991 55:0.0 56:0.0 57:0.0 58:0.0 59:0.0 60:0.0 61:0.0 62:0.0 63:0.004739336492890996 64:0.004739336492890996 65:0.009478672985781991 66:0.0 67:0.0 68:0.0 69:0.0 70:0.0 71:0.004739336492890996 72:0.0 73:0.0 74:0.0 75:0.0 76:0.0 77:0.0 78:0.0 79:0.0 80:0.0 81:0.0 82:0.009478672985781991 83:0.004739336492890996 84:0.0 85:0.0 86:0.0 87:0.0 88:0.0 89:0.0 90:0.0 91:0.0 92:0.0 93:0.0 94:0.0 95:0.0 96:0.0 97:0.009478672985781991 98:0.004739336492890996 99:0.0 100:0.004739336492890996 101:0.0 102:0.0 103:0.004739336492890996 104:0.0 105:0.0 106:0.0 107:0.0 108:0.0 109:0.0 110:0.0 111:0.0 112:0.7914691943127962 113:0.0 114:0.009478672985781991 115:0.0 116:0.0 117:0.0 118:0.004739336492890996 119:0.0 120:0.0 121:0.0 122:0.023696682464454975 123:0.004739336492890996 124:0.0 125:0.0 126:0.0 127:0.0 128:0.0 129:0.0 130:0.0 131:0.009478672985781991 132:0.0 133:0.0 134:0.0 135:0.0 136:0.0 137:0.0 138:0.004739336492890996 139:0.0 140:0.0 141:0.0 142:0.0 143:0.0 144:0.004739336492890996 145:0.0 146:0.0 147:0.0 148:0.0 149:0.014218009478672985 150:0.0 151:0.0 152:0.004739336492890996 153:0.0 154:0.0 155:0.0 156:0.0 157:0.0 158:0.0 159:0.0 160:0.0 
1.0 1:0.0 2:0.0 3:0.0 4:0.0 5:0.0 6:0.0 7:0.0 8:0.0 9:0.0 10:0.0 11:0.0 12:0.0 13:0.0 14:0.0 15:0.0 16:0.0 17:0.0 18:0.0 19:0.0 20:0.0031446540880503146 21:0.0 22:0.0031446540880503146 23:0.0 24:0.0 25:0.0 26:0.0 27:0.0 28:0.0 29:0.006289308176100629 30:0.0 31:0.0031446540880503146 32:0.0 33:0.0 34:0.0 35:0.0 36:0.0 37:0.0 38:0.0 39:0.0 40:0.0 41:0.0 42:0.0031446540880503146 43:0.0 44:0.012578616352201259 45:0.0 46:0.0 47:0.0031446540880503146 48:0.0 49:0.0 50:0.0 51:0.0 52:0.0031446540880503146 53:0.0031446540880503146 54:0.0 55:0.0 56:0.0 57:0.0031446540880503146 58:0.0 59:0.0031446540880503146 60:0.0 61:0.006289308176100629 62:0.0 63:0.0 64:0.0031446540880503146 65:0.0031446540880503146 66:0.0 67:0.0 68:0.0 69:0.0 70:0.0 71:0.0031446540880503146 72:0.0 73:0.0 74:0.0 75:0.0 76:0.0 77:0.0 78:0.0 79:0.0 80:0.0 81:0.0 82:0.0 83:0.0 84:0.0031446540880503146 85:0.0 86:0.0 87:0.0 88:0.0 89:0.0 90:0.0 91:0.0 92:0.0 93:0.0 94:0.0 95:0.0 96:0.0 97:0.0031446540880503146 98:0.0 99:0.0 100:0.006289308176100629 101:0.0031446540880503146 102:0.0 103:0.0 104:0.0 105:0.0 106:0.0 107:0.0 108:0.0 109:0.0 110:0.0 111:0.0 112:0.7830188679245284 113:0.0 114:0.0 115:0.0 116:0.0 117:0.0 118:0.0 119:0.0 120:0.0 121:0.0 122:0.09433962264150944 123:0.0 124:0.0 125:0.0031446540880503146 126:0.0 127:0.0 128:0.0 129:0.0031446540880503146 130:0.0 131:0.006289308176100629 132:0.0 133:0.0 134:0.0 135:0.0 136:0.018867924528301886 137:0.0 138:0.0 139:0.0 140:0.0 141:0.0031446540880503146 142:0.0 143:0.0 144:0.0 145:0.0 146:0.0 147:0.0031446540880503146 148:0.0 149:0.0031446540880503146 150:0.0 151:0.0 152:0.0031446540880503146 153:0.0 154:0.0 155:0.0 156:0.0 157:0.0 158:0.0 159:0.0 160:0.0 
1.0 1:0.0024875621890547263 2:0.0 3:0.0 4:0.0 5:0.0 6:0.0 7:0.0 8:0.0 9:0.0 10:0.0 11:0.004975124378109453 12:0.0 13:0.0 14:0.007462686567164179 15:0.0 16:0.0 17:0.0 18:0.0 19:0.0 20:0.0 21:0.0 22:0.0 23:0.0 24:0.0 25:0.0 26:0.0 27:0.0 28:0.0 29:0.0024875621890547263 30:0.0024875621890547263 31:0.0024875621890547263 32:0.0 33:0.0 34:0.0 35:0.0 36:0.0024875621890547263 37:0.0 38:0.0 39:0.0024875621890547263 40:0.0024875621890547263 41:0.0024875621890547263 42:0.004975124378109453 43:0.0 44:0.0 45:0.0 46:0.009950248756218905 47:0.0024875621890547263 48:0.0 49:0.0 50:0.004975124378109453 51:0.0 52:0.0024875621890547263 53:0.0 54:0.009950248756218905 55:0.0 56:0.0 57:0.0024875621890547263 58:0.0024875621890547263 59:0.0 60:0.0 61:0.0 62:0.0 63:0.0 64:0.0 65:0.0024875621890547263 66:0.0024875621890547263 67:0.0024875621890547263 68:0.0 69:0.0 70:0.004975124378109453 71:0.0 72:0.0 73:0.0 74:0.0 75:0.0 76:0.0 77:0.0 78:0.0 79:0.0 80:0.0024875621890547263 81:0.0024875621890547263 82:0.004975124378109453 83:0.0024875621890547263 84:0.0 85:0.0 86:0.0 87:0.0 88:0.0 89:0.0 90:0.0024875621890547263 91:0.0 92:0.0 93:0.0 94:0.0 95:0.0 96:0.0 97:0.0 98:0.0 99:0.0 100:0.0 101:0.0 102:0.0 103:0.0024875621890547263 104:0.0 105:0.0 106:0.0024875621890547263 107:0.0 108:0.0 109:0.0 110:0.0 111:0.004975124378109453 112:0.7910447761194029 113:0.0 114:0.004975124378109453 115:0.0 116:0.004975124378109453 117:0.0024875621890547263 118:0.004975124378109453 119:0.0 120:0.0 121:0.0 122:0.03731343283582089 123:0.007462686567164179 124:0.0 125:0.0 126:0.0 127:0.0 128:0.0 129:0.004975124378109453 130:0.0 131:0.0 132:0.0 133:0.0 134:0.0 135:0.0 136:0.0 137:0.0 138:0.0 139:0.0 140:0.0 141:0.0 142:0.0024875621890547263 143:0.0 144:0.0 145:0.0 146:0.0 147:0.0 148:0.0 149:0.0 150:0.02736318407960199 151:0.0 152:0.0 153:0.0 154:0.0 155:0.0 156:0.0 157:0.0 158:0.0 159:0.0 160:0.0024875621890547263 
1.0 1:0.0028169014084507044 2:0.0 3:0.0 4:0.0 5:0.0028169014084507044 6:0.0 7:0.0 8:0.0 9:0.0 10:0.0 11:0.0028169014084507044 12:0.0 13:0.0 14:0.005633802816901409 15:0.0 16:0.0 17:0.0 18:0.0 19:0.0 20:0.0 21:0.0 22:0.0 23:0.005633802816901409 24:0.0 25:0.0 26:0.0 27:0.0 28:0.0 29:0.0 30:0.0028169014084507044 31:0.0028169014084507044 32:0.0 33:0.0 34:0.0 35:0.0 36:0.0028169014084507044 37:0.0 38:0.0 39:0.0028169014084507044 40:0.0 41:0.0028169014084507044 42:0.0 43:0.0 44:0.0 45:0.0 46:0.008450704225352112 47:0.0 48:0.0 49:0.0 50:0.0 51:0.0 52:0.0 53:0.0028169014084507044 54:0.008450704225352112 55:0.0028169014084507044 56:0.0 57:0.0 58:0.0 59:0.0 60:0.0 61:0.0 62:0.0 63:0.0 64:0.0028169014084507044 65:0.0028169014084507044 66:0.005633802816901409 67:0.005633802816901409 68:0.0 69:0.0 70:0.0 71:0.0 72:0.0 73:0.0 74:0.0 75:0.0028169014084507044 76:0.0 77:0.0 78:0.0 79:0.0 80:0.0 81:0.008450704225352112 82:0.005633802816901409 83:0.0 84:0.0028169014084507044 85:0.0 86:0.0 87:0.0 88:0.0 89:0.0 90:0.0 91:0.0 92:0.005633802816901409 93:0.0 94:0.0 95:0.0 96:0.0 97:0.0 98:0.0028169014084507044 99:0.0 100:0.005633802816901409 101:0.0028169014084507044 102:0.0 103:0.0028169014084507044 104:0.005633802816901409 105:0.0 106:0.008450704225352112 107:0.0 108:0.0 109:0.0 110:0.0 111:0.005633802816901409 112:0.7774647887323943 113:0.0 114:0.005633802816901409 115:0.0 116:0.0 117:0.0028169014084507044 118:0.005633802816901409 119:0.0 120:0.0028169014084507044 121:0.0 122:0.01971830985915493 123:0.0028169014084507044 124:0.0 125:0.0 126:0.0 127:0.0 128:0.0 129:0.005633802816901409 130:0.0 131:0.0028169014084507044 132:0.0 133:0.0 134:0.0028169014084507044 135:0.0 136:0.0028169014084507044 137:0.0 138:0.0 139:0.0 140:0.0 141:0.0 142:0.0 143:0.0 144:0.0 145:0.0028169014084507044 146:0.0 147:0.0 148:0.0 149:0.005633802816901409 150:0.02535211267605634 151:0.0 152:0.0 153:0.0 154:0.0 155:0.0 156:0.0 157:0.0 158:0.0 159:0.0 160:0.0028169014084507044 
1.0 1:0.004098360655737705 2:0.0 3:0.0 4:0.0 5:0.0 6:0.0 7:0.0 8:0.004098360655737705 9:0.0 10:0.0 11:0.0 12:0.0 13:0.004098360655737705 14:0.0 15:0.0 16:0.0 17:0.0 18:0.0 19:0.0 20:0.004098360655737705 21:0.0 22:0.0 23:0.00819672131147541 24:0.0 25:0.0 26:0.0 27:0.0 28:0.0 29:0.0 30:0.0 31:0.0 32:0.0 33:0.0 34:0.0 35:0.0 36:0.004098360655737705 37:0.0 38:0.0 39:0.0 40:0.0 41:0.0 42:0.0 43:0.0 44:0.0 45:0.0 46:0.00819672131147541 47:0.0 48:0.0 49:0.004098360655737705 50:0.0 51:0.0 52:0.0 53:0.0 54:0.012295081967213115 55:0.0 56:0.004098360655737705 57:0.00819672131147541 58:0.004098360655737705 59:0.0 60:0.0 61:0.0 62:0.0 63:0.0 64:0.0 65:0.004098360655737705 66:0.0 67:0.004098360655737705 68:0.0 69:0.0 70:0.0 71:0.004098360655737705 72:0.0 73:0.0 74:0.0 75:0.0 76:0.0 77:0.0 78:0.0 79:0.0 80:0.0 81:0.0 82:0.0 83:0.012295081967213115 84:0.0 85:0.0 86:0.0 87:0.0 88:0.0 89:0.0 90:0.0 91:0.0 92:0.0 93:0.0 94:0.0 95:0.0 96:0.0 97:0.00819672131147541 98:0.004098360655737705 99:0.0 100:0.0 101:0.00819672131147541 102:0.0 103:0.004098360655737705 104:0.004098360655737705 105:0.0 106:0.0 107:0.0 108:0.0 109:0.004098360655737705 110:0.0 111:0.0 112:0.7295081967213115 113:0.0 114:0.00819672131147541 115:0.0 116:0.0 117:0.0 118:0.004098360655737705 119:0.0 120:0.0 121:0.0 122:0.06147540983606557 123:0.012295081967213115 124:0.0 125:0.0 126:0.0 127:0.0 128:0.0 129:0.004098360655737705 130:0.0 131:0.0 132:0.00819672131147541 133:0.004098360655737705 134:0.004098360655737705 135:0.0 136:0.004098360655737705 137:0.0 138:0.004098360655737705 139:0.004098360655737705 140:0.0 141:0.0 142:0.0 143:0.0 144:0.004098360655737705 145:0.004098360655737705 146:0.0 147:0.0 148:0.0 149:0.012295081967213115 150:0.0 151:0.0 152:0.004098360655737705 153:0.0 154:0.0 155:0.0 156:0.0 157:0.0 158:0.0 159:0.0 160:0.0 
1.0 1:0.0 2:0.0 3:0.0 4:0.0 5:0.0 6:0.0 7:0.0 8:0.0 9:0.0 10:0.0 11:0.0 12:0.0 13:0.0 14:0.0 15:0.0 16:0.0 17:0.0 18:0.0 19:0.0 20:0.0 21:0.0 22:0.009433962264150943 23:0.0047169811320754715 24:0.0 25:0.0 26:0.0 27:0.0 28:0.0 29:0.0047169811320754715 30:0.0 31:0.0 32:0.0 33:0.0 34:0.0 35:0.0 36:0.0047169811320754715 37:0.0 38:0.0 39:0.0 40:0.0 41:0.0 42:0.0 43:0.0 44:0.0047169811320754715 45:0.0 46:0.009433962264150943 47:0.0 48:0.0 49:0.0 50:0.0 51:0.0 52:0.0 53:0.0 54:0.0047169811320754715 55:0.0 56:0.0 57:0.009433962264150943 58:0.0047169811320754715 59:0.0 60:0.0 61:0.0 62:0.0 63:0.0 64:0.0 65:0.0 66:0.0 67:0.0047169811320754715 68:0.0 69:0.0 70:0.0 71:0.0047169811320754715 72:0.0 73:0.0 74:0.0 75:0.0 76:0.0 77:0.0 78:0.0 79:0.0 80:0.0 81:0.0 82:0.0 83:0.0047169811320754715 84:0.0 85:0.0 86:0.0 87:0.0 88:0.0 89:0.0 90:0.0 91:0.0 92:0.0 93:0.0 94:0.0 95:0.0 96:0.0 97:0.0 98:0.0 99:0.0 100:0.014150943396226415 101:0.014150943396226415 102:0.0 103:0.014150943396226415 104:0.0 105:0.0 106:0.0 107:0.0 108:0.0 109:0.0 110:0.0 111:0.0047169811320754715 112:0.660377358490566 113:0.0 114:0.0 115:0.0 116:0.0 117:0.0047169811320754715 118:0.0 119:0.0 120:0.0 121:0.0 122:0.17452830188679244 123:0.009433962264150943 124:0.0 125:0.0 126:0.0 127:0.0 128:0.0 129:0.0047169811320754715 130:0.0 131:0.0047169811320754715 132:0.0 133:0.0 134:0.0047169811320754715 135:0.0 136:0.014150943396226415 137:0.0 138:0.0 139:0.0 140:0.0 141:0.0 142:0.0 143:0.0 144:0.0 145:0.0 146:0.0 147:0.0 148:0.0 149:0.0 150:0.0 151:0.0 152:0.0047169811320754715 153:0.0 154:0.0 155:0.0 156:0.0 157:0.0 158:0.0 159:0.0 160:0.0 
1.0 1:0.0 2:0.0 3:0.0 4:0.0 5:0.0 6:0.0 7:0.0 8:0.0019646365422396855 9:0.0 10:0.0 11:0.003929273084479371 12:0.0 13:0.0 14:0.0019646365422396855 15:0.0 16:0.0 17:0.0 18:0.0 19:0.0 20:0.0019646365422396855 21:0.0 22:0.005893909626719057 23:0.0019646365422396855 24:0.0019646365422396855 25:0.0 26:0.0 27:0.0 28:0.0 29:0.0019646365422396855 30:0.0 31:0.0 32:0.0 33:0.0 34:0.0 35:0.0 36:0.003929273084479371 37:0.0 38:0.0 39:0.003929273084479371 40:0.0 41:0.0019646365422396855 42:0.0019646365422396855 43:0.0 44:0.0019646365422396855 45:0.0 46:0.005893909626719057 47:0.0 48:0.0 49:0.0019646365422396855 50:0.0019646365422396855 51:0.0 52:0.0 53:0.0 54:0.003929273084479371 55:0.0 56:0.0 57:0.0 58:0.0019646365422396855 59:0.0019646365422396855 60:0.0 61:0.0019646365422396855 62:0.0 63:0.0 64:0.0 65:0.0 66:0.0 67:0.0019646365422396855 68:0.0019646365422396855 69:0.0 70:0.0 71:0.011787819253438114 72:0.0019646365422396855 73:0.0 74:0.0 75:0.0 76:0.0 77:0.0019646365422396855 78:0.0 79:0.0 80:0.0019646365422396855 81:0.0019646365422396855 82:0.003929273084479371 83:0.0 84:0.0 85:0.0019646365422396855 86:0.0 87:0.0 88:0.0 89:0.0 90:0.0 91:0.0 92:0.0 93:0.0 94:0.0 95:0.0 96:0.0 97:0.0019646365422396855 98:0.0 99:0.0 100:0.0 101:0.007858546168958742 102:0.0 103:0.007858546168958742 104:0.0 105:0.0 106:0.0019646365422396855 107:0.0 108:0.0 109:0.0 110:0.0 111:0.007858546168958742 112:0.7072691552062869 113:0.0 114:0.009823182711198428 115:0.0 116:0.0019646365422396855 117:0.0019646365422396855 118:0.005893909626719057 119:0.0 120:0.0019646365422396855 121:0.0 122:0.08644400785854617 123:0.007858546168958742 124:0.0 125:0.0 126:0.0 127:0.0 128:0.0 129:0.007858546168958742 130:0.0 131:0.003929273084479371 132:0.0 133:0.0 134:0.0019646365422396855 135:0.0 136:0.015717092337917484 137:0.0 138:0.0019646365422396855 139:0.005893909626719057 140:0.0 141:0.0019646365422396855 142:0.0019646365422396855 143:0.0 144:0.0 145:0.0 146:0.0 147:0.0 148:0.0 149:0.003929273084479371 150:0.01768172888015717 151:0.0 152:0.0019646365422396855 153:0.0 154:0.0 155:0.0 156:0.0 157:0.0 158:0.0 159:0.0 160:0.0 
