svm_type one_class
kernel_type rbf
gamma 0.5
nr_class 2
total_sv 172
rho 166.82265957593918
SV
1.0 1:0.0 2:0.0 3:0.0 4:0.0 5:0.0 6:0.0 7:0.0 8:0.0 9:0.0 10:0.0 11:0.0 12:0.0 13:0.0 14:0.0 15:0.0 16:0.0 17:0.0 18:0.0 19:0.0 20:0.0 21:0.0 22:0.0 23:0.0 24:0.0 25:0.0 26:0.0 27:0.0 28:0.0 29:0.0 30:0.0 31:0.0 32:0.0 33:0.0 34:0.0 35:0.0 36:0.0 37:0.0 38:0.0 39:0.0 40:0.0 41:0.0 42:0.0 43:0.0 44:0.0 45:0.0 46:0.0 47:0.0 48:0.0 49:0.0 50:0.0 51:0.0 52:0.0 53:0.0 54:0.0 55:0.0 56:0.0 57:0.0 58:0.0 59:0.0 60:0.0 61:0.0 62:0.0 63:0.0 64:0.0 65:0.0 66:0.0 67:0.0 68:0.0 69:0.0 70:0.0 71:0.0 72:0.0 73:0.0 74:0.0 75:0.0 76:0.0 77:0.0 78:0.0 79:0.0 80:0.0 81:0.0 82:0.0 83:0.0 84:0.0 85:0.0 86:0.0 87:0.0 88:0.0 89:0.0 90:0.0 91:0.0 92:0.0 93:0.0 94:0.0 95:0.0 96:0.0 97:0.0 98:0.0 99:0.0 100:0.0 101:0.0 102:0.0 103:0.0 104:0.0 105:0.0 106:0.0 107:0.0 108:0.0 109:0.0 110:0.0 111:0.0 112:0.0 113:0.0 114:0.0 115:0.0 116:0.0 117:0.0 118:0.0 119:0.0 120:0.0 121:0.0 122:0.0 123:0.0 124:0.0 125:0.0 126:0.0 127:0.0 128:0.0 129:0.0 130:0.0 131:0.0 132:0.0 133:0.0 134:0.0 135:0.0 136:0.0 137:0.0 138:0.0 139:0.0 140:0.0 141:0.0 142:0.0 143:0.0 144:0.0 145:0.0 146:0.0 147:0.0 148:0.0 149:1.0 150:0.0 151:0.0 152:0.0 153:0.0 154:0.0 155:0.0 156:0.0 157:0.0 158:0.0 159:0.0 160:0.0 
1.0 1:0.0 2:0.0 3:0.0 4:0.0 5:0.0 6:0.0 7:0.0 8:0.0 9:0.0 10:0.0 11:0.0 12:0.0 13:0.0 14:0.0 15:0.0 16:0.0 17:0.0 18:0.0 19:0.0 20:0.0 21:0.0 22:0.0 23:0.0 24:0.0 25:0.0 26:0.0 27:0.0 28:0.0 29:0.0 30:0.0 31:0.0 32:0.0 33:0.0 34:0.0 35:0.0 36:0.0 37:0.0 38:0.0 39:0.0 40:0.0 41:0.0 42:0.0 43:0.0 44:0.0 45:0.0 46:0.0 47:0.0 48:0.0 49:0.0 50:0.0 51:0.0 52:0.0 53:0.0 54:0.0 55:0.0 56:0.0 57:0.0 58:0.0 59:0.0 60:0.0 61:0.0 62:0.0 63:0.0 64:0.0 65:0.0 66:0.0 67:0.0 68:0.0 69:0.0 70:0.0 71:0.0 72:0.0 73:0.0 74:0.0 75:0.0 76:0.0 77:0.0 78:0.0 79:0.0 80:0.0 81:0.0 82:0.0 83:0.0 84:0.0 85:0.0 86:0.0 87:0.0 88:0.0 89:0.0 90:0.0 91:0.0 92:0.0 93:0.0 94:0.0 95:0.0 96:0.0 97:0.0 98:0.0 99:0.0 100:0.0 101:0.0 102:0.0 103:0.0 104:0.0 105:0.0 106:0.0 107:0.0 108:0.0 109:0.0 110:0.0 111:0.0 112:0.0 113:0.0 114:0.0 115:0.0 116:0.0 117:0.0 118:0.0 119:0.0 120:0.0 121:0.0 122:0.0 123:0.0 124:0.0 125:0.0 126:0.0 127:0.0 128:0.0 129:0.0 130:0.0 131:0.0 132:0.0 133:0.0 134:0.0 135:0.0 136:0.0 137:0.0 138:0.0 139:0.0 140:0.0 141:0.0 142:0.0 143:0.0 144:0.0 145:0.0 146:0.0 147:0.0 148:0.0 149:1.0 150:0.0 151:0.0 152:0.0 153:0.0 154:0.0 155:0.0 156:0.0 157:0.0 158:0.0 159:0.0 160:0.0 
1.0 1:0.0 2:0.0 3:0.0 4:0.0 5:0.0 6:0.0 7:0.0 8:0.0 9:0.0 10:0.0 11:0.0 12:0.0 13:0.0 14:0.0 15:0.0 16:0.0 17:0.0 18:0.0 19:0.0 20:0.0 21:0.0 22:0.0 23:0.0 24:0.0 25:0.0 26:0.0 27:0.0 28:0.0 29:0.0 30:0.0 31:0.0 32:0.0 33:0.0 34:0.0 35:0.0 36:0.0 37:0.0 38:0.0 39:0.0 40:0.0 41:0.0 42:0.0 43:0.0 44:0.0 45:0.0 46:0.0 47:0.0 48:0.0 49:0.0 50:0.0 51:0.0 52:0.0 53:0.0 54:0.0 55:0.0 56:0.0 57:0.0 58:0.0 59:0.0 60:0.0 61:0.0 62:0.0 63:0.0 64:0.0 65:0.0 66:0.0 67:0.0 68:0.0 69:0.0 70:0.0 71:0.0 72:0.0 73:0.0 74:0.0 75:0.0 76:0.0 77:0.0 78:0.0 79:0.0 80:0.0 81:0.0 82:0.0 83:0.0 84:0.0 85:0.0 86:0.0 87:0.0 88:0.0 89:0.0 90:0.0 91:0.0 92:0.0 93:0.0 94:0.0 95:0.0 96:0.0 97:0.0 98:0.0 99:0.0 100:0.0 101:0.0 102:0.0 103:0.0 104:0.0 105:0.0 106:0.0 107:0.0 108:0.0 109:0.0 110:0.0 111:0.0 112:0.0 113:0.0 114:0.0 115:0.0 116:0.0 117:0.0 118:0.0 119:0.0 120:0.0 121:0.0 122:0.0 123:0.0 124:0.0 125:0.0 126:0.0 127:0.0 128:0.0 129:0.0 130:0.0 131:0.0 132:0.0 133:0.0 134:0.0 135:0.0 136:0.0 137:0.0 138:0.0 139:0.0 140:0.0 141:0.0 142:0.0 143:0.0 144:0.0 145:0.0 146:0.0 147:0.0 148:0.0 149:1.0 150:0.0 151:0.0 152:0.0 153:0.0 154:0.0 155:0.0 156:0.0 157:0.0 158:0.0 159:0.0 160:0.0 
1.0 1:0.0 2:0.0 3:0.0 4:0.0 5:0.0 6:0.0 7:0.0 8:0.0 9:0.0 10:0.0 11:0.0 12:0.0 13:0.0 14:0.0 15:0.0 16:0.0 17:0.0 18:0.0 19:0.0 20:0.0 21:0.0 22:0.0 23:0.0 24:0.0 25:0.0 26:0.0 27:0.0 28:0.0 29:0.0 30:0.0 31:0.0 32:0.0 33:0.0 34:0.0 35:0.0 36:0.0 37:0.0 38:0.0 39:0.0 40:0.0 41:0.0 42:0.0 43:0.0 44:0.0 45:0.0 46:0.0 47:0.0 48:0.0 49:0.0 50:0.0 51:0.0 52:0.0 53:0.0 54:0.0 55:0.0 56:0.0 57:0.0 58:0.0 59:0.0 60:0.0 61:0.0 62:0.0 63:0.0 64:0.0 65:0.0 66:0.0 67:0.0 68:0.0 69:0.0 70:0.0 71:0.0 72:0.0 73:0.0 74:0.0 75:0.0 76:0.0 77:0.0 78:0.0 79:0.0 80:0.0 81:0.0 82:0.0 83:0.0 84:0.0 85:0.0 86:0.0 87:0.0 88:0.0 89:0.0 90:0.0 91:0.0 92:0.0 93:0.0 94:0.0 95:0.0 96:0.0 97:0.0 98:0.0 99:0.0 100:0.0 101:0.0 102:0.0 103:0.0 104:0.0 105:0.0 106:0.0 107:0.0 108:0.0 109:0.0 110:0.0 111:0.0 112:0.0 113:0.0 114:0.0 115:0.0 116:0.0 117:0.0 118:0.0 119:0.0 120:0.0 121:0.0 122:0.0 123:0.0 124:0.0 125:0.0 126:0.0 127:0.0 128:0.0 129:0.0 130:0.0 131:0.0 132:0.0 133:0.0 134:0.0 135:0.0 136:0.0 137:0.0 138:0.0 139:0.0 140:0.0 141:0.0 142:0.0 143:0.0 144:0.0 145:0.0 146:0.0 147:0.0 148:0.0 149:1.0 150:0.0 151:0.0 152:0.0 153:0.0 154:0.0 155:0.0 156:0.0 157:0.0 158:0.0 159:0.0 160:0.0 
1.0 1:0.0 2:0.0 3:0.0 4:0.0 5:0.0 6:0.0 7:0.0 8:0.0 9:0.0 10:0.0 11:0.0 12:0.0 13:0.0 14:0.0 15:0.0 16:0.0 17:0.0 18:0.0 19:0.0 20:0.0 21:0.0 22:0.0 23:0.0 24:0.0 25:0.0 26:0.0 27:0.0 28:0.0 29:0.0 30:0.0 31:0.0 32:0.0 33:0.0 34:0.0 35:0.0 36:0.0 37:0.0 38:0.0 39:0.0 40:0.0 41:0.0 42:0.0 43:0.0 44:0.0 45:0.0 46:0.0 47:0.0 48:0.0 49:0.0 50:0.0 51:0.0 52:0.0 53:0.0 54:0.0 55:0.0 56:0.0 57:0.0 58:0.0 59:0.0 60:0.0 61:0.0 62:0.0 63:0.0 64:0.0 65:0.0 66:0.0 67:0.0 68:0.0 69:0.0 70:0.0 71:0.0 72:0.0 73:0.0 74:0.0 75:0.0 76:0.0 77:0.0 78:0.0 79:0.0 80:0.0 81:0.0 82:0.0 83:0.0 84:0.0 85:0.0 86:0.0 87:0.0 88:0.0 89:0.0 90:0.0 91:0.0 92:0.0 93:0.0 94:0.0 95:0.0 96:0.0 97:0.0 98:0.0 99:0.0 100:0.0 101:0.0 102:0.0 103:0.0 104:0.0 105:0.0 106:0.0 107:0.0 108:0.0 109:0.0 110:0.0 111:0.0 112:0.0 113:0.0 114:0.0 115:0.0 116:0.0 117:0.0 118:0.0 119:0.0 120:0.0 121:0.0 122:0.0 123:0.0 124:0.0 125:0.0 126:0.0 127:0.0 128:0.0 129:0.0 130:0.0 131:0.0 132:0.0 133:0.0 134:0.0 135:0.0 136:0.0 137:0.0 138:0.0 139:0.0 140:0.0 141:0.0 142:0.0 143:0.0 144:0.0 145:0.0 146:0.0 147:0.0 148:0.0 149:1.0 150:0.0 151:0.0 152:0.0 153:0.0 154:0.0 155:0.0 156:0.0 157:0.0 158:0.0 159:0.0 160:0.0 
1.0 1:0.0 2:0.0 3:0.0 4:0.0 5:0.0 6:0.0 7:0.0 8:0.0 9:0.0 10:0.0 11:0.0 12:0.0 13:0.0 14:0.0 15:0.0 16:0.0 17:0.0 18:0.0 19:0.0 20:0.0 21:0.0 22:0.0 23:0.0 24:0.0 25:0.0 26:0.0 27:0.0 28:0.0 29:0.0 30:0.0 31:0.0 32:0.0 33:0.0 34:0.0 35:0.0 36:0.0 37:0.0 38:0.0 39:0.0 40:0.0 41:0.0 42:0.0 43:0.0 44:0.0 45:0.0 46:0.0 47:0.0 48:0.0 49:0.0 50:0.0 51:0.0 52:0.0 53:0.0 54:0.0 55:0.0 56:0.0 57:0.0 58:0.0 59:0.0 60:0.0 61:0.0 62:0.0 63:0.0 64:0.0 65:0.0 66:0.0 67:0.0 68:0.0 69:0.0 70:0.0 71:0.0 72:0.0 73:0.0 74:0.0 75:0.0 76:0.0 77:0.0 78:0.0 79:0.0 80:0.0 81:0.0 82:0.0 83:0.0 84:0.0 85:0.0 86:0.0 87:0.0 88:0.0 89:0.0 90:0.0 91:0.0 92:0.0 93:0.0 94:0.0 95:0.0 96:0.0 97:0.0 98:0.0 99:0.0 100:0.0 101:0.0 102:0.0 103:0.0 104:0.0 105:0.0 106:0.0 107:0.0 108:0.0 109:0.0 110:0.0 111:0.0 112:0.0 113:0.0 114:0.0 115:0.0 116:0.0 117:0.0 118:0.0 119:0.0 120:0.0 121:0.0 122:0.0 123:0.0 124:0.0 125:0.0 126:0.0 127:0.0 128:0.0 129:0.0 130:0.0 131:0.0 132:0.0 133:0.0 134:0.0 135:0.0 136:0.0 137:0.0 138:0.0 139:0.0 140:0.0 141:0.0 142:0.0 143:0.0 144:0.0 145:0.0 146:0.0 147:0.0 148:0.0 149:1.0 150:0.0 151:0.0 152:0.0 153:0.0 154:0.0 155:0.0 156:0.0 157:0.0 158:0.0 159:0.0 160:0.0 
1.0 1:0.0 2:0.0 3:0.0 4:0.0 5:0.0 6:0.0 7:0.0 8:0.0 9:0.0 10:0.0 11:0.0 12:0.0 13:0.0 14:0.0 15:0.0 16:0.0 17:0.0 18:0.0 19:0.0 20:0.0 21:0.0 22:0.0 23:0.0 24:0.0 25:0.0 26:0.0 27:0.0 28:0.0 29:0.0 30:0.0 31:0.0 32:0.0 33:0.0 34:0.0 35:0.0 36:0.0 37:0.0 38:0.0 39:0.0 40:0.0 41:0.0 42:0.0 43:0.0 44:0.0 45:0.0 46:0.0 47:0.0 48:0.0 49:0.0 50:0.0 51:0.0 52:0.0 53:0.0 54:0.0 55:0.0 56:0.0 57:0.0 58:0.0 59:0.0 60:0.0 61:0.0 62:0.0 63:0.0 64:0.0 65:0.0 66:0.0 67:0.0 68:0.0 69:0.0 70:0.0 71:0.0 72:0.0 73:0.0 74:0.0 75:0.0 76:0.0 77:0.0 78:0.0 79:0.0 80:0.0 81:0.0 82:0.0 83:0.0 84:0.0 85:0.0 86:0.0 87:0.0 88:0.0 89:0.0 90:0.0 91:0.0 92:0.0 93:0.0 94:0.0 95:0.0 96:0.0 97:0.0 98:0.0 99:0.0 100:0.0 101:0.0 102:0.0 103:0.0 104:0.0 105:0.0 106:0.0 107:0.0 108:0.0 109:0.0 110:0.0 111:0.0 112:0.0 113:0.0 114:0.0 115:0.0 116:0.0 117:0.0 118:0.0 119:0.0 120:0.0 121:0.0 122:0.0 123:0.0 124:0.0 125:0.0 126:0.0 127:0.0 128:0.0 129:0.0 130:0.0 131:0.0 132:0.0 133:0.0 134:0.0 135:0.0 136:0.0 137:0.0 138:0.0 139:0.0 140:0.0 141:0.0 142:0.0 143:0.0 144:0.0 145:0.0 146:0.0 147:0.0 148:0.0 149:1.0 150:0.0 151:0.0 152:0.0 153:0.0 154:0.0 155:0.0 156:0.0 157:0.0 158:0.0 159:0.0 160:0.0 
1.0 1:0.0 2:0.0 3:0.0 4:0.0 5:0.0 6:0.0 7:0.0 8:0.0 9:0.0 10:0.0 11:0.0 12:0.0 13:0.0 14:0.0 15:0.0 16:0.0 17:0.0 18:0.0 19:0.0 20:0.0 21:0.0 22:0.0 23:0.0 24:0.0 25:0.0 26:0.0 27:0.0 28:0.0 29:0.0 30:0.0 31:0.0 32:0.0 33:0.0 34:0.0 35:0.0 36:0.0 37:0.0 38:0.0 39:0.0 40:0.0 41:0.0 42:0.0 43:0.0 44:0.0 45:0.0 46:0.0 47:0.0 48:0.0 49:0.0 50:0.0 51:0.0 52:0.0 53:0.0 54:0.0 55:0.0 56:0.0 57:0.0 58:0.0 59:0.0 60:0.0 61:0.0 62:0.0 63:0.0 64:0.0 65:0.0 66:0.0 67:0.0 68:0.0 69:0.0 70:0.0 71:0.0 72:0.0 73:0.0 74:0.0 75:0.0 76:0.0 77:0.0 78:0.0 79:0.0 80:0.0 81:0.0 82:0.0 83:0.0 84:0.0 85:0.0 86:0.0 87:0.0 88:0.0 89:0.0 90:0.0 91:0.0 92:0.0 93:0.0 94:0.0 95:0.0 96:0.0 97:0.0 98:0.0 99:0.0 100:0.0 101:0.0 102:0.0 103:0.0 104:0.0 105:0.0 106:0.0 107:0.0 108:0.0 109:0.0 110:0.0 111:0.0 112:0.0 113:0.0 114:0.0 115:0.0 116:0.0 117:0.0 118:0.0 119:0.0 120:0.0 121:0.0 122:0.0 123:0.0 124:0.0 125:0.0 126:0.0 127:0.0 128:0.0 129:0.0 130:0.0 131:0.0 132:0.0 133:0.0 134:0.0 135:0.0 136:0.0 137:0.0 138:0.0 139:0.0 140:0.0 141:0.0 142:0.0 143:0.0 144:0.0 145:0.0 146:0.0 147:0.0 148:0.0 149:1.0 150:0.0 151:0.0 152:0.0 153:0.0 154:0.0 155:0.0 156:0.0 157:0.0 158:0.0 159:0.0 160:0.0 
1.0 1:0.0 2:0.0 3:0.0 4:0.0 5:0.0 6:0.0 7:0.0 8:0.0 9:0.0 10:0.0 11:0.0 12:0.0 13:0.0 14:0.0 15:0.0 16:0.0 17:0.0 18:0.0 19:0.0 20:0.0 21:0.0 22:0.0 23:0.0 24:0.0 25:0.0 26:0.0 27:0.0 28:0.0 29:0.0 30:0.0 31:0.0 32:0.0 33:0.0 34:0.0 35:0.0 36:0.0 37:0.0 38:0.0 39:0.0 40:0.0 41:0.0 42:0.0 43:0.0 44:0.0 45:0.0 46:0.0 47:0.0 48:0.0 49:0.0 50:0.0 51:0.0 52:0.0 53:0.0 54:0.0 55:0.0 56:0.0 57:0.0 58:0.0 59:0.0 60:0.0 61:0.0 62:0.0 63:0.0 64:0.0 65:0.0 66:0.0 67:0.0 68:0.0 69:0.0 70:0.0 71:0.0 72:0.0 73:0.0 74:0.0 75:0.0 76:0.0 77:0.0 78:0.0 79:0.0 80:0.0 81:0.0 82:0.0 83:0.0 84:0.0 85:0.0 86:0.0 87:0.0 88:0.0 89:0.0 90:0.0 91:0.0 92:0.0 93:0.0 94:0.0 95:0.0 96:0.0 97:0.0 98:0.0 99:0.0 100:0.0 101:0.0 102:0.0 103:0.0 104:0.0 105:0.0 106:0.0 107:0.0 108:0.0 109:0.0 110:0.0 111:0.0 112:0.0 113:0.0 114:0.0 115:0.0 116:0.0 117:0.0 118:0.0 119:0.0 120:0.0 121:0.0 122:0.0 123:0.0 124:0.0 125:0.0 126:0.0 127:0.0 128:0.0 129:0.0 130:0.0 131:0.0 132:0.0 133:0.0 134:0.0 135:0.0 136:0.0 137:0.0 138:0.0 139:0.0 140:0.0 141:0.0 142:0.0 143:0.0 144:0.0 145:0.0 146:0.0 147:0.0 148:0.0 149:1.0 150:0.0 151:0.0 152:0.0 153:0.0 154:0.0 155:0.0 156:0.0 157:0.0 158:0.0 159:0.0 160:0.0 
1.0 1:0.0 2:0.0 3:0.0 4:0.0 5:0.0 6:0.0 7:0.0 8:0.0 9:0.0 10:0.0 11:0.0 12:0.0 13:0.0 14:0.0 15:0.0 16:0.0 17:0.0 18:0.0 19:0.0 20:0.0 21:0.0 22:0.0 23:0.0 24:0.0 25:0.0 26:0.0 27:0.0 28:0.0 29:0.0 30:0.0 31:0.0 32:0.0 33:0.0 34:0.0 35:0.0 36:0.0 37:0.0 38:0.0 39:0.0 40:0.0 41:0.0 42:0.0 43:0.0 44:0.0 45:0.0 46:0.0 47:0.0 48:0.0 49:0.0 50:0.0 51:0.0 52:0.0 53:0.0 54:0.0 55:0.0 56:0.0 57:0.0 58:0.0 59:0.0 60:0.0 61:0.0 62:0.0 63:0.0 64:0.0 65:0.0 66:0.0 67:0.0 68:0.0 69:0.0 70:0.0 71:0.0 72:0.0 73:0.0 74:0.0 75:0.0 76:0.0 77:0.0 78:0.0 79:0.0 80:0.0 81:0.0 82:0.0 83:0.0 84:0.0 85:0.0 86:0.0 87:0.0 88:0.0 89:0.0 90:0.0 91:0.0 92:0.0 93:0.0 94:0.0 95:0.0 96:0.0 97:0.0 98:0.0 99:0.0 100:0.0 101:0.0 102:0.0 103:0.0 104:0.0 105:0.0 106:0.0 107:0.0 108:0.0 109:0.0 110:0.0 111:0.0 112:0.0 113:0.0 114:0.0 115:0.0 116:0.0 117:0.0 118:0.0 119:0.0 120:0.0 121:0.0 122:0.0 123:0.0 124:0.0 125:0.0 126:0.0 127:0.0 128:0.0 129:0.0 130:0.0 131:0.0 132:0.0 133:0.0 134:0.0 135:0.0 136:0.0 137:0.0 138:0.0 139:0.0 140:0.0 141:0.0 142:0.0 143:0.0 144:0.0 145:0.0 146:0.0 147:0.0 148:0.0 149:1.0 150:0.0 151:0.0 152:0.0 153:0.0 154:0.0 155:0.0 156:0.0 157:0.0 158:0.0 159:0.0 160:0.0 
1.0 1:0.0 2:0.0 3:0.0 4:0.0 5:0.0 6:0.0 7:0.0 8:0.0 9:0.0 10:0.0 11:0.0 12:0.0 13:0.0 14:0.0 15:0.0 16:0.0 17:0.0 18:0.0 19:0.0 20:0.0 21:0.0 22:0.0 23:0.0 24:0.0 25:0.0 26:0.0 27:0.0 28:0.0 29:0.0 30:0.0 31:0.0 32:0.0 33:0.0 34:0.0 35:0.0 36:0.0 37:0.0 38:0.0 39:0.0 40:0.0 41:0.0 42:0.0 43:0.0 44:0.0 45:0.0 46:0.0 47:0.0 48:0.0 49:0.0 50:0.0 51:0.0 52:0.0 53:0.0 54:0.0 55:0.0 56:0.0 57:0.0 58:0.0 59:0.0 60:0.0 61:0.0 62:0.0 63:0.0 64:0.0 65:0.0 66:0.0 67:0.0 68:0.0 69:0.0 70:0.0 71:0.0 72:0.0 73:0.0 74:0.0 75:0.0 76:0.0 77:0.0 78:0.0 79:0.0 80:0.0 81:0.0 82:0.0 83:0.0 84:0.0 85:0.0 86:0.0 87:0.0 88:0.0 89:0.0 90:0.0 91:0.0 92:0.0 93:0.0 94:0.0 95:0.0 96:0.0 97:0.0 98:0.0 99:0.0 100:0.0 101:0.0 102:0.0 103:0.0 104:0.0 105:0.0 106:0.0 107:0.0 108:0.0 109:0.0 110:0.0 111:0.0 112:0.0 113:0.0 114:0.0 115:0.0 116:0.0 117:0.0 118:0.0 119:0.0 120:0.0 121:0.0 122:0.0 123:0.0 124:0.0 125:0.0 126:0.0 127:0.0 128:0.0 129:0.0 130:0.0 131:0.0 132:0.0 133:0.0 134:0.0 135:0.0 136:0.0 137:0.0 138:0.0 139:0.0 140:0.0 141:0.0 142:0.0 143:0.0 144:0.0 145:0.0 146:0.0 147:0.0 148:0.0 149:1.0 150:0.0 151:0.0 152:0.0 153:0.0 154:0.0 155:0.0 156:0.0 157:0.0 158:0.0 159:0.0 160:0.0 
1.0 1:0.0 2:0.0 3:0.0 4:0.0 5:0.0 6:0.0 7:0.0 8:0.0 9:0.0 10:0.0 11:0.0 12:0.0 13:0.0 14:0.0 15:0.0 16:0.0 17:0.0 18:0.0 19:0.0 20:0.0 21:0.0 22:0.0 23:0.0 24:0.0 25:0.0 26:0.0 27:0.0 28:0.0 29:0.0 30:0.0 31:0.0 32:0.0 33:0.0 34:0.0 35:0.0 36:0.0 37:0.0 38:0.0 39:0.0 40:0.0 41:0.0 42:0.0 43:0.0 44:0.0 45:0.0 46:0.0 47:0.0 48:0.0 49:0.0 50:0.0 51:0.0 52:0.0 53:0.0 54:0.0 55:0.0 56:0.0 57:0.0 58:0.0 59:0.0 60:0.0 61:0.0 62:0.0 63:0.0 64:0.0 65:0.0 66:0.0 67:0.0 68:0.0 69:0.0 70:0.0 71:0.0 72:0.0 73:0.0 74:0.0 75:0.0 76:0.0 77:0.0 78:0.0 79:0.0 80:0.0 81:0.0 82:0.0 83:0.0 84:0.0 85:0.0 86:0.0 87:0.0 88:0.0 89:0.0 90:0.0 91:0.0 92:0.0 93:0.0 94:0.0 95:0.0 96:0.0 97:0.0 98:0.0 99:0.0 100:0.0 101:0.0 102:0.0 103:0.0 104:0.0 105:0.0 106:0.0 107:0.0 108:0.0 109:0.0 110:0.0 111:0.0 112:0.0 113:0.0 114:0.0 115:0.0 116:0.0 117:0.0 118:0.0 119:0.0 120:0.0 121:0.0 122:0.0 123:0.0 124:0.0 125:0.0 126:0.0 127:0.0 128:0.0 129:0.0 130:0.0 131:0.0 132:0.0 133:0.0 134:0.0 135:0.0 136:0.0 137:0.0 138:0.0 139:0.0 140:0.0 141:0.0 142:0.0 143:0.0 144:0.0 145:0.0 146:0.0 147:0.0 148:0.0 149:1.0 150:0.0 151:0.0 152:0.0 153:0.0 154:0.0 155:0.0 156:0.0 157:0.0 158:0.0 159:0.0 160:0.0 
1.0 1:0.0 2:0.0 3:0.0 4:0.0 5:0.0 6:0.0 7:0.0 8:0.0 9:0.0 10:0.0 11:0.0 12:0.0 13:0.0 14:0.0 15:0.0 16:0.0 17:0.0 18:0.0 19:0.0 20:0.0 21:0.0 22:0.0 23:0.0 24:0.0 25:0.0 26:0.0 27:0.0 28:0.0 29:0.0 30:0.0 31:0.0 32:0.0 33:0.0 34:0.0 35:0.0 36:0.0 37:0.0 38:0.0 39:0.0 40:0.0 41:0.0 42:0.0 43:0.0 44:0.0 45:0.0 46:0.0 47:0.0 48:0.0 49:0.0 50:0.0 51:0.0 52:0.0 53:0.0 54:0.0 55:0.0 56:0.0 57:0.0 58:0.0 59:0.0 60:0.0 61:0.0 62:0.0 63:0.0 64:0.0 65:0.0 66:0.0 67:0.0 68:0.0 69:0.0 70:0.0 71:0.0 72:0.0 73:0.0 74:0.0 75:0.0 76:0.0 77:0.0 78:0.0 79:0.0 80:0.0 81:0.0 82:0.0 83:0.0 84:0.0 85:0.0 86:0.0 87:0.0 88:0.0 89:0.0 90:0.0 91:0.0 92:0.0 93:0.0 94:0.0 95:0.0 96:0.0 97:0.0 98:0.0 99:0.0 100:0.0 101:0.0 102:0.0 103:0.0 104:0.0 105:0.0 106:0.0 107:0.0 108:0.0 109:0.0 110:0.0 111:0.0 112:0.0 113:0.0 114:0.0 115:0.0 116:0.0 117:0.0 118:0.0 119:0.0 120:0.0 121:0.0 122:0.0 123:0.0 124:0.0 125:0.0 126:0.0 127:0.0 128:0.0 129:0.0 130:0.0 131:0.0 132:0.0 133:0.0 134:0.0 135:0.0 136:0.0 137:0.0 138:0.0 139:0.0 140:0.0 141:0.0 142:0.0 143:0.0 144:0.0 145:0.0 146:0.0 147:0.0 148:0.0 149:1.0 150:0.0 151:0.0 152:0.0 153:0.0 154:0.0 155:0.0 156:0.0 157:0.0 158:0.0 159:0.0 160:0.0 
1.0 1:0.0 2:0.0 3:0.0 4:0.0 5:0.0 6:0.0 7:0.0 8:0.0 9:0.0 10:0.0 11:0.0 12:0.0 13:0.0 14:0.0 15:0.0 16:0.0 17:0.0 18:0.0 19:0.0 20:0.0 21:0.0 22:0.0 23:0.0 24:0.0 25:0.0 26:0.0 27:0.0 28:0.0 29:0.0 30:0.0 31:0.0 32:0.0 33:0.0 34:0.0 35:0.0 36:0.0 37:0.0 38:0.0 39:0.0 40:0.0 41:0.0 42:0.0 43:0.0 44:0.0 45:0.0 46:0.0 47:0.0 48:0.0 49:0.0 50:0.0 51:0.0 52:0.0 53:0.0 54:0.0 55:0.0 56:0.0 57:0.0 58:0.0 59:0.0 60:0.0 61:0.0 62:0.0 63:0.0 64:0.0 65:0.0 66:0.0 67:0.0 68:0.0 69:0.0 70:0.0 71:0.0 72:0.0 73:0.0 74:0.0 75:0.0 76:0.0 77:0.0 78:0.0 79:0.0 80:0.0 81:0.0 82:0.0 83:0.0 84:0.0 85:0.0 86:0.0 87:0.0 88:0.0 89:0.0 90:0.0 91:0.0 92:0.0 93:0.0 94:0.0 95:0.0 96:0.0 97:0.0 98:0.0 99:0.0 100:0.0 101:0.0 102:0.0 103:0.0 104:0.0 105:0.0 106:0.0 107:0.0 108:0.0 109:0.0 110:0.0 111:0.0 112:0.0 113:0.0 114:0.0 115:0.0 116:0.0 117:0.0 118:0.0 119:0.0 120:0.0 121:0.0 122:0.0 123:0.0 124:0.0 125:0.0 126:0.0 127:0.0 128:0.0 129:0.0 130:0.0 131:0.0 132:0.0 133:0.0 134:0.0 135:0.0 136:0.0 137:0.0 138:0.0 139:0.0 140:0.0 141:0.0 142:0.0 143:0.0 144:0.0 145:0.0 146:0.0 147:0.0 148:0.0 149:1.0 150:0.0 151:0.0 152:0.0 153:0.0 154:0.0 155:0.0 156:0.0 157:0.0 158:0.0 159:0.0 160:0.0 
1.0 1:0.0 2:0.0 3:0.0 4:0.0 5:0.0 6:0.0 7:0.0 8:0.0 9:0.0 10:0.0 11:0.0 12:0.0 13:0.0 14:0.0 15:0.0 16:0.0 17:0.0 18:0.0 19:0.0 20:0.0 21:0.0 22:0.0 23:0.0 24:0.0 25:0.0 26:0.0 27:0.0 28:0.0 29:0.0 30:0.0 31:0.0 32:0.0 33:0.0 34:0.0 35:0.0 36:0.0 37:0.0 38:0.0 39:0.0 40:0.0 41:0.0 42:0.0 43:0.0 44:0.0 45:0.0 46:0.0 47:0.0 48:0.0 49:0.0 50:0.0 51:0.0 52:0.0 53:0.0 54:0.0 55:0.0 56:0.0 57:0.0 58:0.0 59:0.0 60:0.0 61:0.0 62:0.0 63:0.0 64:0.0 65:0.0 66:0.0 67:0.0 68:0.0 69:0.0 70:0.0 71:0.0 72:0.0 73:0.0 74:0.0 75:0.0 76:0.0 77:0.0 78:0.0 79:0.0 80:0.0 81:0.0 82:0.0 83:0.0 84:0.0 85:0.0 86:0.0 87:0.0 88:0.0 89:0.0 90:0.0 91:0.0 92:0.0 93:0.0 94:0.0 95:0.0 96:0.0 97:0.0 98:0.0 99:0.0 100:0.0 101:0.0 102:0.0 103:0.0 104:0.0 105:0.0 106:0.0 107:0.0 108:0.0 109:0.0 110:0.0 111:0.0 112:0.0 113:0.0 114:0.0 115:0.0 116:0.0 117:0.0 118:0.0 119:0.0 120:0.0 121:0.0 122:0.0 123:0.0 124:0.0 125:0.0 126:0.0 127:0.0 128:0.0 129:0.0 130:0.0 131:0.0 132:0.0 133:0.0 134:0.0 135:0.0 136:0.0 137:0.0 138:0.0 139:0.0 140:0.0 141:0.0 142:0.0 143:0.0 144:0.0 145:0.0 146:0.0 147:0.0 148:0.0 149:1.0 150:0.0 151:0.0 152:0.0 153:0.0 154:0.0 155:0.0 156:0.0 157:0.0 158:0.0 159:0.0 160:0.0 
1.0 1:0.0 2:0.0 3:0.0 4:0.0 5:0.0 6:0.0 7:0.0 8:0.0 9:0.0 10:0.0 11:0.0 12:0.0 13:0.0 14:0.0 15:0.0 16:0.0 17:0.0 18:0.0 19:0.0 20:0.0 21:0.0 22:0.0 23:0.0 24:0.0 25:0.0 26:0.0 27:0.0 28:0.0 29:0.0 30:0.0 31:0.0 32:0.0 33:0.0 34:0.0 35:0.0 36:0.0 37:0.0 38:0.0 39:0.0 40:0.0 41:0.0 42:0.0 43:0.0 44:0.0 45:0.0 46:0.0 47:0.0 48:0.0 49:0.0 50:0.0 51:0.0 52:0.0 53:0.0 54:0.0 55:0.0 56:0.0 57:0.0 58:0.0 59:0.0 60:0.0 61:0.0 62:0.0 63:0.0 64:0.0 65:0.0 66:0.0 67:0.0 68:0.0 69:0.0 70:0.0 71:0.0 72:0.0 73:0.0 74:0.0 75:0.0 76:0.0 77:0.0 78:0.0 79:0.0 80:0.0 81:0.0 82:0.0 83:0.0 84:0.0 85:0.0 86:0.0 87:0.0 88:0.0 89:0.0 90:0.0 91:0.0 92:0.0 93:0.0 94:0.0 95:0.0 96:0.0 97:0.0 98:0.0 99:0.0 100:0.0 101:0.0 102:0.0 103:0.0 104:0.0 105:0.0 106:0.0 107:0.0 108:0.0 109:0.0 110:0.0 111:0.0 112:0.0 113:0.0 114:0.0 115:0.0 116:0.0 117:0.0 118:0.0 119:0.0 120:0.0 121:0.0 122:0.0 123:0.0 124:0.0 125:0.0 126:0.0 127:0.0 128:0.0 129:0.0 130:0.0 131:0.0 132:0.0 133:0.0 134:0.0 135:0.0 136:0.0 137:0.0 138:0.0 139:0.0 140:0.0 141:0.0 142:0.0 143:0.0 144:0.0 145:0.0 146:0.0 147:0.0 148:0.0 149:1.0 150:0.0 151:0.0 152:0.0 153:0.0 154:0.0 155:0.0 156:0.0 157:0.0 158:0.0 159:0.0 160:0.0 
1.0 1:0.0 2:0.0 3:0.0 4:0.0 5:0.0 6:0.0 7:0.0 8:0.0 9:0.0 10:0.0 11:0.0 12:0.0 13:0.0 14:0.0 15:0.0 16:0.0 17:0.0 18:0.0 19:0.0 20:0.0 21:0.0 22:0.0 23:0.0 24:0.0 25:0.0 26:0.0 27:0.0 28:0.0 29:0.0 30:0.0 31:0.0 32:0.0 33:0.0 34:0.0 35:0.0 36:0.0 37:0.0 38:0.0 39:0.0 40:0.0 41:0.0 42:0.0 43:0.0 44:0.0 45:0.0 46:0.0 47:0.0 48:0.0 49:0.0 50:0.0 51:0.0 52:0.0 53:0.0 54:0.0 55:0.0 56:0.0 57:0.0 58:0.0 59:0.0 60:0.0 61:0.0 62:0.0 63:0.0 64:0.0 65:0.0 66:0.0 67:0.0 68:0.0 69:0.0 70:0.0 71:0.0 72:0.0 73:0.0 74:0.0 75:0.0 76:0.0 77:0.0 78:0.0 79:0.0 80:0.0 81:0.0 82:0.0 83:0.0 84:0.0 85:0.0 86:0.0 87:0.0 88:0.0 89:0.0 90:0.0 91:0.0 92:0.0 93:0.0 94:0.0 95:0.0 96:0.0 97:0.0 98:0.0 99:0.0 100:0.0 101:0.0 102:0.0 103:0.0 104:0.0 105:0.0 106:0.0 107:0.0 108:0.0 109:0.0 110:0.0 111:0.0 112:0.0 113:0.0 114:0.0 115:0.0 116:0.0 117:0.0 118:0.0 119:0.0 120:0.0 121:0.0 122:0.0 123:0.0 124:0.0 125:0.0 126:0.0 127:0.0 128:0.0 129:0.0 130:0.0 131:0.0 132:0.0 133:0.0 134:0.0 135:0.0 136:0.0 137:0.0 138:0.0 139:0.0 140:0.0 141:0.0 142:0.0 143:0.0 144:0.0 145:0.0 146:0.0 147:0.0 148:0.0 149:1.0 150:0.0 151:0.0 152:0.0 153:0.0 154:0.0 155:0.0 156:0.0 157:0.0 158:0.0 159:0.0 160:0.0 
1.0 1:0.0 2:0.0 3:0.0 4:0.0 5:0.0 6:0.0 7:0.0 8:0.0 9:0.0 10:0.0 11:0.0 12:0.0 13:0.0 14:0.0 15:0.0 16:0.0 17:0.0 18:0.0 19:0.0 20:0.0 21:0.0 22:0.0 23:0.0 24:0.0 25:0.0 26:0.0 27:0.0 28:0.0 29:0.0 30:0.0 31:0.0 32:0.0 33:0.0 34:0.0 35:0.0 36:0.0 37:0.0 38:0.0 39:0.0 40:0.0 41:0.0 42:0.0 43:0.0 44:0.0 45:0.0 46:0.0 47:0.0 48:0.0 49:0.0 50:0.0 51:0.0 52:0.0 53:0.0 54:0.0 55:0.0 56:0.0 57:0.0 58:0.0 59:0.0 60:0.0 61:0.0 62:0.0 63:0.0 64:0.0 65:0.0 66:0.0 67:0.0 68:0.0 69:0.0 70:0.0 71:0.0 72:0.0 73:0.0 74:0.0 75:0.0 76:0.0 77:0.0 78:0.0 79:0.0 80:0.0 81:0.0 82:0.0 83:0.0 84:0.0 85:0.0 86:0.0 87:0.0 88:0.0 89:0.0 90:0.0 91:0.0 92:0.0 93:0.0 94:0.0 95:0.0 96:0.0 97:0.0 98:0.0 99:0.0 100:0.0 101:0.0 102:0.0 103:0.0 104:0.0 105:0.0 106:0.0 107:0.0 108:0.0 109:0.0 110:0.0 111:0.0 112:0.0 113:0.0 114:0.0 115:0.0 116:0.0 117:0.0 118:0.0 119:0.0 120:0.0 121:0.0 122:0.0 123:0.0 124:0.0 125:0.0 126:0.0 127:0.0 128:0.0 129:0.0 130:0.0 131:0.0 132:0.0 133:0.0 134:0.0 135:0.0 136:0.0 137:0.0 138:0.0 139:0.0 140:0.0 141:0.0 142:0.0 143:0.0 144:0.0 145:0.0 146:0.0 147:0.0 148:0.0 149:1.0 150:0.0 151:0.0 152:0.0 153:0.0 154:0.0 155:0.0 156:0.0 157:0.0 158:0.0 159:0.0 160:0.0 
1.0 1:0.0 2:0.0 3:0.0 4:0.0 5:0.0 6:0.0 7:0.0 8:0.0 9:0.0 10:0.0 11:0.0 12:0.0 13:0.0 14:0.0 15:0.0 16:0.0 17:0.0 18:0.0 19:0.0 20:0.0 21:0.0 22:0.0 23:0.0 24:0.0 25:0.0 26:0.0 27:0.0 28:0.0 29:0.0 30:0.0 31:0.0 32:0.0 33:0.0 34:0.0 35:0.0 36:0.0 37:0.0 38:0.0 39:0.0 40:0.0 41:0.0 42:0.0 43:0.0 44:0.0 45:0.0 46:0.0 47:0.0 48:0.0 49:0.0 50:0.0 51:0.0 52:0.0 53:0.0 54:0.0 55:0.0 56:0.0 57:0.0 58:0.0 59:0.0 60:0.0 61:0.0 62:0.0 63:0.0 64:0.0 65:0.0 66:0.0 67:0.0 68:0.0 69:0.0 70:0.0 71:0.0 72:0.0 73:0.0 74:0.0 75:0.0 76:0.0 77:0.0 78:0.0 79:0.0 80:0.0 81:0.0 82:0.0 83:0.0 84:0.0 85:0.0 86:0.0 87:0.0 88:0.0 89:0.0 90:0.0 91:0.0 92:0.0 93:0.0 94:0.0 95:0.0 96:0.0 97:0.0 98:0.0 99:0.0 100:0.0 101:0.0 102:0.0 103:0.0 104:0.0 105:0.0 106:0.0 107:0.0 108:0.0 109:0.0 110:0.0 111:0.0 112:0.0 113:0.0 114:0.0 115:0.0 116:0.0 117:0.0 118:0.0 119:0.0 120:0.0 121:0.0 122:0.0 123:0.0 124:0.0 125:0.0 126:0.0 127:0.0 128:0.0 129:0.0 130:0.0 131:0.0 132:0.0 133:0.0 134:0.0 135:0.0 136:0.0 137:0.0 138:0.0 139:0.0 140:0.0 141:0.0 142:0.0 143:0.0 144:0.0 145:0.0 146:0.0 147:0.0 148:0.0 149:1.0 150:0.0 151:0.0 152:0.0 153:0.0 154:0.0 155:0.0 156:0.0 157:0.0 158:0.0 159:0.0 160:0.0 
1.0 1:0.0 2:0.0 3:0.0 4:0.0 5:0.0 6:0.0 7:0.0 8:0.0 9:0.0 10:0.0 11:0.0 12:0.0 13:0.0 14:0.0 15:0.0 16:0.0 17:0.0 18:0.0 19:0.0 20:0.0 21:0.0 22:0.0 23:0.0 24:0.0 25:0.0 26:0.0 27:0.0 28:0.0 29:0.0 30:0.0 31:0.0 32:0.0 33:0.0 34:0.0 35:0.0 36:0.0 37:0.0 38:0.0 39:0.0 40:0.0 41:0.0 42:0.0 43:0.0 44:0.0 45:0.0 46:0.0 47:0.0 48:0.0 49:0.0 50:0.0 51:0.0 52:0.0 53:0.0 54:0.0 55:0.0 56:0.0 57:0.0 58:0.0 59:0.0 60:0.0 61:0.0 62:0.0 63:0.0 64:0.0 65:0.0 66:0.0 67:0.0 68:0.0 69:0.0 70:0.0 71:0.0 72:0.0 73:0.0 74:0.0 75:0.0 76:0.0 77:0.0 78:0.0 79:0.0 80:0.0 81:0.0 82:0.0 83:0.0 84:0.0 85:0.0 86:0.0 87:0.0 88:0.0 89:0.0 90:0.0 91:0.0 92:0.0 93:0.0 94:0.0 95:0.0 96:0.0 97:0.0 98:0.0 99:0.0 100:0.0 101:0.0 102:0.0 103:0.0 104:0.0 105:0.0 106:0.0 107:0.0 108:0.0 109:0.0 110:0.0 111:0.0 112:0.0 113:0.0 114:0.0 115:0.0 116:0.0 117:0.0 118:0.0 119:0.0 120:0.0 121:0.0 122:0.0 123:0.0 124:0.0 125:0.0 126:0.0 127:0.0 128:0.0 129:0.0 130:0.0 131:0.0 132:0.0 133:0.0 134:0.0 135:0.0 136:0.0 137:0.0 138:0.0 139:0.0 140:0.0 141:0.0 142:0.0 143:0.0 144:0.0 145:0.0 146:0.0 147:0.0 148:0.0 149:1.0 150:0.0 151:0.0 152:0.0 153:0.0 154:0.0 155:0.0 156:0.0 157:0.0 158:0.0 159:0.0 160:0.0 
1.0 1:0.0 2:0.0 3:0.0 4:0.0 5:0.0 6:0.0 7:0.0 8:0.0 9:0.0 10:0.0 11:0.0 12:0.0 13:0.0 14:0.0 15:0.0 16:0.0 17:0.0 18:0.0 19:0.0 20:0.0 21:0.0 22:0.0 23:0.0 24:0.0 25:0.0 26:0.0 27:0.0 28:0.0 29:0.0 30:0.0 31:0.0 32:0.0 33:0.0 34:0.0 35:0.0 36:0.0 37:0.0 38:0.0 39:0.0 40:0.0 41:0.0 42:0.0 43:0.0 44:0.0 45:0.0 46:0.0 47:0.0 48:0.0 49:0.0 50:0.0 51:0.0 52:0.0 53:0.0 54:0.0 55:0.0 56:0.0 57:0.0 58:0.0 59:0.0 60:0.0 61:0.0 62:0.0 63:0.0 64:0.0 65:0.0 66:0.0 67:0.0 68:0.0 69:0.0 70:0.0 71:0.0 72:0.0 73:0.0 74:0.0 75:0.0 76:0.0 77:0.0 78:0.0 79:0.0 80:0.0 81:0.0 82:0.0 83:0.0 84:0.0 85:0.0 86:0.0 87:0.0 88:0.0 89:0.0 90:0.0 91:0.0 92:0.0 93:0.0 94:0.0 95:0.0 96:0.0 97:0.0 98:0.0 99:0.0 100:0.0 101:0.0 102:0.0 103:0.0 104:0.0 105:0.0 106:0.0 107:0.0 108:0.0 109:0.0 110:0.0 111:0.0 112:0.0 113:0.0 114:0.0 115:0.0 116:0.0 117:0.0 118:0.0 119:0.0 120:0.0 121:0.0 122:0.0 123:0.0 124:0.0 125:0.0 126:0.0 127:0.0 128:0.0 129:0.0 130:0.0 131:0.0 132:0.0 133:0.0 134:0.0 135:0.0 136:0.0 137:0.0 138:0.0 139:0.0 140:0.0 141:0.0 142:0.0 143:0.0 144:0.0 145:0.0 146:0.0 147:0.0 148:0.0 149:1.0 150:0.0 151:0.0 152:0.0 153:0.0 154:0.0 155:0.0 156:0.0 157:0.0 158:0.0 159:0.0 160:0.0 
1.0 1:0.0 2:0.0 3:0.0 4:0.0 5:0.0 6:0.0 7:0.0 8:0.0 9:0.0 10:0.0 11:0.0 12:0.0 13:0.0 14:0.0 15:0.0 16:0.0 17:0.0 18:0.0 19:0.0 20:0.0 21:0.0 22:0.0 23:0.0 24:0.0 25:0.0 26:0.0 27:0.0 28:0.0 29:0.0 30:0.0 31:0.0 32:0.0 33:0.0 34:0.0 35:0.0 36:0.0 37:0.0 38:0.0 39:0.0 40:0.0 41:0.0 42:0.0 43:0.0 44:0.0 45:0.0 46:0.0 47:0.0 48:0.0 49:0.0 50:0.0 51:0.0 52:0.0 53:0.0 54:0.0 55:0.0 56:0.0 57:0.0 58:0.0 59:0.0 60:0.0 61:0.0 62:0.0 63:0.0 64:0.0 65:0.0 66:0.0 67:0.0 68:0.0 69:0.0 70:0.0 71:0.0 72:0.0 73:0.0 74:0.0 75:0.0 76:0.0 77:0.0 78:0.0 79:0.0 80:0.0 81:0.0 82:0.0 83:0.0 84:0.0 85:0.0 86:0.0 87:0.0 88:0.0 89:0.0 90:0.0 91:0.0 92:0.0 93:0.0 94:0.0 95:0.0 96:0.0 97:0.0 98:0.0 99:0.0 100:0.0 101:0.0 102:0.0 103:0.0 104:0.0 105:0.0 106:0.0 107:0.0 108:0.0 109:0.0 110:0.0 111:0.0 112:0.0 113:0.0 114:0.0 115:0.0 116:0.0 117:0.0 118:0.0 119:0.0 120:0.0 121:0.0 122:0.0 123:0.0 124:0.0 125:0.0 126:0.0 127:0.0 128:0.0 129:0.0 130:0.0 131:0.0 132:0.0 133:0.0 134:0.0 135:0.0 136:0.0 137:0.0 138:0.0 139:0.0 140:0.0 141:0.0 142:0.0 143:0.0 144:0.0 145:0.0 146:0.0 147:0.0 148:0.0 149:1.0 150:0.0 151:0.0 152:0.0 153:0.0 154:0.0 155:0.0 156:0.0 157:0.0 158:0.0 159:0.0 160:0.0 
1.0 1:0.0 2:0.0 3:0.0 4:0.0 5:0.0 6:0.0 7:0.0 8:0.0 9:0.0 10:0.0 11:0.0 12:0.0 13:0.0 14:0.0 15:0.0 16:0.0 17:0.0 18:0.0 19:0.0 20:0.0 21:0.0 22:0.0 23:0.0 24:0.0 25:0.0 26:0.0 27:0.0 28:0.0 29:0.0 30:0.0 31:0.0 32:0.0 33:0.0 34:0.0 35:0.0 36:0.0 37:0.0 38:0.0 39:0.0 40:0.0 41:0.0 42:0.0 43:0.0 44:0.0 45:0.0 46:0.0 47:0.0 48:0.0 49:0.0 50:0.0 51:0.0 52:0.0 53:0.0 54:0.0 55:0.0 56:0.0 57:0.0 58:0.0 59:0.0 60:0.0 61:0.0 62:0.0 63:0.0 64:0.0 65:0.0 66:0.0 67:0.0 68:0.0 69:0.0 70:0.0 71:0.0 72:0.0 73:0.0 74:0.0 75:0.0 76:0.0 77:0.0 78:0.0 79:0.0 80:0.0 81:0.0 82:0.0 83:0.0 84:0.0 85:0.0 86:0.0 87:0.0 88:0.0 89:0.0 90:0.0 91:0.0 92:0.0 93:0.0 94:0.0 95:0.0 96:0.0 97:0.0 98:0.0 99:0.0 100:0.0 101:0.0 102:0.0 103:0.0 104:0.0 105:0.0 106:0.0 107:0.0 108:0.0 109:0.0 110:0.0 111:0.0 112:0.0 113:0.0 114:0.0 115:0.0 116:0.0 117:0.0 118:0.0 119:0.0 120:0.0 121:0.0 122:0.0 123:0.0 124:0.0 125:0.0 126:0.0 127:0.0 128:0.0 129:0.0 130:0.0 131:0.0 132:0.0 133:0.0 134:0.0 135:0.0 136:0.0 137:0.0 138:0.0 139:0.0 140:0.0 141:0.0 142:0.0 143:0.0 144:0.0 145:0.0 146:0.0 147:0.0 148:0.0 149:1.0 150:0.0 151:0.0 152:0.0 153:0.0 154:0.0 155:0.0 156:0.0 157:0.0 158:0.0 159:0.0 160:0.0 
1.0 1:0.0 2:0.0 3:0.0 4:0.0 5:0.0 6:0.0 7:0.0 8:0.0 9:0.0 10:0.0 11:0.0 12:0.0 13:0.0 14:0.0 15:0.0 16:0.0 17:0.0 18:0.0 19:0.0 20:0.0 21:0.0 22:0.0 23:0.0 24:0.0 25:0.0 26:0.0 27:0.0 28:0.0 29:0.0 30:0.0 31:0.0 32:0.0 33:0.0 34:0.0 35:0.0 36:0.0 37:0.0 38:0.0 39:0.0 40:0.0 41:0.0 42:0.0 43:0.0 44:0.0 45:0.0 46:0.0 47:0.0 48:0.0 49:0.0 50:0.0 51:0.0 52:0.0 53:0.0 54:0.0 55:0.0 56:0.0 57:0.0 58:0.0 59:0.0 60:0.0 61:0.0 62:0.0 63:0.0 64:0.0 65:0.0 66:0.0 67:0.0 68:0.0 69:0.0 70:0.0 71:0.0 72:0.0 73:0.0 74:0.0 75:0.0 76:0.0 77:0.0 78:0.0 79:0.0 80:0.0 81:0.0 82:0.0 83:0.0 84:0.0 85:0.0 86:0.0 87:0.0 88:0.0 89:0.0 90:0.0 91:0.0 92:0.0 93:0.0 94:0.0 95:0.0 96:0.0 97:0.0 98:0.0 99:0.0 100:0.0 101:0.0 102:0.0 103:0.0 104:0.0 105:0.0 106:0.0 107:0.0 108:0.0 109:0.0 110:0.0 111:0.0 112:0.0 113:0.0 114:0.0 115:0.0 116:0.0 117:0.0 118:0.0 119:0.0 120:0.0 121:0.0 122:0.0 123:0.0 124:0.0 125:0.0 126:0.0 127:0.0 128:0.0 129:0.0 130:0.0 131:0.0 132:0.0 133:0.0 134:0.0 135:0.0 136:0.0 137:0.0 138:0.0 139:0.0 140:0.0 141:0.0 142:0.0 143:0.0 144:0.0 145:0.0 146:0.0 147:0.0 148:0.0 149:1.0 150:0.0 151:0.0 152:0.0 153:0.0 154:0.0 155:0.0 156:0.0 157:0.0 158:0.0 159:0.0 160:0.0 
1.0 1:0.0 2:0.0 3:0.0 4:0.0 5:0.0 6:0.0 7:0.0 8:0.0 9:0.0 10:0.0 11:0.0 12:0.0 13:0.0 14:0.0 15:0.0 16:0.0 17:0.0 18:0.0 19:0.0 20:0.0 21:0.0 22:0.0 23:0.0 24:0.0 25:0.0 26:0.0 27:0.0 28:0.0 29:0.0 30:0.0 31:0.0 32:0.0 33:0.0 34:0.0 35:0.0 36:0.0 37:0.0 38:0.0 39:0.0 40:0.0 41:0.0 42:0.0 43:0.0 44:0.0 45:0.0 46:0.0 47:0.0 48:0.0 49:0.0 50:0.0 51:0.0 52:0.0 53:0.0 54:0.0 55:0.0 56:0.0 57:0.0 58:0.0 59:0.0 60:0.0 61:0.0 62:0.0 63:0.0 64:0.0 65:0.0 66:0.0 67:0.0 68:0.0 69:0.0 70:0.0 71:0.0 72:0.0 73:0.0 74:0.0 75:0.0 76:0.0 77:0.0 78:0.0 79:0.0 80:0.0 81:0.0 82:0.0 83:0.0 84:0.0 85:0.0 86:0.0 87:0.0 88:0.0 89:0.0 90:0.0 91:0.0 92:0.0 93:0.0 94:0.0 95:0.0 96:0.0 97:0.0 98:0.0 99:0.0 100:0.0 101:0.0 102:0.0 103:0.0 104:0.0 105:0.0 106:0.0 107:0.0 108:0.0 109:0.0 110:0.0 111:0.0 112:0.0 113:0.0 114:0.0 115:0.0 116:0.0 117:0.0 118:0.0 119:0.0 120:0.0 121:0.0 122:0.0 123:0.0 124:0.0 125:0.0 126:0.0 127:0.0 128:0.0 129:0.0 130:0.0 131:0.0 132:0.0 133:0.0 134:0.0 135:0.0 136:0.0 137:0.0 138:0.0 139:0.0 140:0.0 141:0.0 142:0.0 143:0.0 144:0.0 145:0.0 146:0.0 147:0.0 148:0.0 149:1.0 150:0.0 151:0.0 152:0.0 153:0.0 154:0.0 155:0.0 156:0.0 157:0.0 158:0.0 159:0.0 160:0.0 
1.0 1:0.0 2:0.0 3:0.0 4:0.0 5:0.05970149253731343 6:0.0037313432835820895 7:0.0 8:0.0 9:0.0 10:0.0 11:0.0 12:0.011194029850746268 13:0.0 14:0.0 15:0.007462686567164179 16:0.0 17:0.0 18:0.0 19:0.0 20:0.0037313432835820895 21:0.0 22:0.0 23:0.0 24:0.0 25:0.0 26:0.0 27:0.0 28:0.0 29:0.0 30:0.0 31:0.007462686567164179 32:0.0 33:0.0 34:0.0037313432835820895 35:0.0 36:0.0 37:0.0 38:0.0 39:0.0 40:0.011194029850746268 41:0.0 42:0.0 43:0.0 44:0.0 45:0.014925373134328358 46:0.0 47:0.0 48:0.0037313432835820895 49:0.0 50:0.0 51:0.0 52:0.0037313432835820895 53:0.0 54:0.0 55:0.0 56:0.0 57:0.0037313432835820895 58:0.0 59:0.0 60:0.0 61:0.0 62:0.0 63:0.0 64:0.0037313432835820895 65:0.0 66:0.0 67:0.0 68:0.0037313432835820895 69:0.0037313432835820895 70:0.0037313432835820895 71:0.0 72:0.0 73:0.0 74:0.0 75:0.0 76:0.0 77:0.0037313432835820895 78:0.0 79:0.0037313432835820895 80:0.0037313432835820895 81:0.0 82:0.0 83:0.0 84:0.0 85:0.0 86:0.0037313432835820895 87:0.0 88:0.014925373134328358 89:0.0 90:0.0 91:0.0 92:0.0 93:0.0 94:0.0 95:0.0 96:0.0 97:0.0 98:0.0 99:0.0 100:0.0 101:0.011194029850746268 102:0.0 103:0.0 104:0.0 105:0.0 106:0.0 107:0.0 108:0.0 109:0.0 110:0.0037313432835820895 111:0.0 112:0.0 113:0.0037313432835820895 114:0.0037313432835820895 115:0.0 116:0.0 117:0.0037313432835820895 118:0.0 119:0.0037313432835820895 120:0.0 121:0.0 122:0.0 123:0.0 124:0.0 125:0.0 126:0.0 127:0.0 128:0.0 129:0.0 130:0.0 131:0.0 132:0.007462686567164179 133:0.0 134:0.0 135:0.029850746268656716 136:0.0 137:0.0037313432835820895 138:0.0 139:0.0 140:0.0 141:0.0 142:0.0 143:0.0 144:0.0 145:0.0 146:0.0037313432835820895 147:0.0 148:0.0 149:0.7425373134328358 150:0.0 151:0.0 152:0.0 153:0.0 154:0.0 155:0.0 156:0.0 157:0.0037313432835820895 158:0.0 159:0.0 160:0.0 
1.0 1:0.008368200836820083 2:0.0 3:0.0 4:0.0 5:0.029288702928870293 6:0.0 7:0.008368200836820083 8:0.0 9:0.0 10:0.0 11:0.0 12:0.0 13:0.0041841004184100415 14:0.0 15:0.012552301255230125 16:0.0 17:0.0 18:0.0 19:0.0 20:0.0 21:0.0 22:0.0 23:0.0 24:0.0 25:0.0 26:0.0 27:0.0 28:0.0 29:0.0 30:0.0 31:0.0 32:0.0 33:0.0 34:0.0 35:0.0 36:0.0041841004184100415 37:0.0 38:0.0 39:0.0 40:0.0041841004184100415 41:0.0 42:0.0 43:0.0 44:0.0041841004184100415 45:0.0041841004184100415 46:0.0 47:0.0 48:0.0 49:0.0 50:0.0 51:0.0 52:0.0 53:0.0 54:0.0 55:0.0 56:0.0 57:0.0041841004184100415 58:0.0 59:0.0 60:0.0 61:0.0 62:0.012552301255230125 63:0.0 64:0.0 65:0.0 66:0.0041841004184100415 67:0.0 68:0.0 69:0.0 70:0.0 71:0.0 72:0.0 73:0.0 74:0.0 75:0.008368200836820083 76:0.0 77:0.0 78:0.0 79:0.0041841004184100415 80:0.0041841004184100415 81:0.0 82:0.0 83:0.0 84:0.0 85:0.0 86:0.0 87:0.012552301255230125 88:0.0 89:0.0041841004184100415 90:0.012552301255230125 91:0.0 92:0.0 93:0.0041841004184100415 94:0.02092050209205021 95:0.0 96:0.0041841004184100415 97:0.0 98:0.0 99:0.0 100:0.0 101:0.0 102:0.0 103:0.0041841004184100415 104:0.0 105:0.0 106:0.0 107:0.0 108:0.0 109:0.0041841004184100415 110:0.0 111:0.0 112:0.0 113:0.0041841004184100415 114:0.0 115:0.0 116:0.0 117:0.0 118:0.0041841004184100415 119:0.0 120:0.0 121:0.0 122:0.0 123:0.008368200836820083 124:0.0 125:0.0 126:0.0 127:0.0 128:0.0 129:0.0 130:0.0041841004184100415 131:0.0 132:0.0 133:0.0 134:0.0 135:0.0 136:0.0 137:0.008368200836820083 138:0.0 139:0.0041841004184100415 140:0.0 141:0.0 142:0.0 143:0.0 144:0.0 145:0.0 146:0.0 147:0.0 148:0.0 149:0.7782426778242678 150:0.0 151:0.0 152:0.0041841004184100415 153:0.0 154:0.0 155:0.0 156:0.0 157:0.0 158:0.0 159:0.0 160:0.0 
1.0 1:0.0 2:0.0 3:0.0 4:0.0 5:0.1359026369168357 6:0.0 7:0.0 8:0.0 9:0.0 10:0.0 11:0.0 12:0.0 13:0.0 14:0.0 15:0.004056795131845842 16:0.0 17:0.0 18:0.0 19:0.0 20:0.0 21:0.0 22:0.0 23:0.0 24:0.0 25:0.0 26:0.002028397565922921 27:0.0 28:0.0 29:0.0 30:0.0 31:0.0 32:0.0 33:0.0 34:0.0 35:0.0 36:0.0 37:0.0 38:0.002028397565922921 39:0.0 40:0.0 41:0.0 42:0.0 43:0.0 44:0.0 45:0.002028397565922921 46:0.0 47:0.0 48:0.0 49:0.0 50:0.0 51:0.0 52:0.0 53:0.0 54:0.0 55:0.0 56:0.0 57:0.0 58:0.0 59:0.0 60:0.0 61:0.0 62:0.0 63:0.0 64:0.0 65:0.0 66:0.004056795131845842 67:0.0 68:0.0 69:0.006085192697768763 70:0.0 71:0.0 72:0.0 73:0.0 74:0.0 75:0.0 76:0.0 77:0.0 78:0.0 79:0.0 80:0.0 81:0.0 82:0.0 83:0.0 84:0.004056795131845842 85:0.0 86:0.004056795131845842 87:0.002028397565922921 88:0.0 89:0.0 90:0.0 91:0.0 92:0.0 93:0.0 94:0.002028397565922921 95:0.0 96:0.004056795131845842 97:0.0 98:0.0 99:0.0 100:0.0 101:0.004056795131845842 102:0.0 103:0.008113590263691683 104:0.0 105:0.004056795131845842 106:0.0 107:0.0 108:0.0 109:0.0 110:0.0 111:0.0 112:0.0 113:0.0 114:0.004056795131845842 115:0.0 116:0.0 117:0.0 118:0.0 119:0.0 120:0.0 121:0.002028397565922921 122:0.0 123:0.0 124:0.0 125:0.0 126:0.0 127:0.0 128:0.0 129:0.0 130:0.0 131:0.0 132:0.0 133:0.0 134:0.0 135:0.0 136:0.0 137:0.010141987829614604 138:0.004056795131845842 139:0.0 140:0.0 141:0.0 142:0.0 143:0.0 144:0.0 145:0.0 146:0.0 147:0.002028397565922921 148:0.004056795131845842 149:0.7809330628803245 150:0.0 151:0.0 152:0.0 153:0.0 154:0.0 155:0.0 156:0.0 157:0.0 158:0.0 159:0.004056795131845842 160:0.0 
1.0 1:0.010869565217391304 2:0.0 3:0.0 4:0.0 5:0.09510869565217392 6:0.002717391304347826 7:0.005434782608695652 8:0.0 9:0.0 10:0.0 11:0.0 12:0.002717391304347826 13:0.0 14:0.0 15:0.01358695652173913 16:0.0 17:0.0 18:0.0 19:0.0 20:0.0 21:0.0 22:0.0 23:0.0 24:0.0 25:0.0 26:0.0 27:0.0 28:0.0 29:0.0 30:0.0 31:0.005434782608695652 32:0.0 33:0.0 34:0.0 35:0.005434782608695652 36:0.0 37:0.0 38:0.0 39:0.002717391304347826 40:0.002717391304347826 41:0.002717391304347826 42:0.0 43:0.0 44:0.0 45:0.021739130434782608 46:0.0 47:0.002717391304347826 48:0.0 49:0.0 50:0.0 51:0.0 52:0.005434782608695652 53:0.0 54:0.0 55:0.0 56:0.0 57:0.002717391304347826 58:0.0 59:0.0 60:0.0 61:0.002717391304347826 62:0.008152173913043478 63:0.002717391304347826 64:0.0 65:0.0 66:0.0 67:0.0 68:0.005434782608695652 69:0.005434782608695652 70:0.002717391304347826 71:0.0 72:0.0 73:0.0 74:0.0 75:0.0 76:0.002717391304347826 77:0.0 78:0.0 79:0.0 80:0.005434782608695652 81:0.0 82:0.0 83:0.0 84:0.0 85:0.0 86:0.0 87:0.010869565217391304 88:0.0 89:0.0 90:0.005434782608695652 91:0.002717391304347826 92:0.0 93:0.008152173913043478 94:0.029891304347826088 95:0.0 96:0.0 97:0.0 98:0.0 99:0.0 100:0.008152173913043478 101:0.01358695652173913 102:0.0 103:0.0 104:0.0 105:0.002717391304347826 106:0.0 107:0.0 108:0.0 109:0.0 110:0.002717391304347826 111:0.0 112:0.0 113:0.005434782608695652 114:0.002717391304347826 115:0.002717391304347826 116:0.0 117:0.0 118:0.0 119:0.0 120:0.005434782608695652 121:0.021739130434782608 122:0.0 123:0.008152173913043478 124:0.0 125:0.0 126:0.0 127:0.0 128:0.0 129:0.002717391304347826 130:0.0 131:0.0 132:0.008152173913043478 133:0.0 134:0.0 135:0.002717391304347826 136:0.0 137:0.005434782608695652 138:0.0 139:0.0 140:0.002717391304347826 141:0.002717391304347826 142:0.0 143:0.0 144:0.0 145:0.0 146:0.002717391304347826 147:0.008152173913043478 148:0.0 149:0.6086956521739131 150:0.0 151:0.0 152:0.002717391304347826 153:0.0 154:0.0 155:0.0 156:0.0 157:0.005434782608695652 158:0.0 159:0.0 160:0.0 
1.0 1:0.02 2:0.0 3:0.0 4:0.0 5:0.10444444444444445 6:0.0 7:0.0 8:0.0044444444444444444 9:0.0 10:0.0022222222222222222 11:0.0 12:0.0 13:0.0022222222222222222 14:0.0 15:0.013333333333333334 16:0.0 17:0.0 18:0.0 19:0.0022222222222222222 20:0.0044444444444444444 21:0.0 22:0.0 23:0.0 24:0.0 25:0.0 26:0.0 27:0.0 28:0.0022222222222222222 29:0.0 30:0.0 31:0.011111111111111112 32:0.0 33:0.0 34:0.011111111111111112 35:0.0044444444444444444 36:0.0 37:0.0 38:0.0044444444444444444 39:0.011111111111111112 40:0.0022222222222222222 41:0.0 42:0.0 43:0.0 44:0.0044444444444444444 45:0.024444444444444446 46:0.0 47:0.0044444444444444444 48:0.0044444444444444444 49:0.0 50:0.0 51:0.0 52:0.0 53:0.006666666666666667 54:0.0 55:0.0 56:0.0 57:0.0022222222222222222 58:0.0 59:0.0 60:0.0 61:0.0 62:0.006666666666666667 63:0.0022222222222222222 64:0.0 65:0.0 66:0.0022222222222222222 67:0.0 68:0.006666666666666667 69:0.013333333333333334 70:0.0022222222222222222 71:0.0022222222222222222 72:0.0 73:0.017777777777777778 74:0.0 75:0.0 76:0.0 77:0.0022222222222222222 78:0.0 79:0.017777777777777778 80:0.0022222222222222222 81:0.0 82:0.0 83:0.0 84:0.0 85:0.0 86:0.0022222222222222222 87:0.0022222222222222222 88:0.0022222222222222222 89:0.0022222222222222222 90:0.0022222222222222222 91:0.02 92:0.0 93:0.0 94:0.03777777777777778 95:0.0 96:0.0 97:0.0 98:0.0 99:0.0 100:0.0022222222222222222 101:0.008888888888888889 102:0.0 103:0.0 104:0.0 105:0.0 106:0.0 107:0.0 108:0.0 109:0.0022222222222222222 110:0.006666666666666667 111:0.0044444444444444444 112:0.0 113:0.0022222222222222222 114:0.0 115:0.0 116:0.0044444444444444444 117:0.006666666666666667 118:0.0022222222222222222 119:0.0044444444444444444 120:0.0022222222222222222 121:0.011111111111111112 122:0.0022222222222222222 123:0.0022222222222222222 124:0.0 125:0.0 126:0.0 127:0.0 128:0.0022222222222222222 129:0.0022222222222222222 130:0.0022222222222222222 131:0.0044444444444444444 132:0.04666666666666667 133:0.0 134:0.0 135:0.008888888888888889 136:0.0022222222222222222 137:0.006666666666666667 138:0.0 139:0.011111111111111112 140:0.0 141:0.0 142:0.0 143:0.0 144:0.0044444444444444444 145:0.0 146:0.0 147:0.015555555555555555 148:0.0 149:0.4222222222222222 150:0.0 151:0.0 152:0.0022222222222222222 153:0.0 154:0.0 155:0.0 156:0.0 157:0.0022222222222222222 158:0.0 159:0.0022222222222222222 160:0.011111111111111112 
1.0 1:0.004662004662004662 2:0.0 3:0.0 4:0.0 5:0.1258741258741259 6:0.0 7:0.0 8:0.002331002331002331 9:0.0 10:0.0 11:0.0 12:0.002331002331002331 13:0.0 14:0.0 15:0.004662004662004662 16:0.0 17:0.0 18:0.0 19:0.0 20:0.0 21:0.0 22:0.0 23:0.0 24:0.0 25:0.0 26:0.0 27:0.0 28:0.0 29:0.0 30:0.0 31:0.009324009324009324 32:0.0 33:0.0 34:0.0 35:0.0 36:0.0 37:0.0 38:0.0 39:0.0 40:0.002331002331002331 41:0.0 42:0.0 43:0.0 44:0.0 45:0.009324009324009324 46:0.0 47:0.0 48:0.002331002331002331 49:0.0 50:0.0 51:0.0 52:0.0 53:0.0 54:0.0 55:0.0 56:0.0 57:0.0 58:0.0 59:0.0 60:0.0 61:0.0 62:0.004662004662004662 63:0.011655011655011656 64:0.0 65:0.0 66:0.0 67:0.0 68:0.004662004662004662 69:0.009324009324009324 70:0.0 71:0.0 72:0.0 73:0.0 74:0.0 75:0.0 76:0.0 77:0.0 78:0.0 79:0.0 80:0.0 81:0.0 82:0.0 83:0.0 84:0.0 85:0.0 86:0.0 87:0.004662004662004662 88:0.0 89:0.0 90:0.0 91:0.002331002331002331 92:0.0 93:0.016317016317016316 94:0.023310023310023312 95:0.0 96:0.0 97:0.0 98:0.0 99:0.0 100:0.0 101:0.002331002331002331 102:0.0 103:0.0 104:0.0 105:0.0 106:0.0 107:0.0 108:0.0 109:0.0 110:0.002331002331002331 111:0.0 112:0.0 113:0.0 114:0.0 115:0.0 116:0.0 117:0.0 118:0.0 119:0.0 120:0.0 121:0.004662004662004662 122:0.0 123:0.004662004662004662 124:0.0 125:0.0 126:0.0 127:0.0 128:0.0 129:0.002331002331002331 130:0.0 131:0.0 132:0.013986013986013986 133:0.0 134:0.0 135:0.018648018648018648 136:0.0 137:0.006993006993006993 138:0.002331002331002331 139:0.0 140:0.0 141:0.0 142:0.0 143:0.0 144:0.0 145:0.0 146:0.002331002331002331 147:0.0 148:0.0 149:0.6923076923076923 150:0.0 151:0.0 152:0.0 153:0.0 154:0.0 155:0.002331002331002331 156:0.0 157:0.0 158:0.0 159:0.0 160:0.004662004662004662 
1.0 1:0.00904977375565611 2:0.0 3:0.0 4:0.0 5:0.07692307692307693 6:0.0 7:0.0 8:0.011312217194570135 9:0.0 10:0.004524886877828055 11:0.0022624434389140274 12:0.0 13:0.0022624434389140274 14:0.0 15:0.006787330316742082 16:0.0 17:0.0 18:0.0 19:0.0022624434389140274 20:0.004524886877828055 21:0.0 22:0.0 23:0.0022624434389140274 24:0.0 25:0.0 26:0.0 27:0.0 28:0.0 29:0.0 30:0.0 31:0.013574660633484163 32:0.0 33:0.0 34:0.013574660633484163 35:0.0 36:0.0 37:0.0 38:0.0 39:0.00904977375565611 40:0.0022624434389140274 41:0.0 42:0.0 43:0.0 44:0.0022624434389140274 45:0.020361990950226245 46:0.0 47:0.0022624434389140274 48:0.0022624434389140274 49:0.0 50:0.0 51:0.0 52:0.0 53:0.006787330316742082 54:0.0 55:0.0 56:0.0 57:0.004524886877828055 58:0.0 59:0.0 60:0.0 61:0.0 62:0.0022624434389140274 63:0.004524886877828055 64:0.0 65:0.0 66:0.0022624434389140274 67:0.0 68:0.00904977375565611 69:0.006787330316742082 70:0.0 71:0.0 72:0.0 73:0.013574660633484163 74:0.0 75:0.0 76:0.0 77:0.0 78:0.0 79:0.011312217194570135 80:0.006787330316742082 81:0.0 82:0.0 83:0.0 84:0.0022624434389140274 85:0.0 86:0.006787330316742082 87:0.0022624434389140274 88:0.004524886877828055 89:0.0022624434389140274 90:0.0 91:0.033936651583710405 92:0.0 93:0.0 94:0.033936651583710405 95:0.0 96:0.0022624434389140274 97:0.0 98:0.0 99:0.0 100:0.0022624434389140274 101:0.01809954751131222 102:0.0 103:0.0 104:0.0 105:0.0 106:0.0 107:0.0 108:0.0 109:0.0022624434389140274 110:0.00904977375565611 111:0.0 112:0.0 113:0.004524886877828055 114:0.0 115:0.0 116:0.004524886877828055 117:0.011312217194570135 118:0.0 119:0.006787330316742082 120:0.0022624434389140274 121:0.013574660633484163 122:0.0022624434389140274 123:0.0 124:0.0 125:0.0 126:0.0 127:0.0 128:0.0022624434389140274 129:0.0 130:0.0022624434389140274 131:0.004524886877828055 132:0.04072398190045249 133:0.0 134:0.0 135:0.00904977375565611 136:0.006787330316742082 137:0.006787330316742082 138:0.0 139:0.020361990950226245 140:0.0 141:0.0 142:0.0 143:0.0 144:0.00904977375565611 145:0.0 146:0.0 147:0.004524886877828055 148:0.0 149:0.4502262443438914 150:0.0 151:0.0 152:0.0022624434389140274 153:0.0 154:0.0 155:0.0 156:0.0 157:0.006787330316742082 158:0.0 159:0.006787330316742082 160:0.006787330316742082 
1.0 1:0.017777777777777778 2:0.0 3:0.0 4:0.0 5:0.10888888888888888 6:0.0 7:0.0 8:0.006666666666666667 9:0.0 10:0.0022222222222222222 11:0.0 12:0.0 13:0.0022222222222222222 14:0.0 15:0.013333333333333334 16:0.0 17:0.0 18:0.0 19:0.0022222222222222222 20:0.0044444444444444444 21:0.0 22:0.0 23:0.0 24:0.0 25:0.0 26:0.0 27:0.0 28:0.0022222222222222222 29:0.0 30:0.0 31:0.011111111111111112 32:0.0 33:0.0 34:0.011111111111111112 35:0.0044444444444444444 36:0.0 37:0.0 38:0.0044444444444444444 39:0.011111111111111112 40:0.0022222222222222222 41:0.0 42:0.0 43:0.0 44:0.0022222222222222222 45:0.02666666666666667 46:0.0 47:0.0022222222222222222 48:0.0044444444444444444 49:0.0 50:0.0 51:0.0 52:0.0 53:0.006666666666666667 54:0.0 55:0.0 56:0.0 57:0.0022222222222222222 58:0.0 59:0.0 60:0.0 61:0.0 62:0.0044444444444444444 63:0.0022222222222222222 64:0.0 65:0.0 66:0.0022222222222222222 67:0.0 68:0.006666666666666667 69:0.013333333333333334 70:0.0022222222222222222 71:0.0022222222222222222 72:0.0 73:0.017777777777777778 74:0.0 75:0.0 76:0.0 77:0.0044444444444444444 78:0.0 79:0.022222222222222223 80:0.0022222222222222222 81:0.0 82:0.0 83:0.0 84:0.0 85:0.0 86:0.0022222222222222222 87:0.0022222222222222222 88:0.0022222222222222222 89:0.0022222222222222222 90:0.0022222222222222222 91:0.017777777777777778 92:0.0 93:0.0 94:0.042222222222222223 95:0.0 96:0.0 97:0.0 98:0.0 99:0.0 100:0.0022222222222222222 101:0.008888888888888889 102:0.0 103:0.0 104:0.0 105:0.0 106:0.0 107:0.0 108:0.0 109:0.0022222222222222222 110:0.0044444444444444444 111:0.0044444444444444444 112:0.0 113:0.006666666666666667 114:0.0 115:0.0 116:0.0044444444444444444 117:0.006666666666666667 118:0.0022222222222222222 119:0.0044444444444444444 120:0.0022222222222222222 121:0.011111111111111112 122:0.0022222222222222222 123:0.0 124:0.0 125:0.0 126:0.0 127:0.0 128:0.0022222222222222222 129:0.0 130:0.0044444444444444444 131:0.006666666666666667 132:0.042222222222222223 133:0.0 134:0.0 135:0.008888888888888889 136:0.0022222222222222222 137:0.0022222222222222222 138:0.0 139:0.008888888888888889 140:0.0 141:0.0 142:0.0 143:0.0 144:0.0044444444444444444 145:0.0 146:0.0 147:0.013333333333333334 148:0.0 149:0.42444444444444446 150:0.0 151:0.0 152:0.0022222222222222222 153:0.0 154:0.0 155:0.0 156:0.0 157:0.0022222222222222222 158:0.0 159:0.0022222222222222222 160:0.011111111111111112 
1.0 1:0.0 2:0.0 3:0.0 4:0.0 5:0.05511811023622047 6:0.0 7:0.011811023622047244 8:0.0 9:0.0 10:0.0 11:0.003937007874015748 12:0.0 13:0.0 14:0.0 15:0.003937007874015748 16:0.0 17:0.0 18:0.0 19:0.0 20:0.0 21:0.0 22:0.0 23:0.0 24:0.0 25:0.0 26:0.0 27:0.0 28:0.0 29:0.0 30:0.0 31:0.003937007874015748 32:0.0 33:0.0 34:0.0 35:0.0 36:0.0 37:0.0 38:0.0 39:0.0 40:0.0 41:0.003937007874015748 42:0.0 43:0.0 44:0.0 45:0.01968503937007874 46:0.0 47:0.0 48:0.003937007874015748 49:0.0 50:0.0 51:0.0 52:0.007874015748031496 53:0.0 54:0.0 55:0.0 56:0.0 57:0.0 58:0.003937007874015748 59:0.0 60:0.0 61:0.0 62:0.0 63:0.007874015748031496 64:0.0 65:0.0 66:0.003937007874015748 67:0.0 68:0.007874015748031496 69:0.003937007874015748 70:0.0 71:0.0 72:0.0 73:0.0 74:0.0 75:0.0 76:0.0 77:0.0 78:0.0 79:0.003937007874015748 80:0.003937007874015748 81:0.0 82:0.0 83:0.0 84:0.0 85:0.0 86:0.0 87:0.0 88:0.003937007874015748 89:0.0 90:0.0 91:0.0 92:0.0 93:0.0 94:0.003937007874015748 95:0.0 96:0.0 97:0.0 98:0.0 99:0.0 100:0.0 101:0.0 102:0.0 103:0.003937007874015748 104:0.0 105:0.0 106:0.0 107:0.0 108:0.0 109:0.0 110:0.007874015748031496 111:0.0 112:0.0 113:0.003937007874015748 114:0.003937007874015748 115:0.003937007874015748 116:0.0 117:0.0 118:0.0 119:0.0 120:0.0 121:0.003937007874015748 122:0.003937007874015748 123:0.0 124:0.0 125:0.0 126:0.0 127:0.0 128:0.0 129:0.0 130:0.0 131:0.0 132:0.003937007874015748 133:0.0 134:0.0 135:0.003937007874015748 136:0.0 137:0.0 138:0.0 139:0.0 140:0.0 141:0.007874015748031496 142:0.0 143:0.0 144:0.0 145:0.0 146:0.0 147:0.011811023622047244 148:0.0 149:0.7755905511811023 150:0.0 151:0.0 152:0.0 153:0.0 154:0.0 155:0.007874015748031496 156:0.0 157:0.0 158:0.0 159:0.0 160:0.0 
1.0 1:0.00904977375565611 2:0.0 3:0.0 4:0.0 5:0.07692307692307693 6:0.0 7:0.0 8:0.011312217194570135 9:0.0 10:0.004524886877828055 11:0.0022624434389140274 12:0.0 13:0.0022624434389140274 14:0.0 15:0.006787330316742082 16:0.0 17:0.0 18:0.0 19:0.0022624434389140274 20:0.004524886877828055 21:0.0 22:0.0 23:0.0022624434389140274 24:0.0 25:0.0 26:0.0 27:0.0 28:0.0 29:0.0 30:0.0 31:0.013574660633484163 32:0.0 33:0.0 34:0.013574660633484163 35:0.0 36:0.0 37:0.0 38:0.0 39:0.00904977375565611 40:0.0022624434389140274 41:0.0 42:0.0 43:0.0 44:0.0022624434389140274 45:0.020361990950226245 46:0.0 47:0.0022624434389140274 48:0.0022624434389140274 49:0.0 50:0.0 51:0.0 52:0.0 53:0.006787330316742082 54:0.0 55:0.0 56:0.0 57:0.004524886877828055 58:0.0 59:0.0 60:0.0 61:0.0 62:0.0022624434389140274 63:0.004524886877828055 64:0.0 65:0.0 66:0.0022624434389140274 67:0.0 68:0.00904977375565611 69:0.006787330316742082 70:0.0 71:0.0 72:0.0 73:0.013574660633484163 74:0.0 75:0.0 76:0.0 77:0.0 78:0.0 79:0.011312217194570135 80:0.006787330316742082 81:0.0 82:0.0 83:0.0 84:0.0022624434389140274 85:0.0 86:0.006787330316742082 87:0.0022624434389140274 88:0.004524886877828055 89:0.0022624434389140274 90:0.0 91:0.033936651583710405 92:0.0 93:0.0 94:0.033936651583710405 95:0.0 96:0.0022624434389140274 97:0.0 98:0.0 99:0.0 100:0.0022624434389140274 101:0.01809954751131222 102:0.0 103:0.0 104:0.0 105:0.0 106:0.0 107:0.0 108:0.0 109:0.0022624434389140274 110:0.00904977375565611 111:0.0 112:0.0 113:0.004524886877828055 114:0.0 115:0.0 116:0.004524886877828055 117:0.011312217194570135 118:0.0 119:0.006787330316742082 120:0.0022624434389140274 121:0.013574660633484163 122:0.0022624434389140274 123:0.0 124:0.0 125:0.0 126:0.0 127:0.0 128:0.0022624434389140274 129:0.0 130:0.0022624434389140274 131:0.004524886877828055 132:0.04072398190045249 133:0.0 134:0.0 135:0.00904977375565611 136:0.006787330316742082 137:0.006787330316742082 138:0.0 139:0.020361990950226245 140:0.0 141:0.0 142:0.0 143:0.0 144:0.00904977375565611 145:0.0 146:0.0 147:0.004524886877828055 148:0.0 149:0.4502262443438914 150:0.0 151:0.0 152:0.0022624434389140274 153:0.0 154:0.0 155:0.0 156:0.0 157:0.006787330316742082 158:0.0 159:0.006787330316742082 160:0.006787330316742082 
1.0 1:0.00303951367781155 2:0.0 3:0.0 4:0.0 5:0.08206686930091185 6:0.0 7:0.0 8:0.00303951367781155 9:0.0 10:0.0 11:0.0 12:0.0 13:0.0 14:0.0 15:0.0060790273556231 16:0.0 17:0.0 18:0.0 19:0.0 20:0.0 21:0.0 22:0.0 23:0.0 24:0.0 25:0.0 26:0.0 27:0.0 28:0.0 29:0.0 30:0.0 31:0.00303951367781155 32:0.0 33:0.0 34:0.0 35:0.0 36:0.0 37:0.0 38:0.0 39:0.0 40:0.00303951367781155 41:0.0 42:0.0 43:0.0 44:0.0 45:0.00303951367781155 46:0.0 47:0.0 48:0.00303951367781155 49:0.0 50:0.0 51:0.0 52:0.0 53:0.0 54:0.0 55:0.0 56:0.0 57:0.0 58:0.0 59:0.0 60:0.0 61:0.0 62:0.0060790273556231 63:0.015197568389057751 64:0.0 65:0.0 66:0.0 67:0.0 68:0.00303951367781155 69:0.00303951367781155 70:0.0 71:0.0 72:0.0 73:0.0 74:0.0 75:0.0 76:0.0 77:0.0 78:0.0 79:0.00303951367781155 80:0.0 81:0.0 82:0.0 83:0.0 84:0.0 85:0.0 86:0.0 87:0.00303951367781155 88:0.0 89:0.00303951367781155 90:0.0 91:0.0 92:0.0 93:0.0182370820668693 94:0.0182370820668693 95:0.0 96:0.0 97:0.0 98:0.0 99:0.0 100:0.0 101:0.00303951367781155 102:0.0 103:0.0 104:0.0 105:0.0 106:0.0 107:0.0 108:0.0 109:0.0 110:0.0 111:0.0 112:0.0 113:0.0 114:0.0 115:0.0 116:0.0 117:0.0 118:0.0 119:0.0 120:0.0 121:0.0 122:0.0 123:0.0060790273556231 124:0.0 125:0.0 126:0.0 127:0.0 128:0.0 129:0.00303951367781155 130:0.0 131:0.0 132:0.015197568389057751 133:0.0 134:0.0 135:0.0 136:0.0 137:0.00303951367781155 138:0.0 139:0.0 140:0.0 141:0.0 142:0.0 143:0.0 144:0.0 145:0.00303951367781155 146:0.0 147:0.0 148:0.0 149:0.7872340425531915 150:0.0 151:0.0 152:0.0 153:0.0 154:0.0 155:0.0 156:0.0 157:0.0 158:0.0 159:0.0 160:0.0 
1.0 1:0.007168458781362007 2:0.0 3:0.0 4:0.0 5:0.06989247311827956 6:0.0 7:0.0 8:0.007168458781362007 9:0.0 10:0.0035842293906810036 11:0.0 12:0.0 13:0.0017921146953405018 14:0.0 15:0.005376344086021506 16:0.0 17:0.0 18:0.0 19:0.0017921146953405018 20:0.0035842293906810036 21:0.0 22:0.0 23:0.0 24:0.0 25:0.0 26:0.0 27:0.0 28:0.0 29:0.0 30:0.0 31:0.010752688172043012 32:0.0 33:0.0 34:0.008960573476702509 35:0.0 36:0.0 37:0.0 38:0.0 39:0.007168458781362007 40:0.0035842293906810036 41:0.0 42:0.0 43:0.0 44:0.0017921146953405018 45:0.016129032258064516 46:0.0 47:0.0017921146953405018 48:0.0017921146953405018 49:0.0 50:0.0 51:0.0 52:0.0 53:0.005376344086021506 54:0.0 55:0.0 56:0.0 57:0.005376344086021506 58:0.0 59:0.0 60:0.0 61:0.0017921146953405018 62:0.0035842293906810036 63:0.0017921146953405018 64:0.0 65:0.0 66:0.0017921146953405018 67:0.0 68:0.007168458781362007 69:0.005376344086021506 70:0.0 71:0.0017921146953405018 72:0.0 73:0.010752688172043012 74:0.0 75:0.0 76:0.0 77:0.0 78:0.0 79:0.008960573476702509 80:0.007168458781362007 81:0.0 82:0.0 83:0.0 84:0.0 85:0.0 86:0.005376344086021506 87:0.0017921146953405018 88:0.0017921146953405018 89:0.0017921146953405018 90:0.0 91:0.025089605734767026 92:0.0 93:0.0 94:0.025089605734767026 95:0.0 96:0.0017921146953405018 97:0.0 98:0.0 99:0.0 100:0.0017921146953405018 101:0.014336917562724014 102:0.0 103:0.0 104:0.0 105:0.0 106:0.0 107:0.0 108:0.0 109:0.0017921146953405018 110:0.007168458781362007 111:0.0 112:0.0 113:0.0035842293906810036 114:0.0 115:0.0017921146953405018 116:0.0035842293906810036 117:0.007168458781362007 118:0.0 119:0.005376344086021506 120:0.0017921146953405018 121:0.010752688172043012 122:0.0017921146953405018 123:0.0 124:0.0 125:0.0 126:0.0 127:0.0 128:0.0017921146953405018 129:0.0 130:0.0 131:0.0017921146953405018 132:0.034050179211469536 133:0.0 134:0.0 135:0.005376344086021506 136:0.0035842293906810036 137:0.008960573476702509 138:0.0 139:0.016129032258064516 140:0.0 141:0.0 142:0.0 143:0.0 144:0.007168458781362007 145:0.0 146:0.0 147:0.005376344086021506 148:0.0 149:0.5609318996415771 150:0.0 151:0.0 152:0.0017921146953405018 153:0.0 154:0.0 155:0.0 156:0.0 157:0.005376344086021506 158:0.0 159:0.005376344086021506 160:0.005376344086021506 
1.0 1:0.004819277108433735 2:0.0 3:0.0 4:0.0 5:0.03132530120481928 6:0.0 7:0.0 8:0.0 9:0.0 10:0.004819277108433735 11:0.0024096385542168677 12:0.0 13:0.0 14:0.0 15:0.00963855421686747 16:0.0 17:0.0 18:0.0 19:0.0 20:0.004819277108433735 21:0.0 22:0.0 23:0.0024096385542168677 24:0.0 25:0.0 26:0.0 27:0.0 28:0.0 29:0.0 30:0.0 31:0.0 32:0.0 33:0.0 34:0.0 35:0.0024096385542168677 36:0.0 37:0.0 38:0.0 39:0.0 40:0.004819277108433735 41:0.0 42:0.0 43:0.0 44:0.0 45:0.0024096385542168677 46:0.0 47:0.0 48:0.004819277108433735 49:0.0 50:0.0 51:0.0 52:0.0024096385542168677 53:0.0 54:0.0 55:0.0 56:0.0 57:0.0 58:0.0 59:0.0 60:0.0 61:0.0 62:0.00963855421686747 63:0.014457831325301205 64:0.0024096385542168677 65:0.0 66:0.004819277108433735 67:0.0 68:0.0024096385542168677 69:0.0 70:0.0 71:0.0024096385542168677 72:0.0 73:0.0 74:0.0 75:0.0 76:0.0 77:0.0 78:0.0 79:0.0 80:0.007228915662650603 81:0.0 82:0.0 83:0.0 84:0.0024096385542168677 85:0.0 86:0.0 87:0.00963855421686747 88:0.0024096385542168677 89:0.0 90:0.0 91:0.014457831325301205 92:0.0 93:0.016867469879518072 94:0.014457831325301205 95:0.0 96:0.0 97:0.0 98:0.0 99:0.0 100:0.0 101:0.00963855421686747 102:0.0 103:0.0 104:0.0 105:0.0024096385542168677 106:0.0 107:0.0 108:0.0 109:0.0 110:0.004819277108433735 111:0.0 112:0.0 113:0.0 114:0.0024096385542168677 115:0.0 116:0.0 117:0.0 118:0.0 119:0.0 120:0.0 121:0.0024096385542168677 122:0.0 123:0.004819277108433735 124:0.0 125:0.0 126:0.004819277108433735 127:0.0 128:0.004819277108433735 129:0.0024096385542168677 130:0.0 131:0.0 132:0.0 133:0.0 134:0.0 135:0.0 136:0.0024096385542168677 137:0.004819277108433735 138:0.0 139:0.0024096385542168677 140:0.0 141:0.0 142:0.0 143:0.0 144:0.0 145:0.0 146:0.004819277108433735 147:0.004819277108433735 148:0.0 149:0.7614457831325301 150:0.0 151:0.0 152:0.0 153:0.0 154:0.0 155:0.0 156:0.0 157:0.0 158:0.0 159:0.0 160:0.0 
1.0 1:0.0 2:0.0 3:0.0 4:0.0 5:0.010638297872340425 6:0.0 7:0.0 8:0.0 9:0.0 10:0.0 11:0.0 12:0.0035460992907801418 13:0.0035460992907801418 14:0.0 15:0.024822695035460994 16:0.0 17:0.0 18:0.0 19:0.0 20:0.0070921985815602835 21:0.0 22:0.0 23:0.0 24:0.0 25:0.0 26:0.0070921985815602835 27:0.0 28:0.0070921985815602835 29:0.0 30:0.0 31:0.0 32:0.0 33:0.0 34:0.0070921985815602835 35:0.0 36:0.0035460992907801418 37:0.0 38:0.0 39:0.0070921985815602835 40:0.0 41:0.0 42:0.0 43:0.0035460992907801418 44:0.0 45:0.0 46:0.0 47:0.0 48:0.0 49:0.0 50:0.0 51:0.0 52:0.0070921985815602835 53:0.0 54:0.0 55:0.0 56:0.0 57:0.0 58:0.0 59:0.0 60:0.0 61:0.0 62:0.010638297872340425 63:0.0 64:0.0035460992907801418 65:0.0 66:0.0 67:0.0 68:0.0 69:0.0 70:0.0 71:0.0 72:0.0 73:0.0 74:0.0 75:0.0 76:0.0 77:0.0035460992907801418 78:0.0 79:0.0 80:0.0035460992907801418 81:0.0 82:0.0 83:0.0 84:0.0 85:0.0 86:0.0035460992907801418 87:0.014184397163120567 88:0.0 89:0.0 90:0.0070921985815602835 91:0.0 92:0.0 93:0.0035460992907801418 94:0.0035460992907801418 95:0.0 96:0.0 97:0.0 98:0.0 99:0.0 100:0.0 101:0.0070921985815602835 102:0.0 103:0.0 104:0.0035460992907801418 105:0.0035460992907801418 106:0.0 107:0.0 108:0.0 109:0.0 110:0.0035460992907801418 111:0.0 112:0.0 113:0.0 114:0.0 115:0.0 116:0.0 117:0.0 118:0.0 119:0.0 120:0.0 121:0.0035460992907801418 122:0.0 123:0.0 124:0.0 125:0.0 126:0.0035460992907801418 127:0.0 128:0.010638297872340425 129:0.0 130:0.0035460992907801418 131:0.0 132:0.0 133:0.0 134:0.0 135:0.0 136:0.0 137:0.0070921985815602835 138:0.0070921985815602835 139:0.0035460992907801418 140:0.010638297872340425 141:0.0 142:0.0 143:0.0 144:0.0 145:0.0 146:0.0 147:0.0 148:0.0 149:0.7730496453900709 150:0.0 151:0.0035460992907801418 152:0.0 153:0.0 154:0.0 155:0.0 156:0.0 157:0.010638297872340425 158:0.0 159:0.0 160:0.0 
1.0 1:0.007547169811320755 2:0.0 3:0.0 4:0.0 5:0.06415094339622641 6:0.0 7:0.0 8:0.009433962264150943 9:0.0 10:0.0037735849056603774 11:0.0018867924528301887 12:0.0 13:0.0018867924528301887 14:0.0 15:0.005660377358490566 16:0.0 17:0.0 18:0.0 19:0.0018867924528301887 20:0.0037735849056603774 21:0.0 22:0.0 23:0.0018867924528301887 24:0.0 25:0.0 26:0.0 27:0.0 28:0.0 29:0.0 30:0.0 31:0.011320754716981131 32:0.0 33:0.0 34:0.011320754716981131 35:0.0 36:0.0 37:0.0 38:0.0 39:0.007547169811320755 40:0.0018867924528301887 41:0.0 42:0.0 43:0.0 44:0.0018867924528301887 45:0.016981132075471698 46:0.0 47:0.0018867924528301887 48:0.0018867924528301887 49:0.0 50:0.0 51:0.0 52:0.0 53:0.005660377358490566 54:0.0 55:0.0 56:0.0 57:0.0037735849056603774 58:0.0 59:0.0 60:0.0 61:0.0 62:0.0018867924528301887 63:0.0037735849056603774 64:0.0 65:0.0 66:0.0018867924528301887 67:0.0 68:0.007547169811320755 69:0.005660377358490566 70:0.0 71:0.0 72:0.0 73:0.011320754716981131 74:0.0 75:0.0 76:0.0 77:0.0 78:0.0 79:0.009433962264150943 80:0.005660377358490566 81:0.0 82:0.0 83:0.0 84:0.0018867924528301887 85:0.0 86:0.005660377358490566 87:0.0018867924528301887 88:0.0037735849056603774 89:0.0018867924528301887 90:0.0 91:0.02830188679245283 92:0.0 93:0.0 94:0.02830188679245283 95:0.0 96:0.0018867924528301887 97:0.0 98:0.0 99:0.0 100:0.0018867924528301887 101:0.01509433962264151 102:0.0 103:0.0 104:0.0 105:0.0 106:0.0 107:0.0 108:0.0 109:0.0018867924528301887 110:0.007547169811320755 111:0.0 112:0.0 113:0.0037735849056603774 114:0.0 115:0.0 116:0.0037735849056603774 117:0.009433962264150943 118:0.0 119:0.005660377358490566 120:0.0018867924528301887 121:0.011320754716981131 122:0.0018867924528301887 123:0.0 124:0.0 125:0.0 126:0.0 127:0.0 128:0.0018867924528301887 129:0.0 130:0.0018867924528301887 131:0.0037735849056603774 132:0.033962264150943396 133:0.0 134:0.0 135:0.007547169811320755 136:0.005660377358490566 137:0.005660377358490566 138:0.0 139:0.016981132075471698 140:0.0 141:0.0 142:0.0 143:0.0 144:0.007547169811320755 145:0.0 146:0.0 147:0.0037735849056603774 148:0.0 149:0.5415094339622641 150:0.0 151:0.0 152:0.0018867924528301887 153:0.0 154:0.0 155:0.0 156:0.0 157:0.005660377358490566 158:0.0 159:0.005660377358490566 160:0.005660377358490566 
1.0 1:0.007547169811320755 2:0.0 3:0.0 4:0.0 5:0.06415094339622641 6:0.0 7:0.0 8:0.009433962264150943 9:0.0 10:0.0037735849056603774 11:0.0018867924528301887 12:0.0 13:0.0018867924528301887 14:0.0 15:0.005660377358490566 16:0.0 17:0.0 18:0.0 19:0.0018867924528301887 20:0.0037735849056603774 21:0.0 22:0.0 23:0.0018867924528301887 24:0.0 25:0.0 26:0.0 27:0.0 28:0.0 29:0.0 30:0.0 31:0.011320754716981131 32:0.0 33:0.0 34:0.011320754716981131 35:0.0 36:0.0 37:0.0 38:0.0 39:0.007547169811320755 40:0.0018867924528301887 41:0.0 42:0.0 43:0.0 44:0.0018867924528301887 45:0.016981132075471698 46:0.0 47:0.0018867924528301887 48:0.0018867924528301887 49:0.0 50:0.0 51:0.0 52:0.0 53:0.005660377358490566 54:0.0 55:0.0 56:0.0 57:0.0037735849056603774 58:0.0 59:0.0 60:0.0 61:0.0 62:0.0018867924528301887 63:0.0037735849056603774 64:0.0 65:0.0 66:0.0018867924528301887 67:0.0 68:0.007547169811320755 69:0.005660377358490566 70:0.0 71:0.0 72:0.0 73:0.011320754716981131 74:0.0 75:0.0 76:0.0 77:0.0 78:0.0 79:0.009433962264150943 80:0.005660377358490566 81:0.0 82:0.0 83:0.0 84:0.0018867924528301887 85:0.0 86:0.005660377358490566 87:0.0018867924528301887 88:0.0037735849056603774 89:0.0018867924528301887 90:0.0 91:0.02830188679245283 92:0.0 93:0.0 94:0.02830188679245283 95:0.0 96:0.0018867924528301887 97:0.0 98:0.0 99:0.0 100:0.0018867924528301887 101:0.01509433962264151 102:0.0 103:0.0 104:0.0 105:0.0 106:0.0 107:0.0 108:0.0 109:0.0018867924528301887 110:0.007547169811320755 111:0.0 112:0.0 113:0.0037735849056603774 114:0.0 115:0.0 116:0.0037735849056603774 117:0.009433962264150943 118:0.0 119:0.005660377358490566 120:0.0018867924528301887 121:0.011320754716981131 122:0.0018867924528301887 123:0.0 124:0.0 125:0.0 126:0.0 127:0.0 128:0.0018867924528301887 129:0.0 130:0.0018867924528301887 131:0.0037735849056603774 132:0.033962264150943396 133:0.0 134:0.0 135:0.007547169811320755 136:0.005660377358490566 137:0.005660377358490566 138:0.0 139:0.016981132075471698 140:0.0 141:0.0 142:0.0 143:0.0 144:0.007547169811320755 145:0.0 146:0.0 147:0.0037735849056603774 148:0.0 149:0.5415094339622641 150:0.0 151:0.0 152:0.0018867924528301887 153:0.0 154:0.0 155:0.0 156:0.0 157:0.005660377358490566 158:0.0 159:0.005660377358490566 160:0.005660377358490566 
1.0 1:0.004048582995951417 2:0.0 3:0.0 4:0.0 5:0.07692307692307693 6:0.004048582995951417 7:0.0 8:0.0 9:0.0 10:0.0 11:0.0 12:0.0 13:0.0 14:0.0 15:0.0 16:0.0 17:0.0 18:0.0 19:0.0 20:0.0 21:0.0 22:0.0 23:0.0 24:0.0 25:0.0 26:0.0 27:0.0 28:0.0 29:0.0 30:0.0 31:0.008097165991902834 32:0.0 33:0.0 34:0.008097165991902834 35:0.0 36:0.0 37:0.0 38:0.0 39:0.0 40:0.0 41:0.0 42:0.0 43:0.004048582995951417 44:0.0 45:0.008097165991902834 46:0.0 47:0.004048582995951417 48:0.0 49:0.0 50:0.0 51:0.0 52:0.004048582995951417 53:0.004048582995951417 54:0.0 55:0.0 56:0.0 57:0.0 58:0.004048582995951417 59:0.0 60:0.0 61:0.0 62:0.0 63:0.0 64:0.004048582995951417 65:0.0 66:0.0 67:0.0 68:0.0 69:0.004048582995951417 70:0.0 71:0.0 72:0.0 73:0.0 74:0.0 75:0.0 76:0.0 77:0.004048582995951417 78:0.0 79:0.0 80:0.012145748987854251 81:0.0 82:0.0 83:0.0 84:0.0 85:0.0 86:0.004048582995951417 87:0.0 88:0.008097165991902834 89:0.0 90:0.004048582995951417 91:0.004048582995951417 92:0.0 93:0.0 94:0.004048582995951417 95:0.0 96:0.0 97:0.0 98:0.0 99:0.0 100:0.0 101:0.004048582995951417 102:0.0 103:0.0 104:0.0 105:0.0 106:0.0 107:0.0 108:0.0 109:0.0 110:0.0 111:0.0 112:0.0 113:0.0 114:0.0 115:0.0 116:0.0 117:0.0 118:0.0 119:0.0 120:0.0 121:0.004048582995951417 122:0.0 123:0.0 124:0.0 125:0.0 126:0.004048582995951417 127:0.0 128:0.004048582995951417 129:0.0 130:0.0 131:0.004048582995951417 132:0.008097165991902834 133:0.0 134:0.0 135:0.0 136:0.0 137:0.004048582995951417 138:0.0 139:0.0 140:0.0 141:0.004048582995951417 142:0.0 143:0.0 144:0.004048582995951417 145:0.004048582995951417 146:0.0 147:0.0 148:0.0 149:0.7732793522267206 150:0.0 151:0.0 152:0.0 153:0.0 154:0.0 155:0.004048582995951417 156:0.0 157:0.0 158:0.0 159:0.0 160:0.0 
1.0 1:0.010273972602739725 2:0.0 3:0.0 4:0.0 5:0.030821917808219176 6:0.0 7:0.0 8:0.0 9:0.0 10:0.0 11:0.003424657534246575 12:0.0 13:0.003424657534246575 14:0.0 15:0.0136986301369863 16:0.0 17:0.0 18:0.0 19:0.0 20:0.0 21:0.0 22:0.0 23:0.0 24:0.0 25:0.0 26:0.003424657534246575 27:0.0 28:0.003424657534246575 29:0.0 30:0.0 31:0.003424657534246575 32:0.0 33:0.0 34:0.0 35:0.0 36:0.003424657534246575 37:0.0 38:0.003424657534246575 39:0.0 40:0.00684931506849315 41:0.0 42:0.0 43:0.003424657534246575 44:0.0 45:0.00684931506849315 46:0.0 47:0.0 48:0.0 49:0.0 50:0.0 51:0.0 52:0.0 53:0.0 54:0.003424657534246575 55:0.0 56:0.0 57:0.0 58:0.0 59:0.0 60:0.0 61:0.0 62:0.003424657534246575 63:0.003424657534246575 64:0.00684931506849315 65:0.0 66:0.003424657534246575 67:0.0 68:0.0 69:0.0136986301369863 70:0.0 71:0.0 72:0.0 73:0.0 74:0.0 75:0.0 76:0.0 77:0.0 78:0.0 79:0.0 80:0.0 81:0.0 82:0.0 83:0.0 84:0.0 85:0.0 86:0.0 87:0.010273972602739725 88:0.0 89:0.003424657534246575 90:0.00684931506849315 91:0.0 92:0.0 93:0.0 94:0.010273972602739725 95:0.0 96:0.003424657534246575 97:0.0 98:0.0 99:0.0 100:0.0 101:0.00684931506849315 102:0.003424657534246575 103:0.003424657534246575 104:0.003424657534246575 105:0.0 106:0.0 107:0.0 108:0.0 109:0.0 110:0.0 111:0.0 112:0.0 113:0.003424657534246575 114:0.003424657534246575 115:0.0 116:0.003424657534246575 117:0.003424657534246575 118:0.0 119:0.0 120:0.0 121:0.00684931506849315 122:0.0 123:0.0 124:0.0 125:0.0 126:0.0 127:0.0 128:0.0 129:0.0 130:0.0 131:0.003424657534246575 132:0.0136986301369863 133:0.0 134:0.0 135:0.00684931506849315 136:0.0 137:0.00684931506849315 138:0.003424657534246575 139:0.0 140:0.0 141:0.003424657534246575 142:0.0 143:0.0 144:0.0 145:0.0 146:0.0 147:0.0 148:0.0 149:0.75 150:0.0 151:0.0 152:0.0 153:0.0 154:0.0 155:0.003424657534246575 156:0.0 157:0.0 158:0.0 159:0.0 160:0.00684931506849315 
1.0 1:0.011111111111111112 2:0.0 3:0.0 4:0.0 5:0.08888888888888889 6:0.0 7:0.0 8:0.008888888888888889 9:0.0 10:0.0022222222222222222 11:0.0 12:0.0 13:0.0022222222222222222 14:0.0 15:0.011111111111111112 16:0.0 17:0.0 18:0.0 19:0.0022222222222222222 20:0.006666666666666667 21:0.0 22:0.0 23:0.0 24:0.0 25:0.0 26:0.0 27:0.0 28:0.0 29:0.0 30:0.0 31:0.013333333333333334 32:0.0 33:0.0 34:0.013333333333333334 35:0.0 36:0.0 37:0.0 38:0.0 39:0.008888888888888889 40:0.0022222222222222222 41:0.0 42:0.0 43:0.0 44:0.0022222222222222222 45:0.02 46:0.0 47:0.0044444444444444444 48:0.0022222222222222222 49:0.0 50:0.0 51:0.0 52:0.0 53:0.006666666666666667 54:0.0 55:0.0 56:0.0 57:0.0022222222222222222 58:0.0 59:0.0 60:0.0 61:0.0 62:0.0022222222222222222 63:0.0 64:0.0 65:0.0 66:0.0022222222222222222 67:0.0 68:0.008888888888888889 69:0.008888888888888889 70:0.0 71:0.0 72:0.0 73:0.015555555555555555 74:0.0 75:0.0 76:0.0 77:0.0 78:0.0 79:0.017777777777777778 80:0.0044444444444444444 81:0.0 82:0.0 83:0.0 84:0.0 85:0.0 86:0.006666666666666667 87:0.0022222222222222222 88:0.0022222222222222222 89:0.0022222222222222222 90:0.0 91:0.03111111111111111 92:0.0 93:0.0 94:0.03333333333333333 95:0.0 96:0.0022222222222222222 97:0.0 98:0.0 99:0.0 100:0.0022222222222222222 101:0.02 102:0.0 103:0.0 104:0.0022222222222222222 105:0.0 106:0.0 107:0.0 108:0.0 109:0.0022222222222222222 110:0.008888888888888889 111:0.0 112:0.0 113:0.0022222222222222222 114:0.0 115:0.0022222222222222222 116:0.0044444444444444444 117:0.008888888888888889 118:0.0 119:0.008888888888888889 120:0.008888888888888889 121:0.017777777777777778 122:0.0022222222222222222 123:0.0 124:0.0 125:0.0 126:0.0022222222222222222 127:0.0 128:0.0022222222222222222 129:0.0 130:0.0 131:0.0022222222222222222 132:0.042222222222222223 133:0.0 134:0.0 135:0.011111111111111112 136:0.0044444444444444444 137:0.006666666666666667 138:0.0 139:0.022222222222222223 140:0.0 141:0.0 142:0.0 143:0.0 144:0.008888888888888889 145:0.0 146:0.0 147:0.0044444444444444444 148:0.0 149:0.4311111111111111 150:0.0 151:0.0 152:0.0022222222222222222 153:0.0 154:0.0 155:0.0 156:0.0 157:0.006666666666666667 158:0.0 159:0.006666666666666667 160:0.006666666666666667 
1.0 1:0.0017921146953405018 2:0.0 3:0.0 4:0.0 5:0.12365591397849462 6:0.0017921146953405018 7:0.0 8:0.0035842293906810036 9:0.0 10:0.0 11:0.0035842293906810036 12:0.0 13:0.0 14:0.0 15:0.016129032258064516 16:0.0 17:0.0 18:0.0 19:0.0 20:0.0035842293906810036 21:0.0 22:0.0 23:0.0017921146953405018 24:0.0 25:0.0 26:0.0017921146953405018 27:0.0 28:0.0 29:0.0 30:0.0 31:0.007168458781362007 32:0.0 33:0.0 34:0.0017921146953405018 35:0.0 36:0.0 37:0.0 38:0.0 39:0.0017921146953405018 40:0.0017921146953405018 41:0.0 42:0.0 43:0.0017921146953405018 44:0.0 45:0.007168458781362007 46:0.0 47:0.0035842293906810036 48:0.0017921146953405018 49:0.0 50:0.0 51:0.0 52:0.0 53:0.0 54:0.0 55:0.0 56:0.0 57:0.0 58:0.0017921146953405018 59:0.0 60:0.0 61:0.0 62:0.0035842293906810036 63:0.012544802867383513 64:0.005376344086021506 65:0.0 66:0.0017921146953405018 67:0.0 68:0.0 69:0.016129032258064516 70:0.0017921146953405018 71:0.0035842293906810036 72:0.0 73:0.0 74:0.0 75:0.0 76:0.0035842293906810036 77:0.0017921146953405018 78:0.0 79:0.0017921146953405018 80:0.0017921146953405018 81:0.0 82:0.0 83:0.0 84:0.0017921146953405018 85:0.0 86:0.0017921146953405018 87:0.008960573476702509 88:0.0017921146953405018 89:0.0017921146953405018 90:0.0035842293906810036 91:0.0017921146953405018 92:0.0 93:0.010752688172043012 94:0.023297491039426525 95:0.0 96:0.0 97:0.0 98:0.0 99:0.0 100:0.0 101:0.0035842293906810036 102:0.0017921146953405018 103:0.0 104:0.0017921146953405018 105:0.0 106:0.0 107:0.0 108:0.0 109:0.0 110:0.0017921146953405018 111:0.0017921146953405018 112:0.0 113:0.005376344086021506 114:0.005376344086021506 115:0.0 116:0.0017921146953405018 117:0.0017921146953405018 118:0.0035842293906810036 119:0.0035842293906810036 120:0.0017921146953405018 121:0.008960573476702509 122:0.0 123:0.0035842293906810036 124:0.0 125:0.0 126:0.0 127:0.0 128:0.0 129:0.005376344086021506 130:0.0 131:0.0017921146953405018 132:0.005376344086021506 133:0.0 134:0.0 135:0.005376344086021506 136:0.0 137:0.012544802867383513 138:0.0035842293906810036 139:0.017921146953405017 140:0.0017921146953405018 141:0.0017921146953405018 142:0.0 143:0.0 144:0.0035842293906810036 145:0.0 146:0.0017921146953405018 147:0.0017921146953405018 148:0.0 149:0.5752688172043011 150:0.0 151:0.0 152:0.0035842293906810036 153:0.0 154:0.0 155:0.0035842293906810036 156:0.0 157:0.0017921146953405018 158:0.0 159:0.0 160:0.010752688172043012 
1.0 1:0.01084010840108401 2:0.0 3:0.0 4:0.0 5:0.0948509485094851 6:0.0027100271002710027 7:0.005420054200542005 8:0.0 9:0.0 10:0.0 11:0.0 12:0.0027100271002710027 13:0.0 14:0.0 15:0.013550135501355014 16:0.0 17:0.0 18:0.0 19:0.0 20:0.0 21:0.0 22:0.0 23:0.0 24:0.0 25:0.0 26:0.0 27:0.0 28:0.0 29:0.0 30:0.0 31:0.005420054200542005 32:0.0 33:0.0 34:0.0 35:0.005420054200542005 36:0.0 37:0.0 38:0.0 39:0.0027100271002710027 40:0.0027100271002710027 41:0.0027100271002710027 42:0.0 43:0.0 44:0.0 45:0.02168021680216802 46:0.0 47:0.0027100271002710027 48:0.0 49:0.0 50:0.0 51:0.0 52:0.005420054200542005 53:0.0 54:0.0 55:0.0 56:0.0 57:0.0027100271002710027 58:0.0 59:0.0 60:0.0 61:0.0027100271002710027 62:0.008130081300813009 63:0.0027100271002710027 64:0.0 65:0.0 66:0.0 67:0.0 68:0.005420054200542005 69:0.005420054200542005 70:0.0027100271002710027 71:0.0 72:0.0 73:0.0 74:0.0 75:0.0 76:0.0027100271002710027 77:0.0 78:0.0 79:0.0 80:0.005420054200542005 81:0.0 82:0.0 83:0.0 84:0.0 85:0.0 86:0.0 87:0.01084010840108401 88:0.0 89:0.0 90:0.005420054200542005 91:0.0027100271002710027 92:0.0 93:0.008130081300813009 94:0.02981029810298103 95:0.0 96:0.0 97:0.0 98:0.0 99:0.0 100:0.008130081300813009 101:0.013550135501355014 102:0.0 103:0.0 104:0.0 105:0.0027100271002710027 106:0.0 107:0.0 108:0.0 109:0.0 110:0.0027100271002710027 111:0.0 112:0.0 113:0.005420054200542005 114:0.0027100271002710027 115:0.0027100271002710027 116:0.0 117:0.0 118:0.0 119:0.0 120:0.005420054200542005 121:0.02168021680216802 122:0.0 123:0.008130081300813009 124:0.0 125:0.0 126:0.0 127:0.0 128:0.0 129:0.0027100271002710027 130:0.0 131:0.0 132:0.008130081300813009 133:0.0 134:0.0 135:0.0027100271002710027 136:0.0 137:0.005420054200542005 138:0.0 139:0.0 140:0.0027100271002710027 141:0.0027100271002710027 142:0.0 143:0.0 144:0.0 145:0.0 146:0.0027100271002710027 147:0.008130081300813009 148:0.0 149:0.6097560975609756 150:0.0 151:0.0 152:0.0027100271002710027 153:0.0 154:0.0 155:0.0 156:0.0 157:0.005420054200542005 158:0.0 159:0.0 160:0.0 
1.0 1:0.004576659038901602 2:0.0 3:0.0 4:0.0 5:0.10297482837528604 6:0.0 7:0.0 8:0.002288329519450801 9:0.0 10:0.0 11:0.002288329519450801 12:0.002288329519450801 13:0.0 14:0.0 15:0.006864988558352402 16:0.0 17:0.0 18:0.0 19:0.0 20:0.0 21:0.0 22:0.0 23:0.0 24:0.0 25:0.0 26:0.0 27:0.0 28:0.0 29:0.0 30:0.0 31:0.0 32:0.0 33:0.0 34:0.0 35:0.002288329519450801 36:0.0 37:0.0 38:0.0 39:0.0 40:0.0 41:0.0 42:0.0 43:0.0 44:0.0 45:0.004576659038901602 46:0.0 47:0.0 48:0.006864988558352402 49:0.0 50:0.0 51:0.0 52:0.0 53:0.004576659038901602 54:0.0 55:0.0 56:0.0 57:0.002288329519450801 58:0.002288329519450801 59:0.0 60:0.0 61:0.0 62:0.004576659038901602 63:0.011441647597254004 64:0.0 65:0.0 66:0.0 67:0.0 68:0.002288329519450801 69:0.011441647597254004 70:0.0 71:0.0 72:0.0 73:0.0 74:0.0 75:0.0 76:0.0 77:0.0 78:0.0 79:0.009153318077803204 80:0.002288329519450801 81:0.0 82:0.0 83:0.0 84:0.002288329519450801 85:0.0 86:0.0 87:0.006864988558352402 88:0.004576659038901602 89:0.002288329519450801 90:0.0 91:0.002288329519450801 92:0.0 93:0.013729977116704805 94:0.041189931350114416 95:0.0 96:0.0 97:0.0 98:0.0 99:0.0 100:0.0 101:0.004576659038901602 102:0.0 103:0.0 104:0.0 105:0.0 106:0.0 107:0.0 108:0.0 109:0.0 110:0.004576659038901602 111:0.0 112:0.0 113:0.004576659038901602 114:0.002288329519450801 115:0.0 116:0.0 117:0.0 118:0.0 119:0.0 120:0.002288329519450801 121:0.002288329519450801 122:0.0 123:0.004576659038901602 124:0.0 125:0.0 126:0.002288329519450801 127:0.0 128:0.0 129:0.002288329519450801 130:0.0 131:0.002288329519450801 132:0.004576659038901602 133:0.0 134:0.0 135:0.009153318077803204 136:0.0 137:0.004576659038901602 138:0.002288329519450801 139:0.0 140:0.002288329519450801 141:0.0 142:0.0 143:0.0 144:0.0 145:0.0 146:0.0 147:0.002288329519450801 148:0.0 149:0.665903890160183 150:0.0 151:0.002288329519450801 152:0.002288329519450801 153:0.0 154:0.0 155:0.0 156:0.0 157:0.0 158:0.0 159:0.002288329519450801 160:0.011441647597254004 
1.0 1:0.004149377593360996 2:0.0 3:0.0 4:0.0 5:0.09336099585062241 6:0.0 7:0.0 8:0.002074688796680498 9:0.0 10:0.0 11:0.002074688796680498 12:0.002074688796680498 13:0.0 14:0.0 15:0.006224066390041493 16:0.0 17:0.0 18:0.0 19:0.0 20:0.0 21:0.0 22:0.0 23:0.0 24:0.0 25:0.0 26:0.0 27:0.0 28:0.0 29:0.0 30:0.0 31:0.002074688796680498 32:0.0 33:0.0 34:0.0 35:0.002074688796680498 36:0.002074688796680498 37:0.0 38:0.0 39:0.0 40:0.0 41:0.0 42:0.0 43:0.0 44:0.0 45:0.004149377593360996 46:0.0 47:0.0 48:0.004149377593360996 49:0.0 50:0.0 51:0.0 52:0.0 53:0.004149377593360996 54:0.0 55:0.0 56:0.0 57:0.002074688796680498 58:0.002074688796680498 59:0.0 60:0.0 61:0.0 62:0.004149377593360996 63:0.01037344398340249 64:0.0 65:0.0 66:0.0 67:0.0 68:0.002074688796680498 69:0.01037344398340249 70:0.0 71:0.0 72:0.0 73:0.0 74:0.0 75:0.0 76:0.0 77:0.0 78:0.0 79:0.01037344398340249 80:0.002074688796680498 81:0.0 82:0.0 83:0.0 84:0.002074688796680498 85:0.0 86:0.0 87:0.006224066390041493 88:0.004149377593360996 89:0.002074688796680498 90:0.0 91:0.002074688796680498 92:0.0 93:0.012448132780082987 94:0.035269709543568464 95:0.0 96:0.0 97:0.0 98:0.0 99:0.0 100:0.0 101:0.004149377593360996 102:0.0 103:0.0 104:0.0 105:0.0 106:0.0 107:0.0 108:0.0 109:0.0 110:0.004149377593360996 111:0.0 112:0.0 113:0.004149377593360996 114:0.0 115:0.0 116:0.004149377593360996 117:0.0 118:0.0 119:0.0 120:0.002074688796680498 121:0.002074688796680498 122:0.0 123:0.004149377593360996 124:0.0 125:0.0 126:0.002074688796680498 127:0.0 128:0.0 129:0.002074688796680498 130:0.002074688796680498 131:0.002074688796680498 132:0.004149377593360996 133:0.0 134:0.0 135:0.008298755186721992 136:0.0 137:0.004149377593360996 138:0.002074688796680498 139:0.0 140:0.002074688796680498 141:0.0 142:0.0 143:0.0 144:0.0 145:0.0 146:0.002074688796680498 147:0.002074688796680498 148:0.0 149:0.6887966804979253 150:0.0 151:0.002074688796680498 152:0.002074688796680498 153:0.0 154:0.0 155:0.0 156:0.0 157:0.0 158:0.0 159:0.002074688796680498 160:0.01037344398340249 
1.0 1:0.004132231404958678 2:0.0 3:0.0 4:0.0 5:0.09297520661157024 6:0.0 7:0.0 8:0.004132231404958678 9:0.0 10:0.0 11:0.002066115702479339 12:0.002066115702479339 13:0.0 14:0.0 15:0.006198347107438017 16:0.0 17:0.0 18:0.0 19:0.0 20:0.0 21:0.0 22:0.0 23:0.0 24:0.0 25:0.0 26:0.0 27:0.0 28:0.0 29:0.0 30:0.0 31:0.002066115702479339 32:0.0 33:0.0 34:0.0 35:0.002066115702479339 36:0.002066115702479339 37:0.0 38:0.002066115702479339 39:0.0 40:0.0 41:0.0 42:0.0 43:0.0 44:0.0 45:0.004132231404958678 46:0.0 47:0.0 48:0.004132231404958678 49:0.0 50:0.0 51:0.0 52:0.0 53:0.004132231404958678 54:0.0 55:0.0 56:0.0 57:0.002066115702479339 58:0.002066115702479339 59:0.0 60:0.0 61:0.0 62:0.004132231404958678 63:0.010330578512396695 64:0.0 65:0.0 66:0.0 67:0.0 68:0.002066115702479339 69:0.010330578512396695 70:0.0 71:0.0 72:0.0 73:0.0 74:0.0 75:0.0 76:0.0 77:0.0 78:0.0 79:0.010330578512396695 80:0.002066115702479339 81:0.0 82:0.0 83:0.0 84:0.002066115702479339 85:0.0 86:0.0 87:0.008264462809917356 88:0.006198347107438017 89:0.002066115702479339 90:0.0 91:0.002066115702479339 92:0.0 93:0.012396694214876033 94:0.03512396694214876 95:0.0 96:0.0 97:0.0 98:0.0 99:0.0 100:0.002066115702479339 101:0.004132231404958678 102:0.0 103:0.0 104:0.0 105:0.002066115702479339 106:0.0 107:0.0 108:0.0 109:0.0 110:0.004132231404958678 111:0.0 112:0.0 113:0.004132231404958678 114:0.0 115:0.0 116:0.002066115702479339 117:0.0 118:0.0 119:0.0 120:0.002066115702479339 121:0.002066115702479339 122:0.0 123:0.004132231404958678 124:0.0 125:0.0 126:0.002066115702479339 127:0.0 128:0.0 129:0.002066115702479339 130:0.002066115702479339 131:0.002066115702479339 132:0.004132231404958678 133:0.0 134:0.0 135:0.008264462809917356 136:0.0 137:0.006198347107438017 138:0.002066115702479339 139:0.002066115702479339 140:0.002066115702479339 141:0.0 142:0.0 143:0.0 144:0.0 145:0.0 146:0.002066115702479339 147:0.002066115702479339 148:0.0 149:0.6756198347107438 150:0.0 151:0.002066115702479339 152:0.002066115702479339 153:0.0 154:0.0 155:0.0 156:0.0 157:0.0 158:0.0 159:0.002066115702479339 160:0.010330578512396695 
1.0 1:0.007547169811320755 2:0.0 3:0.0 4:0.0 5:0.07358490566037736 6:0.0 7:0.0 8:0.007547169811320755 9:0.0 10:0.0037735849056603774 11:0.0 12:0.0 13:0.0018867924528301887 14:0.0 15:0.005660377358490566 16:0.0 17:0.0 18:0.0 19:0.0018867924528301887 20:0.0037735849056603774 21:0.0 22:0.0 23:0.0 24:0.0 25:0.0 26:0.0 27:0.0 28:0.0 29:0.0 30:0.0 31:0.011320754716981131 32:0.0 33:0.0 34:0.009433962264150943 35:0.0 36:0.0 37:0.0 38:0.0 39:0.007547169811320755 40:0.0037735849056603774 41:0.0 42:0.0 43:0.0 44:0.0018867924528301887 45:0.016981132075471698 46:0.0 47:0.0018867924528301887 48:0.0018867924528301887 49:0.0 50:0.0 51:0.0 52:0.0 53:0.005660377358490566 54:0.0 55:0.0 56:0.0 57:0.005660377358490566 58:0.0 59:0.0 60:0.0 61:0.0018867924528301887 62:0.0037735849056603774 63:0.0018867924528301887 64:0.0 65:0.0 66:0.0018867924528301887 67:0.0 68:0.007547169811320755 69:0.005660377358490566 70:0.0 71:0.0018867924528301887 72:0.0 73:0.011320754716981131 74:0.0 75:0.0 76:0.0 77:0.0 78:0.0 79:0.009433962264150943 80:0.007547169811320755 81:0.0 82:0.0 83:0.0 84:0.0 85:0.0 86:0.005660377358490566 87:0.0018867924528301887 88:0.0018867924528301887 89:0.0018867924528301887 90:0.0 91:0.026415094339622643 92:0.0 93:0.0 94:0.026415094339622643 95:0.0 96:0.0018867924528301887 97:0.0 98:0.0 99:0.0 100:0.0018867924528301887 101:0.01509433962264151 102:0.0 103:0.0 104:0.0 105:0.0 106:0.0 107:0.0 108:0.0 109:0.0018867924528301887 110:0.007547169811320755 111:0.0 112:0.0 113:0.0037735849056603774 114:0.0 115:0.0018867924528301887 116:0.0037735849056603774 117:0.007547169811320755 118:0.0 119:0.005660377358490566 120:0.0018867924528301887 121:0.011320754716981131 122:0.0018867924528301887 123:0.0 124:0.0 125:0.0 126:0.0 127:0.0 128:0.0018867924528301887 129:0.0 130:0.0 131:0.0018867924528301887 132:0.035849056603773584 133:0.0 134:0.0 135:0.005660377358490566 136:0.0037735849056603774 137:0.009433962264150943 138:0.0 139:0.016981132075471698 140:0.0 141:0.0 142:0.0 143:0.0 144:0.007547169811320755 145:0.0 146:0.0 147:0.005660377358490566 148:0.0 149:0.5377358490566038 150:0.0 151:0.0 152:0.0018867924528301887 153:0.0 154:0.0 155:0.0 156:0.0 157:0.005660377358490566 158:0.0 159:0.005660377358490566 160:0.005660377358490566 
1.0 1:0.010075566750629723 2:0.0 3:0.0 4:0.0 5:0.08816120906801007 6:0.0025188916876574307 7:0.005037783375314861 8:0.0 9:0.0 10:0.0 11:0.0025188916876574307 12:0.0 13:0.0 14:0.0 15:0.007556675062972292 16:0.0 17:0.0 18:0.0 19:0.0 20:0.0 21:0.0 22:0.0 23:0.0 24:0.0 25:0.0 26:0.0025188916876574307 27:0.0 28:0.0 29:0.0 30:0.0 31:0.005037783375314861 32:0.0 33:0.0 34:0.0 35:0.005037783375314861 36:0.0 37:0.0 38:0.0025188916876574307 39:0.0025188916876574307 40:0.005037783375314861 41:0.0 42:0.0 43:0.0 44:0.0 45:0.020151133501259445 46:0.0 47:0.0025188916876574307 48:0.0 49:0.0 50:0.0 51:0.0 52:0.005037783375314861 53:0.0 54:0.0 55:0.0 56:0.0 57:0.0 58:0.0 59:0.0 60:0.0 61:0.0025188916876574307 62:0.0025188916876574307 63:0.0025188916876574307 64:0.0 65:0.0 66:0.0 67:0.0 68:0.005037783375314861 69:0.005037783375314861 70:0.0025188916876574307 71:0.0 72:0.0 73:0.0 74:0.0 75:0.0 76:0.0025188916876574307 77:0.0 78:0.0 79:0.0 80:0.0025188916876574307 81:0.0 82:0.0 83:0.0 84:0.0 85:0.0 86:0.0 87:0.012594458438287154 88:0.0 89:0.0 90:0.007556675062972292 91:0.0025188916876574307 92:0.0 93:0.007556675062972292 94:0.027707808564231738 95:0.0 96:0.0 97:0.0 98:0.0 99:0.0 100:0.007556675062972292 101:0.012594458438287154 102:0.0025188916876574307 103:0.0 104:0.0 105:0.0025188916876574307 106:0.0 107:0.0 108:0.0 109:0.0 110:0.0025188916876574307 111:0.0 112:0.0 113:0.005037783375314861 114:0.0 115:0.0025188916876574307 116:0.0 117:0.0 118:0.0025188916876574307 119:0.0 120:0.005037783375314861 121:0.020151133501259445 122:0.0 123:0.007556675062972292 124:0.0 125:0.0 126:0.0 127:0.0 128:0.0 129:0.0025188916876574307 130:0.0 131:0.0 132:0.007556675062972292 133:0.0 134:0.0 135:0.005037783375314861 136:0.0 137:0.005037783375314861 138:0.0 139:0.0 140:0.0025188916876574307 141:0.0025188916876574307 142:0.0 143:0.0 144:0.0 145:0.0 146:0.0025188916876574307 147:0.007556675062972292 148:0.0 149:0.6372795969773299 150:0.0 151:0.0 152:0.0 153:0.0 154:0.0 155:0.0 156:0.0 157:0.005037783375314861 158:0.0 159:0.0025188916876574307 160:0.0 
1.0 1:0.003484320557491289 2:0.0 3:0.0 4:0.0 5:0.09407665505226481 6:0.0 7:0.0 8:0.003484320557491289 9:0.0 10:0.0 11:0.0 12:0.0 13:0.0 14:0.0 15:0.003484320557491289 16:0.0 17:0.0 18:0.0 19:0.0 20:0.0 21:0.0 22:0.0 23:0.0 24:0.0 25:0.0 26:0.0 27:0.0 28:0.003484320557491289 29:0.0 30:0.0 31:0.0 32:0.0 33:0.0 34:0.003484320557491289 35:0.0 36:0.003484320557491289 37:0.0 38:0.0 39:0.003484320557491289 40:0.0 41:0.0 42:0.0 43:0.0 44:0.003484320557491289 45:0.006968641114982578 46:0.0 47:0.0 48:0.003484320557491289 49:0.0 50:0.0 51:0.0 52:0.0 53:0.0 54:0.0 55:0.0 56:0.0 57:0.0 58:0.0 59:0.0 60:0.0 61:0.0 62:0.003484320557491289 63:0.003484320557491289 64:0.0 65:0.0 66:0.003484320557491289 67:0.0 68:0.003484320557491289 69:0.003484320557491289 70:0.0 71:0.003484320557491289 72:0.0 73:0.0 74:0.0 75:0.0 76:0.0 77:0.003484320557491289 78:0.0 79:0.010452961672473868 80:0.003484320557491289 81:0.0 82:0.0 83:0.0 84:0.0 85:0.0 86:0.0 87:0.006968641114982578 88:0.013937282229965157 89:0.003484320557491289 90:0.006968641114982578 91:0.0 92:0.0 93:0.006968641114982578 94:0.024390243902439025 95:0.0 96:0.0 97:0.0 98:0.0 99:0.0 100:0.0 101:0.006968641114982578 102:0.0 103:0.003484320557491289 104:0.0 105:0.0 106:0.0 107:0.0 108:0.0 109:0.0 110:0.003484320557491289 111:0.003484320557491289 112:0.0 113:0.0 114:0.010452961672473868 115:0.003484320557491289 116:0.0 117:0.003484320557491289 118:0.0 119:0.0 120:0.0 121:0.006968641114982578 122:0.0 123:0.003484320557491289 124:0.0 125:0.0 126:0.0 127:0.0 128:0.003484320557491289 129:0.0 130:0.0 131:0.003484320557491289 132:0.003484320557491289 133:0.0 134:0.0 135:0.006968641114982578 136:0.0 137:0.006968641114982578 138:0.0 139:0.0 140:0.0 141:0.0 142:0.0 143:0.0 144:0.0 145:0.0 146:0.0 147:0.0 148:0.0 149:0.686411149825784 150:0.0 151:0.0 152:0.006968641114982578 153:0.0 154:0.0 155:0.0 156:0.0 157:0.0 158:0.0 159:0.0 160:0.003484320557491289 
1.0 1:0.0200445434298441 2:0.0 3:0.0 4:0.0 5:0.10467706013363029 6:0.0 7:0.0 8:0.004454342984409799 9:0.0 10:0.0022271714922048997 11:0.0 12:0.0 13:0.0022271714922048997 14:0.0 15:0.013363028953229399 16:0.0 17:0.0 18:0.0 19:0.0022271714922048997 20:0.004454342984409799 21:0.0 22:0.0 23:0.0 24:0.0 25:0.0 26:0.0 27:0.0 28:0.0022271714922048997 29:0.0 30:0.0 31:0.011135857461024499 32:0.0 33:0.0 34:0.011135857461024499 35:0.004454342984409799 36:0.0 37:0.0 38:0.004454342984409799 39:0.011135857461024499 40:0.0022271714922048997 41:0.0 42:0.0 43:0.0 44:0.004454342984409799 45:0.024498886414253896 46:0.0 47:0.004454342984409799 48:0.004454342984409799 49:0.0 50:0.0 51:0.0 52:0.0 53:0.0066815144766146995 54:0.0 55:0.0 56:0.0 57:0.0022271714922048997 58:0.0 59:0.0 60:0.0 61:0.0 62:0.0066815144766146995 63:0.0022271714922048997 64:0.0 65:0.0 66:0.0022271714922048997 67:0.0 68:0.0066815144766146995 69:0.013363028953229399 70:0.0022271714922048997 71:0.0022271714922048997 72:0.0 73:0.017817371937639197 74:0.0 75:0.0 76:0.0 77:0.0022271714922048997 78:0.0 79:0.017817371937639197 80:0.0022271714922048997 81:0.0 82:0.0 83:0.0 84:0.0 85:0.0 86:0.0022271714922048997 87:0.0022271714922048997 88:0.0022271714922048997 89:0.0022271714922048997 90:0.0022271714922048997 91:0.0200445434298441 92:0.0 93:0.0 94:0.0378619153674833 95:0.0 96:0.0 97:0.0 98:0.0 99:0.0 100:0.0022271714922048997 101:0.008908685968819599 102:0.0 103:0.0 104:0.0 105:0.0 106:0.0 107:0.0 108:0.0 109:0.0022271714922048997 110:0.0066815144766146995 111:0.004454342984409799 112:0.0 113:0.0022271714922048997 114:0.0 115:0.0 116:0.004454342984409799 117:0.0066815144766146995 118:0.0022271714922048997 119:0.004454342984409799 120:0.0022271714922048997 121:0.011135857461024499 122:0.0022271714922048997 123:0.0022271714922048997 124:0.0 125:0.0 126:0.0 127:0.0 128:0.0022271714922048997 129:0.0022271714922048997 130:0.0022271714922048997 131:0.004454342984409799 132:0.0467706013363029 133:0.0 134:0.0 135:0.008908685968819599 136:0.0022271714922048997 137:0.0066815144766146995 138:0.0 139:0.011135857461024499 140:0.0 141:0.0 142:0.0 143:0.0 144:0.004454342984409799 145:0.0 146:0.0 147:0.015590200445434299 148:0.0 149:0.4209354120267261 150:0.0 151:0.0 152:0.0022271714922048997 153:0.0 154:0.0 155:0.0 156:0.0 157:0.0022271714922048997 158:0.0 159:0.0022271714922048997 160:0.011135857461024499 
1.0 1:0.00904977375565611 2:0.0 3:0.0 4:0.0 5:0.07692307692307693 6:0.0 7:0.0 8:0.011312217194570135 9:0.0 10:0.004524886877828055 11:0.0022624434389140274 12:0.0 13:0.0022624434389140274 14:0.0 15:0.006787330316742082 16:0.0 17:0.0 18:0.0 19:0.0022624434389140274 20:0.004524886877828055 21:0.0 22:0.0 23:0.0022624434389140274 24:0.0 25:0.0 26:0.0 27:0.0 28:0.0 29:0.0 30:0.0 31:0.013574660633484163 32:0.0 33:0.0 34:0.013574660633484163 35:0.0 36:0.0 37:0.0 38:0.0 39:0.00904977375565611 40:0.0022624434389140274 41:0.0 42:0.0 43:0.0 44:0.0022624434389140274 45:0.020361990950226245 46:0.0 47:0.0022624434389140274 48:0.0022624434389140274 49:0.0 50:0.0 51:0.0 52:0.0 53:0.006787330316742082 54:0.0 55:0.0 56:0.0 57:0.004524886877828055 58:0.0 59:0.0 60:0.0 61:0.0 62:0.0022624434389140274 63:0.004524886877828055 64:0.0 65:0.0 66:0.0022624434389140274 67:0.0 68:0.00904977375565611 69:0.006787330316742082 70:0.0 71:0.0 72:0.0 73:0.013574660633484163 74:0.0 75:0.0 76:0.0 77:0.0 78:0.0 79:0.011312217194570135 80:0.006787330316742082 81:0.0 82:0.0 83:0.0 84:0.0022624434389140274 85:0.0 86:0.006787330316742082 87:0.0022624434389140274 88:0.004524886877828055 89:0.0022624434389140274 90:0.0 91:0.033936651583710405 92:0.0 93:0.0 94:0.033936651583710405 95:0.0 96:0.0022624434389140274 97:0.0 98:0.0 99:0.0 100:0.0022624434389140274 101:0.01809954751131222 102:0.0 103:0.0 104:0.0 105:0.0 106:0.0 107:0.0 108:0.0 109:0.0022624434389140274 110:0.00904977375565611 111:0.0 112:0.0 113:0.004524886877828055 114:0.0 115:0.0 116:0.004524886877828055 117:0.011312217194570135 118:0.0 119:0.006787330316742082 120:0.0022624434389140274 121:0.013574660633484163 122:0.0022624434389140274 123:0.0 124:0.0 125:0.0 126:0.0 127:0.0 128:0.0022624434389140274 129:0.0 130:0.0022624434389140274 131:0.004524886877828055 132:0.04072398190045249 133:0.0 134:0.0 135:0.00904977375565611 136:0.006787330316742082 137:0.006787330316742082 138:0.0 139:0.020361990950226245 140:0.0 141:0.0 142:0.0 143:0.0 144:0.00904977375565611 145:0.0 146:0.0 147:0.004524886877828055 148:0.0 149:0.4502262443438914 150:0.0 151:0.0 152:0.0022624434389140274 153:0.0 154:0.0 155:0.0 156:0.0 157:0.006787330316742082 158:0.0 159:0.006787330316742082 160:0.006787330316742082 
1.0 1:0.017777777777777778 2:0.0 3:0.0 4:0.0 5:0.10888888888888888 6:0.0 7:0.0 8:0.006666666666666667 9:0.0 10:0.0022222222222222222 11:0.0 12:0.0 13:0.0022222222222222222 14:0.0 15:0.013333333333333334 16:0.0 17:0.0 18:0.0 19:0.0022222222222222222 20:0.0044444444444444444 21:0.0 22:0.0 23:0.0 24:0.0 25:0.0 26:0.0 27:0.0 28:0.0022222222222222222 29:0.0 30:0.0 31:0.011111111111111112 32:0.0 33:0.0 34:0.011111111111111112 35:0.0044444444444444444 36:0.0 37:0.0 38:0.0044444444444444444 39:0.011111111111111112 40:0.0022222222222222222 41:0.0 42:0.0 43:0.0 44:0.0022222222222222222 45:0.02666666666666667 46:0.0 47:0.0022222222222222222 48:0.0044444444444444444 49:0.0 50:0.0 51:0.0 52:0.0 53:0.006666666666666667 54:0.0 55:0.0 56:0.0 57:0.0022222222222222222 58:0.0 59:0.0 60:0.0 61:0.0 62:0.0044444444444444444 63:0.0022222222222222222 64:0.0 65:0.0 66:0.0022222222222222222 67:0.0 68:0.006666666666666667 69:0.013333333333333334 70:0.0022222222222222222 71:0.0022222222222222222 72:0.0 73:0.017777777777777778 74:0.0 75:0.0 76:0.0 77:0.0044444444444444444 78:0.0 79:0.022222222222222223 80:0.0022222222222222222 81:0.0 82:0.0 83:0.0 84:0.0 85:0.0 86:0.0022222222222222222 87:0.0022222222222222222 88:0.0022222222222222222 89:0.0022222222222222222 90:0.0022222222222222222 91:0.017777777777777778 92:0.0 93:0.0 94:0.042222222222222223 95:0.0 96:0.0 97:0.0 98:0.0 99:0.0 100:0.0022222222222222222 101:0.008888888888888889 102:0.0 103:0.0 104:0.0 105:0.0 106:0.0 107:0.0 108:0.0 109:0.0022222222222222222 110:0.0044444444444444444 111:0.0044444444444444444 112:0.0 113:0.006666666666666667 114:0.0 115:0.0 116:0.0044444444444444444 117:0.006666666666666667 118:0.0022222222222222222 119:0.0044444444444444444 120:0.0022222222222222222 121:0.011111111111111112 122:0.0022222222222222222 123:0.0 124:0.0 125:0.0 126:0.0 127:0.0 128:0.0022222222222222222 129:0.0 130:0.0044444444444444444 131:0.006666666666666667 132:0.042222222222222223 133:0.0 134:0.0 135:0.008888888888888889 136:0.0022222222222222222 137:0.0022222222222222222 138:0.0 139:0.008888888888888889 140:0.0 141:0.0 142:0.0 143:0.0 144:0.0044444444444444444 145:0.0 146:0.0 147:0.013333333333333334 148:0.0 149:0.42444444444444446 150:0.0 151:0.0 152:0.0022222222222222222 153:0.0 154:0.0 155:0.0 156:0.0 157:0.0022222222222222222 158:0.0 159:0.0022222222222222222 160:0.011111111111111112 
1.0 1:0.012195121951219513 2:0.0 3:0.0 4:0.0 5:0.06829268292682927 6:0.0024390243902439024 7:0.0024390243902439024 8:0.007317073170731708 9:0.0 10:0.0024390243902439024 11:0.0 12:0.0 13:0.0024390243902439024 14:0.0 15:0.007317073170731708 16:0.0 17:0.0 18:0.0 19:0.0024390243902439024 20:0.004878048780487805 21:0.0 22:0.0 23:0.0 24:0.0 25:0.0 26:0.0024390243902439024 27:0.0 28:0.0 29:0.0 30:0.0 31:0.014634146341463415 32:0.0 33:0.0 34:0.007317073170731708 35:0.0 36:0.0 37:0.0 38:0.0 39:0.004878048780487805 40:0.0024390243902439024 41:0.0 42:0.0 43:0.0 44:0.0024390243902439024 45:0.02195121951219512 46:0.0 47:0.0024390243902439024 48:0.0024390243902439024 49:0.0 50:0.0 51:0.0 52:0.004878048780487805 53:0.0024390243902439024 54:0.0 55:0.0 56:0.0 57:0.007317073170731708 58:0.0024390243902439024 59:0.0 60:0.0 61:0.0 62:0.0024390243902439024 63:0.0024390243902439024 64:0.0 65:0.0 66:0.0024390243902439024 67:0.0 68:0.004878048780487805 69:0.007317073170731708 70:0.0 71:0.0 72:0.0 73:0.007317073170731708 74:0.0 75:0.0 76:0.0 77:0.0 78:0.0 79:0.00975609756097561 80:0.0024390243902439024 81:0.0 82:0.0 83:0.0 84:0.0 85:0.0 86:0.0024390243902439024 87:0.004878048780487805 88:0.0024390243902439024 89:0.0024390243902439024 90:0.0024390243902439024 91:0.01707317073170732 92:0.0 93:0.0024390243902439024 94:0.01707317073170732 95:0.0 96:0.0024390243902439024 97:0.0 98:0.0 99:0.0 100:0.0 101:0.014634146341463415 102:0.0 103:0.0 104:0.0024390243902439024 105:0.0 106:0.0 107:0.0 108:0.0 109:0.0024390243902439024 110:0.004878048780487805 111:0.0 112:0.0 113:0.0024390243902439024 114:0.0 115:0.0024390243902439024 116:0.004878048780487805 117:0.007317073170731708 118:0.0 119:0.004878048780487805 120:0.0024390243902439024 121:0.014634146341463415 122:0.0024390243902439024 123:0.0 124:0.0 125:0.0 126:0.0024390243902439024 127:0.0 128:0.0024390243902439024 129:0.0 130:0.0 131:0.0024390243902439024 132:0.04390243902439024 133:0.0 134:0.0 135:0.0 136:0.0024390243902439024 137:0.0 138:0.0 139:0.00975609756097561 140:0.0 141:0.0 142:0.0 143:0.0 144:0.004878048780487805 145:0.0 146:0.0 147:0.004878048780487805 148:0.0 149:0.5634146341463414 150:0.0 151:0.0 152:0.0024390243902439024 153:0.0 154:0.0 155:0.0 156:0.0 157:0.0024390243902439024 158:0.0 159:0.0024390243902439024 160:0.007317073170731708 
1.0 1:0.017167381974248927 2:0.0 3:0.0 4:0.0 5:0.10515021459227468 6:0.0 7:0.0 8:0.006437768240343348 9:0.0 10:0.002145922746781116 11:0.0 12:0.0 13:0.002145922746781116 14:0.0 15:0.012875536480686695 16:0.0 17:0.0 18:0.0 19:0.002145922746781116 20:0.004291845493562232 21:0.0 22:0.0 23:0.0 24:0.0 25:0.0 26:0.0 27:0.0 28:0.002145922746781116 29:0.0 30:0.0 31:0.01072961373390558 32:0.0 33:0.0 34:0.01072961373390558 35:0.004291845493562232 36:0.0 37:0.0 38:0.004291845493562232 39:0.01072961373390558 40:0.002145922746781116 41:0.0 42:0.0 43:0.0 44:0.002145922746781116 45:0.02575107296137339 46:0.0 47:0.002145922746781116 48:0.004291845493562232 49:0.0 50:0.0 51:0.0 52:0.0 53:0.006437768240343348 54:0.0 55:0.0 56:0.0 57:0.002145922746781116 58:0.0 59:0.0 60:0.0 61:0.0 62:0.004291845493562232 63:0.002145922746781116 64:0.0 65:0.0 66:0.002145922746781116 67:0.0 68:0.006437768240343348 69:0.012875536480686695 70:0.002145922746781116 71:0.002145922746781116 72:0.0 73:0.017167381974248927 74:0.0 75:0.0 76:0.0 77:0.004291845493562232 78:0.0 79:0.02145922746781116 80:0.002145922746781116 81:0.0 82:0.0 83:0.0 84:0.0 85:0.0 86:0.002145922746781116 87:0.002145922746781116 88:0.002145922746781116 89:0.002145922746781116 90:0.002145922746781116 91:0.017167381974248927 92:0.0 93:0.0 94:0.0407725321888412 95:0.0 96:0.0 97:0.0 98:0.0 99:0.0 100:0.002145922746781116 101:0.008583690987124463 102:0.0 103:0.0 104:0.0 105:0.0 106:0.0 107:0.0 108:0.0 109:0.002145922746781116 110:0.004291845493562232 111:0.004291845493562232 112:0.0 113:0.006437768240343348 114:0.0 115:0.0 116:0.004291845493562232 117:0.006437768240343348 118:0.002145922746781116 119:0.004291845493562232 120:0.002145922746781116 121:0.01072961373390558 122:0.002145922746781116 123:0.0 124:0.0 125:0.0 126:0.0 127:0.0 128:0.002145922746781116 129:0.0 130:0.004291845493562232 131:0.006437768240343348 132:0.0407725321888412 133:0.0 134:0.0 135:0.008583690987124463 136:0.002145922746781116 137:0.002145922746781116 138:0.0 139:0.008583690987124463 140:0.0 141:0.0 142:0.0 143:0.0 144:0.004291845493562232 145:0.0 146:0.0 147:0.012875536480686695 148:0.0 149:0.44420600858369097 150:0.0 151:0.0 152:0.002145922746781116 153:0.0 154:0.0 155:0.0 156:0.0 157:0.002145922746781116 158:0.0 159:0.002145922746781116 160:0.01072961373390558 
1.0 1:0.002785515320334262 2:0.0 3:0.0 4:0.0 5:0.10027855153203342 6:0.0 7:0.0 8:0.0 9:0.0 10:0.0 11:0.002785515320334262 12:0.0 13:0.005571030640668524 14:0.0 15:0.002785515320334262 16:0.0 17:0.0 18:0.0 19:0.0 20:0.0 21:0.0 22:0.0 23:0.0 24:0.0 25:0.0 26:0.0 27:0.0 28:0.0 29:0.0 30:0.0 31:0.002785515320334262 32:0.0 33:0.0 34:0.0 35:0.0 36:0.0 37:0.0 38:0.0 39:0.0 40:0.002785515320334262 41:0.0 42:0.0 43:0.0 44:0.0 45:0.005571030640668524 46:0.0 47:0.0 48:0.005571030640668524 49:0.0 50:0.0 51:0.0 52:0.008356545961002786 53:0.0 54:0.0 55:0.0 56:0.0 57:0.0 58:0.0 59:0.0 60:0.0 61:0.0 62:0.0 63:0.0 64:0.0 65:0.0 66:0.002785515320334262 67:0.0 68:0.005571030640668524 69:0.0 70:0.005571030640668524 71:0.0 72:0.0 73:0.0 74:0.0 75:0.0 76:0.0 77:0.002785515320334262 78:0.0 79:0.0 80:0.0 81:0.0 82:0.0 83:0.0 84:0.0 85:0.0 86:0.0 87:0.002785515320334262 88:0.016713091922005572 89:0.0 90:0.002785515320334262 91:0.0 92:0.0 93:0.0 94:0.011142061281337047 95:0.0 96:0.0 97:0.0 98:0.0 99:0.0 100:0.0 101:0.0 102:0.0 103:0.0 104:0.005571030640668524 105:0.0 106:0.0 107:0.0 108:0.0 109:0.0 110:0.0 111:0.0 112:0.0 113:0.0 114:0.0 115:0.0 116:0.0 117:0.0 118:0.0 119:0.0 120:0.0 121:0.002785515320334262 122:0.0 123:0.002785515320334262 124:0.0 125:0.0 126:0.0 127:0.0 128:0.0 129:0.0 130:0.0 131:0.0 132:0.002785515320334262 133:0.0 134:0.0 135:0.0 136:0.0 137:0.0 138:0.0 139:0.0 140:0.0 141:0.0 142:0.0 143:0.0 144:0.0 145:0.0 146:0.0 147:0.002785515320334262 148:0.0 149:0.7910863509749304 150:0.0 151:0.002785515320334262 152:0.0 153:0.0 154:0.0 155:0.0 156:0.0 157:0.0 158:0.0 159:0.0 160:0.0 
1.0 1:0.00904977375565611 2:0.0 3:0.0 4:0.0 5:0.08823529411764706 6:0.0 7:0.0 8:0.00904977375565611 9:0.0 10:0.004524886877828055 11:0.0 12:0.0 13:0.0022624434389140274 14:0.0 15:0.006787330316742082 16:0.0 17:0.0 18:0.0 19:0.0022624434389140274 20:0.004524886877828055 21:0.0 22:0.0 23:0.0 24:0.0 25:0.0 26:0.0 27:0.0 28:0.0 29:0.0 30:0.0 31:0.013574660633484163 32:0.0 33:0.0 34:0.011312217194570135 35:0.0 36:0.0 37:0.0 38:0.0 39:0.00904977375565611 40:0.004524886877828055 41:0.0 42:0.0 43:0.0 44:0.0022624434389140274 45:0.020361990950226245 46:0.0 47:0.0022624434389140274 48:0.0022624434389140274 49:0.0 50:0.0 51:0.0 52:0.0 53:0.006787330316742082 54:0.0 55:0.0 56:0.0 57:0.006787330316742082 58:0.0 59:0.0 60:0.0 61:0.0022624434389140274 62:0.004524886877828055 63:0.0022624434389140274 64:0.0 65:0.0 66:0.0022624434389140274 67:0.0 68:0.00904977375565611 69:0.006787330316742082 70:0.0 71:0.0022624434389140274 72:0.0 73:0.013574660633484163 74:0.0 75:0.0 76:0.0 77:0.0 78:0.0 79:0.011312217194570135 80:0.00904977375565611 81:0.0 82:0.0 83:0.0 84:0.0 85:0.0 86:0.006787330316742082 87:0.0022624434389140274 88:0.0022624434389140274 89:0.0022624434389140274 90:0.0 91:0.03167420814479638 92:0.0 93:0.0 94:0.03167420814479638 95:0.0 96:0.0022624434389140274 97:0.0 98:0.0 99:0.0 100:0.0022624434389140274 101:0.01809954751131222 102:0.0 103:0.0 104:0.0 105:0.0 106:0.0 107:0.0 108:0.0 109:0.0022624434389140274 110:0.00904977375565611 111:0.0 112:0.0 113:0.004524886877828055 114:0.0 115:0.0022624434389140274 116:0.004524886877828055 117:0.00904977375565611 118:0.0 119:0.006787330316742082 120:0.0022624434389140274 121:0.013574660633484163 122:0.0022624434389140274 123:0.0 124:0.0 125:0.0 126:0.0 127:0.0 128:0.0022624434389140274 129:0.0 130:0.0 131:0.0022624434389140274 132:0.042986425339366516 133:0.0 134:0.0 135:0.006787330316742082 136:0.004524886877828055 137:0.011312217194570135 138:0.0 139:0.020361990950226245 140:0.0 141:0.0 142:0.0 143:0.0 144:0.00904977375565611 145:0.0 146:0.0 147:0.006787330316742082 148:0.0 149:0.4457013574660634 150:0.0 151:0.0 152:0.0022624434389140274 153:0.0 154:0.0 155:0.0 156:0.0 157:0.006787330316742082 158:0.0 159:0.006787330316742082 160:0.006787330316742082 
