svm_type one_class
kernel_type rbf
gamma 0.5
nr_class 2
total_sv 172
rho 167.33358340740205
SV
1.0 1:0.0 2:0.0 3:0.0 4:0.0 5:0.0 6:0.0 7:0.0 8:0.0 9:0.0 10:0.0 11:0.0 12:0.0 13:0.0 14:0.0 15:0.0 16:0.0 17:0.0 18:0.0 19:0.0 20:0.0 21:0.0 22:0.0 23:0.0 24:0.0 25:0.0 26:0.0 27:0.0 28:0.0 29:0.0 30:0.0 31:0.0 32:0.0 33:0.0 34:0.0 35:0.0 36:0.0 37:0.0 38:0.0 39:0.0 40:0.0 41:0.0 42:0.0 43:0.0 44:0.0 45:0.0 46:0.0 47:0.0 48:0.0 49:0.0 50:0.0 51:0.0 52:0.0 53:0.0 54:0.0 55:0.0 56:0.0 57:0.0 58:0.0 59:0.0 60:0.0 61:0.0 62:0.0 63:0.0 64:0.0 65:0.0 66:0.0 67:0.0 68:0.0 69:0.0 70:1.0 71:0.0 72:0.0 73:0.0 74:0.0 75:0.0 76:0.0 77:0.0 78:0.0 79:0.0 80:0.0 81:0.0 82:0.0 83:0.0 84:0.0 85:0.0 86:0.0 87:0.0 88:0.0 89:0.0 90:0.0 91:0.0 92:0.0 93:0.0 94:0.0 95:0.0 96:0.0 97:0.0 98:0.0 99:0.0 100:0.0 101:0.0 102:0.0 103:0.0 104:0.0 105:0.0 106:0.0 107:0.0 108:0.0 109:0.0 110:0.0 111:0.0 112:0.0 113:0.0 114:0.0 115:0.0 116:0.0 117:0.0 118:0.0 119:0.0 120:0.0 121:0.0 122:0.0 123:0.0 124:0.0 125:0.0 126:0.0 127:0.0 128:0.0 129:0.0 130:0.0 131:0.0 132:0.0 133:0.0 134:0.0 135:0.0 136:0.0 137:0.0 138:0.0 139:0.0 140:0.0 141:0.0 142:0.0 143:0.0 144:0.0 145:0.0 146:0.0 147:0.0 148:0.0 149:0.0 150:0.0 151:0.0 152:0.0 153:0.0 154:0.0 155:0.0 156:0.0 157:0.0 158:0.0 159:0.0 160:0.0 
1.0 1:0.0 2:0.0 3:0.0 4:0.0 5:0.0 6:0.0 7:0.0 8:0.0 9:0.0 10:0.0 11:0.0 12:0.0 13:0.0 14:0.0 15:0.0 16:0.0 17:0.0 18:0.0 19:0.0 20:0.0 21:0.0 22:0.0 23:0.0 24:0.0 25:0.0 26:0.0 27:0.0 28:0.0 29:0.0 30:0.0 31:0.0 32:0.0 33:0.0 34:0.0 35:0.0 36:0.0 37:0.0 38:0.0 39:0.0 40:0.0 41:0.0 42:0.0 43:0.0 44:0.0 45:0.0 46:0.0 47:0.0 48:0.0 49:0.0 50:0.0 51:0.0 52:0.0 53:0.0 54:0.0 55:0.0 56:0.0 57:0.0 58:0.0 59:0.0 60:0.0 61:0.0 62:0.0 63:0.0 64:0.0 65:0.0 66:0.0 67:0.0 68:0.0 69:0.0 70:1.0 71:0.0 72:0.0 73:0.0 74:0.0 75:0.0 76:0.0 77:0.0 78:0.0 79:0.0 80:0.0 81:0.0 82:0.0 83:0.0 84:0.0 85:0.0 86:0.0 87:0.0 88:0.0 89:0.0 90:0.0 91:0.0 92:0.0 93:0.0 94:0.0 95:0.0 96:0.0 97:0.0 98:0.0 99:0.0 100:0.0 101:0.0 102:0.0 103:0.0 104:0.0 105:0.0 106:0.0 107:0.0 108:0.0 109:0.0 110:0.0 111:0.0 112:0.0 113:0.0 114:0.0 115:0.0 116:0.0 117:0.0 118:0.0 119:0.0 120:0.0 121:0.0 122:0.0 123:0.0 124:0.0 125:0.0 126:0.0 127:0.0 128:0.0 129:0.0 130:0.0 131:0.0 132:0.0 133:0.0 134:0.0 135:0.0 136:0.0 137:0.0 138:0.0 139:0.0 140:0.0 141:0.0 142:0.0 143:0.0 144:0.0 145:0.0 146:0.0 147:0.0 148:0.0 149:0.0 150:0.0 151:0.0 152:0.0 153:0.0 154:0.0 155:0.0 156:0.0 157:0.0 158:0.0 159:0.0 160:0.0 
1.0 1:0.0 2:0.0 3:0.0 4:0.0 5:0.0 6:0.0 7:0.0 8:0.0 9:0.0 10:0.0 11:0.0 12:0.0 13:0.0 14:0.0 15:0.0 16:0.0 17:0.0 18:0.0 19:0.0 20:0.0 21:0.0 22:0.0 23:0.0 24:0.0 25:0.0 26:0.0 27:0.0 28:0.0 29:0.0 30:0.0 31:0.0 32:0.0 33:0.0 34:0.0 35:0.0 36:0.0 37:0.0 38:0.0 39:0.0 40:0.0 41:0.0 42:0.0 43:0.0 44:0.0 45:0.0 46:0.0 47:0.0 48:0.0 49:0.0 50:0.0 51:0.0 52:0.0 53:0.0 54:0.0 55:0.0 56:0.0 57:0.0 58:0.0 59:0.0 60:0.0 61:0.0 62:0.0 63:0.0 64:0.0 65:0.0 66:0.0 67:0.0 68:0.0 69:0.0 70:1.0 71:0.0 72:0.0 73:0.0 74:0.0 75:0.0 76:0.0 77:0.0 78:0.0 79:0.0 80:0.0 81:0.0 82:0.0 83:0.0 84:0.0 85:0.0 86:0.0 87:0.0 88:0.0 89:0.0 90:0.0 91:0.0 92:0.0 93:0.0 94:0.0 95:0.0 96:0.0 97:0.0 98:0.0 99:0.0 100:0.0 101:0.0 102:0.0 103:0.0 104:0.0 105:0.0 106:0.0 107:0.0 108:0.0 109:0.0 110:0.0 111:0.0 112:0.0 113:0.0 114:0.0 115:0.0 116:0.0 117:0.0 118:0.0 119:0.0 120:0.0 121:0.0 122:0.0 123:0.0 124:0.0 125:0.0 126:0.0 127:0.0 128:0.0 129:0.0 130:0.0 131:0.0 132:0.0 133:0.0 134:0.0 135:0.0 136:0.0 137:0.0 138:0.0 139:0.0 140:0.0 141:0.0 142:0.0 143:0.0 144:0.0 145:0.0 146:0.0 147:0.0 148:0.0 149:0.0 150:0.0 151:0.0 152:0.0 153:0.0 154:0.0 155:0.0 156:0.0 157:0.0 158:0.0 159:0.0 160:0.0 
1.0 1:0.0 2:0.0 3:0.0 4:0.0 5:0.0 6:0.0 7:0.0 8:0.0 9:0.0 10:0.0 11:0.0 12:0.0 13:0.0 14:0.0 15:0.0 16:0.0 17:0.0 18:0.0 19:0.0 20:0.0 21:0.0 22:0.0 23:0.0 24:0.0 25:0.0 26:0.0 27:0.0 28:0.0 29:0.0 30:0.0 31:0.0 32:0.0 33:0.0 34:0.0 35:0.0 36:0.0 37:0.0 38:0.0 39:0.0 40:0.0 41:0.0 42:0.0 43:0.0 44:0.0 45:0.0 46:0.0 47:0.0 48:0.0 49:0.0 50:0.0 51:0.0 52:0.0 53:0.0 54:0.0 55:0.0 56:0.0 57:0.0 58:0.0 59:0.0 60:0.0 61:0.0 62:0.0 63:0.0 64:0.0 65:0.0 66:0.0 67:0.0 68:0.0 69:0.0 70:1.0 71:0.0 72:0.0 73:0.0 74:0.0 75:0.0 76:0.0 77:0.0 78:0.0 79:0.0 80:0.0 81:0.0 82:0.0 83:0.0 84:0.0 85:0.0 86:0.0 87:0.0 88:0.0 89:0.0 90:0.0 91:0.0 92:0.0 93:0.0 94:0.0 95:0.0 96:0.0 97:0.0 98:0.0 99:0.0 100:0.0 101:0.0 102:0.0 103:0.0 104:0.0 105:0.0 106:0.0 107:0.0 108:0.0 109:0.0 110:0.0 111:0.0 112:0.0 113:0.0 114:0.0 115:0.0 116:0.0 117:0.0 118:0.0 119:0.0 120:0.0 121:0.0 122:0.0 123:0.0 124:0.0 125:0.0 126:0.0 127:0.0 128:0.0 129:0.0 130:0.0 131:0.0 132:0.0 133:0.0 134:0.0 135:0.0 136:0.0 137:0.0 138:0.0 139:0.0 140:0.0 141:0.0 142:0.0 143:0.0 144:0.0 145:0.0 146:0.0 147:0.0 148:0.0 149:0.0 150:0.0 151:0.0 152:0.0 153:0.0 154:0.0 155:0.0 156:0.0 157:0.0 158:0.0 159:0.0 160:0.0 
1.0 1:0.0 2:0.0 3:0.0 4:0.0 5:0.0 6:0.0 7:0.0 8:0.0 9:0.0 10:0.0 11:0.0 12:0.0 13:0.0 14:0.0 15:0.0 16:0.0 17:0.0 18:0.0 19:0.0 20:0.0 21:0.0 22:0.0 23:0.0 24:0.0 25:0.0 26:0.0 27:0.0 28:0.0 29:0.0 30:0.0 31:0.0 32:0.0 33:0.0 34:0.0 35:0.0 36:0.0 37:0.0 38:0.0 39:0.0 40:0.0 41:0.0 42:0.0 43:0.0 44:0.0 45:0.0 46:0.0 47:0.0 48:0.0 49:0.0 50:0.0 51:0.0 52:0.0 53:0.0 54:0.0 55:0.0 56:0.0 57:0.0 58:0.0 59:0.0 60:0.0 61:0.0 62:0.0 63:0.0 64:0.0 65:0.0 66:0.0 67:0.0 68:0.0 69:0.0 70:1.0 71:0.0 72:0.0 73:0.0 74:0.0 75:0.0 76:0.0 77:0.0 78:0.0 79:0.0 80:0.0 81:0.0 82:0.0 83:0.0 84:0.0 85:0.0 86:0.0 87:0.0 88:0.0 89:0.0 90:0.0 91:0.0 92:0.0 93:0.0 94:0.0 95:0.0 96:0.0 97:0.0 98:0.0 99:0.0 100:0.0 101:0.0 102:0.0 103:0.0 104:0.0 105:0.0 106:0.0 107:0.0 108:0.0 109:0.0 110:0.0 111:0.0 112:0.0 113:0.0 114:0.0 115:0.0 116:0.0 117:0.0 118:0.0 119:0.0 120:0.0 121:0.0 122:0.0 123:0.0 124:0.0 125:0.0 126:0.0 127:0.0 128:0.0 129:0.0 130:0.0 131:0.0 132:0.0 133:0.0 134:0.0 135:0.0 136:0.0 137:0.0 138:0.0 139:0.0 140:0.0 141:0.0 142:0.0 143:0.0 144:0.0 145:0.0 146:0.0 147:0.0 148:0.0 149:0.0 150:0.0 151:0.0 152:0.0 153:0.0 154:0.0 155:0.0 156:0.0 157:0.0 158:0.0 159:0.0 160:0.0 
1.0 1:0.0 2:0.0 3:0.0 4:0.0 5:0.0 6:0.0 7:0.0 8:0.0 9:0.0 10:0.0 11:0.0 12:0.0 13:0.0 14:0.0 15:0.0 16:0.0 17:0.0 18:0.0 19:0.0 20:0.0 21:0.0 22:0.0 23:0.0 24:0.0 25:0.0 26:0.0 27:0.0 28:0.0 29:0.0 30:0.0 31:0.0 32:0.0 33:0.0 34:0.0 35:0.0 36:0.0 37:0.0 38:0.0 39:0.0 40:0.0 41:0.0 42:0.0 43:0.0 44:0.0 45:0.0 46:0.0 47:0.0 48:0.0 49:0.0 50:0.0 51:0.0 52:0.0 53:0.0 54:0.0 55:0.0 56:0.0 57:0.0 58:0.0 59:0.0 60:0.0 61:0.0 62:0.0 63:0.0 64:0.0 65:0.0 66:0.0 67:0.0 68:0.0 69:0.0 70:1.0 71:0.0 72:0.0 73:0.0 74:0.0 75:0.0 76:0.0 77:0.0 78:0.0 79:0.0 80:0.0 81:0.0 82:0.0 83:0.0 84:0.0 85:0.0 86:0.0 87:0.0 88:0.0 89:0.0 90:0.0 91:0.0 92:0.0 93:0.0 94:0.0 95:0.0 96:0.0 97:0.0 98:0.0 99:0.0 100:0.0 101:0.0 102:0.0 103:0.0 104:0.0 105:0.0 106:0.0 107:0.0 108:0.0 109:0.0 110:0.0 111:0.0 112:0.0 113:0.0 114:0.0 115:0.0 116:0.0 117:0.0 118:0.0 119:0.0 120:0.0 121:0.0 122:0.0 123:0.0 124:0.0 125:0.0 126:0.0 127:0.0 128:0.0 129:0.0 130:0.0 131:0.0 132:0.0 133:0.0 134:0.0 135:0.0 136:0.0 137:0.0 138:0.0 139:0.0 140:0.0 141:0.0 142:0.0 143:0.0 144:0.0 145:0.0 146:0.0 147:0.0 148:0.0 149:0.0 150:0.0 151:0.0 152:0.0 153:0.0 154:0.0 155:0.0 156:0.0 157:0.0 158:0.0 159:0.0 160:0.0 
1.0 1:0.0 2:0.0 3:0.0 4:0.0 5:0.0 6:0.0 7:0.0 8:0.0 9:0.0 10:0.0 11:0.0 12:0.0 13:0.0 14:0.0 15:0.0 16:0.0 17:0.0 18:0.0 19:0.0 20:0.0 21:0.0 22:0.0 23:0.0 24:0.0 25:0.0 26:0.0 27:0.0 28:0.0 29:0.0 30:0.0 31:0.0 32:0.0 33:0.0 34:0.0 35:0.0 36:0.0 37:0.0 38:0.0 39:0.0 40:0.0 41:0.0 42:0.0 43:0.0 44:0.0 45:0.0 46:0.0 47:0.0 48:0.0 49:0.0 50:0.0 51:0.0 52:0.0 53:0.0 54:0.0 55:0.0 56:0.0 57:0.0 58:0.0 59:0.0 60:0.0 61:0.0 62:0.0 63:0.0 64:0.0 65:0.0 66:0.0 67:0.0 68:0.0 69:0.0 70:1.0 71:0.0 72:0.0 73:0.0 74:0.0 75:0.0 76:0.0 77:0.0 78:0.0 79:0.0 80:0.0 81:0.0 82:0.0 83:0.0 84:0.0 85:0.0 86:0.0 87:0.0 88:0.0 89:0.0 90:0.0 91:0.0 92:0.0 93:0.0 94:0.0 95:0.0 96:0.0 97:0.0 98:0.0 99:0.0 100:0.0 101:0.0 102:0.0 103:0.0 104:0.0 105:0.0 106:0.0 107:0.0 108:0.0 109:0.0 110:0.0 111:0.0 112:0.0 113:0.0 114:0.0 115:0.0 116:0.0 117:0.0 118:0.0 119:0.0 120:0.0 121:0.0 122:0.0 123:0.0 124:0.0 125:0.0 126:0.0 127:0.0 128:0.0 129:0.0 130:0.0 131:0.0 132:0.0 133:0.0 134:0.0 135:0.0 136:0.0 137:0.0 138:0.0 139:0.0 140:0.0 141:0.0 142:0.0 143:0.0 144:0.0 145:0.0 146:0.0 147:0.0 148:0.0 149:0.0 150:0.0 151:0.0 152:0.0 153:0.0 154:0.0 155:0.0 156:0.0 157:0.0 158:0.0 159:0.0 160:0.0 
1.0 1:0.0 2:0.0 3:0.0 4:0.0 5:0.0 6:0.0 7:0.0 8:0.0 9:0.0 10:0.0 11:0.0 12:0.0 13:0.0 14:0.0 15:0.0 16:0.0 17:0.0 18:0.0 19:0.0 20:0.0 21:0.0 22:0.0 23:0.0 24:0.0 25:0.0 26:0.0 27:0.0 28:0.0 29:0.0 30:0.0 31:0.0 32:0.0 33:0.0 34:0.0 35:0.0 36:0.0 37:0.0 38:0.0 39:0.0 40:0.0 41:0.0 42:0.0 43:0.0 44:0.0 45:0.0 46:0.0 47:0.0 48:0.0 49:0.0 50:0.0 51:0.0 52:0.0 53:0.0 54:0.0 55:0.0 56:0.0 57:0.0 58:0.0 59:0.0 60:0.0 61:0.0 62:0.0 63:0.0 64:0.0 65:0.0 66:0.0 67:0.0 68:0.0 69:0.0 70:1.0 71:0.0 72:0.0 73:0.0 74:0.0 75:0.0 76:0.0 77:0.0 78:0.0 79:0.0 80:0.0 81:0.0 82:0.0 83:0.0 84:0.0 85:0.0 86:0.0 87:0.0 88:0.0 89:0.0 90:0.0 91:0.0 92:0.0 93:0.0 94:0.0 95:0.0 96:0.0 97:0.0 98:0.0 99:0.0 100:0.0 101:0.0 102:0.0 103:0.0 104:0.0 105:0.0 106:0.0 107:0.0 108:0.0 109:0.0 110:0.0 111:0.0 112:0.0 113:0.0 114:0.0 115:0.0 116:0.0 117:0.0 118:0.0 119:0.0 120:0.0 121:0.0 122:0.0 123:0.0 124:0.0 125:0.0 126:0.0 127:0.0 128:0.0 129:0.0 130:0.0 131:0.0 132:0.0 133:0.0 134:0.0 135:0.0 136:0.0 137:0.0 138:0.0 139:0.0 140:0.0 141:0.0 142:0.0 143:0.0 144:0.0 145:0.0 146:0.0 147:0.0 148:0.0 149:0.0 150:0.0 151:0.0 152:0.0 153:0.0 154:0.0 155:0.0 156:0.0 157:0.0 158:0.0 159:0.0 160:0.0 
1.0 1:0.0 2:0.0 3:0.0 4:0.0 5:0.0 6:0.0 7:0.0 8:0.0 9:0.0 10:0.0 11:0.0 12:0.0 13:0.0 14:0.0 15:0.0 16:0.0 17:0.0 18:0.0 19:0.0 20:0.0 21:0.0 22:0.0 23:0.0 24:0.0 25:0.0 26:0.0 27:0.0 28:0.0 29:0.0 30:0.0 31:0.0 32:0.0 33:0.0 34:0.0 35:0.0 36:0.0 37:0.0 38:0.0 39:0.0 40:0.0 41:0.0 42:0.0 43:0.0 44:0.0 45:0.0 46:0.0 47:0.0 48:0.0 49:0.0 50:0.0 51:0.0 52:0.0 53:0.0 54:0.0 55:0.0 56:0.0 57:0.0 58:0.0 59:0.0 60:0.0 61:0.0 62:0.0 63:0.0 64:0.0 65:0.0 66:0.0 67:0.0 68:0.0 69:0.0 70:1.0 71:0.0 72:0.0 73:0.0 74:0.0 75:0.0 76:0.0 77:0.0 78:0.0 79:0.0 80:0.0 81:0.0 82:0.0 83:0.0 84:0.0 85:0.0 86:0.0 87:0.0 88:0.0 89:0.0 90:0.0 91:0.0 92:0.0 93:0.0 94:0.0 95:0.0 96:0.0 97:0.0 98:0.0 99:0.0 100:0.0 101:0.0 102:0.0 103:0.0 104:0.0 105:0.0 106:0.0 107:0.0 108:0.0 109:0.0 110:0.0 111:0.0 112:0.0 113:0.0 114:0.0 115:0.0 116:0.0 117:0.0 118:0.0 119:0.0 120:0.0 121:0.0 122:0.0 123:0.0 124:0.0 125:0.0 126:0.0 127:0.0 128:0.0 129:0.0 130:0.0 131:0.0 132:0.0 133:0.0 134:0.0 135:0.0 136:0.0 137:0.0 138:0.0 139:0.0 140:0.0 141:0.0 142:0.0 143:0.0 144:0.0 145:0.0 146:0.0 147:0.0 148:0.0 149:0.0 150:0.0 151:0.0 152:0.0 153:0.0 154:0.0 155:0.0 156:0.0 157:0.0 158:0.0 159:0.0 160:0.0 
1.0 1:0.0 2:0.0 3:0.0 4:0.0 5:0.0 6:0.0 7:0.0 8:0.0 9:0.0 10:0.0 11:0.0 12:0.0 13:0.0 14:0.0 15:0.0 16:0.0 17:0.0 18:0.0 19:0.0 20:0.0 21:0.0 22:0.0 23:0.0 24:0.0 25:0.0 26:0.0 27:0.0 28:0.0 29:0.0 30:0.0 31:0.0 32:0.0 33:0.0 34:0.0 35:0.0 36:0.0 37:0.0 38:0.0 39:0.0 40:0.0 41:0.0 42:0.0 43:0.0 44:0.0 45:0.0 46:0.0 47:0.0 48:0.0 49:0.0 50:0.0 51:0.0 52:0.0 53:0.0 54:0.0 55:0.0 56:0.0 57:0.0 58:0.0 59:0.0 60:0.0 61:0.0 62:0.0 63:0.0 64:0.0 65:0.0 66:0.0 67:0.0 68:0.0 69:0.0 70:1.0 71:0.0 72:0.0 73:0.0 74:0.0 75:0.0 76:0.0 77:0.0 78:0.0 79:0.0 80:0.0 81:0.0 82:0.0 83:0.0 84:0.0 85:0.0 86:0.0 87:0.0 88:0.0 89:0.0 90:0.0 91:0.0 92:0.0 93:0.0 94:0.0 95:0.0 96:0.0 97:0.0 98:0.0 99:0.0 100:0.0 101:0.0 102:0.0 103:0.0 104:0.0 105:0.0 106:0.0 107:0.0 108:0.0 109:0.0 110:0.0 111:0.0 112:0.0 113:0.0 114:0.0 115:0.0 116:0.0 117:0.0 118:0.0 119:0.0 120:0.0 121:0.0 122:0.0 123:0.0 124:0.0 125:0.0 126:0.0 127:0.0 128:0.0 129:0.0 130:0.0 131:0.0 132:0.0 133:0.0 134:0.0 135:0.0 136:0.0 137:0.0 138:0.0 139:0.0 140:0.0 141:0.0 142:0.0 143:0.0 144:0.0 145:0.0 146:0.0 147:0.0 148:0.0 149:0.0 150:0.0 151:0.0 152:0.0 153:0.0 154:0.0 155:0.0 156:0.0 157:0.0 158:0.0 159:0.0 160:0.0 
1.0 1:0.0 2:0.0 3:0.0 4:0.0 5:0.0 6:0.0 7:0.0 8:0.0 9:0.0 10:0.0 11:0.0 12:0.0 13:0.0 14:0.0 15:0.0 16:0.0 17:0.0 18:0.0 19:0.0 20:0.0 21:0.0 22:0.0 23:0.0 24:0.0 25:0.0 26:0.0 27:0.0 28:0.0 29:0.0 30:0.0 31:0.0 32:0.0 33:0.0 34:0.0 35:0.0 36:0.0 37:0.0 38:0.0 39:0.0 40:0.0 41:0.0 42:0.0 43:0.0 44:0.0 45:0.0 46:0.0 47:0.0 48:0.0 49:0.0 50:0.0 51:0.0 52:0.0 53:0.0 54:0.0 55:0.0 56:0.0 57:0.0 58:0.0 59:0.0 60:0.0 61:0.0 62:0.0 63:0.0 64:0.0 65:0.0 66:0.0 67:0.0 68:0.0 69:0.0 70:1.0 71:0.0 72:0.0 73:0.0 74:0.0 75:0.0 76:0.0 77:0.0 78:0.0 79:0.0 80:0.0 81:0.0 82:0.0 83:0.0 84:0.0 85:0.0 86:0.0 87:0.0 88:0.0 89:0.0 90:0.0 91:0.0 92:0.0 93:0.0 94:0.0 95:0.0 96:0.0 97:0.0 98:0.0 99:0.0 100:0.0 101:0.0 102:0.0 103:0.0 104:0.0 105:0.0 106:0.0 107:0.0 108:0.0 109:0.0 110:0.0 111:0.0 112:0.0 113:0.0 114:0.0 115:0.0 116:0.0 117:0.0 118:0.0 119:0.0 120:0.0 121:0.0 122:0.0 123:0.0 124:0.0 125:0.0 126:0.0 127:0.0 128:0.0 129:0.0 130:0.0 131:0.0 132:0.0 133:0.0 134:0.0 135:0.0 136:0.0 137:0.0 138:0.0 139:0.0 140:0.0 141:0.0 142:0.0 143:0.0 144:0.0 145:0.0 146:0.0 147:0.0 148:0.0 149:0.0 150:0.0 151:0.0 152:0.0 153:0.0 154:0.0 155:0.0 156:0.0 157:0.0 158:0.0 159:0.0 160:0.0 
1.0 1:0.0 2:0.0 3:0.0 4:0.0 5:0.0 6:0.0 7:0.0 8:0.0 9:0.0 10:0.0 11:0.0 12:0.0 13:0.0 14:0.0 15:0.0 16:0.0 17:0.0 18:0.0 19:0.0 20:0.0 21:0.0 22:0.0 23:0.0 24:0.0 25:0.0 26:0.0 27:0.0 28:0.0 29:0.0 30:0.0 31:0.0 32:0.0 33:0.0 34:0.0 35:0.0 36:0.0 37:0.0 38:0.0 39:0.0 40:0.0 41:0.0 42:0.0 43:0.0 44:0.0 45:0.0 46:0.0 47:0.0 48:0.0 49:0.0 50:0.0 51:0.0 52:0.0 53:0.0 54:0.0 55:0.0 56:0.0 57:0.0 58:0.0 59:0.0 60:0.0 61:0.0 62:0.0 63:0.0 64:0.0 65:0.0 66:0.0 67:0.0 68:0.0 69:0.0 70:1.0 71:0.0 72:0.0 73:0.0 74:0.0 75:0.0 76:0.0 77:0.0 78:0.0 79:0.0 80:0.0 81:0.0 82:0.0 83:0.0 84:0.0 85:0.0 86:0.0 87:0.0 88:0.0 89:0.0 90:0.0 91:0.0 92:0.0 93:0.0 94:0.0 95:0.0 96:0.0 97:0.0 98:0.0 99:0.0 100:0.0 101:0.0 102:0.0 103:0.0 104:0.0 105:0.0 106:0.0 107:0.0 108:0.0 109:0.0 110:0.0 111:0.0 112:0.0 113:0.0 114:0.0 115:0.0 116:0.0 117:0.0 118:0.0 119:0.0 120:0.0 121:0.0 122:0.0 123:0.0 124:0.0 125:0.0 126:0.0 127:0.0 128:0.0 129:0.0 130:0.0 131:0.0 132:0.0 133:0.0 134:0.0 135:0.0 136:0.0 137:0.0 138:0.0 139:0.0 140:0.0 141:0.0 142:0.0 143:0.0 144:0.0 145:0.0 146:0.0 147:0.0 148:0.0 149:0.0 150:0.0 151:0.0 152:0.0 153:0.0 154:0.0 155:0.0 156:0.0 157:0.0 158:0.0 159:0.0 160:0.0 
1.0 1:0.0 2:0.0 3:0.0 4:0.0 5:0.0 6:0.0 7:0.0 8:0.0 9:0.0 10:0.0 11:0.0 12:0.0 13:0.0 14:0.0 15:0.0 16:0.0 17:0.0 18:0.0 19:0.0 20:0.0 21:0.0 22:0.0 23:0.0 24:0.0 25:0.0 26:0.0 27:0.0 28:0.0 29:0.0 30:0.0 31:0.0 32:0.0 33:0.0 34:0.0 35:0.0 36:0.0 37:0.0 38:0.0 39:0.0 40:0.0 41:0.0 42:0.0 43:0.0 44:0.0 45:0.0 46:0.0 47:0.0 48:0.0 49:0.0 50:0.0 51:0.0 52:0.0 53:0.0 54:0.0 55:0.0 56:0.0 57:0.0 58:0.0 59:0.0 60:0.0 61:0.0 62:0.0 63:0.0 64:0.0 65:0.0 66:0.0 67:0.0 68:0.0 69:0.0 70:1.0 71:0.0 72:0.0 73:0.0 74:0.0 75:0.0 76:0.0 77:0.0 78:0.0 79:0.0 80:0.0 81:0.0 82:0.0 83:0.0 84:0.0 85:0.0 86:0.0 87:0.0 88:0.0 89:0.0 90:0.0 91:0.0 92:0.0 93:0.0 94:0.0 95:0.0 96:0.0 97:0.0 98:0.0 99:0.0 100:0.0 101:0.0 102:0.0 103:0.0 104:0.0 105:0.0 106:0.0 107:0.0 108:0.0 109:0.0 110:0.0 111:0.0 112:0.0 113:0.0 114:0.0 115:0.0 116:0.0 117:0.0 118:0.0 119:0.0 120:0.0 121:0.0 122:0.0 123:0.0 124:0.0 125:0.0 126:0.0 127:0.0 128:0.0 129:0.0 130:0.0 131:0.0 132:0.0 133:0.0 134:0.0 135:0.0 136:0.0 137:0.0 138:0.0 139:0.0 140:0.0 141:0.0 142:0.0 143:0.0 144:0.0 145:0.0 146:0.0 147:0.0 148:0.0 149:0.0 150:0.0 151:0.0 152:0.0 153:0.0 154:0.0 155:0.0 156:0.0 157:0.0 158:0.0 159:0.0 160:0.0 
1.0 1:0.0 2:0.0 3:0.0 4:0.0 5:0.0 6:0.0 7:0.0 8:0.0 9:0.0 10:0.0 11:0.0 12:0.0 13:0.0 14:0.0 15:0.0 16:0.0 17:0.0 18:0.0 19:0.0 20:0.0 21:0.0 22:0.0 23:0.0 24:0.0 25:0.0 26:0.0 27:0.0 28:0.0 29:0.0 30:0.0 31:0.0 32:0.0 33:0.0 34:0.0 35:0.0 36:0.0 37:0.0 38:0.0 39:0.0 40:0.0 41:0.0 42:0.0 43:0.0 44:0.0 45:0.0 46:0.0 47:0.0 48:0.0 49:0.0 50:0.0 51:0.0 52:0.0 53:0.0 54:0.0 55:0.0 56:0.0 57:0.0 58:0.0 59:0.0 60:0.0 61:0.0 62:0.0 63:0.0 64:0.0 65:0.0 66:0.0 67:0.0 68:0.0 69:0.0 70:1.0 71:0.0 72:0.0 73:0.0 74:0.0 75:0.0 76:0.0 77:0.0 78:0.0 79:0.0 80:0.0 81:0.0 82:0.0 83:0.0 84:0.0 85:0.0 86:0.0 87:0.0 88:0.0 89:0.0 90:0.0 91:0.0 92:0.0 93:0.0 94:0.0 95:0.0 96:0.0 97:0.0 98:0.0 99:0.0 100:0.0 101:0.0 102:0.0 103:0.0 104:0.0 105:0.0 106:0.0 107:0.0 108:0.0 109:0.0 110:0.0 111:0.0 112:0.0 113:0.0 114:0.0 115:0.0 116:0.0 117:0.0 118:0.0 119:0.0 120:0.0 121:0.0 122:0.0 123:0.0 124:0.0 125:0.0 126:0.0 127:0.0 128:0.0 129:0.0 130:0.0 131:0.0 132:0.0 133:0.0 134:0.0 135:0.0 136:0.0 137:0.0 138:0.0 139:0.0 140:0.0 141:0.0 142:0.0 143:0.0 144:0.0 145:0.0 146:0.0 147:0.0 148:0.0 149:0.0 150:0.0 151:0.0 152:0.0 153:0.0 154:0.0 155:0.0 156:0.0 157:0.0 158:0.0 159:0.0 160:0.0 
1.0 1:0.0 2:0.0 3:0.0 4:0.0 5:0.0 6:0.0 7:0.0 8:0.0 9:0.0 10:0.0 11:0.0 12:0.0 13:0.0 14:0.0 15:0.0 16:0.0 17:0.0 18:0.0 19:0.0 20:0.0 21:0.0 22:0.0 23:0.0 24:0.0 25:0.0 26:0.0 27:0.0 28:0.0 29:0.0 30:0.0 31:0.0 32:0.0 33:0.0 34:0.0 35:0.0 36:0.0 37:0.0 38:0.0 39:0.0 40:0.0 41:0.0 42:0.0 43:0.0 44:0.0 45:0.0 46:0.0 47:0.0 48:0.0 49:0.0 50:0.0 51:0.0 52:0.0 53:0.0 54:0.0 55:0.0 56:0.0 57:0.0 58:0.0 59:0.0 60:0.0 61:0.0 62:0.0 63:0.0 64:0.0 65:0.0 66:0.0 67:0.0 68:0.0 69:0.0 70:1.0 71:0.0 72:0.0 73:0.0 74:0.0 75:0.0 76:0.0 77:0.0 78:0.0 79:0.0 80:0.0 81:0.0 82:0.0 83:0.0 84:0.0 85:0.0 86:0.0 87:0.0 88:0.0 89:0.0 90:0.0 91:0.0 92:0.0 93:0.0 94:0.0 95:0.0 96:0.0 97:0.0 98:0.0 99:0.0 100:0.0 101:0.0 102:0.0 103:0.0 104:0.0 105:0.0 106:0.0 107:0.0 108:0.0 109:0.0 110:0.0 111:0.0 112:0.0 113:0.0 114:0.0 115:0.0 116:0.0 117:0.0 118:0.0 119:0.0 120:0.0 121:0.0 122:0.0 123:0.0 124:0.0 125:0.0 126:0.0 127:0.0 128:0.0 129:0.0 130:0.0 131:0.0 132:0.0 133:0.0 134:0.0 135:0.0 136:0.0 137:0.0 138:0.0 139:0.0 140:0.0 141:0.0 142:0.0 143:0.0 144:0.0 145:0.0 146:0.0 147:0.0 148:0.0 149:0.0 150:0.0 151:0.0 152:0.0 153:0.0 154:0.0 155:0.0 156:0.0 157:0.0 158:0.0 159:0.0 160:0.0 
1.0 1:0.0 2:0.0 3:0.0 4:0.0 5:0.0 6:0.0 7:0.0 8:0.0 9:0.0 10:0.0 11:0.0 12:0.0 13:0.0 14:0.0 15:0.0 16:0.0 17:0.0 18:0.0 19:0.0 20:0.0 21:0.0 22:0.0 23:0.0 24:0.0 25:0.0 26:0.0 27:0.0 28:0.0 29:0.0 30:0.0 31:0.0 32:0.0 33:0.0 34:0.0 35:0.0 36:0.0 37:0.0 38:0.0 39:0.0 40:0.0 41:0.0 42:0.0 43:0.0 44:0.0 45:0.0 46:0.0 47:0.0 48:0.0 49:0.0 50:0.0 51:0.0 52:0.0 53:0.0 54:0.0 55:0.0 56:0.0 57:0.0 58:0.0 59:0.0 60:0.0 61:0.0 62:0.0 63:0.0 64:0.0 65:0.0 66:0.0 67:0.0 68:0.0 69:0.0 70:1.0 71:0.0 72:0.0 73:0.0 74:0.0 75:0.0 76:0.0 77:0.0 78:0.0 79:0.0 80:0.0 81:0.0 82:0.0 83:0.0 84:0.0 85:0.0 86:0.0 87:0.0 88:0.0 89:0.0 90:0.0 91:0.0 92:0.0 93:0.0 94:0.0 95:0.0 96:0.0 97:0.0 98:0.0 99:0.0 100:0.0 101:0.0 102:0.0 103:0.0 104:0.0 105:0.0 106:0.0 107:0.0 108:0.0 109:0.0 110:0.0 111:0.0 112:0.0 113:0.0 114:0.0 115:0.0 116:0.0 117:0.0 118:0.0 119:0.0 120:0.0 121:0.0 122:0.0 123:0.0 124:0.0 125:0.0 126:0.0 127:0.0 128:0.0 129:0.0 130:0.0 131:0.0 132:0.0 133:0.0 134:0.0 135:0.0 136:0.0 137:0.0 138:0.0 139:0.0 140:0.0 141:0.0 142:0.0 143:0.0 144:0.0 145:0.0 146:0.0 147:0.0 148:0.0 149:0.0 150:0.0 151:0.0 152:0.0 153:0.0 154:0.0 155:0.0 156:0.0 157:0.0 158:0.0 159:0.0 160:0.0 
1.0 1:0.0 2:0.0 3:0.0 4:0.0 5:0.0 6:0.0 7:0.0 8:0.0 9:0.0 10:0.0 11:0.0 12:0.0 13:0.0 14:0.0 15:0.0 16:0.0 17:0.0 18:0.0 19:0.0 20:0.0 21:0.0 22:0.0 23:0.0 24:0.0 25:0.0 26:0.0 27:0.0 28:0.0 29:0.0 30:0.0 31:0.0 32:0.0 33:0.0 34:0.0 35:0.0 36:0.0 37:0.0 38:0.0 39:0.0 40:0.0 41:0.0 42:0.0 43:0.0 44:0.0 45:0.0 46:0.0 47:0.0 48:0.0 49:0.0 50:0.0 51:0.0 52:0.0 53:0.0 54:0.0 55:0.0 56:0.0 57:0.0 58:0.0 59:0.0 60:0.0 61:0.0 62:0.0 63:0.0 64:0.0 65:0.0 66:0.0 67:0.0 68:0.0 69:0.0 70:1.0 71:0.0 72:0.0 73:0.0 74:0.0 75:0.0 76:0.0 77:0.0 78:0.0 79:0.0 80:0.0 81:0.0 82:0.0 83:0.0 84:0.0 85:0.0 86:0.0 87:0.0 88:0.0 89:0.0 90:0.0 91:0.0 92:0.0 93:0.0 94:0.0 95:0.0 96:0.0 97:0.0 98:0.0 99:0.0 100:0.0 101:0.0 102:0.0 103:0.0 104:0.0 105:0.0 106:0.0 107:0.0 108:0.0 109:0.0 110:0.0 111:0.0 112:0.0 113:0.0 114:0.0 115:0.0 116:0.0 117:0.0 118:0.0 119:0.0 120:0.0 121:0.0 122:0.0 123:0.0 124:0.0 125:0.0 126:0.0 127:0.0 128:0.0 129:0.0 130:0.0 131:0.0 132:0.0 133:0.0 134:0.0 135:0.0 136:0.0 137:0.0 138:0.0 139:0.0 140:0.0 141:0.0 142:0.0 143:0.0 144:0.0 145:0.0 146:0.0 147:0.0 148:0.0 149:0.0 150:0.0 151:0.0 152:0.0 153:0.0 154:0.0 155:0.0 156:0.0 157:0.0 158:0.0 159:0.0 160:0.0 
1.0 1:0.0 2:0.0 3:0.0 4:0.0 5:0.0 6:0.0 7:0.0 8:0.0 9:0.0 10:0.0 11:0.0 12:0.0 13:0.0 14:0.0 15:0.0 16:0.0 17:0.0 18:0.0 19:0.0 20:0.0 21:0.0 22:0.0 23:0.0 24:0.0 25:0.0 26:0.0 27:0.0 28:0.0 29:0.0 30:0.0 31:0.0 32:0.0 33:0.0 34:0.0 35:0.0 36:0.0 37:0.0 38:0.0 39:0.0 40:0.0 41:0.0 42:0.0 43:0.0 44:0.0 45:0.0 46:0.0 47:0.0 48:0.0 49:0.0 50:0.0 51:0.0 52:0.0 53:0.0 54:0.0 55:0.0 56:0.0 57:0.0 58:0.0 59:0.0 60:0.0 61:0.0 62:0.0 63:0.0 64:0.0 65:0.0 66:0.0 67:0.0 68:0.0 69:0.0 70:1.0 71:0.0 72:0.0 73:0.0 74:0.0 75:0.0 76:0.0 77:0.0 78:0.0 79:0.0 80:0.0 81:0.0 82:0.0 83:0.0 84:0.0 85:0.0 86:0.0 87:0.0 88:0.0 89:0.0 90:0.0 91:0.0 92:0.0 93:0.0 94:0.0 95:0.0 96:0.0 97:0.0 98:0.0 99:0.0 100:0.0 101:0.0 102:0.0 103:0.0 104:0.0 105:0.0 106:0.0 107:0.0 108:0.0 109:0.0 110:0.0 111:0.0 112:0.0 113:0.0 114:0.0 115:0.0 116:0.0 117:0.0 118:0.0 119:0.0 120:0.0 121:0.0 122:0.0 123:0.0 124:0.0 125:0.0 126:0.0 127:0.0 128:0.0 129:0.0 130:0.0 131:0.0 132:0.0 133:0.0 134:0.0 135:0.0 136:0.0 137:0.0 138:0.0 139:0.0 140:0.0 141:0.0 142:0.0 143:0.0 144:0.0 145:0.0 146:0.0 147:0.0 148:0.0 149:0.0 150:0.0 151:0.0 152:0.0 153:0.0 154:0.0 155:0.0 156:0.0 157:0.0 158:0.0 159:0.0 160:0.0 
1.0 1:0.0 2:0.0 3:0.0 4:0.0 5:0.0 6:0.0 7:0.0 8:0.0 9:0.0 10:0.0 11:0.0 12:0.0 13:0.0 14:0.0 15:0.0 16:0.0 17:0.0 18:0.0 19:0.0 20:0.0 21:0.0 22:0.0 23:0.0 24:0.0 25:0.0 26:0.0 27:0.0 28:0.0 29:0.0 30:0.0 31:0.0 32:0.0 33:0.0 34:0.0 35:0.0 36:0.0 37:0.0 38:0.0 39:0.0 40:0.0 41:0.0 42:0.0 43:0.0 44:0.0 45:0.0 46:0.0 47:0.0 48:0.0 49:0.0 50:0.0 51:0.0 52:0.0 53:0.0 54:0.0 55:0.0 56:0.0 57:0.0 58:0.0 59:0.0 60:0.0 61:0.0 62:0.0 63:0.0 64:0.0 65:0.0 66:0.0 67:0.0 68:0.0 69:0.0 70:1.0 71:0.0 72:0.0 73:0.0 74:0.0 75:0.0 76:0.0 77:0.0 78:0.0 79:0.0 80:0.0 81:0.0 82:0.0 83:0.0 84:0.0 85:0.0 86:0.0 87:0.0 88:0.0 89:0.0 90:0.0 91:0.0 92:0.0 93:0.0 94:0.0 95:0.0 96:0.0 97:0.0 98:0.0 99:0.0 100:0.0 101:0.0 102:0.0 103:0.0 104:0.0 105:0.0 106:0.0 107:0.0 108:0.0 109:0.0 110:0.0 111:0.0 112:0.0 113:0.0 114:0.0 115:0.0 116:0.0 117:0.0 118:0.0 119:0.0 120:0.0 121:0.0 122:0.0 123:0.0 124:0.0 125:0.0 126:0.0 127:0.0 128:0.0 129:0.0 130:0.0 131:0.0 132:0.0 133:0.0 134:0.0 135:0.0 136:0.0 137:0.0 138:0.0 139:0.0 140:0.0 141:0.0 142:0.0 143:0.0 144:0.0 145:0.0 146:0.0 147:0.0 148:0.0 149:0.0 150:0.0 151:0.0 152:0.0 153:0.0 154:0.0 155:0.0 156:0.0 157:0.0 158:0.0 159:0.0 160:0.0 
1.0 1:0.0 2:0.0 3:0.0 4:0.0 5:0.0 6:0.0 7:0.0 8:0.0 9:0.0 10:0.0 11:0.0 12:0.0 13:0.0 14:0.0 15:0.0 16:0.0 17:0.0 18:0.0 19:0.0 20:0.0 21:0.0 22:0.0 23:0.0 24:0.0 25:0.0 26:0.0 27:0.0 28:0.0 29:0.0 30:0.0 31:0.0 32:0.0 33:0.0 34:0.0 35:0.0 36:0.0 37:0.0 38:0.0 39:0.0 40:0.0 41:0.0 42:0.0 43:0.0 44:0.0 45:0.0 46:0.0 47:0.0 48:0.0 49:0.0 50:0.0 51:0.0 52:0.0 53:0.0 54:0.0 55:0.0 56:0.0 57:0.0 58:0.0 59:0.0 60:0.0 61:0.0 62:0.0 63:0.0 64:0.0 65:0.0 66:0.0 67:0.0 68:0.0 69:0.0 70:1.0 71:0.0 72:0.0 73:0.0 74:0.0 75:0.0 76:0.0 77:0.0 78:0.0 79:0.0 80:0.0 81:0.0 82:0.0 83:0.0 84:0.0 85:0.0 86:0.0 87:0.0 88:0.0 89:0.0 90:0.0 91:0.0 92:0.0 93:0.0 94:0.0 95:0.0 96:0.0 97:0.0 98:0.0 99:0.0 100:0.0 101:0.0 102:0.0 103:0.0 104:0.0 105:0.0 106:0.0 107:0.0 108:0.0 109:0.0 110:0.0 111:0.0 112:0.0 113:0.0 114:0.0 115:0.0 116:0.0 117:0.0 118:0.0 119:0.0 120:0.0 121:0.0 122:0.0 123:0.0 124:0.0 125:0.0 126:0.0 127:0.0 128:0.0 129:0.0 130:0.0 131:0.0 132:0.0 133:0.0 134:0.0 135:0.0 136:0.0 137:0.0 138:0.0 139:0.0 140:0.0 141:0.0 142:0.0 143:0.0 144:0.0 145:0.0 146:0.0 147:0.0 148:0.0 149:0.0 150:0.0 151:0.0 152:0.0 153:0.0 154:0.0 155:0.0 156:0.0 157:0.0 158:0.0 159:0.0 160:0.0 
1.0 1:0.0 2:0.0 3:0.0 4:0.0 5:0.0 6:0.0 7:0.0 8:0.0 9:0.0 10:0.0 11:0.0 12:0.0 13:0.0 14:0.0 15:0.0 16:0.0 17:0.0 18:0.0 19:0.0 20:0.0 21:0.0 22:0.0 23:0.0 24:0.0 25:0.0 26:0.0 27:0.0 28:0.0 29:0.0 30:0.0 31:0.0 32:0.0 33:0.0 34:0.0 35:0.0 36:0.0 37:0.0 38:0.0 39:0.0 40:0.0 41:0.0 42:0.0 43:0.0 44:0.0 45:0.0 46:0.0 47:0.0 48:0.0 49:0.0 50:0.0 51:0.0 52:0.0 53:0.0 54:0.0 55:0.0 56:0.0 57:0.0 58:0.0 59:0.0 60:0.0 61:0.0 62:0.0 63:0.0 64:0.0 65:0.0 66:0.0 67:0.0 68:0.0 69:0.0 70:1.0 71:0.0 72:0.0 73:0.0 74:0.0 75:0.0 76:0.0 77:0.0 78:0.0 79:0.0 80:0.0 81:0.0 82:0.0 83:0.0 84:0.0 85:0.0 86:0.0 87:0.0 88:0.0 89:0.0 90:0.0 91:0.0 92:0.0 93:0.0 94:0.0 95:0.0 96:0.0 97:0.0 98:0.0 99:0.0 100:0.0 101:0.0 102:0.0 103:0.0 104:0.0 105:0.0 106:0.0 107:0.0 108:0.0 109:0.0 110:0.0 111:0.0 112:0.0 113:0.0 114:0.0 115:0.0 116:0.0 117:0.0 118:0.0 119:0.0 120:0.0 121:0.0 122:0.0 123:0.0 124:0.0 125:0.0 126:0.0 127:0.0 128:0.0 129:0.0 130:0.0 131:0.0 132:0.0 133:0.0 134:0.0 135:0.0 136:0.0 137:0.0 138:0.0 139:0.0 140:0.0 141:0.0 142:0.0 143:0.0 144:0.0 145:0.0 146:0.0 147:0.0 148:0.0 149:0.0 150:0.0 151:0.0 152:0.0 153:0.0 154:0.0 155:0.0 156:0.0 157:0.0 158:0.0 159:0.0 160:0.0 
1.0 1:0.0 2:0.0 3:0.0 4:0.0 5:0.0 6:0.0 7:0.0 8:0.0 9:0.0 10:0.0 11:0.0 12:0.0 13:0.0 14:0.0 15:0.0 16:0.0 17:0.0 18:0.0 19:0.0 20:0.0 21:0.0 22:0.0 23:0.0 24:0.0 25:0.0 26:0.0 27:0.0 28:0.0 29:0.0 30:0.0 31:0.0 32:0.0 33:0.0 34:0.0 35:0.0 36:0.0 37:0.0 38:0.0 39:0.0 40:0.0 41:0.0 42:0.0 43:0.0 44:0.0 45:0.0 46:0.0 47:0.0 48:0.0 49:0.0 50:0.0 51:0.0 52:0.0 53:0.0 54:0.0 55:0.0 56:0.0 57:0.0 58:0.0 59:0.0 60:0.0 61:0.0 62:0.0 63:0.0 64:0.0 65:0.0 66:0.0 67:0.0 68:0.0 69:0.0 70:1.0 71:0.0 72:0.0 73:0.0 74:0.0 75:0.0 76:0.0 77:0.0 78:0.0 79:0.0 80:0.0 81:0.0 82:0.0 83:0.0 84:0.0 85:0.0 86:0.0 87:0.0 88:0.0 89:0.0 90:0.0 91:0.0 92:0.0 93:0.0 94:0.0 95:0.0 96:0.0 97:0.0 98:0.0 99:0.0 100:0.0 101:0.0 102:0.0 103:0.0 104:0.0 105:0.0 106:0.0 107:0.0 108:0.0 109:0.0 110:0.0 111:0.0 112:0.0 113:0.0 114:0.0 115:0.0 116:0.0 117:0.0 118:0.0 119:0.0 120:0.0 121:0.0 122:0.0 123:0.0 124:0.0 125:0.0 126:0.0 127:0.0 128:0.0 129:0.0 130:0.0 131:0.0 132:0.0 133:0.0 134:0.0 135:0.0 136:0.0 137:0.0 138:0.0 139:0.0 140:0.0 141:0.0 142:0.0 143:0.0 144:0.0 145:0.0 146:0.0 147:0.0 148:0.0 149:0.0 150:0.0 151:0.0 152:0.0 153:0.0 154:0.0 155:0.0 156:0.0 157:0.0 158:0.0 159:0.0 160:0.0 
1.0 1:0.0 2:0.0 3:0.0 4:0.0 5:0.0 6:0.0 7:0.0 8:0.0 9:0.0 10:0.0 11:0.0 12:0.0 13:0.0 14:0.0 15:0.0 16:0.0 17:0.0 18:0.0 19:0.0 20:0.0 21:0.0 22:0.0 23:0.0 24:0.0 25:0.0 26:0.0 27:0.0 28:0.0 29:0.0 30:0.0 31:0.0 32:0.0 33:0.0 34:0.0 35:0.0 36:0.0 37:0.0 38:0.0 39:0.0 40:0.0 41:0.0 42:0.0 43:0.0 44:0.0 45:0.0 46:0.0 47:0.0 48:0.0 49:0.0 50:0.0 51:0.0 52:0.0 53:0.0 54:0.0 55:0.0 56:0.0 57:0.0 58:0.0 59:0.0 60:0.0 61:0.0 62:0.0 63:0.0 64:0.0 65:0.0 66:0.0 67:0.0 68:0.0 69:0.0 70:1.0 71:0.0 72:0.0 73:0.0 74:0.0 75:0.0 76:0.0 77:0.0 78:0.0 79:0.0 80:0.0 81:0.0 82:0.0 83:0.0 84:0.0 85:0.0 86:0.0 87:0.0 88:0.0 89:0.0 90:0.0 91:0.0 92:0.0 93:0.0 94:0.0 95:0.0 96:0.0 97:0.0 98:0.0 99:0.0 100:0.0 101:0.0 102:0.0 103:0.0 104:0.0 105:0.0 106:0.0 107:0.0 108:0.0 109:0.0 110:0.0 111:0.0 112:0.0 113:0.0 114:0.0 115:0.0 116:0.0 117:0.0 118:0.0 119:0.0 120:0.0 121:0.0 122:0.0 123:0.0 124:0.0 125:0.0 126:0.0 127:0.0 128:0.0 129:0.0 130:0.0 131:0.0 132:0.0 133:0.0 134:0.0 135:0.0 136:0.0 137:0.0 138:0.0 139:0.0 140:0.0 141:0.0 142:0.0 143:0.0 144:0.0 145:0.0 146:0.0 147:0.0 148:0.0 149:0.0 150:0.0 151:0.0 152:0.0 153:0.0 154:0.0 155:0.0 156:0.0 157:0.0 158:0.0 159:0.0 160:0.0 
1.0 1:0.0 2:0.0 3:0.0 4:0.0 5:0.0 6:0.0 7:0.0 8:0.0 9:0.0 10:0.0 11:0.0 12:0.0 13:0.0 14:0.0 15:0.0 16:0.0 17:0.0 18:0.0 19:0.0 20:0.0 21:0.0 22:0.0 23:0.0 24:0.0 25:0.0 26:0.0 27:0.0 28:0.0 29:0.0 30:0.0 31:0.0 32:0.0 33:0.0 34:0.0 35:0.0 36:0.0 37:0.0 38:0.0 39:0.0 40:0.0 41:0.0 42:0.0 43:0.0 44:0.0 45:0.0 46:0.0 47:0.0 48:0.0 49:0.0 50:0.0 51:0.0 52:0.0 53:0.0 54:0.0 55:0.0 56:0.0 57:0.0 58:0.0 59:0.0 60:0.0 61:0.0 62:0.0 63:0.0 64:0.0 65:0.0 66:0.0 67:0.0 68:0.0 69:0.0 70:1.0 71:0.0 72:0.0 73:0.0 74:0.0 75:0.0 76:0.0 77:0.0 78:0.0 79:0.0 80:0.0 81:0.0 82:0.0 83:0.0 84:0.0 85:0.0 86:0.0 87:0.0 88:0.0 89:0.0 90:0.0 91:0.0 92:0.0 93:0.0 94:0.0 95:0.0 96:0.0 97:0.0 98:0.0 99:0.0 100:0.0 101:0.0 102:0.0 103:0.0 104:0.0 105:0.0 106:0.0 107:0.0 108:0.0 109:0.0 110:0.0 111:0.0 112:0.0 113:0.0 114:0.0 115:0.0 116:0.0 117:0.0 118:0.0 119:0.0 120:0.0 121:0.0 122:0.0 123:0.0 124:0.0 125:0.0 126:0.0 127:0.0 128:0.0 129:0.0 130:0.0 131:0.0 132:0.0 133:0.0 134:0.0 135:0.0 136:0.0 137:0.0 138:0.0 139:0.0 140:0.0 141:0.0 142:0.0 143:0.0 144:0.0 145:0.0 146:0.0 147:0.0 148:0.0 149:0.0 150:0.0 151:0.0 152:0.0 153:0.0 154:0.0 155:0.0 156:0.0 157:0.0 158:0.0 159:0.0 160:0.0 
1.0 1:0.0 2:0.0 3:0.0 4:0.0 5:0.0 6:0.0 7:0.0 8:0.0 9:0.0 10:0.0 11:0.0 12:0.0 13:0.0 14:0.0 15:0.0 16:0.0 17:0.0 18:0.0 19:0.0 20:0.0 21:0.0 22:0.0 23:0.0 24:0.0 25:0.0 26:0.0 27:0.0 28:0.0 29:0.0 30:0.0 31:0.0 32:0.0 33:0.0 34:0.0 35:0.0 36:0.0 37:0.0 38:0.0 39:0.0 40:0.0 41:0.0 42:0.0 43:0.0 44:0.0 45:0.0 46:0.0 47:0.0 48:0.0 49:0.0 50:0.0 51:0.0 52:0.0 53:0.0 54:0.0 55:0.0 56:0.0 57:0.0 58:0.0 59:0.0 60:0.0 61:0.0 62:0.0 63:0.0 64:0.0 65:0.0 66:0.0 67:0.0 68:0.0 69:0.0 70:1.0 71:0.0 72:0.0 73:0.0 74:0.0 75:0.0 76:0.0 77:0.0 78:0.0 79:0.0 80:0.0 81:0.0 82:0.0 83:0.0 84:0.0 85:0.0 86:0.0 87:0.0 88:0.0 89:0.0 90:0.0 91:0.0 92:0.0 93:0.0 94:0.0 95:0.0 96:0.0 97:0.0 98:0.0 99:0.0 100:0.0 101:0.0 102:0.0 103:0.0 104:0.0 105:0.0 106:0.0 107:0.0 108:0.0 109:0.0 110:0.0 111:0.0 112:0.0 113:0.0 114:0.0 115:0.0 116:0.0 117:0.0 118:0.0 119:0.0 120:0.0 121:0.0 122:0.0 123:0.0 124:0.0 125:0.0 126:0.0 127:0.0 128:0.0 129:0.0 130:0.0 131:0.0 132:0.0 133:0.0 134:0.0 135:0.0 136:0.0 137:0.0 138:0.0 139:0.0 140:0.0 141:0.0 142:0.0 143:0.0 144:0.0 145:0.0 146:0.0 147:0.0 148:0.0 149:0.0 150:0.0 151:0.0 152:0.0 153:0.0 154:0.0 155:0.0 156:0.0 157:0.0 158:0.0 159:0.0 160:0.0 
0.3400000000000034 1:0.0 2:0.0 3:0.0 4:0.0 5:0.0 6:0.0 7:0.0 8:0.0 9:0.0 10:0.0 11:0.0 12:0.0 13:0.0 14:0.0 15:0.0 16:0.0 17:0.0 18:0.0 19:0.0 20:0.0 21:0.0 22:0.0 23:0.0 24:0.0 25:0.0 26:0.0 27:0.0 28:0.0 29:0.0 30:0.0 31:0.0 32:0.0 33:0.0 34:0.0 35:0.0 36:0.0 37:0.0 38:0.0 39:0.0 40:0.0 41:0.0 42:0.0 43:0.0 44:0.0 45:0.0 46:0.0 47:0.0 48:0.0 49:0.0 50:0.0 51:0.0 52:0.0 53:0.0 54:0.0 55:0.0 56:0.0 57:0.0 58:0.0 59:0.0 60:0.0 61:0.0 62:0.0 63:0.0 64:0.0 65:0.0 66:0.0 67:0.0 68:0.0 69:0.0 70:1.0 71:0.0 72:0.0 73:0.0 74:0.0 75:0.0 76:0.0 77:0.0 78:0.0 79:0.0 80:0.0 81:0.0 82:0.0 83:0.0 84:0.0 85:0.0 86:0.0 87:0.0 88:0.0 89:0.0 90:0.0 91:0.0 92:0.0 93:0.0 94:0.0 95:0.0 96:0.0 97:0.0 98:0.0 99:0.0 100:0.0 101:0.0 102:0.0 103:0.0 104:0.0 105:0.0 106:0.0 107:0.0 108:0.0 109:0.0 110:0.0 111:0.0 112:0.0 113:0.0 114:0.0 115:0.0 116:0.0 117:0.0 118:0.0 119:0.0 120:0.0 121:0.0 122:0.0 123:0.0 124:0.0 125:0.0 126:0.0 127:0.0 128:0.0 129:0.0 130:0.0 131:0.0 132:0.0 133:0.0 134:0.0 135:0.0 136:0.0 137:0.0 138:0.0 139:0.0 140:0.0 141:0.0 142:0.0 143:0.0 144:0.0 145:0.0 146:0.0 147:0.0 148:0.0 149:0.0 150:0.0 151:0.0 152:0.0 153:0.0 154:0.0 155:0.0 156:0.0 157:0.0 158:0.0 159:0.0 160:0.0 
1.0 1:0.0 2:0.007042253521126761 3:0.0035211267605633804 4:0.0 5:0.0 6:0.0 7:0.0 8:0.007042253521126761 9:0.0 10:0.0 11:0.0035211267605633804 12:0.0 13:0.0 14:0.0035211267605633804 15:0.007042253521126761 16:0.0 17:0.0 18:0.0 19:0.0 20:0.0 21:0.0 22:0.0 23:0.0 24:0.0 25:0.0035211267605633804 26:0.007042253521126761 27:0.0035211267605633804 28:0.0 29:0.0 30:0.0035211267605633804 31:0.0 32:0.0 33:0.0 34:0.0 35:0.0 36:0.007042253521126761 37:0.0035211267605633804 38:0.0 39:0.0 40:0.0 41:0.0 42:0.0 43:0.0 44:0.0 45:0.0 46:0.0 47:0.0035211267605633804 48:0.0 49:0.0 50:0.0 51:0.0 52:0.0 53:0.0035211267605633804 54:0.0 55:0.0 56:0.0 57:0.0 58:0.0 59:0.0 60:0.007042253521126761 61:0.01056338028169014 62:0.0 63:0.0035211267605633804 64:0.0035211267605633804 65:0.0 66:0.0 67:0.0035211267605633804 68:0.0 69:0.0035211267605633804 70:0.795774647887324 71:0.0 72:0.0 73:0.0035211267605633804 74:0.0 75:0.0 76:0.0 77:0.0 78:0.0 79:0.0 80:0.0 81:0.0 82:0.0 83:0.007042253521126761 84:0.0 85:0.0 86:0.0 87:0.0 88:0.0 89:0.0035211267605633804 90:0.0 91:0.0 92:0.0 93:0.0035211267605633804 94:0.0 95:0.0 96:0.0035211267605633804 97:0.0 98:0.0 99:0.0 100:0.0 101:0.0 102:0.0 103:0.0 104:0.0 105:0.0 106:0.0 107:0.007042253521126761 108:0.0035211267605633804 109:0.0 110:0.0 111:0.0 112:0.0 113:0.0 114:0.0 115:0.0 116:0.0 117:0.007042253521126761 118:0.0 119:0.0 120:0.0 121:0.0035211267605633804 122:0.0035211267605633804 123:0.0 124:0.0 125:0.0 126:0.0 127:0.0 128:0.035211267605633804 129:0.0 130:0.0 131:0.0035211267605633804 132:0.0 133:0.0 134:0.0 135:0.0 136:0.0 137:0.007042253521126761 138:0.0 139:0.0 140:0.0 141:0.0 142:0.0035211267605633804 143:0.0 144:0.0 145:0.0 146:0.0035211267605633804 147:0.0 148:0.0 149:0.0 150:0.0 151:0.0 152:0.0 153:0.0 154:0.0 155:0.0 156:0.0 157:0.0035211267605633804 158:0.0035211267605633804 159:0.0 160:0.0 
1.0 1:0.0 2:0.015151515151515152 3:0.0016835016835016834 4:0.0 5:0.0 6:0.0 7:0.0 8:0.015151515151515152 9:0.0016835016835016834 10:0.0 11:0.003367003367003367 12:0.0 13:0.0 14:0.0016835016835016834 15:0.006734006734006734 16:0.0016835016835016834 17:0.0 18:0.0 19:0.0 20:0.0 21:0.0 22:0.005050505050505051 23:0.0 24:0.0016835016835016834 25:0.005050505050505051 26:0.0016835016835016834 27:0.006734006734006734 28:0.0 29:0.0016835016835016834 30:0.006734006734006734 31:0.0 32:0.0 33:0.008417508417508417 34:0.0 35:0.0016835016835016834 36:0.006734006734006734 37:0.003367003367003367 38:0.0 39:0.0 40:0.0 41:0.0 42:0.0 43:0.0 44:0.0 45:0.003367003367003367 46:0.005050505050505051 47:0.03198653198653199 48:0.0 49:0.0 50:0.0 51:0.0 52:0.0 53:0.005050505050505051 54:0.0 55:0.0 56:0.0 57:0.0 58:0.0 59:0.0016835016835016834 60:0.015151515151515152 61:0.003367003367003367 62:0.0 63:0.003367003367003367 64:0.006734006734006734 65:0.0 66:0.0 67:0.006734006734006734 68:0.006734006734006734 69:0.0016835016835016834 70:0.5858585858585859 71:0.0 72:0.0 73:0.003367003367003367 74:0.0 75:0.0 76:0.0 77:0.0016835016835016834 78:0.0 79:0.005050505050505051 80:0.0 81:0.0 82:0.0 83:0.0 84:0.0 85:0.0 86:0.005050505050505051 87:0.0016835016835016834 88:0.0 89:0.005050505050505051 90:0.0 91:0.0 92:0.0016835016835016834 93:0.0016835016835016834 94:0.005050505050505051 95:0.0 96:0.0 97:0.0 98:0.0 99:0.0 100:0.0 101:0.0 102:0.0 103:0.0 104:0.0 105:0.0 106:0.0 107:0.0016835016835016834 108:0.0016835016835016834 109:0.011784511784511785 110:0.0 111:0.003367003367003367 112:0.0 113:0.003367003367003367 114:0.0 115:0.0 116:0.0 117:0.003367003367003367 118:0.0 119:0.0 120:0.003367003367003367 121:0.005050505050505051 122:0.008417508417508417 123:0.0 124:0.0 125:0.0 126:0.0 127:0.0 128:0.09932659932659933 129:0.0016835016835016834 130:0.0 131:0.0 132:0.0016835016835016834 133:0.0 134:0.0 135:0.0 136:0.003367003367003367 137:0.006734006734006734 138:0.0 139:0.0016835016835016834 140:0.0 141:0.0 142:0.005050505050505051 143:0.0 144:0.0 145:0.0 146:0.0 147:0.0 148:0.0 149:0.016835016835016835 150:0.0 151:0.0 152:0.0016835016835016834 153:0.0016835016835016834 154:0.0 155:0.0 156:0.0 157:0.0016835016835016834 158:0.006734006734006734 159:0.006734006734006734 160:0.0 
1.0 1:0.0 2:0.0035587188612099642 3:0.0 4:0.0 5:0.0 6:0.0 7:0.0 8:0.0071174377224199285 9:0.0 10:0.0 11:0.0 12:0.0 13:0.0 14:0.0 15:0.0035587188612099642 16:0.0 17:0.0 18:0.0 19:0.0 20:0.0 21:0.0 22:0.0071174377224199285 23:0.0 24:0.0 25:0.0 26:0.0 27:0.0 28:0.0 29:0.0 30:0.0 31:0.0 32:0.0 33:0.0071174377224199285 34:0.0 35:0.0 36:0.0 37:0.0035587188612099642 38:0.0 39:0.0 40:0.0 41:0.0 42:0.0 43:0.0 44:0.0 45:0.0 46:0.0035587188612099642 47:0.0035587188612099642 48:0.0 49:0.0 50:0.0 51:0.0 52:0.0 53:0.0 54:0.0 55:0.0 56:0.0 57:0.0 58:0.0 59:0.0 60:0.0035587188612099642 61:0.0071174377224199285 62:0.0 63:0.0 64:0.0 65:0.0 66:0.0 67:0.0035587188612099642 68:0.0035587188612099642 69:0.0 70:0.7580071174377224 71:0.0 72:0.0 73:0.0 74:0.0 75:0.0 76:0.0 77:0.0 78:0.0 79:0.0 80:0.0 81:0.0 82:0.0 83:0.0 84:0.0 85:0.0035587188612099642 86:0.0 87:0.0 88:0.0 89:0.0 90:0.0 91:0.0 92:0.0035587188612099642 93:0.0 94:0.0 95:0.0 96:0.0 97:0.0 98:0.0 99:0.0 100:0.017793594306049824 101:0.0 102:0.0 103:0.0 104:0.0 105:0.0 106:0.0 107:0.010676156583629894 108:0.0 109:0.028469750889679714 110:0.0 111:0.0 112:0.0 113:0.0 114:0.0 115:0.0 116:0.010676156583629894 117:0.0 118:0.0 119:0.0 120:0.0 121:0.0 122:0.0 123:0.0 124:0.0 125:0.0 126:0.0 127:0.0 128:0.09608540925266904 129:0.0 130:0.0 131:0.0 132:0.0 133:0.0 134:0.0 135:0.0 136:0.0 137:0.0 138:0.0 139:0.0 140:0.0 141:0.0 142:0.0 143:0.0035587188612099642 144:0.0 145:0.0 146:0.0 147:0.0 148:0.0 149:0.0 150:0.0 151:0.0 152:0.0 153:0.0 154:0.0 155:0.0 156:0.0 157:0.0 158:0.0035587188612099642 159:0.0071174377224199285 160:0.0 
1.0 1:0.0 2:0.0 3:0.0 4:0.0 5:0.0033003300330033004 6:0.0 7:0.0 8:0.0 9:0.0 10:0.006600660066006601 11:0.0 12:0.0 13:0.0 14:0.0033003300330033004 15:0.0 16:0.0 17:0.0 18:0.0 19:0.0 20:0.0 21:0.0 22:0.0 23:0.0033003300330033004 24:0.006600660066006601 25:0.0 26:0.0 27:0.009900990099009901 28:0.0 29:0.0 30:0.006600660066006601 31:0.0 32:0.0 33:0.0 34:0.0 35:0.0 36:0.0033003300330033004 37:0.0 38:0.0 39:0.0 40:0.0 41:0.0 42:0.0 43:0.0 44:0.0 45:0.0 46:0.0 47:0.0 48:0.0 49:0.0 50:0.0 51:0.0 52:0.0 53:0.0 54:0.0 55:0.0 56:0.0 57:0.0 58:0.0 59:0.0033003300330033004 60:0.0 61:0.006600660066006601 62:0.0 63:0.0 64:0.0 65:0.0 66:0.0033003300330033004 67:0.0033003300330033004 68:0.0 69:0.006600660066006601 70:0.7887788778877888 71:0.0 72:0.0 73:0.0033003300330033004 74:0.0 75:0.0033003300330033004 76:0.0 77:0.0 78:0.006600660066006601 79:0.006600660066006601 80:0.0 81:0.0 82:0.0 83:0.0 84:0.0 85:0.0 86:0.0 87:0.0 88:0.0 89:0.009900990099009901 90:0.0 91:0.0 92:0.0 93:0.006600660066006601 94:0.0033003300330033004 95:0.009900990099009901 96:0.0 97:0.0 98:0.0 99:0.0 100:0.0 101:0.0 102:0.0 103:0.0 104:0.0 105:0.0 106:0.0 107:0.0 108:0.0 109:0.006600660066006601 110:0.0 111:0.009900990099009901 112:0.0 113:0.0 114:0.009900990099009901 115:0.0 116:0.0033003300330033004 117:0.0 118:0.0 119:0.0 120:0.0033003300330033004 121:0.013201320132013201 122:0.0033003300330033004 123:0.0 124:0.0 125:0.0 126:0.0 127:0.0 128:0.0033003300330033004 129:0.006600660066006601 130:0.0 131:0.0 132:0.0 133:0.0 134:0.0 135:0.0 136:0.0 137:0.0 138:0.0 139:0.0 140:0.0 141:0.0 142:0.009900990099009901 143:0.0 144:0.0 145:0.0 146:0.0033003300330033004 147:0.0 148:0.0 149:0.0033003300330033004 150:0.0 151:0.0 152:0.006600660066006601 153:0.0 154:0.006600660066006601 155:0.0 156:0.0 157:0.0 158:0.006600660066006601 159:0.0 160:0.0 
1.0 1:0.0 2:0.006802721088435374 3:0.0 4:0.0 5:0.0 6:0.0 7:0.0 8:0.0 9:0.003401360544217687 10:0.003401360544217687 11:0.0 12:0.0 13:0.0 14:0.003401360544217687 15:0.0 16:0.0 17:0.0 18:0.0 19:0.0 20:0.0 21:0.0 22:0.006802721088435374 23:0.003401360544217687 24:0.013605442176870748 25:0.0 26:0.0 27:0.013605442176870748 28:0.0 29:0.0 30:0.003401360544217687 31:0.0 32:0.0 33:0.01020408163265306 34:0.0 35:0.0 36:0.006802721088435374 37:0.0 38:0.0 39:0.0 40:0.0 41:0.0 42:0.0 43:0.0 44:0.0 45:0.0 46:0.0 47:0.003401360544217687 48:0.0 49:0.003401360544217687 50:0.0 51:0.0 52:0.0 53:0.003401360544217687 54:0.0 55:0.0 56:0.0 57:0.0 58:0.0 59:0.0 60:0.003401360544217687 61:0.003401360544217687 62:0.0 63:0.0 64:0.0 65:0.0 66:0.003401360544217687 67:0.0 68:0.0 69:0.003401360544217687 70:0.7789115646258503 71:0.0 72:0.0 73:0.0 74:0.0 75:0.0 76:0.0 77:0.0 78:0.003401360544217687 79:0.0 80:0.003401360544217687 81:0.0 82:0.0 83:0.0 84:0.0 85:0.0 86:0.0 87:0.0 88:0.0 89:0.003401360544217687 90:0.0 91:0.0 92:0.0 93:0.003401360544217687 94:0.0 95:0.003401360544217687 96:0.0 97:0.003401360544217687 98:0.0 99:0.0 100:0.003401360544217687 101:0.0 102:0.0 103:0.0 104:0.0 105:0.0 106:0.006802721088435374 107:0.0 108:0.0 109:0.0 110:0.0 111:0.01020408163265306 112:0.0 113:0.003401360544217687 114:0.006802721088435374 115:0.0 116:0.0 117:0.0 118:0.0 119:0.0 120:0.0 121:0.017006802721088437 122:0.0 123:0.0 124:0.0 125:0.0 126:0.0 127:0.0 128:0.003401360544217687 129:0.0 130:0.003401360544217687 131:0.0 132:0.006802721088435374 133:0.0 134:0.0 135:0.003401360544217687 136:0.0 137:0.0 138:0.0 139:0.0 140:0.0 141:0.0 142:0.003401360544217687 143:0.003401360544217687 144:0.0 145:0.0 146:0.0 147:0.0 148:0.0 149:0.0 150:0.0 151:0.0 152:0.0 153:0.0 154:0.006802721088435374 155:0.0 156:0.0 157:0.003401360544217687 158:0.017006802721088437 159:0.003401360544217687 160:0.0 
1.0 1:0.0 2:0.0497131931166348 3:0.0019120458891013384 4:0.0 5:0.0019120458891013384 6:0.0019120458891013384 7:0.0 8:0.019120458891013385 9:0.0 10:0.0 11:0.0 12:0.0 13:0.0 14:0.0019120458891013384 15:0.0038240917782026767 16:0.0019120458891013384 17:0.0 18:0.0 19:0.0 20:0.0 21:0.0 22:0.0057361376673040155 23:0.0 24:0.0057361376673040155 25:0.0019120458891013384 26:0.0019120458891013384 27:0.0038240917782026767 28:0.0 29:0.0019120458891013384 30:0.0057361376673040155 31:0.0 32:0.0 33:0.0038240917782026767 34:0.0 35:0.0 36:0.0057361376673040155 37:0.009560229445506692 38:0.0 39:0.0 40:0.0 41:0.0 42:0.0 43:0.0 44:0.0 45:0.0 46:0.0057361376673040155 47:0.011472275334608031 48:0.0 49:0.0 50:0.0 51:0.0 52:0.0 53:0.0 54:0.0 55:0.0 56:0.0 57:0.0 58:0.0 59:0.0 60:0.019120458891013385 61:0.0076481835564053535 62:0.0 63:0.0019120458891013384 64:0.0 65:0.0 66:0.0038240917782026767 67:0.0 68:0.0019120458891013384 69:0.0 70:0.502868068833652 71:0.0019120458891013384 72:0.0 73:0.0076481835564053535 74:0.0 75:0.0019120458891013384 76:0.0 77:0.0038240917782026767 78:0.0 79:0.0038240917782026767 80:0.0 81:0.0 82:0.0019120458891013384 83:0.0 84:0.0 85:0.0 86:0.0019120458891013384 87:0.0 88:0.0 89:0.0038240917782026767 90:0.0 91:0.0 92:0.0019120458891013384 93:0.0038240917782026767 94:0.0019120458891013384 95:0.0019120458891013384 96:0.0 97:0.0 98:0.0 99:0.0 100:0.0076481835564053535 101:0.0 102:0.0 103:0.0 104:0.0 105:0.0 106:0.0 107:0.0038240917782026767 108:0.0 109:0.0038240917782026767 110:0.0 111:0.0 112:0.0 113:0.011472275334608031 114:0.0 115:0.0 116:0.0 117:0.0019120458891013384 118:0.0 119:0.0 120:0.0019120458891013384 121:0.0038240917782026767 122:0.0057361376673040155 123:0.0 124:0.0019120458891013384 125:0.0 126:0.0 127:0.0 128:0.15105162523900573 129:0.0076481835564053535 130:0.0 131:0.0019120458891013384 132:0.0019120458891013384 133:0.0 134:0.0 135:0.0 136:0.0038240917782026767 137:0.0038240917782026767 138:0.0 139:0.0 140:0.0 141:0.0 142:0.0076481835564053535 143:0.0057361376673040155 144:0.0 145:0.0 146:0.0 147:0.0 148:0.0 149:0.0038240917782026767 150:0.0 151:0.0 152:0.0057361376673040155 153:0.0019120458891013384 154:0.0019120458891013384 155:0.0 156:0.0 157:0.0038240917782026767 158:0.0248565965583174 159:0.01338432122370937 160:0.0 
1.0 1:0.0 2:0.015189873417721518 3:0.002531645569620253 4:0.0 5:0.0 6:0.002531645569620253 7:0.005063291139240506 8:0.005063291139240506 9:0.005063291139240506 10:0.0 11:0.0 12:0.0 13:0.0 14:0.010126582278481013 15:0.007594936708860759 16:0.010126582278481013 17:0.0 18:0.0 19:0.0 20:0.0 21:0.0 22:0.005063291139240506 23:0.002531645569620253 24:0.005063291139240506 25:0.005063291139240506 26:0.0 27:0.0 28:0.0 29:0.007594936708860759 30:0.0 31:0.0 32:0.0 33:0.015189873417721518 34:0.0 35:0.0 36:0.005063291139240506 37:0.020253164556962026 38:0.0 39:0.0 40:0.005063291139240506 41:0.0 42:0.0 43:0.0 44:0.0 45:0.0 46:0.002531645569620253 47:0.002531645569620253 48:0.0 49:0.0 50:0.0 51:0.0 52:0.0 53:0.010126582278481013 54:0.0 55:0.0 56:0.0 57:0.0 58:0.0 59:0.005063291139240506 60:0.002531645569620253 61:0.002531645569620253 62:0.0 63:0.0 64:0.0 65:0.0 66:0.0 67:0.005063291139240506 68:0.035443037974683546 69:0.0 70:0.5645569620253165 71:0.005063291139240506 72:0.0 73:0.010126582278481013 74:0.0 75:0.002531645569620253 76:0.0 77:0.005063291139240506 78:0.0 79:0.002531645569620253 80:0.0 81:0.0 82:0.0 83:0.002531645569620253 84:0.0 85:0.0 86:0.007594936708860759 87:0.002531645569620253 88:0.0 89:0.0 90:0.0 91:0.0 92:0.002531645569620253 93:0.0 94:0.005063291139240506 95:0.0 96:0.002531645569620253 97:0.002531645569620253 98:0.0 99:0.002531645569620253 100:0.0 101:0.0 102:0.0 103:0.0 104:0.0 105:0.0 106:0.0 107:0.010126582278481013 108:0.0 109:0.010126582278481013 110:0.0 111:0.002531645569620253 112:0.0 113:0.002531645569620253 114:0.002531645569620253 115:0.0 116:0.002531645569620253 117:0.005063291139240506 118:0.0 119:0.0 120:0.015189873417721518 121:0.0 122:0.002531645569620253 123:0.0 124:0.007594936708860759 125:0.0 126:0.0 127:0.0 128:0.030379746835443037 129:0.007594936708860759 130:0.0 131:0.0 132:0.0 133:0.0 134:0.0 135:0.0 136:0.002531645569620253 137:0.005063291139240506 138:0.0 139:0.0 140:0.0 141:0.0 142:0.012658227848101266 143:0.002531645569620253 144:0.0 145:0.0 146:0.002531645569620253 147:0.0 148:0.0 149:0.015189873417721518 150:0.0 151:0.0 152:0.002531645569620253 153:0.002531645569620253 154:0.0 155:0.0 156:0.0 157:0.002531645569620253 158:0.012658227848101266 159:0.02278481012658228 160:0.0 
1.0 1:0.0 2:0.0 3:0.0034965034965034965 4:0.0 5:0.0034965034965034965 6:0.0 7:0.0 8:0.0 9:0.0034965034965034965 10:0.0034965034965034965 11:0.0 12:0.0 13:0.0 14:0.0034965034965034965 15:0.0 16:0.0 17:0.0 18:0.0 19:0.0 20:0.0 21:0.0 22:0.0 23:0.0 24:0.006993006993006993 25:0.0 26:0.0 27:0.0034965034965034965 28:0.0 29:0.0 30:0.0 31:0.0 32:0.0 33:0.0034965034965034965 34:0.0 35:0.0034965034965034965 36:0.0034965034965034965 37:0.0034965034965034965 38:0.0 39:0.0 40:0.0 41:0.0 42:0.0 43:0.0 44:0.0 45:0.0 46:0.0 47:0.0034965034965034965 48:0.0 49:0.0 50:0.0 51:0.0 52:0.0 53:0.0 54:0.0 55:0.0 56:0.0 57:0.0 58:0.0 59:0.0034965034965034965 60:0.0 61:0.006993006993006993 62:0.0 63:0.0 64:0.0034965034965034965 65:0.0 66:0.0 67:0.0 68:0.0 69:0.0 70:0.7797202797202797 71:0.0 72:0.0 73:0.0034965034965034965 74:0.0 75:0.0 76:0.0 77:0.0034965034965034965 78:0.0 79:0.0034965034965034965 80:0.0034965034965034965 81:0.0 82:0.0 83:0.0 84:0.0 85:0.013986013986013986 86:0.0034965034965034965 87:0.0 88:0.0 89:0.006993006993006993 90:0.0 91:0.0 92:0.0034965034965034965 93:0.0034965034965034965 94:0.0 95:0.0 96:0.006993006993006993 97:0.0 98:0.0 99:0.0 100:0.0034965034965034965 101:0.0 102:0.0 103:0.0 104:0.0 105:0.0 106:0.0034965034965034965 107:0.0 108:0.0 109:0.0 110:0.0 111:0.01048951048951049 112:0.0 113:0.0 114:0.006993006993006993 115:0.0 116:0.0034965034965034965 117:0.0 118:0.0 119:0.0 120:0.0034965034965034965 121:0.006993006993006993 122:0.0 123:0.0 124:0.0034965034965034965 125:0.0 126:0.0 127:0.0 128:0.01048951048951049 129:0.0 130:0.0034965034965034965 131:0.0 132:0.0 133:0.0 134:0.0 135:0.0 136:0.0034965034965034965 137:0.0 138:0.0 139:0.0 140:0.0 141:0.0 142:0.013986013986013986 143:0.006993006993006993 144:0.0 145:0.0 146:0.0034965034965034965 147:0.0 148:0.0 149:0.0034965034965034965 150:0.0 151:0.0 152:0.0 153:0.0 154:0.006993006993006993 155:0.0 156:0.0 157:0.0 158:0.013986013986013986 159:0.0 160:0.0 
1.0 1:0.0 2:0.01016260162601626 3:0.0 4:0.0 5:0.0 6:0.0 7:0.0 8:0.0 9:0.0 10:0.0 11:0.0 12:0.0 13:0.0 14:0.0020325203252032522 15:0.0040650406504065045 16:0.0 17:0.0 18:0.0 19:0.0 20:0.0 21:0.0 22:0.0 23:0.0 24:0.0040650406504065045 25:0.0 26:0.0 27:0.0040650406504065045 28:0.0 29:0.0 30:0.0040650406504065045 31:0.0 32:0.0 33:0.0 34:0.0 35:0.0 36:0.0 37:0.0 38:0.0 39:0.0 40:0.0 41:0.0 42:0.0 43:0.0 44:0.0 45:0.0 46:0.0040650406504065045 47:0.008130081300813009 48:0.0 49:0.0 50:0.0 51:0.0 52:0.0 53:0.0 54:0.0 55:0.0 56:0.0 57:0.0 58:0.0 59:0.0 60:0.0040650406504065045 61:0.0 62:0.0 63:0.0 64:0.0 65:0.0 66:0.0 67:0.0040650406504065045 68:0.0 69:0.0 70:0.782520325203252 71:0.0040650406504065045 72:0.0 73:0.0 74:0.0 75:0.0 76:0.0 77:0.0 78:0.008130081300813009 79:0.0 80:0.0 81:0.0 82:0.0 83:0.0040650406504065045 84:0.0 85:0.0 86:0.0 87:0.0 88:0.0 89:0.0 90:0.0 91:0.0 92:0.0 93:0.0 94:0.0 95:0.0 96:0.0 97:0.0 98:0.0040650406504065045 99:0.0 100:0.0020325203252032522 101:0.0 102:0.0 103:0.0 104:0.0 105:0.0 106:0.0 107:0.0 108:0.0 109:0.0040650406504065045 110:0.0 111:0.0020325203252032522 112:0.0 113:0.0040650406504065045 114:0.0 115:0.0 116:0.0 117:0.0 118:0.0 119:0.0 120:0.0 121:0.0 122:0.0 123:0.0 124:0.0040650406504065045 125:0.0 126:0.0 127:0.0 128:0.08943089430894309 129:0.0020325203252032522 130:0.0 131:0.0 132:0.0 133:0.0 134:0.0 135:0.0 136:0.0040650406504065045 137:0.014227642276422764 138:0.0 139:0.008130081300813009 140:0.0 141:0.0 142:0.006097560975609756 143:0.0 144:0.0 145:0.0 146:0.0 147:0.0 148:0.0 149:0.0040650406504065045 150:0.0 151:0.0 152:0.0040650406504065045 153:0.0 154:0.0 155:0.0 156:0.0 157:0.0 158:0.0 159:0.0 160:0.0 
1.0 1:0.0 2:0.010899182561307902 3:0.0027247956403269754 4:0.0 5:0.0 6:0.0 7:0.0 8:0.010899182561307902 9:0.0 10:0.0 11:0.0 12:0.0 13:0.0 14:0.0027247956403269754 15:0.008174386920980926 16:0.0027247956403269754 17:0.0 18:0.0 19:0.0 20:0.0 21:0.0 22:0.0027247956403269754 23:0.0 24:0.010899182561307902 25:0.0027247956403269754 26:0.0 27:0.0027247956403269754 28:0.0 29:0.0 30:0.005449591280653951 31:0.0 32:0.0 33:0.013623978201634877 34:0.0 35:0.005449591280653951 36:0.008174386920980926 37:0.013623978201634877 38:0.0 39:0.0 40:0.0027247956403269754 41:0.0 42:0.0 43:0.0 44:0.0 45:0.0027247956403269754 46:0.010899182561307902 47:0.005449591280653951 48:0.0 49:0.0 50:0.0 51:0.0 52:0.0 53:0.008174386920980926 54:0.0 55:0.0 56:0.0 57:0.0 58:0.0 59:0.0027247956403269754 60:0.01907356948228883 61:0.005449591280653951 62:0.0 63:0.0 64:0.0027247956403269754 65:0.0 66:0.0 67:0.0 68:0.010899182561307902 69:0.0 70:0.6158038147138964 71:0.0 72:0.0 73:0.0027247956403269754 74:0.0 75:0.0027247956403269754 76:0.0 77:0.0027247956403269754 78:0.0027247956403269754 79:0.0 80:0.0027247956403269754 81:0.0 82:0.0 83:0.0 84:0.0 85:0.0 86:0.0027247956403269754 87:0.008174386920980926 88:0.0 89:0.005449591280653951 90:0.0 91:0.0 92:0.0 93:0.008174386920980926 94:0.0 95:0.0027247956403269754 96:0.0027247956403269754 97:0.0027247956403269754 98:0.0027247956403269754 99:0.0 100:0.0027247956403269754 101:0.0 102:0.0 103:0.0 104:0.0 105:0.0 106:0.0 107:0.0027247956403269754 108:0.0 109:0.005449591280653951 110:0.0 111:0.0027247956403269754 112:0.0 113:0.013623978201634877 114:0.0 115:0.0 116:0.0 117:0.005449591280653951 118:0.0 119:0.0 120:0.008174386920980926 121:0.005449591280653951 122:0.0 123:0.0 124:0.0 125:0.0 126:0.0 127:0.0 128:0.0653950953678474 129:0.005449591280653951 130:0.0 131:0.0027247956403269754 132:0.0027247956403269754 133:0.0 134:0.0 135:0.0 136:0.0 137:0.005449591280653951 138:0.0 139:0.0027247956403269754 140:0.0 141:0.0 142:0.013623978201634877 143:0.0 144:0.0 145:0.0 146:0.0 147:0.0 148:0.0 149:0.0027247956403269754 150:0.0 151:0.0 152:0.0 153:0.0 154:0.0 155:0.0 156:0.0 157:0.0 158:0.013623978201634877 159:0.0 160:0.0 
1.0 1:0.0 2:0.013651877133105802 3:0.0034129692832764505 4:0.0 5:0.0 6:0.0 7:0.0 8:0.0 9:0.0 10:0.0034129692832764505 11:0.0 12:0.0 13:0.0 14:0.0034129692832764505 15:0.0 16:0.0 17:0.0 18:0.0 19:0.0 20:0.0 21:0.0 22:0.010238907849829351 23:0.0 24:0.0 25:0.0 26:0.0 27:0.0 28:0.0 29:0.0 30:0.0 31:0.0 32:0.0 33:0.0 34:0.0 35:0.0 36:0.0 37:0.0034129692832764505 38:0.0 39:0.0 40:0.0 41:0.0 42:0.0 43:0.0 44:0.0 45:0.0 46:0.010238907849829351 47:0.0034129692832764505 48:0.0 49:0.0 50:0.0 51:0.0 52:0.0 53:0.006825938566552901 54:0.0 55:0.0 56:0.0 57:0.0 58:0.0 59:0.0 60:0.006825938566552901 61:0.0 62:0.0 63:0.0 64:0.0 65:0.006825938566552901 66:0.0 67:0.0 68:0.013651877133105802 69:0.0 70:0.7815699658703071 71:0.0 72:0.0 73:0.0034129692832764505 74:0.0 75:0.0 76:0.0 77:0.006825938566552901 78:0.0 79:0.0034129692832764505 80:0.0034129692832764505 81:0.0 82:0.0 83:0.0034129692832764505 84:0.0 85:0.0034129692832764505 86:0.0034129692832764505 87:0.0034129692832764505 88:0.0 89:0.0 90:0.0 91:0.0 92:0.0 93:0.0 94:0.0034129692832764505 95:0.0034129692832764505 96:0.0 97:0.0 98:0.0034129692832764505 99:0.0034129692832764505 100:0.0034129692832764505 101:0.0 102:0.0 103:0.0 104:0.0 105:0.0 106:0.0 107:0.0 108:0.006825938566552901 109:0.0034129692832764505 110:0.0 111:0.0034129692832764505 112:0.0 113:0.0034129692832764505 114:0.0 115:0.0 116:0.0034129692832764505 117:0.0 118:0.0 119:0.0 120:0.0 121:0.0 122:0.006825938566552901 123:0.0 124:0.0 125:0.0 126:0.0 127:0.0 128:0.013651877133105802 129:0.0034129692832764505 130:0.0 131:0.0 132:0.0034129692832764505 133:0.0 134:0.0 135:0.0 136:0.0 137:0.0 138:0.0 139:0.0 140:0.0 141:0.0 142:0.006825938566552901 143:0.0034129692832764505 144:0.0 145:0.0 146:0.0 147:0.0 148:0.0 149:0.006825938566552901 150:0.0 151:0.0 152:0.0 153:0.0034129692832764505 154:0.0 155:0.0 156:0.0 157:0.0 158:0.006825938566552901 159:0.010238907849829351 160:0.0 
1.0 1:0.0 2:0.015479876160990712 3:0.0 4:0.0 5:0.0 6:0.0 7:0.0 8:0.0 9:0.0030959752321981426 10:0.0 11:0.0 12:0.0 13:0.0 14:0.0030959752321981426 15:0.0 16:0.0 17:0.0 18:0.0 19:0.0 20:0.0 21:0.0 22:0.0 23:0.0 24:0.0 25:0.0 26:0.0 27:0.006191950464396285 28:0.0 29:0.0 30:0.0 31:0.0 32:0.0 33:0.0 34:0.0 35:0.0 36:0.0 37:0.006191950464396285 38:0.0 39:0.0 40:0.0 41:0.0 42:0.0 43:0.0 44:0.0 45:0.0 46:0.006191950464396285 47:0.009287925696594427 48:0.0 49:0.0 50:0.0 51:0.0 52:0.0 53:0.009287925696594427 54:0.0 55:0.0 56:0.0 57:0.0 58:0.0 59:0.0 60:0.009287925696594427 61:0.0 62:0.0 63:0.0 64:0.0 65:0.0 66:0.0 67:0.0 68:0.0030959752321981426 69:0.0 70:0.7739938080495357 71:0.0 72:0.0 73:0.0 74:0.0 75:0.01238390092879257 76:0.006191950464396285 77:0.006191950464396285 78:0.0 79:0.0 80:0.0 81:0.0 82:0.0 83:0.0030959752321981426 84:0.0 85:0.0 86:0.0 87:0.0030959752321981426 88:0.0 89:0.0030959752321981426 90:0.0 91:0.0 92:0.0 93:0.0 94:0.0 95:0.0 96:0.0 97:0.0 98:0.0 99:0.0 100:0.0030959752321981426 101:0.0 102:0.0 103:0.0 104:0.0 105:0.0 106:0.0 107:0.0030959752321981426 108:0.0 109:0.0 110:0.0 111:0.0 112:0.0 113:0.0 114:0.0 115:0.0 116:0.0 117:0.006191950464396285 118:0.0 119:0.0 120:0.006191950464396285 121:0.0 122:0.0030959752321981426 123:0.0 124:0.0 125:0.0 126:0.006191950464396285 127:0.0 128:0.058823529411764705 129:0.0 130:0.0 131:0.0 132:0.0 133:0.0 134:0.0 135:0.0 136:0.0 137:0.006191950464396285 138:0.0 139:0.0 140:0.0 141:0.0 142:0.021671826625386997 143:0.0 144:0.0 145:0.0 146:0.0 147:0.0 148:0.0 149:0.0 150:0.0 151:0.0 152:0.0030959752321981426 153:0.0 154:0.0 155:0.0 156:0.0 157:0.0 158:0.0030959752321981426 159:0.0 160:0.0 
1.0 1:0.0025380710659898475 2:0.007614213197969543 3:0.0 4:0.0 5:0.0 6:0.0 7:0.0 8:0.007614213197969543 9:0.0025380710659898475 10:0.0 11:0.0 12:0.0 13:0.0 14:0.0025380710659898475 15:0.005076142131979695 16:0.005076142131979695 17:0.0 18:0.0 19:0.0 20:0.0 21:0.0 22:0.0025380710659898475 23:0.0 24:0.0025380710659898475 25:0.0 26:0.0 27:0.005076142131979695 28:0.0 29:0.0 30:0.0 31:0.0 32:0.0 33:0.0025380710659898475 34:0.0 35:0.0 36:0.0 37:0.005076142131979695 38:0.0 39:0.0 40:0.0 41:0.0 42:0.0 43:0.0 44:0.0 45:0.0 46:0.005076142131979695 47:0.005076142131979695 48:0.0 49:0.0 50:0.0 51:0.0 52:0.0 53:0.007614213197969543 54:0.0 55:0.0 56:0.0 57:0.0 58:0.0 59:0.0 60:0.012690355329949238 61:0.0 62:0.0 63:0.0 64:0.0 65:0.0 66:0.0 67:0.0 68:0.0025380710659898475 69:0.0 70:0.7893401015228426 71:0.0 72:0.0 73:0.0 74:0.0 75:0.01015228426395939 76:0.005076142131979695 77:0.005076142131979695 78:0.0 79:0.0 80:0.0 81:0.0 82:0.0 83:0.0 84:0.0 85:0.0 86:0.0 87:0.0025380710659898475 88:0.0 89:0.0025380710659898475 90:0.0 91:0.0 92:0.0 93:0.0 94:0.0 95:0.0 96:0.0 97:0.0 98:0.0 99:0.0 100:0.0 101:0.0 102:0.0 103:0.0 104:0.0 105:0.0 106:0.0 107:0.0025380710659898475 108:0.0 109:0.0 110:0.0 111:0.0 112:0.0 113:0.0 114:0.0 115:0.0 116:0.0 117:0.0 118:0.0 119:0.0 120:0.005076142131979695 121:0.0 122:0.005076142131979695 123:0.0 124:0.0 125:0.0 126:0.005076142131979695 127:0.0 128:0.05583756345177665 129:0.0025380710659898475 130:0.0 131:0.0 132:0.0 133:0.0 134:0.0 135:0.0 136:0.0 137:0.0025380710659898475 138:0.0 139:0.0 140:0.0 141:0.0 142:0.015228426395939087 143:0.0 144:0.0 145:0.0 146:0.0 147:0.0 148:0.0 149:0.0 150:0.0 151:0.0 152:0.0025380710659898475 153:0.0 154:0.0 155:0.0 156:0.0 157:0.0 158:0.0025380710659898475 159:0.0025380710659898475 160:0.0 
1.0 1:0.0 2:0.006779661016949152 3:0.0 4:0.0 5:0.0 6:0.0 7:0.0 8:0.006779661016949152 9:0.003389830508474576 10:0.0 11:0.0 12:0.0 13:0.003389830508474576 14:0.0 15:0.0 16:0.0 17:0.0 18:0.0 19:0.0 20:0.0 21:0.0 22:0.003389830508474576 23:0.0 24:0.0 25:0.0 26:0.003389830508474576 27:0.003389830508474576 28:0.0 29:0.0 30:0.003389830508474576 31:0.0 32:0.0 33:0.003389830508474576 34:0.0 35:0.0 36:0.003389830508474576 37:0.010169491525423728 38:0.0 39:0.0 40:0.0 41:0.0 42:0.0 43:0.0 44:0.0 45:0.0 46:0.003389830508474576 47:0.003389830508474576 48:0.0 49:0.0 50:0.0 51:0.0 52:0.0 53:0.010169491525423728 54:0.0 55:0.0 56:0.0 57:0.0 58:0.0 59:0.0 60:0.003389830508474576 61:0.003389830508474576 62:0.0 63:0.0 64:0.003389830508474576 65:0.0 66:0.0 67:0.0 68:0.0 69:0.0 70:0.7932203389830509 71:0.003389830508474576 72:0.0 73:0.0 74:0.0 75:0.0 76:0.0 77:0.0 78:0.0 79:0.0 80:0.0 81:0.0 82:0.0 83:0.0 84:0.0 85:0.0 86:0.0 87:0.0 88:0.0 89:0.006779661016949152 90:0.0 91:0.0 92:0.003389830508474576 93:0.0 94:0.003389830508474576 95:0.0 96:0.003389830508474576 97:0.0 98:0.0 99:0.0 100:0.0 101:0.0 102:0.0 103:0.0 104:0.0 105:0.0 106:0.0 107:0.0 108:0.0 109:0.003389830508474576 110:0.0 111:0.0 112:0.0 113:0.003389830508474576 114:0.003389830508474576 115:0.0 116:0.0 117:0.0 118:0.0 119:0.006779661016949152 120:0.01694915254237288 121:0.0 122:0.003389830508474576 123:0.0 124:0.0 125:0.0 126:0.0 127:0.0 128:0.023728813559322035 129:0.003389830508474576 130:0.0 131:0.0 132:0.0 133:0.0 134:0.0 135:0.0 136:0.003389830508474576 137:0.010169491525423728 138:0.0 139:0.0 140:0.0 141:0.0 142:0.003389830508474576 143:0.0 144:0.0 145:0.0 146:0.003389830508474576 147:0.0 148:0.0 149:0.010169491525423728 150:0.0 151:0.0 152:0.0 153:0.0 154:0.0 155:0.0 156:0.0 157:0.0 158:0.006779661016949152 159:0.006779661016949152 160:0.0 
1.0 1:0.0 2:0.0200445434298441 3:0.004454342984409799 4:0.0 5:0.004454342984409799 6:0.0 7:0.004454342984409799 8:0.004454342984409799 9:0.004454342984409799 10:0.0 11:0.0 12:0.0 13:0.0 14:0.015590200445434299 15:0.0066815144766146995 16:0.015590200445434299 17:0.0 18:0.0 19:0.0 20:0.0 21:0.0 22:0.0066815144766146995 23:0.0022271714922048997 24:0.0022271714922048997 25:0.008908685968819599 26:0.0022271714922048997 27:0.0022271714922048997 28:0.0 29:0.011135857461024499 30:0.0 31:0.0 32:0.0 33:0.013363028953229399 34:0.0 35:0.004454342984409799 36:0.004454342984409799 37:0.0200445434298441 38:0.0 39:0.0 40:0.004454342984409799 41:0.0 42:0.0 43:0.0 44:0.0 45:0.0 46:0.008908685968819599 47:0.022271714922048998 48:0.0 49:0.0 50:0.0 51:0.0 52:0.0 53:0.0022271714922048997 54:0.0 55:0.0 56:0.0 57:0.0 58:0.0 59:0.0066815144766146995 60:0.0022271714922048997 61:0.0 62:0.0 63:0.0 64:0.0 65:0.0 66:0.0 67:0.011135857461024499 68:0.035634743875278395 69:0.0 70:0.44766146993318484 71:0.004454342984409799 72:0.0 73:0.004454342984409799 74:0.0 75:0.0 76:0.0 77:0.004454342984409799 78:0.0 79:0.0022271714922048997 80:0.0022271714922048997 81:0.0 82:0.0 83:0.0022271714922048997 84:0.0 85:0.0 86:0.011135857461024499 87:0.008908685968819599 88:0.0 89:0.0022271714922048997 90:0.0 91:0.0 92:0.0022271714922048997 93:0.004454342984409799 94:0.004454342984409799 95:0.0 96:0.0022271714922048997 97:0.004454342984409799 98:0.0 99:0.0022271714922048997 100:0.0022271714922048997 101:0.0 102:0.0 103:0.0 104:0.0 105:0.0 106:0.0 107:0.008908685968819599 108:0.004454342984409799 109:0.011135857461024499 110:0.0 111:0.0022271714922048997 112:0.0 113:0.0022271714922048997 114:0.0 115:0.0 116:0.011135857461024499 117:0.0066815144766146995 118:0.0 119:0.0 120:0.022271714922048998 121:0.0 122:0.011135857461024499 123:0.0 124:0.004454342984409799 125:0.0 126:0.0 127:0.0 128:0.035634743875278395 129:0.011135857461024499 130:0.0 131:0.0 132:0.0 133:0.0 134:0.0 135:0.0022271714922048997 136:0.004454342984409799 137:0.0066815144766146995 138:0.0 139:0.0 140:0.0 141:0.0 142:0.008908685968819599 143:0.0022271714922048997 144:0.0 145:0.0 146:0.0022271714922048997 147:0.0 148:0.0 149:0.015590200445434299 150:0.0 151:0.0 152:0.0066815144766146995 153:0.0 154:0.004454342984409799 155:0.0 156:0.0 157:0.0022271714922048997 158:0.015590200445434299 159:0.0334075723830735 160:0.0 
1.0 1:0.0 2:0.003401360544217687 3:0.0 4:0.0 5:0.0 6:0.003401360544217687 7:0.003401360544217687 8:0.01020408163265306 9:0.003401360544217687 10:0.0 11:0.0 12:0.0 13:0.003401360544217687 14:0.003401360544217687 15:0.0 16:0.0 17:0.0 18:0.0 19:0.0 20:0.0 21:0.0 22:0.01020408163265306 23:0.0 24:0.0 25:0.0 26:0.003401360544217687 27:0.006802721088435374 28:0.0 29:0.0 30:0.003401360544217687 31:0.0 32:0.0 33:0.003401360544217687 34:0.0 35:0.0 36:0.0 37:0.0 38:0.0 39:0.0 40:0.0 41:0.0 42:0.0 43:0.0 44:0.0 45:0.0 46:0.0 47:0.0 48:0.0 49:0.0 50:0.0 51:0.0 52:0.0 53:0.003401360544217687 54:0.0 55:0.0 56:0.0 57:0.0 58:0.0 59:0.0 60:0.0 61:0.0 62:0.0 63:0.0 64:0.0 65:0.003401360544217687 66:0.003401360544217687 67:0.0 68:0.006802721088435374 69:0.0 70:0.7993197278911565 71:0.003401360544217687 72:0.0 73:0.003401360544217687 74:0.0 75:0.003401360544217687 76:0.003401360544217687 77:0.0 78:0.0 79:0.0 80:0.0 81:0.0 82:0.0 83:0.0 84:0.0 85:0.0 86:0.003401360544217687 87:0.0 88:0.0 89:0.003401360544217687 90:0.0 91:0.0 92:0.0 93:0.0 94:0.0 95:0.0 96:0.0 97:0.0 98:0.0 99:0.0 100:0.003401360544217687 101:0.0 102:0.0 103:0.0 104:0.0 105:0.0 106:0.0 107:0.0 108:0.0 109:0.0 110:0.0 111:0.0 112:0.0 113:0.003401360544217687 114:0.0 115:0.0 116:0.0 117:0.01020408163265306 118:0.0 119:0.0 120:0.003401360544217687 121:0.0 122:0.003401360544217687 123:0.0 124:0.0 125:0.0 126:0.003401360544217687 127:0.0 128:0.034013605442176874 129:0.0 130:0.0 131:0.0 132:0.0 133:0.0 134:0.0 135:0.0 136:0.0 137:0.003401360544217687 138:0.0 139:0.0 140:0.0 141:0.0 142:0.017006802721088437 143:0.003401360544217687 144:0.0 145:0.0 146:0.0 147:0.0 148:0.0 149:0.003401360544217687 150:0.0 151:0.0 152:0.003401360544217687 153:0.0 154:0.003401360544217687 155:0.0 156:0.0 157:0.0 158:0.01020408163265306 159:0.0 160:0.0 
1.0 1:0.0 2:0.006289308176100629 3:0.0 4:0.0 5:0.0031446540880503146 6:0.0 7:0.0 8:0.0 9:0.0 10:0.0031446540880503146 11:0.0 12:0.0 13:0.0 14:0.006289308176100629 15:0.0 16:0.0 17:0.0 18:0.0 19:0.0 20:0.0 21:0.0 22:0.0 23:0.0031446540880503146 24:0.006289308176100629 25:0.0 26:0.0 27:0.012578616352201259 28:0.0 29:0.0 30:0.006289308176100629 31:0.0 32:0.0 33:0.0 34:0.0 35:0.0 36:0.009433962264150943 37:0.0 38:0.0 39:0.0 40:0.0 41:0.0 42:0.0 43:0.0 44:0.0 45:0.0 46:0.0 47:0.0 48:0.0 49:0.0 50:0.0 51:0.0 52:0.0 53:0.0 54:0.0 55:0.0 56:0.0 57:0.0 58:0.0 59:0.006289308176100629 60:0.0 61:0.0031446540880503146 62:0.0 63:0.0 64:0.0 65:0.0 66:0.0031446540880503146 67:0.0031446540880503146 68:0.0 69:0.006289308176100629 70:0.789308176100629 71:0.0 72:0.0 73:0.0031446540880503146 74:0.0 75:0.0031446540880503146 76:0.0 77:0.0 78:0.009433962264150943 79:0.006289308176100629 80:0.0031446540880503146 81:0.0 82:0.0 83:0.0 84:0.0 85:0.0 86:0.0 87:0.0 88:0.0 89:0.006289308176100629 90:0.0 91:0.0 92:0.0 93:0.006289308176100629 94:0.0031446540880503146 95:0.006289308176100629 96:0.0 97:0.0 98:0.0 99:0.0 100:0.0 101:0.0 102:0.0 103:0.0 104:0.0 105:0.0 106:0.0 107:0.0 108:0.0 109:0.0031446540880503146 110:0.0 111:0.009433962264150943 112:0.0 113:0.0031446540880503146 114:0.009433962264150943 115:0.0 116:0.0031446540880503146 117:0.0 118:0.0 119:0.0 120:0.0031446540880503146 121:0.015723270440251572 122:0.0031446540880503146 123:0.0 124:0.0 125:0.0 126:0.0 127:0.0 128:0.0 129:0.0 130:0.0 131:0.0 132:0.0 133:0.0 134:0.0 135:0.0 136:0.0 137:0.0 138:0.0 139:0.0 140:0.0 141:0.0 142:0.009433962264150943 143:0.0 144:0.0 145:0.0 146:0.0031446540880503146 147:0.0 148:0.0 149:0.0031446540880503146 150:0.0 151:0.0 152:0.0031446540880503146 153:0.0031446540880503146 154:0.006289308176100629 155:0.0 156:0.0 157:0.0 158:0.006289308176100629 159:0.0 160:0.0 
1.0 1:0.0 2:0.02 3:0.0 4:0.0 5:0.0 6:0.0 7:0.004 8:0.004 9:0.0 10:0.0 11:0.0 12:0.0 13:0.0 14:0.004 15:0.008 16:0.0 17:0.0 18:0.0 19:0.0 20:0.0 21:0.0 22:0.008 23:0.0 24:0.004 25:0.0 26:0.0 27:0.0 28:0.0 29:0.0 30:0.0 31:0.0 32:0.0 33:0.004 34:0.0 35:0.0 36:0.004 37:0.004 38:0.0 39:0.0 40:0.0 41:0.0 42:0.0 43:0.0 44:0.0 45:0.0 46:0.004 47:0.0 48:0.0 49:0.0 50:0.0 51:0.0 52:0.0 53:0.004 54:0.0 55:0.0 56:0.0 57:0.0 58:0.0 59:0.0 60:0.012 61:0.0 62:0.0 63:0.0 64:0.0 65:0.0 66:0.0 67:0.0 68:0.0 69:0.0 70:0.792 71:0.004 72:0.0 73:0.004 74:0.0 75:0.0 76:0.0 77:0.012 78:0.0 79:0.008 80:0.0 81:0.0 82:0.0 83:0.0 84:0.0 85:0.0 86:0.008 87:0.004 88:0.0 89:0.0 90:0.0 91:0.0 92:0.0 93:0.004 94:0.008 95:0.0 96:0.004 97:0.0 98:0.0 99:0.0 100:0.0 101:0.0 102:0.0 103:0.0 104:0.0 105:0.0 106:0.0 107:0.004 108:0.0 109:0.004 110:0.0 111:0.008 112:0.0 113:0.0 114:0.0 115:0.0 116:0.0 117:0.008 118:0.0 119:0.0 120:0.004 121:0.0 122:0.004 123:0.0 124:0.0 125:0.0 126:0.0 127:0.0 128:0.016 129:0.0 130:0.0 131:0.0 132:0.0 133:0.0 134:0.0 135:0.0 136:0.0 137:0.012 138:0.0 139:0.0 140:0.0 141:0.0 142:0.004 143:0.0 144:0.0 145:0.0 146:0.0 147:0.0 148:0.0 149:0.0 150:0.0 151:0.0 152:0.0 153:0.0 154:0.0 155:0.0 156:0.0 157:0.0 158:0.0 159:0.004 160:0.0 
1.0 1:0.0 2:0.0297029702970297 3:0.0024752475247524753 4:0.0 5:0.0 6:0.0 7:0.0024752475247524753 8:0.007425742574257425 9:0.0 10:0.0 11:0.0 12:0.0 13:0.0 14:0.0049504950495049506 15:0.009900990099009901 16:0.0 17:0.0 18:0.0 19:0.0 20:0.0 21:0.0 22:0.009900990099009901 23:0.0024752475247524753 24:0.0049504950495049506 25:0.0 26:0.0 27:0.0024752475247524753 28:0.0024752475247524753 29:0.0 30:0.0024752475247524753 31:0.0 32:0.0 33:0.0024752475247524753 34:0.0 35:0.0 36:0.0049504950495049506 37:0.0 38:0.0 39:0.0 40:0.0 41:0.0 42:0.0 43:0.0 44:0.0 45:0.0 46:0.0 47:0.0049504950495049506 48:0.0 49:0.0 50:0.0 51:0.0 52:0.0 53:0.0 54:0.0 55:0.0 56:0.0 57:0.0 58:0.0 59:0.0 60:0.01485148514851485 61:0.0 62:0.0 63:0.0 64:0.0024752475247524753 65:0.0 66:0.0 67:0.0 68:0.0024752475247524753 69:0.0 70:0.7079207920792079 71:0.0049504950495049506 72:0.0 73:0.0 74:0.0 75:0.0024752475247524753 76:0.0 77:0.009900990099009901 78:0.0 79:0.0024752475247524753 80:0.0 81:0.0 82:0.0 83:0.0 84:0.0 85:0.0 86:0.009900990099009901 87:0.0 88:0.0 89:0.0024752475247524753 90:0.0 91:0.0 92:0.0 93:0.0049504950495049506 94:0.009900990099009901 95:0.0 96:0.0049504950495049506 97:0.0 98:0.0 99:0.0 100:0.0049504950495049506 101:0.0 102:0.0 103:0.0 104:0.0 105:0.0 106:0.0 107:0.0024752475247524753 108:0.0 109:0.0049504950495049506 110:0.0 111:0.009900990099009901 112:0.0 113:0.0 114:0.0 115:0.0 116:0.0 117:0.007425742574257425 118:0.0 119:0.0 120:0.007425742574257425 121:0.0 122:0.0049504950495049506 123:0.0 124:0.0 125:0.0 126:0.0 127:0.0 128:0.034653465346534656 129:0.0 130:0.0 131:0.0024752475247524753 132:0.0024752475247524753 133:0.0 134:0.0 135:0.0 136:0.0 137:0.009900990099009901 138:0.0 139:0.0 140:0.0 141:0.0 142:0.0024752475247524753 143:0.0049504950495049506 144:0.0 145:0.0 146:0.0 147:0.0 148:0.0 149:0.0 150:0.0 151:0.0 152:0.0 153:0.0 154:0.0 155:0.0 156:0.0 157:0.0 158:0.019801980198019802 159:0.007425742574257425 160:0.0 
1.0 1:0.0 2:0.005449591280653951 3:0.0 4:0.0 5:0.0 6:0.0 7:0.0 8:0.005449591280653951 9:0.0 10:0.0027247956403269754 11:0.0 12:0.0 13:0.0 14:0.005449591280653951 15:0.0027247956403269754 16:0.0 17:0.0 18:0.0 19:0.0 20:0.0 21:0.0 22:0.008174386920980926 23:0.0 24:0.0027247956403269754 25:0.0 26:0.0027247956403269754 27:0.0027247956403269754 28:0.0 29:0.0 30:0.008174386920980926 31:0.0 32:0.0 33:0.005449591280653951 34:0.0 35:0.0 36:0.0 37:0.005449591280653951 38:0.0 39:0.0 40:0.0 41:0.0 42:0.0 43:0.0 44:0.0 45:0.0 46:0.005449591280653951 47:0.0027247956403269754 48:0.0 49:0.0027247956403269754 50:0.0 51:0.0 52:0.0 53:0.008174386920980926 54:0.0 55:0.0 56:0.0 57:0.0 58:0.0 59:0.0 60:0.0027247956403269754 61:0.0027247956403269754 62:0.0 63:0.0 64:0.0 65:0.0027247956403269754 66:0.0027247956403269754 67:0.0 68:0.005449591280653951 69:0.0027247956403269754 70:0.7574931880108992 71:0.0027247956403269754 72:0.0 73:0.005449591280653951 74:0.0 75:0.0 76:0.0 77:0.005449591280653951 78:0.0 79:0.0027247956403269754 80:0.005449591280653951 81:0.0 82:0.0 83:0.0 84:0.0 85:0.0027247956403269754 86:0.005449591280653951 87:0.010899182561307902 88:0.0 89:0.005449591280653951 90:0.0 91:0.0 92:0.0 93:0.0027247956403269754 94:0.0 95:0.0 96:0.0027247956403269754 97:0.0 98:0.0 99:0.0 100:0.0 101:0.0 102:0.0 103:0.0 104:0.0 105:0.0 106:0.0 107:0.0 108:0.0 109:0.0027247956403269754 110:0.0 111:0.0 112:0.0 113:0.0 114:0.0 115:0.0 116:0.0 117:0.0 118:0.0 119:0.0 120:0.0 121:0.0 122:0.008174386920980926 123:0.0 124:0.0 125:0.0 126:0.0 127:0.0 128:0.0326975476839237 129:0.0 130:0.0 131:0.0 132:0.0 133:0.0 134:0.0 135:0.0 136:0.005449591280653951 137:0.008174386920980926 138:0.0 139:0.0 140:0.0 141:0.0 142:0.008174386920980926 143:0.0 144:0.0 145:0.0 146:0.0027247956403269754 147:0.0 148:0.0 149:0.008174386920980926 150:0.0 151:0.0 152:0.0027247956403269754 153:0.0 154:0.0 155:0.0 156:0.0 157:0.005449591280653951 158:0.008174386920980926 159:0.0027247956403269754 160:0.0 
1.0 1:0.0 2:0.010714285714285714 3:0.0 4:0.0 5:0.0 6:0.0 7:0.0 8:0.0035714285714285713 9:0.0 10:0.0 11:0.0 12:0.0 13:0.0 14:0.0 15:0.0 16:0.0035714285714285713 17:0.0 18:0.0 19:0.0 20:0.0 21:0.0 22:0.0035714285714285713 23:0.0 24:0.0 25:0.0035714285714285713 26:0.0 27:0.0035714285714285713 28:0.0 29:0.0 30:0.0 31:0.0 32:0.0 33:0.0035714285714285713 34:0.0 35:0.0 36:0.0 37:0.0 38:0.0 39:0.0 40:0.0 41:0.0035714285714285713 42:0.0 43:0.0 44:0.0 45:0.007142857142857143 46:0.0035714285714285713 47:0.010714285714285714 48:0.0 49:0.0 50:0.0 51:0.0 52:0.0 53:0.0 54:0.0 55:0.0 56:0.0 57:0.0 58:0.0 59:0.0 60:0.007142857142857143 61:0.0 62:0.0 63:0.0 64:0.0 65:0.0 66:0.0 67:0.0 68:0.0 69:0.0035714285714285713 70:0.7392857142857143 71:0.0 72:0.0 73:0.0 74:0.0 75:0.0 76:0.0 77:0.0 78:0.0 79:0.0035714285714285713 80:0.0 81:0.0 82:0.0 83:0.0 84:0.0 85:0.0 86:0.0035714285714285713 87:0.007142857142857143 88:0.0 89:0.0035714285714285713 90:0.0 91:0.0 92:0.0 93:0.0035714285714285713 94:0.0035714285714285713 95:0.0 96:0.0 97:0.0 98:0.0 99:0.0 100:0.0 101:0.0 102:0.0 103:0.0 104:0.0 105:0.0 106:0.0 107:0.0 108:0.0 109:0.0035714285714285713 110:0.0 111:0.0 112:0.0 113:0.0 114:0.0 115:0.0 116:0.0 117:0.0 118:0.0 119:0.0 120:0.0035714285714285713 121:0.0035714285714285713 122:0.0 123:0.0 124:0.0035714285714285713 125:0.0 126:0.0 127:0.0 128:0.14285714285714285 129:0.0 130:0.0 131:0.0 132:0.0 133:0.0 134:0.0 135:0.0 136:0.0 137:0.0 138:0.0 139:0.0 140:0.0 141:0.0 142:0.0035714285714285713 143:0.0 144:0.0 145:0.0 146:0.0 147:0.0 148:0.0 149:0.0 150:0.0 151:0.0 152:0.0 153:0.0 154:0.0035714285714285713 155:0.0 156:0.0 157:0.0 158:0.0035714285714285713 159:0.0 160:0.0 
1.0 1:0.0 2:0.0 3:0.0 4:0.0 5:0.003257328990228013 6:0.0 7:0.0 8:0.0 9:0.0 10:0.006514657980456026 11:0.0 12:0.0 13:0.0 14:0.003257328990228013 15:0.0 16:0.0 17:0.0 18:0.0 19:0.0 20:0.0 21:0.0 22:0.0 23:0.0 24:0.006514657980456026 25:0.0 26:0.0 27:0.009771986970684038 28:0.0 29:0.0 30:0.006514657980456026 31:0.0 32:0.0 33:0.0 34:0.0 35:0.0 36:0.003257328990228013 37:0.0 38:0.0 39:0.0 40:0.0 41:0.0 42:0.0 43:0.0 44:0.0 45:0.0 46:0.0 47:0.0 48:0.0 49:0.0 50:0.0 51:0.0 52:0.0 53:0.0 54:0.0 55:0.0 56:0.0 57:0.0 58:0.0 59:0.003257328990228013 60:0.0 61:0.0 62:0.0 63:0.0 64:0.0 65:0.0 66:0.003257328990228013 67:0.0 68:0.0 69:0.003257328990228013 70:0.7980456026058632 71:0.0 72:0.0 73:0.003257328990228013 74:0.0 75:0.003257328990228013 76:0.0 77:0.0 78:0.003257328990228013 79:0.006514657980456026 80:0.0 81:0.0 82:0.0 83:0.0 84:0.0 85:0.003257328990228013 86:0.0 87:0.0 88:0.0 89:0.009771986970684038 90:0.0 91:0.0 92:0.0 93:0.003257328990228013 94:0.003257328990228013 95:0.013029315960912053 96:0.0 97:0.0 98:0.0 99:0.0 100:0.003257328990228013 101:0.0 102:0.0 103:0.0 104:0.0 105:0.0 106:0.0 107:0.0 108:0.0 109:0.003257328990228013 110:0.0 111:0.016286644951140065 112:0.0 113:0.006514657980456026 114:0.009771986970684038 115:0.0 116:0.003257328990228013 117:0.0 118:0.0 119:0.0 120:0.0 121:0.016286644951140065 122:0.0 123:0.0 124:0.0 125:0.0 126:0.0 127:0.0 128:0.0 129:0.003257328990228013 130:0.0 131:0.003257328990228013 132:0.0 133:0.0 134:0.0 135:0.0 136:0.003257328990228013 137:0.0 138:0.0 139:0.0 140:0.0 141:0.0 142:0.013029315960912053 143:0.003257328990228013 144:0.0 145:0.0 146:0.0 147:0.0 148:0.0 149:0.0 150:0.0 151:0.0 152:0.006514657980456026 153:0.0 154:0.006514657980456026 155:0.0 156:0.0 157:0.003257328990228013 158:0.003257328990228013 159:0.0 160:0.0 
1.0 1:0.0 2:0.006437768240343348 3:0.002145922746781116 4:0.0 5:0.0 6:0.002145922746781116 7:0.008583690987124463 8:0.008583690987124463 9:0.004291845493562232 10:0.0 11:0.0 12:0.0 13:0.0 14:0.01072961373390558 15:0.01072961373390558 16:0.012875536480686695 17:0.0 18:0.0 19:0.0 20:0.0 21:0.0 22:0.002145922746781116 23:0.002145922746781116 24:0.002145922746781116 25:0.008583690987124463 26:0.0 27:0.002145922746781116 28:0.0 29:0.006437768240343348 30:0.0 31:0.0 32:0.0 33:0.02575107296137339 34:0.0 35:0.0 36:0.004291845493562232 37:0.019313304721030045 38:0.0 39:0.0 40:0.004291845493562232 41:0.0 42:0.0 43:0.0 44:0.0 45:0.0 46:0.01072961373390558 47:0.002145922746781116 48:0.0 49:0.0 50:0.0 51:0.0 52:0.0 53:0.006437768240343348 54:0.0 55:0.0 56:0.0 57:0.0 58:0.0 59:0.004291845493562232 60:0.01072961373390558 61:0.0 62:0.0 63:0.0 64:0.0 65:0.0 66:0.0 67:0.008583690987124463 68:0.027896995708154508 69:0.0 70:0.4570815450643777 71:0.008583690987124463 72:0.0 73:0.008583690987124463 74:0.0 75:0.0 76:0.0 77:0.006437768240343348 78:0.0 79:0.008583690987124463 80:0.0 81:0.0 82:0.0 83:0.002145922746781116 84:0.0 85:0.0 86:0.008583690987124463 87:0.015021459227467811 88:0.0 89:0.002145922746781116 90:0.0 91:0.0 92:0.008583690987124463 93:0.002145922746781116 94:0.004291845493562232 95:0.0 96:0.0 97:0.002145922746781116 98:0.0 99:0.002145922746781116 100:0.0 101:0.0 102:0.0 103:0.0 104:0.0 105:0.0 106:0.002145922746781116 107:0.012875536480686695 108:0.0 109:0.012875536480686695 110:0.0 111:0.0 112:0.0 113:0.006437768240343348 114:0.0 115:0.0 116:0.004291845493562232 117:0.008583690987124463 118:0.0 119:0.0 120:0.015021459227467811 121:0.002145922746781116 122:0.02575107296137339 123:0.0 124:0.004291845493562232 125:0.0 126:0.0 127:0.0 128:0.03862660944206009 129:0.008583690987124463 130:0.0 131:0.0 132:0.0 133:0.0 134:0.0 135:0.0 136:0.0 137:0.027896995708154508 138:0.0 139:0.0 140:0.0 141:0.0 142:0.012875536480686695 143:0.004291845493562232 144:0.0 145:0.0 146:0.002145922746781116 147:0.0 148:0.0 149:0.019313304721030045 150:0.0 151:0.0 152:0.002145922746781116 153:0.0 154:0.0 155:0.0 156:0.0 157:0.002145922746781116 158:0.012875536480686695 159:0.023605150214592276 160:0.0 
1.0 1:0.0 2:0.0 3:0.0 4:0.0 5:0.0036231884057971015 6:0.0 7:0.0 8:0.0 9:0.0 10:0.0036231884057971015 11:0.0 12:0.0 13:0.0 14:0.0036231884057971015 15:0.0 16:0.0 17:0.0 18:0.0 19:0.0 20:0.0 21:0.0 22:0.0 23:0.0036231884057971015 24:0.007246376811594203 25:0.0036231884057971015 26:0.0 27:0.010869565217391304 28:0.0 29:0.0 30:0.0036231884057971015 31:0.0 32:0.0 33:0.0 34:0.0 35:0.0 36:0.007246376811594203 37:0.0 38:0.0 39:0.0 40:0.0 41:0.0 42:0.0 43:0.0 44:0.0 45:0.0 46:0.0 47:0.0 48:0.0 49:0.0 50:0.0 51:0.0 52:0.0 53:0.0 54:0.0 55:0.0 56:0.0 57:0.0 58:0.0 59:0.007246376811594203 60:0.0 61:0.0 62:0.0 63:0.0 64:0.0 65:0.0 66:0.0036231884057971015 67:0.0 68:0.0 69:0.007246376811594203 70:0.7971014492753623 71:0.0 72:0.0 73:0.0036231884057971015 74:0.0 75:0.0036231884057971015 76:0.0 77:0.0 78:0.007246376811594203 79:0.007246376811594203 80:0.0036231884057971015 81:0.0 82:0.0 83:0.0 84:0.0 85:0.0 86:0.0 87:0.0 88:0.0 89:0.007246376811594203 90:0.0 91:0.0 92:0.0 93:0.007246376811594203 94:0.0036231884057971015 95:0.007246376811594203 96:0.0 97:0.0 98:0.0 99:0.0 100:0.0 101:0.0 102:0.0 103:0.0 104:0.0 105:0.0 106:0.0 107:0.0 108:0.007246376811594203 109:0.0 110:0.0 111:0.010869565217391304 112:0.0 113:0.0036231884057971015 114:0.007246376811594203 115:0.0 116:0.0036231884057971015 117:0.0 118:0.0 119:0.0 120:0.0 121:0.014492753623188406 122:0.0 123:0.0 124:0.0 125:0.0 126:0.0 127:0.0 128:0.0 129:0.0 130:0.0 131:0.0 132:0.0 133:0.0 134:0.0 135:0.0 136:0.0 137:0.0 138:0.0 139:0.0 140:0.0 141:0.0 142:0.010869565217391304 143:0.0 144:0.0 145:0.0 146:0.0036231884057971015 147:0.0 148:0.0 149:0.0 150:0.0 151:0.0 152:0.0036231884057971015 153:0.0036231884057971015 154:0.007246376811594203 155:0.0 156:0.0 157:0.0 158:0.010869565217391304 159:0.0 160:0.0 
1.0 1:0.0 2:0.0 3:0.005076142131979695 4:0.0 5:0.0 6:0.0 7:0.0 8:0.0 9:0.0 10:0.0 11:0.0 12:0.0 13:0.0 14:0.005076142131979695 15:0.0 16:0.0 17:0.0 18:0.0 19:0.0 20:0.0 21:0.0 22:0.0 23:0.0 24:0.005076142131979695 25:0.0 26:0.0 27:0.005076142131979695 28:0.0 29:0.0 30:0.0 31:0.0 32:0.0 33:0.005076142131979695 34:0.0 35:0.0 36:0.005076142131979695 37:0.01015228426395939 38:0.0 39:0.0 40:0.0 41:0.0 42:0.0 43:0.0 44:0.0 45:0.0 46:0.0 47:0.015228426395939087 48:0.0 49:0.0 50:0.0 51:0.0 52:0.0 53:0.0 54:0.0 55:0.0 56:0.0 57:0.0 58:0.0 59:0.0 60:0.0 61:0.0 62:0.0 63:0.0 64:0.0 65:0.0 66:0.0 67:0.0 68:0.005076142131979695 69:0.0 70:0.7817258883248731 71:0.0 72:0.0 73:0.0 74:0.0 75:0.0 76:0.0 77:0.01015228426395939 78:0.0 79:0.0 80:0.0 81:0.0 82:0.0 83:0.0 84:0.0 85:0.0 86:0.0 87:0.0 88:0.0 89:0.0 90:0.0 91:0.0 92:0.0 93:0.0 94:0.0 95:0.0 96:0.0 97:0.0 98:0.0 99:0.0 100:0.0 101:0.0 102:0.0 103:0.0 104:0.0 105:0.0 106:0.0 107:0.0 108:0.0 109:0.005076142131979695 110:0.0 111:0.0 112:0.0 113:0.0 114:0.0 115:0.0 116:0.0 117:0.0 118:0.0 119:0.0 120:0.0 121:0.0 122:0.005076142131979695 123:0.0 124:0.0 125:0.0 126:0.0 127:0.0 128:0.1116751269035533 129:0.005076142131979695 130:0.0 131:0.0 132:0.0 133:0.0 134:0.0 135:0.0 136:0.0 137:0.01015228426395939 138:0.0 139:0.0 140:0.0 141:0.0 142:0.005076142131979695 143:0.0 144:0.0 145:0.0 146:0.0 147:0.0 148:0.0 149:0.0 150:0.0 151:0.0 152:0.0 153:0.0 154:0.0 155:0.0 156:0.0 157:0.0 158:0.0 159:0.005076142131979695 160:0.0 
1.0 1:0.0 2:0.02154398563734291 3:0.0 4:0.0 5:0.0 6:0.0 7:0.0 8:0.012567324955116697 9:0.0 10:0.0017953321364452424 11:0.0 12:0.0 13:0.0 14:0.0 15:0.0017953321364452424 16:0.0017953321364452424 17:0.0 18:0.0 19:0.0 20:0.0 21:0.0 22:0.008976660682226212 23:0.0 24:0.0 25:0.0 26:0.003590664272890485 27:0.003590664272890485 28:0.0 29:0.0 30:0.0 31:0.0 32:0.0 33:0.012567324955116697 34:0.0 35:0.0 36:0.0017953321364452424 37:0.0017953321364452424 38:0.0 39:0.0 40:0.0 41:0.0 42:0.0 43:0.003590664272890485 44:0.0 45:0.003590664272890485 46:0.003590664272890485 47:0.008976660682226212 48:0.0 49:0.0017953321364452424 50:0.0 51:0.0 52:0.0 53:0.003590664272890485 54:0.0 55:0.0 56:0.0 57:0.0 58:0.0 59:0.0017953321364452424 60:0.01436265709156194 61:0.0 62:0.0 63:0.0 64:0.012567324955116697 65:0.0017953321364452424 66:0.0 67:0.0017953321364452424 68:0.005385996409335727 69:0.0017953321364452424 70:0.6122082585278277 71:0.0017953321364452424 72:0.0 73:0.005385996409335727 74:0.0 75:0.00718132854578097 76:0.003590664272890485 77:0.008976660682226212 78:0.0 79:0.0 80:0.0 81:0.0 82:0.0 83:0.0017953321364452424 84:0.0 85:0.0 86:0.008976660682226212 87:0.003590664272890485 88:0.0 89:0.00718132854578097 90:0.0 91:0.0 92:0.0 93:0.0 94:0.005385996409335727 95:0.00718132854578097 96:0.0 97:0.0 98:0.0 99:0.0017953321364452424 100:0.0017953321364452424 101:0.0 102:0.0 103:0.0 104:0.0 105:0.0 106:0.0 107:0.0 108:0.0 109:0.00718132854578097 110:0.0 111:0.003590664272890485 112:0.0 113:0.005385996409335727 114:0.0 115:0.0 116:0.0 117:0.003590664272890485 118:0.0 119:0.0017953321364452424 120:0.005385996409335727 121:0.0017953321364452424 122:0.0017953321364452424 123:0.0 124:0.005385996409335727 125:0.0 126:0.003590664272890485 127:0.0 128:0.07540394973070018 129:0.005385996409335727 130:0.0017953321364452424 131:0.0017953321364452424 132:0.003590664272890485 133:0.0 134:0.0 135:0.003590664272890485 136:0.0 137:0.008976660682226212 138:0.0 139:0.0 140:0.0 141:0.0 142:0.019748653500897665 143:0.005385996409335727 144:0.0 145:0.0 146:0.0 147:0.0 148:0.0 149:0.003590664272890485 150:0.0 151:0.0 152:0.0017953321364452424 153:0.0017953321364452424 154:0.0 155:0.0 156:0.0 157:0.0 158:0.008976660682226212 159:0.005385996409335727 160:0.0 
1.0 1:0.0 2:0.020642201834862386 3:0.0 4:0.0 5:0.0 6:0.0 7:0.0022935779816513763 8:0.016055045871559634 9:0.0 10:0.0 11:0.0 12:0.0 13:0.0 14:0.0045871559633027525 15:0.0022935779816513763 16:0.0 17:0.0 18:0.0 19:0.0 20:0.0 21:0.0 22:0.0022935779816513763 23:0.0 24:0.0022935779816513763 25:0.0 26:0.0 27:0.011467889908256881 28:0.0 29:0.0 30:0.0022935779816513763 31:0.0 32:0.0 33:0.0045871559633027525 34:0.0 35:0.0 36:0.0045871559633027525 37:0.0022935779816513763 38:0.0 39:0.0 40:0.0 41:0.0022935779816513763 42:0.0 43:0.0 44:0.0 45:0.0 46:0.006880733944954129 47:0.016055045871559634 48:0.0 49:0.0 50:0.0 51:0.0 52:0.0 53:0.0022935779816513763 54:0.0 55:0.0 56:0.0 57:0.0 58:0.0 59:0.0 60:0.011467889908256881 61:0.0022935779816513763 62:0.0 63:0.0 64:0.0022935779816513763 65:0.0022935779816513763 66:0.0 67:0.0022935779816513763 68:0.0045871559633027525 69:0.0 70:0.6651376146788991 71:0.0 72:0.0 73:0.0 74:0.0 75:0.009174311926605505 76:0.0045871559633027525 77:0.0045871559633027525 78:0.0 79:0.0045871559633027525 80:0.0 81:0.0 82:0.0 83:0.0022935779816513763 84:0.0 85:0.0 86:0.0022935779816513763 87:0.011467889908256881 88:0.0 89:0.0022935779816513763 90:0.0 91:0.0 92:0.0 93:0.0 94:0.0 95:0.0 96:0.0 97:0.0 98:0.0 99:0.0 100:0.0022935779816513763 101:0.0 102:0.0 103:0.0 104:0.0 105:0.0 106:0.0 107:0.0022935779816513763 108:0.0 109:0.006880733944954129 110:0.0 111:0.0 112:0.0 113:0.0022935779816513763 114:0.0 115:0.0 116:0.0 117:0.009174311926605505 118:0.0 119:0.0 120:0.0045871559633027525 121:0.0022935779816513763 122:0.006880733944954129 123:0.0 124:0.0 125:0.0 126:0.0045871559633027525 127:0.0 128:0.06422018348623854 129:0.006880733944954129 130:0.0 131:0.0 132:0.0 133:0.0 134:0.0 135:0.0022935779816513763 136:0.0 137:0.01834862385321101 138:0.0 139:0.0 140:0.0 141:0.0 142:0.013761467889908258 143:0.0022935779816513763 144:0.0 145:0.0 146:0.0 147:0.0 148:0.0 149:0.0022935779816513763 150:0.0 151:0.0 152:0.0022935779816513763 153:0.0 154:0.0 155:0.0 156:0.0 157:0.0022935779816513763 158:0.0045871559633027525 159:0.0045871559633027525 160:0.0 
1.0 1:0.0019723865877712033 2:0.01972386587771203 3:0.0 4:0.0 5:0.0 6:0.0 7:0.0019723865877712033 8:0.011834319526627219 9:0.0 10:0.0 11:0.0 12:0.0 13:0.0 14:0.0039447731755424065 15:0.0019723865877712033 16:0.0 17:0.0 18:0.0 19:0.0 20:0.0 21:0.0 22:0.0019723865877712033 23:0.0 24:0.0039447731755424065 25:0.0 26:0.0 27:0.009861932938856016 28:0.0 29:0.0 30:0.0039447731755424065 31:0.0 32:0.0 33:0.005917159763313609 34:0.0 35:0.0 36:0.0039447731755424065 37:0.0019723865877712033 38:0.0 39:0.0 40:0.0 41:0.0019723865877712033 42:0.0 43:0.0 44:0.0 45:0.0 46:0.005917159763313609 47:0.013806706114398421 48:0.0 49:0.0 50:0.0 51:0.0 52:0.0 53:0.0019723865877712033 54:0.0 55:0.0 56:0.0 57:0.0 58:0.0 59:0.0 60:0.009861932938856016 61:0.0019723865877712033 62:0.0 63:0.0 64:0.0019723865877712033 65:0.0019723865877712033 66:0.0 67:0.0019723865877712033 68:0.0039447731755424065 69:0.0 70:0.7041420118343196 71:0.0 72:0.0 73:0.0 74:0.0 75:0.007889546351084813 76:0.0039447731755424065 77:0.0039447731755424065 78:0.0 79:0.0039447731755424065 80:0.0 81:0.0 82:0.0 83:0.0 84:0.0 85:0.0 86:0.0019723865877712033 87:0.011834319526627219 88:0.0 89:0.0019723865877712033 90:0.0 91:0.0 92:0.0 93:0.0 94:0.0 95:0.0 96:0.0 97:0.0 98:0.0019723865877712033 99:0.0 100:0.0 101:0.0 102:0.0 103:0.0 104:0.0 105:0.0 106:0.0 107:0.0019723865877712033 108:0.0 109:0.005917159763313609 110:0.0 111:0.0 112:0.0 113:0.0019723865877712033 114:0.0 115:0.0 116:0.0 117:0.005917159763313609 118:0.0 119:0.0 120:0.0019723865877712033 121:0.0019723865877712033 122:0.0039447731755424065 123:0.0 124:0.0 125:0.0 126:0.0039447731755424065 127:0.0 128:0.05917159763313609 129:0.005917159763313609 130:0.0 131:0.0 132:0.0 133:0.0 134:0.0 135:0.0019723865877712033 136:0.0019723865877712033 137:0.015779092702169626 138:0.0 139:0.0 140:0.0 141:0.0 142:0.011834319526627219 143:0.0019723865877712033 144:0.0 145:0.0 146:0.0 147:0.0 148:0.0 149:0.0019723865877712033 150:0.0 151:0.0 152:0.0019723865877712033 153:0.0 154:0.0 155:0.0 156:0.0 157:0.0019723865877712033 158:0.0039447731755424065 159:0.0039447731755424065 160:0.0 
1.0 1:0.0 2:0.004048582995951417 3:0.004048582995951417 4:0.0 5:0.0 6:0.0 7:0.0 8:0.008097165991902834 9:0.0 10:0.0 11:0.0 12:0.0 13:0.0 14:0.0 15:0.004048582995951417 16:0.0 17:0.0 18:0.0 19:0.0 20:0.0 21:0.0 22:0.004048582995951417 23:0.0 24:0.008097165991902834 25:0.0 26:0.004048582995951417 27:0.008097165991902834 28:0.0 29:0.0 30:0.0 31:0.0 32:0.0 33:0.0 34:0.0 35:0.0 36:0.0 37:0.004048582995951417 38:0.0 39:0.0 40:0.0 41:0.0 42:0.0 43:0.0 44:0.0 45:0.0 46:0.0 47:0.004048582995951417 48:0.0 49:0.0 50:0.0 51:0.0 52:0.0 53:0.0 54:0.0 55:0.0 56:0.0 57:0.0 58:0.0 59:0.004048582995951417 60:0.0 61:0.0 62:0.0 63:0.0 64:0.0 65:0.0 66:0.0 67:0.0 68:0.0 69:0.0 70:0.8016194331983806 71:0.0 72:0.0 73:0.0 74:0.0 75:0.0 76:0.0 77:0.0 78:0.0 79:0.008097165991902834 80:0.0 81:0.0 82:0.0 83:0.0 84:0.0 85:0.0 86:0.0 87:0.004048582995951417 88:0.0 89:0.004048582995951417 90:0.0 91:0.0 92:0.0 93:0.004048582995951417 94:0.004048582995951417 95:0.008097165991902834 96:0.0 97:0.0 98:0.0 99:0.0 100:0.004048582995951417 101:0.0 102:0.0 103:0.0 104:0.0 105:0.0 106:0.0 107:0.0 108:0.0 109:0.0 110:0.0 111:0.012145748987854251 112:0.0 113:0.0 114:0.004048582995951417 115:0.0 116:0.0 117:0.0 118:0.0 119:0.0 120:0.0 121:0.012145748987854251 122:0.008097165991902834 123:0.0 124:0.0 125:0.0 126:0.0 127:0.0 128:0.0 129:0.004048582995951417 130:0.004048582995951417 131:0.0 132:0.004048582995951417 133:0.0 134:0.0 135:0.0 136:0.0 137:0.004048582995951417 138:0.0 139:0.0 140:0.0 141:0.0 142:0.008097165991902834 143:0.004048582995951417 144:0.0 145:0.0 146:0.0 147:0.0 148:0.0 149:0.004048582995951417 150:0.0 151:0.0 152:0.004048582995951417 153:0.0 154:0.008097165991902834 155:0.0 156:0.0 157:0.0 158:0.016194331983805668 159:0.008097165991902834 160:0.0 
1.0 1:0.0 2:0.024390243902439025 3:0.0 4:0.0 5:0.0 6:0.0 7:0.0 8:0.016260162601626018 9:0.0020325203252032522 10:0.0 11:0.0 12:0.0 13:0.0 14:0.0040650406504065045 15:0.0 16:0.0 17:0.0 18:0.0 19:0.0 20:0.0 21:0.0 22:0.0040650406504065045 23:0.0020325203252032522 24:0.0 25:0.0 26:0.0020325203252032522 27:0.0020325203252032522 28:0.0 29:0.0 30:0.0040650406504065045 31:0.0 32:0.0 33:0.0020325203252032522 34:0.0 35:0.0 36:0.0020325203252032522 37:0.0020325203252032522 38:0.0 39:0.0 40:0.0 41:0.0 42:0.0 43:0.0 44:0.0 45:0.0020325203252032522 46:0.0 47:0.01016260162601626 48:0.0 49:0.0 50:0.0 51:0.0 52:0.0 53:0.0040650406504065045 54:0.0 55:0.0 56:0.0 57:0.0 58:0.0 59:0.0 60:0.012195121951219513 61:0.006097560975609756 62:0.0 63:0.0020325203252032522 64:0.0 65:0.0020325203252032522 66:0.0 67:0.0 68:0.0 69:0.0040650406504065045 70:0.733739837398374 71:0.0 72:0.0 73:0.0020325203252032522 74:0.0 75:0.0 76:0.0020325203252032522 77:0.0040650406504065045 78:0.0 79:0.0020325203252032522 80:0.0020325203252032522 81:0.0 82:0.0 83:0.0 84:0.0 85:0.0020325203252032522 86:0.0 87:0.0020325203252032522 88:0.0 89:0.0040650406504065045 90:0.0 91:0.0 92:0.0020325203252032522 93:0.0040650406504065045 94:0.0 95:0.0 96:0.0 97:0.0 98:0.0 99:0.0 100:0.006097560975609756 101:0.0 102:0.0 103:0.0 104:0.0 105:0.0 106:0.0 107:0.006097560975609756 108:0.0 109:0.0 110:0.0 111:0.0020325203252032522 112:0.0 113:0.0040650406504065045 114:0.0020325203252032522 115:0.0 116:0.0 117:0.0020325203252032522 118:0.0 119:0.0 120:0.0 121:0.0020325203252032522 122:0.008130081300813009 123:0.0 124:0.0020325203252032522 125:0.0 126:0.0 127:0.0 128:0.06504065040650407 129:0.0 130:0.0 131:0.006097560975609756 132:0.0 133:0.0 134:0.0 135:0.0020325203252032522 136:0.0020325203252032522 137:0.0 138:0.0 139:0.0 140:0.0 141:0.0 142:0.0 143:0.0 144:0.0 145:0.0 146:0.0 147:0.0 148:0.0 149:0.0 150:0.0 151:0.0 152:0.0 153:0.0 154:0.0020325203252032522 155:0.0 156:0.0 157:0.0 158:0.014227642276422764 159:0.0040650406504065045 160:0.0 
1.0 1:0.0 2:0.0029069767441860465 3:0.0029069767441860465 4:0.0 5:0.0 6:0.0 7:0.0 8:0.005813953488372093 9:0.0 10:0.0 11:0.0 12:0.0 13:0.0029069767441860465 14:0.0029069767441860465 15:0.0029069767441860465 16:0.0029069767441860465 17:0.0 18:0.0 19:0.0 20:0.0 21:0.0 22:0.0 23:0.0 24:0.0 25:0.0029069767441860465 26:0.0 27:0.0 28:0.0 29:0.0 30:0.0029069767441860465 31:0.0 32:0.0 33:0.0 34:0.0 35:0.0 36:0.0029069767441860465 37:0.0 38:0.0 39:0.0 40:0.0 41:0.0 42:0.0 43:0.0 44:0.0 45:0.0 46:0.0 47:0.0029069767441860465 48:0.0 49:0.0 50:0.0 51:0.0 52:0.0 53:0.0 54:0.0 55:0.0 56:0.0 57:0.0 58:0.0 59:0.0 60:0.0029069767441860465 61:0.0 62:0.0 63:0.0 64:0.0029069767441860465 65:0.0 66:0.0 67:0.0 68:0.0 69:0.0 70:0.7936046511627907 71:0.0029069767441860465 72:0.0 73:0.0029069767441860465 74:0.0 75:0.0 76:0.0 77:0.0 78:0.0 79:0.0029069767441860465 80:0.005813953488372093 81:0.0 82:0.0 83:0.0 84:0.0 85:0.0 86:0.0029069767441860465 87:0.005813953488372093 88:0.0 89:0.0 90:0.0 91:0.0 92:0.0 93:0.0 94:0.0 95:0.0 96:0.0 97:0.0 98:0.0 99:0.0 100:0.0 101:0.0 102:0.0 103:0.0 104:0.0 105:0.0 106:0.0 107:0.0 108:0.0 109:0.0 110:0.0 111:0.0 112:0.0 113:0.005813953488372093 114:0.0 115:0.0 116:0.0 117:0.0 118:0.0 119:0.0029069767441860465 120:0.0029069767441860465 121:0.005813953488372093 122:0.0029069767441860465 123:0.0 124:0.0 125:0.0 126:0.0 127:0.0 128:0.06976744186046512 129:0.0 130:0.0 131:0.0 132:0.0 133:0.0 134:0.0 135:0.0029069767441860465 136:0.0 137:0.014534883720930232 138:0.0 139:0.0 140:0.0 141:0.0 142:0.0029069767441860465 143:0.00872093023255814 144:0.0 145:0.0 146:0.0029069767441860465 147:0.0 148:0.0 149:0.0029069767441860465 150:0.0 151:0.0 152:0.0 153:0.0029069767441860465 154:0.0 155:0.0 156:0.0 157:0.0 158:0.0029069767441860465 159:0.011627906976744186 160:0.0 
1.0 1:0.0 2:0.012315270935960592 3:0.0024630541871921183 4:0.0 5:0.0 6:0.0 7:0.0 8:0.017241379310344827 9:0.0 10:0.0 11:0.0 12:0.0 13:0.0 14:0.0024630541871921183 15:0.0024630541871921183 16:0.0 17:0.0 18:0.0 19:0.0 20:0.0 21:0.0 22:0.0024630541871921183 23:0.0 24:0.0 25:0.0 26:0.0 27:0.0 28:0.0 29:0.0 30:0.0024630541871921183 31:0.0 32:0.0 33:0.0049261083743842365 34:0.0 35:0.0 36:0.0024630541871921183 37:0.0 38:0.0 39:0.0 40:0.0 41:0.0 42:0.0 43:0.0 44:0.0 45:0.0 46:0.007389162561576354 47:0.017241379310344827 48:0.0 49:0.0 50:0.0 51:0.0 52:0.0 53:0.0024630541871921183 54:0.0 55:0.0 56:0.0 57:0.0 58:0.0 59:0.0024630541871921183 60:0.0024630541871921183 61:0.0049261083743842365 62:0.0 63:0.0 64:0.0 65:0.0 66:0.0 67:0.0 68:0.0 69:0.0 70:0.7857142857142857 71:0.0 72:0.0 73:0.0 74:0.0 75:0.0 76:0.0 77:0.0 78:0.0 79:0.0 80:0.0 81:0.0 82:0.0 83:0.0 84:0.0 85:0.0024630541871921183 86:0.0024630541871921183 87:0.0049261083743842365 88:0.0 89:0.0 90:0.0 91:0.0 92:0.0 93:0.0 94:0.0 95:0.0 96:0.0 97:0.0 98:0.0 99:0.0 100:0.0 101:0.0 102:0.0 103:0.0 104:0.0 105:0.0 106:0.0 107:0.0 108:0.0 109:0.0049261083743842365 110:0.0 111:0.0 112:0.0 113:0.0024630541871921183 114:0.0024630541871921183 115:0.0 116:0.0 117:0.0024630541871921183 118:0.0 119:0.0 120:0.0024630541871921183 121:0.0 122:0.0049261083743842365 123:0.0 124:0.0 125:0.0 126:0.0049261083743842365 127:0.0 128:0.0665024630541872 129:0.0024630541871921183 130:0.0 131:0.0 132:0.0 133:0.0 134:0.0 135:0.0 136:0.0 137:0.0 138:0.0 139:0.0 140:0.0 141:0.0 142:0.007389162561576354 143:0.0 144:0.0 145:0.0 146:0.0 147:0.0 148:0.0 149:0.0024630541871921183 150:0.0 151:0.0 152:0.0 153:0.0 154:0.0024630541871921183 155:0.0 156:0.0 157:0.0 158:0.009852216748768473 159:0.0024630541871921183 160:0.0 
1.0 1:0.0 2:0.011811023622047244 3:0.0 4:0.0 5:0.0 6:0.0 7:0.0 8:0.003937007874015748 9:0.0 10:0.0 11:0.0 12:0.0 13:0.0 14:0.0 15:0.011811023622047244 16:0.003937007874015748 17:0.0 18:0.0 19:0.0 20:0.0 21:0.0 22:0.003937007874015748 23:0.0 24:0.003937007874015748 25:0.003937007874015748 26:0.0 27:0.0 28:0.0 29:0.0 30:0.0 31:0.0 32:0.0 33:0.0 34:0.0 35:0.0 36:0.0 37:0.0 38:0.0 39:0.0 40:0.0 41:0.0 42:0.0 43:0.0 44:0.0 45:0.0 46:0.003937007874015748 47:0.007874015748031496 48:0.0 49:0.0 50:0.0 51:0.0 52:0.0 53:0.0 54:0.0 55:0.0 56:0.0 57:0.0 58:0.0 59:0.003937007874015748 60:0.003937007874015748 61:0.0 62:0.0 63:0.0 64:0.0 65:0.0 66:0.003937007874015748 67:0.0 68:0.0 69:0.0 70:0.7992125984251969 71:0.0 72:0.0 73:0.003937007874015748 74:0.0 75:0.0 76:0.0 77:0.003937007874015748 78:0.0 79:0.007874015748031496 80:0.0 81:0.0 82:0.007874015748031496 83:0.0 84:0.0 85:0.0 86:0.0 87:0.0 88:0.0 89:0.0 90:0.0 91:0.0 92:0.0 93:0.003937007874015748 94:0.0 95:0.003937007874015748 96:0.007874015748031496 97:0.0 98:0.0 99:0.003937007874015748 100:0.011811023622047244 101:0.0 102:0.0 103:0.0 104:0.0 105:0.0 106:0.003937007874015748 107:0.007874015748031496 108:0.003937007874015748 109:0.003937007874015748 110:0.0 111:0.0 112:0.0 113:0.0 114:0.0 115:0.0 116:0.003937007874015748 117:0.0 118:0.0 119:0.0 120:0.007874015748031496 121:0.007874015748031496 122:0.011811023622047244 123:0.0 124:0.0 125:0.0 126:0.0 127:0.0 128:0.003937007874015748 129:0.0 130:0.0 131:0.0 132:0.0 133:0.0 134:0.0 135:0.003937007874015748 136:0.0 137:0.0 138:0.0 139:0.007874015748031496 140:0.0 141:0.0 142:0.0 143:0.0 144:0.0 145:0.0 146:0.003937007874015748 147:0.0 148:0.0 149:0.0 150:0.0 151:0.0 152:0.0 153:0.0 154:0.0 155:0.0 156:0.0 157:0.0 158:0.003937007874015748 159:0.003937007874015748 160:0.0 
1.0 1:0.0 2:0.04896421845574388 3:0.0018832391713747645 4:0.0 5:0.0018832391713747645 6:0.0018832391713747645 7:0.0 8:0.018832391713747645 9:0.0 10:0.0 11:0.0 12:0.0 13:0.0 14:0.0018832391713747645 15:0.003766478342749529 16:0.0018832391713747645 17:0.0 18:0.0 19:0.0 20:0.0 21:0.0 22:0.005649717514124294 23:0.0 24:0.005649717514124294 25:0.0018832391713747645 26:0.0018832391713747645 27:0.003766478342749529 28:0.0 29:0.0018832391713747645 30:0.005649717514124294 31:0.0 32:0.0 33:0.003766478342749529 34:0.0 35:0.0 36:0.005649717514124294 37:0.009416195856873822 38:0.0 39:0.0 40:0.0 41:0.0 42:0.0 43:0.0 44:0.0 45:0.0 46:0.005649717514124294 47:0.011299435028248588 48:0.0 49:0.0 50:0.0 51:0.0 52:0.0 53:0.0 54:0.0 55:0.0 56:0.0 57:0.0 58:0.0 59:0.0 60:0.018832391713747645 61:0.007532956685499058 62:0.0 63:0.0018832391713747645 64:0.0 65:0.0 66:0.003766478342749529 67:0.0 68:0.0018832391713747645 69:0.0 70:0.5103578154425612 71:0.0018832391713747645 72:0.0 73:0.007532956685499058 74:0.0 75:0.0018832391713747645 76:0.0 77:0.003766478342749529 78:0.0 79:0.003766478342749529 80:0.0 81:0.0 82:0.0018832391713747645 83:0.0 84:0.0 85:0.0 86:0.0018832391713747645 87:0.0 88:0.0 89:0.003766478342749529 90:0.0 91:0.0 92:0.0018832391713747645 93:0.003766478342749529 94:0.0018832391713747645 95:0.0018832391713747645 96:0.0 97:0.0 98:0.0 99:0.0 100:0.007532956685499058 101:0.0 102:0.0 103:0.0 104:0.0 105:0.0 106:0.0 107:0.003766478342749529 108:0.0 109:0.003766478342749529 110:0.0 111:0.0 112:0.0 113:0.011299435028248588 114:0.0 115:0.0 116:0.0 117:0.0018832391713747645 118:0.0 119:0.0 120:0.0018832391713747645 121:0.003766478342749529 122:0.005649717514124294 123:0.0 124:0.0018832391713747645 125:0.0 126:0.0 127:0.0 128:0.1487758945386064 129:0.007532956685499058 130:0.0 131:0.0018832391713747645 132:0.0018832391713747645 133:0.0 134:0.0 135:0.0 136:0.003766478342749529 137:0.003766478342749529 138:0.0 139:0.0 140:0.0 141:0.0 142:0.007532956685499058 143:0.005649717514124294 144:0.0 145:0.0 146:0.0 147:0.0 148:0.0 149:0.003766478342749529 150:0.0 151:0.0 152:0.005649717514124294 153:0.0018832391713747645 154:0.0018832391713747645 155:0.0 156:0.0 157:0.003766478342749529 158:0.02448210922787194 159:0.013182674199623353 160:0.0 
1.0 1:0.0 2:0.015527950310559006 3:0.0 4:0.0 5:0.009316770186335404 6:0.0 7:0.0 8:0.0 9:0.0 10:0.0 11:0.0 12:0.0 13:0.0 14:0.0 15:0.009316770186335404 16:0.0 17:0.0 18:0.0 19:0.0 20:0.0 21:0.0 22:0.012422360248447204 23:0.0 24:0.0 25:0.003105590062111801 26:0.0 27:0.006211180124223602 28:0.0 29:0.0 30:0.0 31:0.0 32:0.0 33:0.012422360248447204 34:0.0 35:0.0 36:0.0 37:0.003105590062111801 38:0.0 39:0.0 40:0.0 41:0.003105590062111801 42:0.0 43:0.0 44:0.0 45:0.0 46:0.003105590062111801 47:0.003105590062111801 48:0.0 49:0.0 50:0.0 51:0.0 52:0.0 53:0.003105590062111801 54:0.0 55:0.0 56:0.0 57:0.0 58:0.0 59:0.0 60:0.003105590062111801 61:0.003105590062111801 62:0.0 63:0.0 64:0.0 65:0.003105590062111801 66:0.0 67:0.003105590062111801 68:0.003105590062111801 69:0.0 70:0.7391304347826086 71:0.0 72:0.0 73:0.003105590062111801 74:0.0 75:0.0 76:0.0 77:0.0 78:0.0 79:0.003105590062111801 80:0.0 81:0.0 82:0.0 83:0.0 84:0.0 85:0.0 86:0.0 87:0.0 88:0.0 89:0.0 90:0.0 91:0.0 92:0.0 93:0.0 94:0.009316770186335404 95:0.006211180124223602 96:0.0 97:0.0 98:0.0 99:0.003105590062111801 100:0.0 101:0.0 102:0.0 103:0.0 104:0.0 105:0.0 106:0.0 107:0.0 108:0.0 109:0.0 110:0.0 111:0.0 112:0.0 113:0.006211180124223602 114:0.0 115:0.0 116:0.0 117:0.006211180124223602 118:0.0 119:0.006211180124223602 120:0.0 121:0.003105590062111801 122:0.0 123:0.0 124:0.0 125:0.0 126:0.003105590062111801 127:0.0 128:0.06832298136645963 129:0.0 130:0.003105590062111801 131:0.0 132:0.0 133:0.0 134:0.0 135:0.0 136:0.0 137:0.009316770186335404 138:0.0 139:0.0 140:0.0 141:0.0 142:0.0 143:0.003105590062111801 144:0.0 145:0.0 146:0.0 147:0.0 148:0.0 149:0.003105590062111801 150:0.0 151:0.0 152:0.0 153:0.0 154:0.003105590062111801 155:0.0 156:0.0 157:0.003105590062111801 158:0.012422360248447204 159:0.006211180124223602 160:0.0 
1.0 1:0.0 2:0.011811023622047244 3:0.0 4:0.0 5:0.0 6:0.0 7:0.0 8:0.003937007874015748 9:0.0 10:0.0 11:0.0 12:0.0 13:0.0 14:0.0 15:0.011811023622047244 16:0.003937007874015748 17:0.0 18:0.0 19:0.0 20:0.0 21:0.0 22:0.003937007874015748 23:0.0 24:0.003937007874015748 25:0.003937007874015748 26:0.0 27:0.0 28:0.0 29:0.0 30:0.003937007874015748 31:0.0 32:0.0 33:0.0 34:0.0 35:0.0 36:0.0 37:0.0 38:0.0 39:0.0 40:0.0 41:0.0 42:0.0 43:0.0 44:0.0 45:0.0 46:0.003937007874015748 47:0.007874015748031496 48:0.0 49:0.0 50:0.0 51:0.0 52:0.0 53:0.003937007874015748 54:0.0 55:0.0 56:0.0 57:0.0 58:0.0 59:0.003937007874015748 60:0.003937007874015748 61:0.0 62:0.0 63:0.0 64:0.0 65:0.0 66:0.003937007874015748 67:0.0 68:0.003937007874015748 69:0.003937007874015748 70:0.7795275590551181 71:0.0 72:0.0 73:0.003937007874015748 74:0.0 75:0.0 76:0.0 77:0.003937007874015748 78:0.0 79:0.007874015748031496 80:0.0 81:0.0 82:0.007874015748031496 83:0.0 84:0.0 85:0.0 86:0.0 87:0.003937007874015748 88:0.0 89:0.0 90:0.0 91:0.0 92:0.0 93:0.003937007874015748 94:0.0 95:0.003937007874015748 96:0.003937007874015748 97:0.0 98:0.0 99:0.003937007874015748 100:0.011811023622047244 101:0.0 102:0.0 103:0.0 104:0.0 105:0.0 106:0.003937007874015748 107:0.007874015748031496 108:0.003937007874015748 109:0.003937007874015748 110:0.0 111:0.0 112:0.0 113:0.0 114:0.0 115:0.0 116:0.003937007874015748 117:0.0 118:0.0 119:0.0 120:0.007874015748031496 121:0.007874015748031496 122:0.011811023622047244 123:0.0 124:0.0 125:0.0 126:0.0 127:0.0 128:0.007874015748031496 129:0.0 130:0.0 131:0.0 132:0.0 133:0.0 134:0.0 135:0.003937007874015748 136:0.0 137:0.0 138:0.0 139:0.007874015748031496 140:0.0 141:0.0 142:0.0 143:0.0 144:0.0 145:0.0 146:0.0 147:0.0 148:0.0 149:0.0 150:0.0 151:0.0 152:0.0 153:0.0 154:0.0 155:0.0 156:0.0 157:0.0 158:0.003937007874015748 159:0.007874015748031496 160:0.0 
